encog,BasicNetwork,java,3.1.0,1,1392858491421
[BASIC]
[BASIC:PARAMS]
[BASIC:NETWORK]
beginTraining=0
connectionLimit=0
contextTargetOffset=0,0,0
contextTargetSize=0,0,0
endTraining=2
hasContext=f
inputCount=318
layerCounts=1,201,319
layerFeedCounts=1,200,318
layerContextCount=0,0,0
layerIndex=0,1,202
output=0.000000042,0.0000128702,1,0.7026250007,1,0,1,0,0.0059517339,0,0.0056744665,0.9999636003,0.9999230399,1,0.197037191,1,0.7983297391,1,1,1,1,0.747571325,0.9917615383,0.0072329436,0.076921002,0.2394043903,1,0,0.0060057415,0.0056830567,1,0.9964584274,0,0,0.4956868441,0.0414759832,0.9604696739,0,0.9940552234,0,1,0,0.2439154208,0.9998158819,0.1012569509,1,1,0.9999542465,0,0.0002405983,0.5866084781,1,0.2701801145,1,0.5516840906,1,1,0.6898830444,0.0000000029,0.9998831835,0.3354380099,0.997283495,0,1,1,0.302710736,0.0749663973,1,0.0009451234,0,0.9329769054,1,0.2709680024,0,1,1,1,0.0002684284,0.9895139679,0.0490790862,0.0000000018,0,0.0282255359,0,0.502309474,0.0997737903,1,0.0104984256,0.9940715111,1,1,0.0000135779,0.7294624079,0.9999987163,0.0590230271,1,0.1680090738,1,0.9798251352,0.9520613587,1,0.0140815164,0.0052758706,0.678800378,1,0.9993742599,0.9872448965,1,0.0427799027,1,1,0.0049768127,0.0533712265,0,0.9947138872,0,1,1,0.058882027,0.0016599436,0,0.6472524119,1,0,0.8384725724,0.9998034385,1,0.8660054195,0.0002094856,0,1,1,1,0.9979835992,0,0.0182304136,0.0124132437,1,1,1,1,1,0,1,1,0.7062974916,1,0.0277290108,1,0.0379232504,0.9998798927,0,0.9775324339,1,0.8688574944,1,0,1,0,0.0000000155,0,0,0.5502181991,0.9995409508,0.8236372073,0.7992835626,0,1,1,0.0153527516,1,0.6492173251,0.2796053756,1,1,1,0.0037753174,0,1,0.6136780625,1,0.9808841121,0.4764223654,0,1,1,1,1,0.0000356984,1,0.9997017477,0.1190903596,0.282128101,0.0025784188,1,0.236639659,1,0.0005895903,1,1,0.4274509038,1,0.01,0.01,0,0,0.01,0.01,0.01,0.01,0.01,0.01,0.01,0,0.01,0.01,0.01,0.01,0.01,0.01,0.0934871495,0.5466594107,0.01,0.5826927616,0.01,0.01,0,0.01,0.01,0.01,0,0.01,0,0.01,0.01,0,0.01,0.01,0,0.01,0,0,0,0.01,0.01,0.1608511578,0.99,0.99,0.01,0.01,0.01,0.01,0.01,0.01,0.01,0.01,0.01,0.01,0.01,0.01,0,0.5,0.2000006297,0,0,0,0,0.99,0.5222732585,0.01,0.99,0.01,0.5599887405,0.01,0.99,0.01,0.01,0.1048387097,0.01,0,0,0.01,0.01,0,0,0,0.01,0.01,0.01,0.6050367459,0.6112000283,0.6378379744,0.01,0.01,0.01,0.01,0.01,0.0139252333,0.01,0.01,0.01,0.01,0.01,0.01,0,0,0.01,0.01,0.01,0.01,0.01,0.01,0.01,0.01,0.01,0.01,0.0595702082,0.3366666667,0.01,0,0.01,0.01,0.01,0.01,0.01,0.01,0.01,0.01,0.01,0.01,0.01,0.01,0.01,0.01,0.01,0.01,0.01,0.5544444444,0.01,0.01,0.01,0.01,0.01,0.01,0.0466677803,0.01,0.01,0.01,0.1457352927,0.0287155329,0.6748325148,0.2794281518,0.0136147765,0.1813414369,0.15275752,0.01,0.0246787571,0.3366733129,0.01,0.99,0.0100794092,0.01,0.01,0.01,0.99,0.99,0,0.01,0,0.99,0,0,0.99,0.01,0.99,0.01,0,0.01,0.01,0.01,0.01,0.01,0.01,0.01,0.01,0.01,0.01,0.01,0.01,0.01,0.01,0.01,0,0.99,0,0,0,0.99,0,0,0,0.01,0.99,0.01,0.99,0,0,0,0.01,0.01,0.01,0.01,0.01,0.01,0.01,0.01,0,0,0,0,0,0,0,0,0,0,0,0,0,0,0,0,0,0,0,0,0,0.01,0,0.01,0.01,0.01,0,0.01,0.01,0.01,0.01,0.01,0.01,0.99,0.01,0.01,0.99,0.01,0.01,0.99,0.99,0.01,0.01,0.99,0.99,0.01,0.01,0,0,0,0,0.01,0.01,0.01,0.01,0.01,0.01,0.01,0.01,0.01,0.99,0.99,0,0.99,0.01,0.99,0.99,0.01,0.01,0.99,0.99,0,0.99,0.01,0.99,0.99,0.01,0.01,0.01,0.01,0.01,0,0,0.99,0.01,0.99,0.01,0.01,0.01,0.01,0.01,0.01,0,0.99,0.01,0.01,0.01,0,0.99,0.99,0.99,0.99,0.99,0.99,1
outputCount=1
weightIndex=0,201,64001
weights=##0
##double#64001
   8.858307768,-1.0851870021,5.0137481292,-0.9160158312,2353.2939713342,-1.0641194658,4218.933683134,2.4088988769,139.0659968466,0.7395859152,0.8392241117,0.490104295,-0.9310808822,-11.3493796274,-0.9705869145,-6.4836044215,-0.9344528571,-1.0999429133,-0.9598974356,-1.0045230371,3.346977766,1.784561359,1.6915332911,-5.7754370199,2.6426454731,-0.9689453172,0.0430739055,3.9495134759,2.892104815,-0.9674579687,2.5674124894,2972.5392741245,6407.6779436213,2.1630306764,-7.7837025541,3.0534311953,996.8326941126,5.6576236032,296.1675457441,-1.0492807829,425.0645886287,2.8931747605,2.0879548405,3.5176075583,-1.0655317413,-1.0852226491,2.4231783871,458.3117637867,3.3760299094,4.7020294322,-1.0023165645,-19.2864208438,-0.9618647146,2.4873519151,-0.9601666041,-0.9223960718,5.9136398775,-2.6881003106,2.1450986835,0.992136103,1.4859379928,9.1204003327,-0.9656015519,-0.9453952076,1.9286830501,1.9364673856,-1.0883051758,2.7802130888,1514.5945822756,2.4195105463,-0.88371157,3.9105297422,8469.9592495863,-1.0197057702,-0.9561841578,-0.9635263458,-11.0547390954,2.1114702055,1.6093297751,-2.3823907761,3446.306849608,2.5242796361,-7.1164551058,2.5349939599,2.6321226082,-0.9614497044,3.7999317556,2.4381333594,-0.9540596217,-0.9356270618,-5.1001289847,-5.8147145328,2.658239114,3.1677129183,-1.0350277504,2.4669158124,-1.0906370508,1.9256213879,2.7932739041,-1.0290399649,1.1641071115,1.8022090638,-9.049280957,-1.0080663908,3.3141177766,4.0495981356,-0.9704790367,-11.4506048602,-1.040259439,-0.8977253348,4.3118024431,2.7073779284,-0.6395191891,3.2500803413,22387.7009243198,-0.9688691668,-0.9366883265,1.9391899188,7.2550042739,6923.5281846909,2.2617892419,-0.9398235625,4804.4333674777,-7.3999618566,2.4873479553,-1.0498134855,4.8052796527,3.1854661223,-3.8676707671,-0.8843162143,-1.0355758795,-0.9586615118,1.8646911882,0.0372761259,3.8299456197,3.1965288421,-0.9463236997,-0.9952471832,-1.092554578,-1.0492185055,-0.9793949296,9168.16641695,-1.0498675935,-0.9176608003,2.4726417925,-0.9005955373,7.8267078243,-0.9074773764,-0.8698138087,3.4314292277,2902.0772186034,1.3969336218,-0.9870191329,1.7178780833,-0.9430090997,3.4911600308,-0.8989884309,0.6721712072,4.5081891486,7877.3412686691,3.0081466186,2.7688423955,0.7327254378,2.5236008449,1.5079999331,4399.4330317075,-1.0423497115,-0.9670603414,3.2427485382,-0.9277601454,1.492255848,2.9604222076,-0.992073882,-1.0962949072,-0.8878880593,3.8763667959,340.8150122363,-5.2418273476,2.1573473513,-0.9582019931,1.7781801382,3.3193379052,224.6806925381,-0.9785323064,-1.0774350809,-0.9822674055,-0.9507141112,-5.3296576177,-0.9125296003,2.28657483,-5.980458269,-11.5863483107,3.1382414589,-0.9896232999,2.721006979,-0.949112814,2.7561924347,-1.0659173001,-0.9018125224,-20.5554864273,-1.6956227877,-2.5316229653,2.641609478,0.0225555278,0.6250866511,-0.5554561161,-6.3102787869,-5.8144503951,-0.2216840637,0.3794911592,-0.0970266156,-0.6910849685,0.4668895277,0.5443721543,-0.7671602144,-0.0847905091,0.1000283341,0.2728330298,-0.182681984,-0.0889145265,0.0591261852,1.8782954704,0.2228492632,-0.4166966436,1.992061641,0.5749580076,-2.9303274414,-2.8631996422,-0.2664965895,0.6511663657,4.3422305088,0.0590325618,0.3047411365,7.293140931,0.1082775921,-2.049647626,3.1495686481,0.6903823545,1.5212739548,0.2251340153,0.5636064222,0.3983888327,-4.9845109326,7.1582091802,0.1700359593,-0.2440075639,0.1066902822,-0.2504351854,-0.1311823529,0.1210963383,-0.1231221252,0.8870636975,0.1344429724,-1.0682571805,-0.356246425,-0.8622102881,-0.1394106596,1.214987077,-2.179460686,0.1381214974,-0.9896804697,-0.3678092376,0.6523236467,0.6030224991,0.1215919478,0.575461254,-1.9970269501,0.0399837327,1.9256648785,0.2828267663,1.6891336812,-0.4019944586,0.3014366489,0.0999271856,1.7429248258,-0.2196727879,3.2858174119,0.0276888824,0.0517237614,0.372793513,0.7423015686,-1.3128211689,0.5977159676,0.2282775285,0.5356811805,2.4682942734,1.4415376956,-7.773254304,-0.2998327119,-7.4632856656,0.0954912471,-0.0158205426,-0.1091303976,6.1817601782,0.2285871397,15.6959972248,4.6161314956,0.0943073138,-0.2522955159,0.6646030739,-4.5818678649,-1.2445884255,5.9997124194,0.0357617028,0.4601669904,-5.2141894939,-3.2091814399,0.9923384521,0.1634580932,-3.3154967751,5.1315951554,-2.4252314359,-0.3039113405,1.6725034685,-2.2425717187,0.9203418724,0.3192365611,-3.4406585987,0.1569113121,-0.3015103752,-0.0431669187,3.5126026375,-0.0904254769,-0.5814238227,-0.3180380279,-1.0302473063,-0.2178187358,-0.0683716159,-2.7743344063,0.1956844139,-4.2211059667,1.1151723492,3.1874812671,0.0830194306,9.2515630871,-8.1644844708,-10.7020261546,0.237039011,-2.9733235269,3.515254446,-0.3337792089,0.487866418,0.8919218849,0.7652145386,-0.570168685,0.4406911737,-0.6955452484,0.3248723294,2.3179008874,0.3260452254,-0.8052641423,6.3489051996,-0.3577385579,0.2500355238,0.2855114742,-0.1900539516,0.1958608034,0.7440795978,0.3255055715,0.2538767123,0.4003210319,-1.447717367,-1.1908648709,-0.1680905694,0.3230330638,0.2047428229,-1.0821080361,0.6717433276,0.2482468464,0.689227404,0.6026334403,0.0954644002,-0.0034022166,0.0880427243,-1.9571501484,0.6418486715,-0.3297293549,-0.4174800234,-0.3678616373,-0.1866957763,0.2154115866,-0.1672286193,-0.2731554585,-0.275623304,-0.0313473837,0.0094353098,0.1534726962,-0.3210154292,-0.1166485206,0.1550540592,-0.4897870137,0.2113719762,0.1078784477,0.6691914633,0.0829964245,0.3183516036,0.1272964371,0.6172193232,0.0563281293,0.5103546629,0.2424515827,-0.0297777814,0.0671298677,0.1524873602,0.4280625782,0.0010618154,0.3317649235,0.1884831314,-0.1554757925,-0.2329196353,-0.3361378519,-0.584571267,-0.7916494858,-0.5824433945,-0.6456239535,0.2991404163,0.0029209982,0.4732729183,0.4308004397,0.1830017625,0.1033825605,0.2422213558,0.3486587419,0.2118917947,0.5916508222,0.2857543946,0.1891904792,0.0683648774,0.1382874905,0.3105138179,0.0690009431,0.3986500564,0.0085208796,0.1201598553,0.0326427514,0.6233067564,-0.3581032352,0.5195635976,0.001282112,0.2974070463,0.1087258403,0.5282159628,-0.1145034009,0.4214339572,0.0643182026,0.350944394,-0.4394598684,0.4418971922,0.2076148994,-0.0832030649,3.2383013846,-0.8496763501,-1.3776074152,-1.0486350804,0.0206635572,-0.2893795446,-0.9963967506,-1.1653193225,-0.1921447814,-0.2029622444,-1.1970597263,-1.1413423227,0.1861643702,0.6352064874,0.2092912657,0.3899637528,-0.1871256542,-0.489350799,0.0677717229,0.053539621,0.053813375,-0.1228233339,0.0731331486,0.0722600664,0.2165677619,-0.2601088474,0.0034057012,0.5188429007,-0.3333927442,-0.6763871433,-0.339575439,0.1086306563,-0.2528484999,1.8954756576,-0.3128848326,0.2906124215,0.3854437028,0.4955588734,0.185169827,0.0197514083,-0.0576165601,-0.4063626532,-0.2199365479,0.1601434229,0.1750851864,-0.3823612179,0.4282454019,0.3860416557,-0.042061307,-0.1101173926,0.1979711113,-0.2994127163,-0.4344254267,-1.9760117654,0.0986550073,-0.2592106271,-0.2621274909,0.1893399777,0.2384597826,-0.1139791685,-0.1426301432,0.0304642468,0.701004242,0.1161457568,0.2814779113,0.5657209243,0.0301839953,1.4561094292,-0.9133144754,-0.5959963712,33.4081666615,323.2079133352,0.0024255586,0.0004026261,64440.4956181858,74416.9806053309,0.2053665266,30790.8231440118,57481.1637386137,8985.7572223638,0.7729358586,0.3811615021,60846.9612180827,31070.9944691696,0.4153315877,0.5960128254,3.0507139673,53429.6311338965,0.4155959644,0.8402909792,0.5224694624,0.8810289497,0.2955462878,60108.7799650015,0.4899827687,12603.7494300131,2.8485350878,46.9967918509,0.6054347331,1.9616942125,0.4701100711,886.094893338,1.0392901017,0.062637993,1.4345821482,6799.9143500499,0.4791152464,156.8910144289,0.3876677911,0.0013841967,0.1827022292,129.8765645219,0.4709113433,121290.5119599333,120472.2978200185,78750.5920112709,41.9913988835,42437.3382602124,1.2954605432,16080.6870186787,2.0052631842,1.3270034324,1.0379779598,0.8427876895,0.8545619626,0.5593937578,0.4723175507,0.5697956665,0.253177737,0.4736204675,0.732110247,0.6294117989,0.1771743822,0.0654234944,0.5373206309,0.2743074456,0.7647802827,59726.1896771236,0.305794193,0.2504252214,290.2903963944,0.9797355818,13075.7918947918,1.2857272241,93000.7185552334,76125.1144983557,37249.3551924817,0.6842970698,0.6272190342,34207.1862550402,22.5335453976,0.2291074066,0.6872022049,0.429514751,8192.5595232294,0.5938220956,0.3132002456,0.5406439161,2838.2146034616,0.7868221465,0.4806489944,3.0829712406,0.4360997566,8628.8517179204,1.42132845,0.4501152882,1.8263434019,0.9389227695,3913.3223306331,1.4894857889,3.5095199886,0.6102272877,0.4560886542,0.1500064287,15246.5620249941,0.5476698233,1267.2053591408,13161.4484136494,54140.9717788446,28136.7191338887,0.6559362366,28339.5883868074,26621.6628415573,59.2574777585,4946.2731584384,106551.1741633594,1.8957887569,0.2625838453,1.1976062429,5.774659165,0.691477329,87111.1321522294,31528.9121731445,58667.2975102906,104568.5355449341,23754.3530587725,0.53296099,1.6683683388,3954.4014545167,6442.3873651378,7710.7501212356,0.2328359655,61204.1203893365,0.7713640604,0.6210951269,0.5549705057,1.3760457142,0.6505819892,144.2128725983,0.3940814505,1.9128877129,0.2247430363,0.3177916379,14240.7318930522,16273.566319679,2.4890770687,25568.268618542,1.0302496004,54272.5354158255,66804.6405163374,0.7704663129,1.872157021,2.9733978755,8.1318443698,0.3205086271,83567.8897909696,0.1409696689,0.1004107695,1.3206048631,0.3944604011,0.8101883733,0.453196354,85.1279087793,89.2462596019,0.1933848779,0.5194095867,0.4944752146,10.656791695,0.5880780447,0.3332108631,79854.9821390472,0.5765203615,79854.7534178403,0.4655184802,0.3948665188,0.4227138542,0.9203626932,0.9047615282,0.4484258551,0.8117582104,0.423451222,0.6020636819,0.4691429597,0.6585624482,0.4671734193,0.5559793998,0.7676297382,0.5000811063,0.8131494359,0.5932790773,0.0522006586,0.69700959,0.6335873826,0.1090024942,0.226440748,0.2658863571,0.4845411699,0.5453961109,0.6843895112,96450.0278805502,78775.1711687463,96450.1309463729,78775.4381019162,0.2386188564,0.1955560124,0.021230352,0.6960894757,0.7963109495,0.6137968475,0.8777980187,0.4778954728,0.5719629331,0.7641892341,0.4507077504,0.5698855014,0.4954537519,0.2943978133,0.3666173697,0.5596991272,0.0609850915,0.0189997231,0.1430105537,0.1891033619,0.2856430172,0.6600656063,0.1930469181,0.4428158068,0.4904557344,0.4999014657,0.3107137913,0.4667740785,0.5632881022,0.5184170362,0.686696765,0.0976960188,0.3982965236,0.1550724059,0.8568627668,1.5007794043,13.3698981445,0.2838230923,0.2644900588,0.4303773354,0.6619339597,0.7333930919,0.2887792765,0.1832411082,70651.2504719983,1.0399066013,0.4155078516,0.8809461281,1.0696800529,1.0251101963,33.4616307721,33.3047342819,0.8024259391,0.9113897961,0.9467713354,0.9647002797,0.383725122,0.200795914,0.0513338663,0.3950220647,0.2344099983,0.3337212106,0.8728658548,1.0564200505,0.6986636261,0.9032684261,0.7948165656,0.4352377429,0.7464157757,0.9245154923,0.6971210557,21321.3799046639,21321.3022509581,0.6557103011,56278.0348106193,152930.8515114501,71049.2690207339,28382.4177617396,0.1701920887,0.5110943589,4190.6629777173,0.7097896123,0.6327497464,0.3885618458,0.6878803048,4152.6294960928,0.768606296,1.0191946782,0.7820527025,0.469441671,0.9893602092,0.9954337008,0.1324107679,0.3441552479,79855.2486683787,0.7841823525,79854.8991794704,0.8463978263,0.8512729216,0.5291058099,0.1927201908,0.6257945298,0.8343806232,0.0692425223,103783.7261195884,0.2931129923,0.7072524439,0.6013656564,0.3014759704,64882.1952505291,108367.3507706753,0.7508747,1.0881723984,0.5973499789,0.7490450817,0.468198339,-0.0212466278,-2.4648137727,0.6840368804,0.0641255844,-0.6251598157,-2.7955179204,0.6071775744,0.3629386748,0.0822587498,0.6010960612,-0.2255710548,0.5876591221,3.0704155127,0.0852128976,-0.3968855032,0.8302623228,0.653854509,1.0160430972,-0.0933032668,0.1434644765,0.550142028,0.4168571292,-0.2980503104,0.0837614693,0.6828879319,2.3835692736,1.8288279871,-0.3053624542,0.4896937812,1.6912458151,0.1609961589,-0.0589139086,-3.5132825742,0.225418642,6.0606596638,5.1713642511,0.4491025931,3.4478702946,0.172468968,0.0776270973,0.2379877826,-1.5976264942,1.3831958309,-0.2228707584,0.0691482797,0.0067087405,-0.3482443148,0.2439206265,-0.1152751318,0.0663159686,-0.4871549434,-0.5893961358,-0.3127424228,-0.3087049449,-1.4648367269,0.2731032576,1.5533154096,-0.5393214413,0.3931149064,-4.6733812178,0.1065796163,0.7015638001,0.1133748167,0.2173504254,0.6588010594,4.6432890955,-0.2616414931,3.6959035599,0.2494458754,0.8290749519,-0.141014014,1.6452443672,-0.2614113406,-0.928292843,0.003168208,0.6844428767,0.2469142444,0.3392797995,0.2312842267,1.3669758621,-3.7591644068,0.1455046208,0.1138080516,0.4533306543,-2.5283825118,-1.7375772394,3.2639785899,-0.1070644403,-1.7486996165,-2.6686139111,0.3394698907,9.0229031743,9.2154802107,-0.3103280964,3.2088808616,-0.1856129805,-0.1735347911,-2.0713448516,6.1759870645,-0.2055126211,8.6097924148,1.0601763762,0.1238978084,0.1643843489,6.5368307484,1.3339034468,-5.403472636,-2.6040090053,1.8850702815,10.178253127,-4.6195860767,-3.3058387918,3.7856933315,-0.6660458909,-11.4554488238,0.0644741615,2.7809481904,0.1016964309,-0.6753588373,0.3057948939,-0.4842037934,-0.2123458577,2.0948132663,-2.7593263017,1.4352963109,-0.1224835757,0.1663570625,5.9972046921,-0.1595045529,-11.9408022137,0.2925426612,0.2050562098,0.0213569914,2.2413947196,-2.272535897,4.3878455459,-7.3818799946,-0.3352991765,6.3364584516,-0.1992329746,0.8943396422,-3.7097235444,0.5006420474,0.8127544313,-0.4009327514,-0.2204225522,0.4587331123,0.7570467749,-0.1103554055,-0.3018690072,-0.7954267351,-0.1520186831,1.5754779245,0.0881702025,-3.4200172282,0.1596239529,-1.3128587755,-0.1028727304,-0.894579336,-0.9053513392,-0.3446614586,0.0924783537,-0.2782114661,0.0800652445,0.121603886,-0.1956956802,0.2566759663,-0.0895452002,0.6159520308,0.1960227502,0.1221379272,-0.1966271928,-0.3283173016,-0.2887077171,0.466551871,0.2964526829,0.0468022241,-0.2336700969,-0.2082433085,0.0422980068,0.1074587658,-0.0614643868,0.1869551608,-0.3166306582,-0.0861694275,-0.3634326919,0.1013443685,0.3054952029,0.038732173,0.3033559281,0.489240724,-0.0348260479,0.3299077167,0.6996199164,0.0544693724,0.1648189396,0.1255841338,0.415452157,0.0335962067,-0.0094458031,-0.0807332159,-0.2864291742,-0.1731227719,0.6012293136,0.0055773,0.1854225835,-3.6743338273,-3.6272510274,0.8817634535,1.2795974601,1.0576101183,1.0791404757,0.8037577678,0.8295743287,0.109800354,0.3299100719,0.5959919543,0.3608753899,0.6870292116,0.0280269473,0.3991928526,0.5302287726,0.6816607186,0.3442802952,0.2857490977,0.5594399816,0.1656681775,0.2379050711,0.6146007364,0.3540575352,0.1053862051,0.3770982843,0.5921252224,0.4982691857,0.0986221187,-3.648935053,0.2077598458,-0.1472843942,0.34313911,0.1372209724,0.4483789779,-0.6236092359,0.1116908582,-0.4591770351,-0.3675216196,-0.0033262214,0.054876574,-0.2693913526,-3.4823838113,-75.8334026364,0.061980363,-0.0241199282,-0.3754840535,-0.2074902373,0.1482687249,0.3509511498,0.1331242533,-0.2971929222,0.2753174231,0.0761087766,-0.3562824543,0.3078700356,0.1587327968,0.6534432158,0.1078756569,-3.9418337386,-3.9309243289,-3.790912376,-3.4558253091,-3.4188055329,-3.5727790617,-3.4433855166,-3.3382297078,-0.6127711461,0.2484576966,0.1408250774,0.1871344403,0.2386762086,-1.0351959408,0.2463010023,-0.2720889281,-0.8703509626,-1.1003421399,-0.1979692256,-0.3416009657,0.7051358606,1.2676018065,-3.9238281754,-0.0122377592,0.5050826783,-3.652850524,-3.5706413671,-3.7781356622,-3.9129557127,-3.9001696177,0.6369955811,0.0229892437,-0.0612424729,0.0299264234,-0.16496265,-0.6384683283,-0.5862251204,0.030670297,0.1467936746,-0.4739794255,-0.2559436025,0.3763756873,0.2719220259,-0.370218607,-0.2731951145,-0.5766884538,0.2477659261,0.136680464,-0.2596812536,-0.3298725407,-0.0184631669,0.1517689063,-0.1437598169,-0.1144706823,33.8898643854,322.862248762,0.4442866791,0.3998220735,64440.3322722892,74416.6680391867,-0.0341757912,30790.5885807964,57481.1048813847,8985.3721594531,0.2719794641,0.2911024822,60846.6784164287,31070.2258807095,0.2803024705,0.3295160464,2.8413096712,53429.1987404517,0.4239493527,0.5375851809,0.0154238517,1.0340789298,0.3771961387,60108.5709345879,0.7085889791,12603.4505525543,2.887892198,46.4617627189,0.251472429,1.3872103221,0.3269164068,886.4073566955,1.1171972548,0.3951740052,1.1814051323,6799.8437769383,0.3112570954,156.7244363689,0.2436447107,0.1292518244,0.2536558718,129.0843915612,0.4120716881,121290.7447956801,120472.2442447544,78749.8578748437,41.791003288,42436.8888041416,0.5632202265,16080.1302188576,1.8089591036,0.7642235587,0.7425604373,0.3524658387,0.5951871261,0.4705221212,0.3911725977,0.5912865711,0.5370056829,0.2541168664,0.4517188843,0.4597303618,0.2372673676,0.1721672579,0.1239245373,0.3174710213,0.3898021921,59726.1484820765,0.5694026497,0.7414576906,290.0561692127,0.8287840073,13075.8068587036,0.9349893863,93000.8672871075,76124.6801743178,37249.7238800545,0.2171131141,0.5484645449,34207.322062918,21.8269348609,0.0465172894,0.0904832463,0.0727437914,8192.8451751414,0.0011196925,0.3228108964,0.6112506251,2838.4627316693,0.5952547565,0.397541284,2.7550932255,0.6274890153,8629.197896085,0.6438962171,0.2024762674,1.4121120546,0.5874282902,3912.57557423,1.2975669119,3.0583194858,0.1901753913,0.6599835174,0.2563661518,15246.7004408312,0.0382640389,1266.9140030342,13161.657539121,54140.3602432885,28136.729067594,0.4824169212,28339.0227973982,26621.9055881922,59.2652433653,4946.3135632319,106550.6448301176,1.7111923666,0.125447843,1.661723532,5.4127332322,0.811473861,87111.3913342307,31529.0997880524,58667.2949958451,104567.8164537549,23754.4701466044,0.4893929863,1.3919131619,3954.1684039136,6442.4745649512,7710.8135942432,0.5569351051,61204.143553352,0.7201495459,0.8595422576,0.5132631173,1.2555921129,0.231115925,144.4698752622,0.0535612925,1.7936588799,0.0253555582,0.431784389,14240.3287175241,16273.8148711571,2.8525116372,25568.0638972236,1.2287347132,54272.3303756232,66804.495371818,0.2870384129,1.3767097029,3.0044866894,8.0790257186,-0.0387427693,83567.7497614359,0.2279181273,0.4169732674,0.9280052652,0.4739154184,0.1302751557,0.0159620635,85.0850815941,89.3870238105,0.1975350405,0.4080695548,0.1753076346,10.5999787428,0.0107784553,0.086926211,79854.8009058452,0.2574689553,79854.5470926287,0.3865157135,0.620150197,0.5842601006,0.6032134801,0.6187952588,0.6561866534,0.4648297835,0.6556665488,0.3777444337,0.9687904869,0.9069721547,0.4792874205,0.4827187986,0.5250523062,0.6119809928,0.4544871156,0.8618076477,0.5740345952,0.6629435097,0.6636874312,0.1807858631,0.0959338876,0.1598095626,0.6237766515,0.6876420813,0.419667879,96449.6088650724,78775.0424668599,96449.8824296011,78774.6850551198,0.2078218701,0.153662568,0.278861869,0.2417689329,0.57520323,0.5585975185,0.5535650284,0.2960083741,0.4672126593,0.2614187225,0.3988403377,0.6504597729,0.2090422729,0.258562674,0.0764186559,0.5658806996,0.637898025,0.29665694,0.2038307864,0.0354379028,0.3367055772,0.1174105281,0.1016681533,0.186647805,0.6459476821,0.2406879428,0.6339015367,0.2475309706,0.4103115856,0.3703285405,0.6942308691,0.343414976,0.7161089042,0.0395435578,0.1525350188,1.1311141335,13.4399740594,0.5219901357,0.642685216,0.1998268941,0.58400015,0.6051440291,0.5938600419,0.308557762,70651.0529614539,0.2849287535,0.0258327923,0.9793384739,1.1507717443,1.3456231501,33.1482636435,33.0996122788,0.1558179706,0.5146747422,1.0536265328,0.866660081,0.4248132585,0.4878422716,0.1956474342,0.3772930162,0.234680632,0.0033262809,0.7680819842,0.8528203318,0.3760194694,0.5698622977,0.9124841796,0.9316721037,0.2680514025,0.9291877455,0.5719300124,21320.9504426046,21321.1839993422,0.3559810261,56278.065736114,152930.2246789486,71049.4658971862,28381.9717415326,0.1515251997,0.3591805146,4190.4456283507,0.1713131103,0.1069657667,0.5972524496,0.3271404014,4152.633684877,0.347883996,0.6730564216,0.6099991989,0.6779147862,0.2602101974,0.5402504346,0.1895271431,0.3913620434,79854.9735382357,0.0544261547,79854.7313200903,0.6835420177,0.5183949055,0.7430219283,0.3842750884,0.2993329021,0.0820683521,0.1704467633,103783.3206964552,0.7429262754,0.1705854729,0.2949644972,0.6816698107,64881.8178353695,108367.4380178066,0.1297184501,0.8192179369,0.097375748,0.1508933063,0.0295688108,7.4803688659,-324.876947045,0.4065932885,0.4540305371,-64441.3294746981,-74414.754371616,-11.9483644598,-30733.3881897203,-57439.6158864565,-8976.7296056691,-1.6547630157,0.3656260333,-60847.2834439209,-31071.3068476003,-1.2130342562,-1.7637726283,-4.4509267691,-53418.5312637374,-3.9749888744,1.392705663,-2.3040893325,5.2185537843,-1.3853532538,-60076.7698524065,0.0339675486,-12603.4267683201,-2.5619424247,-47.4312528147,0.0510609753,-0.6401574375,0.313525963,-886.2085880505,-1.002403532,0.6184435815,21.2214023487,-6799.4888280603,0.6379380281,-8.5939867666,0.1165669403,0.1786523763,0.5518726794,-129.3546499663,-1.2190185478,-121291.6042419289,-120473.0791489806,-78714.9000549022,-9.3506262117,-42437.544852695,-0.9363077947,-16131.3195343748,-3.8456505417,-1.072863824,-1.4839436124,-0.7796584116,-0.4975101964,-0.4889338043,-1.0718451196,-1.2714146601,0.3529136767,0.4505759477,-1.5066320702,0.1882093792,0.4070506554,0.6084716485,0.3887378926,0.8559339369,-1.7204623116,-59726.7663508098,-1.1521482713,-1.1683645182,1.9573592228,-1.1150080097,-13076.0229809335,-2.0959226061,-92997.4643080967,-75167.493599978,-37161.2850701716,0.0345700614,0.3483551166,-34206.0996837999,-20.6534480436,0.4628212057,0.1640226439,0.3095581558,-8199.5783062835,-2.4442918709,-1.3602815544,1.8076268003,-2741.5203205063,-1.3157987769,-1.5217153299,-2.5578318018,-1.4385770692,-8629.5818099025,-15.7463566626,-1.0162783628,-0.6600258174,-1.0945081917,-3925.4123088648,2.5848032036,4.1063219766,0.1326365898,0.5691657544,0.3757220706,-15243.5139760939,-0.641656677,-1265.2913138248,-13162.2521143119,-54142.0024909658,-28137.401900796,-1.3597720959,-28340.1319274531,-26460.3019726794,-57.3019221069,-4953.6414633815,-106552.0049514642,-1.5902599311,0.5952266239,-2.197884723,-6.1858799435,-1.4972516422,-87062.8652799861,-31477.7619314971,-58675.749768484,-104570.010052131,-23755.0618677835,-1.7415963655,-2.2605984722,-3955.5506095606,-6441.7833226474,-7716.0130705582,-9.2766813335,-61205.540552955,-3.460798253,1.9668427827,-1.187465145,-1.7234282353,-4.3565792463,-145.9092401729,-1.3225005326,-2.9821074081,-2.0841030281,-6.3590405671,-14245.6129489781,-16277.4801970773,-10.4270961927,-25571.5990698865,-2.8617243122,-54273.4446012035,-63747.1489575532,-2.297728027,9.2366944127,-6.6986118773,6.0796136834,-1.3915568009,-83568.5261956259,-2.5839900404,-1.3243339123,-3.2818763436,-2.5672535068,-0.5737921536,-1.1729000874,-85.7505018601,-89.9059171421,0.1381530397,-0.7333035421,0.0247015107,-11.7237041374,0.0332611267,0.2384691987,-75629.839404617,-0.7312014075,-75630.1159653831,-1.3689272431,0.3072422907,-1.6531584611,-1.7714599306,-1.360578982,-1.1292472461,-1.2938611521,-1.3465005864,-1.7061794432,-1.2690457767,-1.4561128008,-1.5125996358,-1.7421385967,-1.7612602862,-1.468871344,-1.487551342,-1.7859635889,0.7038362146,-1.68423955,0.1842590424,0.0315527462,0.079753641,-1.2802583219,0.0181222087,0.2362776666,0.5664710989,-96450.3553298058,-78776.203695018,-96450.7834714781,-78776.1448470623,0.0290715684,0.4159704504,0.342300342,-0.6592937751,-0.547783134,-0.4494219319,-0.8672635554,-0.7849276357,-0.3807780316,-0.8600579899,-0.2528940515,0.6903645956,0.4637443368,0.566896381,0.3484466419,0.3994973257,0.6830360159,0.3177445287,0.3939037152,0.5641254326,0.0089361342,0.4683451548,0.6900350402,0.2448234871,0.708689098,0.4051151904,0.4114113215,0.4806749181,0.4138336906,0.5662743227,0.0842413257,0.5134451253,-0.7584571159,0.6168777507,-1.2773629477,-0.5695544458,-13.6093785123,0.129236627,-1.2992357027,-0.8931388044,-0.9406447192,-0.5707727496,-1.4036815877,-0.6574137107,-70652.4290907237,-0.2908468815,-1.3511311912,0.2072640114,-1.0071743431,-0.8838107574,-5.803640056,-5.5231595531,0.6008479199,1.2129418005,-0.4763290539,-0.7795697356,-0.0230168362,-0.2535127541,0.6180307266,0.5208688295,0.5722492354,0.4205404516,-0.3436917123,-0.5635821063,-0.4021339966,-0.5710998685,-0.9001511655,-0.5111145978,-0.6923310756,-0.4122050282,-3.0435987807,-18559.0011725703,-18559.3113915607,0.2476991416,-56278.7555480416,-152931.1623028514,-71050.3423303105,-28383.2909201323,-2.5740563834,-4.4099736461,-4158.4076759769,-1.2306296302,0.6620177822,-1.7583064722,-0.5600799838,-2270.8229141445,-1.3762529587,-0.8288869411,-0.5391734909,-0.3214012339,-0.8258637565,-0.671650214,0.1912048061,0.4622192643,-75630.0212381773,-0.9873411478,-75629.9404894865,-1.2448454413,-1.2601964908,-1.2721830315,-0.9972098636,-0.9439197787,-1.3375652646,0.1451017848,-103784.6942026015,-1.0561374373,-0.8148058066,-0.7997103853,0.3544943265,-64882.9669419295,-106709.3555110968,-0.6977231942,-1.6883305808,-1.5057431645,-0.3887248895,-2.3932944474,33.9210421174,323.1910611322,0.1448401572,0.5122519982,64440.5321530279,74416.7119590521,0.0213810325,30791.2570984642,57481.0608851044,8985.5672781904,0.3269394424,0.6669235024,60847.1217803293,31070.4383405674,0.5425486569,1.0663359929,2.9512629104,53429.5966331855,0.7415621907,0.8165146693,0.1155726626,0.6293006926,0.3004388,60108.4698293702,0.1545960008,12603.6315129489,2.9430985271,46.8421304758,0.1998456473,1.6818675198,0.3022332858,886.7615913723,0.9429938553,0.5225112706,1.1498694442,6799.7576807452,0.6558300638,156.8239392273,0.2767072599,0.6545265996,0.032741254,129.2696658899,0.9384046091,121290.4639375844,120472.3296438173,78750.1522456541,42.0309767825,42436.8537537318,0.9922455313,16080.0553534712,2.4232499821,1.0918519596,0.6370731645,0.208903841,0.6328525659,0.4818504369,0.7373212283,0.7886367205,0.4283023293,0.180157606,0.4434231501,0.0903053308,0.5048112431,0.1185637814,0.6986881372,0.4879837234,0.5593428565,59726.0769144292,0.6617424352,0.8817228397,290.0901749962,0.7123168454,13075.7383328191,0.9165301909,93000.6338090604,76124.821111576,37249.8856674953,0.2312186735,0.1110259664,34207.5186690434,22.590512335,0.7044079484,0.2504405034,0.326910834,8192.7299327067,0.768344131,0.4856899548,0.6677580848,2838.0813394525,0.5493590897,0.6236733347,2.5292216824,0.5825210647,8629.2366765387,0.8931890013,0.769817174,1.4027110562,0.3484749363,3912.835306531,1.9599976812,3.3951855681,0.1825926154,0.0695367904,0.089239876,15246.7787167511,0.0964830238,1267.1050777751,13161.4133006113,54140.9736309235,28136.5129311677,0.3568475762,28339.3946778541,26621.5601384768,59.7003514562,4946.2976847196,106551.1766577451,2.1321022212,0.2470865688,1.6142628787,5.2375440618,0.7821063481,87111.5873088071,31529.091198068,58666.9431137044,104567.9183731004,23754.2392847987,0.6354887385,1.8137386834,3953.8436605985,6441.9840239042,7711.3379475225,0.3832848186,61204.4305403023,1.2033628056,0.8965898387,0.3870472676,0.9497682087,0.3131811919,144.6554798027,0.639012597,1.6209899847,0.3673121145,0.5219847508,14240.5819895508,16273.9359307983,3.0032372688,25568.2784458572,1.2821382548,54272.3710968529,66804.5418268554,0.801228075,1.6921990219,2.9343457627,8.0216830217,0.7054188887,83568.2676699657,0.6852017606,0.1044360629,1.2138020711,0.8176801531,0.4837974272,0.3135566593,84.8641854979,89.0864848821,0.5063898284,0.234611202,0.080174281,10.6797090329,0.5604558877,0.5979792839,79854.8117319739,0.5228005049,79854.9115860174,0.7749145562,0.1305439293,0.7764023845,0.6882050837,0.9404182556,0.7712287197,0.8154056795,0.4292309981,1.0785442556,0.9629110848,0.8512885266,0.5319290052,0.830589929,1.0840227066,1.0635662521,0.7087044227,0.6096777732,0.1912494369,0.7535838706,0.0406626282,0.2008804761,0.5346332325,0.2944720931,0.3610370841,0.5358066153,0.2448399632,96449.712194312,78775.0635409387,96449.8433409496,78775.2753973686,0.0787383301,0.4803704195,0.328727017,0.7656731876,0.7586108478,0.4364505702,0.6046991613,0.8147983236,0.5761354028,0.5882050585,0.4458645769,0.36409928,0.0881690893,0.5998159308,0.6804855103,0.499241953,0.2329493918,0.2741818305,0.5645229136,0.4965691649,0.5819428127,0.3967714365,0.1804234123,0.1619327583,0.625264931,0.6702488771,0.6581671306,0.0265817755,0.0266354772,0.4395765129,0.5186470112,0.3815591265,0.3990277445,0.3355299582,0.3030978531,1.3519268848,13.0719669574,0.1799634186,0.2322885125,0.0939321687,0.2698170277,0.5889176459,0.8815644724,0.6874880267,70651.2136677991,0.8312987162,0.3170556137,1.4681612567,1.358401026
   1.2324496669,33.2630916845,33.7227191104,0.6276326925,0.2438176582,1.1291039965,0.6242888972,0.3826830779,0.7942788838,0.4302945639,0.4859923079,0.359238507,0.129399026,0.8089345244,1.0418213106,0.5708854129,0.46570081,0.3955885366,0.9706109714,0.9461396288,0.6421751177,0.494828442,21321.2002576735,21320.9932378018,0.5623862423,56278.1714041256,152930.9111556585,71049.1086636825,28381.9898164876,0.7139262073,0.7324881325,4190.9976844396,0.3947562055,0.1481890683,0.2520038215,0.4949827268,4152.6523630771,0.5957068429,0.953157516,0.7306579469,0.5557763912,0.8805731603,0.489576287,0.6151527574,0.0588135501,79855.3418627888,0.6318651081,79855.3697106881,0.6434589661,0.7918598434,0.7549621069,0.5185103707,0.6101739014,0.3077108508,0.2744045017,103783.5972838878,0.6304963381,0.4730584839,0.8587328802,0.4121105418,64881.8746991172,108367.4379534706,0.1228190033,0.6448413373,0.4558537707,0.6008319553,0.3375209421,-1.2459318481,-322.772697689,0.5405990322,0.1927264308,-64439.3717035729,-74417.6427990026,-10.4145476598,-30729.9311760519,-57446.4140866985,-8975.4538029806,0.0572272318,0.1396713844,-60843.3979834331,-31069.1659609661,-0.1338348892,-0.6717258281,5.8452244662,-53381.3125076,0.2367319948,-0.0786963477,0.5355314896,0.6605920841,-0.7741577286,-60648.4872058982,0.4969022447,-12603.2037537869,-2.8945530768,-46.2663475567,0.4306149068,-18.3011019236,0.6115910718,-352.3293843531,-1.1843650189,0.3071300056,-5.3018632288,-6799.2829850272,0.4311463757,-1.1291383337,0.3594392886,0.3408132492,0.6632445549,-131.0302764591,0.2232975111,-121290.8110400999,-120613.1654955375,-78693.9199616124,-2.9416796258,-42436.1647181996,-0.1793781679,-16064.9453850923,-0.3898562119,-1.5767256246,-0.266609597,-0.4358572506,-0.0923340941,-0.100732205,-0.1644310617,-1.2736559391,0.3674327553,-0.3914879789,-0.0744191987,0.3851705519,0.1279290691,0.463165458,0.0017760577,-1.270052264,-0.1316850469,-59733.8513235918,-0.5072901954,1.2853158077,0.0567798432,0.4677832227,-12013.6348235304,-1.1454042885,-92174.5993439039,-75049.8399369636,-37234.2392926882,0.0248420302,0.0106466911,-34206.739939944,-23.574575087,0.6900326101,0.3433275572,0.3956563046,-8190.9638478762,-0.0436207857,0.785767704,-0.5982648074,-2602.1116160881,-0.3214795513,-0.1490786478,-11.3470507893,0.0121709091,-8628.7535565025,0.2097804717,-2.8010068622,-0.4806257484,-0.2361858436,-3908.9663886708,-3.9425635742,-3.0115021203,-1.0442311508,0.2116645051,0.2631156737,-15250.4706322531,-0.6701118361,-1267.8232908917,-13161.3684929509,-54140.0130773251,-28134.1578766189,-1.0303371973,-28339.4029703854,-26443.0108579643,-62.8193053185,-4943.740799227,-107491.5162711926,-11.0034140281,0.6784642941,-6.1431127108,-5.1711040607,-0.2955422878,-86242.9642349742,-31425.6972883397,-58682.6235083707,-104567.9183488819,-23753.8881097169,0.1306449682,-1.5479821379,-3952.1558005261,-6439.7134295842,-7709.1715779977,-3.4255293858,-61203.815608368,-6.5156157609,-2.0518924046,-2.2051486695,-4.710914536,1.6681156547,-150.7142276116,0.1242199122,0.0959961959,-1.7204644481,1.6105648732,-14239.7297557354,-16267.5958362884,1.2486389003,-26500.1642224318,-2.878355287,-54271.8078474626,-61351.8560463941,-0.2195847373,-0.6261450125,0.4442430458,-0.120079843,0.2175909295,-83567.6753020843,-0.6621518272,-1.6696195191,-0.8652104701,1.369067446,0.1357222504,0.2078309732,-28.2063850375,-88.8202979773,0.6381643706,0.3993167885,0.6981954469,-3.6121651665,0.4052222462,0.3654291724,-64849.7579988631,-0.0029922307,-64849.4014699862,-0.3195479229,0.1487260498,-0.2421703607,-0.5617976982,-0.3139071909,-0.1955505149,0.0308652351,-0.1229677504,-0.0911197354,-0.331804578,-0.4947196287,-0.1585542746,-0.4575787421,0.0968658281,-0.1897616407,-0.1396990159,-0.1946522691,0.2981857401,-0.1547779421,0.3538156233,0.3161707562,0.3990943393,-0.1302792171,0.555811584,0.4351899056,0.1114664514,-95520.0414642522,-78774.9500349164,-95519.998565336,-78774.9517716869,0.6055590074,0.0818359305,0.2916515448,-0.6836296674,-0.050815186,-0.6829585514,-0.4191072981,-0.6225879908,-0.170881471,-0.5166161477,-0.5146968992,0.4829586071,0.4698259456,0.445031596,0.2866573041,0.6459600156,0.5399477948,0.6319615493,0.4910210145,0.6646412358,0.5286637753,0.4190136991,0.7066143095,0.4352946562,0.6909697434,0.0400908641,0.6423839854,0.637604956,0.5482507384,0.7065997011,0.3543526389,0.6616927954,-0.2115954953,0.5240731276,-0.4967949942,-0.2729747283,-12.7695426625,0.2069794466,-0.5611770502,-0.3992124902,-0.3319223594,-0.6671658049,-0.5894031922,-0.1575232346,-70651.2170066966,-0.7366860165,-35.4111950623,-0.1613659822,-0.0976007204,-0.3216197069,-8.0934000921,-8.3511557606,-0.806052607,-0.695709435,-0.163664253,-0.0925520061,-0.638686846,-0.6744252944,0.5276869989,0.6452013689,0.6572355599,0.1135764184,-0.2623227855,-0.5304668491,-0.5762837698,-0.5057604156,-0.0818727585,-0.3599091808,-0.423788469,-0.7302617835,1.4263310363,-6519.5530664434,-6519.287332476,0.1931617193,-56278.0807474255,-151259.820526085,-71049.2596665051,-27359.5228076554,3.7692856678,0.7411394661,-4140.9448911268,0.2803267091,0.6062306128,0.8775160472,-0.1937601603,-0.2035510349,-0.218571315,-0.0314539176,-0.6085926188,-0.1163093623,-0.4502530942,-0.3752237429,0.6656576204,0.4814386421,-64849.5303986244,-0.2414968084,-64849.4915368054,0.084034279,-0.5944786854,0.07447039,-0.5119114948,-0.4854878932,-0.1782670289,0.160490875,-100910.1043363932,-0.2264271143,0.040910756,0.0297087396,0.5485124753,-64881.9781355816,-100835.7877669597,-0.1955447028,-2.0111631643,0.6088754352,-0.3728313292,-1.4593657639,-0.0760523121,0.7996207914,0.4997016713,0.5714241493,-0.0600746878,-1.8361790864,14.2482504565,0.3453778895,-0.7870236505,0.3071695269,0.3423904267,0.2624324304,0.7776583894,-0.0820465895,-0.0294609671,0.2216450554,0.0297738374,-0.0248642307,7.0377835112,0.360003442,0.6559677783,0.3300678088,3.5039673431,-2.5255689132,0.5396260532,-1.7745184203,-6.4308246859,0.1806717487,0.0606085546,3.2729675869,0.673982742,-0.1693352651,8.1613304067,0.217621417,4.8339002119,4.5294323029,0.5155557258,1.7448311637,0.2201570368,0.0464429233,0.582878293,-0.0279697516,-2.5021252672,-0.1327481504,0.0649857628,0.3941136925,0.5487034822,-0.141966869,0.2559186461,-0.483873634,-0.4228262207,-1.8034612542,-2.1545399472,-1.9842647281,-1.59592828,-0.9929179939,-0.8733945307,3.9354531435,0.5577245063,-0.5811464501,1.4869345418,0.5684539558,0.4622816741,0.1437374879,0.2251080506,-1.3449996434,0.3025019917,5.9236663873,0.0375803021,-0.9346050934,0.139016047,1.3082184779,0.068561118,-7.5775728222,0.1034246285,1.888975174,-0.7940633214,0.451697719,0.6193256682,11.437713007,-1.0109294791,0.521887719,0.3002114185,0.5208221377,0.15567967,-3.5992681158,-0.1614504792,-2.4261197584,0.1024466375,0.014658601,-0.3584494903,-7.365415569,2.2779078242,0.2791093354,-6.6807255696,3.0437712507,-3.6876718376,0.2117976814,-3.2472777495,1.8898184955,9.1638164534,3.1069145751,0.2315677044,0.1808236739,-0.786231536,-1.4800021597,-1.5857041226,40.8965308257,12.1147294138,-19.3452266197,1.5208320096,-0.0338577478,0.4282182375,0.1952097174,1.4127513453,-0.0363421378,-1.43537832,0.0137505715,0.108545891,-0.2993068804,-2.5059104931,0.1641789431,-6.6564124601,8.8638050786,5.8715869263,0.2474224654,0.3233670606,0.3466631113,1.9556506072,0.3864013681,-2.9074972409,0.7688220797,-0.0952546824,-0.0941952125,-6.7375146415,-0.7652153809,-17.9415985757,1.2889576772,-6.959383779,-0.004251608,3.025974581,0.3259256307,6.4488093244,-10.4369668491,-24.4425900044,-12.8190193834,0.0685759034,-0.1863391075,-0.081929069,-0.2590198649,3.3482906202,0.3851024471,2.2013504333,0.1224641362,0.2660815672,0.0201811832,0.8276773526,-0.5449861772,-3.018411211,0.7126052106,0.9428301349,1.0990582024,0.1713344198,-0.1706472149,0.6129220035,1.2950863001,0.1313752257,0.2849457872,0.2006227007,0.0834181189,0.1939741978,0.1980613242,0.3364086432,0.0089868336,0.3670976384,0.0380349273,0.1466984782,0.1572071656,0.1499999481,0.2045824004,0.299929591,-0.1708281644,-0.2207512753,-0.1659446388,0.3238849917,-0.1279031768,0.3124895559,0.268686111,0.089173522,0.032318108,0.5923648036,0.1559542294,0.6496961133,0.2621370176,0.3008293257,0.0261626769,0.2561544091,0.1911081715,0.4301183603,0.2573067702,0.0698826011,-0.0037156612,0.2161951367,0.5876365989,0.6151092593,0.7008751096,0.5764935168,-0.0220410372,-0.5690081243,-0.7112660211,-0.5736252078,-0.4152075841,-0.6254764138,-0.6532004179,0.5185340344,0.233170527,0.5401155096,0.5003725193,0.1238588563,0.2910395823,0.2511250058,0.2570437772,0.1826776167,0.3325457362,0.183649056,0.0735950536,0.3858806142,0.3393225272,0.6859743147,0.6441948971,0.041842652,0.284780098,0.6639324204,0.0245832027,0.2970998418,0.1409079571,0.3355536797,2.3651821688,0.139920308,-0.3134215409,0.2211776792,-0.0778725573,-0.3169458465,-0.4603085659,-0.0560581703,-0.2405016864,-0.0320488073,0.2587351883,0.0210042984,-0.5316315216,-0.1126325626,0.145530706,0.1119778685,-0.0920479662,-0.2137646514,-0.6961881256,-0.31373027,-0.0957515557,0.0887180544,-0.3418220044,-0.3151696983,0.4920657292,0.1011155325,0.2869951388,0.4754507698,-0.0701869642,0.4993819084,0.1574649862,-0.0674781767,0.4844767507,0.0389387957,0.2330745697,0.1863280803,0.8181044273,-0.2692355464,-0.2464909982,0.3230093046,-0.3081870622,-0.133573015,0.1339612543,-0.0614200668,1.1059230059,-7.3916168877,-0.0284864718,0.0131688874,0.354912182,-4.4187213033,0.1564873325,0.1662670643,0.5214229202,0.3069332093,-0.1124906134,0.0482471977,0.1606230686,0.5675597622,0.5890587796,0.1838907966,-0.1691632027,-0.2272456219,-0.0992124103,-0.2778329539,-0.0312466598,0.3766691058,-0.1822190872,-0.0719083122,-0.124254454,0.5337592727,0.1974791077,0.0838042481,0.1927917587,-0.4651586785,0.6264930379,0.3259533345,-0.1594334867,0.1313332757,-0.4178799029,0.1397926668,-0.6256741378,-0.0023749274,-0.3678012117,-322.7312074261,0.5248352592,0.363879574,-64440.2502921964,-74416.44444075,-1.5863961783,-30733.3929812446,-57448.2497237212,-8977.1509291928,-0.3525024085,0.185124341,-60844.8218707525,-31069.9157401346,-0.147792908,0.0176002819,-3.7257756392,-53413.346248452,-0.4746798435,-0.2368492845,-0.0987209909,0.3621297279,-0.1618985417,-60075.8028655177,0.1829171912,-12603.0307605295,-2.2073054445,-46.4157211936,0.4329458195,0.6952830405,0.285514603,-884.8734589022,-0.4973500055,0.1489937118,2.8091660262,-6799.1811730709,0.0372654622,-1.8078841371,0.535616204,0.1179850136,0.0993465622,-129.4214441617,-0.2797638219,-121290.3465667873,-120472.5420105397,-78695.197686483,-1.940695906,-42436.3837350529,-0.2305947459,-16064.3072630288,-0.8000172605,-0.2320334035,-0.5355715119,-0.4587078988,-0.1453378565,0.0684405823,0.1201508066,-0.246184403,0.1674229087,0.1540463033,-0.4285212562,0.2598945788,0.5568840112,0.3394151527,0.4526597315,0.1615185156,-0.3367722173,-59726.250383531,-0.1551076523,-0.4542344635,-4.6656409753,-0.35266404,-13075.2339273984,-0.9660101858,-92996.2651466042,-75137.3775982013,-37250.2853153692,0.348364814,0.6300706985,-34205.8618034226,-21.7471659597,0.4491871718,0.3977319816,0.4129951758,-8193.2958344623,-0.6613328658,-0.4189084233,0.3002409399,-2635.0438172769,-0.0951049865,0.131446299,1.2504061047,-0.0861126391,-8628.7147423324,-1.314600285,-0.1507308801,0.2428214588,-0.2883617249,-3914.1770458095,1.1543153286,0.2952343682,0.0576098031,0.0347184497,0.4180594442,-15246.1745687404,-0.3803123131,-1266.4210771296,-13161.3094682038,-54140.6478194216,-28136.2826291452,-0.0981654829,-28338.954865625,-26616.028577032,-58.5305246033,-4947.4818171118,-106551.2638290094,-1.2186122315,0.6289000035,-0.9767772167,-4.9696770976,-0.6945719955,-87066.1217072533,-31429.0920347176,-58668.3202022596,-104568.3698101935,-23754.4043894662,-0.3855155729,-1.2271691957,-3953.9522985288,-6440.0451069841,-7711.14084024,-1.534019505,-61204.3809461716,-0.9630036258,-0.2359820046,-0.0893776093,-0.3394948313,-0.8189055889,-144.6996213379,-0.5514152422,-0.4153371572,-0.424373024,-0.779501466,-14240.5900579996,-16272.7436468192,-3.9213447187,-25568.5688727664,-0.2824686635,-54271.9401691752,-63760.5959744796,-0.4535825011,-0.6405463882,-0.8070830824,0.3213285837,-0.5050547153,-83567.9104237829,-0.1689581421,0.0470147933,-0.9589928396,-0.2319641058,-0.2026323298,0.1372384801,-84.5080206624,-88.9704383154,0.2507898004,-0.1619343729,0.613922128,-10.8403263228,0.4830356234,0.1890466099,-75630.8708878643,-0.1960767602,-75630.741879007,-0.2455048453,0.3139302655,0.0860952592,-0.3353218476,-0.4208812913,0.0164342986,-0.1557832684,-0.2040493221,0.1532077813,-0.4718575449,-0.3044957931,-0.1335895741,-0.0267762615,-0.5081184285,-0.3639872869,0.1047577502,-0.1883378879,0.3321466067,-0.3336507659,0.3904576813,0.414076269,0.4779283608,0.091744624,0.0419197454,0.407291848,0.5265546505,-96449.7450499487,-78775.2401427892,-96449.3575906877,-78774.6627172835,0.2041014034,0.6732927755,0.0169486581,0.425346218,0.372399835,0.1593637482,-0.0148971085,0.0219510592,0.0062098929,-0.2563638451,-0.0384679017,0.2823403849,0.2063407213,0.6745908364,0.5103549198,0.1285456224,0.32545942,0.4428367854,0.0988993608,0.5565366667,0.5443838227,0.2667838831,0.370201438,0.2924133649,0.623375745,0.5459857028,0.5230649485,0.321081293,0.356229951,0.0941964065,0.5794102607,0.295111492,-0.1037119446,0.1365592644,-0.2801343784,0.6716865593,-13.3334573793,0.6691370346,-0.2053054309,-0.4533131237,-0.4033894658,0.1750935677,-0.2261359914,0.2364827749,-70650.9890076582,-0.209089586,-0.1572886785,-0.1597560636,-0.1655063429,-0.2809683979,-4.1902696138,-4.1638848349,0.0825013862,-0.2740102835,0.5465569002,0.4493945892,-0.3688771802,-0.0772349635,0.5944498969,0.1137748809,0.1915830836,0.149606625,-0.0507614228,0.2031898235,0.0938995358,0.0856010194,0.0191931867,-0.1154218901,0.3627317589,0.3998173721,-0.4626786607,-18558.1579296574,-18558.0838211547,0.6197899665,-56278.0295177317,-152930.1707898021,-71048.8362390325,-28382.0083717964,-0.1682273481,-1.2093350073,-4141.4188232416,-0.0064522312,0.3174773291,-0.2640141151,0.0457005582,-2434.4667288275,-0.5867987358,-0.0680914946,0.3678568936,-0.0554185655,0.3704778989,0.3569947963,0.5526366979,0.1681138658,-75630.6018795629,-0.2857655869,-75630.7465330025,-0.0411442154,-0.2796424603,0.0570845006,0.2275761333,0.1691401021,-0.0127354336,0.3641089151,-103783.3831132686,-0.3012696116,0.1470282928,0.0068662384,0.4197452939,-64881.6720933979,-108367.3300809718,-0.2199190903,-0.2389139405,-0.4662146423,-0.0067661153,-1.5102583839,0.3175956901,-0.0129768046,0.4892271056,0.2783836876,-2.043645236,0.8184013652,-26.9578448922,-2.0743536696,2.9489586329,0.3278082009,-0.0525757867,0.0688257524,2.0132089763,0.1371374804,0.2570037682,-0.4914984683,1.2578661291,4.3228086035,0.1253135446,0.2386699153,0.2698005261,-0.1286198902,-3.5317462184,-5.4394699295,0.1360792045,-1.1335811702,0.3632965242,-0.0064484701,0.6139869171,-1.1684346965,0.1680649635,0.2782890394,-2.2312592922,0.664380629,-11.5014969227,4.2332720802,0.4251750233,-0.306679558,0.1440208466,0.2116460525,0.4650152791,-2.4314847891,7.0727805123,0.2810038537,-0.1210203098,0.2706392511,0.2691116787,0.1408880144,-1.2743349407,0.0801874714,3.6043628297,0.0431186688,0.107374317,-0.6528055324,2.4840102878,0.4613547489,2.0275679892,-5.6081925736,0.2964619962,0.5326881336,-4.4118904578,0.39589111,0.2874934781,0.2048459508,0.4803413505,-1.2501623633,-0.1756601672,-2.9793781781,0.0050725841,1.7784049425,0.2840313049,-5.8317455866,0.2159813123,0.3971222762,-0.4912817199,-3.122115737,0.1349011431,0.2535770303,0.6026985917,-1.7806512919,1.4877670878,0.3635448726,0.0735250131,0.3618433653,7.7819324193,1.0755820445,5.3353673486,0.6079277844,-0.7743317722,-0.0920766508,0.2864985575,-5.3130307395,-9.887380589,0.319014836,-14.9462225552,-3.1165148082,-0.130008831,0.2055079719,1.0818609376,-3.9821177955,11.4931600634,1.541339661,0.2400244684,0.607754754,4.8195097349,8.3288396581,0.6089643713,1.3580113639,-5.0562482969,3.1818506099,-6.8171948517,1.4481167633,4.2143293959,-2.9497246845,5.3377710434,-0.1803880458,4.9015288896,0.6079540035,-3.3086564016,-0.0352452385,0.5565656227,-24.3045897075,4.9038326837,-1.1996756379,-7.3620345683,1.9216373372,0.0000848569,1.435382951,-0.8149929148,0.9173154437,12.9577188348,0.3014936018,1.1362819845,-6.8389239878,-12.3245486528,-11.4275567888,0.3672668168,1.5523244376,6.160235414,0.3741192138,0.9414180448,0.3819815509,2.0025873815,0.7530489826,0.0680698441,-3.6335988781,0.322638642,-2.5379983736,0.2214185422,-0.0425589277,-2.5986998686,0.3220268248,-0.0751015585,0.0517825015,18.6100731569,0.2327270144,0.2744602408,0.5360368882,-0.7599302642,1.0216097894,-2.3239681535,-2.5220049843,-0.0718756505,0.0326912994,0.4283039882,-2.1706637179,0.4168580238,-0.2577872632,0.3565159678,0.5199198699,0.3396772444,-0.0503760224,0.2872156034,0.5083767844,0.6690087025,-0.4009363474,-0.4052281295,0.0646404809,-0.1981967089,-0.1197155556,-0.0716994625,-0.164954009,0.0962220142,-0.3832305097,-0.3433140831,0.1291218302,0.2262542482,-0.2453414279,-0.3488624525,0.1996456557,0.3132357031,-0.0782651339,0.6799181453,0.1277711235,0.1211090795,0.1071539287,0.2598134575,0.4530737739,0.0447197541,0.1015223723,0.2577011386,0.0526601455,0.1965814006,0.2870481888,0.2962534783,0.071577766,0.6008351421,0.2353236303,-0.4915719232,0.0728364278,-0.2453866666,-0.1858533983,-0.0054934595,-0.5581226126,0.0588919467,0.3754818473,0.2494992735,0.2994946527,0.0047530594,0.539020637,0.3863085652,0.6368775565,0.5454433461,0.2727088689,0.5132780355,0.5707853979,0.3874121276,0.635565284,0.4568534911,0.2531375297,0.4326107977,0.000654163,0.5398060837,0.246051757,0.6174581543,0.3783816511,0.0789153003,-0.5838678684,-0.1247015258,0.2395672108,0.6143495731,0.2846183901,0.0705179863,0.4474019263,0.4203645122,0.1808194485,0.234711948,-0.0094010823,0.1305908197,-3.3471501739,-0.3194077161,-0.4321754456,-0.2863849764,0.2550589531,0.3156609137,1.3689012892,1.182811987,0.1647748324,0.17988463,-0.0153942276,-0.4554786409,0.0869186305,0.1493732562,0.6562574652,0.4425421753,0.1326132089,0.5695718605,0.6775158138,0.1341205698,0.6759599034,0.6296397398,0.3020205799,0.1524248465,0.6950108387,-0.2193282897,-0.2016610639,0.4307610839,-0.2785866387,0.2049665069,0.0074137254,0.1552294217,1.1377254838,-1.7233863085,-0.8755606387,0.2606277455,0.2162765834,1.4066779141,0.1291251199,0.1564571095,0.3447670741,0.7247522755,0.6864958771,0.4734313337,0.1445750271,0.3406460008,0.1157487357,0.0021883203,0.3767526398,0.2237642964,-0.0555133038,0.0473797895,0.4104359643,0.5635633863,-0.2353378324,0.0650870914,0.266634713,0.7000618182,0.2860606786,-0.1854193938,0.3311024914,0.1591957372,0.0232448881,0.1578697451,-0.2462830793,-0.0258224975,0.0249688529,0.188222971,-0.5425531755,-0.2516851759,-1.136172957,-1.8809929205,0.6781752025,0.0186469923,-0.4452765944,-0.9969377277,1.3663852573,-0.5772414123,0.3690534695,0.3893379698,3.733440458,0.0696418089,0.9380473576,0.177853524,0.0193595602,-0.0970030051,-1.1149555809,0.0641249172,0.5082609604,0.0739338406,-0.0354985966,0.4185733552,-4.1071393354,7.9621514062,0.6805890472,0.3218292533,-11.0872626719,-0.2565118853,0.1716938254,-9.687097891,0.4888911255,0.3107370103,-1.1607845817,0.1775702304,-0.3957866507,-3.8943166954,0.0536192438,-0.1612620792,0.4216729069,0.0423385169,0.67046563,-0.0072070304,-0.0938530365,0.2212235619,-0.075412978,-0.283307335,0.330184458,0.2010518169,0.0649861499,0.724793188,0.1296082588,0.278833019,0.157739808,0.2971390021,-0.0977182166,-1.5894225062,-0.5265864747,1.023141478,0.4816721248,-0.5090549696,-0.2445360404,0.0969315475,0.0018027323,0.3941708581,0.3575040935,3.1012022499,-0.2249937617,-4.3637459377,0.1417002109,-4.5443355976,0.3804336928,5.2276836072,-0.1622148784,-0.3102276032,0.246072207,0.8363989012,0.8018819343,0.6382259583,0.2684832451,-5.2322731156,-0.5583945489,0.2258652147,0.5151399074,0.3137481894,0.7514344828,0.4702585374,-0.5572806784,-1.3123889219,0.1871052959,-0.3366524169,-0.449147476,25.46928282,5.6654563389,-0.3221203779,-2.058310746,0.5409669817,1.6377914419,-0.3056689736,-13.6264578156,-0.1249053729,27.3587304585,3.4801634876,0.3474156395,0.6931775283,-6.0567043862,-6.8403514236,-3.5330696162,-0.0065065513,0.6141833538,-1.7563353088,-3.014230522,-0.4070334543,3.6277548678,-4.1518900404,0.8312190334,0.2424931026,-3.3997636712,0.119909887,1.2087112429,0.173904602,-0.031549127,-2.0893748723,9.9529888523,-2.0331199597,3.3058333776,-1.2581931487,-0.0246383541,-4.1385860021,1.8718841112,-0.1445554396,0.6855653668,2.9271817454,0.019608158,-0.9130930389,12.9784064145,-3.4239476162,5.7739683525,-3.7426943312,6.6403648587,-9.5831987085,-0.5458884077,-0.0986815968,-5.5816165699,4.5470250869,-9.4183564021,0.3014387015,2.0729556698,2.2057888135,0.3522412153,0.1243640864,2.2777942391,-2.8054438964,0.0451524157,0.2637425636,4.5763086739,-0.1951728393,0.1420751949,0.3633593821,0.1234457137,-0.0892735607,0.9078068236,0.3592870073,0.301556324,0.370353177,0.7108784701,0.5342305812,0.6088904857,-0.0075628019,0.4155631054,0.5629042097,0.0085152701,-0.2270616452,0.1907125543,-0.3669415167,0.644276472,-0.2458872688,-0.4138434671,-0.1062450631,0.253472586,-0.2826928924,0.0158423741,0.0445560432,-0.2666223136,0.1438731335,-0.4307923968,0.0755092132,-0.2514327526,-0.041049951,-0.1591941808,0.0807164476,0.1301236924,3.8657225319,0.5090406768,0.6140758915,0.6025461543,-0.217644424,0.4724557479,0.197654325,0.532227973,0.1886859786,0.3774199332,0.0843565304,-0.0660662395,0.2216927801,0.0282587989,0.1193811995,-0.153598722,-0.3362687633,0.5846901901,0.3513973538,0.7184997284,0.6031895558,0.1386167676,0.4102488826,0.3482436258,0.666898197,0.2661072899,0.1517622197,0.3052733614,0.4938652139,0.2060019672,0.1719500311,0.3849247854,0.647697365,0.6242643173,0.7053311801,0.5971645688,0.0823116057,0.3884610467,0.7099422466,0.6061118327,0.521474195,0.3005970266,0.2386518165,0.450540512,-0.225183157,0.4822348266,0.4832515074,-0.0526690673,0.2014375527,0.4581577924,-0.3198028945,-0.1452044831,0.0914751085,-0.1776592579,-0.0866775386,-0.4354878646,-0.2556444065,-0.4009024588,0.7671596956,0.4746955715,-0.281846221,0.010079664,0.0591545911,-0.2015939594,-0.0503089805,-0.310077513,-0.1777136573,-0.07855449,-0.5749679241,-0.5027097935,0.1221321522,0.5580125355,0.3542112158,0.3254690899,-0.3093640413,-0.6249776311,-0.0872694461,-0.7425299433,-0.6623290801,-0.1615865756,-0.6268686207,-0.315440943,-0.2706598995,0.1566435485,-0.1172146839,0.2552873425,-0.121807412,0.1104085151,0.148388456,-0.2524241273,-2.1881977477,-3.8232333612,0.0741630175,0.1350327022,0.2513890927,-0.1233879998,-0.2415418409,0.3792483331,0.7733257048,-0.2886553638,-0.1890385352,-0.5107193464,-0.5268969684,-0.4869769115,0.6695192591,0.1017031632,0.1591395593,0.1268772507,-0.2301532721,0.2128198161,0.1538023005,-0.2171731229,-0.0577363954,0.2159070815,0.1483536447,0.1879921206,-0.3691733277,-0.422533734,-0.438086865,-0.1943802748,0.414838117,-0.1529836897,-0.2371802055,0.239975162,3.9493515197,0.3290408218,1.1933302892,-0.8296893654,-0.2422832015,0.2154458771,0.3214293649,0.1397017849,2.4559391712,-1.4947967716,-11.3828342567,0.0922749583,0.4520614381,0.7217435773,-1.0493875394,0.5324008912,-4.0429756917,-2.1021103782,0.1841825657,0.9851286265,0.2374681429,0.189977065,0.3290106616,-0.2532064469,4.3905218377,0.3084078554,-2.2418847347,-6.2515595085,0.5922501792,1.0274477551,8.5492582482,0.1232283177,0.1164868679,-16.9729016457,0.5704057138,-0.306532538,-4.5736054473,0.1986493576,-3.2029017974,11.6349090625,0.4665760884,-3.7266609859,0.5777976691,0.5121169341,0.6512808619,4.1391333264,4.461055785,0.2572211568,-0.0596841818,0.2714921937,0.070211883,-0.2357925004,-0.0816754051,-0.1569072265,0.0938272362,-0.3112343261,-0.2306454346,4.2326782456,-0.3440381313,0.2364848753,2.9482964348,-6.2951635268,0.518183446,3.7658551632,0.3699893951,0.2673016238,0.5921798773,0.3725270309,0.099203116,-2.272291008,-0.124927314,-3.7969584904,0.1332249378,6.4662661953,0.0034118177,-5.8006564883,-0.2492001306,1.0095940626,-0.3041563946,1.1597119642,6.9214568228,0.1983345313,0.5120987606,-5.1461823205,1.3393438361,0.6724453796,0.4281382574,0.0864186917,9.2589517606,3.1652568518,-3.7425368454,0.5061897966,0.2765217279,3.4911298808,0.1612982389,9.4410407092,-15.0307780207,0.2600653064,-1.7485836254,0.7602752034,0.0282977713,0.1802150319,7.6467646934,33.2427689563,-13.499419304,-0.1674350905,0.4979909392,0.1676701921,9.9099292936,4.2074235822,7.5018276158,-19.6835957174,-31.0484618203,1.35623487,6.1753212437,-3.6383002958,-6.239164651,-2.9066810315,0.6942368812,1.1258112178,17.8045851062,0.3228424246,0.2194561704,0.3526113146,1.6617817258,0.0733872139,-0.0739140212,-6.32118984,-7.6376988495,0.3103128299,-0.0608820642,2.9223855535,7.9029513694,-0.0775549028,5.4688007267,-35.4784888821,-0.0308228759,-12.6028767281,130.6219706545,0.6074634821,5.466534974,-1.4355111424,14.6797330154,0.0280438832,0.5949522676,-0.8786197428,0.6297170796,-45.1151981807,6.827057808,-2.3843635965,-0.016329749,-3.3531204526,0.0246409443,-1.8441305965,-6.2328719265,-0.1402058286,-0.8764825493,0.2429478996,6.4522218606,-0.0516768461,0.3955650586,5.2400053814,11.4723628109,-3.8940570939,-1.5404277768,-1.4452736447,0.2251061444,-0.0054410198,0.437673894,-1.4538585884,0.1718210745,0.3754650012,0.508797099,0.5746369629,-0.0238856652,0.1048453932,-0.0625486703,0.9344522886,0.6748215982,-0.0105626137,0.3762785407,-0.2534583278,-0.1216059178,-0.2728918747,0.0518077721,-0.0437266963,-0.21710691,0.1237920847,0.2176574696,-0.310380872,-0.3155799596,-0.3200397307,-0.181918534,-0.2323402431,0.0246649163,0.6106270902,0.1434079727,0.1952797427,0.1935471021,-0.0257236267,0.4056724533,0.6363416266,0.527921981,0.2839854989,0.1287499977,-0.2824848676,-0.0632411982,0.4237533029,0.3423124817,0.6419359678,-0.5583969467,-0.3425028064,-1.500262571,-1.6397939538,-1.7388504392,-1.3679735459,-1.726452213,-1.1385400544,0.4789488076,0.2431795404,0.5841788445,0.1831230725,0.5035074135,0.1681729608,0.3345109936,0.0509361023,0.2967446215,0.4428020807,0.2148942687,0.5242003721,0.2346660928,0.21554398,0.5838728287,0.1855284558,0.0997038397,0.2714611526,0.0834925136,0.3030339631,0.1687913654,-0.3261544786,0.2237244379,-0.5900403192,0.0461456601,-0.2342938665,0.6084164072,0.5453843778,0.7177606175,0.2280267179,0.4353976653,0.2824866568,0.4871199141,0.1716209222,-0.6237626227,-4.3857204804,0.3015415999,0.2771846766,0.1093503822,0.31498865,0.3286490058,-0.3452381118,0.1906924008,0.0804074643,0.160905375,-0.4535610321,-0.1934342972,0.4753714028,0.6201571556,0.7106645446,0.1629293626,-0.1782740283,-0.7187223272,-0.201899853,-0.3536623247,-0.3996146112,-0.8136608438,-0.7684249662,-0.6153514576,-3.5244036629,0.3495662157,0.0287977522,0.5074305101,0.3006543226,-0.2714329689,0.2337563155,-0.2234744317,-6.7534929728,2.0543454246,-0.1051181307,-0.3615072867,0.6008498318,-2.7232243965,-0.4464896442,0.3392425719,-0.313902538,-0.2320224117,-0.8106897835,-0.6590799382,-0.6726611381,-0.1548408392,0.6283348506,0.1798522494,-0.1019797438,0.0608344741,0.2717761159,0.0137161963,0.4223097352,0.5998943353,0.3376450877,0.3556130552,0.0371083255,0.312902184,-0.0850929711,0.5140571341,0.512855498,0.5486527998,0.1604671343,0.0686793686,0.3659347336,-0.1057922482,-0.3070746906,0.4655444822,0.2603376503,0.2656314117,33.3409527968,322.870285931,0.4205751292,0.6822445709,64440.7854019657,74416.8092324251,0.1332595819,30791.0712936523,57480.8025584963,8985.7710787479,0.2604963199,0.543760805,60846.8752554376,31070.4790225059,0.7314476566,0.9702565197,3.3041008832,53429.3663584137,0.1293148743,0.0722763506,0.5396329856,0.8238382378,0.3228752139,60108.6309252785,0.1635026365,12603.5929113952,2.9042912051,47.0395145682,0.6097464666,1.7767380065,0.631164711,886.6392015802,0.9826213607,0.4859253595,1.6048117048,6800.0513750195,0.0996709475,157.1628239748,0.3275699155,0.339036299,0.4348706714,129.2480271135,0.2398795285,121290.3270048284,120472.6505344764,78750.3687713837,41.8819272115,42437.0520975224,0.7527344664,16079.9414939466,1.8771986311,1.2127442584,0.5898148614,0.0498496202,0.5849705925,0.4112124327,0.5895668194,0.7909060489,0.0915953284,0.0320027743,0.0063129183,0.4316284296,0.0928708738,0.6202400962,0.5143091663,0.1013341617,0.3201187921
   59725.9887898331,0.5124367911,0.5455384932,290.4753538409,0.821547084,13075.9158718434,1.3901848405,93000.4507606024,76124.9224679295,37249.5674635973,0.3296233572,0.5739529323,34207.1262890947,22.2638252041,0.4410338462,0.5878426987,0.449662486,8192.8747083786,0.1179332498,0.1720967759,0.815692036,2838.3632401561,0.1853958915,0.5235837379,2.9183987392,0.5744849082,8628.9905755884,1.0853323592,0.4196519349,1.5959390615,0.4347784335,3913.055259377,1.7749531564,3.319966767,0.2006967662,0.3861251694,0.1385219714,15246.2863224636,0.3734537224,1266.6131016677,13161.3501007384,54140.7048664712,28136.7087344005,0.2049017728,28339.2923705911,26621.5512063075,59.6575679222,4946.0415362452,106551.1881678978,2.1739722451,0.2865278056,1.0313260535,5.1618889983,0.6336187252,87111.352270173,31528.7325621415,58666.826012814,104568.4595301456,23754.06422981,0.4357327492,1.4069320266,3954.1279242438,6441.8803866186,7711.1629815648,-0.0235071411,61204.4253259352,0.7907966656,0.6125220124,0.2927336312,0.9150842466,-0.0047795612,144.1292624647,0.0120013574,1.5154761858,0.4339867746,-0.0046491357,14240.6421095629,16273.8708937154,2.3410868726,25568.391867836,0.7800178306,54272.3696810528,66804.158761653,0.7857795275,1.4113197635,2.9667412573,8.1974068873,0.2030400285,83567.7683655186,0.3550603416,0.0637055681,1.0968799701,0.6605130913,0.554883939,0.5853643838,84.6636876127,89.5843039904,0.3261318403,0.3773376105,0.2301947293,10.8324214478,0.4126913682,0.3944143025,79855.0538912497,0.6764643924,79854.8912476255,0.5615039121,0.7027371237,0.6083562353,0.3428855314,0.9686751298,0.5849581089,0.5163379496,0.3377194576,0.4265768175,0.7325587903,0.3787420928,0.4657641851,0.7759413314,0.496867327,0.7923138552,0.3126419202,0.7162080434,0.2279504389,0.6247489576,0.6690011839,0.4237098159,0.5475408258,0.1802896442,0.1100340981,0.0995666302,0.1430805058,96449.9920282652,78774.7455157537,96449.3188017968,78774.826631807,0.055506958,0.0768820065,0.1878065733,0.7338023284,0.4154262725,0.8483273099,0.2765808591,0.546234756,0.9294488136,0.8655704373,0.6350352367,0.6152747171,0.1210877872,0.4143266197,0.0761502024,0.504747181,0.5128182779,0.3346391208,0.4861021584,0.0838909007,0.3667110406,0.519414035,0.5425625785,0.3387937546,0.650483805,0.3686175114,0.0546897732,0.075113611,0.5970810523,0.2635838012,0.4687633844,0.601755146,0.5927389017,0.1327949702,0.6408427481,1.1876164309,13.0061771646,0.0863216482,0.104341547,-0.0451477187,0.085073986,0.3265257918,0.2512447809,0.1130585925,70651.3778162737,0.4046537607,0.1912597584,1.1928511904,1.3218025284,0.9959682584,33.4099417043,33.4570719952,0.2880960627,0.5590062047,0.4385553725,0.6550320872,0.1623567674,0.3926267842,0.5674069736,0.5382252363,0.0177750594,0.1342094351,0.608155228,0.5181015607,0.2957786345,0.6140877136,0.9204251412,0.3978469338,0.503221723,0.306124704,0.3310133906,21320.7770003238,21321.1891636733,0.367611856,56277.9190665076,152930.8242942228,71049.1939730656,28381.8169921758,0.429996598,1.0197447041,4190.8513179133,0.2298579044,0.4488490373,0.3381429222,0.5396115969,4152.9917511624,0.7430811104,0.5673336651,0.2869445991,0.9363161358,0.2917753943,0.7993508557,0.4813637515,0.5692999676,79854.7074832021,0.7178767547,79854.6566418007,0.0913588586,0.5205047908,0.1062720304,-0.0497972469,0.6743224351,0.2923366233,0.4408088873,103783.9721052816,0.2644548849,0.5463823988,0.4760703074,0.0884080322,64881.6512132211,108367.243649924,0.4849186395,0.3324935266,0.1594384518,0.1221904068,1.3450652893,1.8393132904,-0.3997797169,0.5474057381,0.655741732,-0.0126857619,-0.1711677461,-1.5383915415,-0.1885580042,0.2581064183,-0.0527094647,0.0237895701,0.033576256,0.9639223149,-0.3845053258,0.11291936,0.1721748226,-0.2079099486,0.1202850604,1.8274257276,0.2647321997,-0.3660986838,0.6653107654,-0.0894283026,-0.5662998978,0.1833571637,-0.1585844044,-0.4784237267,-0.0377631057,0.2526159779,-0.9101176976,0.4745447562,0.1553611589,0.7657600736,0.6914158835,1.0005587047,0.432141916,0.0163536092,-0.4723615431,0.2729463146,0.0401511229,0.2418106509,-0.552122074,0.8744871699,-0.0417879335,-0.2286121773,0.3810419796,0.2136766246,0.049994943,0.1211435767,0.3415157346,-0.1816092916,0.0831356062,-0.0409822953,-0.118573696,0.5247021206,-0.0302383522,-0.17452201,-0.0458965812,0.1642689473,-0.0007006885,-0.5327535127,0.1614131768,0.1495832767,0.054710021,0.3144567804,0.2365077318,0.0686114068,0.3607409022,-0.4324196068,-0.1657288152,-0.265103269,0.5329189315,-0.4605247611,-0.1797188571,-0.0627428299,-2.5816819307,-0.4047581102,0.6155871896,0.066609505,0.4075542201,-0.3828914218,0.5683120982,0.5409607282,0.080037114,1.2004830158,-0.1653552692,0.5536786141,0.4506875738,0.4331200145,-0.1281738257,0.0280902006,0.9275582088,-0.3425933781,0.1116541547,-0.8821726655,0.0021440831,0.9574184903,-0.0308478553,0.9806318959,1.0553164459,-0.1580839885,-0.3258837705,0.2118586172,0.3358893171,0.4844272686,-1.2518735353,-0.5591020828,0.1018487226,-0.1706440845,0.1716888816,0.0429248288,-0.3630633999,0.8505226567,1.7557913656,-0.5496601266,-0.1472979391,0.0794394764,0.0934454936,0.0652782723,-0.3497178384,0.2988046426,0.2388025196,0.672686869,-0.864711084,0.062066946,-0.5114156684,-0.4605407121,0.1545353878,0.1486201724,0.9848987429,0.1402565647,-1.0189891841,-0.1104746112,0.6810895338,-0.000924769,-0.2903693075,0.1142962899,-0.3947499314,0.6458962637,-0.3960166074,0.1739691542,-0.3082716055,-0.4240608112,2.4539877637,-0.0186445759,0.8362759759,-0.4192106075,0.2220971127,-0.411903509,0.9622137129,-0.1257069567,0.226954689,-0.0484498408,7.8023638178,-0.4552395457,0.1378566,-0.0497317386,0.0227323385,-0.2741524391,-0.1288672421,-0.038229698,0.0555548065,-0.2487874066,-0.3524534919,0.525262367,0.3903386198,0.3891714931,-0.0259395421,0.5367401419,0.1975955345,-0.062319256,0.3251977548,-0.3128805986,0.0441578759,0.7071805027,-0.3081524376,0.044740616,0.1904845593,0.1807506527,-0.0674458167,-0.2955930787,-0.0949907987,0.2648181592,0.2641900428,-0.4300731129,-0.2257041147,0.161996112,0.2504917084,-0.1291556761,0.0636970085,0.1979709455,-0.0281559576,0.5810295979,0.0420894746,0.2900013856,-0.1800351539,0.1543284936,0.4152490778,0.1486077772,-0.0733466185,0.0597198297,-0.2896869907,-0.2745852202,0.4441457266,0.16862112,0.2851552018,0.2047797269,0.3670433762,0.2169591367,-0.2630697905,-0.3819419586,0.0771731597,0.2979327772,-0.0162303347,0.4154864437,0.0741251501,0.2431757042,0.6846638639,0.524742318,0.5351705272,0.518888558,0.6420981555,0.2623211416,0.3154989916,0.0694094523,0.544570028,0.1642049672,0.6642619433,0.6211010428,0.0694100663,0.1190658944,0.4314241627,0.687413831,0.2302228914,0.1235625012,0.3168080201,0.5290931177,-0.0969001224,0.5071819738,0.0658361683,0.6571183639,0.1476393682,-0.0964277966,0.2285314155,0.2203568154,-0.3503735715,-0.1212162863,0.0318832163,-0.3205873313,-0.2823147593,0.2845534304,-0.0723578098,0.3728241769,0.1701209415,0.1166650273,0.390104168,-0.1629306877,0.3727495094,0.195156856,0.1068376564,-0.1890259307,0.15381461,0.1776005446,0.3874206369,0.6861854167,-0.0286926066,-0.2424595606,-0.1648517154,0.2332189126,-0.1628889309,-0.0633878993,-0.3360614244,0.0895423181,-0.4996643496,-0.0507785943,0.1395377831,0.7095263522,0.1752726036,-0.1877261442,-0.2354593325,-0.4333448368,0.8454737154,0.3613382634,-0.0035758382,0.0057124034,0.3739257732,-0.5073706001,-0.1411002503,-0.0048186195,0.1012130221,0.3392246442,-0.169498642,-0.0946153563,0.3003996871,-0.0426945578,0.3365505536,0.5249394829,-0.1279129649,-0.3084545048,-0.2849180295,-0.2432700423,-0.0799535488,-0.3807568439,0.2164333835,-0.1295323121,-0.3374616293,0.6077138191,-0.2850053585,-0.0424501892,-0.3705886891,-0.3242353602,0.1294010015,-0.046342094,-0.2388039971,-0.0917249777,0.0998309043,0.3569451361,0.1282535341,0.0502487468,33.4723481393,322.7158352345,0.6010772636,0.0709796002,64440.5731552916,74416.4792297295,-0.2887329076,30790.780621385,57481.0338532469,8985.275631304,0.6385013564,0.126627921,60846.5852989292,31070.5408811834,0.6222223234,0.4295408245,2.9188319226,53429.1579018944,0.3713807125,0.2423058628,0.4727754733,0.6850632226,0.1997244028,60108.7407145768,0.6121287568,12603.1250811378,3.1345323766,46.9142954195,0.5448175348,2.0685846556,0.1360883293,886.189909239,1.0297959677,0.7023246196,1.2263667653,6800.1743743917,0.6306168338,156.8239340836,0.4551953668,0.4802094786,0.0724724948,129.6004550312,0.8114135319,121290.3933727593,120472.6065169059,78750.0196521675,42.3788509143,42437.0365684063,0.9133516608,16080.323803203,2.3580815765,1.012496649,0.5940176421,0.2220646172,0.784472107,0.3472401124,0.4196789938,0.5778899434,0.30563764,0.5487608983,-0.057845073,0.4312804684,0.4178909256,0.0513008566,0.1498325186,0.1389508194,0.5066541567,59726.302188077,0.508045685,0.3052763345,290.1966811515,0.5926635002,13076.1098118986,1.3934285145,93000.9199362724,76124.931009989,37249.6516259163,0.6192524552,0.7115921126,34207.182269441,21.958006058,0.0479531423,0.2922276618,0.3467234674,8192.6409324926,0.1759692281,0.2760658288,0.2335591767,2838.191260387,0.6610432146,0.2533866615,2.5874569022,-0.0326118824,8628.6019017785,1.1860542179,0.4169108455,1.152780608,0.5935268787,3913.0832881189,1.2683082448,3.3004906941,0.5672499726,0.676375328,0.2559600552,15246.9774763127,0.35087095,1266.8989486948,13161.6135090824,54140.9048780952,28136.7288803745,0.045737647,28339.1481206468,26621.7001302608,59.2495871117,4946.2056385351,106550.7684760236,1.6812717028,0.6509777871,1.4990406058,5.089402147,0.6213866251,87111.1256724905,31529.0589234205,58666.8028219866,104567.8224937866,23754.6628988739,0.169237295,1.1170478844,3954.240228069,6441.8686126982,7710.684594639,0.3101546114,61203.8969450104,1.2583230224,0.8332816433,0.5275760416,1.3962308401,0.1798717813,144.4395361657,0.527647219,1.7222974017,0.271633071,0.1850592896,14240.1102987516,16273.6503205684,2.8470873175,25568.1148360281,0.9232438068,54271.9805590275,66803.9861993919,0.4490467775,1.3567460223,2.5540390732,7.9750102949,0.4207380984,83567.9427745109,0.0491808931,-0.0064464363,0.7492005243,0.3681846371,0.1416755072,0.6032560249,84.8062988493,89.1851977066,0.0727593176,0.1799083567,0.2231236826,10.9611056302,0.3677860919,0.4193530411,79854.8356339676,0.1683623755,79854.8193259025,0.726581743,0.5463409534,0.767479798,0.3882939287,0.4933983347,0.5699183753,0.8002432845,0.304057568,0.5154640039,0.6410212675,0.2768125081,0.7163379953,0.5552962374,0.7741630136,0.3597067989,0.8843567154,0.783618906,0.6977037704,0.726561402,0.3784330759,0.5006696574,0.3315811918,0.6489350796,0.3368912696,0.4219948079,0.1327311445,96449.8906599681,78775.0554171053,96449.5201295081,78774.8640509696,0.2099078629,0.0184427602,0.3625310207,0.4867813443,0.3760816474,0.532421554,0.7502299147,0.7357632202,0.8043517648,0.2451312373,0.6709070118,0.7085034386,0.7109029473,0.4342757122,0.287708568,0.5725954382,0.1800775072,0.1282610481,0.2348633052,0.1632593908,0.2004062038,0.2453797505,0.2638249135,0.5132864557,0.567626052,0.391663883,0.5826370383,0.5161438545,0.1911714045,0.0194301479,0.0191261307,0.4320507099,0.5403771586,0.4109448783,0.5976946036,0.7326076641,12.9386098498,0.2570773045,0.086213328,0.3137639886,0.2596194068,0.2923532292,0.3558231857,0.1076038917,70651.5891329231,0.6448802614,0.3823737545,0.7579082199,1.4540113356,1.0061609868,33.1235487624,33.4630255458,0.3760694103,0.2830108662,0.4845683084,0.7158348696,0.4950717406,0.5856059811,0.3414182541,0.4834838385,0.5109226757,0.5348561055,0.3100480177,0.4181315083,0.5583124199,0.4464913242,0.7617358945,0.7127813916,0.2497308783,0.8089631165,0.302306276,21320.9518910394,21320.9568328185,0.5221587715,56278.097455622,152930.3333696167,71049.0829996431,28382.1597794377,0.473443399,0.4776491372,4190.5415279214,0.5353170724,0.3391317259,0.7057298043,0.4172690048,4152.6794752054,0.5475690697,0.3462192756,0.7531598984,0.5295717737,0.7299592096,0.4829205473,0.4570357219,0.0440817798,79855.1934737972,0.4322932005,79854.8985510658,0.1350521835,0.2396447041,0.4063411141,0.3400130549,0.4877813939,0.5088348722,0.4316314633,103783.731354242,0.0583691557,0.1676272852,0.4971514607,0.0702204968,64882.1103005678,108367.5118792386,0.5103253661,0.9533600037,0.7494706459,0.2630628671,0.814793007,6.7256894462,-1.1877995321,0.6152398906,0.0744702862,1.5107437444,0.6938899019,14.3993786164,-0.2631793845,0.1755888085,0.2416117745,-0.4111078029,0.6502783712,0.0345452476,0.4296674308,0.0547463595,0.1871402883,-0.8901475463,-0.415098204,-0.3692124042,-0.0460074744,0.7221366465,0.9242271552,0.0830939363,-0.5956073141,0.1197383811,-1.3844283114,-0.0064415228,-0.0281153733,0.678209185,-2.4659542897,0.0573589131,-0.077017764,-0.4667843234,0.3571420073,-4.6212632219,0.3485139608,0.0617670487,0.1335136082,0.5119311953,0.1268484221,0.3936472799,-0.9784027,0.0250621012,-0.340835768,-0.2217406493,0.5263223237,-0.0096749682,0.1934423743,0.339041605,-0.1225127679,-0.4885615196,-0.1462967017,-0.0899267789,0.4545008636,-1.0015581744,-0.2276505541,0.1991060227,1.2894893543,0.0871984571,0.0191165123,0.0447698449,0.1037676496,0.3306494044,0.1121571391,0.4044374575,0.0804367767,-0.2492430504,-0.2030544184,-0.5011535532,1.80423852,0.0585414477,-0.8612359914,-0.0275558338,0.3664303137,0.319552635,-1.3938089171,4.8594043957,0.582402428,0.2376740079,-3.5316228699,-0.8902157113,0.5759071165,0.2261350719,0.2138065398,0.0733683996,0.2131688762,-1.1679326228,-0.5362540451,0.7336652257,-0.2366260439,-0.2343660848,1.8558379423,4.5416751244,-0.1024387981,3.1850916309,-0.4164883071,0.4024579895,2.0892542509,-5.1361046697,-1.4676680576,-4.4465101454,-1.0417917031,0.4551941217,0.4843389635,-0.7649666054,-1.6024918976,1.1228868342,-0.4320372083,-3.908976713,-0.0518313566,4.3263931315,0.837544287,-0.5862381416,3.3720764122,-0.6604960755,-0.4837855173,-2.9531826701,0.1589755736,1.9783090471,0.0692510071,-0.126105383,0.5591449254,-1.9554963286,-3.2430338575,-0.003818351,0.3401174069,-0.372372705,0.0639329569,0.8749510968,-0.0975183249,-3.4699583969,-1.2682442086,0.2608761625,1.856428891,0.7722713313,4.1526258509,-0.0086499409,-0.9263130808,0.9769360865,-0.4509847661,-0.3550226047,-0.1884542923,3.9516352692,-11.8744575703,0.6614952593,-1.0369520442,-0.341665931,0.3783084119,-0.0040926887,2.1945317565,-0.366393684,0.3517980442,1.5269457872,7.6018818921,-0.2939044785,-0.0737991423,0.0584649031,0.1007653858,-0.2070231859,-1.119100641,0.1030641172,0.1474507083,-0.1665945468,-0.0719521505,0.1097928641,0.0202902018,0.4047923284,-0.1925789586,0.1025024748,0.2906951542,-0.2175721972,0.3277638998,0.1538124866,1.1090976049,0.6634232223,-0.3713426987,-0.1283115853,0.1950440802,0.1504635928,0.3075112652,-0.068734438,-0.034439609,0.3088581996,-0.1379542377,-0.2443914875,0.2793990842,-0.3183541538,-0.0999404446,0.0186990082,-0.2138024325,0.0020795756,-0.1210484043,0.1748661823,0.6647511995,0.0211936123,-0.3993828096,0.142992686,0.6104483941,0.1521719355,-0.363008788,0.0138088252,-0.3536798013,-0.3742610716,0.1384048142,0.6282215272,0.3512578936,-0.062009968,-0.2129408224,0.2161421632,-0.3827782693,-0.232111979,-0.024782344,-0.2040737469,-0.318257386,0.0597485444,0.4182342259,0.4240525022,0.5435302818,0.0094899623,0.5597743486,0.5885588019,0.5995069793,0.5494829111,0.6092208878,0.6598726697,0.4858433663,0.5114476717,0.3300892029,0.5230897259,0.4658859087,0.2700937956,0.6659767686,0.3443283306,0.4656105376,0.4936094107,-0.0658212333,0.1292957915,0.1825516337,0.6253965775,-0.3947815659,0.5588479684,0.4436062838,-0.3986543626,0.3716055476,-0.056967934,-0.0486702779,0.1518653991,-0.3646842605,0.3282380847,-1.2070844063,0.6648216052,0.4697412495,0.3927330186,0.0319354236,0.0743926374,-0.2479072663,0.0316095831,0.4078822364,0.1809106207,-0.2383415832,0.3433049871,0.5049551844,0.4012005115,0.1962361908,0.6828985866,0.0876505861,0.1206950931,0.0559479072,0.1803706564,-0.0799252278,0.426498109,0.3335451113,0.1375958245,-1.0935660145,-0.2156099307,-0.1689619769,0.4473001972,-0.4431159766,-0.077501927,0.1029184082,-0.1967244448,-1.2607018722,5.5131319648,0.3117589798,-0.0600520439,0.4334403513,0.4227745728,0.1065961878,-0.0141881364,0.3419374263,0.0702144351,0.2701861333,-0.0206870449,0.4124872752,-0.1490336554,0.6714209837,0.3508500809,-0.4879356552,-0.2020863612,-0.50580918,0.0434098187,0.2091999392,1.0024105452,-0.2767919269,-0.0367165095,0.2119140823,0.3202200624,-0.4405232186,-0.0130468449,0.2167851911,0.0589059817,0.2215333182,-0.3817284958,-0.0069607474,-0.3489149311,0.8159844453,0.2115136554,-0.2034109286,-0.3135078667,33.4208049891,322.560990023,0.3377703207,0.1813570961,64440.1737092416,74416.6996851982,-0.4256233031,30791.1432622331,57481.0125961642,8985.6066489281,0.5610325072,0.332061239,60846.8547468625,31070.7730236376,0.4198387954,0.3958572439,2.9520763219,53429.2737313314,0.7118510889,0.6537281923,0.117460213,0.8614841213,0.6834344591,60108.0341315001,0.0203341192,12603.5555717865,2.9521957006,46.5501087061,0.4065995027,2.0434656752,0.0897328999,886.2619441914,1.5049554675,0.4399547756,1.5662062115,6799.7775131404,0.3075480989,156.7331675785,0.1656834918,0.2732850606,0.3182199446,129.5129071933,0.4248001988,121290.7477654285,120472.5409507054,78750.1917996974,42.2891546225,42437.2507986551,1.1686866851,16080.5883731081,2.2023973085,0.9148004154,0.7888363973,0.2919188976,0.4021822349,0.5044956852,0.0864138937,0.7532309176,0.076329336,0.1482225517,0.4785881228,0.2882940166,0.1950064936,0.5419788897,0.7036261568,0.6584605569,0.8384699998,59725.9962036652,0.2749958132,0.6602507688,290.3327521812,0.6712235678,13075.6288467648,1.1274765854,93000.4718065861,76125.0843855123,37249.4386446391,0.3943765946,0.5745592868,34207.093307511,22.2572121482,0.3743375265,0.1959297769,0.118486871,8192.8658294036,0.156680671,0.4891942953,0.8366734004,2838.3513604049,0.2813742756,0.4250420175,2.6883732603,0.1692853603,8628.8579211695,0.9540448198,0.2179133256,1.5460129374,0.3429653152,3913.1447413369,1.3704913675,3.1891045715,0.6364121367,0.4953278926,0.5618543937,15246.3873085819,0.3705465087,1267.1513968395,13161.7727554465,54140.3991019102,28136.3026712767,0.5016779547,28339.0145327778,26621.9390808537,59.4949066408,4946.0107362767,106550.6946674746,2.1300332699,0.057662263,1.4489894038,5.5859222712,0.7994164572,87111.3702072074,31529.0130523062,58666.9118478158,104567.8373079636,23754.5775796165,0.2234169299,1.5578418078,3954.3370550246,6442.4790341216,7711.2261076944,0.0831311731,61204.355976362,1.2027262714,0.7523751162,0.0537882417,1.1157427217,0.0885364712,144.6945339174,0.5130778499,1.5423322525,0.5821961197,-0.063169024,14240.350207544,16273.6656571764,2.6704960651,25567.8528444955,0.6160041241,54272.3306550114,66803.9625591123,0.2109956283,1.7525227713,2.9295575593,7.8540454592,0.6516271558,83567.5659976211,0.2928246957,0.0199639428,1.3273373837,0.6679050711,0.4602371345,0.2685724031,85.1743971403,89.2993757144,0.5321683163,0.0868358913,0.1522145054,10.5964933332,0.1752922774,0.5776247645,79854.9974597255,0.2830423633,79854.8979594659,0.3166347677,0.1497456392,0.6300514953,0.480255767,0.4930154037,0.4195890548,0.4324333235,0.922037842,0.4819004867,0.3294915897,0.4386189185,0.5865141795,0.9470121659,0.5639675602,0.4224767884,0.7415355594,0.9596104623,0.4933771364,0.5968642424,0.4505979354,0.0246187757,0.0892520286,0.3401103243,0.2074981512,0.2616475719,0.0645250412,96449.603973478,78775.014639987,96449.6721895414,78775.132890337,0.3629425239,0.5883965263,0.2822727377,0.5692074692,0.9169411384,0.5085474569,0.6084520768,0.7472680389,0.5970620857,0.8452541576,0.878023288,0.4170168225,0.4141776218,0.1797019747,0.0010257437,0.4152094539,0.5655145628,0.5118835102,0.209266595,0.655635612,0.3464027616,0.4796863933,0.4212341341,0.1150308323,0.1661565869,0.3650765478,0.376125578,0.5270212204,0.5190001889,0.6381081609,0.6214925344,0.0522899866,0.4712051816,0.443857515,0.2660884145,1.0457685001,13.6227735099,0.5555833502,0.1292546004,0.6110935787,0.3589241893,0.3190092284,0.378665966,-0.0293255649,70651.3108476358,0.7927364395,0.6163609577,0.9904845963,1.0660412123,1.5229378859,33.1054337988,33.4043186145,0.1835821525,0.2131996449,0.6615632728,0.5256515128,0.0737323941,0.6756183757,0.5400584866,0.1448984215,0.5202022503,0.0207030163,0.86873,0.4636686339,0.4502432805,0.6627400848,0.4449435373,0.7313081198,0.5702278381,0.7194713159,0.0681183892,21320.9899458082,21320.9880271056,0.5443287428,56277.6763434,152930.7108301329,71049.4043695032,28382.391390693,0.5910216285,0.3903340515,4190.6042036814,0.5104378968,0.1230902796,0.6956450763,0.6557756268,4152.71621705,0.7960093405,0.8455634958,0.5877623221,0.5491182237,0.6705902526,0.5304138052,0.0114822963,0.0462677023,79854.5918316857,0.6642169425,79854.9580250825,0.6197631082,0.1819605933,0.7604705566,0.0463488255,0.5870059885,0.7292547604,0.1550482874,103783.4541960639,0.6173141754,0.2602823913,0.1455315415,0.401017134,64881.6366102013,108367.074795074,0.0694889137,0.8700605487,0.5515540111,0.6010767778,0.9486611624,33.4545658282,323.0572188794,0.0037749023,0.4131451165,64440.4622730593,74416.6103943927,0.0884295996,30791.2571617915,57481.0067212537,8985.2858069096,0.6154421489,0.4115650489,60846.7613705793,31070.6657094148,0.2257489113,1.079651934,2.9457849233,53429.211336248,0.1995949649,0.4342377996,0.4426163375,1.0174077923,0.5199059434,60108.3701754284,0.303009701,12603.1618845298,2.7323489313,46.9380097529,0.6859278523,1.8750985877,0.6831690157,886.6611317581,1.5269946117,0.2482791059,1.5763539824,6799.8423450505,0.2805540655,157.1432496219,0.5570187804,0.5180546766,0.5373634039,129.2283528533,0.56407963,121290.8479424654,120472.4116572586,78750.1937352631,42.5833872009,42437.1425416954,1.3337003118,16080.2667394873,1.9368487275,0.9837272535,1.0198156039,0.6500284982,0.9574029995,0.4253905789,0.5449834904,0.9619299817,0.2111340621,0.3749507715,0.5919742143,0.4540531298,0.3307103278,0.2661052393,0.4227291095,0.1917624088,0.9000590475,59726.2052428289,0.2338646688,0.3332670433,289.9855543919,0.8463372052,13076.3258599449,1.2804856721,93000.8234191864,76125.1470058222,37249.8349537925,0.0294011408,0.0116516694,34207.4718855001,21.9855682766,0.2697629004,0.7071981813,0.3776845073,8192.3938527872,0.6774672764,0.3367348852,0.2860822567,2838.5518174285,0.7501449498,0.1864914072,2.4530257156,0.5323453143,8628.7988290309,1.2812961262,0.3349524469,1.2158555275,0.6067903502,3912.6708686056,1.919277557,3.2726748051,0.1809697781,0.0996117689,0.4683083424,15246.7767020355,0.3271399799,1267.1393990781,13161.5289514677,54140.8458892393,28136.7573415106,0.0816390668,28339.1379517834,26621.7588558588,59.6388593295,4946.5069905165,106551.0678391269,1.7497463231,0.5782160103,1.4667849224,5.4577797889,0.6403363758,87111.3910906733,31528.8584195229,58667.5554591382,104568.3157913349,23754.3490897357,0.3679588922,1.2991540853,3954.2800427347,6442.2398835587,7710.8465151703,0.2108014478,61204.2960531407,1.3637791469,0.618526954,0.5005088749,1.2916252175,0.3847699983,144.5516975166,0.598516969,1.5947532684,0.2661126566,0.1132342976,14240.4411085118,16273.443471005,2.4353253935,25568.1932622644,1.2705748616,54272.0471322941,66804.6310364614,0.4704989883,1.9373209838,3.1092833225,7.9776424283,0.1624259792,83567.7038169628,0.2298149406,0.7027952301,1.0799446057,0.1992116245,0.1898372508,0.6879118566,85.2073194488,89.592307595,0.3884283513,0.120394838,0.3012016164,11.1026629074,0.2719222671,0.6347834945,79855.1810361978,0.4475561082,79855.1583281675,0.6531862196,0.3473278323,0.9409813027,0.9545939719,0.6007722977,0.461546999,0.5767590947,0.9106651503,1.0254006672,0.760494637,0.7111747959,0.4761934309,0.9533524094,0.7811618736,0.645632761,0.4831263023,0.6143074222,0.2344079063,0.6674984215,0.3744891759,0.3013481815,0.7065900686,0.2256197252,0.609707987,0.5384642351,0.2746875983,96449.6060773195,78775.244871562,96449.6012554248,78775.0675393629,0.2186974715,0.7009756122,0.5122597301,0.6977332437,0.4341827455,1.0362940795,0.5054951716,0.886857956,0.383821675,0.5821631768,0.4921136793,0.1408146782,0.4790794523,0.6815434209,0.2097102618,0.5192620432,0.0048119988,0.6225270091,0.2346987262,0.1302863488,0.1535992909,0.4411193938,0.6013531235,0.2670481957,0.4358999973,0.17586341,0.5864609593,0.646250078,0.5340738439,0.0847315629,0.134559721,0.345735402,0.6823732266,0.3866455356,0.558243915,1.0381190026,13.3910598203,0.0643712909,0.7295306672,0.7081613485,0.2388479381,0.1526289673,0.6341202121,0.3221371523,70651.4673407369,0.8335540796,0.1683701785,1.339415523,1.514863748,1.1522265521,33.5616532947,33.2926659044,0.4826499654,0.7381748705,1.2371436526,0.9060396754,0.51040331,0.5664003863,0.0789036457,0.5329168707,0.3697147325,0.1527222027,0.6826500214,0.8039542576,1.0656496501,0.6524523133,0.6369397221,0.4807929953,0.9619291566,0.4805682085,0.3519464367,21321.1114564664,21321.2360052997,0.6007288924,56277.8049216786,152930.8214928722,71049.2439206176,28382.1234098436,0.7918387377,0.7879001312,4190.6667876565,0.1539254998,0.5243256525,0.4848686886,0.9882658169,4153.1856343358,1.1419957684,0.8454656857,0.7847311252,0.5627840074,0.4430570717,0.5826419039,0.5602227401,0.5822265225,79855.1505674358,0.7764508262,79854.8102956478,0.2550060154,0.2107055119,0.7176455186,0.5162622001,0.5278895822,0.2975450245,0.1647344439,103783.8677667558,0.6363831479,0.3532884397,0.3993953248,0.0478396227,64882.0338433984,108367.3518708028,0.7458090425,1.140917314,0.3174458194,0.1759735256,1.1579940777,33.5738018005,322.8730836463,0.4231778619,0.240548965,64440.3920851793,74416.6650992214,-0.0352522005,30790.9542485992,57480.5770395323,8985.6673343522,0.4193697194,0.043306016,60846.7899029408,31070.530391555,0.1219728239,0.4498385707,3.3097643567,53429.2708479417,0.4158961979,0.3520528473,0.6745934273,0.4183868129,0.2895895657,60108.2190478887,0.100506629,12603.4458805267,2.7406421609,46.5588325538,0.1663980377,1.6729385344,0.6331234559,886.5028148686,1.413640117,0.3969228454,1.2112283879,6800.0642373417,0.1122862898,156.9185250147,0.2094635912,0.5084717016,0.3589781112,129.1730815171,0.4738447172,121290.2552718952,120472.0977237709,78750.3516290399,41.8952368773,42437.2148955723,0.8388034318,16080.4737306766,1.9248991207,0.7783425664,0.6597750978,0.4411195957,0.2935326146,0.3931338148,-0.0133698102,0.8392206266,0.2470791557,0.1971712438,0.5408878185,0.6716046968,0.5731258505,0.2084822232,0.1124365904,0.4437952502,0.7611571874,59726.1360476044,0.4581430294,0.2222469049,290.0308263441,0.8325971283,13076.0639778095,1.4246253504,93000.4884169419,76124.782763074,37249.7826711503,0.0657016917,0.5631383197,34207.6153631519,22.2128473173,0.0555162047,0.0641932343,0.0287915242,8192.5690412683,0.6992333249,0.5818616805,0.5544433758,2838.3417653966,0.5658258669,0.0941953927,2.6132805322,0.0538137125,8628.8039103075,1.1144538807,0.0339142297,1.3522340882,0.1625892376,3912.9845572782,1.7129023477,2.9785079521,-0.0103519816,0.1305407103,0.3100483312,15246.7869013301,0.6489031159,1267.3140477482,13161.5198937266,54140.485601806,28136.8569405145,0.2924874661,28339.3523472794,26621.6235797799,59.4318058934,4946.5179185405,106550.7732560786,1.4925229438,0.4380974683,1.3690703014,5.6690860111,0.3146532188,87111.2750144811,31529.0913286426,58667.24468877,104568.0546264495,23754.6148843284,-0.0115823181,1.1802652242,3953.7473819355,6442.2058977472,7711.1733244875,0.163684908,61204.5258913056,1.2013837543,0.8882708062,0.1211991223,1.3588965449,0.054212951,144.0848568032,0.636403513,1.4352404448,0.3947837599,0.0109103464,14240.6720315818,16273.5485558598,2.4689730877,25567.9007434775,1.0378762514,54272.4141576679,66804.0687026423,0.5110795678,1.6757999358,2.7104353859,8.292027662,0.5387008235,83567.9777950342,0.5643622718,0.5360746857,1.2407091559,0.3811208039,0.6755178751,0.5441367541,84.6968412593,89.0045111779,0.5862345023,0.1720754717,0.5085298302,11.0646584188,0.5176700574,0.2518242476,79855.0285015522,0.3059176833,79854.584946812,0.5740069163,0.1992705945,0.9675804123,0.4649857117,0.3789300586,0.2881502533,0.3832313108,0.7333417706,0.4104144765,0.4466500005,0.9129001252,0.6734464602,0.7330051284,0.4812824939,0.8685737766,0.8331185339,0.7291720686,0.1203442393,0.3713330948,0.64354299,0.5466592452,0.1622473417,0.215527496,0.3104938033,0.5570537587,0.1164775129,96449.8157735839,78774.854833633
