encog,BasicNetwork,java,3.1.0,1,1392982546160
[BASIC]
[BASIC:PARAMS]
[BASIC:NETWORK]
beginTraining=0
connectionLimit=0
contextTargetOffset=0,0,0
contextTargetSize=0,0,0
endTraining=2
hasContext=f
inputCount=318
layerCounts=1,201,319
layerFeedCounts=1,200,318
layerContextCount=0,0,0
layerIndex=0,1,202
output=0.0000487762,0.2548743757,0.0870235014,0.0065062029,0.2524787816,0.9977445028,0.0000808478,1,1,1,0.1296305936,0.1171259327,1,0.459457368,0.546499941,0.9997200301,0,1,1,1,0.0737643826,0.7885301006,1,1,0.0000908668,0,0.7114567727,1,0.9987934699,0.848943749,0.0163238043,0.0000169691,1,0,0.0007160571,0,1,0.0002807976,1,0.000000011,0.9972075609,0.0249247339,0.9791102762,1,1,1,0,0.9998835362,0,0.9807557009,1,0.9907958322,0.0642019937,0.0000000025,1,1,0.0050814639,1,1,1,1,0.9985608058,0.9999365259,0.9994437265,0.9998734488,0.0294164535,1,0.9847030977,1,0.9417324726,1,1,0,0.0022393688,0.8674912194,1,0,1,1,1,0.0331322825,1,0,1,1,0.0003232564,0.0002006446,0.0076076964,0,0.2743412178,1,1,1,0.8854288221,0.0157372391,0.0000364542,0.0000003533,0.9939662867,0.6580735446,0.99810102,1,0.0000006889,0.1852761424,1,0,0,0.9999732552,0.0000601749,0.0377310767,1,0.9991272044,1,0.9680989816,1,1,0.98616282,0.9123424982,1,0.098042087,0.9998200845,0.0006355761,0.7082595996,1,0.4505713446,1,0.1320217515,1,1,1,0.6490795766,0.9979415313,0.1459415065,1,1,0.9999998565,1,0.0524696187,1,0.5428947081,1,0.5475991401,0.0006490126,0.9756052854,1,1,0.12881984,0.9993397634,1,1,1,1,1,1,0.0582752791,0.2440333858,0.2035497422,0.9999895403,1,0.850532609,1,0.0048434738,0.0067841864,0.9617550819,0.7495928278,0.0012720903,1,1,0,0.0323712909,0.0021076572,0.8660541876,1,0.0003526168,0.0019672874,1,1,0.0075323358,0,1,0.127058589,0.9914586143,0.0414789103,1,1,1,0.8018606091,0.8973135608,0.0323207884,0.9980319242,0,0.1174230102,0,0.3958886212,1,1,1,0.9999634456,1,1,1,0,1,0.01,0.01,0,0,0.01,0.01,0.01,0.01,0.01,0.01,0.01,0,0.01,0.01,0.01,0.01,0.01,0.01,0.0917276806,0.5463579983,0.01,0.5826816394,0.01,0.01,0,0.01,0.01,0.01,0,0.01,0,0.01,0.01,0,0.01,0.01,0,0.01,0,0,0,0.01,0.01,0.1608511578,0.99,0.99,0.01,0.01,0.01,0.01,0.01,0.01,0.01,0.01,0.01,0.01,0.01,0.01,0,0.5,0.2000006297,0,0,0,0,0.99,0.5222732585,0.01,0.99,0.01,0.5599887405,0.01,0.99,0.01,0.01,0.1048387097,0.01,0,0,0.01,0.01,0,0,0,0.01,0.01,0.01,0.4629792842,0.4686327778,0.5181755544,0.01,0.01,0.01,0.01,0.01,0.0139252333,0.01,0.01,0.01,0.01,0.01,0.01,0,0,0.01,0.01,0.01,0.01,0.01,0.01,0.01,0.01,0.01,0.01,0.0595702082,0.255,0.01,0,0.01,0.01,0.01,0.01,0.01,0.01,0.01,0.01,0.01,0.01,0.01,0.01,0.01,0.01,0.01,0.01,0.01,0.5544444444,0.01,0.01,0.01,0.01,0.01,0.01,0.0466677803,0.01,0.01,0.01,0.1457352927,0.0287155329,0.6748325148,0.2794281518,0.0136147765,0.1813414369,0.1387103149,0.01,0.0230829548,0.4300073243,0.01,0.99,0.0100794092,0.01,0.01,0.01,0.99,0.99,0,0.01,0,0.99,0,0,0.99,0.01,0.99,0.01,0,0.01,0.01,0.01,0.01,0.01,0.01,0.01,0.01,0.01,0.01,0.01,0.01,0.01,0.01,0.01,0,0.99,0,0,0,0.99,0,0,0,0.01,0.99,0.01,0.99,0,0,0,0.01,0.01,0.01,0.01,0.01,0.01,0.01,0.01,0,0,0,0,0,0,0,0,0,0,0,0,0,0,0,0,0,0,0,0,0,0.01,0,0.01,0.01,0.01,0,0.01,0.01,0.01,0.01,0.01,0.01,0.99,0.01,0.01,0.99,0.01,0.01,0.99,0.99,0.01,0.01,0.99,0.99,0.01,0.01,0,0,0,0,0.01,0.01,0.01,0.01,0.01,0.01,0.01,0.01,0.01,0.99,0.99,0,0.99,0.01,0.99,0.99,0.01,0.01,0.99,0.99,0,0.99,0.01,0.99,0.99,0.01,0.01,0.01,0.01,0.01,0,0,0.99,0.01,0.99,0.01,0.01,0.01,0.01,0.01,0.01,0,0.99,0.01,0.01,0.01,0,0.99,0.99,0.99,0.99,0.99,0.99,1
outputCount=1
weightIndex=0,201,64001
weights=##0
##double#64001
   -15.8651866139,-3.3075898298,1.2090198947,1.702044137,2.0009314345,2.57382755,-0.3985089817,-0.4053025212,-0.5419071652,1.16713625,0.9935422485,-0.8412178895,0.9636972579,1.725792434,1.02914791,11.0576051177,-0.4068297277,-0.3737868422,-0.4150128393,2.3063085887,1.5746985459,-0.495167487,-0.533503797,1.6138161918,4681.5918914103,0.7896295033,-0.4888590413,1.0594942407,1.2662703416,-3.9615765609,-2.5709825625,-0.4240528683,-1.0987111201,-1.0576691218,1.0528093434,-0.4594773296,2.1313730232,-0.4960457299,-2.0278472942,1.1414215338,1.4066081418,1.7445301107,-0.4154738479,-0.3709619592,-0.3658492404,-0.619128341,1.068210767,1.0763981844,1.2126073533,-0.485090881,1.1474045852,1.3233808973,1.9909832628,-0.5681444413,-0.4591511484,1.0406411309,-0.4785509952,-0.3537861575,-0.3825068224,-0.4877783599,1.0348152337,1.2777847364,0.8804826431,1.6757355473,-5.2000879664,-0.4866377047,2.4963386335,-0.5010334501,1.7793757057,-0.5051154925,-0.3723823178,9.6894963641,1.8792656359,1.5194109087,-0.4303085907,15913.0606088676,-0.5451113817,-0.5460981656,-0.5267518121,-4.207475303,-0.3667747425,-1.1263475507,-0.3686277646,-0.4337305601,2.283992912,2.13457052,1.8455939484,3.9630733413,1.0670832979,-0.5040801435,-0.3932522814,-3.8962548741,1.5226930572,1.3110449851,1.578860177,-0.4510968362,2.0941277869,-2.3393130613,1.7966917168,-0.5365563114,4.7170281124,0.83805877,-0.4785055504,1061.7811064657,-0.1066160933,1.0391870701,-3.1742952087,1.428439278,-0.5493379988,2.7357595667,-0.372559716,1.4156014743,-0.5356462649,-0.4157522471,1.5244696177,1.033000258,-0.4137032252,1.2035576834,1.33776225,1.2448970262,-1.6955473369,-0.4889459021,0.7133552182,-0.4736125397,-3.1104679291,-0.4903247111,-0.3774843936,-0.5248539238,-4.2043877261,1.2069388634,1.8058057179,-0.5208344186,-0.4554539825,-1.1241034132,-5.8108870633,-4.0355412957,-0.0822689141,-2.6764562324,-0.5601608007,0.7556488081,-3.1135085974,1.1014600369,-0.5696639012,-0.4723701825,1.2623600569,1.2696615069,-0.3911845698,-0.2704618616,-1.1464127384,-0.4818908835,-0.533479013,-0.4779296615,-2.4990721849,1.3531757066,-2.0099040829,1.3149877204,-0.4068327247,1.9470604031,-0.547712426,-2.661829489,1.394313801,2.0194988278,0.852509709,-3.68635969,-0.3076746902,-0.5580636135,0.1104713576,1.2701018469,-3.1168752723,1.8992494396,-0.5382083987,1.0748414029,2.0628953195,-0.5481562641,-0.5358103499,1.4323404872,3.5561618143,-0.5583125314,1.4515800338,1.2677417551,-3.7812256729,-0.7010146115,-0.404445031,-0.496143311,-2.4197193736,-3.8273454922,-3.0444608584,1.8080015636,-1.4531243873,1.3095292591,5.3211333847,1.0927216188,-0.5439431425,-0.554910422,-0.4290720873,0.724943824,-0.4590933597,-1.4532772341,-0.4303611987,2.2702435423,-0.5108478817,0.3080224263,0.7499078169,0.5200818242,0.0715571256,-0.242605937,0.2553470384,0.0851717656,0.1986399507,0.2088437962,0.1388597821,-0.1508656438,0.6082952469,-0.4509708641,0.0043849525,0.1397119786,0.3130575951,0.2231027165,0.0679624128,-0.6450425568,0.4937840126,0.3279631785,-0.0072072618,0.4000949994,0.0041892459,0.3891205256,0.674268322,0.5182899298,0.3042145382,0.4686428837,-0.0329728225,0.3406754007,2.1953519205,-0.0554111373,0.576260857,-0.3977602562,0.317514313,0.4208516682,-0.4753099934,0.4742354906,0.5070783761,0.7090177116,0.0986611899,-0.0914180842,0.1301469367,-0.1448863112,0.0715951032,-0.134779196,0.0635284049,-0.1774788062,0.1358115539,-0.1141174119,-0.2865739363,-0.0697177885,-0.1945901224,0.0555934509,0.0205735002,-0.1095538573,0.3003298363,0.2574619974,0.2756842772,0.2258452411,0.1707888213,0.5495690446,0.4383931155,0.5729965428,-0.243194443,-0.313185711,0.3598502242,0.2191555539,-0.1221228317,-0.3321011511,0.0255049633,-0.3976448475,-0.2752106873,-0.0609420783,1.1919112609,0.158581189,0.5437569039,0.1793768753,0.3169206983,-0.3205395457,0.6043186395,0.6942671629,0.0112048594,0.2403564466,0.5712942598,-0.0270824684,-0.1720984361,-0.2919916527,0.1179139247,-0.2089325832,1.0001088464,0.6487557827,0.1912052068,1.0314995087,-0.307835424,-0.2839638465,-0.4266115172,-1.932227725,0.9199094899,0.1976449094,0.1377236879,0.4082450754,0.4612883497,-0.3633988449,-0.1443837681,0.5387946766,-0.1151981459,0.1528198212,-0.1953229473,0.3254628614,0.1107269082,0.0418537257,0.2537589478,-0.2217710966,-0.4905786832,-0.5368245742,0.1500458861,0.5340830464,0.0949595968,0.1119929843,0.5695125752,-0.2835967973,-0.3473082395,0.569247461,0.2072972261,-0.2339403919,0.1474759897,-0.0837024738,0.0630684157,-0.1179173263,-0.6274057329,-0.3201651071,0.0669086739,-0.0597000511,0.5533099851,-0.1185746419,0.0777464972,-0.0207939181,4.6117660458,0.0042706648,-0.2423892164,-0.4866683389,-1.1429288102,0.4165581944,-1.1073079477,-0.2259230572,-0.5834249962,-0.5610377934,3.1931518547,-0.6220799622,-0.3602981402,-0.4825149803,3.5430710335,0.7688789977,-0.1715885488,-0.5287927174,-0.2013294468,-0.0701223014,-0.1726366761,-0.1990222969,-0.1817465252,-0.1576352843,0.1823208972,0.3253779445,-0.1091875177,0.4285161997,-0.3583059611,0.3575629291,0.470347511,-0.1843808577,-0.0213827277,0.0204902699,-0.1451615801,0.1087340714,-0.1553705517,-0.2301075651,-0.0430301514,-0.1954152753,0.2580008795,0.0619976191,-0.0194220202,-0.029369856,0.2248442978,-0.2015757652,0.056466232,-0.2625408879,0.256361654,-0.3246172768,-0.0296098525,0.1812645203,-0.0829980091,0.5325646602,0.474187188,0.3940653412,0.0421770296,0.467318344,0.0040100563,0.3014711718,-0.2244683911,-0.075700189,0.0697502435,-0.0327393893,0.2791675736,0.3147217885,0.1973417228,-0.2390785705,-0.1080306433,0.0888025887,0.1486748883,0.1060602677,-0.0585685109,-0.2773411592,-0.0691795272,0.6623582934,0.0871410231,0.0819657095,0.5879045671,0.3956468233,0.6964292936,0.1884497967,0.2084897634,0.1571207453,0.0273396165,0.4109352999,0.1858150896,0.1197900838,0.6540006421,0.5578787171,0.4312630501,0.1323733032,0.329691544,0.4194184335,0.5590069573,0.0580478051,-0.382990755,0.2773932189,-0.0286545256,0.1698723179,-0.0634713661,0.4497532056,0.0039132951,-0.3545468061,-0.0041946618,-0.0521129981,-0.1107416398,0.1085506244,-0.225538075,-0.2549682221,-0.2653900263,0.1877168777,0.2131743455,0.0313198715,0.0857435773,0.1492061178,0.1570938474,0.1951939798,0.0474060737,0.2633552608,-0.0509363964,0.2056104291,0.5729644832,0.2547033312,0.3414900706,0.2499812497,0.0606784366,0.0815962264,0.1867610162,0.1440709287,-0.1592514904,-0.3315570377,0.2245721925,0.0181218832,-0.1877323162,-0.0471522316,-0.4346051131,0.6409753761,0.1872392329,0.0222249058,-0.0311939586,-0.3791343195,0.2951710687,0.7159400737,0.1547616398,-0.3333453066,0.4288664484,0.1954303913,-0.1256623018,-0.4391983419,0.108466112,0.2489988815,-0.374487911,0.1070012399,0.2352801006,-0.392484375,0.4471812073,0.577755819,0.1328163557,0.1495675311,-0.228594027,0.0387450363,0.3664018815,0.1647603508,-0.2399495439,0.0682703718,-0.2019195209,0.3169271653,0.1492341648,0.3487092999,0.2636880215,0.4438583884,0.3806976844,0.1966659062,-0.2364137772,-0.0183852897,-0.0539579087,0.1061741972,0.1688739016,-0.017789631,-0.3640237547,-0.2410989809,0.058211501,0.0971108099,-0.3936357873,-0.7267399725,-2.164935136,0.0570296688,-0.3276057483,-0.308998753,0.0173262931,0.6148424702,-0.7975040944,0.2129969636,0.2170298645,0.2340331534,-1.1599236167,0.1137526107,-0.7942965499,-1.3379239253,0.5438379233,-0.4965248153,-2.7613634383,1.1944473954,0.6957819662,-1.6647082548,-2.19325622,-0.3992257056,0.4184436541,-1.2411203651,0.650065897,-2.5142909795,-1.1711457962,0.2816213154,4.0283335274,2.6816057211,0.5238874534,-3.6530474226,0.3365728022,0.5375998637,0.0560840302,0.5053947823,-2.4070207385,-0.040277832,-0.297774394,-0.3152306896,-0.4094264317,-0.5071656109,-0.0846130396,-0.1317678371,0.4865740032,-0.3025077849,0.6056546358,-0.0147183869,-0.9082333113,0.2531208446,0.7671510975,-0.2257601026,0.0873411422,-0.6017436478,-0.5426655634,0.5521449872,0.421616627,0.0433786776,0.3717204395,-0.2095968771,0.1561043688,-0.5093852769,0.0512391821,0.1962091802,-0.2770146677,-0.0554157567,-0.1286067844,-0.1103937781,-0.1121048339,-1.6259545541,-3.006848677,0.1237131552,0.3604565436,1.5639576165,2.1805160127,0.3482456651,0.2120862172,0.0267476377,0.548553872,-0.4573626456,-0.511212447,-0.4311440203,8.3564910581,-0.1072494933,-0.1914070397,3.8482863563,0.2555980493,-0.4467715408,1.2937824047,-0.1393760085,-0.2440279231,0.134202688,-8.5595902624,-6.2734185401,-2.1913847928,-0.3190445604,0.5297759905,0.410029017,-0.6898917909,0.1080735688,2.4468032831,-0.3116451564,-0.3256612419,-0.2456893426,-0.8788323903,0.1049440001,2.3871972462,-2.9893872092,1.991396409,0.0011936457,-17.4960139557,0.6603019411,0.1321352662,-0.0433130305,2.2295622757,-0.458607976,-0.1041144879,-0.6218165541,-0.1244288632,1.1663881246,-0.4871531657,1.262461431,-0.936314216,0.6459567623,-0.0615107367,-4.3213112561,-1.0836412999,0.8622054504,-16.6968213206,-0.3064667462,2.5089829122,0.6856400759,0.3407939198,-0.4753518754,2.9147531359,-0.3592763919,-5.4021596275,-1.3138860943,-0.2324366198,-1.7129636866,0.0120298763,-0.115577662,0.0407434229,-1.4078009999,3.0803413075,-0.1607347882,0.12660269,-0.3310959729,0.0766241516,-0.0456431832,-0.614503223,-0.3742171892,-0.5796901475,0.4167332272,-0.2516716417,-0.5184974527,-0.2001076669,-0.113631489,0.5292371582,-0.6257824812,0.4590965269,0.1480151139,0.2235805383,0.147483105,-0.3343210156,0.2474702365,-0.1118998721,-0.0736262962,0.0543438656,-0.0063437577,-0.0209121605,-0.0553295847,-0.0662168265,-0.2500400871,-0.5320856995,-0.3623673222,-0.0919176127,-0.081115905,-0.4897484481,-0.0840781954,-0.0866231296,-0.0814777734,-0.125187259,-0.452835047,0.3108163323,-0.115060735,0.1162652719,0.2105358583,0.53622431,0.027712067,0.2279554738,0.2840631507,0.4449694086,-0.3882097066,0.0974620731,-0.2926251934,-0.4631301262,0.1304559472,0.0824036177,0.3595771755,-0.0946715585,-0.1833228228,-0.4731506019,-0.3750076149,0.0129571312,-0.5001163235,-0.1006068696,-0.3599545024,0.0545701159,0.6049937106,0.6450057969,0.6007515061,0.6081693981,0.5229404169,0.642328725,0.1489865275,0.2496593904,0.3236086638,0.1734426205,0.2483851594,0.2933606656,0.1196318812,0.053959334,0.0252794663,0.6924976738,0.1226144334,0.4033422303,0.6193202416,0.3401718826,-0.2025071652,0.5151846406,-0.4804603154,0.8241637917,0.505876068,0.0613695943,-0.2147370691,0.1645046532,-0.1470491234,-0.1284416563,-0.1871637906,-0.3463153743,0.0933093188,-0.0076267751,-0.0999637694,-0.3299863197,0.0202987936,-0.0661869084,0.1204895136,0.1860594312,0.0620775647,0.0837371184,-0.4270345919,0.2020750177,-0.731976333,-0.4384551301,0.0303425465,0.0219598426,0.3408471372,0.2323316798,-0.0854271322,-0.2214045697,0.2898466594,-0.1473649447,0.1107709733,0.2943857816,-0.3701948756,-0.1545331561,-0.1977465519,0.6684916227,0.2535262609,0.5854762151,-0.1409891058,-0.518273226,-0.4800738664,-0.0626945403,-1.5555566488,2.9949963333,0.0283112071,-0.4919083705,0.1404443072,0.0940307478,0.0962066729,2.3413959803,-0.3306661796,0.021227087,0.0122011187,0.1736125141,-0.14011895,0.1918468208,0.1242307508,0.6069192439,-0.4087516584,-0.2975589371,0.1809822802,-0.3108457306,-0.3445703142,-0.7066686457,-0.2890841281,-0.1500771938,0.2571565206,0.429362673,-0.1879252958,-0.0426269636,-0.2361966024,0.0196032102,0.0526401887,-0.2238220794,0.1567099723,-0.4083308286,-0.5174132488,-0.5685344303,-0.1943536336,-0.1112913179,-10.2303073658,0.1675761004,0.1267661279,0.3379766342,-1.1856995552,-3.3142050842,-1.0806662817,-0.1506155338,-0.4221358548,-0.0254718789,1.5771006004,0.4167440673,1.5156865218,0.1390320556,0.8030593382,6.4218045046,1.0761533345,-1.502591907,0.4504442425,0.5341139323,-0.0051272477,0.1566369508,1.1121229887,-0.5597050174,0.595770339,-0.0729720331,-4.263299363,0.0525559132,0.588406659,1.3806208735,0.4165416962,-7.4996765033,8.7562916217,0.4390924381,2.2405629559,0.3147398755,0.5349665156,-2.4167371521,0.0469207884,0.6591733474,0.0259394697,3.0638838292,-8.0645832622,-0.3253966523,-0.0788934946,-0.2946493521,0.2883846378,0.0250034972,-0.0361015514,-0.0926322737,-0.2792783096,-0.3608144686,0.8109937422,0.0448447023,0.693817116,-1.7250534904,0.1985298035,2.858562651,0.462187567,-0.3021933173,0.2822754691,0.3684477975,0.1817396821,0.0705214324,0.1459531742,-1.7682763144,0.1948285259,-0.1077520131,0.3097201247,2.3690409382,0.3530158594,-2.6425661629,-0.0118520424,1.4793096706,-0.1364501166,0.6564856686,0.6838612912,0.5199397995,0.4060903755,5.4474529753,0.452943527,0.3186315304,0.4313062505,0.1053454126,2.1512225787,-2.188174176,-5.4912399476,0.3036823948,-2.0947987799,-2.8854804571,0.1287515602,4.5232315679,-10.4908163917,-0.2437938602,1.1370891677,0.2369125821,-0.2725071772,4.6921503083,13.5521630206,-0.716560184,12.047275195,9.1165493703,0.3870686729,0.1351324531,1.1549350032,2.536465885,-1.1800738441,0.3023243731,2.3432174652,0.2047392745,-6.9951823108,0.4020087532,0.3300529821,-2.2785733375,3.025977141,0.1813106919,7.6604394978,0.4108905657,-0.9523272436,0.0672716211,2.4586732884,-0.4940579583,2.5298822147,1.730912455,7.0943236732,0.3201810151,0.3379979634,-0.866137397,-10.7482121347,-0.2108358115,-11.3158786605,-0.2521190547,1.0736585738,-3.2630476444,-0.6460201095,0.8355608865,0.7931604411,0.1373566423,-1.946571352,-0.2590675081,-0.3676206694,-1.138181777,-1.4002849786,-2.8200216771,-2.7425012726,-3.1023862629,0.7222774906,-1.8243467205,0.0581063759,0.3991544849,3.5614153046,0.3579009319,0.3179265306,6.5402213052,-0.728922344,0.2778114296,-0.9628019519,1.0795926164,-0.1636184064,-0.5552010976,-2.3993781752,-2.0804217088,0.1456747817,-0.206541472,0.5143772706,-2.3353933499,0.3541216406,0.3619905706,0.4857275723,0.7087485391,0.1665219911,0.2290298184,-0.3153771611,-0.1658553559,0.025046279,-0.1050621823,0.0458030602,-0.0662416748,0.0459662907,-0.1080715687,0.2093434413,0.0436315812,-0.1164861883,-0.1451882453,0.1069681046,-0.1794197438,0.0916677452,0.0709920722,-0.2581094608,0.0450609186,0.1305171605,0.2601674864,0.4420335822,0.5013850221,0.1747321537,0.2747997718,0.6523950674,0.3777077476,0.6290914871,0.3417892568,0.2412269749,0.3373284764,0.2578316322,0.3413234208,0.6636086165,0.5847530994,0.2532383787,0.0412985452,-0.4954786232,-0.4044574893,-0.7210978626,-0.0439723277,-0.499112365,-0.1363318896,0.2384435126,0.2116975876,0.219273112,0.2536981659,0.5910585205,0.0780458301,0.2613734436,0.3978675559,0.4030969453,0.678515293,0.1777280417,0.4946496038,0.2869474208,0.5483941182,0.4298049778,0.4437757954,0.1314356497,0.388193952,0.4201755083,0.6369959856,0.2568021217,0.4718191241,0.5064260997,-0.7800748867,0.2861256285,0.1919209023,0.6575557205,0.7578912027,1.1231934223,0.4530288869,0.766693884,0.5111665472,0.720702493,0.1567848164,0.3643874812,-2.6414329753,-0.0980274934,-0.4006534404,-0.1766559625,0.1752638213,0.303204958,-0.0187742845,-0.3369161504,-0.1052163702,-0.2101029233,-0.9548613871,-0.5911096284,0.3850467391,0.2131742118,0.0221269474,0.0946713058,0.1587995185,0.4324066904,0.1767752819,0.6213750815,-0.0040895023,0.4630539421,0.3348889999,0.2825744857,-0.7341537043,-0.2357497202,0.1862679479,0.2253066339,-0.2365805782,0.3421936272,-0.1273056341,-0.1830685839,-0.1069401209,-0.3823219347,0.0039066786,-1.1362387178,0.0648625399,-2.9644833601,0.2737800115,0.0908141142,-0.2835878953,-0.0508997634,0.3051213072,0.5152456435,0.2870629011,0.3330276787,0.3615621239,0.6533995421,-0.2379520977,0.5690669229,0.0221486329,0.2953954833,0.5292927081,0.3979366754,1.0889991142,0.3456814244,0.2192234186,0.6784889184,0.2658370759,0.8085617565,0.2742113521,0.3904609923,0.4321333224,-0.11865919,-0.4392198899,0.706802741,-0.2631988765,0.6442033724,-0.2464918754,-0.6598779559,0.3216915234,1.2839691173,0.4550682516,0.477044624,0.3286801958,1.4980339622,-17.9828633103,-0.2500250491,0.4409505945,0.1918354028,-0.2548352452,0.2334813124,-3.1752393517,0.5740443842,-0.3400586964,0.4593700063,0.6240514519,-0.238405693,0.1941860243,0.3081275499,4.2475598038,-0.2900380038,-0.866470831,2.9467625239,0.1264951742,1.2174769134,0.6860248655,0.2084257208,0.6780660718,-1.0846737338,0.3811048246,-0.9912688998,2.2288448085,0.5560733855,0.6290185343,-0.3657584731,0.4943858425,-2.1155371458,0.2831276124,0.2930792452,0.1222859381,-4.1546232439,3.2691584743,-0.3309033844,0.055153347,-0.0495049058,0.3349315437,0.2498519616,0.2389355973,0.3475643036,-0.9280275423,-1.0120435527,-0.5443718442,0.4311611789,1.5386081459,-0.1770320662,-1.6359626623,-1.0795263295,0.3588911733,1.7743529202,-0.0910762131,0.665701057,0.2478791247,0.0783620904,0.0932561029,-0.1025321102,-0.0222896092,0.7518517643,0.0562256112,-0.329062665,0.0671695599,2.6251805522,-0.1440856036,0.221069899,-0.2892665953,0.0294022584,0.3259605543,0.2869090589,0.2690648793,-3.7437081217,-1.8455624233,0.3166798656,0.5798875738,0.5625276329,0.5845482858,0.4761682087,0.7105384496,-0.1548646421,-0.5975656638,-1.6295292523,-0.1146023357,1.7198775132,-19.972356142,0.1223839497,-0.1714991274,1.8176858678,-0.2914923357,-9.1081242998,0.4248828331,6.384645224,-10.6712279539,7.3880733243,0.5865010972,0.397045862,-2.0619396896,0.0944424364,25.199189572,0.4156297351,1.1676047922,-0.1682339648,-1.8347208648,1.6067420328,3.8738040999,-3.1432270604,-2.2739426915,0.029839839,-1.0539693149,0.1644164012,2.3159278177,0.0159975683,12.1065262199,-0.0628234856,9.4393961164,-1.1792658839,5.3922816306,1.8507934785,0.1161596223,-0.3752414006,-1.7297170094,-0.7914962314,-1.0733097749,-2.4496624454,0.5581555928,-2.7750173055,-12.592545055,-1.9563885848,-0.2957516931,4.0612655046,3.5813080013,0.2074705884,-0.1628587481,-0.21115289,-13.4459636489,0.2746063283,2.2989995456,-5.1457650213,0.5695436334,-0.1810127129,-0.0417050387,0.710618789,-3.2481445459,-0.2555035897,0.0537186243,0.2061602546,0.3870563269,-0.2678678131,-0.3271256109,0.3919487258,-2.9460341062,2.0720544379,0.7763812633,0.7785593183,-0.0097425977,-0.1627352887,0.0822703484,0.3649844046,0.1104559681,0.3569221467,0.6411786977,0.3308860033,0.3524387434,-0.1317217111,-0.0035419343,2.489390257,0.1756992768,0.0064898853,-0.0137820077,0.0758255995,-0.0311538418,-0.2959915759,-0.3834198057,-0.3451013733,0.2977065249,0.0975157997,0.0257709334,-0.3212233607,0.2656857409,-0.1735191628,-0.0697998344,-0.0842422191,0.3404298339,0.0808297533,0.1632317697,0.267741922,0.2165265727,-0.2126315615,0.5537064569,0.5979988733,0.5119832702,0.3348337842,-0.2400457078,-0.1982878944,-0.2999067176,0.6181907789,0.2454740821,0.1837948089,0.295616792,0.1348466809,-0.7682517301,-0.9654582504,-0.7330924979,-0.8969458787,-0.528317129,-0.3983553696,0.0091146907,0.1204409893,0.283202257,0.6602233847,0.652304634,0.2667782994,0.1438607075,0.229048885,0.0153091379,0.5495958021,0.5111443655,0.2511558343,0.6166655082,0.0289756659,0.5553023747,0.6810149425,0.4172697667,0.6479379804,0.6084723655,0.6112145751,0.481203274,0.1320279616,0.0362011545,0.2656644535,-0.0842221541,0.3524101641,0.4457512096,-0.3316425919,0.2144536396,-0.3076931586,0.0593153308,0.304073917,0.4110218082,0.3405107947,-0.0367879293,-0.7516402622,-0.32088131,-0.338757822,0.1533961288,-0.1136271697,-0.2977780748,-0.2187391768,0.3266175134,-0.0586683529,0.0206538337,-0.4425475986,-0.2698926689,0.2253817353,0.6067383638,0.1464051375,0.4600791463,0.1186101891,0.1261392571,0.3210226164,0.2806336659,0.4400495881,0.1554829649,0.2730734139,0.0363766763,1.9439504699,-0.0770001353,-0.127907865,0.0541049334,0.1462212297,0.2920480704,0.3072946185,-0.2936056655,1.6100767977,3.0472568167,-0.2998987555,-0.1510602464,0.5922417918,0.7635472073,0.4298018539,-0.1975432065,1.3534724401,-0.0455197705,0.2374857513,0.1241641986,0.0799634478,-0.2340489992,0.1161334928,0.0714373744,0.0291580552,0.0069622672,-0.243405274,-0.2404059017,-0.3577787421,2.5444679135,0.2153091926,-0.1293279493,-0.2410674499,0.3509821431,0.088587987,0.3277079025,-0.1666842719,-0.0178240693,0.0570729828,-0.0387684715,0.223616845,-0.2398224071,0.3056137472,0.0398518806,-0.0272803322,-0.273167267,-0.1087036838,-1.048154673,0.6282429258,0.3825201717,0.2586583599,5.1790554312,-11.5838564638,-0.43966728,-0.194131692,-0.4065895767,5.016226392,0.3548626834,0.0689528419,-1.8999412238,-0.1182037553,-0.4495682396,-4.4947883534,0.2459852829,0.3958003245,-0.0732184223,0.6990221305,-2.1095848263,-0.116885924,4.3743367568,0.2598856043,0.1261806104,-2.0750382119,0.2653849631,0.4601747025,-4.1165508465,0.1873616034,-1.3726829375,-2.3751235213,0.0730620435,5.3318169865,0.3422240377,0.7075474479,5.7328317274,0.1154274305,0.0104751535,0.0794451641,1.0094085308,5.5992845118,-0.0960015879,0.0799385673,0.1730094629,0.1604765696,0.1432775483,0.3773782693,-0.1707496285,0.315535236,0.11208106,2.1586302259,0.9159452686,0.0204375487,-1.9952682216,-1.1864276143,-4.4335980981,0.4891932949,-0.622408689,-0.2464956543,0.3906014199,0.2997847826,0.5551550036,0.1483341203,1.188454874,0.244557669,2.7719507172,0.2540375733,-4.2636387921,-0.0250241666,-1.3796395455,0.0590988499,1.4317762628,-0.2037900769,0.5384269029,0.1048648682,0.2355528597,0.1281528853,2.3196035565,-2.6368148984,0.3191079869,0.3421592687,0.3761193184,-0.0663912341,-5.4223513783,-0.1668105574,-0.9511022669,0.0285503653,2.9915170611,-0.3146060596,1.1070350893,6.5738580862,-0.4544496843,-2.5807178714,7.5433413193,0.0975353188,-1.5227232053,-3.6840642325,-2.5979734778,-0.7011779617,-0.4752161253,0.2364883974,0.4324973514,-4.3363864202,-1.5044754472,-18.4802725508,0.0234575597,0.3736638976,-2.7557988761,2.1230317973,-1.4401865772,0.8537502454,-2.6917607229,-4.6282748792,0.3656316955,6.0568304487,0.3045496259,-1.9868039632,0.049958614,3.6904649468,-0.6228588986,1.695619084,-10.9246886002,0.2445951825,0.7274342591,0.4228056643,-1.3158008168,-0.2618170882,-0.6725381472,-0.0374652996,0.0797761325,-1.174203484,-0.7969584686,-8.7381235985,5.4712439312,-1.7002821104,5.0954514092,-3.1662102447,10.9514925378,0.704693088,-1.1511161699,0.8503049745,23.6634154826,0.5653095586,6.5942251714,-0.4840532437,-1.6884989891,0.1638763918,0.1353921963,2.0401717392,-0.0412829666,-0.1583227427,-0.1089386883,-0.0765067465,0.2664093422,-0.0306557339,-0.2072061048,2.0637939881,0.7082722695,-1.4983925515,-1.7067750803,0.2108992681,0.1458536116,0.582960605,-1.1454788669,0.5591755229,-0.1133003215,0.5342789542,0.6476387995,-0.1885829086,-0.1487717103,-0.0096268275,1.8217998424,0.2527660757,0.1451947987,0.1292961405,-0.2873669701,0.1846458394,-0.2490009131,-0.0089941727,0.0043837599,0.1562087111,-0.0087231329,-0.2191362288,-0.2018342592,-0.1076739313,0.1097705565,0.2994873484,-0.0939508342,0.5386435623,3.2711767321,0.3246145491,0.5657682123,0.5895767217,0.3463745282,0.4820982003,0.6995502688,0.0660706219,0.3671409003,0.3165389789,0.0394515612,-0.2805528663,0.5617567672,0.0327446072,0.0104668007,-0.3963275171,-0.529303656,-0.1192423482,0.1398641505,-0.0497132308,-0.1899788015,0.4231122771,-0.2029184388,0.2601121846,0.0111732736,0.6631267923,0.6321848241,0.7069618096,0.0449582764,0.0550613245,0.1665007151,0.2543298996,0.2783569376,0.6744177041,0.1102182867,0.3150225085,0.4031293906,0.3161099036,0.3489432975,0.3509196522,0.6703964243,0.5573323916,0.0449537894,0.6028857622,-0.6248410965,0.4345545324,0.3953535705,0.0231327625,0.2155179774,0.0932534979,-0.3537811696,-0.5124646136,-0.2423789854,-0.4377695758,-0.4042715167,-0.5209118633,0.2585736887,-0.17954979,5.2570403197,-0.1116777425,-0.1980701825,0.0471631313,-0.0099352269,-0.3886499228,-0.4894030267,-0.5639816511,0.2897477162,-0.3347706494,-0.0227633809,-0.360384611,0.2048026848,0.3605982346,0.3702666434,0.4635888428,-0.0713463122,-0.0123128406,-0.1544086641,0.020158294,-0.5281014942,-0.4724349498,-0.19257216,-0.4930612601,0.7426409483,-0.1864574305,-0.1851888908,0.3949519614,-0.0030438056,-0.0804341459,0.1227890652,-0.010243938,-3.5789265356,-0.873971624,0.1330423874,2.4108480009,0.0133776782,-1.2992745586,-0.1353344612,-1.2905317701,0.1288777104,-0.3953240318,-0.4589020502,-0.4691851937,0.0190569781,-0.4659710861,0.4318421362,0.3609898649,-0.1753951507,0.1437729853,-0.095773428,-0.095302235,-0.1928604337,1.5797136149,-0.1648129629,-0.1409770631,-0.3758773286,0.0072231646,-0.3106057306,-0.1185164187,0.053754209,0.1215766638,0.279266495,0.0380744034,-0.0045962872,0.4495008477,0.5085295026,-0.265975789,-1.3588773026,-0.0632094874,-0.196301097,2.1396478569,0.2671168591,0.4260462439,0.5107906559,1.3740599483,7.8112722132,0.0554411963,-0.0041276205,0.0439456681,0.0083662224,0.1468712639,-0.5038722985,0.5002937775,0.6098126863,0.6929682248,0.4936929225,0.4715667141,0.3355006125,0.4067178479,1.1244356289,0.0884857284,-0.7932859301,6.535469447,0.3125694338,-1.982082501,4.7175700639,0.0409288673,0.0180858477,8.044413217,0.4368889952,-0.0300920783,1.5796188394,0.568132461,1.2392799374,-0.1944735821,0.1454910791,-0.9898117243,0.1271267792,0.2240711346,0.382644116,0.0299853803,2.7692299823,0.3367381876,-0.114646383,-0.2398716264,-0.1735118956,-0.044724745,0.2930670865,-0.1531616431,-0.0244314119,-0.2170280517,-0.2975843986,-0.2530416763,2.7990572003,-2.7368767165,-0.3722572222,3.6720883325,0.0058325001,-1.0422441701,0.1819949692,0.6550831141,0.1923255322,0.4950335485,0.6686382222,-0.2015935531,0.2616253606,0.0170000656,-0.1050615614,-0.9954591246,-0.3482210122,-1.0987341884,0.0842457383,0.2031718932,-0.2552469724,0.7429474919,5.3632893791,0.5375365774,0.4873563763,-0.0387827552,-151.2458792899,0.1113034068,0.4317014443,0.7015808336,0.9958382344,0.1398937635,10.4168575918,-1.3599634517,-13.618984906,-4.9432304765,-0.1808867011,-0.064068557,3.7731372034,-0.1355122074,1.6926564855,-0.0192104831,0.1566559572,-0.0951874871,17.2548719862,-4.2416500705,-0.3889277656,-1.1002485571,0.5497514227,0.072063201,-2.9257234656,0.5333596028,-13.5439625452,0.3761587789,-5.4194119355,0.1418211245,3.7390082536,-1.5901877097,-0.1533153524,-0.5695427564,0.5087582448,0.197425709,1.9241670485,0.6035938611,-0.5584427809,-0.1244161268,-11.6212077558,-0.6783522289,0.9744070128,0.0162470353,0.5724693175,0.0119878745,-0.0971023922,-0.3801014482,-2.0600159593,-9.1390885128,-3.0875496544,7.7760787214,-0.3705518131,-6.5595483287,-9.1569581529,0.6230121169,-0.0022170548,-5.2339096255,-2.9273557002,-0.1352123699,0.2926416661,0.0715853945,0.7550446633,-0.2126681924,8.4407975028,4.0588867576,0.1818094118,-3.6983078881,-0.2761905106,0.3555957191,-11.524611676,-0.1671393364,0.8507510866,112.9714003959,2.7312199375,-0.2888262252,0.6742003223,0.0521426599,0.315698143,1.4593674288,-0.0851669752,-0.2228540036,-0.2166658828,-0.3400907048,0.0501115561,0.2444826809,0.1090337218,0.2255662665,0.2558133236,0.5050114774,0.187048341,0.7327758333,0.334949852,-0.2545828798,0.3637821348,0.3431414632,0.3580305274,-0.070866726,-0.1475066348,0.3127144592,-0.1706407342,0.0928156494,-0.0869372563,0.1372607165,-0.3251658091,0.2921252119,0.2650958733,-0.2762189985,0.2474364478,0.3280277935,0.0440426386,0.4448875308,0.0666610551,0.1009364839,0.4260203907,-0.2203472266,0.2680716643,0.5249669545,0.0796272461,0.1806775942,-0.2161312619,-0.2618893,-0.2193820837,0.6628353268,0.0028074806,0.0887912858,-0.146278223,-0.4079706165,-1.1015524578,-0.6339157957,-1.1549749927,-0.9919415521,-0.7586603453,-0.6559957201,0.2091721709,0.4797493984,0.6544704491,0.4209978316,0.151871554,0.165801785,0.2406878738,0.0847388606,0.2348172691,0.6436634672,0.5891149807,0.1272785504,0.1395950844,0.6477356978,0.6896176662,0.682416635,0.0610079248,0.0319530212,0.4646855586,0.3885847578,0.3512069594,0.0552762313,0.6872765781,1.2766338428,0.2950539003,0.030367951,0.5118512689,0.2294949309,0.3824610492,0.4218655237,0.2091191682,0.7962529815,0.3841590553,-0.1514582208,-0.1703933958,-2.3771028039,0.0760869704,0.1151643699
   -0.4441178111,0.0863359811,-0.1683722359,-0.2932457799,-0.2503094921,-0.1249811513,0.3346465109,0.0469174535,0.1119562958,0.1353365788,0.0041230965,0.5990846319,0.2967571623,-0.3929234123,-0.3889986024,-0.230212134,-0.3637710993,-0.3738173464,0.0839500481,0.1449626067,-0.1073007356,1.259690699,0.1448274827,-0.1153621377,0.1222543767,0.3079917865,0.0851204002,0.1513716604,0.2610695402,-4.1600090293,-7.3957624669,0.0123353234,-0.7314100941,0.6553282186,-0.0930909246,0.2106237604,-0.3279788032,0.074108091,0.187646132,-0.1353055422,0.2277462018,-0.0981143171,-0.3685832968,0.4142806988,0.590708218,0.2109509002,0.5057865388,-0.322574027,0.273681852,0.608043535,-0.4855022362,0.3953409589,0.3135468815,0.3470089037,0.4671542357,0.2124538753,0.1616656397,0.6384205023,0.5604137603,0.4763608791,0.1223892637,-0.0285312545,0.053355143,0.6172613291,0.2155495053,-0.0700122715,0.1463277664,1242.897062827,1.979727718,0.1038599393,0.4743480706,11492.7539318887,0.7830582357,16306.5697173934,29.7054950193,81066.3566163312,42289.9776003247,0.2983816337,0.4041492148,33803.0718916659,57379.0965647203,104.2197343326,16247.4427982824,45424.2409212664,59650.8972232771,35790.3970783912,15953.5065175885,16274.3423345603,62502.4566163594,7.5135892436,2.6325451233,0.6971909898,236.3409716707,157.6251525126,1.1928929936,0.2362139146,0.1986433581,0.6314304936,13.1994000999,4.8637498546,0.3278700881,0.1106267122,0.3134252344,0.0593658528,1.9132086584,0.6251105199,0.501972855,0.6473969299,0.5071385306,0.6228914432,46463.029308633,29466.9817745944,112394.9457128442,82918.9929892648,81053.9633356299,20515.0484675863,19016.5207488668,40.0823482146,4.3584686167,2.8402461922,2.0661144965,6.2386211649,1.0874470789,10.1811907217,0.8885876858,0.3638727254,0.2687408686,2.68239738,0.5530488593,0.381553225,0.3418468778,0.04811813,0.0648609242,2010.2727404843,1798.1931669891,0.5261436883,0.4880463723,23706.1894739454,0.4185972912,76861.1611862504,7.6387064594,60212.8035008985,115226.0707705516,2356.8338217683,0.6296056591,0.1374819123,4.8032010028,0.4677525221,0.1417461543,0.5343353197,0.2128506201,73356.5320491334,0.8089688526,1.0993270392,0.3695760077,931.6132050825,0.5842294035,0.6608671807,2735.5770948091,0.5284379481,15164.3016385501,1465.9772440527,9883.7693416023,44801.677236273,0.0318288664,747.0004226992,0.4242393146,2337.5274788972,0.2799370496,0.5371821647,0.1288156327,3.666383845,0.6243979973,0.5822120081,0.2961022834,0.3795987567,0.2000754965,0.0896514651,0.7534538145,3.4649348772,1.8277737814,93001.7108126893,5073.0692424754,-0.024266123,0.0149466931,0.9533442391,1187.7302197191,0.2084303887,67716.3702685472,49750.8380599532,0.9851541836,0.0515667433,6.5044995573,5936.1797372517,0.0369369786,1.7574375521,1.3949534062,4968.1117443088,0.4155027127,0.3101717811,15.0314158612,0.7184967702,3.8990558776,0.651386502,29746.8051270573,1509.940795961,21144.3269011931,22.0890372174,0.4380590547,93333.5732238876,13451.5409274213,0.0595617249,183.0916384271,95318.1751218518,60.523601004,49652.526318138,53.2836873911,4.8393302023,0.525357133,18736.557886471,18.8093406803,0.4154721562,50910.6661815353,0.2141328631,0.4022824182,40.2647621903,14901.0573494313,0.4792793247,-0.0004410187,19.0666694928,4.5398233828,0.4388816755,0.2516852301,0.4599913319,3.3745729795,0.4735033465,0.3801567194,94338.6701496934,104.3590303264,94338.5796205484,87.8237666706,0.5577877259,0.2916654327,0.3702601704,0.4811214637,0.1675602733,0.343872203,0.1667011347,0.3166724016,0.4385564281,0.1807332293,0.7089816331,0.081093738,0.1474559949,0.4255016455,0.064708668,0.4612721378,0.1912882306,0.485321607,0.7059845874,0.0208413444,0.1201291579,78783.0765086731,0.4117761348,0.6298552492,0.6538241475,17049.8232086806,6302.0661949171,17049.4549254208,6302.6166249899,0.2734811194,0.4067670256,0.5340328762,1148.6391171795,1148.6846487639,13.0816031096,13.3159025285,13.2519209723,12.8892925505,13.0230975495,13.3873303584,0.2285488464,0.0429569867,0.6412654921,0.1449176571,0.290141053,0.2025405406,0.4263158375,0.2698145147,0.3865057987,0.1202279322,0.6023614887,0.4138517822,0.5689008127,0.5189206045,0.4557612813,0.4588439301,0.2663322551,0.2981433013,0.563866681,0.4965267597,0.2819816462,1148.5259462874,0.2875354259,0.7925892798,1.4956936441,3722.5219070406,0.4440217097,103.8968111859,2.1822756253,103.7853607231,2.2340807644,104.3364525964,1.6838024843,37.1132289848,1148.7043858949,3.5530034864,66004.5083079352,0.6749252593,0.4858676827,90401.4949679594,90401.5353214721,0.4687691827,0.4344866247,0.9444358448,0.9092097438,0.5282728453,0.1644881243,0.1956358074,0.0834548568,0.0003117358,0.2700343501,1148.8624106762,1148.7715118146,1148.4300751114,1148.6066060068,1148.8702708447,1148.6114745083,1148.7580114266,1148.5667604195,14901.3974213416,4561.4430359934,4561.0344163003,0.1530796169,40614.1327235293,28314.6838517956,297.7576251507,112.6397697014,0.4216824143,0.2332895747,0.1899556753,3.8288905909,0.3674442477,-0.0017323071,1148.7614073315,109.4772475971,0.059343081,1148.8805324698,1148.8206883594,1148.8100692336,1149.0630118159,1148.5261622348,0.6136953375,0.2986687452,94338.8414987684,103.887876639,94338.6303414582,104.158703057,103.9149176744,87.9235790223,1.8186184106,103.9012464555,103.8365200005,0.5698415829,89559.5475517107,104.068984197,103.8976787879,104.3797169778,0.1089540013,39631.2024844456,102219.139022995,3.0234661571,12.2493890066,0.3541019831,0.799116281,0.173861548,1242.906754951,1.8662123592,0.0044907729,0.3024867454,11492.3667929483,0.7869512093,16306.5395755543,29.1530097216,81066.3567249822,42290.1134760053,0.3621325555,0.6913705847,33802.7642732171,57378.9225459973,104.3844702948,16247.2274885045,45424.4628166068,59651.1912207533,35790.5197528557,15954.112448799,16273.8049830912,62502.173248698,7.3502453071,2.7299558265,0.0435593326,236.5600658843,158.0378307723,1.532387316,0.3787052773,0.5270854977,0.568496765,12.9372534813,5.1372355649,0.299452295,0.1199861913,0.5749923564,0.4054467653,1.9450863312,0.2062529906,0.5632094754,0.2223391558,0.6441339851,0.329803802,46462.8109742238,29466.7984447033,112394.8477400733,82919.0058926762,81054.3509161744,20514.5559819988,19016.7814985396,40.2406575178,4.4342633475,2.8473558899,2.6442567651,6.8457769324,0.7529936309,10.2279046484,1.2433947296,0.3234006065,0.0092039668,2.9217126019,0.0679048834,0.6130920735,0.2432759421,0.3267519758,0.5365351891,2010.1562280076,1797.8673825183,0.0891763764,0.4790577768,23706.3991574301,0.7173646192,76861.2139834346,8.0974802627,60213.0553218458,115226.5088367001,2357.0328578985,0.4542018651,0.2816561121,4.3276714778,0.3841755696,0.0126914773,0.3197608227,0.4706871571,73357.1545727284,0.4391976107,1.0219115341,0.3988240322,931.8107739275,0.7383465909,0.6650433933,2735.2732169696,0.3236671404,15164.2927340071,1465.8542795014,9883.5783511187,44801.0700825027,0.5686060071,747.0290660216,0.2283119728,2337.4177356702,0.6148741368,0.1460377148,0.5401132714,3.5111594842,0.331329487,0.6716119115,0.0768108148,0.2155644058,0.4035893849,0.3501351371,0.9563774864,3.6883527434,2.2330385655,93001.7311623514,5073.2367402441,0.4513990577,0.0612395977,1.0231274736,1188.0095676776,0.088033931,67716.200285862,49750.4913623591,0.7970529823,0.1975628444,6.5970901451,5935.5568174231,0.6100391348,2.0359217703,1.3907570198,4968.3139254438,0.1607023065,0.3574058156,15.1583857996,0.6562648292,3.9173996685,0.7616859594,29746.3942574171,1509.9713008912,21144.3999784625,21.7209514308,0.5837091437,93333.337042827,13451.2225867693,0.664114364,183.1309232092,95317.724256892,59.9890058098,49653.1995706018,53.0200911595,5.2156035715,0.4652223804,18736.4083599705,18.9683541895,0.5125345952,50910.3804063319,0.453894285,0.12078576,40.198144191,14901.6369218755,0.2468460454,0.6851125623,19.2305358397,4.5746164788,0.2175464724,0.5780728324,0.252873759,3.2561614776,0.0203030713,0.5741550269,94338.811981726,104.3081379571,94338.4377194526,87.297376974,0.6661532443,0.433066966,0.2882501377,0.6358933328,0.6281316276,0.0412618658,0.1080381613,0.6443886707,0.3568400057,0.2108185597,0.6022936352,0.6882866284,0.169025342,0.3601781029,0.5663999908,0.1646482911,0.2951842807,0.9497294652,0.3720591696,0.6829393113,0.546689545,78783.4109112685,0.216199309,0.5870325316,0.4169057835,17049.943127322,6302.6337719072,17049.7074043034,6302.7574408849,0.5531315492,0.1533393665,0.0549387024,1148.6741643077,1148.8228393033,13.1840630641,12.8669906487,12.9959020743,13.4414784912,13.2924410246,13.1617238895,0.4573255945,0.6107941546,0.6535311785,0.4482515243,0.5644028977,0.1496128273,0.0073198066,0.0350739771,0.6767580373,0.3813425887,0.3666000169,0.2141851488,0.0170034831,0.4771109304,0.0899907406,0.5649682834,0.4217048406,0.1461276573,0.3847933673,0.0309896868,0.0723693242,1148.6002338541,0.2188746232,1.1609096936,1.5546480848,3722.8138145548,0.3433302727,103.9415461539,2.1868297337,104.1750493955,1.9764980328,104.2509560358,1.8599120485,37.3212812802,1148.9088945865,3.2767805533,66004.4964530944,0.4382990483,0.1249965405,90401.5076104666,90401.6428985339,0.5756870552,0.5342022219,0.6438871833,0.9852905675,0.3529850807,0.5291351447,0.2871742312,0.2275643362,0.3738730412,0.332119014,1148.684309462,1148.7770617776,1148.642590004,1148.5137544617,1149.0858301161,1148.4506413073,1148.4799221365,1148.5294772631,14901.3663999455,4561.6924191354,4561.3624337746,0.4738259521,40613.9244251894,28314.7794325863,297.9095129883,112.1602657851,-0.0480638777,0.0569279499,0.2960207252,4.0785860827,0.6835463137,0.0231472477,1148.9986079855,109.1392098761,0.0889474101,1148.5026383303,1148.9588238079,1148.4567812744,1149.1008367456,1149.0051831652,0.4674805138,0.2592607345,94339.0293161971,104.2890154048,94338.6876598724,103.9175522373,104.3619007063,87.7427173406,2.1306570334,104.0417991577,104.3216852454,0.0550333084,89559.3370036062,104.0291322117,104.2627642926,103.8948503604,0.3354362178,39631.3090265922,102218.5467368222,3.2515634311,12.6945551052,0.4819913519,0.4790675559,-0.3156231131,1243.2999380372,2.0701447643,0.5771477326,0.1678726588,11492.6965302682,0.3772063555,16306.5558291772,29.7771611241,81066.5330422595,42290.5166311515,0.5918570741,0.3779988175,33803.3638697223,57378.8030105797,104.530402138,16247.3725294492,45424.8870200912,59651.6302469356,35790.4388579399,15953.8417499744,16274.5174775114,62502.6896394666,7.4414043272,2.7183373624,0.7023555438,236.5442936618,157.9120279898,1.3527242217,0.2614990709,0.9354147665,0.4529491904,13.5507010174,5.1653576444,0.3503385917,0.6608809196,0.6740362973,0.078372764,1.7530960494,0.0655014156,0.6923370313,0.5011574405,0.8509908163,0.8725147319,46463.2674736785,29466.6584201587,112394.9170061435,82918.9545916553,81054.7335453577,20515.354658618,19016.7203216915,40.5248058582,4.2887330926,3.3098796901,2.7217986266,6.6912243546,0.938024538,10.6435553426,1.3951767375,0.1053017016,0.2769652057,3.2184552971,0.1232428805,0.4882331461,0.6078337335,0.6770241639,0.4103843812,2010.2740031878,1798.0952280888,0.699198056,0.7299060299,23706.6620739475,0.5825070113,76861.2235333701,8.2974536938,60213.2273206541,115226.3409932262,2356.538132178,0.1990490161,0.1875535929,4.8117760712,0.7003786976,0.4077340269,0.3020479076,0.2823074657,73356.6704737016,0.5089652261,0.8631344805,0.4594901598,931.7118628215,0.8621180705,0.7538551182,2735.5867779934,0.6432877637,15164.6835536682,1466.0960789455,9883.8491762582,44801.2418433977,0.2125905304,747.4307025996,0.3619140244,2337.8306454151,0.5608501766,0.0738544619,0.5510528426,3.6623755832,0.690036752,0.6047065868,0.6481913894,0.4658847252,0.2070688793,0.7527654631,0.7495972431,3.4513580253,2.3172834334,93001.9716329567,5073.3187443498,0.5161064659,0.3729634013,1.3036826586,1188.2273027556,0.7212087696,67716.2504432139,49750.7261342975,0.7391356319,0.7289343212,6.6883811275,5936.2234014356,0.7293119155,1.7962745262,1.5262453097,4968.2780499872,0.0865576915,0.5613131202,15.077313877,0.7897962819,4.4076759602,0.6374043486,29746.8102187233,1509.922397236,21143.974942383,21.7409982093,0.2473747075,93333.742182083,13451.4567721907,0.4790541564,183.7676371889,95318.0565282106,60.5801310272,49652.751969126,53.4463617856,4.9989225785,0.933234265,18736.5203483681,18.8699028733,1.0021261623,50910.5672785168,0.7385905496,0.5483050845,40.243818313,14901.1418731181,0.1954526299,0.2665535568,19.0935218132,4.680419255,0.6810055985,0.1627929986,0.5837873727,3.6375904036,0.6353430848,0.0825084775,94338.7340242576,104.1028234032,94338.9654376798,87.5428688624,0.0471280624,0.5557561901,0.6084268888,0.5091168966,0.7850070429,0.6154054164,0.5629902057,0.6083370221,0.4538882796,0.6161602269,0.7266059329,0.6412639849,0.3349009563,0.3268549147,0.7041146425,0.8394416198,0.5134298578,0.5078144621,0.3268529177,0.1787266907,0.4104245741,78783.5926109419,0.2643147838,0.0068783361,0.1615216932,17049.8080651438,6302.6777305467,17049.8394382138,6302.8434639898,0.3798368643,0.3580428051,0.0226127391,1148.9036128892,1148.8996847875,13.4777017469,13.4278110795,13.227214933,13.566559842,13.4251590399,13.4764162549,0.4627051938,0.4641797493,0.5048763055,0.1674030006,0.580058843,0.0636657491,0.4851429752,0.5891135989,0.234031374,0.695236968,0.5042192963,0.5330914736,0.2856471761,0.4834164181,0.3293466487,0.5536775907,0.4178886969,0.1924799514,0.6930482774,0.1648431198,0.0123768071,1149.2256889599,0.0740543567,1.23483768,1.9653232196,3722.4890710552,0.2650524709,103.9308549689,2.4842349324,104.5357968917,1.8763046344,104.0131794427,1.8110575967,37.3846470095,1148.5999583876,3.7635322023,66004.7661512974,0.274666502,0.3087892237,90401.9585072024,90401.9002068784,0.7066258622,0.4763423098,0.8526318145,0.7589803846,0.79379317,0.7318991057,0.0072329009,0.701824672,0.2572846146,0.4925017276,1148.7367722892,1148.6130165574,1149.0204684991,1148.5819848064,1149.2158588852,1148.8472296108,1149.0008419173,1148.9994537625,14901.4301942903,4561.6314148026,4561.2632924955,0.2070885219,40613.8892731809,28314.5815755962,297.3875195744,112.5188089507,0.2295778236,0.417540032,0.2919054057,3.8972981197,0.3183355108,0.6116669529,1148.6389140321,109.8804567933,0.2399835968,1148.8589893263,1148.9672898924,1148.9068714644,1148.853340698,1149.2025797216,0.0350734354,0.5998957092,94338.6211218763,104.2811789256,94339.1064599552,103.8842549176,103.9415321117,88.0250225215,2.1829036597,104.2222993856,103.9248964314,0.5527337097,89559.9380527837,104.1672181702,104.4740916516,104.4352733894,0.0352803441,39631.5247383496,102219.1117050702,3.6857644227,12.6020834457,0.6873161814,0.3423509872,0.1261661622,-0.1630046744,0.5762301383,0.1820196079,0.019579202,0.0532285223,-0.1834687401,3.0359824014,-0.0325962119,-0.1126475397,-0.2739226129,2.3565363023,0.1223380516,0.7863246212,0.0028254304,-0.179881348,0.0046221808,0.0823356657,0.2189371197,0.178171124,-0.3079012971,-0.9273838961,-0.0358052719,-0.4385443513,0.9438233635,0.2354801382,-2.9914680572,-2.3297507809,-0.0772352962,0.3804673557,-8.0645656035,0.5820683503,-0.6779320281,-1.8559776314,0.4945843837,0.9768465333,1.786495879,0.4172908941,6.7555168094,0.4309257244,0.1732777888,0.3363777496,-3.1326758432,5.0794443413,0.1756244474,0.2535652208,-0.0338746222,0.1347596436,0.3322904046,-0.1865464674,0.4852819686,-0.2191240029,0.1021949784,1.4272509053,0.4744623839,-0.5938632245,0.4653113574,-0.3225558122,-2.0048150615,0.037497756,1.8930892413,-5.7704227784,0.1613139568,0.0410378072,0.0568693231,0.6364740147,0.2177400744,0.0905278353,3.1018527386,0.1343727111,12.7814036719,0.3556848462,-2.5986340656,-0.0745329124,0.2400305601,0.0481241656,-3.5597306909,0.3412342203,0.4799480896,0.2880588204,-3.6820094559,-0.0807530239,0.6529252474,0.2703075814,0.1831710094,-0.2177188798,-3.1853719976,-2.7126774544,2.278876796,-0.0011054679,0.2437211402,-0.1085926447,5.4710153215,-9.5817947824,-0.1315522188,-4.245312194,-1.7951318956,-0.295899523,-3.1293107764,7.9981204325,4.9730233612,0.0504883559,2.0437916546,0.0280972681,0.2712630179,4.4866699093,-2.6373511885,-3.7379511364,-11.2837899155,-0.0631124171,0.1697043174,-0.9960889938,-5.7442017013,-0.4478132021,-8.6583640704,-0.0640225932,-0.0930165783,3.3779867743,0.1566866259,3.3691158842,0.1415078952,-3.9792870743,-12.0647060524,10.7818352471,-3.6033928803,-1.1728933095,-0.2480767959,0.3859377466,-1.5753414852,2.8614217714,0.0100777469,-2.3327488842,-0.1554892049,-0.0799159052,-1.0430223585,-35.5472639518,-14.6756352885,2.3071556618,-2.8349623237,3.5813842753,-25.4301027437,1.1119532226,0.9460009062,0.0445534073,1.8282630289,22.4196764798,-0.1049334991,0.0495190991,1.614754545,0.1316352337,-0.1772411911,9.9497906774,0.0841110677,1.0489237215,-0.1934800827,1.4810923821,0.3513079581,1.38957435,1.4156650318,-5.368614677,0.2755580909,-0.2430068826,-0.821323868,-0.0742817703,0.0239009545,0.1813347295,-0.6566923838,0.1433987017,-0.0620214069,0.4138982055,0.2260806303,0.2878919608,-0.1738943845,0.1562742114,1.1976526832,0.2202544707,-0.2140037152,0.1450026149,0.1933440185,-0.0675717756,-0.373712503,-0.4348490223,0.0721243306,0.11517009,-0.1905532554,0.0394685,0.2361346985,0.100610071,0.0648424539,-0.1600342599,0.206473978,0.2377255675,0.6190423239,0.0311254145,0.3513824098,0.6829468318,-0.231489163,0.3601388229,0.4226825333,0.4447840005,-0.0722187217,0.1912412162,-0.2770248288,0.2883357888,0.3884808305,0.6775687513,0.2754616257,-0.2802449947,0.2215057011,1.1295928451,1.2973906604,1.2054460543,1.4596041241,1.7054088981,1.5466029301,0.2705597121,0.6550088376,0.6419828715,0.425693986,0.4723691413,0.4008194362,0.0021466603,0.4540354652,0.1664004578,0.5342666816,0.4057929467,0.268996301,0.2840342915,0.0550322892,0.1817862622,0.667557729,0.4422063449,0.053301771,0.4463562644,0.3479755106,0.3797414441,0.1406631576,0.3655402544,-0.2866814607,-0.5502247353,-0.3504186834,0.0705983232,0.0526446297,-0.143074309,-0.2519911026,0.1954487135,-0.0549085419,0.2867348677,0.1644905189,-0.0491576735,-2.32793188,-0.157484217,0.1390696324,-0.001536433,-0.4208491412,0.0799024078,0.0961499816,-0.019019433,0.1413340784,0.199853346,0.815530361,1.4124239681,0.1649397487,0.4556167964,0.183007975,0.1669204716,-0.2952875882,0.0806526895,0.1053333762,-0.2534551382,0.3594546076,0.2439871734,0.2942805588,0.0781077327,-0.3346341698,0.0190527942,0.2971662936,0.1132245952,-0.2975205175,0.3066073771,-0.1668822046,-0.1011565205,12.5409808003,5.4069545213,-0.1649260469,-0.7360440635,0.1915827846,-0.2250322829,0.2009577418,0.0305154146,0.0522931501,0.3213167109,-0.1424793613,0.2282883006,-0.0986693117,-0.0814011867,0.5541334478,0.6047931932,0.0696005895,-0.0479032458,-0.1044450029,0.1976307797,-0.2455030679,0.6908926036,-0.0342318381,0.3800935171,-0.1828928718,0.4871539564,-0.1165804135,-0.0914461896,0.2620392468,0.3175659623,0.0969593883,0.3502220024,0.0560409251,0.9298146024,0.1474741099,3.0398500854,0.2090722037,-0.9846218636,-0.2157494346,3.7617777221,0.5563696734,0.2023030188,-0.2898883592,-1.6432644994,-25.2653769748,-0.0688129667,0.1392039112,0.0586033176,3.3503157258,0.153271355,0.0262667026,0.4482170677,0.0202637597,0.723649477,6.0588452984,-0.7296828063,-0.3235183173,-0.2493334479,0.8754993222,-0.268560877,2.280342066,-2.8118088655,0.1881998852,-1.4023062654,-3.8845837385,0.2655863908,0.2509672808,0.779153815,0.1783119949,-0.0250064392,-4.8235139487,0.4711181741,1.0584852384,2.8963435394,0.1342028756,1.9013801443,0.2159911228,0.1236469809,0.6552701274,-6.9329626495,7.9434357058,0.2771063593,0.2291009296,0.2278969958,0.1240186273,0.2208560316,-0.1714227834,0.1696360085,0.7444607796,0.6773402628,0.3195771078,0.1698123006,0.5758056397,-0.2383945738,0.0181271781,-0.2302381897,0.3509786012,-0.6833390301,-6.3633297982,0.0146899592,0.5994715811,0.3329918559,0.0301697539,-2.6883852716,-0.2548716024,4.152307778,0.0868991543,-2.1152867327,0.3146802113,0.2546309527,0.0264542853,-0.1021440738,0.3190776223,-11.9413010759,0.5785853875,0.1804564872,0.6192641058,-0.9731367041,2.2143785576,0.0636319191,0.261156274,0.0988059941,-3.4776567381,-3.9429949392,2.7511582071,-0.2537608722,1.162439092,-0.1386208633,-0.1839001908,-2.7442698639,5.3982191208,-0.2653083246,-7.3651768324,1.8071122946,0.0949655122,-14.7488824464,5.0083412368,4.7137416557,2.7050970687,7.033145204,0.2511955346,0.2880530401,-3.7065912054,-5.292776882,-1.7107148382,-0.0646109275,13.0347429353,-26.1950315572,-1.5155932286,0.040192939,2.8474209138,1.2502354175,-0.4889216404,-0.1094944663,4.9354468249,0.4744771461,-3.6736919665,0.1987072031,-0.043426314,-0.1900191245,13.158650644,4.8991649004,-2.9957639759,-0.1746746549,0.3333388106,-6.1813581116,1.3283657097,-0.0649055836,-2.9238080745,1.0987486722,2.2240424432,-2.6863512267,-1.4980185772,-1.1117169912,-0.0052015234,3.6334282638,2.2729865693,0.3383537685,-0.0662482061,-0.2615633133,-1.9146332925,11.1762467744,7.3357721047,13.4486809527,4.863077771,-0.5240679435,0.1625539196,0.6143733082,4.3332223976,-0.2820545141,0.9353136519,0.1202291589,-2.5904082009,0.2905665222,-0.5245445229,1.4745128466,3.5118240042,0.1937884621,0.5723634623,0.6341773416,-0.1303380681,-0.1279894353,0.2528058734,0.4546541554,0.2940820539,0.3123984478,0.5711747063,0.5171576686,0.3099017964,-0.2042091112,-0.2844493954,-1.3744872862,0.1848967306,-0.4486329601,0.0922123938,-0.3323392754,0.0713619238,-0.3128355259,-0.3067554191,-0.0672767966,-0.1365852184,-0.4873210721,0.0102253923,-0.1225794275,-0.4484220352,-0.0528963263,0.029200482,-0.5053397248,0.5245131826,-0.2561964716,0.30649885,0.1100326321,0.4827800499,-0.0694347675,0.2271744567,0.294428027,0.579275362,-0.2910299762,0.2250696677,-0.1386036546,0.1032800426,0.604141462,0.2817822443,0.350357811,-0.1291614701,0.3557224102,1.2970056294,1.6730519737,1.2099333824,1.6554460455,1.3596931655,1.7090036194,0.1515753866,0.4499230638,0.0460782512,0.3784948121,0.6426527601,0.4780309564,0.6507909059,0.6996654537,0.2206330507,0.2254414958,0.6955664837,0.0462726609,0.6038889117,0.4788181224,0.5955028039,0.4809858873,0.1631065833,0.4796027508,0.6622970006,0.0946280301,0.0921733326,0.000109583,0.173742912,-0.3214618983,-0.3384426572,0.0082626889,0.2058832188,0.1248931778,0.08099953,0.0098988107,0.1270274493,0.023920834,0.0305742163,0.3524585196,0.2249543076,2.35979555,-0.3155084557,-0.0073127637,-0.2825162104,-0.0510542479,0.0464016387,-0.0181612983,0.2026367864,-0.5188059157,0.0028629087,-0.808656097,-1.0204305239,0.2006170753,0.0995828095,0.1279664616,0.5124785649,0.5109699828,-0.0048144661,-0.1460316778,0.0519126519,0.4851556403,-0.1726639017,-0.0822027388,0.4892576559,0.3515622104,0.1041756755,0.2287329022,0.4947371869,-0.1126647022,-0.1422183507,-0.2816337598,0.0936448418,-3.1835790386,7.3488371462,-0.1084935337,-0.2883624496,0.5639198472,1.1996390248,0.3663224235,-0.0806631268,0.21060055,-0.0477807582,0.3808562167,-0.1991145273,0.0571390847,0.1346674749,0.1693557296,0.4170976414,-0.0136318236,0.2944735769,-0.2307163634,-0.3651889476,-0.3650367939,-1.8443003264,0.400776646,-0.1723448513,0.0411814252,0.1521965629,0.2258182879,-0.1316342887,0.1368554343,-0.0060053207,0.1598681998,-0.1461429029,-0.0226591135,-0.1206044488,0.4730304269,-0.015366975,0.4772336609,-0.4977270375,0.1682532137,-1.0084644635,0.4158473265,0.2433381185,11480.0475387253,-0.8070335336,16303.5475340159,27.5722946833,80343.4265775226,38653.5855232887,-0.5640580839,0.5903140278,29962.274497934,56562.557676817,100.4422392176,16240.1461390436,35287.5610149818,49475.1598032373,35785.808741438,13801.8361728302,16272.3243800913,55171.9138144777,-0.9175577228,1.3525051351,0.0917051325,236.1797812778,157.2917041553,-0.373169559,0.02399326,-0.826879607,0.485597452,2.2667334612,1.2258541146,0.1371368503,-0.565514516,-0.5656561966,0.2427371963,-0.010040183,0.3306426934,0.6281554769,0.0251140045,-0.8651043621,-0.3849629864,43947.293149186,29465.6417335992,105313.8481704368,73227.4366380136,80847.9697134364,19586.0766365427,13671.5657006616,2.6172357559,2.1531509681,-1.2132550754,-0.6767080842,0.3076475607,-0.8583398369,13.4185931033,-0.8805712218,0.3706153739,-0.6199371132,-0.8675890509,0.2687891465,0.3034338097,0.2455763067,0.5243099661,1.1079318809,2008.924044744,223.3305034483,-0.8273243592,-1.2361333112,23705.1956773968,-0.508141999,68920.1652805791,6.4133487275,49442.4454928569,111467.9748215352,99.9432883803,0.3563983225,0.4336101923,-1.2647613213,-0.3460211103,0.3700619701,0.2044766107,0.6512409335,71598.7222571151,-1.6546700574,-0.9681490558,-0.6504646916,-0.4561020317,-0.9584717391,-1.1090073594,1548.8797064406,2.6233595036,15154.8106559708,1445.4094922897,9882.1886302364,44800.0849445072,-0.6440272847,-15.5071192024,-0.5464985738,-1.0165869669,-0.9902910682,0.1575055242,0.3224490132,1.3759634588,-0.6134528593,-0.742038665,-0.9174422999,-1.4684030617,-1.1493699767,-1.4378797467,-0.5129523254,28.971181334,-1.8154796061,91920.0090257179,5072.104394242,-0.7407099758,0.0793695693,-0.4812679409,43.1702914065,-0.7774746861,52717.4601878297,49544.2789008278,-4.998277849,-0.8369363735,5.2144389772,4730.4943591401,-1.1572794137,-1.2932671338,-0.2996218763,3599.6710998952,-3.6253684508,-0.5601500585,8.043837875,-1.3409579636,2.3899124532,-0.547206294,27552.9537414954,13.687816388,15553.1626067414,-5.0382548515,-2.7271209177,86028.9996620626,13440.1633221257,-1.22030753,178.0740594569,95315.9418723519,54.7971174672,49651.23640647,4.0103458478,-4.3542101841,-0.6310933653,17269.7056241871,16.4430375748,3.4138160616,50909.6763521436,-2.6266059573,-3.7758129465,37.6731396056,14899.7127437079,-0.4594536727,-0.4571468393,27.4984602651,5.2035460627,0.5775939155,-0.7349906184,0.554889999,3.5555918895,0.0919043945,0.4441007861,85864.9206257084,100.2534208773,85865.0452628726,1.2727441895,0.1831420394,-1.0115800644,-0.9959838867,-0.6603502659,-0.8334831154,-0.9486030818,-0.6353728824,-1.248669337,-0.808317159,-1.1029745943,-0.6779906331,-0.7820171979,-1.0696450174,-1.1076104692,-0.6654134832,-1.2611386093,0.2295528712,-0.6134837703,0.1819035093,0.0799343034,0.6213952363,69882.2227730754,0.43846009,0.181689004,0.0029645254,17048.8163185682,6301.1102288014,17048.9268016226,6301.0143190981,0.164788939,0.1398180473,0.6114952859,-0.9415155303,-0.6088135127,0.5371607553,0.3657295957,0.5908095453,0.307931893,0.1930881592,0.2642535218,0.5643884773,0.3602244949,0.5507306009,0.613777831,0.628400297,0.6680870555,0.0527206998,0.4436162276,0.0351425096,0.4447393514,0.2043178554,0.5707275764,0.0340702966,0.4928468196,0.7029704196,0.3888370838,0.0782225979,0.0875150439,0.4010127149,0.1620125552,0.5775032955,-1.1181051111,0.448265377,-0.8176178875,-0.808775328,1.6056774233,0.0377087444,100.6419157246,-2.5551723336,100.2707433187,-2.0102954331,100.5228748462,-1.982497342,35.7423534579,-1.1957617835,-1.6840097996,55460.8740635923,-0.9504723652,-0.7276327852,78735.1558982668,78734.8956542911,-0.3610599836,-0.2208631342,-1.1152817636,-0.7645406462,-1.7112835869,-1.2657172736,0.6749845606,0.0855292313,0.6986036768,0.1902691781,-0.5972465924,-0.5179087702,-0.5313558376,-1.203935486,-0.9572628611,-1.1976585949,-0.717837867,-0.8325636733,14899.2970127899,-0.8927475147,-1.0952471231,0.1927861916,33757.9698939127,28313.5910625796,296.0779938118,59.1782122726,16.7682667953,-0.8750947433,-0.9312695124,2.0470969723,0.6614419038,-0.6560504816,-0.8576310124,-0.9144210982,-0.6011806353,-0.794976757,-0.768954308,-0.621602096,-0.6296445436,-0.55874941,0.5541819086,0.2270629054,85864.6563188834,100.2378194479,85865.0533883782,100.5565850392,100.8063990061,1.4921579204,-2.4372101785,100.8473168396,100.5137594256,0.5926476931,89327.1174922622,100.5950371743,100.5302767292,100.8230190435,0.1538639287,36626.0066113515,95451.4738043966,-0.9040201948,-0.5674353915,-1.2990011682,-0.8897146972,-0.7951369194,0.1180665574,-0.8325217134,0.1413566358,0.3843728431,0.0947878711,-4.2253325218,40.4865311624,0.3462936654,-0.2675252034,0.0293679449,-1.2429283053,0.2278270565,-0.1924654555,-0.3048196545,0.1863269547,0.5608679094,0.1712287753,0.4543086263,0.3568547315,0.4230417856,-0.4441656345,0.3173181507,0.0388586665,2.5908789106,0.0574097295,-5.3220396031,-3.9235406412,0.202155513,0.399507398,-8.2065421892,0.3802391242,0.1052843362,-1.2488086337,0.5086312373,-10.1561918856,0.204076328,0.6172650514,-1.4311998457,0.298462672,0.3655716914,0.011818659,3.2631145576,-1.5978888766,0.1764749747,0.3162166391,0.134384953,0.0070880413,0.3954571041,0.4167984987,-0.2153714467,0.0002806202,-0.0181607808,-0.6694072752,-0.7741270249,3.6084918263,0.1175226777,-2.6753999175,-1.3110421349,0.5556646835,-0.3188206221,-0.3460809654,0.3956571555,0.2565149566,0.2861924239,0.7050212431,0.3430616426,0.1585474196
   -1.3099997593,-0.0591563346,-0.6014844245,-0.0657672791,-3.2625634918,-0.2189612591,-0.3043302299,-0.0098236346,-0.360505205,2.2522761268,0.1932685933,0.6474143434,0.2934184289,-0.636447884,0.1662296167,0.4103917782,0.055439832,5.9800955619,2.2547056414,-3.2075652807,-3.2788225074,-0.3065387044,-1.4915842278,-0.3638415706,1.1569538141,1.474213693,-3.7547899947,3.8083874528,0.3638669969,-6.4778871332,-0.4649550961,10.5638738819,-0.4740300864,10.6545467638,10.7793143296,0.619846503,0.5637854258,-1.2204196104,-5.3367861922,4.8531063296,0.012834545,-0.1161145888,-0.0316860316,-1.2558371352,2.276763216,0.9377069317,1.7666353102,0.1463069985,0.0414606465,-3.8139785058,0.6844984294,-6.9345615798,0.1416899579,-1.0023695334,-0.4025709402,-3.0479361028,-0.1268851096,-3.4934373966,-0.1663383358,0.2844207496,-0.1198663271,-5.9069257334,-2.8783717425,2.5368975585,-0.338854338,-1.3832781033,-2.9172881205,13.4948529149,-0.7996196527,-10.7089637375,3.3534500988,-6.8889714185,0.2207946267,0.519378288,0.4332589369,43.700852446,-3.0929547312,-0.1821482317,17.3834757928,0.4625356931,0.3649657633,0.2989493883,0.2915093475,-6.0948673662,0.1306738156,0.1868876245,-34.1336590563,0.3007334907,-0.1010757645,0.3200482577,-0.2835906326,0.1925155204,-2.520072692,-0.7432056618,-0.991650865,0.2739680745,0.1237278131,0.2045353118,-0.9500883769,0.5097126515,-0.2810656617,0.320058308,0.0423723891,-0.0467410217,0.215267744,0.1346785608,-1.2132674751,0.606681707,0.3751097615,0.3439527445,0.0565202337,0.1667986444,0.3756967395,0.1808208149,-0.0493417194,0.0257070241,0.2395028791,0.1116160055,0.4982489924,0.5495592724,0.3951960461,-0.072177391,-0.0402889409,0.5644135066,-0.6022976658,0.1390386215,0.648585519,0.5023402966,-0.1724197763,0.5063484412,0.2761622904,0.0175992911,0.2815507153,0.3453492612,-0.1143339204,0.316590895,0.5653279576,0.067014423,0.5072033574,0.0365196898,0.4237093985,0.422606047,0.5339888036,0.4408532394,0.5147496911,0.2422351904,0.4427977811,0.0669766489,0.6373386253,0.1581280777,0.2741019301,0.7005796395,0.3767479151,0.1692035758,0.401624228,0.6694293893,0.5864478891,0.3465195203,0.0063356305,0.6616199996,0.2766094828,0.0227794001,0.3580400079,0.1520564883,0.0036052381,0.2420829712,0.042585735,0.1575442338,0.0381937859,0.5941897172,-0.820138984,-0.1401574733,0.1184304548,0.3112314459,-0.2496497986,0.0236103599,0.0069364483,0.1142387728,-0.0173417232,0.0670172932,0.2335541193,0.3662913647,0.3884710338,0.2267572995,-0.3710554691,0.0108904711,-0.1483847045,0.2088356876,-0.6029004354,-0.5495545434,0.0361975946,0.1041585045,0.4857367648,0.4949916814,0.0173531607,0.2462193527,0.058866808,0.3212092643,-0.0573169334,0.4917747592,0.3772273865,0.1781081256,0.0224195744,0.2611347559,0.0486836202,0.30871114,-2.2658243471,0.333804197,0.1690459649,0.2700957137,-0.2207741458,-0.200082146,0.2866766299,0.0226280588,-3.0623648686,-4.154833343,0.3120951658,-0.0859712276,0.6037658829,0.0987662244,0.217705497,-0.0319329617,0.3553406353,0.1812537856,-0.0862788885,0.2529365182,0.0943215069,0.5477007868,0.3864351328,0.3673889183,0.1651425067,-0.381533812,0.2246845847,0.15825805,0.2190856349,-1.1532979008,0.0601038508,-0.1345796062,0.0573356239,0.4938167451,-0.0406311771,-0.1689530446,-0.2458443793,-0.0854672213,0.1193432,0.0636311265,-0.016533201,-1.4965881341,0.1391151762,0.0005835295,-0.2443185062,-0.7151177364,-0.0537375428,2.5991630803,0.5892471944,0.053634895,1.7430897408,-0.9933931149,-9.6226673293,0.2674347214,-0.2348509491,0.7754142717,0.2109133778,0.1317141991,0.1645093891,0.0850307181,0.3202611772,-0.0711983243,0.5161029341,-6.2825639743,0.5768287562,-1.7149525437,3.9329461042,-0.3917500524,0.2016682743,0.1121698684,0.0157117481,-5.0231253572,-5.5252898289,0.2151865329,0.5346590387,-5.4050013629,0.6473600301,-0.2555779292,4.8959484751,0.0948170736,-2.228017744,1.6882863896,0.4857687307,-3.3387323988,0.5240414196,0.481161298,0.5518802517,2.656114578,8.0517753622,0.2772001813,-0.2340235462,0.1683606979,-0.2437267359,0.0143032431,-0.1116478292,0.4101877003,0.6235355988,1.0596849997,0.3944359337,-0.2440672097,-2.4508647681,-0.0681144753,-0.5042800881,-0.9130788107,0.4417393052,-0.9632477724,-0.169726403,0.2668193665,0.3420522714,0.3607879103,0.4501475344,2.5132588614,0.1122816519,1.5852000939,0.1444110456,1.6482573654,-0.1123337967,0.7237160544,0.1255252656,-1.3532713379,-0.0155664416,2.1722010242,1.5683997058,0.5701603267,0.2330544622,-2.8522800698,1.1335400309,0.5646488195,0.5444109906,0.5629458823,-1.2532235394,-1.3924322505,-6.7075664215,-0.0102016028,-0.1873310983,0.629950666,-0.1778003228,-0.7770741624,-2.1313892784,0.0067302103,2.0655171143,1.0640016551,0.2381923327,-9.8370618942,-2.5813133426,3.1390966749,-0.3840366489,-25.2599566687,0.4309239131,0.4293910688,0.5840103172,11.9420546724,7.0198395083,0.0535798216,1.8980309178,0.4955323171,9.60713591,0.101781526,-0.5208523156,-14.5288779731,0.0711205129,0.2151990547,-6.5788229543,0.079287268,-1.1086675748,0.2916924946,-2.6208128959,0.3490463415,0.1946355803,1.1526306253,-6.6093944712,0.0102405376,0.4272623812,-0.1876626587,-4.3555466028,0.8815472814,-1.079239625,-9.3195045388,0.4055069197,-2.1276275313,-0.4374802203,0.3841023906,0.034019901,3.6273688863,-4.8723027948,0.3399227317,2.3820197624,-0.3837876319,3.4007326326,19.6411928491,0.5951216389,1.45496103,1.6665985926,1.3214088001,0.2585206179,-1.8766322576,10.8784964236,-0.2065550152,-1.0684023816,0.3335460669,-4.1399639753,0.0579117292,-0.7398020596,0.0431108695,0.7549243413,-0.3530083383,-0.7527403553,-1.2514883191,0.2926975141,0.3448500412,0.5171026307,-1.1830558651,0.4524198915,-0.0296658796,0.6936516555,0.2271833725,0.1230867028,0.0027964642,0.1812878371,-0.0128576765,0.3730823644,0.0334298859,0.0853113694,-0.0715224254,0.2566058404,0.0009774066,0.1271164032,0.059288157,0.4350149204,0.4474301161,-0.1783048222,0.4499304354,0.3280407096,0.3230631435,0.289580539,0.0730818281,0.0492781074,-0.3218364566,0.444178989,0.4094883027,0.6797987882,-0.2014848882,0.6014580336,0.1790971278,0.6051989764,-0.2702877429,0.1365494646,0.0335869465,0.2686269711,0.0226252869,0.0455553421,0.6822904367,-1.0007014462,-0.9551597406,0.1982696387,0.5589306141,0.7026802272,0.4379280909,0.2719079651,0.24934878,0.1699863541,0.330854937,0.6852077488,0.3622155827,0.7066658433,0.551951103,0.2199961379,0.5917852613,0.1743400092,0.2803544012,0.3997553192,0.041964912,0.3781486557,0.5399680424,0.1935857219,0.5837384063,0.4632411817,0.5464457338,0.0835834652,0.5815923206,0.4313584918,-1.3556529717,0.5213400605,-0.5698104047,-0.5029209973,0.0156317357,0.23105046,0.0872914225,0.3109412908,-0.1172501958,0.2182589546,0.0198618344,0.2095762083,0.0458999965,-0.9982958564,-1.8680559243,0.2867382823,-0.1858339135,-0.0448719966,-0.1522299187,0.2563504095,-0.0036149086,-0.394378206,0.2410471727,-0.254069426,0.2182474744,-0.1850648122,0.450688656,0.597131483,0.4334488828,0.2265228469,-0.8871378284,-1.3445369015,-0.9815151582,-1.2659220413,-1.0939855808,-1.3992583645,-0.7621844701,-1.2498461087,-0.4310545275,0.2944093774,-0.3229395872,0.4857741562,0.332136071,-0.1124144422,0.2338164172,-0.2688322533,1.163674116,-0.8336709513,0.0629406622,-0.1016725951,0.231754444,-0.0059094819,-1.0148876266,0.3243029373,-0.6011530341,-1.4010117317,-1.177155387,-0.9581415519,-1.1658579767,-1.4292349799,0.6640854446,0.0851683931,0.2766131773,-0.2805695751,0.1986737181,0.2654336661,-0.3003601838,-0.1561032005,-0.0202076058,0.3391227031,-0.0997032767,0.2778856348,0.0695161267,0.1405330488,-0.0014420799,0.175312252,0.2074802665,0.3696050428,0.1616735403,-1.6453050387,-1.9560053091,-0.0344537582,0.0773395613,0.2976255889,0.2700817235,-1.5477282262,0.3764005896,0.0363831616,-0.8459485287,-2.158746873,-25.2770923826,-0.0208924662,-0.0158353568,-0.246549266,0.88003012,0.3593892937,-0.1040585805,0.6803891402,0.0311384861,-0.1714702519,-1.2061968215,-1.6069143623,0.3679329082,0.2915826032,0.0325665501,-0.1865243254,0.6951599003,-6.5221063571,0.1482915651,-6.0708250798,1.0140171908,0.1483564415,0.454205246,1.6864001974,0.2598672544,-4.0648178875,-0.6708022928,0.4752814766,-7.2182991387,-2.4214457923,0.6812648571,-8.2308386004,0.4500784964,0.0667857991,0.3588559038,-0.8501424966,-2.5789593342,-0.264138275,-0.2825098578,0.0682349319,-0.2599243734,-0.1760377389,0.004156359,0.1059237359,0.1535892353,-1.3345158747,-1.1278428238,0.2962331767,-2.9372970838,0.5505405876,0.1796973016,6.6433438479,0.4362739244,-1.08596988,2.1502223241,0.2008058635,0.3232604196,0.3766440186,0.5526523552,0.0869594684,-0.2776818591,1.2278502094,0.1528212324,1.871284617,-0.0183991246,-0.2326316612,-0.3319386323,3.2703423235,0.1567727174,0.2247282963,19.3493643885,0.5364757787,0.2156548798,-2.524754816,-2.5737926588,0.3049740382,0.5369963935,0.4311932217,3.0318126579,-4.2032241178,0.009373022,-0.7252006202,0.9344811263,0.5215580636,-0.5020722554,-4.3975235177,-4.7278182083,-0.5256980167,0.8213217929,-1.3080073877,-0.2933616565,0.2378223538,5.183012169,3.4772289187,-0.0177404426,11.8691712926,0.016039095,0.3914700102,-2.03244032,1.0323799987,7.9831138429,-0.1997380496,-1.6031417247,0.3192909784,2.481901435,-0.2803901777,1.6325407348,4.5267204255,-1.4207310627,2.0903045696,-0.6257330599,0.0264006711,-1.0727317839,0.1499869366,0.3196670892,-12.6619048045,-2.083044952,-0.0079786282,0.5951690719,-0.7183327328,0.0602022723,1.3570891205,-5.6616974669,-1.0004768823,-1.4014847606,-2.8587993673,0.2948487901,-2.0071998447,0.0216704751,5.4006520665,-0.2397711677,-5.9994895213,1.451177601,1.1086937332,-0.596836903,-4.5571152875,-1.4666147658,-4.9609468277,-3.5657816947,-1.7352782759,1.2482774353,1.3738938511,0.5046856648,2.0616515221,16.6458401042,-0.2103591723,-0.5003129769,0.2790537109,36.8107816198,0.1506282392,-4.3305613387,0.6658636445,1.436060838,0.2244654889,-0.6421904748,-0.8646918533,0.3267137413,-0.0471042126,0.2362129565,-0.8680927287,0.004004382,0.2861571505,0.4716476125,0.265811436,-0.1593221714,-0.1250311353,0.275259298,-6.0991294306,0.4914039372,0.1542096311,0.3089115456,0.1326519116,-0.213114869,0.069910024,-0.0504311445,0.1314198933,0.2211353207,0.1188192494,0.2564489123,-0.263730821,0.1059135083,-0.2806421976,-0.2038500061,0.0798377279,0.6763909331,1.2711893103,0.5008480186,0.4204268962,0.5125570207,0.0466514151,0.2844219525,0.0107278114,0.6319958228,0.0140790628,0.0273268325,-0.1751278372,0.3293393239,0.4978331539,0.650682363,0.0540215002,-0.0985529761,-0.320836947,0.1484211513,-0.0602744173,-0.2615465594,-0.3470616415,-0.2308598118,-0.2381728181,0.4369363509,0.5063441017,0.0920545967,0.1162144028,0.2469062713,0.4281192635,0.0253753519,0.2529737652,0.3780493373,0.1135659356,0.4053717168,0.1293912622,0.0313151009,0.4408387293,0.115174003,0.1627302971,0.0867759547,0.474773306,0.5983339405,0.3867115308,0.7027291289,0.1853498678,0.6504183528,-0.5759454291,-0.2276836974,0.2656257151,0.5709658491,0.1398691494,0.0191775599,0.0188034118,-0.2586202746,0.4303481192,-0.1683451992,-0.071974697,-0.2160102204,-3.9023972533,0.100685745,-0.5087418233,-0.6330428182,0.2228068312,0.1455769436,-0.3023340013,-0.0823957991,0.2896972908,-0.2265727244,0.4440702123,0.1532730077,0.6598480857,0.3476711005,0.3250532715,0.3080303412,-0.0499137603,-0.3805295148,-0.197257612,-0.2742039254,0.1264114626,-0.2534923292,0.0052848607,-0.3639147285,0.3021439497,0.1332264584,-0.032166411,0.6028715808,0.1752006652,0.2988653768,0.2725235666,-0.0397025726,1.5825096616,1.7197396223,-0.280888567,0.0645542091,0.7096126827,-0.0997045768,-0.2264762118,-0.0108030686,0.3786067699,-0.2644810683,-0.0912375617,-0.1887982554,0.0081283146,-0.2986985934,0.1381226601,0.6536671006,-0.1516579335,-0.1184984396,-0.0883419889,-0.0826354582,0.1657511495,-6.4709894667,0.2382426771,0.0318215452,-0.1325512951,0.3414215402,-0.0744269487,0.4678832341,0.2433799784,0.4492661261,0.1485747773,0.2951505119,0.0265525754,-0.0174830396,0.3044181579,0.6388441789,-0.9851028073,-0.2917929681,-3.5003724559,-0.7093855938,0.6163771383,0.5310304867,-11484.2851163844,-0.5071625122,-16307.5510036952,-29.7446353096,-78680.411206034,-37127.6649745149,-1.8413859811,0.2183568046,-24511.3271989364,-54743.8870284313,-37.0548517007,-16244.2311776756,-30315.2547076356,-49384.41096365,-34635.3480556608,-13800.1804379207,-16275.6151335455,-51753.1843963503,-1.3766655333,-3.1868061289,0.1952430405,-87.6406750294,-156.0907643422,-1.3688659332,0.3667730775,-1.6574762343,0.6405458021,7.5300616996,-2.881190981,0.6219055746,-1.0194280281,-1.5146671314,0.5497869656,-2.2611274176,0.2410516812,0.2560093025,0.4657169917,-1.0450269789,-1.5994389228,-39412.2010840335,-29047.0117660522,-94195.3818620432,-64101.4743899925,-79887.6972109264,-10939.2576784548,-9927.4330304204,-3.2225074736,-2.8795151815,-1.3047748802,-1.099444376,-5.2396063752,-0.4567617247,-2.439898365,-10.435625668,0.0401154503,-0.5634567095,-1.1183930112,0.5824655388,0.4971237841,0.0359944137,0.5621043048,0.7200768016,-2010.6975344042,-2564.5537651665,-0.9634945613,-1.3356723647,-23707.0233811767,-0.8069841092,-67513.9023290932,-9.1869967363,-46134.6238975576,-106919.1566527382,102.6374270995,0.2771500346,0.3065508363,-5.0088618848,0.9463406846,0.4351875349,0.3298893931,0.0796123524,-70481.656765688,-1.8996923939,-3.0650256429,-1.1958474977,-3.8739256244,-1.0876288191,-1.1383182608,-1455.5056184261,2.5012465611,-15156.9279095394,-1467.8112612723,-9885.0837425486,-44802.3065032854,-1.3408890278,-22.2357117274,0.621554171,-1.2916836506,-1.4254471785,0.2485598222,0.3380163545,2.7484909216,0.5351657643,0.169975499,-1.1760060104,-1.6034457523,-1.1636589261,-1.2954953566,-0.283461156,39.9106272215,0.7269585723,-90132.8953862014,-5073.9779942435,0.1490341952,0.6273830273,-1.7693273447,-5.1729664779,-1.0528541873,-47181.3032315314,-49551.1148504789,-5.93892025,-1.3966956568,-7.0821169316,-4717.9911591276,-1.1422953897,-3.8157070497,-0.9643912511,-3611.5972085591,-3.7201499939,-1.1769419887,-16.46104743,-0.4955456421,-3.9982327977,-0.9336308739,-23736.6569851031,87.3019555805,-14531.9852378508,-5.2066561351,-3.0647732189,-82748.4669940726,-13461.2469503021,-1.6493937991,-194.6809455149,-95097.9992097555,-60.676513964,-49654.5321176482,17.2937086216,-5.2950536085,-1.5497343888,-15960.5282698822,-19.1000181105,2.6875708097,-50911.8852130924,-3.4898291011,-4.6334694858,-42.0323655823,-14903.516295514,-1.0853020504,-0.6771529713,-11.7015281192,-3.7272020531,0.6332386194,-1.0044570407,0.3045226659,-3.1545002699,0.4315478918,0.5699588773,-83698.7358127059,-37.4223843519,-83698.4067446497,-2.2194190698,0.6681318347,-0.9729285466,-0.8389067282,-0.8782355625,-1.1191623827,-1.4516383339,-1.1484057822,-1.1857078078,-0.965090894,-1.3415101643,-1.1432636244,-0.8488413271,-1.1093380958,-0.9698549226,-0.8268824066,-1.5314661162,0.2725423244,-1.7239979472,0.4891424351,0.2056240396,0.5758128652,-68683.9981803662,0.3986691406,0.6461000087,0.4898378181,-17050.8457400459,-6303.5753582334,-17050.5329902722,-6303.2935843889,0.0523674855,0.6342652477,0.0552731586,-3.844804102,-4.201337105,-4.5537629217,-5.0417389165,-4.9855883952,-4.8565082938,-4.5698401972,-4.5356096992,0.3383026518,0.5160668927,0.453932145,0.1413079297,0.6659181169,0.5913346896,0.1599139606,0.5699356145,0.0911224176,0.1491546645,0.5861794404,0.6358171783,0.2130348238,0.6874799419,0.2033204618,0.1903811045,0.1185314255,0.281733976,0.0874650096,0.3904396598,0.5341301939,-4.4011522135,0.1230881552,-1.3151407653,-0.9468485651,-0.965522315,0.197697656,-37.3845923617,-1.728236981,-37.5950940189,-2.1247897935,-37.381022937,-1.9533876699,-37.8371767764,-3.7705585035,-0.3039977939,-52877.9881951915,-0.161478192,-0.6196990595,-72277.2387505507,-72277.63186868,0.4556357941,0.1446760048,-0.9267035019,-0.8353981137,-0.2163565847,-0.1378291225,0.0034429683,0.6331815622,0.5923028471,0.2538052093,-4.3921018499,-3.7684511538,-4.1457954271,-3.8461228539,-3.9039874329,-3.7819047499,-3.9685043116,-4.1850011418,-14903.1462523714,0.0128854543,-0.4977475943,0.060473497,-32402.5241339465,-28315.1528963946,-298.1874944454,-23.1202602688,-1.0448117619,-0.9420908927,-1.0359336173,-5.7369632705,0.4147661252,-1.477012309,-4.2213559698,-0.9795691129,-1.0773115908,-4.031615629,-4.174381472,-4.3421983111,-4.1786449832,-3.8335016438,0.0158739992,0.3095331169,-83698.1977072352,-37.4818034638,-83698.745143516,-37.0611218814,-36.9997194126,-2.714818276,-1.739147673,-37.6494931835,-37.0235413235,0.2108569461,-86622.5768368096,-37.6046546033,-37.0473387811,-37.101705702,0.566604726,-33424.735621532,-93896.1212785718,-2.2841566653,-15.808861505,-2.4285380704,-1.1104012258,-1.8568660063,1243.1205170024,2.0472529586,0.3307701614,0.5075927137,11492.6437372067,0.590334998,16307.0704706157,29.234698092,81066.6284439247,42290.3493614216,0.2152343552,0.5633352123,33802.6573906069,57379.1796180733,104.405337287,16247.5085258381,45424.2871387467,59651.4912159623,35790.0859769275,15953.544030219,16274.2752284708,62502.290150674,7.2087023295,2.1187676052,0.2356817872,236.3363915251,158.0468990191,1.6405126699,0.6991265068,0.2016777196,0.7026911953,12.9099898273,4.9772402751,0.4754714991,0.2784203987,0.4600187265,0.4088060897,1.7896616873,0.3174312122,0.2922182914,0.3755824466,0.7208665925,0.4503783839,46462.5372467598,29466.9935058757,112394.7210134113,82919.3569062866,81054.3800732118,20514.6201289951,19016.8073025891,40.3864422536,4.7312863293,3.2542659761,2.1102029387,6.3024877235,0.7257593883,10.5539541274,0.8153953856,0.3552900779,0.2027882189,3.0561264517,0.3944516406,0.0806690452,0.0110889533,0.1230785528,0.4635918654,2010.2961929243,1798.1543348268,0.5451871329,0.449790059,23706.1757773978,0.2544052839,76861.4686170129,7.5205477506,60213.3186313631,115226.075420118,2356.8646487116,0.3085725609,0.2929962973,4.6175144088,0.3669367964,0.2619660905,0.0280458728,0.3709753845,73357.0711371886,0.4758311334,1.3114692128,-0.0372328114,931.5606840726,0.8492008738,0.4754093922,2735.3878049447,0.5138235663,15164.5774653193,1465.9278922404,9884.154625459,44801.076343965,0.6735425804,747.1731527643,0.5985419299,2337.4841352561,0.3835558899,0.5511199633,0.1687808274,3.6281105799,0.6525151361,0.2864958726,0.1610547681,0.3109630242,-0.0019787681,0.417075252,0.7463283769,3.480498182,1.7482328097,93001.8284662871,5072.9335674999,0.0191174017,0.3849642242,0.7313203509,1187.9508964196,0.1099074073,67716.4562569196,49750.8110195875,1.0079024181,0.1266459786,6.0378823665,5935.7641720156,-0.0126842011,1.4366707166,1.6984973482,4968.0378348734,0.2865567097,0.2834774191,15.2901893275,0.7131683875,3.7072115717,0.9951792196,29746.5120169042,1509.972322017,21143.7530647081,22.1534724696,0.6210638322,93333.4467084976,13451.2100401284,0.3294484302,183.1836906263,95318.2668117759,60.4695330019,49653.0943716382,52.8344483717,5.0438108952,0.5182259301,18736.5658485651,19.1418669265,0.9326583527,50910.9843851091,0.2230864062,0.2883973541,40.6939341406,14901.2519779107,0.5634388838,0.3631899083,19.517179454,4.2558247486,0.3953148077,0.0068286316,0.4946028394,3.0759161755,0.4185896457,0.1247103658,94338.5406240292,104.4275519588,94338.6114140789,87.4988504154,0.5646670341,0.5166210402,0.152560159,0.4876108764,0.4622239371,0.1061912923,0.0326324013,0.0717243681,0.6298053708,0.1360863621,0.5627958548,0.1470725514,0.2682000062,0.3065198339,0.5537588662,0.4497583514,0.1793257492,0.7549264536,0.4552869831,0.3385361802,0.696890212,78783.2392327877,0.1815807145,0.2238827601,0.5023153804,17049.8245824879,6302.1118726335,17049.8701446192,6302.4321042746,0.5628641942,0.4160514005,0.1649493583,1148.962415724,1148.6870093278,13.3402013691,13.264114505,12.9159414566,12.9470532728,13.2656700896,12.9788630309,0.6271963993,0.2002334654,0.4484040307,0.6928858133,0.0069538444,0.0136158702,0.32072991,0.2963368711,0.088292864,0.3162604559,0.0583417617,0.5378391048,0.2932057247,0.1821996016,0.3209402372,0.2287034518,0.1714939402,0.2862374906,0.5515807749,0.3246576282,0.1944125017,1148.8444908178,0.222528058,0.6118752167,1.4421247872,3722.5081854612,0.2841908978,104.1105905935,1.7264960274,104.244509503,2.1491170414,103.9288849475,2.006545401,36.7534544945,1148.5539188489,3.6219622184,66004.9491047181,0.5850804795,0.3609550157,90401.9560772906,90401.9354799458,0.6096759086,0.1864085005,0.9586659792,1.0236314556,0.5235564222,0.6349445221,0.3444235775,0.5212533356,0.0638239355,0.5482855305,1149.006861953,1148.5081190413,1148.7577952708,1148.7275181434,1148.8816352769,1148.7084495193,1148.9927405469,1149.0441491561,14901.6084709577,4561.6488193144,4561.5669285766,0.1824796281,40613.6660670929,28314.8364032976,297.743533971,112.4716467881,0.5867242724,0.382659718,0.6401710763,4.0985840513,0.4269743837,0.5985868024,1148.4560187236,109.2607812526,0.3638966597,1148.6109853794,1149.021517937,1148.8761347605,1148.9867451148,1148.9802722405,0.2190890206,0.2966683182,94338.4003314192,103.7819216249,94338.6938814573,103.8880360163,104.062450179,87.467620972,1.6862987202,104.2572891829,104.2419193682,0.0694580005,89559.6753281802,104.3590885526,103.9212412002,104.1599646273,0.4316650447,39630.9326057653,102218.8738120445,3.6393987222,12.6321726829,0.7829691199,0.4202034877,-0.3033863816,1242.9018348306,1.5531831343,0.4991653326,0.5275041021,11492.8568380671,0.3423874401,16306.4560663609,29.4583581608,81066.8716695416,42290.0176324794,0.3018551117,0.6554764885,33802.6683429265,57379.1540994043,104.1769074242,16247.2486996467,45424.365785391,59651.0384220153,35790.5151337924,15954.1649185413,16274.240265709,62502.4566318542,7.1761101191,2.6766148039,0.205173522,236.4611416541,157.8703459261,1.3114779681,0.1981252213,0.3540091462,0.5771359928,13.2101880553,5.2951060315,0.4316177715,0.622342578,0.4552458279,0.1442579121,1.9747124397,0.103757954,0.5479664608,0.3104220199,0.4832860078,0.5642604459,46462.8118213419,29466.5784930373,112395.1732041567,82918.731224766,81054.6053287233,20514.954118581,19016.4092241909,40.5231215442,4.5261596992,2.9073388632,2.0214288253,6.4279055969,0.5809190348,10.3247418305,1.1580726248,0.2438142582,0.3708387123,3.2973464127,0.1649543757,0.0814694356,0.0401198306,0.4388396254,0.2681085475,2009.9188147543,1797.9588966074,0.1932609355,0.2992444414,23706.5753679762,0.2786635549,76861.4711895919,7.795679032,60212.8943222149,115226.4079459904,2356.5525052157,0.5602222918,0.253270804,4.2821307545,0.8234852749,0.2369881672,0.5311710906,0.4006341784,73356.7913367208,0.6190181469,0.8667824143,0.0033891509,931.4702063633,0.2598888375,0.4798206622,2735.2569554772,0.8578275797,15164.2416204535,1466.0567697241,9884.0830215164,44801.6593434412,0.135132428,746.9146248965,0.6912025477,2337.6687862193,-0.0037293513,0.4903677452,0.1535001834,3.2618624346,0.7281711053,0.5040303693,0.2609368863,0.1205547297,-0.0547805084,0.3197799828,0.4953936132,3.2419509672,2.3669603432,93001.4711775021,5073.142477486,0.4913223292,0.6718727564,0.8436722644,1188.1929559176,0.2412413065,67715.8207959011,49750.7000594363,0.5789886758,0.4574257424,5.9360942534,5935.5516721414,0.0255086636,1.5893420447,1.2749756663,4968.5109716453,0.4692853357,0.3258515457,14.9250344835,0.0989574168,4.1564903221,0.5376027089,29746.2504399703,1509.9120247691,21144.3540694231,21.890821027,0.381292194,93333.4981280603,13451.0771548052,0.4973712617,183.4812110369,95318.0860642386,60.4523017342,49653.0804566125,53.2257154802,4.8872447538,0.5376724955,18736.0696384411,18.6357497029,0.8602537955,50910.5968112191,0.3749482728,0.2033550898,40.4053664836,14901.1691082837,0.2661880916,0.3268469729,18.9151587177,4.0171261901,0.019103013,0.2593895759,0.6514906081,3.3225063456,0.4695245747,0.2386708193,94338.5834131094,104.113186744,94338.9175064608,87.5862943232,0.688591395,0.1961736163,0.5187289702,0.2731188493,0.5627940966,0.1353941354,0.2315662661,0.6618155052,0.3285865274,0.2961574611,0.0430896204,0.0425828753,0.1450907034,0.0854752438,0.4888947655,0.2238177442,0.5471368475,0.5487045093,0.4488377438,0.2918193906,0.2023346,78783.0905885551,0.1896562296,0.2402598312,0.6449863955,17049.4768483305,6302.7069115463,17050.0581963548,6302.0936040091,0.3265940331,0.2947705175,0.0587879772,1149.0413108495,1148.9575019762,13.2891402824,13.3455744453,13.3170111961,13.1271270393,13.4508122065,12.8298818872,0.1944053822,0.1151349644,0.2947898763,0.0253943448,0.4237349781,0.6462828722,0.3457126941,0.2654016562,0.5708721999,0.6103554911,0.3635434684,0.7028761544,0.0063894956,0.4088157851,0.1079975301,0.3622550651,0.5888938191,0.0467627616,0.4923388599,0.2478758468,0.3575247629,1148.7260565145,0.3015931277,0.6998736632,1.5082575746,3722.8242857465,0.2684553072,104.0226762155,2.2684904074,103.9269957003,2.2591217424,104.3473268473,2.0120268204,36.6824931412,1148.9140478965,3.1212256697,66004.6683610217,0.4435076361,0.6703974859,90401.7764582062,90401.7729628554,0.6433529614,0.6203105024,0.9700650424,0.6450261371,0.1964613799,0.3655068854,0.0025642177,0.3724723352,0.4961467098,0.5083383561,1148.5482596334,1148.8011644283,1148.6555650229,1148.8642641281,1148.6614328426,1149.0849670913,1149.0754261634,1149.0735501896,14901.2496277705,4561.6722584368,4561.1623482902,0.3834839806,40613.8225845822,28314.5335069101,297.9333773945,112.0170990372,0.6202994804,0.364840057,0.638983288,4.3577224596,0.5657901423,0.5303724138,1148.7836290768,109.1019307119,0.5471483482,1148.6075801864,1148.8298126622,1148.4985634056,1148.9206868806,1148.6668273503,0.5978458731,0.4502689446,94338.6304757522,104.3552390505,94338.3709110974,104.3729207868,104.4299116838,87.4360628774,2.1287706354,104.3843845829,104.4382256683,0.0011050943,89559.8793639361,104.078183671,103.7603958899,104.1886849124,0.5420111957,39631.535705908,102218.8084305439,3.367217795,12.4506226079,0.4609317038,0.6152382144,0.6831735637,1242.8375109511,1.9149946575,0.6523216467,0.2240979739,11492.5072111087,0.4212398001,16306.952376039,29.7435066054,81066.9631918934,42290.0205750189,0.1683593251,0.5271139944,33803.0874289342,57379.1060926646,103.8368885145,16247.2252678243,45424.8316282445,59650.9932304681,35790.3756806154,15996.9497349107,16274.09777152,62502.6571852835,6.939700647,2.378479942,0.2413509145,236.7004687853,157.5630100055,1.6480584733,0.1016991815,0.5195304163,0.2484779153,12.7508912159,5.0673102781,0.0906569533,0.5715620472,0.168317449,0.2924137464,1.358985712,0.0600542968,0.5583324658,0.101459917,0.3823944604,0.6933217376,46462.6116853733,29466.8721199046,112395.2446671814,82918.9659740777,81053.9965478072,20514.9500327496,19016.5184453037,40.1280237191,4.3623785643,3.1200247312,2.1791074725,6.3506752259,0.6020392109,10.2301978726,0.717244584,0.1038110042,0.1399021465,3.0177970481,0.3386892104,0.6949308242,0.2664947149,0.2253993874,0.6066970487,2010.4241052867,1798.0554554584,0.3661340621,0.5915023693,23706.3072018364,0.7940245244,76860.9810449249,7.7316394888,60212.9808529539,115329.7458770748,2356.5923693734,0.6983754075,0.254393823,4.2727872182,0.1995481046,0.0689246905,0.4111211931,0.455203422,73356.8809819564,0.3632178301,1.0445060434,0.22101484,931.5141658243,0.2726470759,0.1016540556,2735.0685139048,0.5139608947,15164.2697071442,1465.4744385592,9883.7059278885,44801.0617761508,-0.0201606086,747.3673356085,0.4196073201,2338.006908117,0.4516931935,0.4399178015,0.0848007677,3.1496923587,0.1434942224,0.2550320364,0.6779396886,0.1454930627,0.0396006512,0.1663197402,1.0923441159,3.1311678244,2.0844694545,93001.7255323469,5073.1184010594,0.4947756872,0.3983932409,0.5618624529,1188.083152846,0.0662560619,68172.8182885513,49751.0496251346,1.0888457741,0.6695955874,6.4791207687,5935.722415812,-0.025609782,1.6817518558,1.5609669661,4968.540194116,0.1209731356,0.0282639864,14.8629979248,0.4279216369,3.7355372485,0.6578536544,29746.8729586015,1509.9844013011,21144.3379601789,22.0402198092,0.2383552754,93333.3914961713,13451.0121711263,0.4239522874,183.6321075884,95317.8512642915,59.9556939807,49652.6591972207,52.9689772976,4.9692798083,0.5605919052,18735.9609363352,18.9723192892,0.7613680506,50910.8939600343,0.1496964457,0.4172187018,40.6366273053,14901.026809706,0.3893671218,0.0820458416,18.9210166092,4.0132227008,0.3201849321,0.4462930386,0.2943184099,3.3269364393,0.6460414737,0.0292794254,94338.6695311309,104.4408942902,94338.6705274746,87.6547044729,0.0054991938,0.0273465441,0.2162196552,0.018063538,0.6781426371,0.3172341729,0.17764226,0.0736382469,0.6738935795,0.0283377391,0.1304650974,0.4209844383,0.5898257758,0.4779433651,0.7032608659,0.4617751092,0.5578459091,0.6305947418,0.4259816973,0.3114186891,0.1042938489,78783.5523263395,0.4796936393,0.3966199681,0.0938502928,17050.0491574476,6302.1669678309
