encog,BasicNetwork,java,3.1.0,1,1392822070038
[BASIC]
[BASIC:PARAMS]
[BASIC:NETWORK]
beginTraining=0
connectionLimit=0
contextTargetOffset=0,0,0,0
contextTargetSize=0,0,0,0
endTraining=3
hasContext=f
inputCount=318
layerCounts=1,51,201,319
layerFeedCounts=1,50,200,318
layerContextCount=0,0,0,0
layerIndex=0,1,52,253
output=0.0385619407,0,1,1,1,0,1,1,1,0,1,0,0,0,0,1,0,0,1,0,0,1,0,1,0,1,1,0,1,1,1,1,1,0,1,0,0,1,0,0,1,0,1,0,0,0,1,1,1,0,0,1,1,1,1,1,1,1,1,1,1,1,1,1,1,1,1,1,1,1,1,1,1,1,1,1,1,1,1,1,1,1,1,1,1,1,1,1,1,1,1,1,1,1,1,1,1,1,1,1,1,1,1,1,1,1,1,1,1,1,1,1,1,1,1,1,1,1,1,1,1,1,1,1,1,1,1,1,1,1,1,1,1,1,1,1,1,1,1,1,1,1,1,1,1,1,1,1,1,1,1,1,1,0,1,1,1,1,1,1,0,1,1,1,1,1,1,1,1,1,1,1,1,1,1,1,1,1,1,1,1,1,1,0,1,1,1,1,1,1,1,1,1,1,1,1,1,1,1,1,1,1,1,1,1,1,1,1,0,1,1,1,1,1,1,1,1,1,1,1,1,1,1,1,1,1,1,1,1,1,1,1,1,1,1,1,1,1,1,1,1,1,1,1,1,1,1,1,1,1,1,1,1,0.01,0.01,0,0,0.01,0.01,0.01,0.01,0.01,0.01,0.01,0,0.01,0.01,0.01,0.01,0.01,0.01,0.0934871495,0.5466594107,0.01,0.5826927616,0.01,0.01,0,0.01,0.01,0.01,0,0.01,0,0.01,0.01,0,0.01,0.01,0,0.01,0,0,0,0.01,0.01,0.1608511578,0.99,0.99,0.01,0.01,0.01,0.01,0.01,0.01,0.01,0.01,0.01,0.01,0.01,0.01,0,0.5,0.2000006297,0,0,0,0,0.99,0.5222732585,0.01,0.99,0.01,0.5599887405,0.01,0.99,0.01,0.01,0.1048387097,0.01,0,0,0.01,0.01,0,0,0,0.01,0.01,0.01,0.6050367459,0.6291142789,0.6378379744,0.01,0.01,0.01,0.01,0.01,0.0139252333,0.01,0.01,0.01,0.01,0.01,0.01,0,0,0.01,0.01,0.01,0.01,0.01,0.01,0.01,0.01,0.01,0.01,0.0595702082,0.3366666667,0.01,0,0.01,0.01,0.01,0.01,0.01,0.01,0.01,0.01,0.01,0.01,0.01,0.01,0.01,0.01,0.01,0.01,0.01,0.5544444444,0.01,0.01,0.01,0.01,0.01,0.01,0.0466677803,0.01,0.01,0.01,0.1457352927,0.0287155329,0.6748325148,0.2794281518,0.0136147765,0.1813414369,0.15275752,0.01,0.0246787571,0.3366733129,0.01,0.99,0.0100794092,0.01,0.01,0.01,0.99,0.99,0,0.01,0,0.99,0,0,0.99,0.01,0.99,0.01,0,0.01,0.01,0.01,0.01,0.01,0.01,0.01,0.01,0.01,0.01,0.01,0.01,0.01,0.01,0.01,0,0.99,0,0,0,0.99,0,0,0,0.01,0.99,0.01,0.99,0,0,0,0.01,0.01,0.01,0.01,0.01,0.01,0.01,0.01,0,0,0,0,0,0,0,0,0,0,0,0,0,0,0,0,0,0,0,0,0,0.01,0,0.01,0.01,0.01,0,0.01,0.01,0.01,0.01,0.01,0.01,0.99,0.01,0.01,0.99,0.01,0.01,0.99,0.99,0.01,0.01,0.99,0.99,0.01,0.01,0,0,0,0,0.01,0.01,0.01,0.01,0.01,0.01,0.01,0.01,0.01,0.99,0.99,0,0.99,0.01,0.99,0.99,0.01,0.01,0.99,0.99,0,0.99,0.01,0.99,0.99,0.01,0.01,0.01,0.01,0.01,0,0,0.99,0.01,0.99,0.01,0.01,0.01,0.01,0.01,0.01,0,0.99,0.01,0.01,0.01,0,0.99,0.99,0.99,0.99,0.99,0.99,1
outputCount=1
weightIndex=0,51,10101,73901
weights=##0
##double#73901
   0.0809530189,-0.1543675887,-0.0809658357,-0.2365828188,0.0435575101,-0.0634516189,-0.1241602596,-0.220331687,-0.0504956533,-0.1147211812,-0.5754768642,-0.0703307493,0.0078589543,2.5377120851,-0.1409308944,-0.0834995399,-0.5798029664,-0.0471340836,-0.059852947,-7.7412029254,-0.2042898151,-0.061791355,-0.1361373699,-0.0284320797,-0.0785108662,-0.114207513,0.1846495255,-0.0689663035,-0.0764353506,-0.1414911323,-0.0578881292,-0.0526728431,1.1223341525,-0.1106434812,0.0083965973,0.4317109861,-0.1464866966,0.0556637111,0.0370134628,-0.179348845,0.2854754996,-0.0242456826,0.1063399662,0.2076110161,0.3108025451,-0.7918325565,-0.1079744123,-0.0514951206,0.313095315,0.084947688,0.3091077404,-8620.3638795566,-9014.0043331107,-9014.0072741485,-7964.0774795286,-8805.219556453,-9013.9441352621,-8314.5155210789,-9014.5096871606,-9014.427794742,-9014.6172825316,-9014.4974324474,-8914.3542325942,-8104.9085331023,-8914.1230188723,-9014.144232595,-8848.5469446661,-9014.2489336002,-8261.8229656866,-8748.8041086825,-9014.2717938666,-8748.2141566197,-8914.5724338762,-8914.4315731786,-8855.0341846054,-8755.0438542079,-8748.4835268548,-8914.5505366601,-9014.4891680962,-7904.4379426711,-9014.1237049665,-6695.9773343885,-9014.3984827906,-9304.6661564429,-5723.4370993546,-8620.5941188594,-8848.5826656586,-8620.5902949765,-8914.3021003871,-8914.4766044626,-8914.5715202789,-8914.3160780003,-9014.4465270595,-9014.1394006153,-9014.5127322743,-8654.7189451811,-8355.891397897,-8914.3561221963,-8755.0693292762,-8230.6216321703,-8914.5120806593,-8848.2616823344,-9014.1789530771,-5280.3999074309,-8361.9364133433,-6444.086359298,-8014.1092542662,-7273.7400846535,-8848.3716235143,-9014.0673379662,-5026.6712400427,-8848.4543791196,-9013.9689662661,-8914.1267488393,-8654.5116230471,-8914.4491459904,-9014.4944307118,-8654.6316711586,-8292.9943666798,-9204.8035628419,-6342.2649336474,-8361.5090189378,-8848.5601180195,-8230.3804488636,-8754.9428657389,-8204.8147203028,-9204.8512105492,-8913.9629546148,-5998.0054513541,-7955.6356996301,-5923.5227582265,-6509.4400819677,-8914.3720218142,-9014.0969564788,-8192.6191181529,-8455.3979113037,-8914.2374836953,-8914.1916599725,-5259.2910224226,-8848.5849602384,-6409.02992272,-8904.8033033473,-9014.0574513553,-9014.0511655394,-8361.3854179784,-9014.0053817377,-9014.0685122514,-9014.2383148221,-8848.1553601742,-9014.1666607828,-5454.5125394323,-9013.933837092,3304.808414586,-8914.3872841214,-6397.2156615651,-8361.6830279875,-9014.4985005774,-8914.3656874979,-8914.3932412313,4711.1685663963,-8214.4518301814,-5960.2279330255,-8914.0415194077,-8848.7124419921,-9014.5607783993,-9014.1649493378,-8905.5281796897,-9014.5525692854,-9013.9564216592,-9014.5133806677,-9204.8480185666,-8314.0148297795,-8848.1845126842,-8914.0079778077,-9013.9527185664,-8914.1568017801,-8905.1595387533,-8914.0515385442,-9014.2438991328,-5513.6946769375,-9304.41909476,-8914.5107291946,8.5505151987,-8748.492507186,-8914.1682225833,-8914.123564069,-9014.5988282036,-8313.9919625206,-8914.1668534587,-8654.5213411336,-9014.1999128492,-9304.5244921262,-9014.5950118686,-8914.4667976273,-9014.46696096,-9014.4263584448,-8914.3445402888,-9014.301945986,-9014.1787127491,-9014.4686279436,-9304.6860640914,-8748.4460133988,-8705.2613421331,-8748.3269105454,-7554.6927621506,-9014.4918510356,-7263.9732165417,1622.3778232429,-9014.3973317555,-8914.3492952736,-9014.3252485157,-9014.3175805906,-9014.4512670622,-8914.5748371697,-8914.4137662322,-8484.2449352201,-8654.9002607107,-8632.9505698259,-8904.9627643293,-9014.5114379688,-7954.3412048376,-5555.1508167147,-9014.2398359558,-9013.9302296784,-9014.589689992,-8361.6977717753,-5458.2699718164,-9014.5575741431,-5606.7004555954,-8704.9189711202,-9014.4944500518,-7904.7187633344,-8848.417583928,-8913.9469225968,-8848.4546683245,-6734.8771217882,-9014.5775368028,-8654.9601479486,-9014.4833895596,-9014.0396504105,-8748.3262733654,-8004.6936501748,-8504.9107569837,-9014.1149081931,-8914.1359053149,-7235.0603496349,-8914.5172244582,-8805.3969116352,-9014.598097758,-8914.2284616019,-8914.1420224037,-0.520848778,13031.1645614217,13424.9528345505,13424.319599959,12374.3984469394,13214.8234798778,13424.5485451292,12724.5689257519,13424.2696502496,13424.3960962038,13424.9530291479,13424.3638866091,13324.8604176397,12514.9856094675,13324.3242485258,13424.6162667872,13258.6288578492,13424.4688738305,12672.1053847392,13158.4679678242,13424.6190186763,13158.5048423648,13324.7611053151,13324.3588788771,13264.8072794959,13165.0753038212,13158.9799838816,13324.7229517418,13424.5603913384,12314.5836612774,13424.8998829814,11105.1595172306,13424.777532549,13715.1204977349,10424.840084937,13030.4892592837,13259.051887769,13031.1284923877,13324.5307129813,13324.5705506648,13324.481341277,13324.7987785167,13424.6900872297,13424.5720945939,13424.8196503262,13064.9892818903,12764.8515367888,13324.4550730626,13164.5687373643,12640.9573543797,13324.8154844368,13258.7583117386,13424.8541257163,9551.925805489,12771.6643705637,11434.6662721219,12424.5548758683,12264.5374753915,13258.7700776993,13424.4726642263,5317.4937304833,13259.0514052545,13424.74128863,13324.5582300077,13064.6847719041,13324.2699125807,13424.6282254938,13064.7754897679,12702.9561045452,13614.4570217848,7348.6157008727,12771.6771190306,13258.6517133615,12640.6305362725,13164.9241067109,12614.5669806126,13615.0575779669,13324.5721088695,9706.4574836479,12365.3873995528,7788.1724624266,7198.6495057441,13324.2528155745,13424.7830274663,12602.9838984781,12864.7873525654,13324.6548380542,13324.3619182228,8684.1313279236,13258.6852865127,7098.4316353117,13315.0570776725,13424.8732341263,13424.4319917943,12771.6996917129,13424.4004923171,13424.7667682045,13424.5452002672,13259.0954156391,13424.8573235537,9031.6471813392,13424.7635480753,-4676.7786998302,13324.4064131048,7448.6536264078,12772.3297793742,13424.9539932378,13324.3740565046,13324.6846898604,-9413.204544556,12624.379982064,10370.8541249223,13324.8969114806,13259.1306593049,13424.3143649089,13424.6894513028,13315.2830572258,13424.8252702792,13424.2601638957,13424.8853396284,13614.5429078129,12724.4155705677,13258.6536254211,13324.5031018935,13424.5527579957,13324.708647596,13314.6969715772,13324.8365081444,13424.5716621797,8099.3911720365,13714.6541452265,13324.3570885043,-1197.2716961684,13158.7973338695,13324.8186573816,13324.4364505462,13424.5345990488,12724.5712019424,13324.7946599098,13064.5022903545,13424.3245070569,13715.1115447256,13424.3411568141,13324.3601904839,13424.3239341634,13424.731060369,13324.4909769353,13424.4299789219,13424.3323059789,13424.8733246486,13714.5877644005,13158.9472608093,13114.5510985988,13158.7202118222,11965.0040452274,13424.5985800022,11674.4719311717,-5437.2391495254,13424.4603676181,13324.4546291655,13424.3073051984,13424.7493352702,13424.4047961347,13324.2451628307,13324.254646762,12894.2329355039,13064.4899636933,13043.632333999,13314.9467593496,13424.5049782107,12365.1041893612,9606.2832729732,13424.7350113055,13424.6711821343,13424.5624802285,12772.2924351297,9286.4644317647,13424.8114545588,9607.100406703,13115.1633322808,13424.8966571256,12314.7943948913,13258.86362853,13324.7832896192,13258.5042444416,11724.9032658743,13424.9542641731,13064.5767038407,13424.620982403,13424.7101258332,13159.1398463466,12414.8713498906,12915.2658431694,13424.8701120392,13324.5297068016,11645.4786093082,13324.8698658282,13214.6398381865,13424.3500188516,13324.4954944554,13324.4505841822,-0.153568327,13030.5593227815,13424.2576406999,13424.7528930925,12374.3827827889,13214.4854154569,13424.7091607237,12724.6987225345,13424.5480988477,13424.7064109505,13424.6447500945,13424.6489634119,13324.2293901999,12515.007925011,13324.7505391898,13424.7535288416,13258.7845532429,13424.5703963887,12671.5357382577,13158.4749294072,13424.1205815744,13158.6972129865,13324.7538522372,13324.2756521828,13214.917443681,13164.696893347,13158.9321573142,13324.137744525,13424.6484981556,12314.6225509044,13424.6142259083,11673.9636588556,13424.7953007035,13714.7398187647,10424.0843550908,13030.8550328541,13258.4093957489,13030.6729851847,13324.4014973259,13324.4114280576,13324.362162685,13324.6738341716,13424.4964006777,13424.7207608059,13424.5989368315,13064.8660692487,12764.7212020573,13324.1247534528,13164.4759369877,12640.5560452981,13324.8135050048,13258.931134566,13424.788976137,9314.726581856,12771.7370846204,10854.7892290728,12424.1322164411,11684.4582411562,13258.9853856973,13424.3810601455,5317.2717195718,13258.7066717751,13424.5310396647,13324.4262927961,13014.8921801975,13324.2529181286,13424.4465151931,13064.3425837177,12703.1929559911,13614.6904885565,7098.3631930875,12771.8875229078,13258.3506395966,12640.3369061378,13164.5025533447,12614.6023114275,13614.8396716139,13324.6913229429,10370.7107319836,12365.0358000538,7787.6192134709,7198.508020181,13324.6031521061,13424.7758755559,12603.0481234194,12864.7459566274,13324.6158010819,13324.1203211041,8394.2810244733,13258.8673160785,7098.1383907184,13314.4867156217,13424.3336791614,13424.7172171142,12771.560936698,13424.1457805144,13424.1295404599,13424.4718087184,13258.3922863527,13424.3579928782,9031.6157874354,13424.4974552428,-5863.3441191393,13324.3795642847,7037.9056149576,12771.9654929928,13424.3254389943,13324.4532062643,13324.2912247754,-9413.0085377743,12624.7042943274,10370.6245169809,13324.7218529796,13259.0138945496,13424.5975386517,13424.6276412329,13314.9945025329,13424.3805183873,13424.5011974283,13424.3211967222,13614.4990894716,12724.8116471576,13258.596721826,13324.7108780749,13424.6783131262,13324.2120006614,13315.1380415328,13324.7911762933,13424.6825347733,8403.4325053977,13714.9588007528,13324.6898155287,-121.5540539463,13158.4658889607,13324.5472568389,13324.7932709821,13424.3243815018,12724.1233644797,13324.4261851021,13064.5297129755,13424.5182771502,13714.8433384606,13424.4774938964,13324.1500861078,13424.7785417682,13424.4472941269,13324.797840041,13424.4520963787,13424.1287866014,13424.7003306634,13714.6941537676,13158.9032686967,13114.4328778699,13159.0329794682,11964.8204392112,13424.704841185,11674.2342594506,-5094.6065429891,13424.6279779417,13324.4485952817,13424.3740866069,13424.1244373969,13424.7560864142,13324.3576838907,13324.431772134,12894.1403468278,13064.6530649073,13043.0762560852,13314.4703730618,13424.4260296924,12364.7706646414,9927.7148905907,13424.3015101177,13424.611525804,13424.4800138631,12771.526442294,9285.8222686438,13424.12595399,9949.9169260924,13114.8573898638,13424.674428812,12314.7487002551,13258.3934114532,13324.6914989255,13258.8865202137,10855.1062076013,13424.5468098787,13064.5886640105,13424.2613153437,13424.7139399629,13158.8991674829,12414.7552267847,12914.4748545152,13424.7475760648,13324.6415780245,11645.1417708337,13324.5145297144,13214.9754113035,13424.4695298601,13324.5918638828,13324.5077990486,-0.2374191548,13030.802806342,13424.8474796118,13424.9087780057,12374.6864840005,13214.8784531232,13424.9327309027,12724.5912973609,13424.8669106004,13424.582773959,13424.7698670256,13424.2744171524,13324.3475221887,12514.5490640441,13324.6642423633,13424.850395458,13258.6163402391,13424.3989281705,12672.3027156813,13158.7066140741,13424.6220057721,13158.4914310493,13324.887463439,13324.6422799133,13215.304102446,13164.6541307843,13158.8025058516,13324.4941780367,13424.6642617945,12314.5936069513,13424.8986264203,11105.2138136849,13424.9223483269,13714.6799865814,10424.7227277399,13030.7431490921,13258.7451596319,13030.7637322596,13324.8796427114,13324.3005783954,13324.5946812009,13324.9423263316,13424.7432164059,13424.5515129846,13424.6953230007,13064.6938543697,12764.9916652957,13324.7232420756,13164.9320130136,12640.4432619018,13324.3778066189,13259.0808361433,13424.8785797021,9314.821256543,12772.1935649807,11145.3213130268,12424.9204581949,12264.8621487447,13258.8479722065,13424.629654027,5317.3857887683,13259.0750903308,13424.5422113953,13324.4205599761,13064.4901369143,13324.6729691551,13424.7343517465,13065.1039126355,12702.9808542923,13614.7719153249,7348.6191792656,12772.293179607,13258.85834349,12640.8383905025,13164.789163075,12614.9485555614,13614.5160836161,13324.9536579989,9706.443638514,12364.8077232904,7787.8334216172,7448.8792859048,13324.8678350743,13424.5049159967,12603.3567834426,12864.9005225865,13324.8874550254,13324.439310897,8973.5894521335,13258.6112368537,7182.9072917825,13314.743833985,13424.2810874119,13424.9157022543,12772.3047120025,13424.6306397951,13424.5757296845,13424.4000957276,13259.1035297312,13424.2901601903,9340.4229806791,13424.2918268424,-5555.3449099586,13324.9416668177,7448.497970543,12772.2233831733,13424.2735436617,13324.334633586,13324.4278859802,-9413.0779647454,12624.6866973801,10084.0739837301,13324.2529923073,13259.1331524503,13424.396242988,13424.591993557,13314.8527534215,13424.4822377179,13424.77624931,13424.304164787,13614.4539991725,12724.4312563577,13258.5294937328,13324.7551068011,13424.7353603953,13324.8210195937,13314.5969907159,13324.4781158621,13424.8277978541,8099.3193952527,13714.7021805762,13324.587831168,-806.5312884385,13158.9734000153,13324.2814515868,13324.8422756009,13424.6829827962,12724.5822998643,13324.4089363912,13064.5471362893,13424.3583651814,13715.1079832712,13424.6280323812,13324.904335665,13424.5600497812,13424.8159500861,13324.886805976,13424.2957268093,13424.6700543262,13424.3053889221,13714.9576022624,13158.8129836808,13115.0862393668,13158.8583130556,11964.5230032432,13424.6764589022,11674.727364301,-5436.7200606931,13424.4509560894,13324.508525735,13424.3508810874,13424.9426615525,13424.7792536228,13324.9412418059,13324.8818462307,12894.161938584,13064.7083644954,13043.0345830861,13314.9847491562,13424.6846703211,12364.7130707806,9606.2806554451,13424.5864575089,13424.6856794674,13424.3155539369,12772.285579546,9286.4956445684,13424.6676441471,9606.9034919113,13114.7133899067,13424.7832661691,12314.7357535218,13258.6711222728,13324.3073968853,13258.860293212,12014.9612783609,13424.6536427737,13064.557028394,13424.7843224793,13424.4971865397,13158.7283025502,12414.8202184999,12914.907204074,13424.44339256,13324.7413483941,11645.8488581485,13324.6654877048,13215.1586545952,13424.2591364204,13324.6371496216,13324.8815263538,0.4762492787,-7921.2316843669,-8315.360811641,-8314.8429099273,-7745.7006024276,-8395.2098348804,-8315.0583049165,-7615.0330899449,-8314.9572129766,-8315.2140215398,-8315.2134636672,-8315.4021199891,-8215.2491438821,-7695.0232135765,-8214.7342249948,-8315.2013414687,-8149.4356925733,-8314.8001292907,-7562.3992835448,-8049.0827052058,-8315.0651253782,-8048.9446917272,-8215.2489264388,-8214.9455136443,-8394.8708965977,-8345.1511947028,-8049.5090762328,-8214.80011605,-8314.976455412,-7495.3262422892,-8315.3143097321,-5896.4362436503,-8315.0426872172,-8024.2719921315,-6821.5470151642,-7921.5220305622,-8149.0274265072,-7921.0678694158,-8215.0644639606,-8214.8763335719,-8215.0583343843,-8214.8889435546,-8314.9346485975,-8315.1279120591,-8315.1029869191,-8245.4443665223,-7946.6393918648,-8215.1519750321,-8345.0933518893,-7531.2713806192,-8215.1839990155,-8148.9011852804,-8315.0771262164,-4531.2847575972,-7662.3960182748,-6325.2789636222,-7315.0540366159,-7736.4005410194,-8149.4479370665,-8315.3664287884,-4332.8986668755,-8149.5375795546,-8315.0136610035,-8214.8690236863,-8195.4064128783,-8214.7305483165,-8315.401465473,-8245.5072028036,-7593.3842218216,-7924.7945017608,-6405.3716289069,-7662.1408809907,-8149.2964112234,-7531.4283136367,-8344.98026622,-7795.6276077206,-7924.4803391727,-8214.8178825917,-6230.4557327224,-7547.575882011,-5839.4724667289,-6377.61537079,-8214.8072803198,-8314.983565645,-7493.4226769359,-8046.8055055268,-8215.3202483492,-8214.9993308225,-6006.621485629,-8148.9386489491,-6405.1973064909,-8494.8777711227,-8315.0720681292,-8314.7007310578,-7662.3320140587,-8315.3202343574,-8314.8726118553,-8314.6895713581,-8149.1409033214,-8315.001791438,-5124.3321856097,-8315.0801858557,3707.9365635258,-8214.7615659745,-6505.5966928512,-7662.2008793024,-8315.3369070218,-8215.3537263011,-8215.3275290239,4245.1990415155,-7515.2945073016,-6192.3913572031,-8215.1399369837,-8149.1455245302,-8314.7350941463,-8315.0438982044,-8495.1011646665,-8315.3927614617,-8314.9984317677,-8315.3593478009,-7924.3392315118,-7615.1741244232,-8148.97529215,-8214.9748139224,-8315.367777693,-8214.9474410577,-8495.1031529039,-8215.0734170542,-8314.8226290417,-5936.4102225303,-8024.6641888364,-8215.1409785145,255.2854486845,-8049.300312466,-8214.9081077422,-8214.8340690537,-8314.7184129565,-7614.9097150028,-8215.3336224593,-8245.5544682409,-8314.8434813483,-8024.4986654923,-8314.848161257,-8214.7428257095,-8314.9842011456,-8315.2601071274,-8215.127081841,-8315.3539134078,-8314.7947320146,-8314.7032525056,-8024.8174681423,-8049.551650673,-8295.4044266333,-8048.9475705915,-7145.3166028556,-8315.3497314862,-6855.4180633002,1761.5591330849,-8315.3287301127,-8214.8612848722,-8315.1266998301,-8314.782239172,-8314.934840436,-8214.8270419936,-8215.1663171189,-7784.802333205,-8245.5383459257,-7933.6494650492,-8495.4061153648,-8315.1616581571,-7544.8182632613,-6390.8314742217,-8315.2057956723,-8314.9756993625,-8315.3568925555,-7662.704216805,-6081.8777963208,-8315.1884473133,-6367.6414611422,-8295.0546615549,-8314.7143663972,-7495.5748256495,-8149.3699398466,-8215.1325224961,-8149.4915426848,-7195.1545517991,-8314.8728418383,-8245.5004015364,-8315.3224209872,-8314.775138369,-8049.2963989475,-7595.0141419849,-8096.0219692615,-8315.0711196318,-8214.9390222932,-6827.45929055,-8215.0332980781,-8395.180272801,-8314.8832836279,-8214.79103921,-8215.0375514108,-2.0357352456,10730.3654185267,11124.5418867241,11124.186721501,10074.213313208,10914.6092385577,11124.5150449466,10424.6945295253,11124.3952075988,11124.4154468267,11124.1624714422,11124.2486245323,11024.3953910841,10214.6185775618,11024.3777570586,11124.5045074882,10958.6853880647,11124.3980743444,10371.8472021709,10858.6055348429,11124.758970599,10858.5807460848,11024.8305263711,11024.1840915374,10914.5149264579,10864.8884774485,10858.6615921265,11024.5563059355,11124.14929255,10014.4857585849,11124.2323579572,9645.4934542139,11124.3665607414,11414.6389980486,7833.5888207071,10730.8819558121,10958.7728331166,10730.9392843451,11024.6754148982,11024.5901184832,11024.1306077481,11024.819636516,11124.7789541246,11124.4644281765,11124.3740769962,10764.7039593937,10465.0078392291,11024.55898969,10864.4525025003,10340.948024156,11024.7266263527,10958.5370436789,11124.7697742704,7180.6762584792,10471.8657520667,8554.3964363881,10124.4882323363,9384.0644491479,10958.7515924287,11124.1437419879,4736.8720164178,10958.9101050151,11124.596314033,11024.6360867388,10714.7025078281,11024.4929376607,11124.507151738,10764.3917215838,10403.3561721019,11314.6028400585,6345.9914162774,10472.1671390744,10958.3755191752,10340.7949056625,10864.3625774729,10314.4582791407,11314.3921373309,11024.8157536089,8070.5582949373,10065.1832366641,6376.6013729839,6514.425248013,11024.6601861697,11124.6537191019,10303.1272128657,10565.1607677308,11024.5144913037,11024.7533466956,6094.3125919943,10958.4796230723,6413.9193374105,11014.6731366531,11124.1859311896,11124.1602915031,10471.9053727553,11124.8232041975,11124.4354940406,11124.3691824475,10958.4466222769,11124.138830163,6731.5315724209,11124.3136821736,-4051.6174943729,11024.6579305515,6317.709443886,10471.9703000623,11124.5830510786,11024.3665415281,11024.1709633343,-7112.8837791912,10324.6580335788,8070.943614303,11024.802293691,10958.6362471957,11124.8249422396,11124.5525754322,11014.9844712477,11124.7431248763,11124.790011318,11124.4817456314,11314.6295167742,10424.2550453464,10958.7116995303,11024.7347112822,11124.2981892802,11024.7551085541,11014.7052757009,11024.368654125,11124.2374927649,6103.9318726611,11414.5112512714,11024.4312831766,-165.9700677668,10858.628162998,11024.3376118982,11024.2773651468,11124.6894618051,10424.2579122598,11024.5282153039,10764.6041765016,11124.3588070405,11414.5796131158,11124.5160633661,11024.327763511,11124.3554599668,11124.5740761326,11024.1794190522,11124.6409866953,11124.789258061,11124.6297389865,11414.9958280699,10859.0149063177,10814.6005495576,10858.6608131745,9664.8639991095,11124.2552058621,9374.399789552,-2744.7318276283,11124.792292922,11024.7995542378,11124.7033447109,11124.6863536226,11124.4343710329,11024.2832237989,11024.7165942029,10594.5658707329,10764.4724492409,10742.9520673216,11014.7281387455,11124.7237070581,10064.5795582857,7627.9877526921,11124.4606902537,11124.6421428234,11124.6548608679,10471.9754197925,6985.867086829,11124.7857328968,7649.9659107077,10814.5264965281,11124.3323418991,10014.6273457537,10958.6405272515,11024.4799404305,10958.9562935323,8555.309167807,11124.4329381229,10764.4505866028,11124.8282295208,11124.5509204817,10858.9268490453,10114.3681052476,10614.7761682842,11124.5583020413,11024.5015341843,9345.5077301716,11024.2297263618,10914.9215089378,11124.3473835092,11024.754988168,11024.4215763011,-0.7167812195,13031.0057523449,13424.5322317957,13424.4990941762,12374.448504928,13215.10880475,13424.7230021628,12724.5175232846,13424.2562407491,13424.7527648026,13424.8003006954,13424.3257934283,13324.4562793453,12514.3761113659,13324.466955589,13424.4487676915,13258.3763100709,13424.4844218491,12671.7901788376,13158.6434789444,13424.4751739669,13158.7236436967,13324.1780424983,13324.3186979041,13215.1132578654,13165.0308015919,13158.8352172943,13324.8317897116,13424.470529434,12314.7761609338,13424.6141754881,11390.0085472602,13424.7755660449,13715.0156183465,10423.8210738702,13030.5286132198,13258.4741069466,13030.4121781453,13324.5811750964,13324.4138654665,13324.4690401344,13324.7786490002,13424.3717611592,13424.4825591726,13424.7090962793,13064.394460306,12765.167345435,13324.5493551469,13164.4378906452,12640.3762400803,13324.5703086993,13258.5154962832,13424.6385715138,9315.3545542381,12771.5934699334,10563.9627429103,12424.4209245321,11684.5086739019,13258.6967163202,13424.2339649571,5317.0075741557,13258.4814123088,13424.8037277133,13324.2736292773,13014.7179941524,13324.4362529409,13424.5304052669,13064.7338255695,12702.930950424,13614.3197211008,7098.2395999594,12771.8274477926,13258.5047028502,12640.4815896841,13164.6371770526,12614.8994264853,13614.9652866065,13324.6114976938,10408.1043412806,12365.3149960838,7787.5768822743,7198.7255963661,13324.2654035184,13424.6769332596,12603.0805713766,12864.9094365282,13324.4524033133,13324.3203596307,8683.8763151763,13258.4786037449,7098.7449274518,13314.815354964,13424.5032770711,13424.1918670137,12771.503821155,13424.7160705538,13424.7426671206,13424.3339257984,13258.3893243696,13424.3994872758,9031.7713782991,13424.6533632974,-5259.5033622111,13324.783379601,7157.9781543132,12771.8010296049,13424.8288807016,13324.3207990132,13324.2375399093,-9412.8930934848,12624.6415814719,10370.7543036529,13324.818573396,13258.3218094664,13424.6609194591,13424.8196036177,13314.7216701552,13424.327767926,13424.4225641539,13424.4235347821,13614.9149776661,12724.3248453611,13258.6008408775,13324.3877200322,13424.4625998866,13324.5350011487,13315.171809138,13324.7316128389,13424.7715999358,8403.5566606495,13714.8294468333,13324.5732681423,-1561.9393177465,13158.5385150033,13324.3445475285,13324.3242969397,13424.3066172955,12724.7194174382,13324.3326767687,13064.7101396105,13424.5472200229,13714.9429102916,13424.648247897,13324.5071036968,13424.5851644668,13424.6986693726,13324.6307972001,13424.6120622829,13424.326483554,13424.3576115091,13714.7019921211,13159.0043563843,13114.5691579822,13158.3692742033,11964.5470467079,13424.3622234362,11674.4354875432,-5436.9433334503,13424.1904869219,13324.3364304433,13424.540513958,13424.5487357931,13424.271204347,13324.3900667635,13324.5607258124,12894.3986743758,13064.9920772485,13043.0596709237,13315.051873258,13424.6886491947,12364.8066758528,9965.591777344,13424.6884250326,13424.5483144665,13424.2180358234,12771.9863344783,9286.0231869646,13424.8297330733,9949.9538247132,13115.0172206942,13424.3124812968,12314.4908512996,13258.9987260095,13324.466778506,13258.9410278931,11145.5756419517,13424.4606661994,13064.4209355557,13424.1211535064,13424.6464162139,13158.9800286408,12414.6796310647,12914.4612968546,13424.7008591738,13324.7836865133,11645.3376080207,13324.5635215414,13214.7891587645,13424.4228765794,13324.2822025735,13324.5197893836,0.0919239028,41.8064556841,-351.960679381,-352.4458215266,697.9863982393,-342.9419682135,-352.1434532392,347.9650564016,-352.1636229616,-351.92632514,-352.1553787938,-351.9323170275,-452.2979873827,557.785547278,-452.3606759556,-352.0267341736,-186.032219813,-351.9131148707,200.5577968698,-286.4987570979,-352.0846006263,-286.5182670248,-451.8090918302,-452.3871427249,-343.2508069925,-92.9543734167,-286.6196252363,-451.8081527374,-352.0440601179,757.156735682,-352.0964093548,1413.9232696043,-351.9331812603,-642.605449641,2447.8619221551,41.8049212169,-186.4173787862,41.9773837049,-452.1197813787,-451.9563993254,-452.0244148184,-452.1533668804,-351.904263148,-352.4095504105,-352.3559356929,-192.4840692589,106.4170958372,-452.3937409614,-92.8019616379,232.0341376542,-452.0475345311,-186.6076152371,-352.2031568484,550.3653748117,300.6377722709,2018.1436474878,447.6146394275,1388.100939237,-186.6368418499,-351.7879956319,1735.3788404513,-186.3101422021,-352.1418093067,-451.9473063611,-142.7702190798,-452.0665511993,-351.9246992568,-192.9271482583,369.5101933988,-742.6627793436,2972.0019453416,300.4826403387,-186.4520481635,231.8528283833,-92.7601365433,457.1135810625,-742.8598042017,-452.4366065999,2633.8164588853,506.3324588848,2766.9235787425,3071.9459487936,-452.2290187089,-352.3319242973,269.2853904557,206.8897773784,-451.9716762107,-451.7813491761,3179.660485542,-186.5653112435,2972.0021168107,-243.1631846254,-351.8909358226,-352.1595273453,300.3097859829,-352.3304445805,-352.3857158079,-352.4507117817,-186.1019837721,-351.8588966683,2270.0206469875,-352.3760184743,-1220.4177038726,-452.4364965794,3071.6266070505,300.3406906677,-352.2150421293,-451.9893491756,-452.2776090968,-1882.4394073107,447.7390846466,2671.0775874701,-452.0071307287,-186.268927171,-352.1920567724,-351.7830275095,-243.2638199113,-352.128608349,-352.0431533484,-352.2982431791,-742.4057977181,347.6276319983,-186.6177962865,-452.2721981198,-352.1365623845,-451.9527625494,-243.2484707982,-451.8485702533,-352.1710522017,2653.4591773357,-642.8351909036,-451.7999610464,-925.0349894969,-286.197454217,-452.1298724074,-452.2576985874,-352.0341356689,348.1325581237,-452.202736483,-192.4395286057,-352.2669422487,-642.7583467371,-352.3036178488,-452.0006228922,-351.8657635854,-351.8419466676,-451.8257976083,-351.870815311,-352.0581269192,-352.1951964145,-642.4148750951,-286.4086939888,-42.5982690412,-286.62052306,907.4653808116,-352.1733167694,1397.8436861958,943.582535559,-352.1414845019,-452.0113740312,-352.2254059408,-352.0222492569,-352.4079352571,-452.2505670284,-451.7970682854,178.0098717002,-192.5195134314,28.8698518762,-242.6962389819,-351.9177859184,707.3623946687,2876.4566691654,-351.851397478,-352.1870794991,-352.4548790791,300.6441443564,2969.5779925238,-352.4414455105,2772.9852602735,-42.3431162721,-351.9811528806,757.5303233514,-186.0362686818,-452.280505221,-186.2168011799,1727.0709443548,-352.0353060695,-192.3816995926,-351.997930347,-352.2732913501,-286.2082075218,457.6479187823,157.3339301935,-352.2212873178,-452.398804844,1278.0079205808,-452.2325179562,-342.699531397,-352.4191893204,-452.3677060671,-451.9443971111,-0.0747358806,-2286.6705650461,-2679.7684989574,-2680.283659504,-1629.889280637,-2670.8017267389,-2679.7466997596,-1980.3934779672,-2679.8596066805,-2679.9503395015,-2680.1513565478,-2680.2575534712,-2780.3368498743,-1770.2615173381,-2780.0251771741,-2679.8233623349,-2514.0115775584,-2680.1712345324,-2127.7517050279,-2614.0123941551,-2679.8213099704,-2613.9950161459,-2780.3538436303,-2780.4010281098,-2670.7779277411,-2420.5493041675,-2614.166644856,-2780.0593279163,-2679.9564834627,-1570.1411363122,-2679.8838068931,-914.2642557092,-2680.0245453161,-2970.5198211913,410.157834223,-2286.6604710135,-2514.2940989218,-2286.3403873716,-2780.38466778,-2779.9590894653,-2780.2567305559,-2780.218271978,-2680.2366658468,-2680.3193028814,-2680.115075665,-2520.4359147312,-2221.2869322681,-2779.9184593111,-2420.5072778522,-2096.3459877951,-2780.2244144513,-2514.2996886869,-2680.3138322545,-59.7503052126,-2027.4055828635,-309.5952405769,-1879.9010480298,-939.6142161042,-2514.4072607909,-2679.7934887966,2747.104297871,-2514.5710382282,-2680.2476358977,-2779.8458102346,-2470.7985731769,-2780.1266856823,-2680.3007626206,-2520.2682640176,-1958.9366636985,-3070.3440231986,724.3162335476,-2027.4746169008,-2513.9711235283,-2096.3853933693,-2420.9112255785,-1870.7755509551,-3070.2138624034,-2780.1876962195,259.6112710482,-1821.5249141484,286.6183639401,584.4899596845,-2780.170697749,-2679.8970210266,-2058.4677543105,-2120.9740180896,-2780.3146635629,-2780.052660126,484.6029026866,-2514.6311927315,723.9534772275,-2570.8014572294,-2679.9367752411,-2680.3558441115,-2027.6360008712,-2680.1677669661,-2680.1120406514,-2680.0643319601,-2514.3379346709,-2680.4055242356,-323.6232715047,-2679.7756690094,606.6295064594,-2779.9114627048,584.362879218,-2027.7368073883,-2680.1993607221,-2779.8743794414,-2780.3419474132,617.0775933366,-1880.399253737,297.3183999438,-2780.3640270613,-2514.370946302,-2680.3116110071,-2679.9117753002,-2570.5472132162,-2680.3263601655,-2680.1942836108,-2680.3138809559,-3070.8065876866,-1979.9325405511,-2514.0838937336,-2780.3766837873,-2680.2945557111,-2779.8182543743,-2571.0564409971,-2780.2324921289,-2679.8711080623,-40.7769887549,-2970.1292102256,-2780.4134945801,-203.1169826481,-2614.4833608866,-2780.0783229271,-2779.764612677,-2680.2745169757,-1980.1338100706,-2780.4120710012,-2520.8002661636,-2679.9422014999,-2970.4214146475,-2680.3365774266,-2780.4056555107,-2679.8509322846,-2680.2423122494,-2780.1092003123,-2680.329621568,-2680.0209151499,-2679.7645237828,-2970.2092128627,-2614.3840618959,-2370.6571828901,-2614.6300334306,-1420.5551175774,-2680.2594290752,-929.7928513117,2337.0451757434,-2680.1397799229,-2780.383696887,-2680.3063947874,-2680.0748865123,-2680.1834118957,-2780.3904104148,-2779.8546303405,-2150.1140627438,-2520.5790902536,-2298.9941361626,-2571.1509445251,-2679.985460455,-1620.1411807696,502.852523602,-2680.3707235178,-2680.1302233239,-2679.9954825488,-2027.3491122705,403.5170046451,-2679.9788051049,585.6445457139,-2370.390574225,-2679.9004659659,-1570.780272924,-2514.6020221692,-2779.7672905515,-2514.2946690221,-601.2471783936,-2679.9613893545,-2520.4950745626,-2679.7513076224,-2679.9812381192,-2614.5405466857,-1870.6716577207,-2170.5415869181,-2680.2277760468,-2779.9736887161,-1050.4081027307,-2780.3448083607,-2671.2555078778,-2679.7237031594,-2780.3151278681,-2779.7229501141,0.3387643584,13030.7231750836,13424.8820097751,13424.7240452187,12374.9326335316,13215.0096376013,13424.7825007394,12724.2837230036,13424.908980055,13424.8220435251,13424.777305919,13424.7315756924,13324.9189382584,12514.4589857937,13615.000203875,13424.7768416272,13258.9369757963,13424.8280920634,12672.0978394055,13159.0779723106,13424.8404322301,13158.4923611826,13324.3430267005,13324.4475341597,13214.9294549856,13164.5594411741,13158.8232777338,13324.6687816748,13424.2772885569,12314.4523218826,13424.5639843754,11105.4056566891,13424.4613502617,13714.6230602765,10424.6144194974,13030.8416127159,13259.0060012459,13030.9460126617,13324.4826520148,13324.9202402143,13324.6571088965,13324.2595959939,13424.754213858,13424.6393492249,13424.253530309,13064.8582738266,12765.3806310382,13324.8041331282,13164.5358889162,12640.5979340094,13324.4274068591,13258.6087297282,13424.6487777925,9314.8455545498,12772.024687476,11145.3297924354,12424.8415144175,12264.7255588929,13258.4693311848,13424.9321056099,5317.6437696133,13258.7525178749,13424.4461272218,13324.7265973998,13064.4949735624,13324.6406232232,13424.7311891421,13064.8588084006,12703.5534993007,13614.8732252083,7348.5829384287,12772.2738392823,13258.6184765702,12640.6976134576,13164.7973191361,12615.0456560467,13615.1429006974,13324.6321593491,9706.1940633358,12365.1787604993,8203.8194909114,7448.7493762261,13324.3524132364,13424.6414099669,12603.2241012273,12864.8279988056,13324.6960138594,13324.8366109767,8683.9508720303,13258.8480178688,7098.7095518331,13314.8935012019,13424.4988184363,13424.2560281079,12772.1376054177,13424.3012632667,13424.8520786279,13424.773973954,13258.9727743623,13424.3393772726,9031.6751431977,13424.7369034111,-4966.6940644997,13324.5445305907,7448.4025663374,12772.2408287668,13424.5296453539,13324.5920487431,13324.6480537305,-9412.8322245472,12624.7890461442,10371.1368482413,13324.6481498553,13258.650743106,13424.514037418,13424.301923821,13315.1363956403,13424.3475210403,13424.5206066503,13424.8481093695,13614.7752989988,12724.5586805906,13258.9168911332,13324.4444760305,13424.3282240524,13324.7965146298,13314.8582397091,13324.6634962149,13424.5620799238,8403.7443836843,13714.7873006286,13324.6475995568,-806.2978770263,13158.9666672155,13324.9311338178,13324.3753918543,13424.7375851779,12724.4342890032,13324.9470627009,13064.7180709738,13424.2556692238,13714.8574596221,13424.7639894091,13324.8988361992,13424.7800371706,13424.6115456861,13324.5291356851,13424.5792447707,13424.363891858,13424.5005640709,13714.6139471438,13158.5866348394,13114.6580796518,13159.0632064395,11964.7362104001,13424.7559815782,11674.284845763,-5437.0102589561,13424.3701862866,13324.9416097747,13424.4700628655,13424.6713659775,13424.8596047122,13324.3301311522,13324.8487609565,12894.5837253392,13064.9011445643,13043.4256378286,13315.0896663219,13424.6211177885,12364.820930006,9606.1189903237,13424.2611841887,13424.3771399746,13424.2621061573,12772.0441494935,9286.5618096939,13424.7182047942,9950.3026336322,13115.1314154315,13424.5053821844,12315.1757186502,13258.9097849144,13324.5392898361,13258.6110640866,12014.8457258646,13424.4395649596,13064.5058368251,13424.7671283676
   13424.2670697196,13159.0707835453,12414.9946043831,12914.8506744905,13424.8557788171,13324.2637402536,11645.2944340731,13324.8136488192,13214.7135186246,13424.3563220304,13324.649045065,13324.5804119758,-0.3362629053,-3186.4890116273,-3580.1654751028,-3579.9415685411,-2721.0010219506,-3570.9828872574,-3579.8607592152,-2879.8858881396,-3580.251332862,-3580.3751932804,-3580.1943045492,-3580.009376612,-3679.8894259033,-2670.212505546,-3970.2022984918,-3580.3484052318,-3414.2521805562,-3580.3200709577,-3027.1831755067,-3514.1980943553,-3580.221699515,-3514.5282533483,-3679.7215037447,-3680.3668968649,-3571.3331832552,-3320.8899098525,-3514.0962063937,-3680.1080387787,-3580.4012415314,-2470.4176878288,-3580.2638246668,-1261.8839434817,-3579.8676499303,-3870.5094081525,-781.3441037056,-3186.0823941609,-3414.567509667,-3186.5588952662,-3679.9758333191,-3680.0054128052,-3680.2061237655,-3680.3871072715,-3580.3266801001,-3580.1028690295,-3580.3454611543,-3420.907161055,-3121.0229865137,-3680.1800138822,-3320.8805021781,-2996.4595827052,-3680.3922237717,-3414.4414775255,-3580.0507039937,-1096.0298672883,-2927.3700166339,-1210.0889605973,-2779.9847090307,-1839.8508826608,-3413.9296727933,-3580.4219321148,796.9798367249,-3414.122060859,-3580.1156559265,-3680.0571435472,-3370.4515783107,-3680.3845109426,-3580.1302918857,-3420.5717452307,-2858.7267193296,-3970.7728892572,-865.3313323913,-2927.2310969624,-3414.0646301929,-2996.2832494373,-3320.3004156777,-2770.9652163958,-3970.2897253909,-3680.4131335442,-695.3112771329,-2721.6147087841,-413.9760328923,-858.0986455428,-3680.2855224555,-3580.3256879105,-2958.8306292176,-3020.8145864856,-3679.9719588468,-3679.7418821962,-798.9936787265,-3414.040221167,-957.9336464629,-3471.2382245839,-3580.1678448367,-3579.8758070057,-2927.7766605572,-3580.1176271692,-3580.0755258078,-3580.0755119571,-3414.42596441,-3579.9226851103,-1322.9651544763,-3580.1988136949,1837.0845723543,-3680.1640633966,-613.8265759774,-2927.3566242307,-3580.2788196497,-3680.2570126436,-3680.2689802053,1010.8054922587,-2780.2408652519,-657.7069455085,-3680.0224328069,-3414.441930001,-3580.4185710927,-3580.1085026259,-3471.0971775416,-3580.4193131217,-3579.7649148881,-3579.8570564794,-3970.6392852849,-2880.1232763019,-3414.4225184922,-3679.8031069331,-3580.270553069,-3680.3955174405,-3470.8630192098,-3680.0122635669,-3579.7521055096,-772.1185596926,-3870.7583456187,-3679.9652233218,198.8583750086,-3514.0257944218,-3679.9654808863,-3679.959343368,-3579.9896059505,-2880.0417300994,-3680.0695171082,-3420.7383247965,-3579.7300010518,-3870.4357608127,-3580.2280223875,-3680.1715253181,-3580.3965353989,-3580.3715047668,-3680.0118471448,-3580.2239349139,-3579.8505788677,-3580.1727143708,-3870.785997261,-3514.5352181151,-3270.364816693,-3514.4385906519,-2320.4090162155,-3580.0639466973,-1830.2686321397,2038.9479905343,-3579.9469869335,-3680.2550363394,-3579.8510945328,-3579.924071264,-3580.0048314809,-3679.8942463983,-3679.9871836202,-3049.5485339856,-3420.2843706334,-3198.8068695458,-3470.7628273917,-3579.8227244948,-2520.7441088748,-452.0693561865,-3580.0798018913,-3579.9394612888,-3580.2081511062,-2927.7244084596,-436.7875148746,-3579.7988284546,-505.489449639,-3270.8440838133,-3579.7750512432,-2470.3313483741,-3414.3177875791,-3680.3391740166,-3414.2761114218,-1790.5595913015,-3580.3678493548,-3420.7166020914,-3580.1912329248,-3579.754144377,-3514.3770263715,-2770.7764587337,-3070.4784313785,-3579.9266099782,-3679.7327332909,-1950.9121437074,-3680.0218287671,-3570.7473534471,-3579.7907237394,-3680.0502956641,-3680.2775027758,-0.6720682512,-2486.4506656822,-2879.7322157854,-2879.9115840827,-1829.8637116691,-2870.8846607368,-2880.1544196162,-2179.9068888145,-2879.7954228544,-2880.2010014995,-2880.2366781661,-2880.3307272843,-2980.2609797532,-1970.2674204432,-2980.2595986592,-2880.3293089311,-2714.2273740652,-2880.3154943138,-2327.291848658,-2813.948200584,-2879.9355905237,-2814.3445023414,-2979.9495664115,-2980.069858213,-2921.0925034543,-2620.4051688659,-2814.369291613,-2979.7263185329,-2879.8307049689,-1770.6376245055,-2879.9337133013,-561.5916961494,-2880.2512344849,-3170.6018555497,-371.0662192891,-2486.0630887594,-2714.0813209742,-2486.0919259738,-2979.8921208536,-2979.8588959445,-2980.4143476386,-2980.0849241505,-2880.3470552341,-2879.9990081228,-2880.0614478857,-2720.5074080147,-2421.2265199264,-2980.0423663701,-2620.5944599414,-2296.0399815223,-2979.7695155895,-2714.3671238105,-2880.355208959,-1364.8620688365,-2227.3046572104,-509.6269511342,-2079.7368524366,-1139.8074379058,-2714.2691198571,-2879.9900419616,4914.9168590016,-2714.0188093538,-2880.3491974462,-2980.1759675728,-2720.4843278216,-2979.9939806034,-2879.7487905403,-2720.8872492163,-2158.9370776853,-3270.3706224299,3635.7798576767,-2227.7900869113,-2714.589121321,-2295.9276284305,-2620.2227127461,-2070.300050671,-3270.1396503154,-2980.0213686841,136.0781774988,-2021.8502952301,2050.9227624292,3636.2679172512,-2980.1801881657,-2880.0754856183,-2258.572999228,-2321.1285693033,-2980.0514041509,-2980.2576964911,1950.8718752845,-2714.5611877678,3536.0322525427,-2770.6473245623,-2880.0507965387,-2879.773092019,-2227.7209534974,-2880.312131759,-2879.9038762575,-2880.0731011423,-2714.010949683,-2880.2370570435,191.7525126488,-2880.3505666882,-737.3174367253,-2979.9239293602,3846.3573264428,-2227.1765947095,-2880.0055807886,-2979.9197658129,-2979.7335896031,1040.3467337171,-2080.2811542332,173.5424978613,-2979.7932458275,-2714.1076875401,-2880.2507375614,-2880.2249066216,-2770.8697303134,-2880.1315490792,-2880.1527958437,-2880.0438853313,-3270.3167553295,-2180.2813465996,-2714.5797919596,-2980.3574666686,-2879.9650761272,-2980.2012247465,-2770.9197945582,-2980.1559413879,-2880.3042582646,1940.9802740013,-3170.8130324333,-2979.996450897,380.3863923192,-2814.3915094783,-2980.0913973597,-2979.7805611089,-2879.8772769285,-2179.9224386268,-2979.7878226392,-2530.0989586816,-2880.4251787421,-3170.7074754136,-2880.2448310365,-2980.3048360256,-2879.8670581145,-2880.4207693908,-2980.4268840052,-2880.2280360545,-2880.0517756097,-2880.3708832433,-3170.456649328,-2814.0177564346,-2570.5673054474,-2813.974442503,-1620.8240919063,-2880.1272942232,-1130.4645728958,3753.4361599755,-2880.0813429759,-2980.3114739364,-2880.3465301032,-2880.1629435825,-2880.2552131519,-2980.3963322065,-2980.3019674388,-2349.4733008199,-2720.8516404826,-2499.0454888146,-2771.3267883986,-2880.0283893356,-1820.2667121533,378.7960054529,-2879.937446882,-2880.1787218779,-2879.9048262534,-2227.1592355372,1058.3643292949,-2880.0164286582,594.2399437874,-2570.7667669976,-2879.9082173701,-1770.7107986598,-2714.3520143128,-2979.8373857197,-2714.0827033293,-800.7741721075,-2879.8166027446,-2530.2193737587,-2880.255638716,-2880.3288810379,-2814.1382326691,-2120.4770346644,-2370.9452846711,-2880.0629951154,-2980.02045341,-1300.6279505907,-2979.7782502492,-2871.1757017111,-2880.1481743793,-2980.0696893884,-2980.1904549357,-0.4956247547,-9520.2113292855,-9320.3621130015,-9029.8777449047,-10129.947532576,-9278.969191828,-9320.2639189607,-9247.7145157458,-9319.9460484055,-9320.2560884585,-9320.2786200044,-9319.9561329809,-9219.8532043691,-10468.311586731,-8929.6228121476,-9320.0637121636,-9092.4692899149,-9319.7581476278,-8833.3647141097,-9319.9640806367,-9320.1375026825,-8992.4396683707,-9220.2159265017,-9219.9834955357,-9279.3708190337,-9530.0575747635,-9320.383128074,-9220.1058092918,-9320.1984603662,-10379.9768661244,-9319.9998442007,-11093.5733438457,-9320.0841030233,-9029.9838976325,-10689.502501123,-9520.1832329927,-9091.792977504,-9519.9512440711,-9220.0765341336,-9220.261023681,-9220.093003578,-9220.0227524957,-9319.8207301375,-9319.7688235726,-9320.3490411929,-9429.5128720181,-9729.0858817043,-9219.7253253607,-9529.6454886386,-8933.1289480616,-9220.0550313601,-9092.4494240388,-9320.4181523539,-9187.5989233194,-9319.2724220157,-10856.066598527,-9230.2090723108,-11060.0975241382,-9092.072696259,-9320.1360899873,-5826.9485631965,-9091.8609780805,-9320.1876092692,-9219.9498553708,-9479.6845395056,-9220.3267416375,-9319.8621011914,-9429.6158053152,-9152.1852996466,-8929.8662601298,-8103.8468851605,-8933.2459366661,-9091.787954817,-8933.1695989795,-9530.0778994211,-10079.4177853832,-8929.5603135675,-9220.2325770274,-9943.307803664,-10128.9195514578,-7913.3164013897,-8493.6428891437,-9219.7349632245,-9319.9520605177,-9051.7597606484,-9829.1229699357,-9219.7626874908,-9220.0937705562,-9023.3304300921,-9092.2082727718,-8393.8469647916,-9379.5598266421,-9320.386993852,-9319.8009993384,-8933.2684574357,-9320.2752325623,-9320.3996122701,-9320.1687778486,-9092.0778021605,-9320.1748262938,-9397.8128382208,-9319.8510010394,7095.9932416388,-9220.1899261105,-8493.8255184838,-9319.6790089239,-9320.0747093102,-9219.7825639489,-9220.4351603066,8279.6345740652,-9215.2415854853,-9541.6949847359,-9220.0702366989,-9092.2443454937,-9320.2405182664,-9319.9247063567,-9379.4651167893,-9320.0924334768,-9320.0119176348,-9320.2907971307,-8929.7885818802,-9102.5157813068,-9092.3523283439,-9219.9690415024,-9320.0673112745,-9220.1439756658,-9379.201855343,-9219.7897653758,-9320.4321848761,-9188.9905522453,-9029.795764688,-9220.1109782789,2023.6238714683,-9320.0188535905,-9220.1849140825,-9220.2231209353,-9320.0875571616,-9102.3834424438,-9220.1062163738,-9479.7079263128,-9320.4128878286,-9029.954563814,-9319.8397890503,-9219.7243189837,-9320.1354588534,-9319.7295358611,-9219.9409699044,-9319.9750056658,-9320.2191888389,-9319.9696946241,-9029.7364300016,-9320.1822829872,-9579.6960001988,-8992.006748724,-10530.1195920825,-9319.9826881508,-11019.9026702277,5483.1161932121,-9320.0052025224,-9219.8974157291,-9319.847825492,-9320.1075709458,-9320.0832381124,-9220.1577897748,-9220.1159616086,-9519.5659566247,-9429.9617217065,-9204.8745557733,-9379.2515070839,-9319.8782173924,-10329.7708343384,-9141.6389190902,-9319.7754159665,-9320.3993114019,-9320.1519045245,-8933.2113459904,-9659.3416052988,-9319.9896111429,-10079.9391558757,-9579.9935171406,-9319.9555099208,-10379.6863105402,-9419.9069896284,-9219.9121261439,-9419.7717698009,-11051.1243389851,-9320.0123751164,-9429.4366503617,-9320.3657333253,-9320.3609561854,-9319.9784334512,-10657.4848878157,-9779.2672520489,-9319.8977792593,-9220.1960757503,-10899.9022214153,-9220.3235729958,-9279.1024357273,-9320.276408387,-9220.4105459129,-9220.3694267688,0.1807250939,-2554.5357645784,-2948.6335008865,-2948.6761787413,-1898.5599951398,-2739.2218777539,-2948.3164369882,-2248.7336779247,-2948.828382993,-2948.7387801161,-2948.8040709869,-2948.4595977259,-2848.6734102967,-2038.7349828013,-2848.1309730344,-2948.4372739615,-2782.6130633291,-2948.5421182378,-2195.5056676491,-2682.5044777811,-2948.6164523199,-2682.7539215439,-2848.7928214852,-2848.5684771464,-2739.2593645669,-2688.9863487204,-2682.4151459892,-2848.5033497984,-2948.1214710552,-1838.5798266885,-2948.8295897617,-1182.0863413101,-2948.1676607166,-3238.6421379072,51.3822548016,-2554.6332478323,-2783.0147949261,-2554.8171509448,-2848.5319461062,-2848.772902126,-2848.4892385558,-2848.1541346316,-2948.2818225918,-2948.7565692169,-2948.7668475961,-2588.8179093924,-2290.0498020199,-2848.2412695616,-2689.3968488054,-2164.7596749093,-2848.1529985577,-2782.8597676201,-2948.4477263572,-677.0677288214,-2295.8788260858,-88.2641161758,-1948.5918645488,-1208.4859597235,-2782.802737475,-2948.3548703076,-278.8627465926,-2782.8041465123,-2948.3831043457,-2848.4260142119,-2539.2112435976,-2848.3264771506,-2948.7106435356,-2588.6549407282,-2226.8509002665,-3138.6037013717,142.053158842,-2295.8819617966,-2782.8570138212,-2164.5944590494,-2688.7625423944,-2138.8122057269,-3139.162023577,-2848.1878140967,67.8476996849,-1890.0746088336,-192.5468856382,41.746806602,-2848.4393801523,-2948.624657072,-2127.2326871142,-2389.7962275575,-2848.4844585763,-2848.8248400962,876.7416162211,-2782.4361231137,142.0425936217,-2839.4157690737,-2948.2361832981,-2948.4444067566,-2296.2071952857,-2948.8155038161,-2948.3263469891,-2948.3180583765,-2782.4813995664,-2948.6268216236,217.3660427924,-2948.7450014376,125.5814688407,-2848.6510515613,42.279346106,-2295.9346653895,-2948.5866218352,-2848.4821813463,-2848.1633063843,119.8662027729,-2148.7995365449,105.3691859309,-2848.3816528059,-2782.6342117929,-2948.4265607901,-2948.7577824652,-2839.0334007991,-2948.8163734244,-2948.3715120058,-2948.2231145843,-3139.1852425566,-2248.7311582188,-2782.8301340544,-2848.3427757774,-2948.6150711979,-2848.705243194,-2839.0720553955,-2848.5031948562,-2948.6576374585,355.6156808323,-3239.1233740321,-2848.3684130468,-643.2424540353,-2682.754177934,-2848.1399446342,-2848.2940060173,-2948.7402331039,-2248.1925606919,-2848.3290273904,-2588.7712189665,-2948.3233988569,-3238.9518486894,-2948.3271287299,-2848.5163028328,-2948.1803270136,-2948.5359830396,-2848.5221475523,-2948.8206910731,-2948.6254906376,-2948.5168856164,-3238.9164243536,-2682.601769518,-2639.1362370445,-2682.5297806114,-1489.1992919608,-2948.6729724594,-1198.488583396,407.6620680248,-2948.5281010519,-2848.4426796058,-2948.4220892778,-2948.2034911914,-2948.3183402247,-2848.5126730376,-2848.5375350258,-2418.4775281484,-2588.770989434,-2567.0010268219,-2838.9912717844,-2948.8256282801,-1889.0338586771,510.439227009,-2948.3555950971,-2948.2157761096,-2948.6904041082,-2295.7723146611,659.2711039522,-2948.1997029479,244.2514180518,-2639.0882758786,-2948.2095041802,-1839.1376998845,-2782.7032770134,-2848.357285636,-2782.3414990709,-379.3676312848,-2948.4615735044,-2588.9212983828,-2948.8192423041,-2948.3424929156,-2682.8056344401,-1938.7155037006,-2438.8779688451,-2948.176772448,-2848.6810910856,-1168.6130335625,-2848.4855096059,-2739.6017601199,-2948.6010179562,-2848.6430634336,-2848.3204370638,0.4031655044,13030.5069483106,13424.4907834411,13714.5171970769,12374.5523939126,13214.5756608426,13424.163732817,12724.4757576055,13424.5603922767,13424.1655810302,13424.3549343403,13424.6832477084,13324.2430978306,12514.9120630442,13614.545316093,13424.2662314464,13258.5518968344,13424.3404710327,12671.5659879566,13158.5464301469,13424.6460453359,13158.5413687403,13324.454897672,13324.5811238115,13214.667808172,13164.9746950042,13158.7893317929,13324.4176454776,13424.5478665414,12314.4067847737,13424.7057476783,11390.567513134,13424.2469969413,13714.4745877134,10714.2413586013,13030.7957665579,13258.3337547667,13030.634282436,13324.2329860712,13324.6501744882,13324.2365312624,13324.7601140637,13424.6628740617,13424.7799974918,13424.373610802,13064.9689785584,12765.0886160842,13324.1483623585,13164.7621313098,12640.7970309117,13324.3442541888,13258.721822318,13424.3866754964,9314.769106907,12771.5532727015,10854.5024139257,12424.5750419528,11974.4230912988,13258.5868444223,13424.4680425285,5317.1779795011,13258.6552245209,13424.7615437748,13324.6523263097,13014.9595422693,13324.5897452773,13424.4646368882,13064.8974685974,12702.977194071,13614.4115706248,7098.6562322524,12771.6224973007,13258.823971645,12640.7434844751,13164.5399373391,12614.3895259882,13614.3519903549,13324.6567678708,10408.2352604332,12365.3023408636,8203.994617844,7198.2169781109,13324.511780922,13424.2105276483,12603.220859094,12865.2432889163,13324.8261094919,13324.6295453983,8394.1608175666,13258.4438993608,7098.2729727833,13314.6375097967,13424.6910971405,13424.4296771347,12772.1859741155,13424.3117429747,13424.6841775026,13424.6172011881,13258.5484911166,13424.7435376522,9031.5142616965,13424.6665387339,-5258.7645365361,13324.4162743739,7448.7509864332,12771.5062048436,13424.3784421907,13324.1753879271,13324.5866284065,-9413.4361246881,12624.8276012188,10370.5286035278,13324.2735410654,13258.629783576,13424.3469621519,13424.5151559751,13314.9434404433,13424.3089971792,13424.582222215,13424.4377688086,13614.6774753386,12724.4805027563,13258.9411023658,13324.1307378361,13424.1378763907,13324.285785771,13315.165725998,13324.5798463878,13424.2988609957,8404.0597168865,13714.4701727954,13324.7980001077,-1584.3907732696,13158.6574054411,13324.6298516376,13324.5610861578,13424.4753289122,12724.8060878273,13324.37859332,13065.0158853642,13424.7165021042,13714.8958179066,13424.2550575767,13324.7922228011,13424.4991036713,13424.2220603824,13324.540607045,13424.6572701779,13424.6909205951,13424.5147198934,13714.5179826437,13158.5291654215,13114.9861517152,13158.660663213,11964.6322159803,13424.554382635,11674.3903336967,-5436.9317645583,13424.2689440001,13324.6015933468,13424.5372575205,13424.4480154595,13424.3164963965,13324.3888509813,13324.358504816,12894.1808164584,13064.7644467729,13043.2588140218,13315.1351927325,13424.5286868762,12364.9273627942,9965.2457963313,13424.201203245,13424.3347065483,13424.6768606115,12771.6988058903,9286.0908472962,13424.2124320176,9949.9893884316,13114.6810962575,13424.2964124205,12314.8677585671,13258.9570482199,13324.2710120184,13258.9469706551,11145.2260609053,13424.8076986676,13064.6331838177,13424.3646967525,13424.8115582062,13158.3927722564,12414.756824427,12915.1112452355,13424.304705146,13324.6108876012,11645.3044387391,13324.1865947711,13214.5916704436,13424.3778947858,13324.8276104942,13324.7877879405,-0.1384327973,-1986.4809536965,-2380.416730358,-2380.0542635427,-1329.9422730089,-2371.0310765008,-2379.8055622799,-1680.1402403198,-2380.2092872052,-2380.1487243412,-2379.8557205944,-2379.8110953044,-2480.0522968376,-1470.5962874915,-2479.9769851653,-2380.2019582429,-2214.0471545214,-2380.0753486275,-1827.5244174548,-2314.2638641878,-2379.9434900335,-2314.1745436875,-2480.395082655,-2480.1443152196,-2421.1424292544,-2120.5749282723,-2313.9994288771,-2480.3602225179,-2380.4101790777,-1270.5685221186,-2380.2759468639,-61.4494581392,-2380.154510504,-2670.3879600418,129.2121401121,-1986.2081430585,-2214.525567407,-1986.2604517196,-2480.2635524296,-2480.009533337,-2480.2901131194,-2479.7456234335,-2380.0708838818,-2380.2887930645,-2380.3235645807,-2220.424722063,-1921.6164783791,-2480.1573193628,-2120.3863397669,-1796.3248418464,-2480.3758838115,-2214.2613964693,-2380.3729005898,-864.7415629729,-1727.4537806574,-9.7664628216,-1580.3765934581,-930.2792642673,-2214.2470409348,-2379.9372491363,4981.7211506241,-2214.559336867,-2379.7383803187,-2480.1671210156,-2220.2973807663,-2479.9420616515,-2379.914261697,-2220.3649524231,-1658.7745771371,-2770.7260352394,4135.818286394,-1727.6767806143,-2214.2469532103,-1796.4695588473,-2120.3534839204,-1570.4815849856,-2770.62794687,-2480.0224959131,636.3507523898,-1521.2499751806,2550.9549704919,4135.81775639,-2479.8679431412,-2380.1218743147,-1758.6402730382,-1821.5130863683,-2479.9959938424,-2480.0810494295,2450.8349514525,-2214.3335666281,4035.8047563807,-2270.9730488087,-2380.3528654794,-2380.4049159055,-1727.4724893337,-2380.2191399099,-2380.0903396156,-2380.1906963631,-2214.4447806046,-2380.1425923511,691.7724839205,-2380.21739964,-1237.1912054666,-2479.790822635,4346.535613697,-1727.7412976644,-2379.7548810629,-2480.1237739695,-2480.2498354711,540.3449331658,-1580.0405969983,673.5227949236,-2480.2886556277,-2214.4659898268,-2379.7593448426,-2380.1477917465,-2270.9352415655,-2380.1350392797,-2380.3427621651,-2380.4177693324,-2770.6424607753,-1679.9660680795,-2214.0886722097,-2479.9923274749,-2380.3241426572,-2479.9787317699,-2270.7749391836,-2479.8178109738,-2379.9709321126,2440.3997878171,-2670.7341221256,-2480.410042315,138.1627570125,-2314.5195282316,-2480.1715670854,-2479.9290160097,-2379.9737318985,-1679.9543518282,-2480.3891177439,-2220.5653742476,-2380.0360002972,-2670.21133681,-2380.0143883919,-2479.8714244722,-2380.0699936929,-2379.8674831315,-2480.2808579672,-2380.1099555492,-2380.1674475492,-2379.9477417431,-2670.2087773045,-2314.0898345053,-2070.6937025873,-2314.4020920157,-1120.5205649549,-2380.0581740131,-629.8819376362,3152.4937725239,-2380.1011285814,-2480.1757684455,-2380.0170411512,-2379.7708406048,-2379.9448953483,-2480.4080929981,-2480.1782451549,-1849.4623418494,-2220.5296825463,-1998.5513413564,-2270.8260712148,-2380.3329522042,-1320.2133933603,879.1174698619,-2380.0965356971,-2380.0173958575,-2380.0286848217,-1727.1688176744,1558.5755349746,-2380.2294196974,1093.858695711,-2070.6272828427,-2380.0444234928,-1270.2889457796,-2214.6194411104,-2480.2930419766,-2214.4414879994,-300.7978978546,-2380.2065637967,-2220.8214354852,-2380.2001385588,-2379.8533615947,-2314.4336043108,-1620.5234701403,-1870.6715645283,-2380.0998610723,-2480.3267737084,-800.5852753662,-2480.0426266499,-2370.6257945457,-2380.302918675,-2480.296529014,-2480.4297933837,-0.4357345147,-1585.9885263463,-1980.1117587232,-1980.378934066,-1120.9237903056,-1970.7516540638,-1979.9044329783,-1280.2989009299,-1979.7489368843,-1980.1378858302,-1980.1640123474,-1980.1492500936,-2080.4029067263,-1070.3462606598,-2080.3788782615,-1980.2050769967,-1814.557817783,-1980.0755763444,-1427.6124169493,-1914.3418755298,-1980.1658782931,-1914.3246909448,-2080.1046217602,-2079.9311104768,-1971.1928159993,-1720.6507302703,-1913.93852441,-2079.8741613717,-1980.0138637415,-870.1199729181,-1980.0571984283,-214.0914281189,-1980.029115414,-2270.6278974355,820.1799312669,-1586.3671599506,-1814.1096033081,-1586.6619022962,-2080.0967795289,-2080.1578680158,-2080.2619901678,-2079.8594861475,-1980.4156965034,-1979.8985065826,-1980.1340902663,-1820.5740976552,-1521.65668459,-2079.8656997288,-1720.7544263381,-1396.2562490201,-2080.3432522554,-1814.0755602359,-1980.1290249727,-552.6458560054,-1327.5675598927,680.1625417248,-1180.298398782,-239.7158526981,-1814.1980226045,-1980.162901393,545.6449576087,-1814.2292259858,-1980.0494021049,-2080.3603406209,-1770.8724076007,-2079.8985319772,-1980.32827155,-1820.9002003829,-1258.9777957783,-2370.3167836819,987.7842128623,-1327.3500922106,-1814.3107279484,-1396.2178303573,-1720.3647282349,-1170.3263005652,-2370.3422486379,-2080.2414769341,904.9123236055,-1121.0647327836,715.5129631073,1088.1874942876,-2080.2563601553,-1979.9636808175,-1359.0123412069,-1420.9867277378,-2080.1749696728,-2079.9764353227,1086.2362757124,-1814.3780262991,1022.7253544294,-1871.2397567224,-1979.9330701886,-1980.0147858925,-1327.3081565034,-1979.9520892143,-1980.0411188969,-1980.2692696915,-1813.944992346,-1980.084960075,495.1370111062,-1980.4217904975,-716.7520192471,-2080.3285341342,1088.2169022165,-1327.1085773805,-1979.9264532533,-2080.3471700632,-2080.1270794158,-1135.869339884,-1179.7874751651,942.2152459548,-2080.2524176375,-1814.4184232665,-1980.2858625415,-1980.0139400429,-1870.5468942738,-1980.0394705011,-1980.1279491676,-1980.3553499217,-2370.3170532857,-1279.7905188043,-1814.0887033005,-2080.2956495722,-1980.2464004631,-2080.2844662464,-1870.9271297234,-2080.4055233058,-1979.9423871607,827.9962149263,-2270.2269215212,-2080.028313799,-595.6564884872,-1914.5951859187,-2080.4343988402,-2080.1877664115,-1980.1110733556,-1279.8071264331,-2080.2773187407,-1770.5647592551,-1979.7554698091,-2270.6191502691,-1979.8754895606,-2079.736568246,-1980.2243164467,-1980.0155482912,-2080.371593723,-1980.0504442524,-1980.2132157587,-1979.7687662724,-2270.466046151,-1914.2650752398,-1670.4675119469,-1914.0274316321,-720.7055429376,-1979.895276358,-230.1817364973,863.5735376062,-1980.2020536562,-2079.9008379192,-1979.9022884393,-1979.903132924,-1980.26866267,-2080.2269781613,-2080.1123034196,-1450.0894118777,-1820.3845142292,-1598.8438208116,-1871.0709385592,-1979.8987856406,-920.4442836586,1147.4516551538,-1980.2975831909,-1979.7499918426,-1979.8963690353,-1327.5371432861,1162.9985499282,-1980.3165463273,994.6048509297,-1670.7589745352,-1980.039835852,-870.8005626559,-1814.4057863433,-2080.1840322485,-1814.342882812,388.8809986704,-1980.3009553159,-1820.3631505877,-1980.4241529413,-1980.0900887335,-1914.3434442892,-1170.8599294042,-1470.6158780875,-1980.3361488081,-2080.2899709116,-350.3086349384,-2079.8600923413,-1971.1777015325,-1980.3935364925,-2080.2795158975,-2080.2695761186,-0.376979047,679.9060180836,286.0196882535,285.7026813477,1336.1492509355,295.0219796895,286.0724108579,986.0051401055,286.0920007278,286.2630241191,286.1693211766,285.7220107139,186.2021745796,1195.5093707524,185.9162710527,285.8171930664,451.8042181703,286.2552896918,838.4853029834,351.5281885699,285.702070415,351.9752167964,186.0228190172,185.7407038306,245.5037607788,545.4646482459,351.6827397863,185.9217766185,285.9111495285,1395.7664286135,286.2795913976,2604.4363050612,286.1766503452,-4.4893302478,3085.4159504342,679.939438177,451.6035736966,679.8247326885,186.1635976612,185.9354191828,185.9011668955,186.1503910857,285.7461451385,285.9784398796,285.7746905305,445.6630640317,744.5653820732,185.9146162211,545.5192230021,870.2223458518,185.8751151576,451.6694380929,286.0262970264,998.7962236761,938.4299453299,2656.2597368057,1085.967300773,2026.5342949533,451.7926103802,286.1000565555,4392.80658659,451.7304116661,285.8371156613,186.3600715887,445.5200642045,186.0522490512,285.923015197,445.5565201033,1007.3482005658,-104.455112903,6023.2824385164,938.6668267592,451.6414185313,869.5716063714,545.8298715336,1095.3992688718,-104.6805298263,185.9518566143,3302.1928607154,1144.7641702279,5506.9817913711,6201.9007354674,186.3278287704,286.3724370523,907.2514445542,845.0173370276,185.8240829555,186.028268047,5116.943619678,451.5298039713,6101.3226991359,395.4004755205,285.7303123308,286.0889385532,938.6669831772,286.2841972741,286.2605576703,285.6997818024,451.7766700901,285.9327138646,3646.751968324,285.9397196399,-3723.6512289118,186.1960720839,6073.6809512554,938.7239921895,285.7096432994,186.3472928502,186.1247962247,-1961.6691295134,1085.8458283068,3340.0711811594,186.1689062854,451.8933238505,286.0199912592,285.8622303458,395.4837869319,286.0302698735,286.0211293679,286.2462525,-104.065560698,986.3530235141,452.1221249203,186.2945876579,286.2698677822,185.883064985,395.3322368265,185.9522484798,286.3310722684,5106.6133049744,-4.2959209387,186.2754948858,-187.8183568156,351.5131991116,185.7213062789,185.756225209,285.8284585257,985.8802841104,186.1772501468,635.9031531525,285.7458582184,-4.0765079494,285.7226548883,186.3013147352,286.0606116207,285.9599259403,186.2574047059,285.8899719092,286.0901756865,285.8749119995,-4.5119819321,352.0176198899,595.5833388219,351.535654095,1545.7638827187,285.7497504825,2035.8927526163,247.2019800025,285.7237730546,185.8345537588,286.1322752648,285.8493693424,286.3521692462,186.3047080395,186.0040393927,816.5853296429,445.8631085167,667.0184551509,395.3921807082,286.0032285081,1345.9611759227,3544.8602903044,286.1148029898,285.9471947017,285.8994618684,939.0198851128,4224.3996591135,286.0779240543,3760.394229969,595.7244060317,286.1449798545,1395.5909258253,452.128940568,186.1729758451,451.6465490563,2365.5307165057,285.9305598918,445.5478166249,285.8082218438,285.7173258236,351.8292851787,1095.7525106921,795.4962703976,285.884273315,185.6942252366,1865.4941860612,185.9835886266,295.4197517665,286.2648857822,186.2347114092,185.8972257359,-0.3408999267,-386.0188475057,-779.7504040949,-780.1993647199,79.5654394111,-770.5501625346,-780.317013669,-79.8707533404,-780.4139503423,-780.2729397789,-779.8915890054,-780.2444626411,-880.1202504959,129.5794210573,-880.2587566866,-780.3559029587,-614.2042769316,-779.9307952846,-227.5634260781,-714.139264523,-780.2286387061,-714.0139741501,-879.9465163759,-880.3187681431,-771.1601226065,-520.6105599361,-713.9425860081,-879.771040637,-780.0318630521,329.679853167,-780.2373619178,1538.1596837252,-780.0543782954,-1070.704570892,2017.6137398098,-386.0801303173,-614.6145062585,-386.3641023121,-880.2404338583,-880.1138860211,-880.1455887014,-880.2015528622,-779.8187164077,-779.8552035726,-780.0440841104,-620.5344816278,-321.6181781005,-880.3855938031,-520.2697913274,-195.8931773193,-880.1813875048,-614.1040088678,-779.8465516864,1729.1513868991,-127.4070429597,1590.4959992146,20.033843582,670.0462061015,-613.9258258386,-780.0395809564,3544.9999376537,-614.141196626,-779.9143383298,-880.1236890956,-570.7908843256,-880.3057382069,-780.1829670302,-620.4919524546,-58.9412185251,-1170.1361918026,1875.712091755,-127.2529783371,-614.0695070173,-196.4088216598,-520.5466889396,29.057352935,-1170.2350265943,-880.4200540335,2160.0775803377,78.6002351486,2756.1824304992,1975.8571349018,-880.3946864734,-780.2824960956,-159.0125230589,-220.8210087987,-879.7965163024,-880.4300518933,2100.5430473342,-614.3283886398,1875.8068451089,-670.7548618052,-779.8032546642,-780.1665477048,-127.7199693857,-780.1890418019,-780.2272536117,-780.2861214824,-614.1434925122,-779.7802202853,1566.8667450266,-780.3080380408,-954.0429834714,-879.7320878344,2187.6337133336,-127.6983337047,-779.9629301973,-879.8937256188,-879.7512272963,-1391.2980064418,20.156034264,2197.2685667683,-879.8755505025,-614.5967117699,-780.408638352,-780.3792476658,-671.1744299054,-779.7643788227,-780.2514970023,-779.8664715822,-1170.7877409658,-79.9295329817,-613.9320054934,-880.2643333066,-780.1705495431,-879.869529713,-670.8490674572,-879.8863465001,-780.2644772699,2126.7931351174,-1070.6583753004,-880.4310629887,-148.2900349588,-714.4967807485,-880.3484263713,-879.7243110013,-780.0499821752,-80.4067645055,-879.8652371356,-620.9705090393,-779.8772198751,-1070.7538214315,-780.2493666697,-880.1472610829,-780.1030123419,-779.8704034887,-879.7608172179,-780.0057675102,-780.2214683375,-780.2192798691,-1070.2391469693,-714.426317258,-470.3798493958,-714.1894887119,479.6932819196,-780.3024510832,970.0117167334,536.2266574187,-780.166171839,-879.882075985,-780.0608814154,-780.3892659759,-780.1775216324,-880.2193589928,-880.3448490744,-249.9376616839,-620.6550211117,-398.7128546734,-671.0659327969,-780.2674283887,279.2445303596,2402.6443615455,-780.3581775746,-780.024916283,-780.3233656844,-127.7128889966,2453.0519332036,-779.896935893,2372.4694820354,-470.3392583191,-779.7329522818,329.7329659383,-614.5952190728,-880.2465128067,-614.5243280532,1298.6624604863,-780.2797657356,-620.4178178196,-779.7386697654,-780.1426545293,-714.1965007327,29.5359952217,-271.0063849404,-780.2006605615,-880.1919155249,798.7930014734,-880.0107427058,-770.5917983668,-779.8865439318,-880.4205488108,-880.1003030753,-0.5972312133,-4051.567264489,-4445.4877096356,-4445.3963893954,-3395.7208338137,-4436.3053408537,-4445.8538136522,-3745.479990163,-4445.4648622457,-4445.3343979697,-4445.7555106418,-4445.4131133725,-4545.4328677669,-3535.8279966065,-4545.3461442937,-4445.4486103944,-4279.6570683377,-4445.8772053622,-3892.6211282111,-4379.7840415148,-4445.6888259523,-4379.8216924195,-4545.2702009567,-4545.3792660554,-4486.0844183367,-4185.7855953808,-4379.8584372012,-4545.7238002002,-4445.5331763315,-3335.6859088014,-4445.8319086688,-2679.4412514399,-4445.3804581412,-4735.7483558709,-1355.2866483506,-4051.7484979661,-4279.867598915,-4051.6049760804,-4545.3200596028,-4545.6793968208,-4545.6342052598,-4545.742464103,-4445.3790267978,-4445.6615135692,-4445.5650980529,-4285.9192332963,-3986.6752256009,-4545.2426692619,-4186.1196962433,-3861.8039035042,-4545.6812774374,-4279.5874768731,-4445.4612471895,-3008.6994154834,-3792.8272184329,-2075.4731736539,-3645.789109059,-2705.3838761446,-4279.5421131199,-4445.4041104556,-3354.8599408373,-4279.902530268,-4445.4779597836,-4545.625035688,-4285.87482008,-4545.6052438405,-4445.5351652773,-4286.2217838299,-3724.358151651,-4836.0308820593,-1583.0720037001,-3792.9884509576,-4279.6455771613,-3861.9043759818,-4186.3698673563,-3635.816164311,-4835.7044884115,-4545.5540331176,-1429.0820931878,-3587.2984045684,-771.0108026278,-1233.379477407,-4545.4510893068,-4445.5279855654,-3824.4843006151,-3886.4760636004,-4545.7962359347,-4545.6527204867,-88.5113210233,-4279.6378393357,-1583.3050999567,-4336.3969838049,-4445.4174033742,-4445.5670729722,-3793.185891491,-4445.4753045252,-4445.616989341,-4445.3220308533,-4279.5646414915,-4445.6947050162,-1384.9755400253,-4445.6399757403,-355.8718701728,-4545.7574774055,-1523.6362455409,-3793.0428922386,-4445.3181458616,-4545.7438518792,-4545.5732287202,740.335051178,-3645.2078994845,-1391.5561772037,-4545.8246827722,-4279.4357922018,-4445.6192600734,-4445.5253689229,-4336.2747776081,-4445.8642577721,-4445.4427963039,-4445.5395124434,-4835.6211143622,-3745.7584204251,-4279.7831975066,-4545.2536073681,-4445.5564530843,-4545.5992938383,-4336.3925450219,-4545.2142071034,-4445.574706987,-316.1755842,-4736.2007289171,-4545.8523908225,-468.9806525637,-4379.5796663299,-4545.4841771087,-4545.6821537055,-4445.307356208,-3745.7096755312,-4545.3655391639,-4095.2924021171,-4445.6492590961,-4736.1641864651,-4445.512863075,-4545.8870760647,-4445.7154656826,-4445.486503211,-4545.7253055606,-4445.5476381614,-4445.3432886018,-4445.8444554667,-4736.0404526048,-4380.0519157707,-4135.926915357,-4379.9778522898,-3186.015950517,-4445.5932574417,-2695.4780687523,-598.9129629848,-4445.3762290089,-4545.2350084001,-4445.8031672751,-4445.3271858901,-4445.2389047292,-4545.8149567832,-4545.815668188,-3915.1488392018,-4286.0741178764,-4063.9812960432,-4336.738283794,-4445.7994162402,-3386.1081474818,-1186.8842604202,-4445.2018226253,-4445.4828720172,-4445.6648168989,-3792.998076554,-507.2151105345,-4445.4957344051,-1071.2847676104,-4136.0762214006,-4445.8961383303,-3335.8368046178,-4279.4857701712,-4545.3927458689,-4279.9424455561,-2366.0251867621,-4445.2389968525,-4095.3302375254,-4445.3155255398,-4445.6775495208,-4380.030480727,-3636.3466820009,-3936.417901008,-4445.6625239862,-4545.7623571148,-2866.6323236198,-4545.4215704379,-4436.6623131017,-4445.3234473259,-4545.6369136374,-4545.3829267409,0.0893630025,13031.0802297991,13424.5311971475,13424.7993454475,12374.3659874548,13215.0442849966,13424.393369546,12724.8089783834,13424.7877354868,13424.905217347,13424.5247334152,13424.321035775,13324.7737323491,12514.8775259282,13324.3119605093,13424.7491094982,13258.8461492414,13424.8518627568,12671.9346830408,13158.921348753,13424.3783511421,13158.5118900963,13324.7150156879,13324.5908939654,13214.9425365597,13164.9720181583
   13159.0585616236,13324.8040575071,13424.2908569581,12315.0111180603,13424.8723870652,11105.5869822257,13424.2802333061,13714.7890762326,10715.0097028833,13031.1327062746,13258.5329586941,13030.9222728875,13324.9360574477,13324.4098088269,13324.4743172875,13324.8072118609,13424.2592448605,13424.8838603885,13424.509809707,13065.0854763056,12765.3320874076,13324.5949733883,13164.5039752148,12640.7804345866,13324.3799292985,13259.0284303998,13424.3500705013,9315.1066166886,12772.2870502463,11145.5444562798,12424.2633896974,12264.8631649307,13258.4613187353,13424.7928095198,5058.2906604367,13258.7888325137,13424.7110830473,13324.9296431741,13065.1226702331,13324.5910696476,13424.6674820904,13064.6175877851,12703.5408723075,13614.8966180888,7348.5570467195,12772.3139718687,13258.5591268668,12640.4505575511,13164.4761620616,12615.0875514251,13614.9422876897,13324.5530941721,9706.191405853,12365.4114651295,7788.2853944687,7448.829906823,13324.7391476553,13424.88824594,12603.1611987085,12865.1386405972,13324.2677276273,13324.3773530493,8973.8111435004,13259.0846514799,7348.649066788,13315.0836957002,13424.4813471531,13424.5246561298,12771.7079006092,13424.3244854757,13424.6093806576,13424.4252199213,13258.9075701939,13424.5768682611,9031.6296750013,13424.3922373101,-6201.5900684967,13324.8834159798,7448.6754028716,12771.7759386684,13424.5042820199,13324.847871498,13324.8336211833,-9413.0165141455,12624.359084789,10084.5262361898,13324.7449917322,13258.6389301829,13424.4148498655,13424.9203423517,13314.6029480721,13424.3380380462,13424.7017690169,13424.5555950305,13614.9236008282,12724.4159279563,13258.8905318793,13324.5080206973,13424.6885222134,13324.3849735697,13314.9368688155,13324.8407994254,13424.833495142,8099.671245413,13714.4668528941,13324.8481748602,-806.3783615964,13159.0175386273,13324.844204949,13324.5163493302,13424.8753055652,12724.6118979013,13324.3772338342,13064.7625159099,13424.4533497903,13714.8981183662,13424.3915516283,13324.4728440392,13424.5437037879,13424.8729446951,13324.6626435647,13424.9441168101,13424.6207843407,13424.3163931834,13714.9042131696,13158.9309973648,13114.6388799322,13158.8449110636,11964.6373417776,13424.5598993842,11674.6505540117,-5437.0568486136,13424.6521588562,13324.4187539111,13424.8075615409,13424.6330932882,13424.863673777,13324.7369195835,13324.6331729923,12894.1604096407,13064.9100705206,13043.188606609,13314.8533126365,13424.6254942854,12364.8889065755,9606.3554740505,13424.9523908904,13424.329644659,13424.8942052612,12771.7202005392,8912.1514506529,13424.582255509,9607.1711956231,13115.1283650921,13424.7398186043,12314.5140288985,13258.5857005876,13324.7734848538,13258.7913923623,12014.7240731602,13424.673771131,13065.1273477114,13424.3356493659,13424.9168590848,13158.982913741,12415.0414371926,12915.0316708034,13424.4131096845,13324.7255279669,11645.4861762266,13324.3273017651,13214.6966549225,13424.4444992085,13324.4141977892,13324.3191554129,0.1883462352,-2352.1097141351,-2745.647324325,-2745.8111266914,-1695.6201546048,-2736.1306096059,-2745.2928368327,-2045.4804781633,-2745.8259462476,-2745.1941614284,-2745.5170835754,-2745.4104513511,-2845.5779228206,-1835.7195016235,-2845.4193543157,-2745.4782070911,-2579.5914692575,-2745.6472938759,-2192.810355004,-2679.5214104442,-2745.8346125946,-2679.8438022588,-2845.6733123925,-2845.3546904907,-2786.1983237727,-2485.8708735562,-2680.0876812588,-2845.6703025848,-2745.3976681272,-1635.6815813515,-2745.8056114132,-426.8735750439,-2745.6482519929,-3036.1176351694,344.1662491891,-2351.8016176175,-2579.7193217214,-2352.020329755,-2845.7574804383,-2845.6507433221,-2845.7396581695,-2845.4287593614,-2745.8279212026,-2745.6513844225,-2745.6067222335,-2585.8078288496,-2287.0448104102,-2845.8936868664,-2486.1543200254,-2161.5707167891,-2845.4885775077,-2579.4894060665,-2745.781912528,-1329.0500987388,-2093.2385204954,-375.4220660046,-1945.3104934413,-1005.5095282341,-2580.0818023059,-2745.6769164457,4686.8968504445,-2579.6439918267,-2745.2567933108,-2845.2952446721,-2586.0645112784,-2845.6830239071,-2745.8474446948,-2585.7895886908,-2023.8583020382,-3135.9960260955,3770.5733130918,-2092.8542075234,-2580.0556463693,-2161.6595698521,-2485.9544277795,-1935.9604682376,-3136.2723948598,-2845.4364005868,270.768463335,-1886.8371244887,2475.3710540098,3770.7640934179,-2845.4949804925,-2745.8926315262,-2124.1030562058,-2187.2032663349,-2845.6905256435,-2845.4071369443,2085.1687505667,-2579.8609759142,3670.8452333724,-2636.0623461659,-2745.6406814557,-2745.8890183586,-2092.8871821089,-2745.3038658718,-2745.8009525209,-2745.6731317977,-2579.7082055865,-2745.6461115584,326.7775531787,-2745.6731816378,-871.9468296065,-2845.8696348079,3931.0085290324,-2092.6739110338,-2745.6734487706,-2845.6141925885,-2845.4303344387,905.7087904629,-1945.2078189956,308.5366573422,-2845.2366496331,-2579.5841101691,-2745.8762328023,-2745.6199829255,-2636.2566149873,-2745.6100721926,-2745.2077116315,-2745.2876028302,-3135.5835123983,-2045.3240834186,-2580.0046473789,-2845.4385730471,-2745.3021508332,-2845.4914646151,-2636.5293777602,-2845.3669805412,-2745.6049483391,2075.2959349677,-3036.220627887,-2845.6052135791,1065.7731086119,-2679.3970107006,-2845.7566235451,-2845.3352370313,-2745.6244675214,-2045.3042282977,-2845.3689671672,-2395.6003455826,-2745.5117304823,-3035.865246923,-2745.6577785836,-2845.8000644386,-2745.7232875391,-2745.564298678,-2845.5109576329,-2745.4422351798,-2745.7085740591,-2745.1848956277,-3035.8297050922,-2680.0956389648,-2436.447234578,-2679.9034568908,-1485.7512037808,-2745.3382481475,-995.297116753,3558.495779972,-2745.4625137999,-2845.2935967043,-2745.7002608395,-2745.8930374165,-2745.8329527814,-2845.8778272995,-2845.8357754533,-2215.3967936576,-2585.760910285,-2364.5551809003,-2636.3034586222,-2745.8956941414,-1686.2133550015,513.2326942542,-2745.3912106897,-2745.723812827,-2745.4741680669,-2093.1371004244,1192.5641643025,-2745.593466476,728.9024190227,-2436.3246148627,-2745.746046746,-1635.8271020477,-2579.5781060474,-2845.5375181098,-2579.9418565487,-666.1416515314,-2745.4554128265,-2395.2825722109,-2745.5357029928,-2745.2406433959,-2679.4055741069,-1935.7660313424,-2236.0321161941,-2745.4205459368,-2845.3456153548,-1166.1386679521,-2845.5743833532,-2736.177762667,-2745.6163779094,-2845.5194798946,-2845.274577832,-0.7330627117,13030.6556314351,13424.6810122377,13424.1809576446,12374.5392673729,13214.7667394591,13424.6112627579,12724.4264587858,13424.649778586,13424.5492458347,13424.5177041815,13424.1560749688,13324.5086885468,12514.9439434414,13614.3722635248,13424.1668128266,13258.9918347376,13424.6286180532,12672.137861054,13158.962741193,13424.33167773,13158.9416617016,13324.2506018263,13324.1843660902,13215.0387826308,13164.7906750589,13158.9920842688,13324.290996691,13424.1469369696,12314.7514695083,13424.1844386751,11105.3848915719,13424.2111285932,13714.5995916908,10714.2047708186,13030.9848516381,13258.6432663554,13030.7339422625,13324.1542647655,13324.1786927567,13324.2641149951,13324.6049514858,13424.8125062916,13424.4359738277,13424.1780816932,13064.945302567,12764.8082029375,13324.777677405,13164.3650527118,12640.2865732522,13324.243090624,13258.4262319169,13424.8185329168,9315.117493116,12771.8004059171,11145.3834468058,12424.6527584275,11974.3401753926,13259.0257993523,13424.5852086475,5317.3207067191,13258.7124697698,13424.8007111811,13324.5014785311,13014.6237544476,13324.6005772315,13424.6403163493,13064.4755509491,12702.864443198,13614.9643575313,7348.2064853328,12772.0400332811,13258.6613735753,12640.9294828068,13164.8960053932,12614.6952202785,13614.568588613,13324.187098048,10370.4449417525,12364.8636725346,7787.6835027814,7448.6951440626,13324.583929901,13424.7428339798,12603.3395118769,12865.1532355838,13324.1912906859,13324.7405989928,8683.8937811666,13258.975071109,7098.3292719675,13314.628391649,13424.3841661889,13424.7125973001,12771.6230406503,13424.2886833509,13424.8033986077,13424.1368949528,13259.0050318613,13424.7722511202,9340.4040089283,13424.5902046399,-4386.6305790922,13324.4097005117,7448.5108110905,12771.9768800224,13424.2867696097,13324.1293715005,13324.2187983613,-9459.7698838068,12624.7126740106,10370.7622380625,13324.14321425,13258.5157841697,13424.7114567766,13424.3024039828,13315.011704718,13424.5334183935,13424.5895949926,13424.4004857175,13614.8485427856,12724.4460108446,13258.9570047866,13324.447288092,13424.5627648405,13324.2639532807,13315.0097396407,13324.5606836844,13424.5523184871,8403.4107017788,13714.6493217735,13324.718796168,-1952.7350206681,13158.8219762976,13324.7659432789,13324.2432518952,13424.7985425089,12724.4947656151,13324.2967589408,13064.776960338,13424.6261318117,13714.6143419902,13424.513648099,13324.507962095,13424.313808666,13424.5715877842,13324.5335708724,13424.3299840928,13424.5903285927,13424.6567367161,13714.8147098514,13158.9622370142,13114.7379096474,13158.7057449111,11964.5281888057,13424.4812664279,11674.6233743388,-5094.9579983052,13424.1371947142,13324.4716953648,13424.2954583158,13424.2549454858,13424.605977628,13324.1493174405,13324.6049058204,12893.8940057347,13064.3452128192,13043.266677207,13315.0247214626,13424.1847064086,12364.5287724172,9927.7367036537,13424.8139569507,13424.4828436666,13424.2687854696,12771.7743240816,9286.4167235832,13424.7739719321,9949.9376234057,13114.5820308235,13424.3666909791,12315.0052076524,13258.6909489361,13324.1876952309,13258.7655519366,12014.8742723146,13424.5287624508,13064.6260149261,13424.6368600113,13424.3869702903,13158.3457243575,12414.7916068718,12914.6044838324,13424.4280755921,13324.7496194894,11645.3877520624,13324.564818195,13214.5533485544,13424.1927707582,13324.7511559731,13324.126604927,0.4988946534,-286.2323336984,-680.3609885724,-679.9282584999,369.9251186601,-670.9209604381,-679.9476704742,20.2699388531,-679.8971289703,-680.3217567953,-679.9767341273,-680.3863260665,-779.9892210262,229.716253602,-780.0777675127,-680.1283798268,-514.5902050631,-680.4256104283,-127.7391876005,-614.616259854,-680.0162560143,-614.2520989635,-779.8185797299,-780.3974015965,-721.2003973743,-420.548607325,-613.9280907634,-779.9845425431,-680.1056892179,429.7345679242,-679.8510400791,1638.1659743469,-680.2093193387,-970.471956436,2119.4367399813,-286.5829474009,-514.3827307465,-286.2094652428,-780.4234943367,-780.234868392,-779.7565921056,-780.0846398156,-679.8898238733,-680.4118322768,-680.3862265412,-520.6421754193,-221.6976110304,-780.0303715829,-420.6579532318,-95.9487383991,-780.0873284707,-514.161485284,-680.3492213317,437.9559995077,-27.5283561759,1690.1573615366,119.6923720809,1060.1312251005,-514.5079911151,-680.2924639534,5024.9520240626,-514.5231112919,-680.1402457422,-780.1790374937,-520.4252853336,-780.4045055047,-680.1410617027,-520.5414727974,41.5245070475,-1070.2349254592,5836.0303143959,-27.7349820112,-514.471688174,-96.1507634678,-420.6157177372,129.1927954436,-1070.6385725286,-780.1188066584,2335.8213714824,178.6485977749,4541.0135341874,5835.7799609337,-779.9053697266,-680.1399581841,-58.4421272398,-121.3299661665,-780.1143467093,-780.4208697209,4150.4988063727,-513.9211743876,5735.774017567,-570.7797566609,-679.80158055,-680.3306592649,-27.6696968917,-680.3401260626,-680.2426236352,-680.4332409515,-514.3406805636,-679.7653652896,2391.6773884021,-680.1806758209,-2937.2399367983,-780.1366242882,6096.4866515002,-27.4032992604,-680.3049959308,-779.8998028024,-780.2600275936,-1159.9461934285,120.0015787346,2373.5423452255,-779.935569912,-514.5158230514,-679.975602104,-679.7769126531,-571.3123984837,-680.0335980648,-680.3935530194,-679.7647891498,-1070.7886965288,19.9049466852,-514.3421868045,-780.0983759559,-679.9595609459,-780.3138511772,-570.9106004837,-779.8384536873,-679.9006526978,4141.0175498564,-970.4459926793,-780.2726637446,-12.4236333723,-614.2974820555,-779.8228270409,-780.36989153,-679.9714783086,19.9415818256,-780.2976180665,-330.0160038228,-680.026812579,-970.7365387005,-680.4162598459,-779.7791885461,-680.3836928529,-679.8143747636,-779.846336435,-680.3505552671,-680.2449071061,-680.4178567621,-970.686595473,-614.1665575433,-370.5714843122,-614.1693000056,579.8757665114,-680.0338662399,1069.5842922023,1482.9693925124,-679.9855998492,-780.3804107017,-679.7542743304,-679.9523740085,-680.2273875418,-779.8516395427,-780.0941179856,-149.975981805,-520.4716496146,-298.796641895,-570.6875699841,-679.8355639858,379.2859087341,2578.6919049144,-680.3477597147,-680.3215651065,-679.9840178897,-27.3632174866,3258.33293057,-680.2450978724,2794.0651968152,-370.4597201519,-679.8220301802,429.5912557455,-514.5486768564,-780.0817664019,-514.2280177151,1398.9144046305,-680.1988803282,-330.3836308427,-680.1337095207,-679.8758263708,-614.1340558253,129.5815073662,-170.9540366962,-679.8425753782,-780.2710041119,899.3621870084,-780.0528924451,-670.6258108749,-679.7780034043,-780.1050934695,-779.8881211836,-0.3102229999,13030.7986018436,13424.3418154226,13424.1884131049,12564.5044479035,13214.4764002814,13424.7006805395,12724.2726780843,13424.6643959641,13424.4584536374,13424.7967100625,13424.4531459979,13324.1367225429,12514.9804060207,13324.559940443,13424.3763974558,13258.9920563342,13424.336621504,12672.1180488324,13158.4027080341,13424.5604202042,13158.9582959591,13324.6722000677,13324.8196231996,13215.080754918,13164.9752171826,13158.6984569264,13324.2065753765,13424.7543698873,12314.4836868682,13424.1434416165,11104.9852278802,13424.4346632415,13714.6037060419,10424.7009076678,13030.5623294974,13258.684856407,13030.6033007875,13324.210234797,13324.6627148262,13324.1734856417,13324.7036296288,13424.1863487453,13424.7391913894,13424.5757412818,13064.6891592319,12764.7060910167,13324.5008480458,13164.9466368858,12640.7366781082,13324.5324478885,13258.4523263474,13424.8053829248,9314.8967081757,12772.133566774,11434.2689659005,12424.122970673,12264.7597638265,13258.3537431408,13424.5439439706,5058.1901286724,13258.3552728876,13424.1975497735,13324.1352292197,13015.0569248131,13324.4567913233,13424.6905440442,13064.7601668364,12703.2900441955,13614.8804553709,7098.710587651,12771.9468227924,13258.6760544446,12640.6524071775,13164.7159200211,12614.40462289,13614.521082077,13324.4131882058,9706.4512245512,12365.0174653818,7787.7931832044,7198.0646923626,13324.3128175333,13424.7303071154,12603.1786936811,12864.9894079472,13324.5708071243,13324.1939703938,8684.1650917866,13258.9223492572,7098.3694176431,13314.7493426035,13424.8199877294,13424.3829775303,12772.1083906308,13424.6885577956,13424.8228947448,13424.6846115514,13258.9137230851,13424.6783590188,9340.6207108671,13424.4521071173,-4627.0289484495,13324.7519045685,7448.3379544061,12771.564413006,13424.529938565,13324.5091497784,13324.740008989,-9413.1258834631,12624.6675230099,10084.2754309266,13324.8211784811,13258.9366074665,13424.5368990531,13424.4420624389,13315.0069011909,13424.4486292439,13424.370192747,13424.7507747093,13614.6096823749,12724.1794105691,13258.6139420803,13324.5223644967,13424.754916193,13324.4088344164,13314.857274382,13324.1788087757,13424.3751341927,8099.55386731,13714.989484425,13324.4967098883,-1953.130682906,13158.5310567079,13324.3255218709,13324.5157439371,13424.2450167155,12724.6610816196,13324.5328789906,13064.3748790585,13424.5889117906,13714.5148552098,13424.5130912488,13324.3053690945,13424.7625325713,13424.7831360584,13324.7086901543,13424.5079993873,13424.4568978055,13424.6181604914,13714.4340815747,13158.8549110345,13114.8951342917,13158.7263871984,11965.0172637285,13424.3524017677,11674.4420146574,-5437.2378877454,13424.61543978,13324.2415255269,13424.3414399509,13424.346167658,13424.2956254168,13324.5829960868,13324.2817847956,12894.1584382625,13064.4309498316,13042.9767274068,13315.1027909185,13424.8156591495,12364.3624061855,9605.7790316728,13424.800583696,13424.778561525,13424.5752992466,12772.0694968491,8911.88871039,13424.7889347632,9606.5359601051,13114.5793276686,13424.2296034838,12314.8290556898,13258.5101775959,13324.7563787398,13258.6245891975,11724.9324372956,13424.2917588981,13064.4542643381,13424.6018344383,13424.73276996,13158.5013790684,12414.6027505136,12914.8700326211,13424.3991999837,13324.7593235317,11595.4460312926,13324.4651015123,13214.9376757566,13424.5733996243,13324.5136135527,13324.8240504379,0.568903004,13030.5018552473,13424.3221269139,13424.7225304938,12374.3088445964,13214.5293445235,13424.4472723223,12724.6048374102,13424.3932001195,13424.301764517,13424.3413670856,13424.5003945843,13324.4849832631,12514.5443169558,13614.6995445499,13424.3922110503,13258.5410691481,13424.5353304429,12672.1781851759,13159.0248799078,13424.3043995253,13158.5423105466,13324.4707971354,13324.3138844978,13214.6408438701,13164.9335318551,13158.6366052223,13324.517903178,13424.3792316751,12314.5251368042,13424.7594978747,11389.9858905873,13424.1934394603,13714.569177975,10424.464048355,13030.5475125883,13258.3509855498,13030.6903937328,13324.1613296587,13324.4418310969,13324.6065599392,13324.6086863329,13424.2008473013,13424.6438254988,13424.8191000842,13064.6328479346,12764.7310768097,13324.5136424147,13164.6469759172,12640.7010279276,13324.4410659718,13258.4643982467,13424.1410869649,9315.2846069215,12771.9178069571,11145.2878985999,12424.7677212169,11684.1502480508,13258.6410853134,13424.6705404778,5317.2001321281,13258.9620164256,13424.1426542179,13324.1235223544,13014.4910780783,13324.2310522635,13424.3311876779,13064.5581692558,12703.3676751286,13614.7948724293,7098.6575123982,12772.125239916,13258.7103211487,12640.4107300749,13164.8415424435,12614.8340877401,13614.8617051889,13324.6212362974,10408.5141965619,12365.2141960272,8493.4257339652,7198.2147484088,13324.8149305028,13424.1602795658,12602.7620521721,12865.0974289061,13324.786266871,13324.4905106239,8684.1003333389,13258.8604415782,7098.5906609564,13315.1705849332,13424.2737366581,13424.5506942593,12772.2038523105,13424.5105217859,13424.8187646959,13424.4874152674,13258.818571416,13424.671620386,9031.9664438984,13424.3291651124,-4966.8994675911,13324.5584651128,7448.4730977003,12772.1655159848,13424.6484993006,13324.526279595,13324.7362365788,-9413.327953449,12624.1394953937,10370.6063543704,13324.3928701058,13258.9018572212,13424.3844949052,13424.7407989042,13314.6830903863,13424.4480668324,13424.3069113493,13424.6859233576,13614.8956079573,12724.1554914711,13258.8845824317,13324.4033267612,13424.816273544,13324.3939824192,13315.0237683214,13324.8073441186,13424.7636233458,8403.4500266691,13714.6496062807,13324.8213024131,-1583.9411760786,13158.9649121712,13324.410217793,13324.7948161816,13424.3483908165,12724.5758364865,13324.2806086297,13064.3900356322,13424.2323809634,13714.925815904,13424.3488355278,13324.4083468585,13424.1922098206,13424.6673054921,13324.274937716,13424.4592955275,13424.4448164014,13424.7737378567,13714.4890968872,13158.5198013726,13114.5068079896,13159.0228239186,11964.9174141173,13424.4207072737,11674.630488337,-5436.9627364107,13424.4806355645,13324.3966464329,13424.8308378189,13424.2482587765,13424.3710835113,13324.7109984293,13324.1819312228,12894.4728741077,13064.4582669953,13043.1306746464,13314.4762171103,13424.6057812061,12364.5901291784,9965.8656158713,13424.4166526746,13424.4442269495,13424.690532096,12772.1250868561,9285.8609646457,13424.4104362525,9950.056731996,13114.6553300868,13424.7727362024,12315.0466928308,13258.5072837942,13324.6725075862,13259.0296392694,11725.051241514,13424.3719182274,13064.4026632719,13424.5472885148,13424.1667747521,13158.7046659007,12414.3624796938,12914.9805975703,13424.1876000827,13324.6899849825,11645.0857088351,13324.1995190893,13214.6077643295,13424.616313452,13324.4699350813,13324.3966824741,-0.0845227194,-2920.2608052417,-3313.929895584,-3314.3467007151,-2264.3154134511,-3105.2065334118,-3314.3095576076,-2614.6150392385,-3313.9703580752,-3314.5013650133,-3314.4215539952,-3314.0566411759,-3214.4493971812,-2404.8020713553,-3214.5345866976,-3314.6295555122,-3148.7346148107,-3313.9387834886,-2561.8182020569,-3048.5885972466,-3314.048883959,-3048.7008735326,-3214.4844615352,-3214.2988674469,-3154.8350704761,-3054.5757909412,-3048.1623150036,-3214.4374752728,-3314.0059645614,-2204.9059894139,-3313.9301579012,-996.3015083762,-3314.0576501572,-3604.3165923642,-24.5647678499,-2920.6593693927,-3148.7377492388,-2920.5965001926,-3214.5739979053,-3214.4286899673,-3214.1222948606,-3214.3152980964,-3314.187843841,-3314.0097809836,-3314.365045827,-2954.9581773073,-2655.6032843013,-3214.2088203509,-3054.6187596359,-2530.6160934595,-3214.0195175012,-3148.4429222885,-3314.0086835863,-1449.2024187391,-2661.5786372444,-743.6993837417,-2314.3254168932,-1574.0800085134,-3148.2219485292,-3314.4091792576,892.4248947218,-3148.3802885463,-3314.5859859981,-3214.4538536353,-2955.0785750624,-3214.2063246303,-3314.1026712234,-2954.8620699374,-2593.0223525604,-3504.5130146514,2613.1373830291,-2661.4551638326,-3148.2107605648,-2530.3408268115,-3054.7029167417,-2504.7137705656,-3504.5595963891,-3214.1754373025,-297.8257440973,-2255.5566594481,1906.2772274216,2512.9829244972,-3214.3949329642,-3314.2272163006,-2492.7834146301,-2755.1007858868,-3214.0541454532,-3214.1538279698,1716.2237272361,-3148.2619327595,2613.3123213141,-3204.9210006554,-3314.4048124221,-3314.2034108689,-2662.0119949194,-3314.3008510152,-3314.1817600075,-3314.0953765497,-3148.6077422973,-3314.0672802085,449.1281406716,-3314.0726006237,-1973.9854406852,-3214.3236839481,2480.586557931,-2661.5459547591,-3314.4471688344,-3214.5560999259,-3214.0040549883,461.9039621554,-2514.3582720707,-260.8143087414,-3214.4335403312,-3148.598662183,-3314.4795538536,-3314.2450020174,-3204.8428080579,-3314.2043871451,-3314.5728505741,-3314.4090639394,-3504.7610336151,-2614.1713838138,-3148.5408963274,-3214.2734874385,-3314.1480889772,-3213.9772669908,-3204.8620030561,-3214.4425042831,-3314.1011114319,1706.8491875997,-3604.8829422986,-3213.9316927687,239.6705344925,-3048.8086393536,-3214.6151180102,-3214.5042371553,-3314.3970829221,-2614.0091587541,-3214.5341144352,-2955.1579532366,-3314.3557215449,-3604.370406792,-3313.934152523,-3214.6320639562,-3314.1127912834,-3314.3592907863,-3214.2615011877,-3314.1586925571,-3314.5764712594,-3314.2042184166,-3604.7516425342,-3048.2188326329,-3004.8914032003,-3048.4557384236,-1854.3968630885,-3314.1303174467,-1564.1848914988,225.086264417,-3314.5559443898,-3214.4812983727,-3314.5014553654,-3314.1465816426,-3314.5954434838,-3214.0425709847,-3214.2075140929,-2783.9310558873,-2954.5930709943,-2933.2716848463,-3204.951892381,-3314.1659791723,-2254.530201741,144.6066619421,-3314.3632636718,-3314.4083108275,-3314.6294355637,-2661.6475998588,823.8950181755,-3314.5243784697,159.984935369,-3004.7764934028,-3314.5775054497,-2204.6201906795,-3148.3712451568,-3213.9730732439,-3148.692040174,-745.4254800856,-3314.3157334237,-2954.6146527048,-3314.3256881251,-3314.231720284,-3048.1554658974,-2304.6376937241,-2805.2100137064,-3314.1615984351,-3214.1166540289,-1535.1607826448,-3214.4510588001,-3105.2415742776,-3314.5865572755,-3214.590661692,-3213.971140694,0.2604682936,13030.6291308945,13424.3671856958,13424.471344923,12564.762748536,13215.1426682886,13424.8076838957,12724.2432328085,13424.5903409231,13424.5855155784,13424.7254670676,13424.5488858141,13324.1214778874,12514.5235812756,13324.3426350956,13424.2465668584,13258.9360310217,13424.5297228335,12672.2012596856,13158.5419019136,13424.4707043223,13158.9610421352,13324.7814673577,13324.4657130582,13214.5888561467,13164.6185153333,13158.3274440078,13324.7760150229,13424.5919712899,12314.5694249671,13424.122947795,11945.1680332717,13424.6569054892,13714.8581250909,10424.0939334209,13030.8071368693,13258.9594190738,13030.4507336994,13324.8323735819,13324.2087450625,13324.1758803256,13324.7760212321,13424.5642619372,13424.5791457954,13424.3936967713,13064.3697072264,12765.1988626324,13324.5032893402,13164.7995676753,12640.2959308471,13324.5440104973,13259.0286427039,13424.4331914424,9314.7669734805,12771.9232559289,11434.6426413082,12424.7133837038,11684.5359055494,13258.345139492,13424.3397003063,5317.2923642798,13258.4651475074,13424.3255668042,13324.4444186555,13014.90003564,13324.1358839294,13424.4001204412,13064.3548335158,12702.8691306912,13614.7274624646,7098.093234132,12771.5817604614,13258.3304560265,12640.4136154369,13164.5418023008,12614.883134382,13614.9949618467,13324.7436243417,10370.645770757,12364.8075913218,7787.8335617701,7198.4663085769,13324.2303493644,13424.5535054533,12603.1567799959,12864.9370802432,13324.2739157701,13324.7061774515,7813.5114774274,13258.6573561864,7098.4938282356,13314.688646195,13424.3902985332,13424.5243244976,12771.9791660656,13424.8238340343,13424.3365117039,13424.5086784798,13258.542857689,13424.5189791975,9340.6677440783,13424.3840086616,-5863.1465530216,13324.7668342574,6987.4505676555,12771.6592195783,13424.3316731919,13324.2923154653,13324.7812821531,-9413.2221727614,12624.2075268921,10370.8596473401,13324.4043345384,13258.7142088849,13424.388497078,13424.2564505895,13315.0325626746,13424.5552277359,13424.2188062696,13424.7011138959,13614.9290422944,12724.4103534595,13258.5686676934,13324.5062662498,13424.7543845191,13324.2898268418,13315.0332328727,13324.2255422037,13424.6077210844,8404.0050009955,13714.6884239995,13324.3702174129,-1205.4123249915,13159.0077486057,13324.3699063976,13324.5419530105,13424.343391486,12724.2905083116,13324.2097095829,13064.4759220844,13424.5412199767,13714.4288528153,13424.3782893057,13324.6824461451,13424.6463340373,13424.1297935967,13324.4883861016,13424.3946814713,13424.4033002288,13424.1348377436,13714.7748949664,13158.3521314968,13115.0578941391,13158.5765169288,11964.8980393652,13424.8268989081,11674.4609460553,-5094.6903309601,13424.7559799763,13324.2095270803,13424.3115548202,13424.195594975,13424.3257980826,13324.5149788671,13324.5995380859,12893.8596448059,13064.8245765274,13043.1934040311,13315.0980625923,13424.51696714,12364.5015561661,9928.2606081669,13424.6023470401,13424.7092602748,13424.1345328868,12771.9891262417,9285.9466332707,13424.2202289423,10050.5574896134,13114.6097103296,13424.7161584812,12314.636629538,13258.5760153846,13324.4287127824,13258.8991782625,11724.9609180827,13424.2558600068,13064.4713293871,13424.8006272919,13424.6886012267,13158.7875428689,12415.0386491328,12914.5995473393,13424.7168139755,13324.5527594912,11595.2194274484,13324.3367727015,13214.6255398422,13424.2379850403,13324.2177313034,13324.6319643891,0.2514241808,13320.3882676054,13713.8362427146,13714.3840607473,12904.7604589308,13555.155327855,13713.9849674087,13014.2402400616,13714.2523789661,13713.8628230011,13713.8421959477,13714.4239427103,13613.7933094568,12566.2806120989,13614.3627095535,13714.1503481964,13548.5402781394,13714.0131072116,12961.2720267023,13448.1991844549,13714.0159578991,13448.3299430911,13614.4327505667,13614.2866397672,13554.8667634174,13504.3004657388,13448.4813524023,13613.8843703666,13714.2864188075,12654.5480393257,13714.3655620025,11940.3651306866,13713.8932690672,14004.5441846226,11003.7858535323,13320.4435064226,13548.3679606272,13320.6083139432,13613.7832285642,13614.3610650044,13614.3404913043,13614.1064162343,13714.2699154712,13713.8789010555,13713.8831960346,13404.3447109648,13105.441483983,13614.4056871766,13504.5541495403,12930.3673557793,13614.1290136445,13548.3500976438,13713.8413586485,9711.6968962487,13061.8069949674,11193.7443152342,12713.9080248667,11973.5534970947,13548.0555962779,13713.81330548,5316.7885431582,13548.3119626898,13713.8302213931,13613.9241106316,13354.5605497405,13614.2950119739,13714.173318167,13404.2407534585,12992.7705332743,13904.5052054105,8103.1669846304,13061.1722721262,13548.0591573002,12930.5304865118,13504.2533202373,12954.4566751578,13904.597700955,13613.9291388007,10697.5481499552,12655.2411739396,7912.3395198004,7448.2175544274,13614.1276219427,13714.2755676568,12892.816401019,13205.1289010275,13614.0430565683,13614.0792535636,8733.5486667107,13547.9816663225,7522.1150927188,13654.7076394632,13714.1135166328,13714.3069282902,13061.4972507858,13714.2496284359,13713.9763286267,13714.4205564518,13547.9677198586,13714.4111134156,9667.2678467564,13713.833741159,-6202.6101376922,13614.1854779369,7912.332183126,13061.3568747474,13714.0642528003,13614.0431846199,13614.4090100928,-9411.4855781862,12914.3093876379,10660.1194628871,13614.2992272398,13548.1084010509,13714.150436197,13714.1819068376,13655.0943046393,13713.9376038493,13713.9638049175,13714.3119499931,13904.777137816,13014.2511314576,13548.2529219039,13614.0407410331,13714.4317413719,13614.3434152678,13655.1562861258,13613.9068267034,13713.7988796878,8693.0096026368,14004.561188198,13614.3506375789,-2409.9180895532,13448.1069473222,13613.9405056157,13614.2182357535,13713.9682356554,13014.1098334445,13613.9592029322,13354.7126199398,13714.2758796068,14004.5359377116,13714.2955327586,13614.3032721363,13714.1844127506,13714.3708654784,13613.9190656076,13713.8692448953,13713.9622800968,13713.8995480324,14004.3920647281,13448.1998652011,13454.8719935726,13448.2951162375,12304.3042662386,13714.3534741181,12013.8545706803,-5954.0576110296,13714.2060766856,13614.0796068296,13714.337183929,13714.0776958217,13714.3652118138,13614.0416515995,13614.2185347751,13183.8193711786,13404.597809297,13332.6906316447,13655.0129422189,13713.9006838783,12704.094173311,10255.2932828648,13714.3782066188,13714.4557673998,13714.2622872575,13061.6182817755,9575.8222970132,13714.1749056816,10340.1486286966,13454.5408778417,13714.2122058375,12654.734584026,13548.5876682956,13613.8786423265,13548.0836292103,11485.1191475009,13714.2602500417,13404.15663934,13714.4180086436,13713.910773296,13448.1563312031,12176.7748649022,13254.5200587924,13714.3280003131,13614.2381641085,11934.6775304466,13613.9810403691,13555.1500493205,