encog,BasicNetwork,java,3.1.0,1,1392878694189
[BASIC]
[BASIC:PARAMS]
[BASIC:NETWORK]
beginTraining=0
connectionLimit=0
contextTargetOffset=0,0,0
contextTargetSize=0,0,0
endTraining=2
hasContext=f
inputCount=318
layerCounts=1,281,319
layerFeedCounts=1,280,318
layerContextCount=0,0,0
layerIndex=0,1,282
output=0.0006748503,0.999099991,1,0.9728811515,1,0.0046758423,1,0.0047674005,0,0.9999745376,1,0.032563035,1,1,0,0,0.1647673536,0.9964749385,1,0.7790018639,1,0.8109201265,0.9472127797,1,0,0.0015431202,0.9511211504,1,1,1,1,0.9998447112,0.8094196014,0,0.2459414841,1,1,1,0.1259560594,0.8881166783,0.1090738909,0,1,0.9212230913,1,0,0.5848695892,0.0116149147,1,0.0000000016,0.352717284,0,0.0000004266,0,0.8630425608,0.9957981097,1,0,0.4631502814,1,0.0543006109,1,0.9995705904,0.0111495868,0.0000000109,1,0.9684325898,1,1,0,1,1,1,1,0.0011101997,0,0.990635217,0.8227176405,0,0.1732406296,0.325311184,0.0835223466,0.7534870076,1,0.0301386375,0.0076033377,0,1,1,0.0452725299,0.017658702,1,1,0.0000000734,0.2528662923,1,0.0477798939,0.1099118981,1,1,0,0.7225852973,1,0,0,1,1,0,0.8865262484,0.6901253452,0.5768246458,1,0.0000000024,0.1049424154,0.9998016326,0.4632129866,1,0.0642117529,0.0270093438,1,0.0210070657,0.0933897858,0.1749265284,0.0427657468,0,1,1,0.7907059259,1,1,0.9990436602,0.9281670822,1,0.0317828049,0.0000016441,0.9974621251,0.0007522482,0,0.0726117834,1,0.0021605308,1,0,1,1,1,0,0.9521559712,0.5591032822,0.0008632543,0.7908550246,0,0.0025113974,0.8975191389,1,0.8831224909,0.7004375927,1,1,1,0.0000497733,0.0221671197,0,1,1,1,1,0,0.996252392,0.3641210925,0.0006967179,0.518166707,0.0999481109,0.3585368696,0.9964127238,0,0.6115708885,0.9287561134,1,0.1606225298,0.0000867561,1,0.9857127792,1,0.9662687913,0.0162573743,0.0521782522,1,1,0,0.0185204861,0.1388835372,0.0065128683,0.9966064829,1,0.9381964568,1,0,0.0168874436,0.9410414009,0.9999978929,0.9999999747,0.0118382636,0,0.0201768699,1,1,0.9467001262,0.1184337019,0.8728466608,1,0.8510762825,1,0,1,0.2149599742,1,1,1,1,1,1,0.0002358573,0,0.0013526405,0.648280913,0.0117770238,0,0.4847133984,0,0,1,0,1,0.0035352137,1,1,1,0.9864109617,0.0003307421,0.9002225837,0,1,0.9996805465,0.1491402011,1,0.1227678138,0.8592871375,0.7648346354,1,0.146597432,0.8509595322,0.0439509622,1,0.4447846022,0,1,1,0.1115784517,1,1,0.2680790873,0.9836946843,0.2062444889,0.0836055986,0.0242346079,0,0.187761745,0.0000035929,0.0372409279,0.5964690093,1,0.9977284314,0.9876583611,0,0,0.9157059525,1,0.9057666665,0.9997949209,1,1,0.01,0.01,0,0,0.01,0.01,0.01,0.01,0.01,0.01,0.01,0,0.01,0.01,0.01,0.01,0.01,0.01,0.0934871495,0.5466594107,0.01,0.5826816394,0.01,0.01,0,0.01,0.01,0.01,0,0.01,0,0.01,0.01,0,0.01,0.01,0,0.01,0,0,0,0.01,0.01,0.1608511578,0.99,0.99,0.01,0.01,0.01,0.01,0.01,0.01,0.01,0.01,0.01,0.01,0.01,0.01,0,0.5,0.2000006297,0,0,0,0,0.99,0.5222732585,0.01,0.99,0.01,0.5599887405,0.01,0.99,0.01,0.01,0.1048387097,0.01,0,0,0.01,0.01,0,0,0,0.01,0.01,0.01,0.5234057984,0.4686327778,0.6096338457,0.01,0.01,0.01,0.01,0.01,0.0139252333,0.01,0.01,0.01,0.01,0.01,0.01,0,0,0.01,0.01,0.01,0.01,0.01,0.01,0.01,0.01,0.01,0.01,0.0595702082,0.3366666667,0.01,0,0.01,0.01,0.01,0.01,0.01,0.01,0.01,0.01,0.01,0.01,0.01,0.01,0.01,0.01,0.01,0.01,0.01,0.5544444444,0.01,0.01,0.01,0.01,0.01,0.01,0.0466677803,0.01,0.01,0.01,0.1457352927,0.0287155329,0.6748325148,0.2794281518,0.0136147765,0.1813414369,0.15275752,0.01,0.0246787571,0.4300073243,0.01,0.99,0.0100794092,0.01,0.01,0.01,0.99,0.99,0,0.01,0,0.99,0,0,0.99,0.01,0.99,0.01,0,0.01,0.01,0.01,0.01,0.01,0.01,0.01,0.01,0.01,0.01,0.01,0.01,0.01,0.01,0.01,0,0.99,0,0,0,0.99,0,0,0,0.01,0.99,0.01,0.99,0,0,0,0.01,0.01,0.01,0.01,0.01,0.01,0.01,0.01,0,0,0,0,0,0,0,0,0,0,0,0,0,0,0,0,0,0,0,0,0,0.01,0,0.01,0.01,0.01,0,0.01,0.01,0.01,0.01,0.01,0.01,0.99,0.01,0.01,0.99,0.01,0.01,0.99,0.99,0.01,0.01,0.99,0.99,0.01,0.01,0,0,0,0,0.01,0.01,0.01,0.01,0.01,0.01,0.01,0.01,0.01,0.99,0.99,0,0.99,0.01,0.99,0.99,0.01,0.01,0.99,0.99,0,0.99,0.01,0.99,0.99,0.01,0.01,0.01,0.01,0.01,0,0,0.99,0.01,0.99,0.01,0.01,0.01,0.01,0.01,0.01,0,0.99,0.01,0.01,0.01,0,0.99,0.99,0.99,0.99,0.99,0.99,1
outputCount=1
weightIndex=0,281,89601
weights=##0
##double#89601
   0.4446340365,-0.2240338993,0.2700162038,-0.18430491,0.9332380088,-0.1850838634,-6.9516677617,3.7047603325,0.5516335706,-0.2979171827,2.2298258826,-0.1997339763,-0.3108004532,5695.4048782627,57.9980468777,1.0089976949,0.1595393017,-0.1935212305,-4.0374740674,-0.2439031375,0.7403687713,0.9698038244,-0.3103609751,4.8214156777,1.3440345527,0.2309123012,-0.2962316277,-0.1933076904,-0.2845721666,-0.2255349242,2.1978565495,0.2538331759,2.2876310904,1.9824385032,-0.3805624178,-0.3946894712,-0.1922918324,0.2909142536,-0.047806146,0.7268829373,1145.2131801328,-0.2605181171,0.2817089648,-0.191512511,2701.3186663477,0.782657848,-1.9869973484,-0.3958852489,2.0871317716,0.6232638521,4730.0086024769,-0.2679089227,-0.0887227348,0.190365827,0.1235523387,-0.281340411,-0.6850395897,0.3164519522,-0.2293885187,1.0551520196,-0.24147295,0.7903151059,0.7452484306,2.1975355915,-0.3819471164,0.213862237,-0.3568773939,-0.2230190863,4312.0061024382,-0.3554981634,-0.5639017881,-0.2277583001,-0.2168525393,-1.0800807581,8356.9696766062,0.594725511,0.081164085,15789.9392986682,-2.2613264979,0.5301228762,-6.2815586902,0.2361524085,-0.3766339186,0.2855818691,2.0316063098,1329.0996313288,-0.2079534523,-0.3726867275,1.0732564761,-2.8105145765,-0.1979022796,-0.3037224697,1.0289135221,0.2980469501,-0.3487337198,1.3155209599,0.2624900544,-0.3808224751,-0.2729018726,-0.0797082064,0.3375239561,-0.3474411001,3206.3206684473,3340.5676177678,-0.3306645691,-0.3894016943,1.9036399151,-2.899914387,0.2349782475,0.3158248096,-0.2577860133,3.1610102419,1.5814137626,-0.4757095444,0.2438922735,-0.2932709896,-1.9952104072,-3.4837120597,-0.298806137,0.5992238012,0.9494575732,0.3384764729,1.1025694778,7921.7449093478,-0.2276670296,-0.2343820288,0.1907798125,-0.291471845,-0.2438031786,0.3546598631,-2.2558042515,-0.2882109032,2.2020535961,-0.9171740264,0.3489000325,0.4664703877,-1.0874059951,1.3884418711,-0.2538819616,-0.2442973568,-0.316583206,14860.8636419045,-0.2918763645,-0.3293824316,-0.3528019287,17.2683950677,0.5895644661,-2.0967476326,0.7106197114,0.5840594671,2.0576103177,0.331034017,1.3484759274,-0.3810111091,0.2752118619,0.3605894414,-0.300916283,-0.3054377626,-0.2895787215,-0.1157259932,1.0812966395,0.3462907698,-0.2876189509,-0.3560009686,-0.2970900695,-0.3963463773,10685.9681783988,0.318120963,-3.975463289,1.0543617165,0.4747283805,-1.4104397686,0.2205200423,0.1662358316,18.9793073758,1.4993336176,0.539581606,-0.3506628145,0.7165898068,2.2501836321,-0.4003661875,0.6041959223,-0.1899550029,0.9435559457,0.7780316534,0.8148102658,-0.362892273,-0.1965862707,324.802890079,-2.4057731473,0.3260365568,0.4216722212,1.648545502,-0.185816366,0.3334182371,-0.194412101,22358.4076464907,0.1204399576,0.200769201,0.3624397446,-0.0846889563,-3.3212921327,0.1777947268,1.0638558548,-0.379581571,-0.257586033,0.8981034503,0.5797711857,0.4762867752,-0.2768970225,0.7946534233,-0.2078329985,0.3014509924,-0.383898284,-2.1366118268,-0.2012676291,-0.3633879131,-0.358999862,-0.2723889429,-0.2562361105,-0.4365726192,1.499848407,1009.3660136864,2.1198009697,0.4255889356,4.8410622945,16369.8822747945,0.324472536,4.5838545299,2.7867741904,-0.2494418995,2373.143700609,-0.2913746019,-3.2414006969,-0.3207172393,-0.3621162927,-0.2393738016,1.0344970498,-1.263173864,0.3097024656,2704.7041747117,-0.1986360599,0.63524225,1.0934202591,-0.2615498538,-3.1455207827,0.9060112165,0.8337810752,-0.246585544,0.3238653278,1.2139453412,-1.9783649653,-0.3374687574,1.0059493033,1.8877851699,-0.328801788,-0.3975657211,0.7793571137,-0.3206459499,-0.0058905776,-0.8227127068,0.1847800073,0.2356668211,0.9417100451,0.6303574536,-0.026347215,0.3445617399,0.5420548661,-2.3609524463,1.6726594742,-0.3844161196,1.2383853175,0.351847409,4955.3746450536,1755.9740773847,1.1132955485,-0.2914010397,0.918806565,0.3592562607,-0.3735251911,-0.0313604836,0.0289804864,-0.7353813704,0.6031164271,0.5696700432,1.8662241375,-5.6716083196,1.5193593917,-0.1902844522,-0.322288847,-0.3045028803,0.4687132954,0.6413447073,0.2837545843,0.6262558649,-0.036851245,-0.1564331005,-0.0221613348,0.3055385792,0.3132611072,0.3142778312,-4.3997084024,0.2162771554,0.4974165344,3.0649214358,0.0849423821,0.9715706807,-1.3272334944,0.2460722938,0.4458566333,1.5486875661,0.0370691255,-0.3223546712,4.0685691576,0.2688019369,2.6449690048,-8.1678491589,0.4321876428,-0.7220410805,0.3610192317,0.2973063606,0.6014834328,2.8279990781,-4.1313282565,-0.2492217446,-0.1897995347,-0.3004952898,-0.0522702227,0.0543912921,-0.2339743742,-0.2237868992,-0.3180925855,-0.6199926444,-0.3267314926,3.9593574575,0.1375493979,-0.7261909294,0.2242421688,0.8184454963,0.6526260674,-0.2418873583,0.5536258725,0.3841294135,0.0837904101,0.1206895023,0.0315220561,0.2887493911,0.0684701719,0.5468596491,0.1718656434,-0.1563985556,0.0810932819,-101.1211991851,0.1420280664,8.7046721832,-0.1772654152,7.165501835,2.4479193469,0.0733710111,0.6532048316,-2.8520624502,5.3519341131,0.2475014289,0.6120757696,0.1217391192,-0.8001489776,-0.224446097,-4.8917364728,-1.3368730063,-0.0213239219,-0.2176267937,0.3034526084,-1.2117134423,-0.5185466313,0.2341651501,0.5715468146,6.9373014722,0.2632522435,9.2205067783,-2.2804705444,-0.3329483051,0.0630611276,5.1517840625,0.2410454076,0.3027483747,9.6998623423,-0.5413883101,0.8404680903,7.1985424076,-2.7813625185,-0.1036070988,-7.3510213546,-1.7661964283,-1.092712455,0.0556055784,-3.5219423658,3.2771352579,-12.7655125408,0.2730061617,-0.4317527596,0.343188604,0.1570588523,0.3159148232,-0.3984039699,-0.6303053971,4.4097410505,0.2307592714,-0.3195538858,0.1309742256,-6.5738138234,-1.8638731043,0.8705956454,0.364824016,0.0653335168,2.0728169722,-0.3666967399,6.1571205069,0.348271121,8.2168427842,-15.496923278,0.1327821349,0.0575321198,2.4852593949,-0.9254255956,2.0931338169,5.4388749684,0.0688386027,1.7732805755,-2.2748398731,0.4580392218,0.0925755891,-8.3828302647,-1.2835612621,3.0627549466,-0.1297694906,0.0313837994,0.3280173985,2.3488072656,0.8351100881,-0.0896869999,-0.4697690443,-1.1528243294,-0.6805616045,-0.332038422,0.0641921849,0.1482300544,-1.2864316486,0.1229877465,0.1942671542,0.265700138,0.4703537959,0.1361570582,0.2551012001,-0.2797938806,-1.2020257226,0.4141036363,-0.4145756643,-0.1698446666,-0.3281518742,-0.0433958303,-0.1960702348,-0.2832170155,0.057493556,-0.1171948951,0.058897707,0.0103460744,-0.3843788131,-0.3499154612,0.0442874792,-0.2982484046,-0.3870747926,0.641187392,1.2114788776,0.1347465256,0.2045622602,0.2131961466,-0.0475670972,0.5207826611,0.4030664391,0.1205767616,-0.0059752026,-0.32703555,0.063437873,-0.1407491063,0.3080918869,0.0848859508,0.0253807817,-0.1496795876,-0.139010357,0.5507680465,0.6058274741,0.2115593675,0.6822200666,0.4910706169,0.4197648373,0.496786728,0.6738197091,0.4720792828,0.3346007253,0.6230593644,0.0642543175,0.5345706691,0.3757997369,0.1763613307,0.4017343116,0.4561479745,0.3051888244,0.649883921,0.6442086281,0.4219385956,0.2259108093,0.2867703776,0.0874337472,0.2828645515,0.152544137,0.0916707151,0.0911083052,0.6926520494,0.4796883154,0.2102006842,-0.0453319961,0.1531747454,-0.2957300804,0.5264405949,0.0837885739,0.086333116,0.2193574251,0.5269891963,0.0454892855,-0.3533854829,-1.3488580097,0.3018401339,0.1578313923,0.0436959017,0.0309623443,-0.1711762574,-0.3655846184,-0.76037325,-0.0760757713,-0.5114841772,-0.8215778467,-1.3447379825,0.5156516162,0.6922372708,0.1024835011,0.0794857135,-0.187974734,-0.1769794883,-0.0035633898,0.1158467239,-0.0599179806,-0.2810420029,-0.0809670835,-0.4132774026,-0.4704273494,0.1554807665,0.4145846245,0.6616620494,0.3548099465,0.325140109,0.3746520222,-0.2125475909,-1.8104612483,3.7276019599,-0.0929384912,0.6077427713,0.4462290124,0.0421689722,-0.1993288771,0.2494468285,0.1934362805,-0.1263781825,-0.1278664794,-0.3690212525,-0.3537389162,-0.376195239,0.4038855686,0.2505496693,-0.1174703588,0.3071729398,0.1680281455,0.3373540788,0.0589076379,-1.4325596177,0.2298754724,-0.1919637607,-0.2824642061,0.3501092594,-0.0348054848,0.0740385916,0.3106250917,-0.2391660884,0.1208728715,0.2143555576,0.2075839467,-0.3173222473,-0.1914463149,-0.207348702,0.1451305656,-0.3903562854,5653.1853124628,1.0642849298,0.062260192,0.4227775849,2400.0305024522,0.1384986686,0.1173376851,9.0348326041,1769.9358013251,4.5270872172,0.2063954709,0.07246915,-0.049729467,4314.3796138348,0.3263603482,1.0438354815,13.9398561686,0.5413095824,0.0658173196,2598.0164436196,0.0656704424,3622.9773397367,2.3657644383,0.2181098419,0.4269558409,14.1264492089,3451.5217903074,0.0567346049,0.480196073,0.6305723665,0.6815301112,18947.340820061,1.0724141673,0.6529322142,0.6724425042,0.522563497,0.5057688604,15.7918730468,0.1492489921,0.4425758703,0.0969931224,0.1484428795,-0.0350000125,1955.2665972581,0.6424850142,201.197181132,12498.4198516582,18098.2144815502,5.5409018379,3883.4862839987,5365.1808374966,0.8234573512,1.6603756902,0.8945085952,5.9339896818,0.267526764,0.593305619,1.2514750292,0.5334444572,0.0845381105,0.1778479241,0.3454666451,0.608106503,0.0903311924,0.1015461653,0.4126690584,13399.8732608472,21.3898375044,0.8480672113,0.1578217552,38.4182448353,0.3773228243,0.9579621237,1.6226546544,3.3113956051,8015.0389517028,473.3745801419,0.5869758808,0.6601212421,4.1135137597,0.4174156312,0.2329473084,0.0741498882,0.6475719252,1.5778553672,-0.0183487712,0.0273357608,-0.0071422357,1.0677459813,0.1835874192,12.112772455,7.8529266111,0.9096197909,3.4014683408,150.9608134562,0.0685122541,5.8226971128,43.8522004197,0.056418349,0.7398831121,0.2409452964,0.6847988376,0.7061415897,0.7055534738,1.6885007329,4.2158709857,0.7762918812,0.8918562061,0.0571309161,-0.0479085974,88.8734872111,0.5789275804,2339.9500300807,2.3128867291,17.4118260269,0.2585052521,0.4492582046,0.2225139073,0.4046590823,0.2163277798,1.6437970969,4.8763191109,8276.8971447746,4.1750944511,0.0513605788,2108.6165090827,12.6223496515,0.2440494124,1.1865182031,5.3707403834,0.4169406213,0.9068235391,0.2909087439,0.4630969103,0.0874447706,0.031080383,0.9933528734,-0.0304421256,1.705624411,8.2555655597,0.2504404311,0.341906737,0.2153890661,0.6763462187,0.1589378846,0.1714139619,7136.4547871779,0.4366392901,4384.6725649927,5414.5952703984,0.1362343504,0.0491743519,22.9007934701,0.2971539536,0.2025243385,8.3780734615,0.4217636969,-0.0873484237,1.0669158204,0.5943054342,-0.0355709804,0.0732378489,0.7704372211,0.3854058169,0.3896410151,0.5684660541,0.071387655,0.3971167817,0.5772073746,0.4365093835,21227.5323988816,0.4889711134,21227.421501804,0.3164907139,0.1815872146,9.5403180598,9.5994197967,9.3095835597,9.4298109588,9.3598855251,9.5202605175,9.2618132415,9.8393091037,9.4359801178,9.2396785804,9.8663227192,9.2198443552,9.7090986204,9.8511231604,9.3641918771,0.1022458212,0.1202479991,0.6889630952,0.6119813681,0.3814700979,13451.6321417602,0.2087934576,0.5563200813,0.6882285592,13183.8666511649,1705.7692007872,13183.877940652,1705.861709194,0.3427870486,0.5685681425,0.3650183788,2.2773530389,1.7877541239,1.3277365191,1.12525555,1.55454747,1.3323758123,1.1058872915,1.2595640268,0.3819737488,0.6542013915,0.2140727561,0.5705414369,0.541840226,0.3322489045,0.0725292407,0.6838209429,0.643150473,0.6127267995,0.2294069287,0.4810864487,0.153114795,0.4242045513,0.5859300338,0.5601332044,0.3936050582,0.3984104909,0.2152158264,0.5841407948,0.6739948814,2.0686771879,0.0005606722,0.4545881411,1.6590517091,6.0470853588,0.1994984596,0.647244773,0.1436937698,0.416660035,0.4224118275,0.5177060455,0.5794956828,0.5850559925,1.7374421098,0.6307869589,4.1237140326,1.2601522623,1.1205007235,2892.2001350584,2892.4290756046,2.3117397491,2.3313199922,0.8923314387,1.124715192,0.4939929364,0.6482214241,0.1800166922,0.0630254797,0.0036370916,0.3380760868,2.1838808012,2.4459207222,1.9670412473,2.0002185491,2.1899188452,2.1779750024,2.3875916381,2.1672194696,0.1917048274,529.6155384699,529.2999316281,0.3098499379,5974.5877542985,8179.4419223368,0.2762105193,0.8837754217,0.8056505843,0.5700035587,3246.4037747839,0.3488438062,0.5923760604,2.0575030586,1.7825622892,32.2132716972,0.7545218037,2.2974819167,1.7499201815,2.2461479691,2.03297813,1.7707074009,0.3270369564,0.1825293772,21226.9438765422,0.2152086818,21227.0361443358,0.2812063601,0.4902931436,0.1887691908,0.0446646874,0.4851869879,0.4501872229,0.6069169094,2437.5121779478,0.5046060444,0.6087346119,0.7000819397,0.638941564,4855.3560196684,6276.8666448401,23.1962348449,313.333567916,2.1607026376,0.3649466644,0.6423658033,-0.7373031221,-1.8698687858,0.0782604446,0.5999835092,0.2427327505,1.6093361409,1.9643336566,-0.1492161502,-0.1275258932,-0.1485170869,-0.0089616152,0.174262564,-0.3519542155,0.0997667924,0.4698036628,0.3602830069,-0.2968597494,-1.3968322429,0.9924231934,0.1055382088,0.7460954928,0.2509624802,-0.4133840095,0.6344902215,0.6723237262,0.3297996632,1.9587651331,0.1641471275,0.158210733,-3.4700214043,0.4375053241,0.326332609,0.2801287079,0.1663170928,-0.6225676538,-1.7286762129,0.2622812727,0.2481472854,0.2684314634,0.1905072776,0.4872860563,0.9327809631,4.867266423,-0.1220261851,0.2044610803,0.1780015564,-0.3207898194,-0.1333158289,-0.1120342079,-0.1349546292,-0.0277789485,0.184409399,-0.3264603802,-0.2673369013,-1.4846679632,-0.5950177171,0.2171198702,2.9102256229,0.6671414143,0.4569244884,0.3588226983,0.1366961651,0.1694130391,0.3472366119,0.2560248876,0.9299018136,-0.1016180563,-2.9074314595,-0.1996744713,0.1391841259,0.1683406336,-0.5446782333,-0.0072204603,1.2819364271,0.2608550352,7.2355273,4.601093421,0.1731569223,0.2611702401,2.7989869164,0.4648041749,0.0107194963,0.6869182241,0.076807129,-1.0337279421,-1.352930534,-0.7025346368,-1.9562596759,-0.2259758689,-0.0688399463,-1.7653778977,8.8255761803,-10.552535766,-1.1455963583,-0.2207674335,0.9293176995,-0.333073052,0.1441507343,3.4818562741,5.7149708619,-0.6575239071,-2.9013977412,0.0841901287,0.0883494817,1.0951160342,-7.78574347,2.015925263,-11.746667919,0.2517028116,0.2344261342,-2.432218488,-0.5673360254,3.0157616186,0.8352927223,2.9097421931,0.6576234444,-1.4933794006,0.0663249953,-0.0911241864,-0.1507092787,-0.0803732451,-0.0937164805,-3.1324727789,-0.4938654272,-1.70156275,-0.6110878333,-0.0049587856,2.8183278855,15.173803745,-2.5428127688,2.5499601651,0.1484156306,-0.0320443284,6.4855513888,18.8219835937,-0.2866364871,22.1266309735,0.3008870047,-4.5743792788,-0.3483754502,-0.5881747269,2.4314001171,1.4136049307,-2.1034511572,10.7788271895,1.042712247,-0.0345714875,-0.2078527919,1.7949974605,0.1563735844,-0.1575988752,0.3883229086,6.6088059911,-0.1707798148,0.2868500189,-0.1793550252,2.7779836622,0.0062970697,-0.1621962125,2.2087138765,-1.6715392361,-1.6404885889,0.1121603319,-0.1906296242,0.094272801,-1.9684414993,0.6942840036,-0.2849825324,0.2347043428,0.3671466657,0.0191635805,0.0630830144,0.060364088,-0.8231473191,0.4284597038,0.3054256741,-0.0893381184,0.0856159393,-0.3004308587,0.1045767501,0.3124504294,0.0899564256,-0.312926232,0.3527969428,0.2583773837,0.2822675186,0.3546600649,-0.037270132,0.1839117752,0.3677123756,0.2060527383,2.5208715804,0.3671641366,0.0220019712,0.5625834134,0.1857823618,0.4797560743,0.2700577967,0.3051135556,0.1923783789,0.1114444848,0.1113035716,0.3435999884,0.1703007854,0.0993273137,0.491899799,-0.4808828905,-0.0993757164,-0.101153089,-0.3823980595,-0.1920312339,-0.2568930469,0.0655049503,0.2276164847,0.3930915128,0.0091205249,0.1851581849,0.5286440693,0.1108983837,0.583800274,0.2711099894,0.5577796795,0.3837817859,0.155979406,0.6500196193,0.7083565536,0.57873217,0.0186747905,0.2434371646,0.500048582,0.1286758035,0.2730536703,0.5352793763,0.5300079083,0.6779529641,-0.0711005871,0.2384098089,-0.2511186565,-0.1220094978,0.1121091304,0.6068084711,0.4342088202,-0.0518014497,0.4976351201,0.1377913106,0.3560563626,0.3038208908,0.3297096894,-0.3292629223,0.7356233135,0.1335934817,-0.0647027722,-0.4782691478,0.3380773572,0.1969635254,-0.4771340229,0.1040305328,-0.1676469877,-0.6486003573,-1.1360157592,-0.6999614347,0.0157866403,0.5573828401,0.2311179859,0.1616215542,-0.1335020164,0.0571820748,-0.2258635928,-0.3276287503,-0.1498260458,-0.113815826,-0.0968870177,-0.2341183812,1.967976175,-0.3376108512,0.3101085219,0.2021815067,-0.1512131963,-0.247769203,0.2986569938,-0.0392384419,0.1671828361,-6.602372031,-0.0670424863,0.2730224771,0.2470853728,-1.7442808323,-0.4324757402,-0.3527577879,-0.5369849054,0.1573773885,-0.2637383068,-0.4354540133,-0.115488104,0.1274914657,0.2930858713,0.401278373,0.1489271836,0.4815776785,0.0178254826,0.1723539056,0.222959234,-0.5272367352,0.0582940453,0.1699576853,0.5558486546,0.0891828641,0.2398150152,0.2604206707,0.7128184579,0.2567052297,0.588604395,0.2745876589,-0.1141125468,-0.012867617,-0.1942280269,-0.4629048719,-0.9102695914,-0.505565252,5653.2847242092,1.2201933108,0.5005257088,0.5674902483,2400.5226859337,0.54555442,-0.053536095,8.5903633642,1770.3362479964,4.031810556,0.5117130071,0.6562424536,0.0008271164,4314.4082589008,0.2624361366,0.6945752369,13.9137315059,0.9787675074,0.1443043787,2597.8729004712,0.3704384503,3623.2554479065,2.4842219169,0.3495272166,0.1412846002,14.199322587,3451.4376962975,0.065124007,0.0846510653,0.522117484,0.1786598397,18947.2206767136,1.5446703496,0.6346656161,0.092627559,0.5419834924,0.1154893197,15.9311739417,0.389644814,0.2065842555,0.63632042,0.4274222749,0.5257373153,1955.5576894065,0.5073837292,201.3089917576,12498.6857063293,18098.6453495683,5.932778383,3883.6753528334,5364.6766087113,0.6146412368,1.4466017783,0.775878867,6.2260257292,0.4835905747,0.6346227577,1.3038209287,0.2022598105,0.1456050664,0.0028190564,0.4405408583,0.5091422436,0.3405866727,0.0925084602,0.8654960397,13400.0513402803,21.7558797975,0.8282741574,0.2497518043,38.4424603559,0.707308127,0.6563131328,1.4705519844,2.9425648407,8015.3708961594,473.6226158548,0.0741934093,0.7100729264,4.5847612897,0.6848466114,0.1510181162,0.1957193974,0.6958573652,1.3342745846,0.3111543525,0.5802059491,0.2564452561,1.3498426526,0.250499887,11.6386505278,8.2963883721,0.7945596782,3.2120476362,150.8043653775,0.3237958777,5.8783025083,44.1166744443,0.2779878564,0.352291115,0.5219355688,0.5316197895,0.3193725628,0.3305205123,1.3332991632,4.2928405341,0.4001102686,0.9068182828,0.2539877607,-0.0486477404,88.9083012234,0.6492721345,2340.1535666767,1.8511591126,17.315670315,0.3958912675,0.2085682311,0.2733899536,0.7119163623,0.410509301,2.0807021377,4.5574778658,8277.0469111071,4.6731993726,0.1097571333,2108.7003215287,12.5897769295,0.5374583984,1.7671713589,5.9169637611,0.1992000745,0.6344741184,0.5205258057,0.612654757,0.6561004626,0.4375634799,0.9606639953,0.1560635638,1.704591964,8.1717253473,0.6418238983,0.5419520785,0.4154467186,0.8009807502,0.0498727807,0.494822185,7136.4516153382,0.2451098372,4384.7343340658,5414.8304255915,0.5324552948,0.1716500982,22.8702567762,0.381160132,0.5992984694,8.4058389069,-0.0868188755,0.5347345047,0.4528827173,0.2576263102,0.3935828052,0.648907648,0.7026912484,0.7182393896,0.3388914502,0.2604506629,0.563862151,0.4070007754,0.5123156316,0.0270656877,21227.4959783926,0.7536163481,21227.1316312295,0.2860851518,0.5523714599,9.698373072,9.5667473431,9.2179905795,9.4592955718,9.6475367368,9.8267382247,9.4526416842,9.2720520054,9.247998221,9.6183854656,9.6688165732,9.6427779803,9.527801459,9.6937450216,9.5035729433,0.672679507,0.4137445594,0.6734301127,0.5168448163,0.3716317589,13451.5688591206,0.2553945989,0.2887339581,0.0281023308,13184.3571864805,1705.4138898729,13183.9012629446,1706.0140943623,0.3836303395,0.1516853964,0.5134785957,2.394736867,2.4142979617,0.9292446177,1.2411697452,1.3411435715,1.1451965922,1.4082607904,1.0874358886,0.4961669255,0.2089855546,0.1469330896,0.2487861453,0.3443727246,0.3586259983,0.4460336341,0.2353800306,0.6303173734,0.3967817437,0.3888309374,0.2552916014,0.0678114913,0.4457871516,0.1382464139,0.0132850314,0.4251633595,0.6390535302,0.6692371098,0.4120492882,0.7078815237,2.4184824,0.5077992577,0.4873787803,1.7394175446,5.5695490069,0.6896196237,0.4672620736,0.3210318114,0.2736786874,0.5249932801,0.5205798943,0.4389443744,0.2107145753,2.2536954878,0.637062783,4.0454302205,1.2463395152,1.2844092044,2892.3840477455,2892.5392013476,2.4356618701,2.3117789498,1.1435881472,0.9729402755,0.3603624142,0.2097031734,0.0482098919,0.5789236117,0.5725137388,0.0546920059,1.8291848758,2.0373660614,1.9239034286,1.9868615032,2.0469151281,1.910594251,2.0543307729,2.3339283976,0.1144168619,529.5443061715,529.2515016616,0.3921951933,5974.6018567816,8179.4133022982,0.7256410961,1.1096286609,0.6170017699,0.5294662801,3246.5655270284,0.6763440082,0.433595956,2.1155108737,1.8027333631,32.7976400819,0.2616154628,1.9577918884,2.3824213399,1.995129803,1.9262383632,1.8520661618,0.4942882086,0.6609293341,21227.2095834407,0.5070646722,21227.1221071081,0.7295310871,0.2041390367,0.3180411992,0.3703472385,0.7587424354,0.2303857151,0.011371741,2437.8590589487,0.0965361965,0.6929066627,0.5366225794,0.5566743486,4854.861586048,6277.2660644005,23.1899338851,313.1516747578,2.687831293,0.6429537248,-0.1248585423,-2.7003487614,-0.2836576828,0.2960602991,0.5162691161,0.7096694974,-0.2644648075,0.4551194033,-0.3249935173,0.4548514266,1.07119935,-0.0863728354,0.5280697357,-0.3447495345,0.2269472576,-0.0393512568,0.7470896327,0.2681778974,0.41914518,0.3393070488,0.1244949865,-0.3185344068,0.1280362267,-0.4062702691,0.1117046583,0.6409879214,-0.2527417041,-4.0567577118,0.0415442627,0.5532216575,-3.3074298671,0.1435221181,0.2272077187,-3.4958268278,0.635829648,-3.6046009715,-3.7452084707,0.3007638758,0.2637493622,0.5344569736,0.6118194637,0.2988680483,-7.4604154453,3.4987820807,-0.1417510797,0.3506057393,0.0927528446,0.2046014288,0.3222013536,-1.345002125,0.0542944457,0.3186031612,-0.2456442867,0.8557895981,3.7829797512,0.185949596,-0.3306558729,-1.2835507099,-2.4249788665,0.4916862533,0.1722357553,-2.271276127,0.1612326205,0.4338869812,0.6535860344,0.6418047987,-3.7243596143,-0.1259474597,2.744197879,-0.0456486481,4.4681466039,-0.2248844109,8.811626602,-0.0967516691,-1.0015703172,-0.3898970052,-0.2073111475,-0.298373892,0.0597262405,0.0919817569,-1.9274654791,-1.8627796797,0.581504486,0.0602219337,0.6014276732,2.5091844865,-2.5060593562,-0.1042280362,1.1330721512,-0.1158321088,-0.3224508218,0.3298394943,2.0948244194,-4.1578174944,0.3161531993,-6.5188762133,-3.8418665149,-0.0197171683,-0.4578673549,3.2949931717,-0.7506851294,-7.4418328966,8.6707610266,0.1814170398,0.6290496219,-2.5612989667,-3.7664368043,8.2078045098,0.3702789579,-0.6083930432,0.265867772,-3.7580130604,-2.3917499641,0.2507920865,-4.6309242603,1.0409550326,0.2684617691,-7.9709857899,0.5035499983,-0.7099492443,0.0799073583,-2.6439491817,-0.1951491539,11.3356776185,-1.7911630704,3.7694451157,0.1148503474,0.1611954526,-0.8371473081,-1.5266007031,-0.0208503798,-5.0997341071,-1.2943093161,0.1659084691,0.4737139754,-11.9770331184,-4.3403281172,-0.3215177288,2.7172748406,10.3353224988,-0.0844736734,0.437952932,-0.3099813568,-0.1534224938,-0.2272995961,-1.0013915385,-0.1922252098,-0.0690725848,2.0306653154,-0.1879436199,0.1704851399,0.3166377688,-0.158472026,-0.2297356825,0.0869832861,8.4966120257,0.2350792417,-0.145604315,-0.1126497096,-2.2215553441,0.7773461456,-0.2350746678,-0.2644400207,0.1081313763,0.1154930653,0.6173968161,-0.4038278794,0.2352483002,-0.2905349947,0.1474537599,0.2729396358,-0.111267472,-0.2284881746,-0.203414332,1.3779549042,0.186902843,0.1261436458,-0.1061075237,0.2156160527,-0.0388946899,0.2141017355,0.0134442985,-0.1403637498,0.0128801536,0.2301646252,0.1506985317,0.3158685187,0.1342925125,-0.1598530436,0.1027743241,0.3553294493,0.5404097301,-0.1254379311,0.4862593755,0.0634699656,0.0056646097,0.2931877349,0.2312515398,0.3578464212,0.5179449329,0.0862158674,-0.2650453781,-0.2983087447,0.2963277141,0.4345162233,0.1778379201,0.0190068125,-0.0236743646,0.1029874176,-0.8167005722,-0.9748921106,-1.1519370764,-0.8905930075,-0.9060483162,-0.7120611717,0.0924654755,0.4801166822,0.552432766,0.4690734651,0.2434989427,0.1248945672,0.5130221579,0.0591671909,0.4212812211,0.0587381937,0.1774092449,0.4581772181,0.2205263083,0.4363886814,0.3429546825,0.4066057988,0.5771051232,0.4597570281,0.0266577481,0.5439664268,0.4820431966,-0.1273171944,0.5317134638,-0.7504992589,-0.1514985157,-0.2962336511,0.3248434564,-0.3339102289,0.0541926495,0.1961054424,0.2394207664,-0.3050601561,0.5082250479,0.0120554442,-0.3757851187,3.3712986112,-0.0380315948,-0.1872478675,0.1684735278,0.1237070675,0.2789693527,-0.1239304644,0.1981347886,-0.1752907487,0.1124323106,0.2127038885,0.2124345383,0.094088298,0.642078294,0.1097960582,0.1338918464,0.1865307614,-0.1860227609,0.0544293717,0.0648481166,0.208048366,0.2557332778,-0.1150348301,0.2977129887,0.8799799173,-0.1227816141,0.1332726927,0.3200588995,-0.3196230619,0.3409583841,-0.3244533807,0.0426546314,0.0555237369,0.9251902291,0.1344094174,0.2859495907,0.4690483062,0.416509391,-0.1361844406,0.0015736482,0.1879896793,-0.0574420755,-0.1595026787,0.1575728461,-0.3517038839,-0.1345008506,0.027993776,0.2826494014,0.0126024799,-0.2837246854,0.3244095353,0.1606174599,0.0234669083,0.9664362502,0.3483057466,-0.1672438895,0.3053920859,0.4526206309,-0.1390032938,0.1197779253,0.3390711667,0.3247037297,0.5062632353,0.2913222881,0.0089483234,0.229269521,0.3196761995,0.2061857129,-0.2137304964,-0.9677786175,5652.7555551243,0.9090052859,0.3109668705,0.0766065654,2400.496196806,0.0100361191,-0.1986167854,9.0447382198,1770.3829926872,4.131408597,0.5559905615,0.0964080856,0.0756254058,4314.5217700418,0.5549174688,0.8634358874,14.1617471379,0.8457739904,0.3964468158,2597.7114161251,0.2114713777,3623.6221035577,2.4699271541,0.4808915888,0.2092758691,14.1038868776,3451.2090728743,0.2422615349,0.509738125,0.3720151229,0.2157345538,18947.3011658251,1.339763703,0.4486671294,0.18149614,0.7583640271,0.5113275299,16.0051634436,0.5571321009,0.6634133519,0.4545601369,0.6100685926,0.3027295922,1955.5654774873,0.7153681426,201.0016318547,12498.3326885669,18098.3269774706,6.1528211806,3883.7293068914,5364.9267657778,0.5730909124,1.2932157127,0.2939885123,6.1652860002,0.5074669632,0.3916182955,1.518171633,0.0555028923,0.3444476897,0.6487858274,0.5898815626,0.6181775245,0.2639658015,0.3309911936,0.2920994822,13400.1579537547,21.6780248265,0.309646392,0.2555009489,38.7092009649,0.5081038697,0.884830382,1.423564306,3.1365119931,8015.5839554211,473.4941849633,0.208963921,0.5346188365,4.5194607085,0.4421974295,0.3869696162,0.1507328273,0.3297585352,1.7366146078,0.3844720049,0.0057851647,0.5927648251,1.3167013116,0.592237773,11.933537876,7.9201509721,0.7660238637,3.6059771919,151.249817287,0.0511750668,6.01726776,44.2895731047,0.174289361,0.7806241015,0.7382523017,0.3099578707,0.5596414251,0.3196432426,1.5897914655,3.9598299347,0.3471970245,0.5354067871,-0.0102859077,0.0630422448,88.7489759238,0.299448284,2340.2990359365,2.0760757347,17.4097566602,0.0323353549,0.5767807783,0.5883990152,0.177581526,0.2921840973,1.8664188766,4.7565689213,8276.5199486839,4.5605540307,0.2975752864,2108.2345992865,12.5705196909,0.6921319901,1.443570666,5.276640507,0.475289605,0.6828317224,0.4128109718,0.2790619928,0.580529461,0.3406964431,1.1039080579,0.3377269066,1.6229900877,8.8309803651,0.736670544,0.5943744905,0.2305319348,0.5363020789,0.6615373131,-0.0095761199,7136.3551917288,0.694999426,4385.2534052718,5414.7990669385,0.3319383744,0.1832091948,22.7402854003,0.0517116301,0.2358852951,7.9575050068,-0.1033615386,0.1433672196,0.6704170148,0.563969385,0.1659209978,0.0328232322,0.4239743545,0.014341603,0.6764502553,0.4843842277,0.258653082,0.1173199863,0.3791059675,0.2989169119,21227.5875064856,0.7345211723
   21227.5427140717,0.1025090792,0.1769827849,9.7634868743,9.2165183682,9.4206359848,9.8720505026,9.7691471685,9.352307023,9.4657801761,9.6609712641,9.2217486788,9.8252213794,9.8728768957,9.8584176103,9.5221160096,9.8864042774,9.3570737563,0.2771586322,0.6187758907,0.5257203792,0.5789658947,0.1577557539,13451.7311324036,0.590885255,0.2461500145,0.5721708483,13184.1416262029,1705.8808084189,13184.2609306513,1706.0000659707,0.3130748563,0.4346092991,0.4428283202,2.0883863643,2.2416698795,1.5493516357,1.4635965677,1.2316968588,1.0967179524,1.3186051401,1.441522899,0.5668512456,0.3163542176,0.1604988898,0.2395410185,0.0251014452,0.0558676427,0.2225585768,0.3123366481,0.6571321141,0.1118225037,0.2718951333,0.4776426044,0.6181907796,0.136426863,0.2938967163,0.1374983426,0.3101294027,0.2646675713,0.3391405179,0.2435132257,0.5116558572,2.3580205505,0.2090540387,0.4561427917,2.0989934273,5.5749691847,0.2261561653,0.1999504075,0.3008961287,0.4795396595,0.2789061712,0.1550541593,0.6357595172,0.2611713534,2.0290717244,0.4691402674,4.2975185047,1.1820328135,0.9260187997,2892.1409149263,2892.2983544694,2.7481467034,2.5843505655,1.1523410897,1.3139558578,0.3024606279,0.5945584355,0.3164068081,0.0446887124,0.202989122,0.3931716414,1.884064576,2.188572775,2.0199484673,2.004791761,1.8468220514,2.4362434173,2.2149731915,2.2629981037,0.0689197773,529.2634095006,529.3575604123,0.4680620869,5974.6348829136,8179.8508235945,0.5232604012,0.8295588978,0.3612020439,0.3131385865,3247.0575287128,0.7222697613,0.4227689844,2.0715503334,2.245546321,32.4297274254,0.5976612156,2.3992641697,1.8157916382,2.0408181271,2.0942707947,2.3127229391,0.5065544808,0.3448614937,21227.4803373086,0.1299603163,21227.5324796926,0.6562809623,0.3030860472,0.194525671,0.5729814694,0.6771527208,0.6995985755,0.2628530515,2437.8142034821,0.1998731227,0.6427103597,0.1082528673,0.6018207188,4855.2912988475,6277.1035990794,23.2249325973,313.5086410947,2.8303201176,0.3790092798,-0.5891791736,-0.2138801341,0.3462310635,0.5025185364,0.3420056825,0.4368257543,-0.9539632901,3.6794030513,0.3567853799,0.4669041962,0.1344066158,-0.2676720966,0.0391675407,-0.1775838211,0.1624177113,-0.0063688795,0.2927666833,0.3461480594,0.2649770256,-0.2561828763,-0.2217016946,-0.3713798468,-0.2031311546,0.4310857056,0.344469632,0.3270689295,0.0648210146,-0.4255354728,-0.3095615862,0.4094853304,-38.709004719,0.0552828068,0.2227081396,1.6563313329,0.7081012816,-0.1517056733,-0.3712994221,0.5033830739,0.3233724692,0.3478069732,0.3357522303,0.6496952194,-0.1439015166,-1.8231082605,-0.1600306352,0.0598614326,0.303661231,0.1263578159,0.5536531637,0.7419170184,-0.1289954318,-0.0616509239,-0.2383818062,-0.1670787936,-0.1803867251,-0.114544987,-0.2938873826,0.2663535356,0.1253860796,0.1242839207,0.0342401923,-0.1037576969,0.0346789376,0.0646532259,0.5173880421,0.4911497758,-1.1400615692,0.1639858669,1.51436963,-0.0686114479,-2.7192658357,-0.2013797938,-0.0186531194,-0.0105313732,1.2846571529,-0.0563711295,2.1388857446,0.7367981591,0.2987262774,0.321182919,-854.7994511092,-0.2213661351,0.0391487405,0.6432452333,0.1922017991,-0.0416376849,0.1077589037,0.2190813379,-0.2142264086,1.7301273003,-0.2368210517,-0.2627177385,0.4784726417,-0.1974466307,-0.1546824576,2.1356683512,-0.2655249685,0.2249658615,0.2647123832,2.2908257622,-0.3532507393,-0.4059087779,0.1098203933,0.6749598181,0.6019766096,-1.3019262977,-1.1490865131,-6.8474605993,-0.2942054094,0.109924108,-0.0380159386,0.3513073197,0.3260928971,0.0316811363,-24.695797599,-0.1843522509,0.3652421013,0.2472849785,0.1815351508,-0.5562193601,0.1382053874,-1.4690950342,-0.2316034476,0.3176839008,0.4350766205,0.2865930288,0.1461955718,-0.1796265596,-0.4307756121,-0.0498460055,-0.0814359364,0.1304195911,-0.1905749578,-0.1169818206,-0.0024940424,-0.4672796396,-0.0443800155,-0.2265598815,0.3359848685,-0.1295400868,1.2917613785,0.0004634881,0.2169579716,0.9508103151,-0.0331325352,-0.5662627349,-0.2866966095,0.1528410527,-0.2481645691,-0.1883949711,-0.0135940144,0.2733745933,0.1984226431,0.1739045325,-0.307654998,0.1496398431,0.1491716387,0.5208193406,0.2996862086,0.3193479834,-0.0871855221,-0.0196028101,-0.3779961573,-0.3197276773,0.0140946095,0.0852484983,-0.4122289643,0.5087972204,-0.2643461749,0.6699085379,0.299452557,0.1904807453,0.1930839578,-0.2060120649,0.3388915999,0.2273690482,0.3083806375,-0.241737223,0.3382388324,-0.1883008958,0.0779804326,0.2143905827,0.2257922392,0.0880427963,-0.1826451174,-0.0331575941,-0.2560764313,0.3328763323,-0.2602390179,-0.0872926768,0.0025095778,0.0811592969,0.7682780222,0.3625445104,0.4210136808,0.1293299849,0.3445841427,0.7080425274,0.4784052746,0.5507411049,-0.0726332903,0.0659568444,0.246779346,-0.2976419766,0.3067616997,0.4225892508,0.4483664954,0.6975431749,0.5291342135,-0.9548422136,-1.0251289063,-1.3818205049,-1.4506057497,-1.2338486635,-1.231484493,0.199687203,0.6596034972,0.4350415997,0.4167937669,0.1603371387,0.0237330466,0.1719511314,0.455371603,0.5013585713,0.4352806031,0.6381867372,0.3732722799,0.2518665185,0.0564038412,0.6412887442,0.4609079877,0.483343645,0.2850240882,0.7035993747,0.4374260285,0.6007238383,0.6444339602,0.2510887554,0.2328941421,0.8625954742,0.3345435381,0.1167647477,-0.1849526453,-0.2557366017,-0.2250610041,0.1786725087,0.3132772923,0.0728217059,-0.0566514107,0.014052718,0.5898204944,-0.0967910524,-0.0860937334,0.3145193239,0.1646203756,0.260768481,-0.19055556,0.161148614,0.9449277563,0.49593238,-0.1055366966,-0.044162071,0.3395577945,0.3236218855,0.3712102951,0.1422797747,0.3996975512,0.1542079944,0.2801629476,0.4663190318,0.1750574498,0.3324808748,0.0574779123,0.7079168663,0.2011136763,0.0705241849,-0.2194173162,0.5195270392,-0.15772932,0.3196192674,-0.1072838072,-0.0163704713,0.537274212,0.1145676637,-0.0566376163,0.0403152653,0.2494822344,0.2227011774,0.2488930364,0.1757866047,-0.0256498829,0.1389688192,0.2177709428,0.2459222517,0.3325812279,0.5932717186,0.1639647422,0.2837985286,0.4618216894,0.0241124166,0.3130092553,-0.044443991,0.0049334227,0.1012168165,-0.2861314128,0.0995215278,0.0562776844,0.4466539642,-0.034995037,-0.2072912588,0.286386736,0.2867588699,0.6821960358,0.3172954508,0.0460292342,0.4569636618,-0.0289037409,0.7202638869,-0.3358557971,-0.0524174783,-0.3313579781,2.3569676447,0.5930425507,0.206734353,0.1035301775,-0.7773279978,1.5302485823,-0.0857991467,0.3601007674,0.1278092815,-0.4166000787,0.245442092,2.4501543833,-0.2795312344,-0.2458133834,0.4133809346,0.0269296908,0.2975221204,0.3920172764,-0.2234007345,-0.1813519402,-0.2767666767,-9.3866495839,-0.1666300181,0.5786609237,-1.4164577899,-1.4004809712,0.3499888193,0.281830814,1.9583290556,0.2284403043,-0.1955564465,-0.3044509017,0.6360987525,0.1098267487,-0.101846064,0.1634333478,0.3604505005,0.4618787679,0.168909264,0.451612746,0.2047789538,0.4397748617,0.1341193545,0.1377113848,-0.0919144136,-0.1262853382,0.0777866637,-0.1989982749,0.0176515504,0.3803633606,-0.1427071441,-0.5872422054,-0.0392318182,-0.4534113883,0.3493735499,0.0825928527,0.2368395418,0.3411283616,-0.4390579969,0.2426448694,0.1248812539,0.1121878381,0.2907145968,0.5177697792,-0.2878101487,0.2270340059,-1.8212549572,-0.0513598155,-0.5983676396,0.2780462657,-9.6401591681,-0.1930524931,0.0224995415,0.0219361887,-0.6847323075,0.2457055856,0.5249611826,0.0168938426,0.4413990961,0.2635490144,0.1164142795,0.6776617062,0.3297886448,-4.0263337147,-8.0507895493,0.1672849344,-0.4514799448,-0.2247470505,0.1155410015,-0.3136029214,-5.480647678,1.9162572447,-0.0330249046,-0.0998267039,-3.1223818664,-0.0386264561,0.3886467326,-10.429574493,8.4604529777,-8.5875418241,-0.4365887731,0.2583519964,0.1305659352,-2.3720384651,-0.7958343897,-1.8233405068,-0.0368129334,0.1627796483,0.357219889,-1.3555998232,-0.0475575722,-1.7659256803,1.2370915978,0.0978330157,3.0150904183,-4.040108065,0.2916185247,0.2364305273,0.0009289041,0.2562909465,-0.0980132536,-0.2431992545,-12.4956673045,-0.5262050876,-0.1611220877,0.088284358,-0.9809480505,0.190613296,0.1378467729,-1.9422208857,0.0785234596,1.6483686844,-4.6912174569,-3.3386841576,0.5492027123,-3.0563170588,4.6773030748,-14.6905991659,0.0419044248,-0.3751980764,-2.0810314092,-0.1182534803,4.0446013776,-0.1858255911,0.2033252213,0.1818087569,0.4396543148,-0.2018184883,-0.2671421562,-2.6558662304,-0.8551951048,-0.1224557972,-0.2949084465,-0.0900757485,0.2446018449,-1.7302670599,-87.508607102,0.0931368274,-0.8637795815,1.5122528763,1.2245811888,0.2485522461,-0.1802534846,0.3208103156,1.2997968099,0.3052017975,-0.2718427422,0.6575036835,0.209961792,0.3640759353,0.0761488881,0.0011377754,-2.082309849,0.3934726333,-3.5810577649,-3.3851866655,-3.6301544926,-3.8298558449,-3.7179428121,-3.3454276872,-3.364816504,-3.8755124516,-3.8670905001,-3.3232794342,-3.657376262,-3.5001846468,-3.3561504778,-3.3959764245,-3.2899779204,0.4986344844,-1.4210363347,0.075381225,0.3796940295,0.1115153823,-0.129462409,0.4306531156,0.0651123723,0.5721983214,-0.1698061089,0.0411493687,-0.1856114582,-0.0287750788,0.1785189072,0.3016399026,0.4871397717,0.4484232819,-0.0619146444,-1.1380423621,-1.0743360944,-0.7598586723,-1.1160089895,-1.0496519346,-0.4606970427,0.5003074738,0.319947122,0.6949142446,0.4270630786,0.1565863796,0.1837834797,0.2034715185,0.363598062,0.3964572395,0.4489471186,0.1837010804,0.5034616575,0.2805002728,0.6870303967,0.389480931,0.6822735106,0.1131326694,0.4386087651,0.2255006412,0.5180872649,0.6319576482,0.2903603505,0.358086322,0.1175734922,-0.5229800436,-0.1309923289,0.0208146959,-0.1532319877,-0.2789604987,-0.0831653813,0.3527802775,0.1663405074,0.3755809901,-0.0996247985,0.1615702593,2.8512207613,-0.2487040757,-0.1228812132,-0.5421548203,0.0381592582,-0.2671119601,0.1660912287,0.1364133568,0.1549163706,-0.2433724714,-0.081842065,-0.0759159351,0.5210244943,0.3533054344,0.0591694198,0.0514107455,0.5770236571,0.0074291526,0.0710791431,0.1451170364,0.3702203618,0.1182793266,-0.0371640401,0.1185298225,-1.0404094425,-0.150140322,0.2689017536,0.2302477972,0.3361069334,0.237809714,0.1482527729,-0.0958983022,4.1460487109,-0.3209447117,0.1328422718,-0.2974408852,0.2350427456,0.0745232526,0.4569979736,-0.3705334472,0.218782778,0.5741281032,0.3618521212,0.3117132203,0.6093303419,0.0093387326,0.4604546526,0.6150163055,-0.1598071994,0.1175178405,0.1180243828,-0.0092025357,0.3907112962,-1.9961320242,0.1937171663,0.4121126355,0.4211562699,0.1840590753,-0.2863704531,-0.2413624479,-0.1179996324,-0.1235779161,0.4969580462,-0.2128190324,-0.0128646822,-0.0851581599,-0.3058643948,0.1443379231,-1.2479344979,-0.6537677443,-0.051173944,-1.978294924,0.1189532404,0.0321343297,-0.1014574656,-3.7630399261,3.0413191621,-0.2501185644,-0.1805780889,-0.2791800522,-0.270610254,0.1126798357,0.0354376611,-0.1403295173,-0.2259923857,-0.0211452578,-0.5953763963,0.8289273038,0.0734973527,0.4877821803,1.0548239369,0.6241649035,-1.1864722799,-1.4487554359,0.4576423241,0.3599574271,-2.3494373188,0.1302247442,0.0386830199,-5.7450480384,0.3137251092,0.354831069,-2.8870995215,0.5223898082,-4.8155341653,-3.5600351029,0.4768923118,0.4782500398,0.2658204417,0.6853377665,0.2543194585,-0.5407995026,4.2623092716,0.1401212449,-0.1174793548,0.1241886624,0.0013323652,-0.2291566892,0.1109232093,0.0940831414,-0.1065981481,-0.1419107821,1.5389654929,0.7496927447,-1.5737883976,0.465392035,1.4846442638,-2.5064010631,0.2846113893,0.1296619242,-0.1618296283,0.5624692861,0.3209310986,0.1284771835,0.3024336955,4.0378474119,0.0545327311,-3.2834684492,0.268596829,4.7472160927,-0.3043206304,2.893923592,0.3435780058,10.4058980552,0.1939202023,3.4544759168,8.8053736587,0.3671287313,0.3935512128,-2.6061928501,5.2785765224,0.2589740856,0.4569950987,0.2270416693,0.5486541114,2.9095939778,-0.4266517295,-0.2368338228,0.0713646623,0.2710556096,0.0723143038,6.4050316177,2.5186709017,1.3272074141,0.8770888022,0.0899694243,0.3212810178,0.9674997246,31.0372522254,8.2045204528,0.1869001566,0.3056753152,0.6162847036,0.0711449535,0.7517511077,-7.3508232662,-3.4459539431,-0.1423463135,-3.6056720643,-6.5949699399,3.1595212112,-0.5638263288,-2.9744312874,1.9643001443,2.2822036782,4.2025983565,-15.3550203066,0.646546042,0.2989869061,0.0831233067,1.7560904481,-0.4428745252,-0.3437773209,-4.1317707498,-2.4715604172,-0.8151736507,0.0647998954,-0.0822251322,-5.1120617926,-2.6287317019,-4.5258685047,-0.9247753853,0.1227664756,-1.2650789344,40.3811593103,0.124942516,0.1807920066,5.3062914871,1.4260124474,-0.2143029221,-2.3208086217,-1.6464647891,6.5886343748,-2.5428416705,15.3045390765,-2.0799846118,-0.3858533224,0.5356538558,-0.11523141,0.0123675844,-2.0328385633,0.119991215,0.8352711917,-0.2296224976,-11.5173551647,0.2177083259,-1.5560632554,-0.5735423818,-0.1697570359,-1.1918609084,-0.6247067667,-0.6149439255,0.1843043507,0.366913004,0.5752197548,-0.6865118803,0.4216838123,0.0891606389,0.0559516666,0.3564575062,0.2752139909,0.2368207958,-0.3289288835,-0.685021264,0.3216887156,-0.4656568349,0.0892161184,-0.0363813825,-0.4242382852,-0.0990157988,-0.2149524238,-0.2007024909,-0.1638277215,-0.0076181386,-0.3587105231,-0.4046648734,-0.3742675972,-0.2509335648,-0.1172449361,-0.5072616304,0.2481139313,1.0337021924,0.0351468766,0.3241549216,0.5317716606,-0.2292398557,0.4929599229,0.6301916191,0.2586046487,-0.2875434719,0.0417588098,-0.2794064241,-0.2821480122,0.5746094629,0.6924874822,0.1237047734,0.047293253,0.1170646274,-0.2957124612,-0.1944159315,-0.0569611896,-0.5026342598,-0.2043494178,-0.4998386333,0.3521443141,0.5357767049,0.4998164246,0.621691788,0.045205823,0.1675963528,0.33787952,0.1908374129,0.512291385,0.3760288886,0.0406473387,0.3703632657,0.4815695529,0.3023010808,0.6826365713,0.6088215246,0.476795819,0.6334483969,0.0707344474,0.1294897035,0.4278071485,0.1531027256,0.6942868227,-0.0297114001,-0.1155384508,-0.7277067441,0.0658855,-0.0505837716,-0.7559175683,-0.3394708954,-0.7796648726,0.0803146205,-0.331620603,-0.1017896139,-0.3261715297,-2.0454621398,-0.2754074143,-0.4376510326,-0.2061277076,0.2778489289,-0.0270414402,-0.1475640927,-0.2336505464,0.054361379,-0.0359359649,-0.432680169,-0.4420518347,0.327711526,0.2881976485,0.423661207,0.3299019285,-0.2132885474,-0.2946104516,-0.3501640793,0.0383128371,-0.3073872737,0.0637447282,0.0366233248,-0.319381926,-1.0452133891,0.1469058647,0.4113721534,0.5472743507,0.0034046324,-0.1137620865,0.0764951365,0.3373894485,-1.6297777977,-0.3325801652,0.3219795067,0.2731639053,0.3004671099,0.3922575815,-0.02022129,0.1216413974,0.3724939117,0.0537385672,0.2334163244,0.0379129931,0.0128675404,0.0697430339,0.4192138683,0.6286132601,-0.1896194229,-0.3521375572,-0.1234199892,-0.131445495,0.0851276163,-0.481890883,-0.7462146264,0.2469612884,-0.1100084388,0.4670463688,0.2846970217,-0.3496527927,-0.3733551154,0.0245333223,0.2148999984,-0.2067464498,-0.2338996645,-0.1501277574,0.5217230752,0.1041573791,0.4084294227,-0.4348952363,5652.7442138469,1.1970110162,0.5340839985,0.6342897804,2400.1590498804,0.3710335288,-0.2223452395,8.4841027546,1769.9518031742,4.3343190769,0.1719275528,0.2646459857,0.5552382764,4314.2485039856,0.4331436155,1.1203202326,14.4193388547,0.6183890674,0.2149332424,2597.6268178538,0.7327900757,3623.1564648587,2.4199049361,0.0545489815,0.1136766567,14.2470705888,3451.4521408496,0.4349530747,0.0767652669,0.557551095,0.6813828237,18947.1807496756,1.4471632385,0.352669004,-0.0048812512,0.2940758098,0.6817344084,15.8187165763,0.6184592973,0.2713666888,0.1799281928,0.3599550334,0.5325038484,1955.4811940611,0.0994139778,201.4270861959,12498.4722453497,18098.5811062583,5.9078167378,3883.6569051674,5364.6597707319,0.7370565922,1.6480477027,0.3091095519,5.896700903,0.3066735922,0.6382785895,1.1585487195,0.1418524092,0.5827118741,0.1742514444,0.3612520118,0.5831923747,0.4016081131,0.1883381553,0.7510764399,13399.7609608731,21.532819955,0.2511904912,0.1844661932,38.9477042056,0.4273133005,0.9740100741,1.5359331017,3.0593701275,8015.5303068962,473.4808344579,0.0577482506,0.0808797166,4.3112280526,0.3164204142,0.4689830548,0.2355305192,0.0625191006,1.2313248443,0.4850203325,0.0249709309,0.5981404688,0.9710703935,0.4273399236,11.8272986224,7.9223013772,0.4036292322,3.6523847075,151.0145563189,0.3150650815,5.9217173983,43.9852131562,-0.1575908379,0.4693616914,0.0872558672,0.4089704338,0.4153265451,0.6295897769,1.2994123989,4.1113968444,0.188158302,1.1562772808,0.2978277033,0.077875578,88.4769281284,0.7412046408,2339.8820794952,2.4349837267,17.0234191299,0.4322022488,0.3081518479,0.1346886258,0.3140124885,0.7398018501,1.7510407076,4.7855443264,8276.7927668477,4.244159671,0.3936532461,2108.173199663,12.6123978083,0.411270191,1.1829089423,5.6111115551,0.0189728132,0.9556724362,0.4940335728,0.7612366348,0.0331312401,0.2198270159,1.0325976208,0.5205826025,2.0270246868,8.4422672152,0.1487376043,0.6010521626,0.5247397402,0.3962225604,0.3524984503,0.583598979,7136.4239001133,0.1182659053,4384.9599893153,5415.1767185084,0.5626827232,0.6265503871,22.9068170767,0.0386505593,0.6174547113,7.8567921051,0.418802709,-0.0627473828,0.6815078303,0.2119519972,0.3147803017,0.2872080106,0.7615441428,0.0177372145,0.452664898,0.5063360656,0.284698422,0.3673759078,0.1065032904,0.2930125433,21227.446419529,0.2726815699,21227.4193254743,0.5058172589,0.4143128865,9.8992150552,9.5496666058,9.9080521912,9.6455127041,9.7973074732,9.587367757,9.3861022446,9.4878500811,9.5308056893,9.4979852315,9.2534855355,9.9022874078,9.5799468418,9.4736753508,9.4640901222,0.3170722996,0.4471278835,0.5132153207,0.3527010024,0.5912065084,13451.6685337626,0.0715872524,0.4114484569,0.0172051676,13183.8114637072,1705.5031402749,13183.9749399671,1705.9572287886,0.2456219425,0.0127510876,0.3157500313,2.1360098005,1.9959110569,1.4287603507,1.2314000216,1.2479266253,1.6155793343,0.9694518157,0.9479253896,0.5088737857,0.0513103608,0.1515680027,0.321220335,0.4647317486,0.352867275,0.5570801716,0.564735155,0.1460846117,0.0079644969,0.3458202428,0.1462775249,0.3618058422,0.1660266807,0.0029184844,0.1683844159,0.576332645,0.1988253394,0.2012457524,0.2115573292,0.0318435982,2.2436815525,0.0720480001,0.0600115847,1.6525788905,6.0958307806,0.4819241652,0.6774350631,0.3411269387,0.2580532039,0.1203318117,0.5102394721,0.1367217602,0.695742754,1.7872331609,0.3742998149,4.1049850466,1.0402929247,0.7510525268,2892.2058942862,2892.5505416488,2.6054813506,2.5467981539,1.0561314293,1.0006592283,0.659569805,0.6591612541,0.4439438033,0.4935412682,0.6897479144,0.4420023873,1.7807564726,2.3056494402,2.0059708653,2.186113594,1.744767077,1.7609129058,1.7382547044,2.4163204065,0.0762239709,529.1347990328,529.2763138574,0.6371452702,5974.8013285896,8179.4397255935,0.7675300643,0.8108671806,0.2515779002,0.1481987957,3246.7939734364,0.1693792348,0.4188802152,1.6811142104,2.1331501185,32.8442389491,0.3860243076,2.0021352022,2.022306879,2.3272889085,1.754300656,2.0580328844,0.1506305037,0.5294895946,21226.9292315751,0.4721842045,21227.5140000897,0.5023977918,0.6293398363,0.1310297301,0.1917822256,0.3144675091,0.5014339325,0.5589215613,2437.4808919156,0.1423133011,0.3316417766,0.6873934429,0.6498194988,4855.3885353461,6277.2853493004,23.1617123209,313.1379415755,2.3804327874,0.935908806,0.3869288235,-0.1000583715,2.6491411287,0.0593799439,0.6360987393,1.6570647418,-2.1365751551,-17.2145544816,0.155812279,0.1361425721,-0.2650774936,-0.0939249768,0.1073157779,-0.0123747319,-0.0563282832,-0.0376494571,0.1795502171,0.1822600754,0.9775833397,0.310730146,-0.2086136713,0.3040178151,-0.0197930263,-0.131118572,34.5430796988,0.3413911503,-0.1100367785,-0.9283079551,-0.1185413793,0.2841222468,-10.3106960303,0.3918055036,0.0032410277,-1.9901823458,0.5525814348,5.0330268561,-0.598069459,0.2283985717,-0.3522334589,0.0146469105,0.2936812721,0.0872775118,23.8879969299,5.2122622916,0.2536033856,-0.2885165195,0.2242288698,0.0787638718,-0.2548324919,-0.2911936148,1.2042107819,0.2437453701,0.1982322824,0.2697179171,0.253003492,-0.2275970455,0.3190040512,2.3989015519,-575.6900175513,0.270625165,-2.70379869,-0.3948839082,0.1528050005,0.4978329431,0.4749421701,0.2653339997,-0.2747943525,-0.3077079193,3.0210382854,-0.0585811493,0.1405353533,0.3534742207,3.342980798,-0.0595304476,-2.4638431134,-0.0377630845,1.8937094411,0.8712139418,0.4294614939,0.0242026122,1.6085292172,-6.1907936257,0.4125488823,0.140136987,0.6130757141,1.7620711904,1.518322424,-3.1417288497,-4.6184565813,-4.6519035033,-0.3729087755,0.3500477811,3.9489496115,9.3276616722,-0.2943592124,0.7853660543,-0.2278034091,-0.0817745844,-9.9556259775,6.2787430936,-0.060090399,-0.8880819365,7.5106407649,0.5694324474,0.3384140211,-3.0519961692,-10.0036235866,-5.6591836093,9.5857902654,-3.7940688842,-0.0419791821,5.2353761322,-0.1085633893,0.155459777,-10.7923952253,4.1316252822,0.2068273589,0.0819419666,0.2346182271,0.9921901684,-0.0140416441,-0.1122105417,0.161386063,-5.6410915835,-1.065011487,0.6061746132,-0.0539908963,0.0337574975,-0.0781446483,9.8200159751,-5.522574721,0.7369758391,1.9787113504,-0.1070553583,15.8847746874,1.2096570727,7.0622764203,4.2982133506,15.3371192595,-11.1543873672,0.2951569426,0.3906771422,1.1707575284,0.3233575383,-1.9104956762,-0.3965429682,-1.7348737908,0.1351118671,0.096757046,-0.1257127107,-0.4068186469,1.5568800891,0.2874843873,0.0817590854,0.2634752201,-0.2164907381,0.2478038006,1.2910998766,0.3041949447,-4.8113211388,-1.0297275956,1.0281670362,0.9310293956,-0.1101422006,-0.2391499263,0.2193112667,1.2403030985,0.4930952367,-0.0305563852,0.481120874,0.2494462649,-0.3190176526,0.2985494848,0.0412127502,-0.8620954825,0.385672144,-0.1817036019,0.100988192,-0.2155151066,0.0407154116,0.0064392946,-0.1953646444,0.2121766519,0.2242053465,0.0511620636,-0.1910072343,-0.1947429602,0.308194227,-0.223609814,-0.0761578787,0.2022276077,0.026865398,0.2919649256,0.1065345846,0.6242424007,0.2723030861,0.0985753502,0.6967245159,0.5406776837,0.3582430479,-0.329718243,-0.1377702116,-0.3177718368,-0.0519697393,0.4502577331,0.7001221088,0.4142079661,-0.3754864721,0.2569772256,0.4955272457,0.1896808541,0.4062541723,0.3894761846,0.4685433616,0.4963782624,0.5451983715,0.4817334536,0.0034990498,0.6532691685,0.5034366065,0.2579188208,0.2728147368,0.3287757474,0.4756438824,0.696402079,0.7103883005,0.168544254,0.2374599873,0.4938807285,0.2188161374,0.6291195322,0.5717577331,0.2451165721,0.0902172215,0.4945147399,0.0748405955,0.2406122661,0.306791198,0.73941354,0.0298930688,-0.194297696,0.4180273693,0.2367250421,0.4629870319,-0.1022365258,0.471513294,-0.0853925756,0.2793177318,-0.124755902,-0.2853518775,-7.2845692156,-0.0387214092,0.1762102858,-0.07579825,-0.2423222643,-0.0285460944,-0.1488722306,0.3682342103,-0.3183070877,0.0164040124,-0.3281279785,-0.1784696384,0.2029276898,0.6204534456,0.2793089474,0.6622909412,0.2827491089,-0.1569460308,0.2435741818,0.0028905775,-0.1207240232,-0.1386554343,-0.2827692889,0.0724333173,-0.8223797391,0.1016835099,0.0398719791,0.1797896368,-0.2412783094,-0.1100239016,-0.1500586395,0.0931527284,2.7168830671,-0.1973671901,-0.2801669609,-0.1050552304,0.5730195491,3.9731345693,0.0860970076,-0.0230671065,0.1882920329,-0.4082821283,-0.0932526302,0.2830416542,0.000568819,-0.3810016507,0.5983357278,0.1700300642,0.1589158679,0.3400064926,-0.2898080587,0.286294504,0.3052681151,-0.726152108,0.4004773845,0.2504335976,0.0322468475,0.5290668519,0.3391644947,0.0804691527,0.414504401,-0.1241676525,0.4475825307,0.2505026797,0.0060135075,-0.0929036064,0.2640635182,0.1778094267,0.2009989433,0.3025664368,5652.9879680057,1.0850339559,0.5703644864,0.2704830527,2400.0774998972,0.4319941246,0.0328872938,8.4341176007,1770.1416810422,4.4862335617,0.335625305,0.6965171346,0.2775206839,4314.4682250954,0.2833634656,0.7291817736,14.1513390475,0.8957002774,0.2996535882,2598.2289597519,0.1714565501,3623.6301680232,2.390683875,0.4078601119,0.245316251,14.309468146,3451.6118640433,0.4507682113,0.0623246716,0.6341775629,0.0918410661,18947.7265038308,1.4926220997,0.099712894,0.4072624461,0.4464062757,0.6122424211,15.7508027389,0.0683296584,0.1078884127,0.2719009249,0.1935782468,0.2099064036,1955.1145929838,0.6518423551,200.7823070059,12498.5829215177,18098.3612985279,6.0221059056,3883.9572870742,5365.0998799713,1.0061560547,1.8407586705,0.3514334265,5.6566173433,0.6442203353,0.064086642,1.0338950779,0.5752466227,0.6436419289,0.4695668871,0.4647787375,0.3846363717,0.4579035984,0.5389402337,0.3523946771,13400.2861347974,21.7256403912,0.8983175079,0.3864262854,38.7510881743,0.3133583403,0.6689031628,1.4956470039,3.0493627996,8015.1328561982,473.2864449637,0.4371851968,0.5545669551,4.2064880134,0.1283926346,0.5278687822,0.3766075864,0.6645213961,1.544298188,0.1218856898,0.5701893686,0.1315404543,1.355079955,0.6947617329,12.073800834,7.7735290684,0.8868230722,3.3022724822,151.0094006768,0.2837375608,5.6547623632,44.3954487086,0.1338869477,0.7368284628,0.2364339823,0.1589296465,0.348376118,0.5362872433,1.5721841941,4.0069377792,0.3989250823,0.8050251191,0.3166874429,0.3045482251,88.6652462168,0.5495556951,2339.7695492475,2.163165137,17.2014655984,-0.1369215036,0.2477181935,0.5037185314,0.1996178446,0.239259227,1.93896226,4.7376965672,8276.9191611743,4.2892821554,0.3386020001,2108.6370101272,12.5179950229,0.2267797439,1.7883234256,5.926552144,0.2556248357,0.8880881763,0.6151463811,0.6300864652,0.4444702266,0.6190585889,1.0435747843,0.3581484061,1.8823604883,8.7493212729,0.4649304969,0.2679178114,0.69132688,0.415299167,0.1114472078,0.0939719762,7136.5653176649,0.0683523929,4384.9650813323,5415.0568194347,0.6578339584,-0.0093202217,22.823252779,0.2885424599,0.6834432887,8.5075386559,0.4649447091,0.4011890538,0.6742317841,0.0702054346,-0.0071264283,0.6170217146,0.3758448631,0.4686884064,0.6814458192,0.1286486781,0.3878498516,0.241354707,0.2469178814,0.3827223359,21227.260616414,0.5715247663,21227.46844011,0.5939587231,0.447525237,9.6010402564,9.3217202428,9.5312290985,9.5481687613,9.6386708021,9.7623982821,9.9098250888,9.7930806145,9.7985366779,9.490232209,9.342574355,9.6821210316,9.7041209298,9.3986647051,9.2487756012,0.0511761532,0.27626826,0.30685004,0.4039536532,0.103358351,13451.2851676949,0.4064915587,0.1640860149,0.3579064381,13183.8169076944,1705.8872560168,13184.3146469034,1705.7159652245,0.150737415,0.3123282244,0.5951166985,2.298966087,2.4312404634,1.6378264728,1.5201889187,1.1182797764,1.2502901301,1.3201515092,1.396266324,0.4357655598,0.5931882927,0.0550958563,0.5914571234,0.1374145092,0.5206261658,0.6899427465,0.2610864627,0.5224180979,0.5311844338,0.0190590081,0.6478739323,0.6198661451,0.2802368214,0.5799265862,0.3441756988,0.4120541956,0.2980130592,0.3051866902,0.5720423282,0.5666760995,2.3084019043,0.4673883843,0.3978552377,1.8079794714,6.0528644058,0.0674753424,0.2626434981,0.162383751,0.6396556466,0.1550038916,0.1526782223,0.1124101873,0.847310094,1.8503780904,0.2664712512,3.7755103952,0.8810523321,1.3257306674,2892.3060630865,2892.3974718698,2.2957468551,2.597851687,0.8965383968,1.2516986025,0.0147212233,0.6794848932,0.0579707457,0.0604071432,0.0861120659,0.6017983375,1.7797890448,1.736964656,2.0535232536,2.3115595904,2.334173583,1.9206898169,1.9060002961,1.7759507403,-0.0760427782,529.0036448181,529.1794628201,0.4708798429,5974.3684766019,8179.5611506111,0.2046748317,0.9161719138,0.1550860016,0.337359519,3246.4391356503,0.7562077529,0.2923184292,2.1729049187,2.1725758374,32.6775175973,0.86500239,1.7820265963,1.9984126269,1.9130652663,1.9703939849,1.8874872446,0.2414038336,0.3107389895,21227.5195258407,0.1708952159,21226.9168323955,0.3205462294,0.4253422485,0.1932852719,0.365272373,0.405552391,0.3216044139
   0.565796816,2437.2068703081,0.2541045158,0.2704435544,0.7003816311,0.6436334822,4855.4207916181,6276.8142871668,23.4144278208,313.7618478967,2.820574516,0.2881004116,-0.3806827419,5653.1519407482,1.3851938469,0.5784121151,0.4903378288,2400.4551631918,0.8140308115,0.0052615625,9.1351480423,1770.6766577326,4.7681581469,0.3183427496,0.2249053879,0.0530416117,4314.9594728066,0.1803832926,1.1342112598,14.338458938,0.5501479758,0.2218319362,2598.1433322574,0.6802077195,3623.7190317769,1.9741790065,0.2947222233,0.1924244393,14.2791582514,3451.5306166201,0.7760870527,0.1806586693,0.3647935168,0.3556083204,18947.3395511142,1.1758199276,0.0789824576,0.152624353,0.6289317302,0.5100489602,15.8993907176,0.6614448041,0.1185887175,0.3733747656,0.3420067285,0.4832739909,1955.120427563,0.5757161112,201.4539097603,12498.7472945739,18098.2558996749,5.7466117525,3883.4530217487,5364.9761487027,1.0042278432,1.5219380593,0.8704090058,5.8730775,0.2051843958,0.1336629542,1.4563065466,0.3553304995,0.2903068207,0.5425169473,0.3460253704,0.0823452358,0.6754835228,0.1441951022,0.2970216899,13399.9942090115,21.8630380848,0.332515022,0.5129606662,38.5209046754,0.3711873286,0.6350731204,1.9761684772,3.1925948347,8015.6953972833,473.6135198411,0.708364587,0.3422166045,4.2552339101,0.5206865498,0.4202313106,0.5828856855,0.1080361577,1.6164587685,0.6753471979,0.2233442169,0.5091507486,0.9899314323,0.1305115271,12.258764976,8.3239933148,1.0074858243,3.6012193048,150.9632891645,0.2235530805,6.0878982985,44.1994482397,0.0089384164,0.7125968949,0.3700958868,0.6876346817,0.4074555393,0.0116870068,1.5883324296,4.2260295239,0.6175168028,1.212251947,0.6648453707,0.5535013973,88.8617240814,0.5985520944,2340.5036011517,2.5210992162,17.3389460119,0.5954819568,0.4316966958,0.1272267793,0.4200081708,0.5575027552,2.3368963265,4.5276535594,8277.0796693183,4.4715591449,0.6220910741,2108.5795299709,12.9369788266,0.2874159124,1.9462452046,5.5663745832,0.5348489966,0.8843861621,0.1158785743,0.5437815584,0.2658707984,0.7476930935,1.1044317629,0.4344371846,1.5881696991,8.8780444458,0.1969804811,0.6452590918,0.7316649915,0.6932257839,0.2786293416,0.7350149509,7136.2338447025,0.5721902856,4385.0947003328,5415.1904602843,0.605699816,0.6420797607,22.9919462165,0.7446555337,0.3760549144,8.4473902441,0.4675233624,0.04730086,0.9321344807,0.2338120418,0.4168898792,0.2405809299,0.2782309565,0.5802232046,0.3412845051,0.3633452178,0.1758916954,0.8221735512,0.3254340848,0.5388064766,21227.053086812,0.4052519226,21227.604803975,0.791135728,0.6966155884,9.7548169372,9.6573051478,9.6083205062,9.8519293969,9.4997100513,9.7196467718,9.7701518531,9.5030906184,9.6470430253,9.8361342935,9.3843745109,9.3341576214,9.6274283586,9.9051849631,9.7354476422,0.3504586405,0.6084666135,0.3135185046,0.6590155116,0.4109516515,13451.6396361943,0.2986518947,0.5271883402,0.3230371509,13184.46369123,1705.7122376212,13184.0645071679,1705.639350046,0.0353490491,0.4368908845,0.705343618,2.4298119511,1.9588890438,1.6875212122,1.572895938,1.4662379905,1.2281079471,1.4323862699,1.0721014698,0.7033891333,0.0806059154,0.4311103787,0.7032335665,0.3453683414,0.1935712166,0.4944489775,0.1874434201,0.2807795638,0.2281131813,0.3712656945,0.1872341009,0.5412307562,0.1152913928,0.490143136,0.5564847206,0.1124422978,0.5568276212,0.1853661865,0.6916410594,0.2183751294,2.5580948156,0.5141969472,0.8069923684,1.990474055,6.1335665005,0.1441901035,0.3576616248,0.3761422688,0.5197250159,0.6291435528,0.2870900418,0.1719326443,0.3530383666,1.9374662236,0.9749514265,4.354510307,1.2506226697,1.1554546571,2892.2862235117,2892.6574924371,2.8908461006,2.4909267639,1.3352162993,1.2678359237,0.7365452983,0.1993445794,0.1069191407,0.5227774968,0.5061899395,0.0087124065,2.335659081,2.2644607252,2.1695641539,2.4072580192,2.0665814621,2.0707807565,2.2147231334,1.906631846,0.1725136686,529.4825923022,529.6943619878,0.4521055246,5974.6019592039,8179.9430153648,0.3339282392,1.0638756607,0.5652470929,0.096750116,3246.6113553706,0.3512141608,0.1380934353,1.9720174738,2.3403969081,32.3530995467,0.5765686303,2.4120367564,2.3717076274,2.5079038106,2.4369989113,2.0445429158,0.174390832,0.3580979979,21227.4680333918,0.5821765552,21227.6316357506,0.7325738072,0.7197954267,0.3951241578,0.1346471234,0.8057073542,0.2111933846,0.3845407374,2437.476445908,0.8216382545,0.5953852877,0.2300901246,0.4065159315,4855.4590788545,6277.1283275042,23.8719763766,313.6553889557,2.9317410358,0.6217237302,0.1712739059,-5649.3481028593,-0.192988234,0.6309028942,0.3268809775,-2399.1380321838,0.0290953675,-0.7381843659,-7.2195359554,-1766.4105833407,0.0938973876,-0.2158061681,0.3625724883,-0.1846837302,-4311.7807914124,-0.2363472663,-0.5950072261,-14.2615836629,-0.4019066809,-0.4357589407,-2591.1266436083,-0.1310858588,-3623.1905007373,-0.4542094746,-0.9224412287,0.3740272178,-12.9724649567,-3451.2505706014,-0.2248663701,0.4432058558,-0.0756375682,0.5024125229,-18373.8165519592,-0.1588212407,0.1269772309,-0.0325756607,-0.4713265115,0.3293100988,-0.0937629252,0.5953070952,0.5624801023,0.1888405891,-0.5191136796,-0.6263948276,-1955.0163215159,-0.2630443566,-12.7558058317,-12498.3504804706,-17707.0929081561,-4.8951143927,-3881.9503302182,-5364.1397982444,-0.8235597832,-1.7284890503,-0.7080908852,-4.3264760784,-0.3392426211,0.0852878938,0.4962082327,0.7033151329,0.0941873548,-0.3327505869,0.3220834943,0.3934692762,0.4979942884,0.0507634009,0.6791563795,-13399.5968565365,0.5688409166,-0.4947963759,-0.4965330194,-38.5086347146,-0.7469995454,-0.6002588485,0.2150067183,-0.7603754611,-8009.437180905,-469.639226252,0.5757300551,0.6413772993,-1.5385138002,0.2339153854,0.3801705127,0.6361133788,0.274706464,-1.1047836023,-0.3478617233,-0.5014462874,-0.216960428,-0.7280061207,-0.0726045083,-10.2985232479,-6.2864983498,-0.0444295169,0.4073955106,-73.8201064177,-0.1301027068,-5.7477485969,-36.1456942171,-1.8770594133,0.4346422864,0.3851996817,0.125982265,0.5984442916,0.5677238436,-1.1646194792,-2.5206443888,-0.184412305,-0.5644619012,0.1734795978,-0.3554104513,-87.9782430589,-0.0543708354,-2340.075544215,0.7502952158,-18.5748330472,0.0022511491,-0.0538330179,0.4978670371,-0.1112500948,-0.367619147,0.1098746113,-2.5824538437,-8273.2293493305,-5.1902016267,-0.1033143017,-2108.0990916092,-12.1009445633,0.0505335334,0.4649311628,-5.5050269406,-1.0054712919,-0.2647236267,0.1349065018,-0.0235716779,0.1490196604,-0.1600809421,-1.2079428652,-0.566688265,-1.1298213028,-5.1793743535,-0.4916574881,-0.5207778332,-0.6776160231,-0.5409692854,-0.2463840482,-0.2563082364,-7136.2624706716,-0.2864601641,-4385.1806540994,-5363.0317124089,-0.4357236225,-0.2619158724,-23.2131297598,-0.3920173523,-0.0277028558,-8.3917018931,-0.3814312488,-0.0259425666,-0.684514317,-0.2319959144,-0.2840948342,-0.2347764224,-0.0622879295,0.0669006018,0.1595185074,-0.2336172029,0.5157138372,-0.124116451,0.1032285108,0.146002971,-20275.7121536399,-0.2507426994,-20275.6619249112,-0.0911840671,0.1943692181,-9.4374195466,-9.1023417499,-9.5649712565,-9.2737011665,-9.6864275308,-9.4620059944,-9.1889922486,-9.1512744172,-9.2474768288,-9.5694634382,-9.6273038229,-9.4248230915,-9.1957684081,-9.2387699701,-9.11622123,0.156215752,-0.222278984,0.5837900937,0.3832828824,0.4653115338,-13451.2558443211,0.2509048814,0.2890366981,0.2524648552,-13184.3626078403,-1705.7707035114,-13183.8287981508,-1705.8732161889,0.1149713285,0.0374461262,0.7036181812,-0.2846375794,-0.1807844075,-0.0075359335,-0.1094644103,-0.304179505,-0.3293555748,-0.0873127798,0.0039418114,0.1851046868,0.6841606705,0.4325746023,0.459328214,0.4457431113,0.3292688913,0.4936848521,0.236623039,0.5483260719,0.6258945065,0.4383675551,0.7077424834,0.6905899087,0.352525738,0.6997380761,0.3747661756,0.4165009277,0.496410692,0.5443597846,0.4100088184,0.5178641677,-0.7382485129,0.5505776296,0.1714503724,-1.7794204626,-5.020769187,0.1772930879,-0.3235960157,-0.022347212,0.0431009301,-0.0616143346,-0.0258338486,-0.0004528705,-0.6888662091,-0.3501529496,-0.5168753288,-0.3423265881,-0.027017155,-0.5137458009,-1867.5807961496,-1867.8854403297,-1.1132186333,-1.0561969525,-0.9831765383,-1.0401753747,0.0814040322,-0.1518654324,0.2203871386,0.2029642333,0.3338018938,0.1913719198,-0.8664441039,-0.3691969954,-0.7230268609,-0.3429926704,-0.3789579018,-0.3573046131,-0.6615705629,-0.6713622483,0.1196504075,-8.5613761323,-8.2252674516,0.2015864945,-5179.8794914309,-8179.4093851461,-0.5425350733,-1.0183651882,0.012277267,-0.2610925592,-3246.2365360131,-0.1284638708,0.690450143,-2.0293091014,-0.6902060605,-11.2420949027,-0.209405263,-0.4970008922,-0.6198060137,-0.1908903819,-0.4182202417,-0.1697741539,0.3815461253,0.0154963255,-20275.442659576,-0.413916958,-20275.6243146776,-0.0623972623,-0.2236179022,0.0667052011,-0.2693928068,-0.3962180055,0.0290753761,0.6936321963,-2437.1256340371,-0.4558741182,-0.1493363029,0.0055299085,0.4971330187,-4854.6364204229,-6276.5652572104,-23.6001211097,-313.3239997264,-2.7043036139,-0.0529258397,-0.4856074619,-5645.5586455437,-0.8846030011,0.4252500742,0.2999367507,-2400.3263016553,0.0420528036,-5.511316545,-6.1799374115,-1765.5291518986,-2.4301962434,-1.2299219084,0.2165690746,-1.6136241156,-4316.253871907,-1.1457669314,-1.0198988043,-14.8729180631,-1.8957216495,-1.4401521544,-2594.7806012577,0.7188498851,-3624.2809242455,0.6706733717,-4.5058831792,0.6782562226,-13.2285193107,-3452.3376036378,-0.6165343306,0.4656842161,-0.8991995401,0.0114050372,-16123.3696152819,-0.9538598605,0.1926947273,-0.6483719796,-1.0000332913,0.5896758391,1.2377971163,0.0044838345,0.2139837318,0.5749352521,-0.7496615346,-1.3677490928,-1956.2663709061,-1.0012178309,6.3258294967,-12498.6250068841,-13338.3727096463,-5.475998622,-3882.8007521503,-5365.930848753,-1.5505739417,-2.364127506,-1.3328477111,-3.3647482463,-1.0981007273,-0.9851188793,-0.6290746693,0.2900169469,-0.6942991215,-1.2154513439,0.7028454756,0.0646889891,0.4629447285,0.5207057689,1.22173312,-10112.4937599177,6.7781978325,-1.0977213436,-0.8522371451,-39.1833325689,-0.5665417046,-1.1835715252,-1.3108531287,1.6594631275,-8053.9166440452,-474.0154137785,0.6011241407,0.3901897687,-2.227403036,0.0044499954,0.2806383701,0.6723646621,0.394406042,-5.4764246332,-2.6230370733,-1.5659573728,-0.5834875823,-0.8874607321,-1.4274711342,-11.610258286,-0.0938391829,-0.0218069549,2.380137975,-50.8568227176,-1.1256930052,-4.3939826688,-36.6921357797,-11.3085406534,0.5118195318,0.3696197101,-0.1646768978,0.6570028174,0.6184489891,-1.6050071088,-2.8469930008,-0.1127942646,-1.0690380393,-1.2054206618,-1.8520954191,-89.2747875487,-0.7862823728,-2339.4663197403,-0.6432659918,-30.0207981224,-0.9138043518,-1.0465398329,0.4143542715,-0.2705821653,-0.9981923581,-1.3516108595,23.7908007879,-8276.437707631,-12.7280247562,-1.2325468371,-2109.1031115706,-13.4721786392,0.018259317,-0.6698995144,-2.6351006675,-5.3241059763,-1.7619728276,-1.2134278121,-4.6194856683,-0.7414586472,-0.552369356,-1.26859544,-3.4171567194,-1.0424506384,-0.9404465013,-1.2189308059,-1.4301596261,-1.0441906331,-1.3185158468,-0.9441071588,-1.73610136,-7137.6207812735,-1.3737250308,-4386.630197929,-5390.9294760689,-1.2198757379,-1.0735252678,-6.2292351558,-0.6880479099,-0.8386763981,-8.9889808116,-3.5530764467,-1.4028550739,-1.3525749254,-1.3195617711,-0.4209495917,-0.643516395,-1.1372053047,-0.9479881582,0.2006213764,-0.6361697913,0.531115517,-1.0664770652,0.7008612562,0.3775632248,-14387.5437975919,-0.8488040758,-14387.3253419568,-0.9227231521,0.5649457711,-10.0021745569,-9.9715784035,-10.1197686431,-10.3369270162,-10.004876709,-9.802143005,-9.9899763153,-9.9513787795,-10.3686242684,-10.3534121554,-10.2272040762,-10.2984959363,-10.269017365,-10.0912510984,-10.3920270409,0.5749812639,-1.3627044877,0.1810523059,0.1651684086,0.4993954679,-10084.1717532591,0.451893066,0.7085153392,0.5839204861,-10548.822454769,-1706.3598873361,-10548.6699280416,-1706.4052410858,0.5492850235,0.5633752712,0.4228496645,-1.2913743963,-1.7067497849,-0.3044267088,-0.4796277915,-0.5061380961,-0.2427256592,-0.1978164416,-0.8154028439,0.1506394932,0.2131742495,0.3481363393,0.1023775883,0.2547523058,0.1933742198,0.6898069007,0.5065666236,0.4290260426,0.4623354932,0.6076370486,0.0624623485,0.229432049,0.5060170726,0.1089280072,0.4993397664,0.626361057,0.1425272461,0.4200930509,0.5583869587,0.2411817868,-1.7186420713,0.5467158067,-1.2102744983,-0.0648795218,-5.4314338568,0.1055898675,-1.0828545649,-0.8274116971,-0.7164831512,-0.7910569496,-0.667700049,-0.8614099491,-1.2101757088,-1.7173631204,-0.4549140547,2.6052838414,-0.5675683623,-0.5038437392,-0.8074499222,-1.0409111902,-1.5786416502,-1.1346530434,-0.1790222719,0.0130579492,-0.7760972302,-0.7975323344,0.6924965385,0.0861257912,0.5495202556,0.0510249508,-1.1573082651,-1.7840572255,-1.1572245277,-1.4822399221,-1.4179974462,-1.6783584681,-1.1576276216,-1.4129422807,-1.3162475045,13.7395640569,14.0786112102,0.2477565373,-3457.6748932123,-8180.6604702776,-1.2879227291,-1.5878892869,-0.8089714538,-1.0435167544,-3247.2174181226,-2.054185206,0.6534621576,-3.5578993186,-1.3510810314,4.4613465323,-0.7805266779,-1.5527655645,-1.3247618921,-1.5565054108,-1.2561760997,-1.2867357391,0.3240391494,0.0655005609,-14387.4374121452,-1.0762141533,-14387.4205825167,-1.0943576682,-1.280512862,-0.7008466142,-1.1862387463,-1.1125478316,-0.9052566466,0.5046513082,-2437.8487634676,-0.7563387148,-1.0599996238,-0.7683848638,0.4655383008,-3191.7978910512,-6276.6539971554,-15.789944105,-314.2696465344,-3.7694896052,-0.5972132422,-1.4002733262,0.299346072,4.1873134279,0.6121858732,0.1466565606,-1.593020425,0.4629208605,1.0439181582,0.2639943918,0.1248197568,0.267178149,0.9070684789,0.1541798077,1.2810331873,0.462163952,-0.2094101211,-0.5084813758,0.3631449088,0.3369841037,-0.2768207597,-0.1677332116,0.0890512852,-0.0120992436,8.0949149466,-0.0038623934,0.4899969749,-1.8439543973,-0.7861113721,-0.1604933687,0.1564216981,2.0667298159,0.0399979407,0.1811656656,0.4013251207,0.0096141127,6.5291252935,-2.0980659024,0.2092368013,2.6112319944,0.6695450112,0.1051962903,0.3692321055,0.6986935494,3.8813180922,-0.1405150175,-0.3341316342,0.2714026388,0.0931848118,-0.2484349893,0.4275963499,-0.193539377,-0.1765088811,-1.5011834142,-0.301759282,-0.248376691,0.2135462272,1.4376487327,-1.1267236763,-0.0370069133,0.2151047342,-0.3166832652,-0.3458637696,0.2714736753,0.2883876221,0.6255718771,0.4260594282,0.7416357659,-0.1556484932,-6.117069979,-0.3277412123,0.0330023505,-0.2443007126,-0.6539106217,0.2132073848,-0.17336805,-0.2707453365,1.1200007659,-3.4893947629,0.0905754167,0.6768640326,-3.0115287226,0.0587170837,0.109293671,0.5553791412,0.4325666211,1.0904477965,-2.6782632945,1.2849641708,-2.2749870345,-2.4521774374,-0.8691911564,0.0104131375,-19.5312321742,-1.8336100981,-0.2609589113,0.8786604365,-9.6514755883,-0.6595907952,0.624842481,-3.3466496398,2.4466894447,-2.5780096279,4.169400704,0.6649204927,0.4565365483,-1.3402133657,-2.1569213472,-6.1128964335,0.0018971316,1.8488292219,2.7510816496,-0.3633158696,0.6442048462,0.5849590668,1.4327805246,6.1878324615,0.2259867862,-10.4625538521,0.1847580742,0.0891769841,-0.3190371544,0.1125559787,-0.6293226686,-2.055309369,6.5691616213,4.8168507072,-0.217510532,0.0223127053,-0.6122877369,-1.373461593,0.2697978218,-0.7782735858,4.4201673149,0.1967070378,4.008440965,1.6892283981,1.8166402753,-0.1065382719,-1.3282179528,2.8759479611,-0.5608403626,0.7420303576,-1.6397679779,-3.0412141871,-5.7805140792,0.3143187895,1.9317133036,0.6856007774,-1.1787141873,0.4206541934,-0.0568640901,0.3719921436,-0.3621844899,-0.197561909,0.3181613288,0.2787030076,0.2872732642,-1.7123175569,0.0921059708,0.3044620112,-1.7968921877,3.0362060186,3.1242512549,0.2377870862,0.2377001563,0.2757605045,2.653516908,0.472996238,-0.1796167557,0.0026040763,0.6212434714,0.2407887777,-0.2127491303,-0.0186484962,1.2245325425,0.2766350614,0.3871004546,0.409880897,-0.1158103475,0.0863846287,0.5125633484,0.1281664468,-0.0066784599,0.1898150102,0.5463955069,0.2507980563,-0.0049965172,0.0421987389,0.1803903169,0.3195849659,0.5149771188,0.3009164325,0.1196681423,0.5817691737,0.5884731126,0.1968971655,0.3229907329,0.6042314477,0.1124227409,0.691492234,-0.0521029249,-0.1824828662,0.0276798169,0.0647972197,0.1222236354,0.1933111876,0.0626579904,-0.7378865894,-0.6019719078,0.8530204744,0.4255444046,0.3788979849,0.7740880686,0.7830377451,0.6255644638,0.167697398,0.6026861359,0.4593864882,0.0046842851,0.4241827391,0.4634557681,0.1186607902,0.0550585645,0.4998663969,0.2412260954,0.4318570602,0.0907770138,0.4909970799,0.3447866018,0.1683786473,0.0140391963,0.4235320666,0.0268673188,0.3524379848,0.4326200154,0.3498921948,-0.1555414635,0.4089956623,-0.1851601726,-0.0969020405,-0.0501961821,0.582566815,-0.2685099345,0.2687435566,0.0740482649,0.185205643,0.0603368494,0.2924389586,0.2478140004,-0.3244964216,4.7442536832,0.3090051927,-0.3475743518,-0.0196199543,0.3762887293,0.0064549028,-0.4073461811,-0.1281962165,-0.0010840464,0.3043782811,-0.6216764548,-0.2131551274,0.1604015617,0.401047246,0.4323601925,0.5738574709,-0.7124526036,-0.3379179918,-0.5106100786,-0.4157359532,-0.1460068652,-0.5893826555,-0.2864422325,-0.5925910447,-1.5080854739,-0.2600802164,0.2013076847,0.6413539143,0.0983661307,0.3440834289,0.176937427,-0.0109659926,0.456720712,3.0295753779,0.0233980283,-0.2431831636,0.1719970282,-2.0657508172,-0.2369501459,-0.121948735,0.6119957372,-0.7693631941,-0.2384393489,-0.2897212161,-0.1402823743,-0.3723081423,0.33424524,0.3525094271,-0.2144819446,0.3676924411,0.3260908001,-0.2628650649,-0.2750023988,1.6343107973,-0.0204683026,-0.0763414542,-0.0356914437,0.1743304167,0.1222055425,0.2761839447,-0.0085423244,0.1892530133,0.0170053609,-0.2371408777,0.3040447643,0.0115557877,-0.6341121353,-0.2169759391,-0.3230796087,-0.1678541511,-0.0988619055,2.4058370748,0.2216147188,0.0727572464,0.3740875691,-3.5033447867,1.4470703648,-0.0217990136,-1.3115525355,-0.2167885333,1.2347172176,0.1336545011,-0.0774264047,0.3524207523,-0.4868993425,0.3465954446,0.6193758692,0.4285706777,-0.0863726599,-0.1069135614,-1.3307347926,0.1758324955,0.3754738983,0.2227153533,0.1156890818,3.2513298193,0.1563966207,0.3653818755,0.3116116551,-0.0760280231,0.0324952942,-0.187713707,4.8762949497,0.406151753,4.9209946911,1.8545668134,0.6831535896,3.8751525082,0.3529280093,0.5439275709,0.1246807546,15.692452922,-7.0451658475,0.2827386368,-0.2760837949,0.3043478402,0.0337220862,0.2254452359,-0.2502566506,-2.3595893061,-0.0705112396,0.2411362598,-0.3586248995,0.2297474223,-0.1921150285,0.3362116298,-0.3264435606,-2.0869644683,0.1591257758,0.0231805926,-0.6138411292,0.4956667729,0.3069083739,0.3781931135,0.2372336431,1.3845311437,0.0891213722,-0.1618896046,-0.1088992949,-0.0678675312,-0.2401200503,-6.9915326605,0.2814704123,-2.5666909669,-0.1266329039,1.0483854328,-0.2841581372,0.2206603591,0.194451552,4.2454340386,4.0801601631,0.1001422967,0.3028340138,0.1125559926,-1.4229508251,-5.5795643928,-2.4479191439,-0.6883189841,-0.3256062877,-0.9562709252,-0.1611219318,-4.2525925261,-4.9686961098,0.3218726166,44.5475795029,-11.5010434546,-0.2392650181,-3.1449156799,1.4770718011,-0.1301717241,-7.5013351563,-0.3156309831,0.2720813775,0.0911379778,4.514640798,4.5770162186,-3.8212555725,-0.0037754734,0.2906678516,0.4045334374,-17.0190313631,0.5936303005,-0.9003584515,0.3799484457,-1.019029942,0.1207021177,19.3279422031,0.167500211,0.7290570464,-0.1161432808,-1.4116305112,-0.3550476276,0.0275539436,0.2933344424,1.515377689,1.4898156485,0.1507550415,-1.5420030315,-1.2873712951,0.4387678386,-0.9394956652,-0.2259911086,1.8830405498,-0.2081655454,-11.5412994735,2.0122663604,-0.2768008828,-0.1602577537,3.1463682713,-0.1622480852,5.178985905,-0.4129927896,-7.5299822953,-8.7153621662,5.0828884505,0.0045839205,2.2694773204,-0.2861681899,-0.0438812984,0.4008280102,5.2004350158,-0.10049673,0.3746840343,0.1140122904,-7.2148612166,0.2415199272,-0.6210444393,1.4141646301,1.2960014234,1.3733755726,1.5176933419,1.5511858917,-0.3320893614,-0.2541606794,0.3086844592,1.7155075634,0.5332030964,0.0240213086,0.4227815963,0.090397799,-0.0181036891,-0.6397292827,-0.0274576193,3.2516229235,0.2007464177,-0.0159580546,0.1407873615,0.2772402817,0.4239186176,-0.1722285906,0.1183790957,0.0698665788,0.2482904103,0.184329244,-0.0822300158,0.1886899056,0.1689475404,0.2521980302,0.3157989632,-0.1171824526,0.4944318029,0.0059781491,0.0039250473,0.3016123436,0.6719218234,0.368723711,0.6637627576,0.1635425084,0.3833927956,0.0230157383,0.0863831767,-0.3038120533,0.2697816244,0.5588702178,0.2770035754,0.1319719517,-0.2870644128,0.126794749,0.2080492262,0.5261810885,0.3691209962,0.3218350569,0.5992581867,0.3904662642,0.0220151803,0.2089251302,0.5949028855,0.1051825019,0.4471552392,0.0449653886,0.4182051149,0.3016368851,0.6334576825,0.4045032519,0.6481258054,0.5675760197,0.3174927368,0.1852352478,0.6618815138,0.2786835883,0.5592237488,0.1794263499,0.1905814324,0.0950889658,0.6820286135,-0.108659601,0.4834797648,0.0640515765,0.0734862307,0.0057188123,0.1544494951,-0.2647420489,0.2292715253,-0.2313804255,0.0749626949,-0.3082078305,-0.2772408401,0.1802209391,0.226188977,-1.9993281577,0.3111464082,0.2517050904,0.12516994,-0.1654861464,0.1510274301,-0.3218923333,-0.0101383859,0.0896985933,-0.1966391868,-0.262585415,0.2167552513,0.4050402104,0.2301420189,0.2531852907,0.0544025802,-0.1538990602,-0.2300999382,0.3286033617,0.242641116,-0.0848013568,0.2408123635,-0.345904895,-0.1310837052,1.0969469703,-0.2135695326,0.0527264629,0.030091215,0.2586808967,0.1251356937,0.2830233797,0.0544375464,0.828996888,-0.6076529032,0.068347473,0.0208349697,0.2344506621,0.3353771245,-0.0114245621,-0.3006713098,-0.1592728394,-0.1495334146,0.2168600562,0.170281567,0.330358045,-0.1748750888,0.0243596091,0.1437825117,-0.3295980135,-0.4085505077,0.2673837194,-0.6037908142,-0.4844645052,2.9459507886,0.111976726,-0.3110955284,-0.4209583376,0.5383754697,0.2149107398,-0.2352272547,-0.3555123504,-0.1920631066,0.1429430802,-0.1864350769,0.2640047111,0.0368144934,0.064358614,0.3203865083,0.5393552114,0.1718270744,5652.7433709262,1.1513029329,0.5099008812,0.3167850146,2400.1549140736,0.0396536231,0.3735647526,8.7180183168,1769.9049084774,4.1681912584,-0.0039432438,0.3691404262,0.4568680632,4314.5201150425,0.3133197671,1.0192666689,13.998448263,1.0182269557,0.4860371145,2598.2543110384,0.4059781444,3623.3510824717,2.1667638728,0.3890042072,0.5114549931,14.4058037275,3451.8555526831,0.1210627039,0.2389713781,0.6197345616,0.6081105012,18947.2314139821,0.9892341622,0.0900478913,0.3160079952,0.6531973685,0.3663242256,15.9984718685,0.4051373407,0.6876664155,0.4481563795,0.6698957224,0.0999358024,1955.2425751523,0.4100185704,201.0989592163,12498.6493217126,18098.2392965493,5.6380836461,3883.8533004141,5364.8724858054,0.8126207713,1.5277110248,0.4244318633,5.762367057,0.1681406806,0.0790917255,1.300529226,0.2981777398,0.3025159922,0.3740137279,0.3126037804,0.5008701839,0.1183043376,0.6652341465,0.7502364725,13399.750106459,21.6316094588,0.8665179237,0.3462033649,38.4038906427,0.3386683344,0.6144091673,1.7076759845,2.78026523,8015.5024519217,473.0466299583,0.4254017033,0.5183239825,4.6358399454,0.2492307758,0.2743570983,0.3940254927,0.1249395213,1.625555957,-0.0914708566,0.6251184829,0.1331343434,1.2240176479,0.5237774947,12.0342582226,7.8340057187,0.256054913,3.2674835593,151.0755761702,0.340449615,5.6869548506,44.4137154153,-0.2677063849,0.8158658697,0.5374277157,0.4426387946,0.4184845751,0.2989304742,1.6720130382,4.0948337771,0.5493898469,1.1288137506,0.4549912643,0.4010530206,88.8810821145,0.6999134722,2339.872740187,2.0964512058,17.0411887048,0.2037848411,0.2008530458,0.507048664,0.5024470528,0.1835911729,1.7091688,4.6425061762,8276.8645766053,4.191129512,0.5181594334,2108.2217310283,12.9506031308,0.4072426404,1.2251079268,5.9355538568,0.187198836,0.4829338409,0.4303195518,0.9812806692,0.5553163397,0.2840344822,1.1313230101,0.3397362255,1.5699675885,8.4173226582,0.672200785,0.5027171741,0.2764554988,0.7939090905,0.0113563288,0.1927429543,7136.4060917207,0.6282895183,4385.0736745871,5415.2091762556,0.7362868994,0.5952257481,23.1584483033,0.0316676501,0.3341479442,8.5001644758,0.5031861147,0.1075237783,0.9653066356,-0.0578313039,0.6239465862,0.620148093,0.2096098705,0.500651342,0.4639768423,0.5437845228,0.4689240344,0.1476701515,0.3957170791,0.5802479167,21227.1128345147,0.328329923,21227.4146345962,0.5453306719,0.5935993809,9.6287423054,9.5737236954,9.8349385455,9.4142070231,9.4045735511,9.7013193904,9.2522937876,9.8593975673,9.4875302118,9.728371642,9.2363413943,9.4145050563,9.567882678,9.85622086,9.4483270505,0.6830464087,0.4587263278,0.6775754537,0.2612479168,0.3663478723,13451.76471879,0.4053979045,0.5552711183,0.3468186934,13184.210601757,1706.009548927,13183.9668445252,1705.5529585371,0.7110548534,0.1884238825,0.0237155476,1.8020339302,2.4382820671,1.3261861235,1.445288414,1.2479142551,1.6053707978,1.4684296848,1.2872960081,0.047825603,0.6468661645,0.0625844497,0.2714929638,0.6539802856,0.2141561487,0.2015663147,0.0310760504,0.6630385052,0.4874701536,0.1041243346,0.6224647148,0.5216792302,0.4561305436,0.6666764979,0.1685169175,0.0122601644,0.4973968019,0.6988112278,0.3316307998,0.3460901455,2.048562194,0.6923129775,0.5599312279,1.916790409,5.856872841,0.5271206106,0.3792149139,0.3636104268,0.0631056358,0.648694022,0.3181597172,0.4530895091,0.7206889425,1.9725380895,0.6381145578,4.0493058192,0.9770550337,0.8773382072,2892.5071362431,2892.6390190656,2.5464393803,2.2960906609,1.0989013557,1.0960629036,0.4491323235,0.0521456499,0.051065818,0.6921418054,0.6417946438,0.5923228056,2.2587407138,2.1981201572,2.3291117873,2.404145732,2.2737942548,1.9779810941,2.3847410994,1.9978842557,0.4926319437,529.1341052797,529.1346534488,0.1334649137,5974.6185345166,8179.3607183294,0.8287132186,0.7364746581,0.6750568324,0.2434183359,3246.9236291983,0.714316605,0.2003234231,2.3384393774,2.3780529885,32.6780688375,0.3075655583,2.2277127252,2.1554600701,2.2405590408,2.2838532653,2.2817363643,0.2534486872,0.6901618505,21227.4446795267,0.3283333278,21227.1935960874,0.4990787302,0.3583563346,0.4578757925,0.1865381139,0.5137051751,0.1533406019,0.7121679318,2437.8428274344,0.3920339266,0.7578010533,0.7647308667,0.0334674079,4854.8914257962,6276.6577855522,23.2105615157,313.3343919228,2.6893330839,0.6050957225,0.2444839779,0.5817410107,0.3600845067,0.1155901107,0.0864535246,0.0083175868,0.5072639728,2.9381969219,-0.2098671067,0.7304094417,0.3279707436,0.2221035283,0.2614544698,0.446468687,0.4580379801,-0.0838857271,-0.2343289886,-0.3970361752,-0.2114888141,-0.2243326887,1.2978796491,-0.1737430937,-0.2773306108,-0.5722490193,0.7378004954,0.60055908,-0.3495948134,-0.6501959328,-0.2366685242,0.3306538581,-2.3089365926,0.4873573925,-0.1456319717,1.65048133,0.2461230661,1.8745855463,-0.3191897026,0.0238394268,-0.5429334374,0.1969263439,0.1158973954,0.3382491278,-0.5167814195,-1.245314081,-0.0231723068,-0.3115855431,-0.0786473721,-0.0480016982,0.0491156939,0.0139925872,-0.2207428669,0.4359688614,-0.1110234457,-0.2222963334,-0.2613414664,-0.0357856269,-0.1832875449,-0.1805193213,2.990796156,0.1679879017,0.8389464753,-0.2903497842,0.2745653331,0.3700114755,0.0298702711,0.1901059274,-0.8723656145,-0.2617051098,-1.4881336134,-0.2343347778,-0.1197298544,0.0857273219,-0.2725200759,0.0117944699,1.910725636,0.598147088,12.0962948452,0.573448968,0.2323368837,0.625146343,-0.3421126806,-1.0534601624,0.2085331705,0.4501805544,0.2034830312,-1.3204900144,-1.7086540521,-1.4984246438,-0.2486254054,0.0448533118,-0.1839343836,-0.4102038405,0.2677139262,-1.2065964849,1.269721758,3.803252991,0.406406714,-0.0742261315,0.2636822737,9.6890588576,0.788038324,-1.2037896513,-2.3659412851,0.3081395131,0.6289634392,4.7150569877,3.6035525327,-4.7955213571,-0.2306258494,0.3897492899,-2.6904185057,-0.3501153211,-0.1051915035,0.2574154362,0.8761087376,0.1059605915,0.3076859912,-4.9472678506,0.6349628439,-0.1463217052,-0.104908003,1.6321040964
