encog,BasicNetwork,java,3.1.0,1,1392848029171
[BASIC]
[BASIC:PARAMS]
[BASIC:NETWORK]
beginTraining=0
connectionLimit=0
contextTargetOffset=0,0,0
contextTargetSize=0,0,0
endTraining=2
hasContext=f
inputCount=318
layerCounts=1,241,319
layerFeedCounts=1,240,318
layerContextCount=0,0,0
layerIndex=0,1,242
output=0.0030953208,1,0.0000594272,0.0287660873,0.4880068382,0.0000000053,1,0.2084222435,0.7153144163,1,1,1,0.0000000047,0.2162530393,0.0008821845,1,0.004144897,0.5008956657,0,1,0.0000000001,1,0.9999682321,1,1,1,0.0000000001,0.0000058695,1,0.0000000002,0.9983975281,0.3307949355,0,0.0000000007,0.8020236758,1,0,0.0021890467,0.0000000001,1,0.0000602295,0.0000012322,0.0000001898,1,1,1,0.9798455445,0.0000000002,0,1,1,0,1,1,1,1,0.0004422923,1,0.8898885175,1,0.1130417896,0.0000531305,0.7778388816,1,0.5482997139,1,0.0000000001,0,0.000000003,0.0000586227,1,0,1,0.4112723639,1,0.0000201938,0.0128938223,0.4673176376,1,0.0060721757,0.4743088005,0.7988967207,0,0,0.0000000026,0.7779478687,0.2217649229,1,1,1,0,1,0.0001740632,0,0.1370705365,0.8052868866,0.0000000001,1,0,0.0000000003,0.5082520113,0.7613527516,1,0.0003675747,0,0.0000000027,0.8082264896,0.9903110298,0,0.3463227165,0,1,1,0.9109633691,1,0.5986007538,0.9989188004,0.0043587248,0.0000061749,0.141220208,0.0000000005,0.0000000006,1,1,1,0.0000009342,1,0.0004205079,1,0.0000001455,1,0.9274441008,0.0012640768,0.0001054648,0.0001285365,1,1,0.0005721692,0.8912548377,1,0.0000000018,0.5433026499,0.110220762,1,0.6859506528,0.0033333779,1,0,0.8768678912,1,1,0.037820371,1,0.0000000005,0.0033589316,0.3675704439,0.8956491316,0.9984265566,1,0.0111570307,0.0000000001,0.0003353806,0.7076287971,0.0000000001,0.5589915711,0.512330459,0.9435026392,1,0.0025371371,0.9375512257,0,0.3045130406,1,0.9045812723,0.2922401047,0.0006936861,0.004548238,0,0.000023272,0.2906977503,1,0.0000000005,0,0.0260038301,1,1,0.9542192311,0.9533761892,1,1,0.6811102268,0.5780861768,0,1,0.9561085499,0.2617157596,1,0.7318018459,0.00002511,0.12297787,0.0602093973,1,0.3440822677,0.0511212737,1,0.9855968247,0,0.1480239423,0.2190017677,0.2843287402,0.0000608516,0.8644893006,0.0002358962,1,0,0.0000236085,0.1409072698,0.0000000001,0.0921696104,0.2382620774,0.8311593635,0.0326730543,0.552391923,1,0.0603443999,1,0.093813399,1,0.0219251113,0.9999999998,0.0000000008,0.6602745595,0.1110600383,0.4149957272,1,0,0.0000000002,0.0495733384,1,0.4499317795,1,1,0.01,0.01,0,0,0.01,0.01,0.01,0.01,0.01,0.01,0.01,0,0.01,0.01,0.01,0.01,0.01,0.01,0.0917276806,0.5463579983,0.01,0.5826816394,0.01,0.01,0,0.01,0.01,0.01,0,0.01,0,0.01,0.01,0,0.01,0.01,0,0.01,0,0,0,0.01,0.01,0.1608511578,0.99,0.99,0.01,0.01,0.01,0.01,0.01,0.01,0.01,0.01,0.01,0.01,0.01,0.01,0,0.5,0.2000006297,0,0,0,0,0.99,0.5222732585,0.01,0.99,0.01,0.5599887405,0.01,0.99,0.01,0.01,0.1048387097,0.01,0,0,0.01,0.01,0,0,0,0.01,0.01,0.01,0.4629792842,0.4686327778,0.5181755544,0.01,0.01,0.01,0.01,0.01,0.0139252333,0.01,0.01,0.01,0.01,0.01,0.01,0,0,0.01,0.01,0.01,0.01,0.01,0.01,0.01,0.01,0.01,0.01,0.0595702082,0.255,0.01,0,0.01,0.01,0.01,0.01,0.01,0.01,0.01,0.01,0.01,0.01,0.01,0.01,0.01,0.01,0.01,0.01,0.01,0.5544444444,0.01,0.01,0.01,0.01,0.01,0.01,0.0466677803,0.01,0.01,0.01,0.1457352927,0.0287155329,0.6748325148,0.2794281518,0.0136147765,0.1813414369,0.1387103149,0.01,0.0230829548,0.4300073243,0.01,0.99,0.0100794092,0.01,0.01,0.01,0.99,0.99,0,0.01,0,0.99,0,0,0.99,0.01,0.99,0.01,0,0.01,0.01,0.01,0.01,0.01,0.01,0.01,0.01,0.01,0.01,0.01,0.01,0.01,0.01,0.01,0,0.99,0,0,0,0.99,0,0,0,0.01,0.99,0.01,0.99,0,0,0,0.01,0.01,0.01,0.01,0.01,0.01,0.01,0.01,0,0,0,0,0,0,0,0,0,0,0,0,0,0,0,0,0,0,0,0,0,0.01,0,0.01,0.01,0.01,0,0.01,0.01,0.01,0.01,0.01,0.01,0.99,0.01,0.01,0.99,0.01,0.01,0.99,0.99,0.01,0.01,0.99,0.99,0.01,0.01,0,0,0,0,0.01,0.01,0.01,0.01,0.01,0.01,0.01,0.01,0.01,0.99,0.99,0,0.99,0.01,0.99,0.99,0.01,0.01,0.99,0.99,0,0.99,0.01,0.99,0.99,0.01,0.01,0.01,0.01,0.01,0,0,0.99,0.01,0.99,0.01,0.01,0.01,0.01,0.01,0.01,0,0.99,0.01,0.01,0.01,0,0.99,0.99,0.99,0.99,0.99,0.99,1
outputCount=1
weightIndex=0,241,76801
weights=##0
##double#76801
   -0.3112197279,1102.9282906492,-5.3126795029,0.266519102,-879.9670854164,-0.1997976494,0.2594336363,0.4139751389,-0.2079297211,-0.2797535318,-0.2337828003,-0.0330944799,0.1446396436,-130.517606845,-0.2410119862,0.3561752627,0.2481578375,-14.5277911632,-0.2192656717,1.4540567682,-0.2861656857,0.4077398428,-0.1945452207,-0.2938973448,-0.1601178199,7831.377411843,4691.6233774368,-0.3173184343,1.7121913068,0.2777863067,0.1894420481,0.8228378381,3272.6764058677,0.7615652125,-0.2966085668,7.8450700568,-35.4814076538,-19.3108413768,-0.1208193679,68.845682241,-7812.667864003,0.9246846241,-0.2238918347,-0.2316920505,-0.1484324519,0.8085550561,5.8846516956,103.1687438744,-0.1436305061,-0.1263019114,0.7384818187,-0.3332980544,-0.3244326886,-0.2152307808,-0.2936269953,1.8311440584,-0.1989844485,0.0676464149,-0.3340394292,0.3180980983,-393.8156609937,0.0949673844,-0.1895241797,0.3657306912,-0.1168158763,11.0917204535,-180.0684479209,-2227.0654478655,-972.3335696315,-0.3323226645,2.3031924496,-0.2762381486,0.3141031169,-0.2202776136,1.6449479974,0.243373528,0.5555031649,-0.1980107135,-0.2978838877,0.7542520461,0.9034705285,1.5439846038,-0.3227597081,-3677.4937182832,0.0956818162,0.2882233127,-0.1217574258,-0.1425325542,-0.1394129287,-77.7601111862,-0.3034635039,-6170.7407551582,-1.5652539545,0.276458623,0.2799868151,-3.8158052804,-0.1291722532,8.6784428544,-179.6183339758,0.338775313,0.226464777,-0.2751977146,51.5657506077,0.3362100875,-3773.706107135,0.0734951936,0.1866496217,1.536137065,0.3047306512,-13.8272531499,-0.2743395483,-0.2563628031,0.3161142558,-0.1935880768,0.2626287754,0.2678116021,1.6948403102,344.2270203822,0.2701607458,138.7112744946,0.7788126269,-0.268349198,-0.3105526257,-0.2199697375,2.0206487861,-0.1589025471,0.7148975876,-0.2514513849,0.3513724519,-0.2265320927,0.2818560914,47.1676847853,1.796433532,-2974.1443670563,-0.3077581774,-0.2828674444,94.7175699534,0.1403261609,-0.141295119,-2753.1867416514,0.1990951807,0.1587427601,-0.2351732136,2.138928742,0.3285988313,-0.3358732088,3.3527056038,0.2978584825,-0.1221262464,-0.2629376093,-11.9606998563,-0.1697167441,-2035.4986348736,-142.8204378128,0.4278309091,0.1259250103,0.2156651755,-0.1960772404,-13.431824416,8315.4342258584,168.0967463625,0.2088086956,8.6424583793,0.3984107447,0.1743981625,0.1341068623,-0.1702994585,0.1203252202,0.1678302583,-1.2277745185,0.2832609534,-0.2785379624,0.3319478481,0.3428574204,138.2002739345,0.7007705654,0.1327007416,684.379655462,0.387410653,-0.2219417715,-8418.5524179442,-0.7878391229,-9.0645229816,-0.2251366458,-0.2178136825,0.5142690207,0.3173342448,-0.2584707279,-0.1257272128,0.1827358215,0.3352971632,-5.5579654578,-0.1833326922,0.1077165401,0.4629847123,-0.2777988645,0.2130791899,-3860.3639013075,0.7450587395,0.1372774585,-0.1611030704,0.1030453355,0.5237145688,-0.2115687624,0.5084740662,4.113153556,0.0837185752,0.213604645,0.114143793,-8617.7907411268,0.2968396775,2.1954593055,-0.1638655191,-30.8371847977,2.8008527881,3.4026029973,7464.0514189731,0.0403962971,1.0008875133,0.3014530949,1.603591583,0.1058972286,-0.1931791761,1.6545727841,-0.2424908168,0.1094553219,-0.1370829841,-16.5331247562,-0.191184316,5190.7671900104,0.1757536043,0.2600323753,0.3016395223,-0.1867172403,1.484673274,5.6369132923,-1.8540763812,-0.3181045117,0.3278228148,-0.1694254082,-0.0359219639,3.7610221262,0.1258043668,0.6282382503,0.03191601,0.5273998526,0.2484001587,0.9102291702,1.6850796649,0.2800968156,0.4138215735,0.6846198894,0.6593946946,0.3170864371,0.381197724,0.6855016528,0.7110877171,0.0810665844,0.3762776746,0.5124766467,0.5115174611,0.5621951055,0.6457831043,0.1306396942,0.3141042008,0.1076681183,0.7314111464,0.6198516517,0.8112779329,0.6915030549,0.448674939,0.1936816683,1.92652796,0.3707960276,0.2644113378,0.7046101772,0.4177177032,0.6698893424,0.6101623247,0.4545903688,0.1998472352,0.4242731713,0.6362704442,0.5198911937,0.6374165631,0.1149599116,0.6433909403,0.9939410359,1.4872676846,0.3387156993,0.5629883724,0.3812664608,0.5642071335,0.1944139846,0.8199515345,0.5215477919,0.512934633,0.4611037025,0.5229667457,0.4688618613,0.2413865299,0.2835424853,0.1561868214,0.6674894552,0.1117181786,0.3360775177,0.5296812396,0.7046337549,0.867188919,0.107792095,1.0015081168,0.4584571503,0.5014198278,0.4236209467,0.4974360492,0.6187289035,0.5834914792,0.6427854191,0.217138727,0.2579281398,0.2413171587,0.88511885,0.0050236388,0.1634019078,0.4890454478,0.540504327,0.6677102423,0.3738869908,0.4624756042,1.6232478172,0.4447639258,0.9772901632,4.8256966575,0.4449107765,0.5990260864,0.5346130242,0.3147362767,0.2070897128,0.8186011857,0.140408065,0.9410458672,4.8235726463,0.0775859823,0.3295735834,0.5193106967,0.5821326281,0.6666390524,0.3971671367,0.6525240718,0.7346193924,0.2619860543,0.480570135,0.2305390292,0.7703565433,0.7605085759,0.1718755292,0.5924592804,0.7361692559,0.3826500276,0.5159887299,0.634913912,0.1363244385,0.3433774716,1.074056795,0.6480629846,0.0732595043,0.650193392,0.4750888019,0.7215614571,0.2337103981,0.7507785977,1.3386697625,1.8237368923,0.1921975958,0.5134056866,0.5622488033,0.4700270189,0.0639728427,0.6241620615,0.28666012,0.1555590926,0.1739893867,0.3509107337,0.1396420645,0.8367059493,0.6140743821,0.3565713446,0.410055555,0.5253903345,0.7411555627,7.560303229,0.7055653809,0.4075791007,0.0140890075,0.5272938548,0.4186308998,0.5099008597,0.7267917874,0.4491309296,0.6195878784,0.3970052679,0.7169493942,0.4806528724,0.0485041834,0.5016252498,0.1401949421,0.4138896828,0.7074119331,0.6407394392,0.6247548668,0.6161894462,0.2637777402,0.3976422049,0.3239500026,0.6189940128,0.1634799746,0.4092979189,0.3042701268,0.3214547282,0.1028318716,0.3751642356,0.3140724086,0.6191002282,0.0881060707,0.1389922383,0.3931767332,0.2419507581,0.1474029742,0.2112970844,0.3654309446,0.4318614647,0.0836063236,1.1376244994,0.6514710548,0.1409919263,0.5246876572,0.1831814983,0.2135292032,0.2946101181,0.1228486412,0.3373413296,0.4859117815,0.4072343575,0.078725344,0.4149691028,0.4518075565,0.3937042621,0.6099769127,0.7459409309,0.7089855868,0.8652919187,0.2028916123,0.2135646582,0.7028682162,0.4785504692,0.1975331545,0.3919129508,0.2252729232,0.7041151512,0.2865863145,0.651819578,0.5841478001,0.711289175,0.2976514019,0.46462367,0.3817074586,0.6718884707,0.3647140513,0.6786929282,0.0797074253,0.6335302789,0.0811024028,0.0200575306,0.1153254477,0.7009105656,0.5575830513,0.7281333388,0.1378579386,0.2886442687,0.6718070953,0.3342787979,0.2878334359,0.6187075102,0.1422532174,0.2824773391,0.2373479593,0.8377774057,0.7192034606,0.3603378399,0.7464191064,0.3017414204,0.7025073615,0.2201829917,0.7166864463,0.8072347522,0.5683062934,0.3765811364,0.4954219973,1.7441170209,1.8986009245,0.1129901242,0.4235885626,0.6754655844,0.5567962948,0.2173136656,0.2920685626,0.412594546,0.7376026671,0.3275913983,0.1790799539,0.1407887214,0.6022985522,0.4343320453,0.311194305,0.6635971768,0.2398214211,0.7180162995,0.3426523825,0.7187691601,0.5107519019,0.7557249585,0.4914725427,1.8615786224,0.4339087504,0.6229977891,0.519227018,0.3460455923,0.5361237043,0.3328201502,5.3977097121,0.4553749579,0.5305282489,0.8122278529,0.6531965665,0.6769822723,0.7956844054,0.1735030178,0.0115350893,0.0852530581,0.6578350776,0.2363580438,0.3731231849,0.9012421816,0.1471573127,0.1442010624,0.4955143216,0.828241039,0.3009560526,0.6002688026,0.5832219721,0.7137168383,0.8990432782,0.4966078565,0.6830771256,0.4239110171,0.3244266472,0.3530501027,0.5649135664,0.5091618606,0.61569442,2.1393396133,-0.3414839033,0.0426153344,0.0675332565,-0.5305275313,-0.2398021671,-0.2779739011,-0.114208873,-0.5392845174,-0.2533646627,-0.3612868744,0.0148823496,-0.4447017267,-0.1928377665,0.081497422,-0.4503269979,-0.5577841219,-0.5249508589,-0.3778658121,0.1282509434,-0.2636826543,-0.3588542887,-0.0050175399,-0.2781080952,0.1873139053,0.0053326577,0.4175344682,0.0552781483,0.359755077,-0.4656594219,0.1705587852,0.5507907341,-0.0070636764,0.7047050394,0.251967153,-0.3910323987,0.5482909408,-0.0648369122,0.0197191914,0.0058513446,0.1941365014,-0.4373245834,-0.0530789905,-0.1851712707,-0.0314465311,-0.3960916962,-0.0477596834,0.3595172993,0.1053677106,-0.4160719876,-0.3901898385,-0.0711261019,-0.0375282472,-0.1354079311,0.0117173177,-0.0277343316,0.1369259773,0.0125214989,0.1223839181,-0.1933590056,-0.2773865031,0.2275053133,0.4167660404,0.012168133,0.0493767788,-0.2413560591,-0.0191255419,-0.4138085732,-0.0772357112,0.0557658167,-0.3660047285,-0.4546726918,-0.4512282936,0.1013016891,-0.2448272902,-0.2898916824,-0.7168453303,0.4636016746,0.1103958283,-0.1612793377,-0.0693126275,0.696234915,0.2790647538,0.3026539275,-0.4891097112,0.0419518954,-0.0830219673,0.1652519223,0.300597078,-0.2065775411,-0.4183495143,2.1129149294,0.0470250514,0.2857338616,-0.7528217447,-0.2117212265,-0.5018412831,-0.0802358419,-1.0378306032,0.4210778411,-0.6094182597,-0.0185277567,0.3742719592,0.7058046211,-0.3727637569,-0.0824656373,-0.0830860995,0.1757334048,0.0661261919,-0.3989761036,0.1355970235,-0.2146167189,0.2347367165,-0.0492546963,-0.2017465019,0.141224801,-0.4869224678,0.5019450981,0.1005195966,-0.2583427696,-0.1654224161,0.3282783459,0.2232458056,0.0212156728,0.0566944844,-0.0952069848,-0.5006361174,0.20013495,0.0580443554,0.1444233611,0.2433149786,0.3166982223,-0.2666759035,-0.3812598229,-0.0418717394,-0.2903624111,-0.1074958021,-0.4202451619,0.0330765554,-0.0850046059,-0.0015471749,-0.5035432691,-0.8667850106,-0.6625362686,0.217354966,-0.306084216,-0.2731881932,0.0956477003,-0.2456626331,1.5900451681,0.0355825,0.0308217974,-0.2282109149,-0.4651469045,-0.2579983438,-0.1062047453,-0.3657587642,-0.2716385898,-0.2527389792,-0.3487204998,-0.4247700726,0.1442614743,-0.2241130573,-0.2346531897,0.5122461753,-0.3472208032,0.1333120687,-0.5043374633,0.5243467468,0.6653900037,0.0934817989,-0.077021069,-0.114054854,0.1830051452,0.5768367969,-0.1428269093,-0.4959885085,0.0417705409,0.1280965299,-0.3524647161,0.0450827163,-0.5081122162,0.1163053424,-0.2834143119,-0.214909907,-0.1812931898,-0.079174319,-0.4143000923,-0.4279417424,0.1051916193,0.0788948906,-0.0056063829,0.6344024651,0.6003293161,0.181114582,0.0171124819,0.3670503169,0.2434842977,0.3703263439,-0.0720086046,0.0505204252,-0.2009466017,-0.2878502747,0.2037294103,0.132807657,0.3468900139,-0.070160224,-0.1055015924,0.0928890627,-0.4715557279,0.1270743855,-0.1270444497,0.1629901673,-0.4573957972,0.6550106639,0.4509522106,0.50675288,0.1093048583,0.2395593617,0.541515714,0.2674520145,0.2346446878,0.0069067932,0.6981901451,0.3015724692,0.2927469229,0.0109396159,0.5711878309,0.6708071769,0.1479642615,0.429832716,0.4852598729,0.2930745221,0.2598794119,0.3429660207,0.2051362491,0.1568937468,-0.1668805002,-0.2515531422,-0.0463472544,0.3990316256,-0.2922190816,-0.4710188516,-0.5107045401,-0.0493120112,-0.1474424263,0.0585511147,-0.0306411572,-0.2980054959,-0.157323563,-0.3765015575,-0.0243706036,0.0097056124,-0.5480602244,-0.312921908,0.1205127717,0.4246096029,-0.3437312093,-0.289621188,-0.1585730089,-0.2534766925,0.4676091885,0.0108559368,0.4898979877,0.1419221084,0.2043997516,0.1908547832,0.1294204397,-0.0765402211,-0.0395053012,0.2232715554,-0.376153947,0.2214053587,-0.4997107894,-0.4487349797,-0.5210678486,0.5281613542,-0.025958808,0.0669393187,0.1368901935,-0.2082448649,-0.52164592,-0.3792027555,-0.5395654612,-0.3108546865,0.1259163818,-0.3908247186,-0.3459837741,-0.2549400892,-0.2759811119,-0.1834486934,-0.2017570927,0.0162423748,0.2085465123,0.2243135968,0.5936964232,0.6722250747,-0.3697085207,-0.2109075886,0.0763315025,0.0298323458,-0.0408803202,-0.145147225,0.1773732746,0.0936926445,-0.2068869135,0.3724939203,-0.1235236062,-0.3185013409,0.1313956405,0.1442091781,0.3085845515,0.0510718061,-0.3220466248,0.1048312848,-0.1715885868,0.0963514401,-0.1214053937,-0.9175451144,-0.4366475389,-0.3138931989,0.0062806405,0.5054660603,0.1026854469,-0.8345843095,1.6487543281,0.2097152581,0.0000350741,0.2204340154,0.3385510575,0.0712061199,-0.2115110677,0.3739066849,-0.1787293076,-0.1633340187,0.0857943114,0.3397464156,0.4795783546,0.0346659089,0.2701393538,-0.0718207507,-0.4487107737,-1.9045714948,0.6209394854,-0.3955032728,-0.2742852117,-0.2024418848,0.0710040093,-0.1875674219,0.3663914892,-0.3928564557,1.2734640221,0.5295168629,-0.1187885147,-0.0853045583,0.5564112741,1.0857433009,0.0272226182,0.1869991711,0.6297311538,0.2752171625,0.1499413122,0.0770491634,-0.3799563449,0.2045402863,0.0571079519,-0.2730013838,0.1068556338,0.0537893776,-0.363517351,0.1592287769,0.1023831749,-0.526586538,0.036301419,-0.285457808,-0.3054005569,0.3913230931,0.5969120065,-0.8371493567,0.1855106399,0.2624594638,0.1204856676,0.5533969853,0.0857727474,-0.5736083311,0.0471262824,0.4931013429,0.2003892873,1.0886682136,-0.3395726782,0.3666158013,-0.4449657711,0.141522922,-0.2376126214,1.1188714069,-0.0087846935,0.4753470677,0.4789362931,-0.1166194242,-1.1611156088,0.5487091857,0.603759139,0.1922591784,-0.3200368811,1.7005902021,0.9428263441,0.7492742664,0.5750377489,0.646769584,-0.4600605232,0.5028244358,-0.8006974482,-0.0430732955,-0.3829046458,-1.1305516335,0.1146009747,-0.1349633231,1.9010391226,-1.1151148464,0.7710006247,-0.1356820425,0.0751605355,0.1633321202,1.9936305917,-0.1459179724,-1.2436158355,0.0565531431,0.7953086661,0.0334307367,-0.2298781692,0.3201471,0.0456749606,-0.4395643131,0.1777663129,-0.03401701,0.0642729458,0.4236106069,-0.3955872361,-0.257298229,0.0432642826,-0.3114999914,0.0417862352,0.7760331533,0.1844014164,0.0055374572,-0.0545384724,0.2301286153,-0.1673892976,1.273795598,0.0401660536,-0.5605269827,0.2723174334,-1.0738135991,4.8415882248,0.5966209125,-0.3224388204,0.3516327232,0.0599893612,0.0797179142,-0.1455613581,0.5656591005,0.7032620714,0.8127481849,0.1737539792,0.4336416334,-0.0297752748,-0.3465237113,0.3043137773,0.193788836,-1.7317455946,0.2692436228,0.3067384528,-0.141463738,1.3522615042,-0.3118885019,-0.0363577215,0.0188209931,2.1047511242,0.1399869186,-0.0320001818,-0.285239333,0.2200841859,0.1955087988,0.5154894699,-0.2309270108,0.0890376291,0.2351038937,0.4652036951,0.699531785,-0.332638116,-0.1491087122,-0.0191616424,0.1168194855,0.3008381436,0.1629985059,0.2693355021,-0.0357280282,0.1549902935,-0.0653198121,-0.1693271279,0.1606943362,0.0220139487,0.2650175993,-0.3634167892,-0.1373536146,-0.272761003,0.1732622399,0.1115587526,-0.2510745567,0.6958171785,-0.0713053867,0.645868305,0.4093499347,0.4104239944,-0.0645038998,0.4985189146,0.4636212231,0.490608654,-0.2470393045,-0.1223309648,0.2427665012,-0.322242895,0.4632195153,0.6659139836,0.0306338979,-0.1323419715,0.1212219277,-0.2172056921,-0.1436373676,-0.1467006553,-0.2126649053,-0.1280232653,-0.071541404,0.1453730086,0.5823742015,0.4493924082,0.4685385503,0.419540407,0.1165950218,0.5779633297,0.6182591018,0.5815451397,0.0247916806,0.0399565429,0.680619254,0.5702311644,0.2049216405,0.5991202834,0.1906642935,0.3964971772,0.1993067157,0.4788242493,0.6729906334,0.0874506364,-0.4847003006,0.5268843853,-0.1781208834,0.4401568112,0.5959548696,0.4620601493,0.0703844519,0.0762256901,-0.3763491144,-0.1545925515,0.0093371758,-0.3063545268,-0.267410583,-0.1887346087,1.5109413505,0.2782510362,0.117090218,0.656478497,-0.4512815491,-0.1142732493,-0.1424530372,-0.3022390815,-0.270796506,0.1720489464,-0.5019128543,-0.7495527896,0.4997922587,0.100438854,0.1895158372,0.2687392969,0.0584788111,-0.5312260884,0.0240891317,0.0241424164,-0.0644695281,-0.318230197,-0.3906732635,-0.5071798457,0.1404577952,0.1014200093,-0.2223651023,0.5609307915,-0.1331961191,0.0096553032,0.1134149099,-0.2130253933,0.0543573531,0.2552971792,0.1126508718,-0.1526994777,0.1738038168,-0.2936145622,0.1137811254,0.0456271482,0.017519832,-0.2861438573,0.1181805335,-0.1726743636,0.1537193723,-0.0004444597,0.2811073404,0.1807502248,-0.126678121,0.0239743413,-0.2641935594,0.1508833597,0.0439172323,-0.4108349385,0.0975409074,-0.0271106269,-0.1371056643,0.5177842262,-0.3992107442,-0.2222478679,0.0173531976,-0.3388844981,0.0219329119,-0.0541798296,-0.4273774139,-0.2224771403,0.1538639731,0.1914708915,-0.3538092129,-0.7302820847,-0.2681524944,-1.4330511495,0.5601183998,0.6853568544,-0.2018505732,2.6684306979,0.2044410509,-0.1035539718,0.0152992525,0.0429712881,-0.0092329036,0.3910759389,0.1208763344,0.262232671,0.2856502612,-0.3373745871,-0.1711836024,0.0842507273,0.3381608675,0.3701454013,0.3222261673,0.450913063,-0.7573289977,0.8884302554,0.3637111858,-0.4580740023,0.2674361938,-0.3018481799,0.5018055246,11.4909892829,0.6335669043,-0.0723049265,2.3550620903,0.5206653583,-0.179417171,-3.348543482,0.3446562606,3.5577573364,0.0007429801,0.3587993419,0.4896112142,-0.576091971,3.6819778338,0.2592840214,-0.3025940887,0.1743524475,0.0783305897,-0.0406471,0.1835115782,-0.2806123856,0.2967797211,0.1816656554,0.4951382711,1.0179098024,-0.0097080448,0.1836692305,-0.2905500175,-1.2224898386,0.3344438857,-0.6996149133,-0.0913674877,0.0337647865,0.6269122231,0.0498464919,0.7065638051,1.8254482369,-0.191822992,-0.1145492875,-0.3114587095,-0.0641875667,-0.2346206484,0.1196644785,-0.1459229968,0.0502239283,-0.2345472265,0.2380721265,0.6504372636,0.4370057196,0.2300368552,0.1817252558,2.8336044314,0.5974892597,0.1092724064,0.3104526111,-0.1443387973,1.4075854212,-7.5721580692,-1.6392350682,-1.0364844141,-0.3263657042,0.3378299023,6.3404946018,-5.7489966268,0.3789188965,5.3286711358,-0.1535454534,-0.2526917693,0.265174797,0.7653250238,-0.4705550853,-0.0343123048,0.1529022366,0.6138554643,0.3843478774,-0.0121578177,-3.2241673932,-0.3467439998,0.0833329124,6.3243558963,-0.215932517,-2.2942462055,-0.0937483291,-2.9851553781,-0.0222021698,0.0043555232,0.2626362919,-3.1792338088,0.3053220835,-1.8409456047,-0.296349826,0.1404737763,0.1017394435,-0.2604707494,0.2286671606,-0.0063724625,0.5669172634,0.2872385194,-0.4450335504,-0.3333501694,-0.1141666444,0.1469060921,0.0572712279,-0.0914229991,-0.2876063853,-0.4248174138,-0.3339474502,0.1225507528,-2.4253239247,0.010903907,0.229088995,0.3399448972,0.147221752,0.0426528729,0.0136108387,1.298326237,-0.1127633833,0.3822921157,-0.2291685133,0.4120057745,-0.2859762574,0.19099817,-0.2871712901,2.2833163982,0.2535924991,-0.130534413,0.0402552622,-0.1906609744,-0.3123891593,0.0012344595,-0.2433967517,-1.6666849277,-1.5140682021,0.3140852057,-0.3280007764,0.6501256701,-1.8870038173,0.2438960669,-0.2673462958,0.6228334023,0.4616478484,0.0189559085,-0.0857641115,-0.2754924463,-3.4300971229,0.3104390121,-0.1863530934,0.2804032837,0.079563928,0.3503045573,-0.2503404537,-0.206980594,0.2268745704,-0.1766589621,0.2321727119,0.1363324895,0.1805517501,0.0729745674,-0.0241799479,-0.0211075027,-0.2673609291,0.3501480849,-0.1479110804,0.0554099966,0.1709677614,0.0830295986,0.1386622118,0.1120522523,0.1797188825,0.1694970614,0.2961169396,0.0269656692,-0.1974161683,0.2608498621,0.3551496013,0.3193409109,0.642704463,-0.8527181955,-0.7256435336,0.0603679042,0.407949693,-0.0077718275,0.2215850706,0.5544059629,0.5161254507,0.2032771853,0.1040531814,0.5771040803,0.0713772051,0.4011291852,0.616473555,0.2426643109,0.6738441087,0.0896157424,0.6830665714,0.4193110241,0.0042655789,0.4495798045,0.6251285898,0.2146287324,0.4116630855,0.5630581103,0.289709521,0.2974313133,0.0507803672,0.1131440237,-0.6402453972,0.2368881234,-0.0249081154,0.2941902094,-0.3090248985,0.6084310756,0.0438067242,0.2385841078,-0.0090212576,0.0251436789,-0.2948725812,0.1861630659,-0.2664010726,-0.2774145479,-0.338766244,0.0419190515,0.1284038355,0.215350982,0.0932489672,-0.0634079225,-0.659374973,-0.9485485534,0.2163477758,-0.3450738063,-0.588963937,-0.0840471931,0.0914099724,0.6272109005,0.1434074748,0.5497233971,-0.7153236872,-0.3641478702,-0.9224183352,-0.4654825948,-0.7821946415,-0.591759518,-0.5187906509,-0.6019009035,0.1944339467,0.2330862818,0.3655570513,0.0535398635,0.3226718522,0.2469431039,-0.3221345793,-0.0784553864,-2.200180693,-1.7079698637,0.1902224817,0.0629607766,0.4261752452,0.046087522,-0.7913640679,0.3006142285,0.3672835612,-0.8697437705,-0.7778910528,-0.8263882339,-0.9403640991,-0.7018395027,0.2031828479,0.7112555271,-0.134048292,-0.2436850253,-0.2243331345,0.2083589524,-0.116716074,-3.3074087214,0.2726127723,0.1857966411,0.1669247568,0.0028808448,0.245441178,0.2206543514,-0.1942261363,0.1800475266,0.0971639537,0.3150033319,0.2933625045,0.0411466925,-0.1825488094,-1.4038054514,0.0392367405,0.3099557998,1.883258388,-1.5671634485,0.6876513557,0.30069043,-2.5361854895,0.5548720868,-3.4374009686,-0.6745893771,-2.3552346706,-1.7264205337,-3.3894332774,0.6570638405,-3.1104145575,-2.8284922217,-1.5835134089,-2.6720346975,-5.6920589102,-3.0855947795,-4.2098840634,-2.2587660372,-3.3176209926,-4.0882793603,-1.384680573,-0.94751897,0.6242326649,1.8284236371,-0.0136417102,-1.3683156303,0.3445629454,-1.7007143329,0.5636205196,21.0500399257,-1.8188095175,0.1684765659,-1.0728113513,-1.7649740653,0.2955487527,-1.8831081278,0.0170340835,0.3365027535,0.4335295568,-1.2390754279,0.8911382658,-1.8629753213,-1.7854415342,-1.4673726953,-1.5140952162,-1.0490663383,-1.5378012615,-1.7296106363,-1.2306294162,-1.3092503613,-1.8641459568,-1.3521708529,-1.6378251441,-1.6072965843,-1.498494311,-1.1968064886,0.2307553393,-0.8434969475,1.8406927223,0.5882062825,0.2098899554,0.5386560197,0.2893475204,2.606276144,-1.3330087625,-0.4618710743,-1.4275415883,-0.5859056588,-1.5809955824,-1.3046301312,-1.4384140957,-2.8820699643,-1.6100969039,-13.247422862,-6.7593297124,0.3551320103,0.4383496003,-0.9533385329,2.0150571998,0.0249494931,0.4855305291,0.3255188329,-5.6176495209,-3.0084855228,-0.4074845032,-0.8437792678,63.7151153705,-1.2605727855,-1.4254898157,2.5441242095,-0.901443338,-1.3464980433,-11.2752417749,4.2244289737,-1.6336469363,-1.6681351201,-19.1209938292,2.5331251044,84.9746633041,-1.43742581,0.5844234897,0.5245671537,-0.1449775495,-0.9766225651,0.938550902,-1.4914488466,-1.5368013862,-2.0852450962,-1.8953257811,-1.6909819434,-0.0391145211,0.1409196495,-5.9712446634,-1.6147027084,-1.3112616097,0.0102603252,-1.3995444391,-1.3496707086,0.2458469706,4.9276815923,12.6436228035,-3.2373912304,-2.6434210688,-1.9404240714,-2.9162579269,-1.0836320239,-2.3907296939,0.0697417705,-1.8273874765,-1.3050245615,-1.5865934328,-3.8198978958,-0.8632405461,-1.8026249229,-1.6376962036,-6.235392245,-2.7620902397,-1.3882775298,-3.3796692115,-3.2255958726,-10.5843301267,-7.2600265839,-2.2736508786,-2.488285322,-4.061805571,-3.9732522351,-2.4622170806,17.6284656269,-3.7867913063,3.2763607453,-3.79601953,-2.2093750539,1.3372559315,-1.586484391,-2.7524646795,-4.2903235583,-3.6724745543,-1.7986877375,-1.6696608914,-1.3724447753,-1.6553912475,-1.5321065315,0.644481404,-1.200125669,0.4710977537,-1.6552471065,0.511602473,0.4220601832,-1.578716431,-1.2624619972,-1.5697834815,-1.9671655158,0.6617018609,-1.3969670502,-1.9474773531,-1.4017636234,-1.8291236195,-1.4244055612,-1.8928296146,-1.8480935999,-1.8998993759,-1.3870927895,-1.4396269635,-1.8321804901,-1.3850137815,-1.7951207767,-1.98167151,-2.0143402929,0.1044516734,-1.8466355234,0.0893565934,0.030351178,0.4441496948,-1.3217286533,0.3189488735,0.6696788052,0.3584119227,-2.1659948777,-1.7323528714,-1.6562884568,-1.5268582786,0.3055660802,0.3575226101,0.050090401,-0.5281487913,-0.400332008,-1.4812333021,-1.5269772425,-1.4767635798,-1.482072979,-1.4347242228,-1.6516943516,0.1803091032,0.0290368827,0.0433296443,0.2549413514,0.6118133031,0.5946466132,0.281307152,0.3138277055,0.3883405931,0.2278851277,0.0978658097,0.62371365,0.5313480537,0.3834812552,0.4370038602,0.2388482952,0.4578023238,0.2898831974,0.3293526849,0.2604566211,0.1669545734,-0.8446554166,0.120657647,-1.3744017635,-1.4527227821,-1.3142785968,0.2736710136,-1.3372663641,-1.5125822777,-1.4455986983,-1.5621323146,-1.8404011649,-1.2556553701,-1.3372533908,-0.6727639817,-1.5464691846,-1.9059761724,-1.2305838408,-1.3627980767,-1.0100174892,-1.2445033669,-0.4939757681,-0.5770869011,-0.5105697318,-0.6849878241,-0.4366715663,-0.8393184694,0.2862295912,0.2291487686,0.0161392433,0.0864554631,-0.4305474832,-0.6024381617,-0.310890585,-0.2480802423,-0.4193898997,-0.6726579475,-0.5869646574,-0.4687645244,-1.7516229557,-1.6771411766,-1.6871478325,0.035221727,-2.0727761749,-1.9440133103,-1.3063501356,-1.7221881534,-1.8640824229,-1.481589712,-1.7160806195,-2.5588888032,0.0261691884,-1.2912313964,-0.40604857,23.6730758146,-2.1342476445,-0.5852966774,-0.5302269909,-0.2929689397,-0.1633217713,-0.2990034457,0.5705764387,0.448534861,-1.828296114,-1.2434979645,-1.8448279249,-1.7816692756,-1.5851011161,-1.4274169095,-1.7117194828,-1.4859640627,-1.7399498523,0.3979763958,-1.4423748894,-1.6910036696,-1.4381480183,-1.3083873872,0.5943078587,-1.9512954639,-1.4512466166,-1.6192375745,-1.6526978162,-1.7002499682,-1.728549148,-2.3230684007,3.738486395,0.032515382,0.1467750643,0.1085664922,0.2229716116,0.6149640857,0.5846237017,1.3673765278,0.6246682276,-0.0086800784,0.4969499473,0.4993131289,0.3853589538,0.7200051928,0.2165673638,0.6868040211,0.4392960085,-0.0374756663,0.093403156,0.2564995202,0.0821912472,0.1733414265,0.1864475454,0.4219500035,0.3266236297,0.4769243874,0.5642009001,0.4582124046,0.4418739485,-0.0729795426,0.3633738324,1.9140768341,0.3301383571,0.1904444053,0.1424178561,0.0725770546,0.6099788681,0.531040123,0.5021474231,0.0220734118,0.6560385372,0.2802783337,0.3921660547,0.2504547287,0.0441785844,-0.0791768999,0.9107505749,1.1225637032,0.1844581782,0.5839976957,0.6775703105,-0.0518637944,0.193792678,0.3946091784,0.1600727612,0.628789365,0.1644275528,0.3252788183,0.3366286486,0.1898802796,0.1917141138,0.7060951986,0.0191218361,0.6399798632,0.6959410815,0.6425316083,0.3627422468,0.3464546139,0.2576896682,1.2166649274,0.5329227961,0.5094888817,-0.0549967533,0.4893480634,0.3791109379,-0.0970575625,-0.1379656059,0.1942728257,0.6922133858,0.3268516653,0.7208750099,0.4253063147,0.5892941158,0.5191233711,0.0750602153,0.0948730062,0.5099909026,0.3917551076,1.3991099755,0.2385500822,0.4678227021,4.9648457791,0.0629606252,0.8404075433,-0.0680056132,0.2472760002,0.358226634,0.2883656877,-0.0817809232,0.4244168753,4.2188386171,0.4959063284,0.0658194237,0.244361226,0.5028117049,0.3442511954,0.7421146972,0.5490551209,0.6315143575,0.3673571902,0.4420664966,0.0770464239,0.5571753421,0.5208971805,0.3634475586,0.3558684239,0.0354636993,0.0135784543,0.0180319743,0.223895977,0.5611428114,0.7997161718,0.9289955165,0.3807595366,0.1321676061,-0.0155802193,0.5093120176,0.1516399257,0.3672977413,0.9217329892,1.1246073825,1.6125065404,0.0700758966,0.2670927823,0.404660353,0.0605607542,0.3171148245,0.3159465982,0.0963630212,0.5096623569,-0.0535191857,-0.0921419751,-0.0515734326,0.7395725653,0.2461947318,0.3686780773,0.2366606647,0.0916006322,0.5863904751,7.7547089921,-0.0208197652,0.1148902596,0.0363800402,0.5341042401,0.1915388146,0.0357931327,0.3790128801,0.4787055187,0.2206976091,0.1612925677,0.1273030775,0.4723234953,0.4697177783,-0.0810641462,0.3822002916,0.2218498653,0.059105,0.3923723723,0.1867371695,0.1341615208,0.4550803634,0.8011757408,-0.0072381502,0.3515695516,0.5707284262,0.2796668702,-0.0553330004,0.5774676908,0.3368563252,0.5732330118,0.3866573296,0.4937142698,-0.0192019044,0.2662141865,0.0824081225,0.0762171803,0.2872083618,0.290827161,0.0387642784,0.4119628807,0.6923744329,0.5457803693,0.2105085762,0.6336053716,0.0327938933,0.2966227974,0.543247503,0.1381335311,0.3354155603,0.3553497988,0.6238814258,0.4700991557,0.4643289202,0.1909442094,0.4759782962,0.2259628949,0.4443089736,0.6056964596,0.2736517445,0.6597986095,0.7377339063,0.4472605641
   0.4645253292,0.5633516125,0.6221236614,0.5226461579,0.3018609525,0.3383659892,0.0759800471,0.2641693424,0.014371657,0.651566882,0.1040826556,0.4536014222,0.6884708616,0.4206532963,0.1394486273,0.2877113739,0.2691208258,0.665294276,0.5793418804,0.003212794,0.6807198598,0.0292958291,0.5190601658,0.3674234806,0.5692283659,0.4833404462,0.5457389607,0.5384034279,0.3403034937,0.4203766808,-0.0063066723,0.7549170051,0.2052480895,0.1201795595,0.3826199455,0.3942291916,0.2793772315,0.6408082079,0.6844900668,0.6233238999,0.6671524796,0.9163229542,0.7197715952,0.7821224591,0.511505374,1.4785458755,1.177989726,0.6309929502,0.26943153,0.2023411287,0.3418043402,0.1245113774,0.1784762845,0.2019143232,0.1135483671,0.5202120242,0.4807277174,0.6557920154,0.3334392843,0.1962988419,0.0564666526,0.0643680522,0.1679488349,0.6447872483,0.3237380045,0.1448067431,0.3353349313,0.4272770462,0.3360620573,1.5264406018,0.5189549604,0.5987915576,0.0920505489,0.2431334285,0.6128859512,0.2748293981,5.2166043289,0.0074385886,0.2589681929,0.5533159157,0.2611744391,0.2511630339,0.2539552759,0.2995124163,0.6288831977,0.3776436897,0.5856482009,0.2703301561,0.7010817964,0.7366842555,0.315175038,0.0617520287,0.445721932,0.4038775608,0.3437992866,0.2448962058,0.5272367292,0.4521887843,0.802512675,0.701121202,0.1880959385,0.5381709935,0.3364610415,0.0781286672,0.4227991366,-0.0621981366,-0.1765362747,-3.7008088101,-1.3656096464,0.3105993522,0.1184056438,0.1669631699,0.2462697101,0.1961437012,0.1298477843,0.348809736,-0.2414184666,-0.1991538401,0.6390080323,5.1140631231,-0.1403134105,0.1354899147,-0.1257746382,0.2191433773,0.408500624,0.1531216511,0.2610145809,-3.3824533929,-0.2001748046,1.4028481435,0.0018396717,0.2422731522,-3.0761322637,-2.5834153035,-0.1983647617,0.2344645876,-6.7664644636,0.104531579,-12.233315708,-2.3217996816,0.4938914742,-0.2274627269,0.232721844,0.0594461334,-4.2496644365,0.3761696176,0.4640668091,0.0657227794,-1.7915468278,0.869196972,-0.1564612888,0.2242606921,-0.2667074219,-0.2137186854,0.3546024064,-0.26311905,-0.3186885542,-0.1471738143,-0.0728800114,-0.3499197799,-0.1677914017,-0.3741628937,-0.3038711891,0.6784123046,1.0936794458,0.2349451503,-1.6362109571,-0.8929204401,0.579208411,0.6830013134,0.6001037933,0.5033777093,-0.4047732182,-0.0107729295,1.9583773268,0.1454075258,-0.1393656648,0.2644409618,6.328096785,0.217783739,-0.0859466861,-0.6900065494,2.0476656442,0.261079094,0.5398530077,0.3464496477,3.6857516685,-1.5800058705,0.3873296986,0.6388919465,0.3616949446,0.1498023472,2.5230966676,0.1542537308,0.2458401286,0.2001510571,-0.1736359692,0.3336069765,-0.8925953887,-0.0018874251,-0.2208075905,1.4857890933,0.2859822963,-0.0787720121,-2.7899251603,2.7287533273,-0.2575562531,-0.2946290704,9.6891649566,0.485482927,0.7029290586,-0.4594271564,-1.1900374428,-2.5435497266,0.3096161986,0.0716666851,0.123117981,-4.417138702,-0.7799663059,0.2837775942,1.1619414158,0.761059009,0.1378082004,0.2829135425,0.1423281842,-0.703166055,-0.082797779,-3.4988437848,-7.3824958057,4.7850287979,0.0532151179,-1.0256192335,0.2307362841,0.2662485485,-4.5668508815,6.3909304353,0.2646188445,0.333812064,8.3764890338,3.7094464792,0.544288279,0.0606577716,0.0958481992,-0.4807596229,0.3933811046,3.9337028492,0.3422274143,0.4767694566,3.8645991896,1.0968526922,-3.2517496933,0.2293149921,0.1171271929,0.2476939646,0.0825065361,0.0618885327,0.0340652404,0.4982969733,0.2994580472,0.5495119049,0.0253047842,-2.4933106844,0.3160614439,3.86284076,-0.2106577268,0.4469775917,-0.780834137,0.2737458861,-0.2993028822,-0.1410162655,-0.2176715771,0.2947305225,0.0760545174,0.1222877298,-0.2785811512,0.4392487312,0.3987884284,-0.0356360156,-0.1703150926,0.222704225,0.1687804624,0.0375949713,-0.0551049792,-0.0453518136,-0.2156602278,0.1170966016,0.3532511428,0.409514793,0.1992293721,-0.1133170671,0.0985969717,0.1902847322,0.4280373924,0.3438082575,0.3924943483,0.013777232,0.1828229597,0.5281586161,-0.9865621879,0.6196884964,0.1860716853,0.6945127053,0.3441943642,0.3502185182,0.2296364344,0.1947851296,-0.2072490924,0.0145826755,0.228936406,0.3022871947,0.4489318871,0.1290087552,0.2427925266,0.5591582008,0.2352766696,-0.8872110871,-0.2824951336,-0.3503240562,-0.9457839035,-0.5152575402,-0.8415602125,0.6545840558,0.6490658436,0.6507832,0.0130318222,0.3041140112,0.2096481344,0.2851877008,0.5069914827,0.4593646058,0.466850976,0.3934266964,0.5933888306,0.4082873456,0.2498215942,0.6943446607,0.2626376584,0.6240795557,0.5058260568,0.4462941418,0.088717389,0.1633089699,0.4078594891,0.0524264418,-0.5854102673,-0.0740244097,-0.0101132881,0.0160671836,-0.1813610127,-0.4310691554,-0.1610275195,-0.698495204,-0.2668679787,-0.1785615747,-0.2207742479,0.2137241792,3.0286422676,0.0014065296,0.3052456335,0.483908013,0.1062513694,0.1521115539,-0.2388305922,0.0627805075,-0.1230083835,-0.1109657974,-1.4802737013,-1.9051441271,0.3585288938,0.6879469721,0.0968846687,0.3181347504,0.1606660805,0.1945285608,0.4400313053,0.2191657805,0.230044571,-0.1117484182,0.5225253942,0.0308935589,-0.9373814213,0.2922801261,0.2418668205,0.454880582,0.2641218729,-0.147977688,-0.0603799461,0.0875818097,0.8415929654,3.6678935811,-0.1097962079,-0.049945105,0.3081178356,-1.4688682299,0.3269013202,0.2375679068,0.4813833223,0.0286288861,0.462683125,0.2036782869,-0.0145775126,0.3937994039,0.3755953104,0.1915582014,0.3534877549,0.2641860035,-0.2450872616,0.2105416017,-0.2728918389,0.1366230833,-0.3153732544,-0.1987430725,-0.040358028,0.1797150706,-0.2141897138,0.1015907622,-0.0549193657,-0.2901551061,0.630582629,-0.1639708081,-0.2533468389,0.2708949102,1.9107484985,0.5833352762,-1.6541093873,-0.592586149,0.3343128207,0.2087398011,0.5033143244,0.3715239485,0.0401678328,0.433619734,-0.8381420275,-0.2561803667,0.2141255652,0.2227678143,-0.1215766603,0.1589677071,-0.1945859333,-0.0167900347,0.0637625161,-0.0405801508,0.3061660577,-0.1285541868,0.1101919234,0.4102458999,-0.1456602752,-0.0427963729,-0.0346883065,0.9792494915,0.3017891063,-1.8671082754,-0.3469734928,-0.286314591,0.0553011251,1.8821128467,0.5139744021,0.2975109875,0.9256839438,0.2887023756,-0.8361485555,-1.4479036103,0.1198564375,-3.4672167405,0.3978980838,0.2676836722,0.5952868877,-0.8481239161,0.053282687,0.0784168841,-0.112865253,-0.2340107754,0.2985977244,0.0280580205,-0.3042443586,-0.0748532268,-0.2343578152,-0.5677406575,-1.0490605775,-0.6319356429,-0.5726345973,0.2620421049,-0.3397288381,-0.1825515487,0.2339034239,-1.2839245276,-0.1794400778,0.3633137177,0.3454187334,0.3391671604,0.6280207919,-0.2802951852,-0.1576774,-0.3575955435,-0.2910819935,-0.4659758736,-0.2682578433,-0.4494093747,0.2230831971,3.6243041057,0.0972206808,12.4360239279,0.9585177198,0.1971711971,0.566870452,0.3639216126,-0.5954573508,0.2977752355,0.5272417392,0.434908445,-0.6666208842,-0.1113145385,-1.6101714775,-3.0526079395,0.0601493178,0.3159174053,0.310250766,16.2979991047,0.2704146729,-4.5745822324,-2.9996907982,4.3857197637,-0.1928979452,0.233667561,-5.9538722629,0.0822350432,-0.3106413365,0.0151469693,0.5410404661,0.3241032497,-0.0879040124,-2.0264414728,12.3052679298,0.0140923859,0.5145451171,0.247640602,4.3326324453,0.2941392442,-2.2286016404,1.4766258953,23.3057507733,0.3365431685,5.6439738256,0.0003779539,-0.3196831909,-0.2805718654,5.7858333463,-0.2175361978,-1.8578938392,0.2848301214,4.0790180768,0.2032317189,0.1700443806,0.292642126,-0.2243974451,-0.4473092027,0.4580933865,7.6327932196,0.2372097253,-6.2424727546,0.2394593354,0.6461085131,0.2915051646,-0.5578235133,-2.5223712723,0.0018334285,-0.3932291744,0.2764225264,0.4754802506,-7.1323827513,-1.5096712339,-0.042925625,0.4533699454,0.0956596369,-0.0496386022,-0.2448839257,0.2175570413,0.0755301695,0.530397813,0.0706717963,0.257444159,0.3697366422,0.0151449451,0.2825722841,0.163691773,0.3041022752,0.2287271739,0.010766888,-0.0696055713,0.1520505013,0.5820985293,-0.0826131533,0.0596677213,-0.0651492767,0.0695659778,0.1262476415,0.1369752562,-0.1871047002,-0.1230271105,-0.2229655853,0.1059903206,-0.0855541025,-0.0337473266,0.2379784325,-0.0316779412,-0.1998045195,-0.1552689715,-0.2375594698,0.2945508093,-0.0901613663,-0.1226562253,-0.1464950758,-0.1484068297,-0.1891058519,-0.0956934557,0.3503738712,0.1941564071,0.2073667663,0.4647248532,0.7010186683,0.0411766542,0.0471059823,0.3492041238,0.6143348581,0.3296027019,-0.1137990575,0.2458519433,-0.0444889528,-0.2251009763,0.6900597547,0.3591304404,0.1352101382,0.5249635952,0.3059023457,-0.2323276741,-0.3485671849,-0.6608275622,-0.3117095566,-0.3753207495,-0.4020009261,0.045728096,0.4409225298,0.6532525691,0.0173371507,0.1547639136,0.4430966356,0.1118571926,0.4770632086,0.3243140523,0.31568782,0.063453204,0.4149665851,0.6010079868,0.3640637845,0.0363002545,0.6967286772,0.1105782502,0.5298648162,0.6817975453,0.0881809496,0.2533481135,-0.1518109733,0.5955654943,-0.1889036903,-0.0286988477,0.2698531202,0.4620355237,0.0388992253,0.4366545765,-0.0585519808,0.3054706459,-0.0994282583,-0.0070329138,-0.1310239072,-0.034443356,-0.6170670667,0.2542883984,-0.2857038709,0.1448011016,0.114528377,-0.3263807715,0.1908948853,-0.1575301046,-0.2036269096,-0.0814035033,0.1620910396,-0.0838006096,0.4966612376,0.445149226,0.2631796243,0.1067553689,0.3995924409,-0.1373704467,0.3491578371,0.4989260014,0.2563627265,0.2352091603,0.4955634433,0.0651975204,0.1818498538,-0.3004659972,0.1525140795,0.1076727106,0.0975982919,0.1418212064,0.1634716005,0.1572550235,-0.9561044728,-3.9055793614,0.3298779448,-0.0639221917,0.6524317897,-0.0699588199,0.2302601523,-0.2992442356,0.2515261969,-0.1341935003,0.4355286147,0.1540154144,0.3621004748,-0.0341714618,0.6252748916,0.4868213741,0.2248543912,0.3013981388,-0.1228635705,-0.1797536586,0.1686757436,-0.3059733805,0.163843308,-0.0684936352,0.0666191495,0.7103287088,0.0614661316,0.006904243,0.2400629891,-0.2493246914,0.2883277325,-0.0669445369,-0.1276628966,-0.1455193158,-0.0553630861,-0.1779333105,-0.2223862808,-0.0335263396,3.3202875819,0.6346901705,0.1898831302,0.11346904,0.3774055788,0.3408916696,0.8505304288,1.1282061012,0.6349607737,0.0525050655,0.0150803743,0.5457005603,-0.0319852081,0.0934332581,0.7301368505,0.3126626185,0.2921769628,-0.0658615402,-0.0668630718,0.4247075516,0.1971835031,-0.0981352013,0.1248412521,0.0911906487,0.1682602029,0.4430122272,0.492731666,0.853283538,0.3224772603,0.3873319214,0.570465571,1.4931408605,0.37174337,0.3548547836,0.1391996221,0.2629207566,0.5853886493,0.0850262447,0.2330990502,0.2469110539,0.2709974921,0.3387798502,0.0439993326,0.0569997426,-0.0065888468,-0.0243335934,0.7574745433,0.8172733139,0.5060604625,0.2183353953,0.2856114311,0.3547187337,0.6171070338,0.4935313426,0.5338167166,0.5831540134,0.4117007238,0.4077968784,0.6004576199,0.1411492502,0.2331530786,0.6086102442,0.6124646146,0.3980515948,0.5545778678,0.6672713365,0.0214713257,0.7115034836,0.565801988,0.7772606431,0.1522914124,0.5158320335,0.411897267,0.0526990506,0.1138815573,0.0890107309,0.3938730058,0.1556068174,0.0790458543,0.3562039109,0.8282193007,0.6727149524,0.5047841871,0.1263413105,0.0628598787,-0.0098209479,0.464476099,-0.012376155,1.0753065189,-0.0302501814,0.9259604646,4.9129865042,0.2634646998,0.3704688949,0.2506998645,0.3296811186,0.4765515181,0.130280805,0.2079243428,0.6755096132,4.4658116492,0.2637176608,0.1976754335,0.6181353105,0.4492308308,0.1142696406,0.4175924072,-0.0600482044,0.6897782344,0.1904007384,0.2968388256,0.2353557195,0.0804809131,0.7415837198,-0.0841283241,0.3382250965,0.3823487278,0.355625921,0.4519249247,0.0033258391,0.5839648701,0.2977759334,0.9712676419,0.7788987056,0.0266941842,0.1421987298,0.5420067578,0.2002457915,0.3074764786,0.4485541081,1.0715519142,1.9919184898,0.2628014537,-0.0335070337,0.7073047166,0.5001608923,0.1737070072,0.2501138563,0.5497359528,-0.0597804719,0.3131496027,0.4821176774,0.4431968681,0.5207852414,0.0589282612,0.7018745612,0.1314802389,0.0406433117,0.0828314826,7.8529811691,0.4222727925,0.1197998104,0.0321586677,0.147414301,0.0793141772,0.0149108772,0.3274669981,-0.0299080111,0.199907552,0.1338023272,0.6166054467,0.0319357762,0.1909191986,0.2783931448,0.0146420809,0.5222090992,0.200671866,0.2734127917,0.295009774,0.316729453,0.4844309646,0.5598948436,0.2614535923,0.2832351473,0.0067790221,-0.0112441283,-0.0165834243,0.3547213384,0.0834815041,0.0936952527,0.0268293967,0.5197666317,0.4626030707,0.3611067165,0.280083905,-0.0112819098,0.5412269051,0.6482451156,0.6503390028,0.5124083806,0.3383888128,1.0509748193,0.652390372,0.5161185188,0.0362219264,0.2941442542,0.4479976057,0.2972155514,0.2628699082,0.5917831081,0.1507566116,0.5199129267,0.4032356402,0.3628880695,0.57106766,0.5932559507,0.1961432317,0.561665908,0.6573455789,0.696243796,0.1780307879,0.4471945702,0.4489959991,0.6880938119,0.6973588712,0.5893651396,0.672874053,0.1359400737,0.3356176725,0.0925934266,0.4201777182,0.2386588359,0.366972832,0.4660219942,0.6851695214,0.637609192,0.4517442971,0.7027779196,0.1124856886,0.2286771513,0.0808721284,0.5074681949,0.1885192454,0.6051764284,0.2974543025,0.5150139449,0.40108549,0.4727630271,0.3963621644,0.5054098894,0.0914225998,0.6379626832,0.658012751,0.1568026872,0.4210523336,0.1463373502,0.2987626046,0.3987457804,0.4843112273,0.2630622061,0.1749673334,0.3994812031,0.626319534,0.8996497822,0.8978759567,0.5700528022,0.4129672809,1.1470950538,1.7240439313,0.1006939656,0.2360738409,0.4858490257,0.0391164104,0.7005094752,0.0164772987,0.1960812241,0.3508524817,0.1262707494,0.5857530178,0.4591594824,0.5808075472,0.4672268204,0.545940008,0.2808999221,0.7613258879,0.6244887465,0.0288271253,0.346732728,0.0692333903,0.3585098922,0.4780415929,1.4673725488,0.1264894706,0.3369595937,0.2339488787,0.2993876532,0.1059563499,0.2833804107,4.9835748242,0.6124987633,0.356852882,0.548511766,0.518791121,0.6211270849,0.4636239759,0.6955431288,0.1316291824,0.479710572,0.3066761116,-0.0566372662,0.3056924219,0.31424054,-0.0327206664,0.6333995044,0.7424646909,0.7270257105,0.6057007964,0.3307508776,0.8001453918,0.7743463811,0.5268995204,0.3817882645,0.2364315226,0.5835528152,0.5940128399,0.3824143603,0.6253819783,0.3701606158,-0.3208383318,3.9654911584,0.3294642036,0.0259563902,0.6505022478,0.7408749744,0.8024022346,0.5007157802,1.0633622523,0.6021416619,0.4701785005,0.5759065459,0.1586530133,0.4300767429,0.6873417345,0.9364853311,0.7839111247,0.2620467998,0.4081902594,0.4587865499,0.7722173699,0.1723831136,0.4638961268,0.2290674135,0.4569449212,0.4361134419,0.7960389891,0.6472143114,0.4318137675,0.552482319,0.247736011,0.2802883749,1.6541534619,0.3737008309,0.3219595579,0.7974116728,0.3654944519,0.0165929194,0.6870295358,0.5183611353,0.0408015828,0.0450867521,0.1195030191,0.1437951753,0.6721796396,0.2444027404,0.2044672724,1.4139147058,1.3658259764,0.2063598201,0.469558541,0.5762014189,0.2326309892,0.2569308313,0.604368326,0.2427097673,0.6581343235,0.4137059375,0.5148880672,0.4372339836,0.3267391464,0.1493077228,0.3170211972,0.4589687287,0.1436039181,0.0589721436,0.8611232207,0.1152502966,0.3544439212,0.6703475435,1.1619050746,0.2526185249,0.7793882827,0.0744998825,0.3204464146,0.3972920551,0.4688669794,0.178010627,0.316989877,0.288612959,0.1899768477,0.7142339962,0.2274706741,0.3045500096,0.0135934748,0.4056907811,0.0370119516,0.231106722,0.5860308902,1.443754337,0.3310415609,1.1016176487,4.8002137239,0.3535155132,0.7727049772,0.2901301729,0.2562511306,0.7056388144,0.5578506694,0.0406348639,0.9437136837,4.6746887911,0.7315041391,0.1207123213,0.3654775286,0.3366463876,0.3008147865,0.7330695736,0.2709848207,0.7609724785,0.6840498738,0.7037162307,0.7565997528,0.3568201412,1.0649695922,-0.0204876514,0.5273769199,0.7033248555,0.6213642323,0.5749905349,0.2096105004,0.2033715486,0.8149612031,0.9284604428,0.808282887,0.1099155194,0.2886541703,0.5060571102,0.7240942705,0.0751865866,0.785654604,1.1352104942,1.9779062614,0.5569339939,0.3832234651,0.652654876,0.3364615092,0.0816682118,0.2422073125,0.6137848837,0.0477680551,0.5353739895,0.6384906999,0.1724052506,0.7747731014,0.3787959413,0.6346610171,0.1729852676,0.52413001,0.6831234042,7.3974212969,0.4647435264,0.5086147994,0.4359776604,0.5878654956,0.5324183574,0.1875143402,0.0532216662,0.051537882,0.5732182585,0.4302129443,0.7424060424,0.2335800413,0.2962172011,0.2640083978,0.1119636585,0.666964432,0.3889718644,0.4306701285,0.6652562702,0.1804192073,0.6960791176,0.4901418025,0.2629061894,0.2394571025,0.3983975619,0.586166059,0.0992955387,0.1167103965,0.6177720113,0.7375399427,0.0989375269,0.5248019102,0.4229710166,0.0914933687,0.0852130839,0.2882586938,0.5020333836,0.270324097,0.5389254246,0.2705563824,0.6467182316,0.8570087919,0.0305380168,0.1972747671,0.2481938466,0.4088698169,0.3888987645,0.1020245761,0.1194535016,0.6233498399,0.3299242006,0.6885140736,0.6722186049,0.2334102359,0.6906193009,0.6552818866,0.6778539857,0.4069483517,0.598757361,0.4741794485,0.6830638542,0.2893488256,0.2762630249,0.5235896584,0.2476459355,0.3550457919,0.4548557369,0.4152657346,0.6987697476,0.3496371915,0.3472880274,0.598176143,0.1990566136,0.3866054083,0.3398936201,0.5730268252,0.1830680831,0.6310170188,0.1564630009,0.5348775228,0.6457129291,0.6528412698,0.1803710092,0.5308901891,0.3219624237,0.3838752448,0.7033388477,0.1759787471,0.3248641279,0.5745105075,0.4569312769,0.9175127207,0.5046999609,0.853128385,0.0775334412,0.6615553411,0.400131502,0.5898200823,0.3268345075,0.5956420073,0.2447634088,0.5392750742,0.7741219404,0.9005991273,0.9866359764,0.8002277409,0.7583783688,1.4921888481,1.5583242754,0.5880173033,0.732412207,0.2184638383,0.2083472638,0.5980304032,0.3064501816,0.139600829,0.6705005814,0.1411658967,0.3805570553,0.3126026351,0.1689049677,0.3912938657,0.8107248929,0.2368647487,0.6497593135,0.3861728959,0.1518688287,0.1817574879,0.1050195569,0.3934124771,0.4286175944,1.6603374181,0.1655976661,0.5422181546,0.4972875043,0.1491317647,0.533215137,0.1447329218,5.4593237577,0.743304568,0.1051990779,0.5588573764,0.5012791689,0.3022839459,0.6810102921,0.4775285676,0.0195403581,0.5513076123,0.8313586273,0.4221356906,0.9336187841,0.8945843523,0.5581509578,0.1953422705,0.828150454,0.3691253083,0.1096734096,0.4303880479,0.48832193,0.5220614689,0.5747527888,0.1601700149,0.4708907611,0.3350641691,0.7872265196,0.3017762161,0.9730942836,0.3335228849,0.6323124991,3.7945874113,0.3628144358,0.4981581355,0.5509199018,0.3485581913,0.7060940972,0.6317441349,0.8926898025,0.512262191,0.3469358457,0.0279976025,0.6847911279,0.4597828432,0.5514210918,0.7676294226,0.6995471125,0.5707646441,-0.0689231732,0.5856743489,0.3258953814,0.2671531104,0.1456678118,0.666471735,0.1655610341,0.5261399231,0.7911885355,0.0918197543,0.5493680589,0.0358929014,0.6262567258,0.0789959338,1.4649948706,0.8645180592,0.4419347219,0.3899201332,0.5270783867,0.6992690592,0.6410265581,0.4292433422,0.0780361119,0.1273314976,0.4411311291,0.4380020659,0.5870226161,0.3597589019,-0.022592523,0.6173649411,1.2736721942,0.1012907276,0.7396020444,0.3633676252,0.5248581793,0.1587553758,0.0962531414,0.1545877598,0.2894206554,0.3487727866,0.6536662011,0.3555345382,0.6628504943,0.5891147174,0.0847661179,0.2067026089,0.5658947029,0.2830000109,0.6275613084,0.065203984,0.5828785188,0.502927315,0.8170150155,0.0404832885,0.1315940434,0.1952337457,0.4274411607,0.3256316024,-0.095645577,0.0847137582,0.193991795,0.3829616889,0.5322401383,0.1435997162,0.2513263473,0.1214783706,0.3391654206,0.1010183003,0.2353101553,0.5842473864,0.1733686032,1.439464044,0.4664945086,0.8435841378,5.0496737328,0.1839258528,0.6997542799,0.3003512575,0.0130623795,-0.0045045508,0.4040400395,-0.3228915905,0.8230808471,4.7810769011,0.1491023244,0.1198375458,0.5188453028,0.1039154419,0.4693332665,0.2116499928,0.4456631127,0.3012370807,0.5644163918,0.1667164657,0.1517342542,0.4105286198,0.5727988267,0.5035573657,0.2432982236,0.4103745834,0.0955651452,0.4509028134,0.0443820585,0.1467584482,0.4295485353,0.5619057961,0.8054441137,0.1325290735,0.1020336326,0.4611015386,0.3390473567,0.1237360297,0.4637077764,1.2043452662,1.8338008359,0.5532008832,0.023147169,0.220499653,0.1059134128,0.5219352578,-0.0674268371,0.5043072122,0.5730856412,0.5091822622,0.3001843112,-0.078152937,0.5506671593,0.1503385922,0.7853382365,0.5614765585,0.0006724132,0.4087576566,7.4280073514,0.5929206123,0.2806591386,0.37065655,0.0102630664,0.6179502288,0.5454992893,-0.0149176633,-0.1170314327,0.3276751245,0.0152794148,-0.0299736159,0.2605581622,-0.053434247,0.3714546162,0.4586649546,0.0122715185,0.133237743,0.2344183817,0.5243714947,0.5668009251,0.3294811994,0.262811929,0.5062953522,0.1052817531,0.686902772,0.0273148264,0.5970035024,0.3435987599,0.6100343332,0.141270347,0.3694997151,0.0575528847,0.3213262769,0.4943329048,0.1431138075,0.3689836325,0.195149449,0.3217817517,0.5264667042,0.2978152652,0.6042456073,0.6339976156,0.0247615963,0.6918809656,0.0331490783,-0.0056235303,0.3071786733,0.0307984648,0.1303305308,0.0133699696,0.4538769302,0.0372434019,0.1961504371,0.0273344758,0.5211879504,0.1655068905,0.4969535227,0.5198336526,0.7508706122,0.4681639473,0.6734953831,0.2096337188,0.4815373095,0.6176218954,0.4898224453,0.1591967868,0.484543597,0.0739546183,0.6757843237,0.6357359498,0.5744847302,0.3915743983,0.0126356642,0.4686624119,0.2030158078,0.5437125605,0.4850128186,0.354615531,0.3167989266,0.2680520525,0.1198172279,0.4844549054,0.2966010151,0.0951354484,0.1632352382,-0.0178918463,0.3958037012,0.1012623971,0.4433576962,-0.0086958251,0.2910266993,0.5877708703,0.2612464858,0.4612703771,0.1251768583,0.3653677143,0.0014897561,0.5410569644,0.604923271,0.0360086604,0.5693700617,0.5509056136,0.5513542454,0.6982533828,0.6809386767,0.3205158393,0.5537630813,1.8381800424,1.832514522,0.6335942816,0.0828055545,0.0640323277,0.0251942882,0.6297403138,0.0362647376,0.228342674,0.2111852039,0.4289470643,0.5243467831,0.3246824357,0.3088146762,0.5039370883,0.3749704678,0.6230504502,0.3636287305,0.3738678946,0.5721336859,0.179336928,0.1604987401,0.1432711163,0.344092901,1.7331083917,-0.0437500199,0.7100947986,0.1302555235,0.3636775167,0.5754101753,0.4559687288,5.3123660875,0.3731832388,0.4548875199,0.4807946052,0.5917628217,0.2748658222,0.2988287477,0.1856255677,0.1249482436,0.4929809799,0.3100396456,0.1071317629,0.4718426006,0.5772668643,0.4171262,0.2914418394,0.2902296613,0.5197836776,0.3404461414,0.0449703089,0.2390687901,0.430670685,0.2539037868,0.0970672497,0.5162015617,0.5340740721,0.0340123881,0.0380860684,0.3509385373,0.3132832281,-0.3215977051,-0.1013182612,0.1261394515,0.0215458261,0.1485376932,0.2290435314,-0.1070368864,-1228.4112229015,-0.3430120033,0.2597403556,-0.1894670151,0.1897933807,0.3871325719,-0.0383230396,-0.2271127954,-0.0834382211,0.1800225833,0.2760623921,0.4763279638,0.354385067,-0.2284560153,-0.245104583,0.3308607323,-2.2378423421,0.2210364239,0.4989141479,0.0772276011,-0.3682259562,-0.089629059,0.2370123133,-7.5067108458,0.7107743916,0.1154563979,-4.6991297706,0.0149574707,-0.1466318423,-1.7090461964,0.4117872186,-1.3687878696,0.4764423285,0.5187892776,0.155853891,-0.0663534544,8.9845461427,-0.2704408271,-0.0112487568,0.1410257417,-0.0296954998,-0.2960358928,0.8406941786,0.3490248006,-0.2569144524,-1.2971228686,-0.3230821203,-0.126618862,-0.7305207421,-0.3217612003,-2.0067248543,-0.3697124788,0.5087709517,0.3028368243,-6.5367893254,0.0629432234,0.075680447,0.2125953646,0.2553976628,-0.8634512557,-0.2322575022,-0.1195071223,-0.0981830838,-1.2482039671,-0.2256248671,-10.0231087606,-0.0283959829,-0.2135003794,0.1131902518,0.3737400712,0.6798837869,0.150488658,0.0170910365,-1.0929124175,-9.36875857,0.1914847997,0.6393003887,0.3440617586,-0.0142416909,5.1413693569,-0.0579507633,-0.3687525389,-2.4870310197,0.2198773569,-0.2737137303,-449.9027832632,-0.3324208583,0.2334614147,0.2965252145,-0.7085137994,-0.070864808,-1.8033207944,0.4040871291,-0.5669000047,-0.068830846,18.2951148396,0.1491171741,0.4230542827,-1.6248490173,-0.2657106408,-0.4082203913,0.2864151012,1.163575101,0.2793922551,-1.0824436542,-0.9574802475,-2.5626286323,-1.1139351587,-0.1135247533,-0.0339630504,-0.2395800628,0.116134907,0.1700075142,0.100233089,-0.3276798921,-0.0276959314,0.3706630051,0.084183607,0.0488237443,0.2740360956,0.4021734344,-0.2222876145,0.8499178919,-0.1954078562,0.4737463692,-1.4613497991,-0.0038666313,-5.011524597,-0.0989310987,6.5490800263,-0.0630479101,0.1873814886,-16.1567377845,47.3964988668,0.2750273448,-0.0465071078,0.6569343468,-0.1105247094,0.3663629994,-1.0866490908,-0.0297010965,-1.0879999216,-0.205755052,0.3666521796,-0.7677563674,-1.1148051186,0.2671239622,-0.2341569654,0.0743113057,-0.2215203661,0.4591518217,0.0668981129,-0.2540431831,0.0986175264,-0.3876513623,-0.2826687151,-0.0941949547,0.3570999641,0.1316648283,0.0931209802,0.6976881638,-0.2778790058,0.0500489133,0.7014610741,0.230001264,0.3245780488,-0.0870944194,0.1481920065,0.3908615062,0.1346191318,-0.1399098757,0.0849036904,-0.2126285858,0.390553687,0.3938469138,0.0149269509,-0.1101496193,-0.2306465056,0.3640671199,-0.1396358402,0.1934335573,0.4091416142,0.1041728999,0.1005078017,0.180749549,-0.4778425453,0.3653292467,0.4337959032,0.3639725506,0.1486166798,0.3149338123,0.1804731143,0.565948945,-0.2434505621,-0.2408353007,-0.2707819441,-0.1131070751,0.6661959765,0.2885404386,0.1938438725,0.2936637456,0.421653643,0.0234821296,0.0706242776,-0.0871718375,-0.0465162785,0.2153366206,0.08851405,0.629725605,0.3910189023,0.6787940013,0.3654556229,0.1309182338,0.2432393715,0.207686591,0.2028425364,0.0077101176,0.0439455471,0.5425084498,0.6103235107,0.6619953463,0.4021863395,0.3478726009,0.0015597741,0.0519793209,0.0595945846,0.0338933756,0.5630643858,0.5409541951,0.4129927511,0.2352203386,0.127813688,0.2743449598,0.2584619072,0.0782347494,0.3135860464,-0.1064325399,-0.057732753,0.1477083697,-0.0479451177,0.4452485775,0.018605221,0.1533476471,-0.4196817361,0.1789895258,-0.1769737616,0.1131074012,-0.2075105949,-0.0888457555,-0.3505844861,-0.20317533,0.2076690361,-0.1021887685,-0.1737241693,0.2677807827,0.2896821641,0.0371188807,0.264913658,0.6365230659,0.3781953842,0.3553425595,0.4009452134,-0.0169993844,0.353609885,0.4129219184,0.5385380735,0.6477265842,-0.1539686494,-0.2988582346,-0.030571087,0.5830418282,-0.133172922,-0.112931895,0.1640480657,-0.1243657202,-0.870171222,-24.4510372124,-0.1809503792,0.1158567705,0.1860650546,0.7552093477,0.444841134,-0.1395078015,-0.0432856877,0.5628092096,0.3144697154,0.0640026634,0.0371172384,-0.0405845261,0.0872795066,0.0949772154,-0.0895458977,0.0891835755,0.1177023184,-0.0675038888,0.3341147634,-0.4122219347,0.1369780699,0.089453108,0.3269754933,0.3888821958,0.0868076059,-0.3305497656,-0.3388012086,-0.3396984431,0.2106521964,-0.0931544867,-0.2427867293,-0.119068854,-0.1860990469,0.154841618,-0.5089642365,-0.9186358661,0.3352692398,1.0799189034,0.2853803187,0.0662322314,-0.2517846697,-0.6533147485,0.005420251,0.0242997628,0.3287705451,0.264618876,-0.1542681982,0.368532335,0.5448703072,0.2220470164,-0.0128498536,0.3568907515,0.1854953943,0.2976007353,0.4269271329,0.0461309879,0.1984485977,0.2160300727,-0.3237106159,-2.2031341028,0.3952729855,0.0090156413,-0.9239293864
   0.0667649834,0.3714910691,-0.1661603333,0.0351743651,-0.3904325459,-0.8126596536,0.3975264923,-4.8781118026,0.2007329885,0.5484537513,-0.4903944621,0.7080545594,0.0292396536,0.455875262,2.9378760352,-1.2972171991,-0.1882203728,-0.1024383439,-0.317483578,0.0601768775,-0.3308475613,-0.0739408848,-0.0994903451,-0.2539335604,0.0133955414,-0.0025473288,0.2783664393,0.0299426968,-0.0769018206,0.1928048062,0.1196020435,0.6857604216,-0.8779837367,-0.0918287389,0.5194879845,0.3849785132,0.5595043178,0.5256702476,0.0891152995,-0.2389786054,-0.2376250886,-0.0827243708,-0.9535019938,0.0429339693,-0.0094450767,0.1912951387,0.9762821514,-0.3173530787,0.4390656759,-0.0175336673,0.5968856815,0.0059629106,-0.2616484813,-0.4740235761,0.3624755743,0.2417195235,0.1633434168,-6.2976490925,0.3541855028,-0.1728286737,0.2334874593,-0.3292793637,-0.0169728019,-0.2758407269,-18.2571221949,-0.2346688332,-0.2767142549,0.9807410543,0.0866368678,-0.1946590584,-0.0361496124,0.5805001671,-0.6313399714,-4.0613401626,-0.2936578346,0.2312628138,0.2746068817,4.1363409538,-1.04479367,-1.0292687023,-0.1063482722,0.147303158,0.2480255778,-5.507286472,-0.7162826386,-0.3086093209,-0.8987756132,0.4275650826,0.002307789,-0.1830104965,0.0942662609,-9.4359396961,-0.0160561626,-0.0385536523,0.1036011358,0.4179019732,21.2377864444,-2.2333502069,0.0552506961,0.4007256368,-0.2276217201,-0.9249207774,-0.5921448045,-2.6687646592,-0.395192913,-0.319739752,0.1271240414,-0.8365156435,-2.1697056829,-0.137133886,0.4707767321,0.4583287384,-0.013819773,0.2451442984,0.027700457,0.3691579348,0.3849852242,-0.1284665793,0.1350221964,-0.0169528612,0.2257746807,0.2608587457,0.1876813589,0.3047187466,0.162640894,-0.1767514949,-0.2103069815,-0.3321857956,-0.2668256918,0.3970955328,-0.2321302039,0.3350320359,-0.2208086876,-0.3350611365,-0.0126505182,0.3521041038,0.2979913019,0.581357901,0.2262692843,0.4812121884,0.0445055314,0.1736714613,0.4706754163,0.1492673857,0.1597151933,0.284802508,0.324380061,0.5322351646,0.2783968491,0.1624240541,0.0859740247,0.0124506841,0.3535710202,-0.1826955242,0.0714943536,0.3225851184,-0.1511922502,-0.2128595323,-0.0932684653,0.1037073921,-0.0469813766,0.0136189209,0.2504068345,0.0210294524,-0.1821307602,0.5861745052,0.2359928694,0.2868235383,-0.0038472524,0.6947066519,0.128045582,0.2539507093,-0.0762104471,0.1662339674,0.1436671648,0.1846589966,0.2595407953,0.556951237,0.2866689509,0.1562477517,-0.3382411094,-0.5536280568,-0.7198126069,-0.1729716892,-0.7943918177,-0.5244916683,-0.368842614,0.0742534198,0.6993274091,0.4907199356,0.2324938999,0.6464759315,0.0714012712,0.0718527752,0.5073040553,0.4210222879,0.6450555815,0.2556038038,0.6487035956,0.436229119,0.6235632566,0.6043572864,0.0372897342,0.3492479475,0.4373717831,0.0884745135,0.2521113969,0.0157646297,-0.2038026053,0.7083157003,-0.3085793073,-0.1861865833,0.1755100326,0.2022171827,-0.2647305382,-0.22932849,-0.2101937458,0.0853035147,-0.2435900155,0.0283993296,0.1948708064,0.1063567095,-0.1769702234,-0.1565431809,-0.3611952062,-0.2322550316,0.0980520945,-0.00177985,-0.0748304289,-0.4280508263,0.1147814511,-0.2316131913,-0.3439680517,0.162677675,0.3696927851,0.135033273,0.4060138023,0.443183465,0.0413689614,0.1414238412,-0.3687648621,0.029159622,0.0880311506,-0.1567556236,-0.4030032238,-0.5042923739,0.0316240584,-0.3279874703,0.3597553529,0.1568995268,0.2033389485,-0.0393269796,-0.2081695349,0.1531401616,1.1065204237,0.1295349145,0.0827661979,0.0951514293,0.3618802809,-0.1388341618,0.1191297659,0.0258380682,0.1739572322,-0.3189085891,-0.2439966843,-0.028425846,-0.0187315907,-0.4656850642,0.3307308201,0.0955664124,0.0269493223,0.0570991481,-0.032401673,0.0210174284,0.2037272747,-0.291014749,0.0304664746,-0.1917407295,-0.0311739693,0.0245509504,0.0496780642,-0.1835504789,-0.1404464676,0.1359482105,0.0572649246,-0.0991304006,-0.2639679247,0.2914136578,0.0506353771,0.1000146278,-0.6259778762,-0.2017285775,-2.1194138313,-0.2003603745,0.5352066106,0.0653361982,-0.4981230586,0.335493202,-0.1310367677,0.0280102006,-0.3922720977,-0.2121295046,-0.1493417718,0.664746876,-0.4026984432,0.1334208214,-0.0889704374,-0.3355813803,-0.3224083552,0.0756714946,-0.012677268,0.0475643748,-0.2178412523,-0.2886012632,0.198556948,0.3141032901,0.2256795484,-0.2839397838,-0.2342080174,0.1829390957,0.1837621645,0.1209823524,0.0570384008,0.2043691643,0.3177338242,0.6655592979,-0.3268815569,-0.0542785729,0.19580752,0.2466236532,0.0795887068,0.6292032155,0.0906696857,0.0836952926,-0.3031546362,-0.3063600314,-0.3433405859,-0.2264560123,0.1086962773,-0.3216203253,-0.1532893359,0.1495320167,-0.0208356682,-0.2515515697,-0.315589675,0.1577244549,0.1900767917,0.1965001645,-0.4686434867,-0.326226186,0.4139161759,-0.0981785845,-0.1390601742,0.3619383732,0.0511826578,0.0239985467,0.5003313478,0.3416260489,0.1770098249,0.2600714622,0.0407681586,0.8466283215,0.0708151137,-0.2556942748,0.0577248713,-0.4010782008,0.1402785173,-0.8401934782,-0.0916099185,0.2586436982,0.1541173188,-0.0563075518,0.4243293156,0.1058917554,0.0827274215,0.0929622137,-0.0347204723,-0.140982997,-0.3230520512,0.1678120608,-0.3422845667,0.0113402339,0.1401940721,-2.1243027851,0.2365036505,-0.2817140229,-0.5373413398,-0.2195495124,0.0322088164,0.2668029479,-1.1735580756,0.5058584428,1.003949216,0.0732581015,0.709137762,0.0296406778,-0.3430115591,0.1052088097,-0.1531432406,0.1615190782,0.2618867617,-0.0004624916,-0.3871349414,-0.3678442216,-0.4423544832,0.1086858776,-0.2330509816,-0.0635929503,-0.2351506762,0.4642370192,-0.2585165741,-0.0845783555,-0.0728359909,-0.1702770614,-0.4486415029,-0.001657596,0.1125727369,0.1623597343,-0.3856548068,0.2017229953,0.0255897608,0.3893753798,0.0029044692,1.2416137461,-0.4098924029,-0.3639274984,-0.0578906604,-0.2693822234,0.0101886478,-0.2096201929,-0.1779563349,-0.3192566888,0.0009087526,-0.180281063,-0.4835685036,-0.226430533,-0.4356657098,-0.1547348408,-0.4411835571,-0.5506535766,0.1358723763,-0.3866240414,-0.1107485989,0.0905040286,-0.2496245756,-0.5411883998,0.2251397691,0.165925355,-0.2586331157,-0.587737231,-0.2814729349,-0.2843855563,0.2815963834,-0.0592125579,-0.1365958602,-0.1199257452,0.0711100496,-0.3312221,0.590486904,0.0942509417,0.1850395981,0.4613515628,-0.1600275239,-0.1929656654,-0.1274737493,-0.394142098,0.6440344029,-0.1705554816,-0.3009672855,0.0951098205,-0.1939137651,-0.0202083671,-0.2052718022,-0.4710920877,-0.1793249865,0.0460651195,-0.0980873973,-0.0062043959,-0.3086784237,-0.2937067516,0.1253075112,-0.1123088994,0.4459029681,-0.5354787611,0.4737889265,0.1752328717,0.1857510257,-0.0351014072,0.5168836559,0.2726377149,0.5817081863,0.0018564312,-0.4464488729,-0.2394855933,-0.0500477229,0.3134074877,0.3111143964,0.2392674138,-0.3696928564,-0.3147282067,-0.0407316543,0.105311699,-0.0302337984,0.0658931848,-0.1084908846,0.158677893,0.4272611247,0.6599918692,0.6017194333,0.0467775206,0.6472806927,0.2519058435,0.1721973547,0.5438597698,0.1875794202,0.6033127746,0.3681261286,0.6420001951,0.6134142246,0.5702194548,0.6347765706,0.3570251741,0.2654654053,0.5261446907,0.6404390575,0.0183110872,0.2069278494,-0.1224122904,0.398650221,-0.1903838715,0.2541904967,-0.3023274617,0.2362958264,0.0558547232,-0.238322031,-0.0591543688,-0.2677389486,0.3235640725,-0.201066008,-0.2903608113,0.0364279171,-0.2058754092,-0.5314131287,0.082621551,0.1271169117,-0.2486803635,-0.1557660873,-0.0010649,-0.0635089826,0.040448069,-0.0870424743,0.2022794025,0.1939527058,0.6343119788,0.4781052213,0.2472455992,0.6713117538,-0.0076128824,-0.0058782219,0.1162829688,0.0882422304,0.1606310403,-0.4487049036,-0.0209096578,-0.1002247844,-0.3242796263,-0.2380102578,-0.3548686161,0.3027071123,0.0871425799,-0.1352195319,0.1278875383,-0.5177298072,0.0748727557,-0.5056782265,-0.1468213713,-0.4976281331,0.6215253181,-0.1391394399,-0.2686820311,0.6877987194,-0.3725261451,-0.2839827426,0.101710978,-0.4248435162,-0.3384457295,-0.1578805297,0.7090522927,0.1806124244,-0.2081406339,-0.2262961916,-0.2632786293,0.3493851606,-0.3151381244,-0.0271651672,-0.3110944155,-0.3478788599,-0.0704201214,0.1024134975,-0.4406903165,0.2204788157,-0.097962838,0.0673352749,0.6593868078,-0.1531578414,0.1510159169,0.2042216954,0.1619181893,-0.3339937271,-0.2105216362,-0.3989853338,3.6852638906,0.2351403447,0.5183359849,0.6402102158,0.5947467424,0.8376289272,0.9894684583,1.6261297242,0.36641986,0.6346050588,0.4500949368,0.7085622735,0.5905209717,0.7001023717,0.7207325707,0.641174445,0.1124193624,0.1941566922,0.2493077331,0.4572455259,0.6445385604,0.1736272675,0.6599210946,0.7132810853,0.3139081827,0.2267600938,0.3656293575,0.640900696,0.2957064472,0.3213700424,0.6679714493,2.2465976573,0.7796277606,0.5756372821,0.6050985645,0.2116964158,0.0525306147,0.5476852129,0.3916730017,0.0044841542,0.1074401502,0.1737633094,0.6587283463,0.7290183662,0.0993333467,0.3049693679,1.2075645451,1.1934691001,0.3152848298,0.6002039134,0.6629669205,0.6026006928,0.4040803432,0.7193709358,0.7432171938,0.7051890911,0.176896303,0.3637049882,0.6337097234,0.7808963906,0.3051537864,0.1627582572,0.2493229267,0.5812973762,0.1161319848,0.2400835445,0.2424817548,0.4674278977,0.1565739527,0.9062672097,0.7000797173,0.2077105144,0.6179320762,0.7489799051,0.1736509884,0.6781604402,0.1289926494,0.4788362995,0.1792841116,0.1487890803,0.935364377,0.0140066556,0.0122224849,0.4146080445,0.4574486641,0.0733284572,0.2336820345,0.5688592148,1.2544700772,0.7356299937,0.3994654824,5.0540901712,0.232040141,0.437103437,0.0201062402,0.7468847146,0.3637133239,0.4909195039,0.4729923428,0.5575013914,4.6994040689,0.2534043459,0.1091005069,0.2378475027,0.7039562967,0.2551234138,0.7258140542,0.0899895542,0.9541947893,0.6027686534,0.5430580836,0.4601117828,0.08728487,0.4569086949,0.6474994758,0.7379017319,0.3108311338,0.4847019661,0.5170221121,0.2406565573,0.3786680456,0.4856373664,0.7586190201,0.8751383021,0.7398140343,0.2104529937,0.5879889215,0.7079707475,0.433788552,0.846835163,1.3857215801,1.6873329623,0.4540616414,0.7080479147,0.3088895793,0.6388636265,0.163427326,0.3439554355,0.1612985178,0.2700330989,0.2459562427,0.4586348215,0.1980068487,0.1717960797,0.3686366367,0.2729987888,0.1794509773,0.3293385624,0.4607216569,7.452330766,0.2726054384,0.6920319971,0.0288664385,0.4313494175,0.4676477773,0.6351735653,0.6701670888,0.3838921267,0.4005909763,0.5060022091,0.7390202913,0.2621939472,0.6580625297,0.4167573433,0.2018313992,0.3014189618,0.6386182496,0.3329901222,0.5908210734,0.2002559596,0.3293547033,0.5567713228,0.389380657,0.2523978744,0.6038371226,0.4371718932,0.0713472302,0.179758981,0.3684481015,0.3437967037,0.2225922188,0.2784640643,0.661103795,0.497389864,0.1782472236,0.4828222902,0.3511498846,0.6646767918,0.3205889288,0.5983039142,0.0089215895,0.7404999236,0.3336083708,0.4985856077,0.1931747763,0.3376435201,0.3513212751,0.6810417673,0.005113714,0.7431320149,0.5979903921,0.6466447432,0.2893820682,0.3013916123,0.1013924359,0.6798645643,0.3552269825,0.2177846313,0.5128307245,0.4525589489,0.4728090745,0.8666598244,0.4117298398,0.197225351,0.2353559341,0.2314869327,0.0593994781,0.1954607449,0.1027253897,0.3186966028,0.4098590265,0.0501355203,0.1564475043,0.0241442728,0.2036784014,0.1993459514,0.3153548496,0.1501828759,0.1579151895,0.4005997667,0.1591621888,0.2837892449,0.0925627031,0.2342141352,0.5619928415,0.3176150671,0.6785098835,0.7585470828,0.6284650946,0.3969697191,0.433114561,0.3183002389,0.5100019063,0.9325465764,0.6382822487,0.6642749487,0.417797297,0.3734318538,0.555732044,0.7466080419,0.7597530438,0.6091201648,0.7329766675,0.7934052199,0.6450664604,0.3638269251,0.6586141928,1.726152251,1.2896272106,0.1938833403,0.3221109632,0.1450439251,0.0903884976,0.5857845058,0.401295264,0.7162607869,0.3644576204,0.4124160128,0.769209801,0.7612102252,0.4418680218,0.7931861644,0.4239742688,0.2169014512,0.9156724905,0.2190287778,0.6137463247,0.6233572648,0.5680169918,0.1090662056,0.5623773135,1.8878323827,0.5749979626,0.6083124317,0.2743391924,0.6165827132,0.4005585125,0.3331916926,4.8271645687,0.2521123354,0.3095579267,0.3335781421,0.2613556605,0.7136059186,0.6133850493,0.3480178895,0.6729743429,0.1487923452,0.5014814957,0.6452960498,0.845625934,0.5569127082,0.5289195115,0.4000716896,0.6228441206,0.6001301998,0.5311934841,0.0659683618,0.4583048234,0.7647665928,0.3116050372,0.6192682346,0.1607620248,0.0572435578,0.5979128934,0.720845642,0.7291363073,0.1996338578,0.1946619387,-0.0086402937,0.0874078047,0.6751669257,0.5165785446,0.5649615715,-0.7610718537,2.2262348077,-0.1406977332,0.3139721158,-0.1184103959,-0.0910571334,0.6967672725,0.399532797,1.7819045937,0.2354433205,0.2234308102,0.5122786318,-0.0289595423,-0.219535549,0.3490716131,-0.2588379548,0.2023387065,-0.0001660844,-0.6314957583,0.2018146706,-0.9315915128,-0.2158683093,-0.5730370161,0.3531804304,-7.2993718302,0.6869281512,-0.1432645498,-0.0280713744,0.5469456804,-0.9768088003,-2.5889426527,0.3862363303,-0.2521812359,0.1097819787,0.4456901393,0.4807822871,0.0227854282,-0.5314156808,0.0916265969,-0.2248160679,0.218061317,-0.2526954414,0.230794031,0.137086351,-0.2679112002,0.0526703973,-0.0818021415,0.2744364227,-0.0129460808,-0.081713513,0.52782423,0.015322024,-0.1589701408,0.0076321137,0.6792204619,-0.4669384932,0.3308951934,0.3845284194,0.1683114845,0.6724763828,0.1693423037,0.2462875421,3.6209070414,0.2008454549,-0.2235183989,0.351586417,1.0623128065,-0.1799639619,-2.127490038,0.1228068711,-0.9409498874,0.2021165122,0.387405827,0.2681784125,1.1728659582,-0.7512129749,0.2768089616,0.2158032462,0.1250029595,7.5135855649,0.128338376,0.016511687,-0.3149332221,-0.1619958765,-0.2696684016,0.3063022543,-4.165167195,-2.4693826616,-0.2054934456,0.9635740184,-0.5397769198,-0.125193015,-5.8270371738,9.6335473406,-0.5339884782,-0.2357962339,0.2303871281,0.6476385459,0.2908187826,0.9456002403,-0.1970650473,1.8998484256,0.0224023132,2.2543290125,-0.027930758,-1.9818331538,-1.2089083332,2.0527047053,-0.4500447359,0.0780992485,0.3055803821,0.1278020408,0.413187271,-2.653193993,0.1134301719,-3.8902415185,-0.0208987884,4.6226132809,-1.9327305125,0.0742411001,0.3802770899,0.2405848392,0.2004390103,0.0365655638,-0.2532952331,0.1085149794,-3.1697387048,-0.3127249876,1.5544260712,-0.241893064,-8.9208669095,0.3319954578,-0.0741762805,1.097148977,-0.0898275277,-0.0989538742,0.0726487122,0.639286429,0.0298564758,0.4769230877,0.0418411417,0.0440581229,0.054275668,0.1167668782,-0.1186703141,0.1908530055,0.0013094601,-0.0862482246,0.0756415512,0.2214015884,-0.1450287741,0.1103096171,-0.0258963336,0.0816177939,0.2413882747,-0.109659908,0.3304357995,0.184981752,-0.050764698,0.6852587364,-0.1687051755,0.2375131236,-0.1575569086,0.0223179979,0.4601002317,-0.0274922352,-0.3302788419,-0.2710666178,-0.7492825302,0.4436288138,0.0304263379,-0.2579413484,0.1118981214,-0.256519848,-0.2835194258,-0.1797471119,-0.0735494657,-0.2417423919,-0.0435955926,-0.120787586,0.1292084348,0.2716511702,-0.1657448957,0.1513459348,-0.2523888835,0.1756184897,-0.1213375853,0.2548684392,0.1539596961,0.1538374573,-0.2831383365,0.6848202931,0.2375112055,0.5134317329,0.2669373479,0.2739049968,0.12914888,-0.3051923991,0.3781240671,0.2866230095,0.6218590496,0.0977151474,-0.2950438225,-0.1604615689,0.1369674404,0.4136298822,0.0263864049,0.0400440496,0.2445375282,0.6475270584,0.4641580045,0.1166469415,0.0661299118,0.0241991211,0.0382110124,0.1975112788,0.1344403362,0.0196521697,0.6182135439,0.3559138975,0.6474577427,0.4914379656,0.4656700745,0.5735845042,0.6292760273,0.48217354,0.4301518176,0.1782672293,0.1823757589,0.5061252912,0.2361479035,0.701262297,0.0367465413,-0.1187655741,-0.0703589138,0.6657785825,0.2841749679,-0.0621000002,-0.0578480231,0.0031324117,-0.3136042826,0.0393059628,0.1591820823,0.3434519163,-0.1810153122,-0.4074973507,0.0360835095,-0.201939137,0.1719223204,0.2541357867,-0.2220112511,-0.2638950351,-0.2307682639,0.3411012548,-0.198428266,-0.0490039014,0.0289869642,0.6427988738,0.2921784709,0.1516985486,0.3506558264,-0.1385166455,-0.2039836089,-0.2349925542,-0.1858277718,-0.2686313375,-0.1014517929,0.1402077334,0.0326693947,-0.1472441849,0.0673771313,0.164860129,0.0836054978,-0.0101071165,0.0179437899,0.0400995209,-1.3349576563,0.2232412148,-0.235133637,0.0336466288,0.6784988778,-0.2074462045,-0.0217446819,-0.2453784056,-0.2808139421,0.2649087693,0.0490998189,0.0706893013,-0.1080844324,0.0039764392,0.5096712013,0.1611963996,0.3239081345,-0.2769904185,0.0931078098,0.1627732509,-0.0690863272,-0.8529372409,-0.1489835906,0.2847644438,0.0193741789,0.5927289025,-0.2267597614,-0.3139638993,0.188246719,-0.3552127235,0.0425730072,0.276235586,-0.1718662883,0.1648568683,0.0806241401,0.7295710238,-0.1410692549,-0.9380540442,0.0771784106,5.5654525903,0.3735172202,0.2925578347,0.1459582161,0.7386935545,-6.9490197849,-0.1695391151,0.6181758992,2.0639122896,-0.218388167,0.0358518773,0.045545124,0.6982739461,-1.7044473878,-0.0063429121,1.3700084918,-0.161149929,0.3694200385,0.0293945778,0.0656248719,0.0570978745,-0.2835061214,-1.152072403,0.6414857325,0.4338865009,1.9909463097,-0.3055545352,0.0078287071,0.1465209612,0.5214358859,-0.0022889937,-1.6580197448,0.4446381119,-0.6883487391,-0.1963975044,0.1712914498,-0.3540794531,0.4457961637,0.0054880719,0.113431209,0.1109695118,-0.6532277948,-0.2034784157,0.1557613049,-0.1653471064,0.2272838958,-0.0802432236,-0.1425603496,-0.1378690332,0.2117404176,0.1080214254,-0.1839307647,-0.3356046897,-0.347955705,0.2210135804,0.2585222951,-0.1845937223,0.400729782,0.4265545341,0.093608309,0.0771363142,0.2236212119,0.2056225436,0.0921333352,-0.4982828926,0.053987126,2.1213371314,-0.0687194973,-3.8071747089,0.0374853179,0.0116374518,0.3030136192,-0.904263424,0.0480847927,0.548881664,0.8976836065,0.2732235959,0.2113226899,-0.3189227437,-0.2577861585,0.1772257073,0.3916001887,0.4133225213,0.1429397714,-10.0148897902,-0.7999715636,-0.1429519508,0.3122867026,-0.0354079971,-0.2477473682,0.2631631329,9.4273119076,-0.0875508441,1.1865281744,3.0838273929,0.26915685,-0.3731859285,3.4295118992,1.4872359338,0.22999436,-0.1888396271,0.0293522249,0.1586549246,0.2194908811,0.3288154287,-3.0619380064,-0.2123183558,0.2015232121,0.3020917142,-0.357984195,0.9726313573,0.3440494042,0.1625356827,0.1601006973,0.0723805545,4.8968350067,0.3675326103,-2.2798446264,0.1571367384,-1.6053985132,0.3114617711,1.355359989,-5.5441838002,-0.4554582767,-0.1958819466,0.1735123975,-0.1906152401,0.1188499236,-0.3562997582,0.1305456756,4.1703725978,-0.0731342368,0.1525760692,-0.3336250922,1.9210407712,0.2649984638,0.2508206713,4.710726919,-0.3095276247,-0.0726467014,0.3398533268,-0.5952219,0.6705282968,-5.0108178612,0.0591346163,0.1965439312,0.1067258498,0.231676692,-0.1111848083,0.2031272807,0.1794261366,-0.0138989348,-0.1493401457,0.2729594388,-0.0275708628,0.1732369889,0.1090760118,0.0909733394,-0.2811965998,-0.85318818,-1.2620261519,0.1871725617,-0.0662404552,0.1330154743,-0.9489489643,0.0945082258,-0.0648854243,0.1128114169,0.2594368839,0.2459976868,-2.0661173588,0.1177293846,-0.4855467962,0.5617120217,-0.1973216912,-0.2248336174,-0.2993459061,-0.039491463,0.1395894773,0.0089296425,0.3063392559,0.283885474,0.1936585096,0.2988560053,-0.182751903,0.0710420002,0.1421701421,-0.1555432365,-0.2822847772,0.3584647072,-0.1651325572,0.2296150345,0.6831512129,0.4854298766,-0.1541582687,0.3383844921,0.4716119024,0.5640245728,-0.1294582272,0.3108196556,0.0468680418,-0.1688435116,0.369016628,0.0730646096,0.3169784557,-0.0414194646,0.0329884307,-0.2274554317,-0.49224589,0.0506304823,-0.1910951812,-0.0356567903,-0.0366284973,0.2729521343,0.1615658859,0.1428247591,0.5316885249,0.5032450228,0.5377363542,0.5289474815,0.5181961202,0.2539508514,0.3138562273,0.550922478,0.6622369327,0.1013734596,0.1484891785,0.1989936445,0.1033630827,0.4686106001,0.0935422674,0.1967275102,0.4466714528,0.4095352404,-0.1449670558,0.1205747965,-1.5146094976,-0.6814783749,0.3339205305,0.4979708743,-1.9154151247,-0.2733128449,-1.8969765709,-0.1253946607,-1.955750841,-0.2301793122,-0.3234735209,0.1890003888,-0.624613963,-0.1601807174,0.1017604914,0.3105881559,0.1145889815,-0.0527456177,0.3599377135,-0.1924042794,-0.0405612078,-0.1853068404,0.0658847206,-0.0517239149,0.645711425,0.149111221,0.710226719,0.4181380929,-0.048200701,0.4066162586,0.0839089423,-0.2513652547,0.3382553621,-0.1556121164,-0.2004152673,-0.0618603229,-0.0985753327,-0.2268070953,0.3565780309,0.0794905416,0.1077118797,0.2382699664,-0.061052311,0.008097952,-1.7120564895,1.6065762577,0.1294258599,0.0799419835,0.5866198976,-0.3354759651,0.0326518014,0.3071159982,0.3069081604,0.1268994575,0.3014005424,0.3105374736,0.4304666157,0.1855636833,0.6276322742,0.6503242888,-0.2560933011,-1.9033915534,-0.1874169633,-1.7699519949,-1.481811362,-0.4732901001,-0.2654262012,-1.6015487086,-1.5760617189,0.5968458677,-0.0212019723,-1.4848778213,-1.9861579476,-1.7766849946,0.2225768326,-0.0545548935,-0.0221554244,0.3117836101,0.066862018,-0.0831599872,-0.3681522508,-0.9758451383,1.9441027151,-0.6866294957,0.6728390733,0.354782465,-0.9233267617,-0.4514292444,-1.4092276062,-0.3954587482,-1.1145548115,-0.7200450704,-1.5083145379,0.2415044363,-1.6494091067,-1.3040096013,-0.5550260789,-1.1008933219,-2.0994099212,-1.604809031,-1.4310331289,-1.6392550528,-1.5778058004,-1.5467236818,-0.5509592004,-0.5492598517,0.2853589628,0.1929087594,-0.3735998514,-0.9213988286,0.1324851367,-1.1673873424,0.0688104743,2.6927287991,-0.9430445402,0.4896238408,-0.422250355,-0.6006693496,0.6465842087,-0.7488044853,0.2586827413,0.2483431064,0.0177630337,-0.9662665308,0.1100758959,-0.7563843238,-0.84326374,-1.233350684,-0.6619987394,-0.1855664083,-1.2485707818,-0.4965943358,-0.8225027059,-0.8798592861,-0.7067891657,-0.5420271153,-0.7809716293,-0.5165293647,-0.4980027436,-0.9557088162,0.5208411773,-0.2595283838,0.5525044312,0.6435327777,0.1112809983,0.4609948252,0.1495331516,0.7985446296,-0.8128412992,-0.0830903268,-1.1263459642,-0.1764491513,-0.7457654188,-0.5686669121,-0.7081607478,-1.3032842779,-0.7561492732,-4.9404016241,-2.9486607583,0.6467862932,0.2772258013,-0.5427691354,0.0403358484,0.2904652943,0.495718801,0.6989250174,-2.4805865978,-1.4298930219,-0.2869128009,-0.352441635,2.3131333089,-1.1069451282,-0.6392463321,1.9224728245,-0.4065923313,-0.4699457258,-4.1903457598,0.8743587144,-0.6335809382,-0.4421778681,-6.890969799,0.7682011385,4.681849927,-0.7605006801,0.6492611433,0.3072412993,-0.6595309638,-0.448620683,-0.1922853324,-1.1399410054,-0.4907362387,-1.1717099035,-0.7825654928,-0.7609296782,-0.3163142571,-0.5219462059,-2.4941170985,-1.2242229196,-0.8439234768,0.0640642854,-0.555046589,-0.8880814722,-0.0043065735,0.5306586633,3.2975699276,-0.9980014408,-1.0989438648,-0.6942731887,-1.2373725067,-1.0781291628,-1.4262581841,0.0658737448,-1.1000270944,0.4430977685,-0.926118921,-1.6946282467,-0.9020226874,-0.8619162693,-1.3373977111,-2.8506350025,-1.4858355231,-1.2267752705,-1.3440827541,-1.0742072529,-4.2428766821,-2.6517905002,-1.0491528565,-0.7688177339,-1.6851683618,-1.8662407943,-1.4258670173,1.8937670027,-1.5338619448,0.7787970742,-1.3982316502,-1.3329422364,0.1662816868,-0.8246711986,-1.3692329697,-1.7049910582,-1.8446604649,-0.7907619851,-0.5665574456,-0.6068485282,-1.1614120798,-1.0318219453,0.1522286272,-0.780673075,0.316042352,-0.6881267793,0.5824314615,0.5709449414,-0.7324646867,-0.6213242562,-0.6121852911,-0.5882862116,0.6849883465,-0.9181576966,-0.9359063817,-1.2196022656,-1.2815223048,-0.8146369929,-0.6324803546,-1.0472087373,-0.7220253094,-1.0236481213,-0.6383310488,-0.857381316,-0.8842305263,-1.0192830945,-0.7537983524,-0.9525063733,0.0514105567,-1.135743863,0.4598044166,0.0509770575,0.1030771683,-0.5521393957,0.66076497,0.6259538993,0.1032651305,-1.1853586466,-0.8976161075,-1.0435460912,-0.9473230057,0.4566762789,0.3168014952,0.2738335508,-0.6976196095,-0.5342748328,-0.9785864893,-1.0373432711,-1.0349869562,-0.8014890681,-1.0450246624,-0.9811887735,0.4151371982,0.6540265095,0.675285105,0.033642653,0.2620205948,0.4027446079,0.6009246946,0.0971455881,0.3760739879,0.3174044817,0.3055945828,0.585964274,0.5643828778,0.3504128868,0.1200290161,0.209539442,0.563270015,0.6671192995,0.5957325785,0.0529245212,0.1513520716,-0.811924703,0.0255663712,-0.8655256233,-1.1149371186,-0.8903956968,0.4082021868,-1.1486169197,-0.9881667437,-0.7116717841,-0.8066801497,-0.9195360596,-0.9008843039,-1.1083079491,-0.1987450607,-1.127270641,-0.5741817875,-1.0095653189,-1.0653578413,-1.1398340499,-0.5306885913,-0.2553562112,0.0792947624,-0.6426183876,-0.4893844983,-0.7550684343,-0.2288641485,0.3797782495,0.3153734752,0.1530728947,0.6873280213,-0.3465403771,-0.7361070105,-0.524751388,-0.3662951232,-0.325245315,-0.5376957492,-0.2634519279,-0.6435393639,-0.75639986,-1.1405365203,-0.9233490306,0.0613150039,-0.818336673,-1.2180378659,-0.7149801769,-1.1975413009,-0.7255561482,-0.8010399316,-1.0474056748,-1.6045011029,0.5441056876,-0.7443737285,-0.665477425,1.0858344368,-0.6524110686,-0.8373536249,-0.3527503694,-0.3290537643,-0.8435171951,-0.4517184165,0.3315174153,0.3918717804,-1.1466526086,-0.6290757721,-0.9771893246,-0.8499363753,-1.102384493,-0.8323582644,-0.6064436064,-0.6050710101,-0.8765994854,0.0092541938,-0.6886656869,-0.8930800279,-0.6776928771,-0.6569285534,0.5831663739,-1.1010796534,-0.5581718273,-1.1562576138,-0.6954528361,-0.8337267613,-1.1125627674,-1.5121364421,3.5561360191,0.584831286,0.1001767447,0.0524051184,0.2909148819,0.4319227679,0.8999322884,0.9627720293,0.6432756821,0.581587722,0.3739790929,0.2751129012,0.008501926,0.5587072842,0.7437003037,0.624347501,0.0069428384,-0.0648564491,-0.1054162775,0.5739914347,0.4592646035,0.5081987346,0.3307685298,0.203554559,0.0720380896,0.3797219964,0.1188504356,0.6294027923,0.5117928344,0.2256690952,0.6736506674,1.7917243647,0.6600742591,0.5685899033,0.5128163648,-0.0112363383,0.2009848503,0.4100506955,0.549364922,0.6963570401,0.450903256,0.3747391215,0.1367068522,0.1146708282,0.6088437446,0.3573913754,1.0725016585,1.3230613071,0.2096631818,0.3475901203,0.4759346736,0.3248140262,0.603564124,0.2062130405,0.0605238707,0.290156008,0.5590914019,0.2450041954,0.4368891585,0.6382561625,0.5320946513,0.2238167246,0.0615434152,0.2733386772,0.2166676917,0.6002353801,0.3919973111,0.5793340896,0.0146051713,1.1979642377,0.2985236625,0.165484393,0.1691475391,-0.0612616079,0.5325064873,0.2684996361,0.1912132027,0.0225443286,0.2416749937,0.1001363335,0.4091891392,0.3606909802,0.5194004945,0.0054913301,0.417393047,0.3591129839,0.0973516594,0.1214117265,0.9136397734,-0.0693780139,0.8981476307,4.8753632983,0.5335781709,0.7666047878,0.2058408559,0.3184360639,0.222587798,0.6125871637,0.0535538589,0.4840763133,4.3444490868,0.264156063,0.0033461517,0.3888426117,0.0689118731,0.2231372256,0.3719132824,0.5306880716,0.4779611351,0.1661374639,0.3877172148,0.1702664531,0.4056449022,0.3977436049,0.0425092839,0.3516229473,0.308970119,0.1233274501,0.2621692209,-0.0686274938,-0.0444318058,0.3327313617,0.8971984491,0.6560246678,0.4861143519,0.1068626293,0.2415262626,-0.0465114377,0.1106136556,0.4985953502,1.2075636182,1.5328469454,0.3462093143,0.2114392489,0.6077790681,0.4627901996,0.5053167022,-0.0572444535,0.1359788743,0.2820838179,0.3331272139,0.5179777066,0.423862172,0.7317376296,0.0184571749,0.5036282905,0.0442027852,0.4931853925,0.0367977255,7.7343754239,0.0786021948,0.1844206479,0.5230183691,0.5118469034,0.3081005006,0.2656709862,0.2665011718,0.0613755734,0.1957610456,0.197013461,0.2020159742
