encog,BasicNetwork,java,3.1.0,1,1392979419626
[BASIC]
[BASIC:PARAMS]
[BASIC:NETWORK]
beginTraining=0
connectionLimit=0
contextTargetOffset=0,0,0
contextTargetSize=0,0,0
endTraining=2
hasContext=f
inputCount=318
layerCounts=1,201,319
layerFeedCounts=1,200,318
layerContextCount=0,0,0
layerIndex=0,1,202
output=0.000000363,1,0,1,1,0,0.733446682,1,0.0534805629,1,0.0839096367,0.9070297711,0.9929068996,1,0,0,0.6549124543,1,0.3978161057,1,1,0.6636740558,0.0013834476,0.9998638334,1,1,0.9999987825,0.0006349109,0.5596490774,0,0.9992357469,1,0.0006070432,0.3172580555,0.0851332809,0.1629087446,1,1,0.097249511,1,1,1,0.0000081045,1,0.9922723353,1,0,1,0.000531342,0.9945414506,0.100941075,0,0.8827646344,1,1,0.000000014,0,0.0002632751,1,0.9991199242,1,0.9981873494,1,0.5331432197,1,0.0274825794,0.9975405503,0.3817883454,0,0.5970555372,1,1,0,0.3440189811,0.0536182315,1,0.5855346943,0.9996287357,0.7200991342,0,0.9957231041,0.9599050931,0.6407309316,1,0.5625341926,0.0283911895,0.3144387581,0.0000079698,1,0,0,1,0,0.000124964,0.1583896929,1,0.0000029031,0.0033525357,0.9996100421,0,0.4075940416,0,1,0.9998915703,1,0.2170889429,0.963564309,1,1,1,1,1,0,0.020739936,0.3949474513,0,1,1,0,0.0000041972,0.008595118,0.9659364913,0,0.7376609963,0.8790510742,0,1,1,1,0.4444160362,1,0.0021660991,0,1,0,0.000105295,0.8511703044,0.2213636727,1,0.6086307426,0.9397863976,0.6489338641,0.199673909,1,1,0,0.0002780555,0,0.9978933989,1,1,0,1,0.9999884978,1,0.0305748923,0.0009803013,1,1,0.1632156559,0.0000000074,1,0.004525773,0.0211657838,0,1,0,0.0002115448,0,0.979460457,0.0042274538,0.0650006099,0,0.0082677108,1,0,0.3700435989,0.4204126543,1,1,0,0,0.9910829443,0,0.0010641544,1,1,1,0.6732081382,0.1991331911,1,0.9996523004,0.4692797095,0.9821471951,1,0.138600686,1,1,1,0,1,1,0.01,0.01,0,0,0.01,0.01,0.01,0.01,0.01,0.01,0.01,0,0.01,0.01,0.01,0.01,0.01,0.01,0.0934871495,0.5466594107,0.01,0.5826816394,0.01,0.01,0,0.01,0.01,0.01,0,0.01,0,0.01,0.01,0,0.01,0.01,0,0.01,0,0,0,0.01,0.01,0.1608511578,0.99,0.99,0.01,0.01,0.01,0.01,0.01,0.01,0.01,0.01,0.01,0.01,0.01,0.01,0,0.5,0.2000006297,0,0,0,0,0.99,0.5222732585,0.01,0.99,0.01,0.5599887405,0.01,0.99,0.01,0.01,0.1048387097,0.01,0,0,0.01,0.01,0,0,0,0.01,0.01,0.01,0.5234057984,0.4686327778,0.6096338457,0.01,0.01,0.01,0.01,0.01,0.0139252333,0.01,0.01,0.01,0.01,0.01,0.01,0,0,0.01,0.01,0.01,0.01,0.01,0.01,0.01,0.01,0.01,0.01,0.0595702082,0.3366666667,0.01,0,0.01,0.01,0.01,0.01,0.01,0.01,0.01,0.01,0.01,0.01,0.01,0.01,0.01,0.01,0.01,0.01,0.01,0.5544444444,0.01,0.01,0.01,0.01,0.01,0.01,0.0466677803,0.01,0.01,0.01,0.1457352927,0.0287155329,0.6748325148,0.2794281518,0.0136147765,0.1813414369,0.15275752,0.01,0.0246787571,0.4300073243,0.01,0.99,0.0100794092,0.01,0.01,0.01,0.99,0.99,0,0.01,0,0.99,0,0,0.99,0.01,0.99,0.01,0,0.01,0.01,0.01,0.01,0.01,0.01,0.01,0.01,0.01,0.01,0.01,0.01,0.01,0.01,0.01,0,0.99,0,0,0,0.99,0,0,0,0.01,0.99,0.01,0.99,0,0,0,0.01,0.01,0.01,0.01,0.01,0.01,0.01,0.01,0,0,0,0,0,0,0,0,0,0,0,0,0,0,0,0,0,0,0,0,0,0.01,0,0.01,0.01,0.01,0,0.01,0.01,0.01,0.01,0.01,0.01,0.99,0.01,0.01,0.99,0.01,0.01,0.99,0.99,0.01,0.01,0.99,0.99,0.01,0.01,0,0,0,0,0.01,0.01,0.01,0.01,0.01,0.01,0.01,0.01,0.01,0.99,0.99,0,0.99,0.01,0.99,0.99,0.01,0.01,0.99,0.99,0,0.99,0.01,0.99,0.99,0.01,0.01,0.01,0.01,0.01,0,0,0.99,0.01,0.99,0.01,0.01,0.01,0.01,0.01,0.01,0,0.99,0.01,0.01,0.01,0,0.99,0.99,0.99,0.99,0.99,0.99,1
outputCount=1
weightIndex=0,201,64001
weights=##0
##double#64001
   -1.012281347,104.7277937766,-1.1086619349,-1.1231289084,4.7179722443,3.8298047436,-1.0035694532,3.404839296,-1.1052681408,5.4406696588,4.700541018,3.9767687822,-1.1302020616,10151.1864551305,96.1066874973,-7.5188584626,-1.1429978986,7.883132449,-1.1427028267,-0.935560376,-12.5074687284,-2.942762323,2.8546046751,-1.0394854462,-0.9879218864,-5.6913909046,3.8610032004,6.7202368694,46.2491004662,3.6303855012,-1.0932521975,4.2209584536,3.399796949,4.3921297829,-28.2149138543,-0.9649556472,-1.0577571655,2.9257310673,-1.0887364791,-1.0416514462,-1.042969378,-8.785040385,-1.0775568235,4.0737567139,-0.9274777715,7706.7401572813,-1.0070596222,3.336287322,3.7170141198,-15.4496021877,4386.6277806535,5.259319368,-0.9596902428,-0.9547908465,-5.7630767724,6.7241569166,8.0876625845,-0.9858023018,3.2065945258,-0.9374932857,4.5841696166,-0.9390275972,3.9355597955,-0.9237942892,3.9985295591,3.142665492,2.755037234,0.2208043705,2.4215009715,-0.9656397762,-1.1131597385,7.2163041278,-14.0330838943,4.2417219556,-0.9902455921,5.0906805408,3.7837629471,-9.211433914,6778.1016940527,4.0474248924,5.6433862547,4.298980329,-0.9723102571,-9.8886365761,1.6628554488,-19.848391153,4.7085699139,-1.122581279,3301.284883767,10793.3158053142,-0.9708470318,1062.9169632168,-9.2261338473,-18.8730961103,-1.0182425173,11.9705379263,8.746548442,2.5605108037,7446.8443718266,-14.8633706723,3579.9932004847,-1.0558134637,4.3134256058,-0.9988612505,3.6717477678,2.2960703516,-1.0750015242,-1.1258811374,-1.0710132268,-1.0994176367,-1.1090789121,8.1260492921,5.7036004119,4.0733172605,1980.3291093174,-1.0272592523,-1.026062455,53.7615810797,6.5634985051,3.6179612762,2.854871331,5.3686424141,4.1294785524,-9.4144458432,4184.9853803271,-1.0208828758,-1.0126748013,-1.1152094866,-10.7965962504,-1.0298214922,5.9672069461,-0.007020547,-0.9438597353,1196.2535757697,-5.6187462946,7.2196566002,3.8175306541,-1.0226023994,6.1275683448,2.2258771675,4.005588456,3.513979229,-1.0937183511,-0.9883419769,11.0307842615,5.0220850713,5034.2143584435,1.024566194,-0.9263060092,-0.9414616176,6923.4044863737,-1.1180333822,4.23913357,-1.0637503031,3.5086570132,6.7014390164,-1.1389154167,-0.9729597315,-9.3568792374,-5.3466674436,-1.1345973817,-8.9491823115,4.6273484063,0.504421411,-0.9835837298,0.2863353744,5.181915355,28888.5323182043,2.7034360826,2.8748185829,4.927610595,1168.9571391277,4.0794934519,-1.1350590522,29.9591372764,-9.5986481668,-6.3644086874,-0.995523617,-1.0632687726,2547.0757195446,7143.4846456423,6.3571490205,127.2340498526,-12.1741452646,-0.9972155453,-0.9974804502,-1.052457587,6.2010141679,5.0427735933,-1.1124068536,4.4734336476,3.2270561537,3.0104106558,-1.1345591266,4.1183700024,-1.0418444036,-1.0555015678,-1.0428608113,3452.7911071183,-0.9846848677,-1.0690549887,5.5313015157,8326.2211367521,0.4447725762,0.1663812975,109239.5522597584,0.6395880247,0.1802289349,91213.6970330809,109316.2200199391,20359.2061706183,0.6491268129,0.5543043759,62046.9681524466,100.0014445174,56073.6080545904,2196.9320593145,0.7321845322,12246.595050567,1.1132146295,91.7235112146,48430.1136290426,596.6313446634,204.3967538892,16.9988937242,0.295156029,3241.5097235108,1.8753671542,177074.3769155726,0.6734881228,5617.9058983514,0.1849926939,28316.4832758388,14842.62902105,0.0893185702,8.3244478842,0.3706870778,0.3833170568,9.2291812958,0.3578499402,0.5156451113,0.1672162702,3.5487840035,15648.5148807272,99964.2307252471,3883.1507392726,141901.8494776005,75003.7156597008,65383.3576028478,66.6793768946,15867.683092007,322.4168947851,1.8384660466,0.7186384463,0.702704306,0.3725755723,33.2774044976,0.1966353855,2574.4494585066,0.4475189879,135.7001688399,0.4493060562,0.1655348481,0.163951498,0.472602495,0.5681062801,0.843665339,0.3413820848,51259.0182196734,19588.4187076028,714.9811547002,4053.9364098364,1.6661709084,8953.6847919465,4383.3565127742,163.3427486954,65742.0257432165,83387.6633185475,0.1251286376,0.090032408,43322.0156975715,12045.5127459309,0.6577977804,0.3007349359,0.6084704681,9972.4871925298,0.9166213042,50227.7225606402,34970.2855857082,130839.6239723548,0.6747918572,6.3182469777,102.6021629911,0.8402291373,30522.0033345116,14817.8955350886,4617.7980253751,9147.7417952876,72.4909875432,163.1017879904,155529.9652588569,3.9572105876,40492.9061368135,0.3281889819,0.483069722,3884.7573600757,19969.5892093907,0.4531518295,22962.5560676123,0.8002764407,9.4392959746,100.1192175518,274467.0334377334,2653.2328277438,52566.1746594344,2.4382904823,62388.0588057483,3387.7009156061,0.1146604317,1.4669548731,23.8175253049,3.5883277673,468.2181399062,14871.1353833437,2440.959470428,7922.7402289676,64614.8551934161,7.2872408949,0.6467077241,81.5905743316,5.9296065191,5108.3993507518,39299.6764567442,64723.2088175845,7.4181022738,1171.6428875596,1409.0695620187,24585.9729828603,54.185391693,125044.0658428848,47398.9644212718,16.6178596544,-0.0086976562,1.4927227555,30.4104776305,49.4118226738,6.9529696948,8991.0419196231,0.496215724,61903.923254209,3.0251372757,1.44774306,0.47547253,1.3383234176,11393.5973258099,1.0695118486,357253.0487671241,-0.0076069388,0.5183014209,203.6632501023,3777.299591737,76758.4345573258,76758.3477896739,5.6799818109,4.3402827547,0.3624471805,76758.0361376494,0.5547778952,1.7406615724,0.230506256,0.0791328733,68282.3531321053,56073.8001221011,68282.6721592767,7760.954202005,0.5946754509,4.3479482752,3.9618785168,4.6265488131,4.5248780285,4.4192068541,4.3622435246,4.5920458803,4.0167796748,4.1057231662,4.5756647564,3.96128901,4.1060415447,4.492844098,4.4541100075,3.9885923579,0.6317976184,0.4483993215,0.0133164709,0.0790220086,0.2178578526,1.2511658096,0.260932198,0.4356444797,0.1835612924,19784.7248871585,49978.9485959848,19784.9019134313,49979.0912234117,0.1692104873,0.1793030396,0.6153438671,929.557008202,929.1056220731,114757.2757134907,114757.5658923542,114757.1687304867,114757.5690791758,114757.7498877856,114757.4950583015,0.4542741052,0.6171754391,0.0864848278,0.6269881887,0.0654979301,0.427630917,0.2412903707,0.6175415204,0.6568058671,0.5839940389,0.0969873671,0.5148634961,0.1182576933,0.6068779826,0.3270317734,0.1148907486,0.0353331873,0.2112559404,0.3769618939,0.3547208848,0.2424892132,929.5369337308,0.3681519844,0.2694395084,3.1031536762,14960.4717619244,0.3963594741,56073.9099035774,347.7233778282,56073.4041140179,348.0368276403,56073.9414642175,347.7229896022,56910.3367394927,929.5529725754,1.7915799908,5152.7718307301,0.7342437755,0.4941150492,9657.6212478826,9657.2687165211,0.6033486058,0.7282120223,27858.812615564,27859.011942467,0.9603941288,0.9585965033,0.0673473671,0.5725094613,0.1992753734,0.5500496109,929.3043220006,929.4326845361,929.5893720233,929.1633986962,929.3102918303,929.1562509863,929.7085259906,929.5947945689,3777.5634126596,0.6937060891,1.0707710677,0.2889516964,31343.1871493762,251534.6635270253,57402.9082250669,76474.1752010656,98435.4801114944,1.9023861554,62829.5236795163,0.7216583926,0.0236498886,1.1286565478,929.4364815734,70507.2270088822,0.593042894,929.1486364398,929.5722630061,929.3456503361,929.2769642441,929.3645195138,0.0234623507,0.5835725985,68282.4403025637,56073.4295899099,68282.6644994306,56073.7355750546,56073.661702785,7760.902542456,347.8182191209,56073.3363760583,56073.4296830334,0.2667300719,24561.5387815926,56073.6674982309,56073.5808372461,56073.2801514532,0.4944205541,116056.2267002381,182783.4547417269,3.9819586646,33.1048697344,0.7610581772,0.3992376978,1.0429471916,2.388209034,-1769.2850501533,0.0286831915,0.2377305938,-104678.7126980331,-3.4273415549,-9.7207538445,-42927.2362852254,-61667.9795477227,-5021.0080792213,-1.2155648642,0.3231734667,-47499.5822707774,-10.3696989629,-56074.1772620145,-2197.7242689871,-1.9539138346,-12246.7769002483,-1.7859498749,-0.6279592037,-48431.5568245705,-597.6530540682,-205.1888965468,-18.9803318601,0.5527829464,-76.4820048984,-3.4873576856,-110300.8310126961,0.5769081874,-5618.246376685,0.2738670419,6.1599691776,-14843.8528724962,0.5444472961,-7.9943992431,-1.8820164474,0.2076640437,-8.1703498153,0.7002867869,0.4733152734,0.3550759062,-4.5289014668,-15642.9749363905,-49572.3057118477,-9.7619507901,-65613.780346732,-40284.8075979418,8.7357953877,-0.2532485316,0.2019063222,-322.2778236197,-2.3912277863,-1.3177525024,-1.4519849912,-0.8953039958,-32.9119851,-1.1700847333,-2572.1593594632,0.0020166591,-134.1439579062,-0.9864904631,0.2360922972,0.1587569219,0.4914751468,0.0092564395,2.001515619,-1.8274066209,-51257.5909662535,-57.5531762965,-715.7019896901,-4053.2177827896,-2.2990821751,-1.1692828442,-2.6603536759,4.4220284285,-39370.5113908508,-39707.0828974134,0.0364603846,0.2393836007,-43319.8859476878,-12043.3502943944,0.6663372273,0.4954010291,0.2853128015,-10005.1381963433,-1.5962050564,-50228.1796827088,-34969.2041863269,-126854.7769150715,-1.3430987858,4.1905235077,-103.6360925662,-3.4184863994,-28152.879031913,-122.8856980534,-4619.030858611,-9139.7475526661,-73.1274418468,-6.8034226239,-155529.4495777519,3.6690849895,-40493.3143301804,0.0846349393,0.5442527602,-3883.1586827794,-19967.1049298371,-0.5801317985,-22962.5711958889,-1.8859648729,-9.921954582,-84.9454592657,-258358.5719532136,-2653.7873386949,-18889.0547130715,-1.5627406974,-12693.7137570786,-3393.6169310402,0.3939096206,-0.9366927591,-0.0517164375,-4.5775960216,39.2598403796,-14866.9684671343,-2442.1913376057,-7921.8392473559,-64043.4288587426,-7.9652747992,-0.6249058549,-2.8862410166,-6.3408026871,-5111.342200432,-39302.6125236483,-64724.5181551276,-8.60558716,-1123.7199526306,-1408.1829369607,-24605.2119816031,-58.6955541393,-125038.786596589,-47341.0858146777,-17.7273984902,-1.785821204,-14.5830902988,-23.1264542782,-50.7852432783,-8.5152511622,-2.3013331446,-1.6672777683,-32802.2765197926,2.0334853799,-1.7016249495,-1.0436811972,-2.0439284413,-7.2508895352,4.8499908614,-295619.4805157543,-2.190180419,-2.1285768274,-204.4548590065,-3777.9050213036,-76758.3968340883,-76758.31032266,-1.6269925223,-2.1595940328,0.4759534197,-76758.3896632462,0.1348138926,-1.8979553491,0.4954331158,0.06620968,1.5249861066,-56073.932830668,1.131673683,-7761.9406282682,0.4148130071,-4.4287482751,-4.3234369744,-4.7640472371,-4.7148327198,-4.5338676039,-4.6745431134,-4.7863229453,-4.2798203457,-4.6160758634,-4.4936995947,-4.266042829,-4.5301532257,-4.2384712259,-4.3288884029,-4.4012681527,0.1328900033,-1.5442037373,0.5821698722,0.0973019842,0.2631593214,-0.3632838404,0.2257042349,0.1910144615,0.4510166471,-5.036890143,-17450.5392147853,-4.9557576507,-17450.1097412559,0.1264233664,0.4416785318,0.2974731001,-928.4497833763,-928.7217581557,-114749.3571514145,-114749.9871393542,-114749.9810656644,-114749.6307808689,-114749.8660327262,-114749.9587157961,0.2945252862,0.3213854543,0.3687676893,0.4451538904,0.0275130389,0.2383630742,0.3764804163,0.4395432339,0.0319169324,0.1592740747,0.1307062294,0.4028319918,0.2125950844,0.6698708321,0.328811381,0.392972415,0.5452473581,0.2735217096,0.1099112589,0.528892731,0.6676860413,-928.7422607228,0.5300202843,-1.157469617,-1.4274340571,-14958.5895511958,0.0708043525,-56074.5489017807,-348.921111358,-56074.1546394899,-348.726630274,-56074.4213751584,-348.7361592546,-16709.5700144501,-928.5829121447,-2.0644040116,-1.4824427551,-0.5081740665,-0.7740904742,-0.1320424392,0.0908517354,-0.7163305937,-0.5778569795,-3209.8573132512,-3209.5361919422,-0.6196979788,-0.5680376847,0.0833708009,0.0295553991,0.0358787483,0.5580728781,-928.2504988819,-928.1900659555,-928.5916307902,-928.6093491238,-928.5538010192,-928.4787377645,-928.1158374129,-928.4564819561,-3778.2766818303,-0.8137480995,-0.9854167523,0.5939899252,-1.6891253961,-191053.1270479649,-16709.576365011,-28627.1489048079,-98430.5628365628,-2.648250753,-37568.0451775938,-1.4036298401,0.5949465155,-1.9872682649,-928.4398131504,-30174.7682654202,-1.4734987479,-928.6443706932,-928.3737460264,-928.6947286649,-928.25150631,-928.6650508382,0.1601833295,0.0776906806,0.9341215841,-56074.2915309757,1.0714162099,-56074.2617297375,-56073.9438795801,-7762.5446514638,-348.5794323029,-56074.2078699571,-56074.4945476916,0.1687666903,-406.0101398801,-56074.3708620714,-56074.3604276388,-56074.5719816412,0.0303753289,-57817.7917128305,-112467.2839912141,-4.2971046102,-1.322877756,-0.5234555355,-0.3489945877,-2.1739611973,5.608611564,8326.0328651611,0.5973602328,0.3443540829,109239.5275130372,1.1893291412,0.2525388811,91213.8237636184,109316.3080893064,20359.4412689046,0.6976311367,0.0129566183,62047.0887706952,99.7458257065,56073.6162527787,2196.808804126,0.9490355525,12246.9708244268,1.8358599627,91.8283274429,48430.3949563118,596.6371635175,204.76021518,17.3418644012,0.2213452585,3241.35275252,2.1554482006,177074.7142785634,0.2512592615,5618.2685290165,0.5889138415,28316.7905664274,14842.6386756961,0.4144890922,8.5268017214,0.4312229435,0.2040511225,8.9869907025,0.1667685757,0.1694864911,0.2898753972,4.1225296809,15647.966966664,99964.04452469,3883.54921566,141901.8719081628,75003.975136754,65383.0714461259,66.6061637437,15867.9633072674,322.9214527884,1.7777802308,0.2759145144,0.634857487,0.9252015688,33.0686979248,0.7365452535,2574.3648691576,0.1285669335,135.4045139686,0.5229079667,0.093963356,0.3612662132,0.0637869145,0.345197274,0.6073824694,0.8570820302,51258.8582025934,19588.3260650827,715.3441294208,4054.0103702581,1.223429008,8954.1136227661,4383.1993103671,163.319163357,65741.7583668326,83387.9886772655,0.3828702154,0.0928792441,43322.3360890002,12046.0303906534,0.1442291828,0.6236755868,0.2056629086,9972.0482242862,1.1010401488,50227.7126711593,34969.8384495959,130839.3961062103,0.8898776398,6.8482294737,102.3457209188,0.8676809356,30521.9091153676,14818.4405870223,4618.0598843774,9147.4380228592,72.2848935974,163.2515589948,155530.4598164215,3.9922012605,40492.5978610836,0.1525266287,0.5418535688,3884.7494127838,19969.7256860887,0.4831649763,22962.3466704514,0.8412530024,9.2768698097,100.563022495,274467.3622559398,2653.0806011652,52566.4317247609,2.4795307445,62388.312739584,3387.7776342269,0.1901304511,1.3481341253,23.6548026035,3.6666202657,468.3801665074,14871.2661968683,2441.315902828,7922.6137516848,64614.9351284897,7.4196302302,0.3484119789,81.4369980778,6.2773337001,5108.0908281387,39299.5874943352,64723.606449119,7.8985760637,1171.4068326512,1409.254855354,24586.1709041693,54.5517618837,125043.8393232813,47398.8244612293,17.1395585285,0.6957192144,1.7947427166,29.9540633711,49.7204309267,7.4608274423,8991.4862706712,0.1928482177,61904.2776774173,3.4658893694,1.3292918411,0.7083313822,1.4388353441,11393.5667463734,0.9051416901,357253.1754276314,0.6777791371,0.5282129754,203.7004301154,3777.6177950319,76758.5421297817,76758.1795066989,5.6723190568,4.4120179593,0.3395189804,76758.0017485527,0.5759314092,1.4934717823,0.2534074173,0.6084606969,68282.7942269932,56073.6913390965,68282.5493318732,7761.4972783592,0.0555330535,4.3011721801,4.4567256219,4.07709373,4.064531589,4.3434403678,4.7513827722,4.6115191209,4.6386936724,4.112660794,4.5619064028,4.7272931193,4.2885214611,4.3162363508,4.3399523754,4.2938316207,0.5671118643,0.4147170288,0.346481224,0.3106391891,0.1594161756,1.132449981,0.1312954047,0.6370032727,0.4613329612,19785.0549075381,49978.7912675397,19784.5096664193,49979.1948378379,0.6127599799,0.377655822,0.241838743,929.6253938422,929.4421412692,114757.673792385,114757.503127435,114757.675236995,114757.6301598627,114757.8143185116,114757.5249194834,0.1559023353,0.3218174974,0.1375220541,0.2380602362,0.282473041,0.5129782003,0.4715237173,0.1629080203,0.4835302666,0.6621230465,0.5718205736,0.4202044057,0.6764628023,0.575236065,0.5869909185,0.611753061,0.2421449875,0.0174773541,0.6453923764,0.3657428134,0.2249750627,929.2331105912,0.4517109956,0.8898843876,3.2106861802,14960.5933539193,0.465925852,56074.0765180865,348.1898177374,56074.1009882403,347.7564436794,56073.6932776468,348.255304282,56910.2756313415,929.7443154504,1.9980405607,5153.0577660708,0.5891704467,0.8163314822,9657.2746871264,9657.7801061386,0.7856152175,0.1851070191,27859.0105292612,27859.1409409655,0.6566549226,0.4292134865,0.0587922765,0.3474825585,0.6334785646,0.3876841154,929.6242510013,929.55856867,929.5610954034,929.4381436311,929.2926673633,929.1739072562,929.3946965971,929.3395838286,3777.7755398116,1.174874113,0.6312714101,0.1691433869,31343.1643035943,251534.7524668819,57403.3488971589,76474.4445177672,98435.1490614277,2.0113784858,62829.5786107583,1.0584533514,0.04084039,0.8366725296,929.2377061329,70506.8852289208,0.4627645796,929.7961621031,929.7001471068,929.6630785725,929.4583083258,929.7081659391,0.5746170508,0.1279607463,68283.0919297146,56073.7569481771,68283.0540634512,56073.689693652,56074.0277396188,7761.2260490813,347.7643237371,56073.5646456358,56073.4387097088,0.0335980914,24561.544334741,56073.9822327837,56073.5098825206,56073.7938585172,0.5552065009,116056.3773135963,182784.0337499609,4.0439119011,33.6172610306,0.3279965577,0.9531531039,0.8409046245,5.7740583963,8326.1222951924,0.0180928455,0.0442064583,109240.1522932917,0.6218911527,-0.0568364562,91213.5334358948,109316.5626910284,20359.6998372339,0.3820080265,0.1838471034,62047.057940003,99.8897505239,56073.5060557033,2196.9051248427,0.6910261312,12246.9713796692,1.8531482887,92.073599254,48430.4703382265,597.0665828182,204.8082142209,17.0775014712,0.3449542549,3241.0055456064,2.011535143,177074.2801219884,0.4416290924,5617.9510611556,0.4625522154,28316.7181358238,14842.7174564988,0.6546617431,8.8505132627,0.5024444028,0.5847661134,9.2296025262,0.1333648032,0.0413146218,0.3307792502,4.0040836682,15648.6485249775,99964.3246341221,3883.0449982006,141901.8390293982,75003.4867103171,65383.6211245069,66.20357917,15868.0571285788,322.582177938,1.6902609675,0.2821602746,0.3964951747,0.8322993748,33.4054255722,0.5332117762,2574.8053787218,0.71104463,135.4608625759,0.2893492614,0.3379975436,0.0780790468,0.3602099697,0.0082492006,0.4379795595,0.8175979979,51259.3175453559,19588.1865649863,715.498480391,4053.7928431149,1.3158471229,8953.8234689463,4383.1960282444,163.096439828,65742.2650032353,83388.0282604936,0.2518482402,0.4193804914,43321.9585690806,12045.6462010312,0.420429702,0.2624219965,0.6877807344,9972.2819859703,0.9553567231,50227.3433114481,34969.9622398906,130839.4040831263,0.7551244256,6.5953658738,102.7671824337,0.4428435058,30522.1746982824,14818.0472416338,4617.9828941038,9147.9370251565,72.5133537614,163.3296345997,155530.0196555555,4.0199542779,40492.6649115409,0.2394753917,0.4756356938,3884.4003434784,19969.359860594,0.8496957962,22962.4354419973,1.207554433,9.0209810627,100.5257756077,274467.2020895396,2653.482530288,52566.6881842413,2.2910971975,62388.0318241511,3387.4774475718,0.4794985041,1.1575652288,23.7211436335,3.9593128376,468.2651205127,14871.6585829995,2441.5684742403,7922.4545405076,64615.3329839489,7.3463294049,0.7907899111,81.360025596,6.3489087364,5107.9849087218,39299.8763243301,64723.6986622869,8.1109123779,1171.940076013,1409.2355545702,24585.8933278335,54.4599723313,125043.7276662131,47398.8060991032,16.5165706392,0.7260385494,1.9735491391,30.0199083736,49.679776113,6.8959031548,8991.3068726441,0.3993949806,61904.271321388,3.6443510364,1.8660424081,0.5264214571,1.8470309768,11393.2346064434,1.2186939799,357253.7413850519,0.1299124836,0.2471044928,203.817147083,3777.7772270617,76758.1938439168,76758.6465072169,6.0343037833,4.3581944753,0.6017707865,76758.1948627683,0.5832925611,1.8602923866,0.6558135905,0.216165161,68282.9349523789,56073.4734917982,68282.4776198666,7761.4653841147,0.6855151752,4.3811896616,4.636432796,4.7569991974,4.5709641404,4.5643807923,4.3146231125,4.2369893138,4.4400261809,4.6265995127,4.6235334402,4.4513148464,4.5271712113,4.3322355343,4.1226729583,4.6932936509,0.123965652,0.4635693163,0.5176450103,0.5362201489,0.0542972483,1.4404755072,0.358116535,0.3712576397,0.4647271714,19784.3560101632,49979.1722887571,19784.5491028689,49978.996472042,0.2490838802,0.2183164786,0.3726045559,929.3779788746,929.613466432,114757.4823341697,114757.3697657488,114757.3079130677,114757.8958721435,114757.8409664992,114757.2903135461,0.5773724676,0.059426609,0.1984591031,0.5808466978,0.1906114512,0.1624940047,0.4413348121,0.4314147525,0.3588224603,0.4524884928,0.6804625305,0.0578185635,0.0187284999,0.5005726449,0.359674813,0.0450297376,0.4116024869,0.1528451559,0.4921984661,0.272489897,0.6983488816,929.24437463,0.4410483555,0.8620331691,3.1292942191,14960.613880512,0.688674178,56073.6956325246,347.8996131367,56073.7413990874,348.1397989269,56073.6495207714,348.1521701389,56910.2883578665,929.6514477798,2.0282960325,5152.9065304816,0.419907762,0.8391252554,9657.6002325083,9657.2066519273,0.2837159907,0.7716584493,27858.9884845083,27858.9901363009,0.6025167124,0.5426176027,0.1463067347,0.6069525181,0.5595670149,0.6019056718,929.7770976123,929.4738789163,929.6047785353,929.7331303369,929.6494118924,929.664412244,929.8242171975,929.8712676146,3777.3370796191,0.6232840135,0.758655747,0.6477092068,31343.1175465589,251534.2304861722,57402.8487822059,76474.1016048467,98435.5016539519,2.3117367885,62829.5919295349,0.7194675301,0.1939984146,0.7063572439,929.264130853,70507.2087460779,0.6268426411,929.7998459599,929.6716234854,929.1873309285,929.3443045712,929.6578196818,0.6353680175,0.4203384542,68282.6431649041,56073.9805061306,68282.5012483232,56073.6747819742,56073.7116639572,7761.3549012729,347.8327014849,56074.0722603672,56073.5328638477,0.1931786358,24561.9699245071,56073.4673795161,56073.457641923,56073.506020864,0.3311757206,116056.0283857373,182783.4249121604,4.1865455287,33.5531369502,0.3266420807,0.6884639735,0.7434394891,-1.0863309503,-3.2197357565,0.5498357158,0.1459122482,1.5573281193,-3.1909007415,-15.608084701,0.0024103584,1.4962781143,0.4134530519,0.3253745252,0.5357794289,-1.7876385968,-0.0519435772,0.0341632379,-0.8571050118,-4.6482110351,-2.6900359737,15.6166159444,0.2081234782,0.2893977916,0.3008152625,0.0188404188,-0.8045071339,0.4349772951,0.0961907063,6.1011768736,0.0340807563,0.5473888744,5.2474429092,0.3147134561,0.2387128689,9.8461597854,0.0911232203,-1.8768977624,-0.7262946335,0.6093510971,1.6009709239,0.4852949182,0.3695747015,0.1269966584,3.9537763933,12.4434867933,0.2839328726,0.1481774792,0.2440961313,-0.0422602771,0.0026321288,2.9343313004,0.4946460843,-1.045956824,-0.1313466487,0.5027152085,-0.3236219119,-1.3820772803,3.4251902382,-2.3784234871,3.7176311152,0.4246421518,-3.9045255252,-0.0098543163,0.450332335,0.4176592283,0.5312520388,0.5836974618,0.5842190608,0.3602558852,-8.4406220857,-0.2772072936,6.4006215795,-0.3166561594,15.6725536378,-0.2537570248,3.0569638132,-2.1390664975,4.3791965729,1.5018172475,0.061513253,0.4302321907,-2.5683461874,-2.9008192003,0.4463520442,0.0692281746,0.3170168252,-0.6899360014,-0.0572904567,10.2924793986,0.3882919315,-1.1332798285,-1.4045553767,-0.3422693194,0.5428189811,3.9679819765,0.2768206673,3.0984158548,15.5901057451,0.3486772657,1.019186438,-2.3041784527,15.3577461291,-0.3540208022,-18.2840089663,0.6660334384,0.6283731355,-3.0109519064,-1.2085253668,12.0088848275,-0.0002119276,7.1533988226,0.2593703228,-0.8702381299,-10.9089187358,-0.0205947602,11.3808119206,4.084119204,0.3246827279,-5.9928361653,0.2361662794,2.6050199709,-0.5458505977,5.5930364892,-2.5200598644,0.7153393202,2.2385478206,5.6037241395,1.8509639679,0.3481410947,-1.2817362769,-7.5143691917,-0.2767818224,-7.4208296075,-1.2898483032,0.2609064499,1.5832878919,-1.7550544558,-60.0377575046,0.37066855,-3.1451611095,-15.0471135083,-2.0745769988,-2.5313129784,2.0616831646,-3.3007594804,-7.8048329686,34.217485157,-0.8698330895,4.3529000907,5.9956156292,0.4507252782,0.1598675316,-12.971922568,0.289835923,7.1024840965,57.7428778653,-16.2178069009,-0.1464011352,3.1703253395,0.1734762538,6.2381144106,-0.1661203022,-0.8151884605,-0.8489702826,-0.045010981,-0.0889003324,0.3337576851,-0.5543913647,0.1937741281,-0.1188738583,0.3110512822,0.3266199421,-0.1522952109,0.1233182832,0.1288849846,0.3931442421,0.0755740203,0.0135954667,-0.01620802,0.1508445613,-0.0112464919,-0.1903623225,0.3982905352,0.0330969311,-0.0225012831,-0.1401639273,-0.155249938,0.1865974049,0.2338971553,-0.0207248125,0.2963914385,0.0456690182,0.4365034368,-0.3223996181,0.7038505908,0.1220506102,0.3918408657,0.3204007443,0.6014999016,0.4617204748,0.5864887198,0.4182418657,0.2977936944,0.4661929443,0.0693442572,0.0504894861,0.2469595505,0.1345622937,-0.0180251014,-0.3222170518,0.6218788454,0.7936556782,0.9628525975,1.0428558156,0.9905213623,0.7925069724,0.0828259641,0.46195661,0.2011374007,0.5546327525,0.443295587,0.5637165725,0.5570402988,0.0749195379,0.1183261188,0.135418401,0.7073790485,0.2817869369,0.268763748,0.5917443653,0.3359560698,0.3300568307,0.3901289037,0.4558845606,0.6767517061,0.0944534375,0.1991641193,-0.0794744347,0.5880812323,1.4877887776,0.4428362106,0.2497991101,0.5301592917,0.5088438804,0.1857938861,0.2404598284,-0.1271181028,-0.0205625483,-0.2973281743,0.1581409229,-0.1740329906,1.3246801044,-0.1061578399,-0.7094125836,-0.7824609655,-0.2404503897,-0.1345779556,-0.4587242686,-0.5554687522,0.0623485767,0.2253407226,0.1521399713,0.4471988574,0.0576400525,0.4534749503,0.4425419516,0.4083844041,-0.2897495969,0.1781546707,0.2002833215,-0.3030939961,-0.3479255254,-0.2697432843,-0.0979179671,0.1591182064,0.0955698463,0.3248816172,-0.0500834172,0.4442809485,-0.1667273803,0.4294315853,0.3680260107,-0.0025739251,-1070.2155743915,-5.2430036497,0.1217185311,-0.3092643338,0.4706150779,-1.1338191557,-0.249681676,0.0803927959,2.3561810755,-0.4411994634,0.1310918881,-0.1456913449,0.0572201335,-0.4191516675,0.2168990016,0.688173035,0.2591407817,0.3248137018,0.0200179975,0.2081605636,0.2948977456,0.6765397698,0.2487603946,0.0139438746,0.6450216542,0.5364062556,-0.1551243597,0.2807938574,0.1866084648,0.3540753256,0.2459014988,0.0416121211,0.2996757826,-0.9596867659,-0.0011938826,0.2465470562,-1.5311927863,-0.5044000567,-2.0527008083,1.1780001151,0.6278923346,0.464607772,1.6868410518,-0.9499452733,-0.4433874896,-0.3750345248,0.2696655599,-0.1169036971,0.3770586621,0.315520071,-0.9144729432,-1.8991235229,-0.0473986776,0.9248394488,-0.0663497784,-1.8809311946,0.3455312966,0.2824910436,-0.8828414611,0.2150552341,0.2814186724,-0.5140365755,0.7103054783,-1.7315559953,-9.3719089144,-0.1088446174,0.0612240746,-6.5778332326,0.3705945432,0.3127421921,1.4755599398,0.2954048595,2.4189534973,-0.4747005003,0.550096873,-2.8238129666,0.0100792902,0.5394754297,0.252907857,4.2184662683,0.3385705451,0.2046685354,0.2536709995,-0.0236598462,-0.2149021066,-0.0230916158,0.3636383912,-0.5177002709,1.4534753828,-1.1949822187,-0.9591507218,1.6562020297,0.297715488,-1.4849680533,-2.1360460855,-0.8028749005,0.0940064913,0.5681647512,1.6215282261,0.3089835585,0.4039534622,0.623542878,0.6221790571,-2.1409898354,-0.1412235948,2.240021787,-0.1075965325,6.6485249069,-0.3362959173,2.4992901678,-0.194427665,9.4165316712,-6.4514896051,5.2088555878,2.9982502752,0.6911269945,0.0197520407,4.4922955158,-2.11619725,0.1640564261,0.3253017416,0.2666578554,-2.5786001256,-4.4823257237,0.7244010216,-1.2588409093,-7.254881874,-0.8394348168,-0.3813034249,29.9088694604,-12.9629913857,0.1213500189,-29.0313192207,-1.5763549502,-0.2077336648,-3.6838779907,11.7613336091,-0.9655074403,-0.0183534896,11.2543680862,0.3232263532,0.3821799293,-7.1006670822,-1.2116840849,-5.6321748983,6.5911409491,-7.4219874844,2.4871742421,5.6953643662,-2.0679859503,0.9388390802,-3.6770458128,2.0282271857,0.9619306076,-4.755375652,0.4036683069,-0.6172632578,-0.5488060936,-7.7765103821,-6.4455876428,0.1070615219,11.6307110278,-12.3016407227,0.4656311979,0.0264877001,3.6982466205,-15.2829659528,0.0267814091,-2.5000758174,-4.5765991819,-0.3845665061,-3.7409195859,-5.5186082409,5.2267287015,-5.2522773267,1.0990158173,7.7195877582,-2.2405367443,-0.4767915171,-2.4484473566,47.8415563543,-6.033050339,-6.4677632125,-0.6534754527,0.1641221179,-3.8044035437,0.2184145356,1.6303813083,5.8995549959,1.7631516617,8.6851630703,0.2385028086,-2.6836961256,0.162990558,-2.0403012287,1.0460676075,0.6717659945,0.5144901756,2.5948044395,2.9664321764,0.3699445127,0.0491380172,0.6703560804,2.9046342037,0.2265917686,0.2185390764,0.4084407377,0.0307778992,0.2310506732,-0.2026072902,0.1708012941,-0.3134574403,0.608035631,0.0214595426,-0.1918805904,-0.0087060659,0.1867554808,0.2271430626,-0.2737193477,0.3341146396,0.1207850931,0.31119667,-0.0834325963,0.3505467812,-0.3123303061,0.3051553938,0.2941120838,0.3744527344,0.5746580708,-0.4563642765,0.2762278497,0.6538383795,0.6754286297,0.2109330158,0.3948723189,0.6270676546,0.2695145055,-0.0299447796,-0.0263524489,0.2617331907,0.0958487357,0.218169503,0.689112086,0.6992874691,-1.1453164984,-1.2159458045,-1.0362284946,-1.1124358195,-0.8907222059,-1.1128229868,-0.9142399461,-0.4382504772,0.2454374286,0.0773788626,0.3070430423,0.3938773521,0.6705478351,0.2116241829,0.1313082864,0.0885480149,0.0012355804,0.6004059388,0.3104017954,0.13372807,0.1042778036,0.6724315605,0.6982804634,0.4761108529,0.2550445065,0.6025991334,0.5968897185,0.1700068539,0.0756190123,-0.9632619436,0.0900276175,0.0744487548,-0.1557135955,-0.6866083546,0.0438394771,-0.4319476076,-0.1521780911,0.200686724,0.1176189004,-0.1175035706,0.2583687185,0.2720111755,-1.1577115645,-4.4921793119,-0.1743764099,-0.5116481793
   -0.8730721181,0.3569722416,0.0778612169,0.3089696813,0.6176382594,-0.3260706048,-0.0232293316,0.2063037239,0.5630786942,0.6839062387,0.2536908985,0.2985579532,0.5975951777,-0.9743142539,-1.0838819342,-1.3413352922,-1.0240258335,-1.3841829935,-1.1435778959,-0.9661549809,-1.2885754341,0.1656696205,0.1145236193,-0.2923121109,0.0173182816,0.0082792599,0.0558524788,-0.2134740456,-0.1314102303,-5.3769393805,-5.8965941763,0.1095279391,-0.1607483493,0.0758870014,-2.2372116041,-1.3828731356,-0.0557783818,0.2220694919,-1.0444236178,-0.854097235,-1.0718493831,-0.9729931937,-1.156978076,0.1859821994,0.7088476101,0.0968667912,0.1990346866,-0.2275047262,-0.0951424684,-0.2679093223,-0.4272813726,-0.2127009119,-0.1007723384,-0.0417386172,0.7031349011,-0.0358329393,-0.2776758615,-0.0132214532,-0.1006204775,0.628280852,0.2884189011,-0.1111526343,0.1392467616,-0.0143331642,0.3991308525,-0.3438409152,0.1907157248,5.0743937861,8326.1027792048,0.061022158,0.2224234178,109239.745762462,0.6058177611,0.4483176834,91213.3002534837,109316.4523675694,20359.3756051293,0.0809251742,0.3894585038,62047.0524636404,99.8611849878,56073.8729750534,2197.0221834552,0.7674105342,12246.5672887688,1.7709942919,91.5995231165,48430.0347824771,596.6810741088,204.8753394295,17.1649667926,0.6214729202,3241.4216608631,1.9725117196,177074.3149531736,0.1055999521,5618.2372716291,0.2871605948,28316.2620589105,14842.584737536,0.1308627567,8.9299930737,0.1139243828,0.440907168,8.9000304775,0.4877651638,0.4467815605,0.2839782572,4.0680468597,15648.1192642148,99963.9423306205,3882.7820599297,141901.9238057313,75003.8156834948,65383.3464079913,66.1182501795,15867.4696170811,322.2691347412,1.4949384458,0.2698810171,0.5006391809,0.2375037255,33.3650714111,0.543561709,2574.7085906871,0.6251764069,135.4550148632,0.378298102,0.3085574863,0.5475662802,0.6169740779,0.6087248286,0.3550735061,0.366609829,51259.2966459845,19587.9075739047,715.2390184079,4053.6021713612,1.4512772156,8953.6317349189,4383.0953519864,163.0523158065,65742.1555239596,83388.2799444456,0.0446678544,0.0168348698,43321.964503212,12046.106130683,0.6134492342,0.6370834321,0.5307195726,9971.8046343917,1.2924855359,50227.7416996578,34970.0890310878,130839.008434385,0.8290874593,6.5502005766,102.2855770473,0.4704188043,30521.7363641131,14818.4823033545,4618.2061013816,9147.2531386741,72.1662481123,163.4838286093,155529.7330093167,4.1853763514,40492.9218385355,0.6073016907,0.7011763419,3884.5465588783,19969.3915923415,0.5150073849,22962.5966813683,0.6713121682,9.0482165133,100.6258908006,274467.305778873,2653.21998924,52566.1165792055,2.5791986939,62388.2839008557,3387.7447142183,0.4231286655,1.3882875941,23.7062392138,3.5750129708,468.4691396356,14871.3626067781,2440.992177517,7922.2292764535,64614.6971996266,6.9499751543,0.6421731985,81.1650828603,6.0078410238,5108.4151241593,39299.5106022908,64723.4592471472,7.9292900166,1171.4847561224,1408.9765926794,24585.9553349328,54.2810982879,125043.6144377507,47398.7437520336,16.6221470652,0.5376871225,1.9661831896,30.0996572735,49.1561694687,7.2633880933,8991.2503725236,0.7544712319,61904.1852879645,3.2731668551,1.5890555378,0.0913687888,1.5578559814,11393.371837711,0.8003086279,357253.2370889305,0.2303097463,0.7005402916,203.5754968937,3777.6234925357,76758.2615298625,76758.3872064222,5.8190015218,4.6305409028,0.6330899814,76758.0529470857,0.6444268048,1.1750352065,0.4006962494,0.5122228491,68282.8864064719,56073.809053275,68282.9244085281,7761.131268907,0.0531450709,3.9856515083,4.2133089224,3.9858285213,4.5697099317,3.9309151048,4.2326800187,4.5523473719,4.2863386276,4.6301822185,4.3928380264,4.2279877715,4.0742017465,4.1840925885,4.0953155519,3.9712225456,0.0661296921,0.2797304259,0.1486444172,0.3431885754,0.7066221671,0.7566129938,0.5460547537,0.1855252887,0.6782062695,19784.6007197082,49978.7060321264,19784.7631935871,49978.615985313,0.12111761,0.3151183458,0.2652163965,929.3490490879,929.1123345351,114757.1771730965,114757.2804798283,114757.6571345756,114757.3435269978,114757.2720828742,114757.0762683422,0.3612965577,0.6433624881,0.0127048727,0.7094710183,0.2512187505,0.4560247365,0.6661284218,0.574703508,0.1787526622,0.2654943623,0.4770997707,0.7011299394,0.0785528085,0.3619882275,0.710401642,0.2616745804,0.001839518,0.1756408018,0.1662053568,0.0118565304,0.1536636042,929.4294607334,0.6409093283,0.3612953151,2.7671270319,14961.0405838459,0.2169343325,56073.8882139999,347.796763452,56073.9232761216,348.0505550615,56073.3914995045,348.0896652895,56910.2941718349,929.5558700469,1.3525123681,5152.4803622745,0.7515016668,0.1940503406,9657.6240423142,9657.226401355,0.1078531514,0.2164707986,27859.1048546669,27859.1000999346,0.7187118792,0.3832363302,0.0518043681,0.5502575002,0.5712490886,0.3984121582,929.2814365413,929.2147684094,929.7096877083,929.5059329572,929.6164102213,929.6754145955,929.2772096115,929.648212054,3777.4631008042,0.6280318618,1.0517657331,0.5384421301,31343.1297417437,251534.6327477833,57403.0926148343,76473.86773602,98435.2709130949,1.9000519144,62829.9671793689,0.4609751988,0.4798183439,1.1322261127,929.6914374782,70506.6748793002,0.768169858,929.1346173032,929.5994023268,929.4660078597,929.0493302992,929.2239104018,0.1852882214,0.5182073693,68282.48279241,56073.8213894813,68282.5380343404,56073.6337191165,56073.8254967138,7761.1205728013,347.9580487312,56073.3554774404,56073.2822150816,0.4361848765,24561.3338919538,56073.8566122804,56073.4617285223,56073.2953573402,0.5321599057,116056.2239993828,182783.4072910685,3.5720025872,33.2622451619,0.2975220487,0.1907425912,0.5052066226,-3.8928848096,-3.098397625,0.1757580555,0.0651639353,1.8189101536,6.3271858335,-30.2547214399,0.3271962547,0.2140778341,0.8500704833,0.0124697077,0.7106070898,0.429501344,-0.3163583903,-0.5482617564,0.3915491187,0.9319887604,-0.6695855125,1.6852045113,0.6791502263,3.5521449777,1.7448637227,-0.3320631222,1.0854428853,0.3000718903,0.8719784182,-4.6355772199,-0.1234943749,0.5764499635,1.3638128703,0.421737825,0.0633233089,2.5140763185,0.7013659074,6.0889064766,-5.9344819491,0.5493589307,-1.1161221293,0.3458760336,0.0919274556,0.0429012983,-2.5441262312,2.5114034759,-0.0090490524,0.2007778688,-0.029715644,0.3477250926,-0.299918012,2.7304430866,-0.1423587894,0.2972905532,0.0657306366,0.2274401522,-0.8231421422,-2.823104751,-2.336726596,-1.7266015182,3.5112201461,0.4883556647,4.9789051301,-0.2437547084,0.170749192,0.2035108929,0.332086666,0.0043423592,-2.9157656958,0.3586516305,-0.7197087424,0.0380127141,1.3187806353,0.184512887,0.5453763898,-0.3313915236,5.2704851562,-1.295112965,9.6640659102,0.2519478596,0.5043045568,0.5241731299,-0.7353775844,0.760510031,0.4807766652,0.3899851555,0.0196724174,-2.5573518287,-1.4079854445,0.5458295908,-1.2994878022,0.0564108137,-1.5951783274,0.1871019455,17.7637264288,-35.1227453722,0.1846086401,-8.3933808081,8.384281363,0.0949080812,0.6332212538,4.5049421145,25.4410257424,-0.1097582665,-0.2484383464,0.2090118232,0.6069773474,-1.3891903409,-1.0313896186,11.8784835064,0.3327529037,8.7983737833,-2.6843263323,-6.5922266467,-1.9525682556,-1.4370152096,2.9114792511,5.0522854324,0.4983641232,-2.1407240823,0.6738180568,2.0683854371,-0.4095576066,5.5317456485,-2.7585748417,-3.2523277412,-3.0543380059,-7.0200992656,-0.0546857129,0.0443235255,-1.2939020852,-13.6936229187,-0.441323083,8.3815545907,0.5449797856,-0.733463972,8.9966115482,-3.5604381561,0.7450813067,-1.2904814516,-3.1551421598,-4.796512239,3.3760062344,-1.2803162389,-1.0982671016,0.8591414302,-5.6330850473,-5.8359788119,6.4369782623,0.1397277208,-0.9196348748,0.3527961286,0.3961967405,2.5943179537,0.102268598,9.3586290887,0.4312927327,3.0034383435,0.008699949,-0.7280134836,0.9619760051,4.2458430817,-2.2854241378,-2.2326919135,-2.0013852252,0.239752746,0.3726900988,0.3152961166,-2.238426971,0.2397156905,0.2712627864,0.2673818733,0.5625823328,-0.2608828681,-0.1342669739,0.3629699326,2.9294740819,0.6833301071,0.4305863096,-0.1039283583,0.5577046216,0.1671048211,0.1587092027,0.0525589804,-0.020980478,0.5409809271,-0.070818773,0.4118746534,-0.1256104852,0.1309359772,0.5494458806,0.1369721223,0.4618308891,0.3555320706,0.3409567301,0.5054465656,0.1677147406,0.5435728887,-0.0106246671,0.0794695981,0.6288030614,0.2027255934,0.3346793618,-0.3302332481,0.1379257519,-0.114117733,0.0147841779,0.3554517242,0.4134842991,0.1647301868,-0.2395647136,-74.7553659325,-74.7087265939,-74.2463767807,-74.6816057785,-74.5484625004,-74.3161725136,0.0654655722,0.3617286561,0.4691051841,0.2735973899,0.6067964255,0.2773469725,0.2947972368,0.0558445377,0.2769400252,0.444487396,0.214917914,0.1719570609,0.3247940917,0.457920566,0.689145317,0.53206101,0.0579958345,0.0064148606,0.2494915537,0.5139306159,0.2501971493,0.2176157326,0.236613757,-1.165094779,-0.1075856952,0.1480635172,0.3847158908,-0.2542091197,0.1979928349,-0.0623363001,-0.2820025825,-0.2353889085,0.1289584029,-0.1897873177,-0.4491020138,-3.7606105752,0.3333360244,-0.0187554212,0.1587911753,0.1568345788,-0.1442291529,0.2852852356,0.0520748544,-0.1905063315,0.1110999409,-0.5947413916,-0.3654131247,0.1802735598,0.1835690719,0.3517160259,0.3205074081,-0.4869832424,-0.0637844086,-0.3381267584,0.1356417148,-0.1426335248,-0.0670106129,-0.3229091063,0.0644928461,-2.3812407674,-0.0084386759,-0.1145027795,0.5088592874,-0.1683352228,-0.1521171168,-0.1656864019,0.2881944554,-3.0010393315,2.5648541045,-0.2911239706,0.12929643,0.2240657917,-4.0192621695,-0.4768805,0.1523564159,0.465106567,-0.4705174252,-0.1383274605,-0.3441850654,0.1313671244,0.0152003912,0.2592600357,0.2442370873,0.1973136079,-0.4268622142,-0.1021472886,-0.0240168257,-0.6013485477,2.8210225069,-0.310480631,-0.5875769912,-0.2281689183,0.3820245719,-0.2006951098,-0.0996607568,-0.0567129984,-0.0044471418,0.2884001795,0.0175573278,0.1125715205,0.0365578575,-0.2295674716,0.4737415945,0.2998669984,-0.3451810301,5.5808572612,8326.1913226778,0.13840395,0.5810698521,109240.0597646029,0.9241961945,0.0532433382,91214.0022234025,109316.6329709662,20359.2650298758,0.7524163112,0.0178958132,62047.6807367909,99.6573825139,56073.7178444245,2197.0975127462,0.6932127065,12247.2173093348,1.3976549446,91.9982201763,48430.4930288192,597.1096236559,204.6982931236,17.4043944364,0.4036165995,3241.3423798493,1.7645908606,177074.506018966,0.0530714486,5617.7543933837,0.3331994349,28316.4984053896,14843.0365566396,0.5731256627,8.8717124203,0.754901983,0.3595857766,9.2586596663,0.6735140411,0.2057685501,0.1614782575,4.1237556844,15648.2482370454,99963.8913167316,3883.3893128061,141902.0533430722,75003.3658482672,65383.3203475654,66.8369133733,15867.6610859038,322.72757039,1.5336294937,0.4631418841,0.749576449,0.9168294763,33.0784370989,0.3383036818,2574.7870464777,0.4310725959,135.8569499121,0.7613879128,0.0338690087,0.2500649753,0.2215695781,0.5650347037,0.901406937,0.8450836234,51259.1833118619,19588.2494731474,715.1374497355,4054.0411571532,1.1898826804,8953.9158898335,4383.7012596821,163.7169469323,65741.9547162643,83388.3578223852,0.5663720179,0.1459927321,43321.872343013,12045.8571029907,0.4338971375,0.3356580637,0.6747613412,9972.366464454,1.3343992287,50227.5705935126,34970.0858961605,130839.1935480146,0.9566970773,6.5110067726,102.615980954,0.5992037062,30521.7078975783,14818.4671938866,4617.8183373293,9147.402422732,72.1622640351,163.3380246804,155530.5189839372,4.2921537255,40493.1237291539,0.1947705186,0.6420841919,3884.8332180529,19969.4016059997,0.5098163696,22962.262807299,1.2600286339,9.4740301586,100.2675466683,274467.091182514,2653.39532777,52566.4645922129,2.5743605492,62388.2741758361,3387.7489634684,0.530818374,1.2151153896,23.8418046995,4.0480566945,468.1342933214,14871.3490868665,2441.4180174731,7922.2778734919,64615.0345092451,7.46947144,0.7188195285,81.6859499249,5.9900922604,5108.1480945668,39299.4504289327,64723.9023313512,7.7920269706,1171.8532977404,1409.0539679797,24586.0359883451,54.6770766215,125044.1921043124,47399.3056379794,16.6534570374,0.6689686369,1.9773647561,30.2131304624,49.5133156283,7.3193360746,8991.6410509428,0.2497607066,61904.2591423488,3.7788194044,1.3876170972,0.1625623183,1.7256441607,11393.5127231229,0.9573988478,357253.4844341137,0.1406340361,0.2823360223,203.1966164203,3777.8190561107,76758.4668549181,76758.150953895,6.0935149145,4.4817297321,0.5772582708,76758.1399380608,0.0607553641,1.8285386616,0.1436271497,0.0711918106,68283.1032949188,56073.4535432212,68283.071432573,7761.3100845078,0.5850552583,4.6824465183,4.5270734476,4.1475515645,4.1324200785,4.1667258214,4.3648608381,4.6569871871,4.2079997192,4.6823180309,4.7427967819,4.0504437466,4.5953517263,4.549584108,4.4186034024,4.4823632887,0.3513651754,0.4594292494,0.2601158934,0.51362938,0.571219723,0.9070109587,0.3978183859,0.0713027112,0.7019891389,19784.7962919756,49978.7208334812,19784.7966238442,49979.0742478648,0.6568550558,0.7005648914,0.4641456613,929.5643041902,929.8714415941,114757.5015635657,114757.8595649471,114757.6938305368,114757.6618074074,114757.8573329637,114757.3447638836,0.4499036024,0.5623747076,0.0337884719,0.0168400531,0.2969795607,0.3245171294,0.1099013721,0.1770542449,0.5266375944,0.2170445137,0.4993272106,0.4783231721,0.5313523916,0.4456448918,0.1350714942,0.6962131596,0.3050859719,0.4927060193,0.4148994529,0.5951878951,0.0678939122,929.6186716974,0.1463017158,0.3235106684,3.202102326,14960.8190640165,0.3435857232,56073.8756655759,348.1337475599,56073.8876713343,347.7645657982,56073.6522797092,348.1210033427,56910.1461816825,929.8766443571,2.0216615587,5152.4241486136,0.3522005772,0.5891691746,9657.65253668,9657.8395075803,0.7123500138,0.3547384207,27859.0221527147,27859.4771779839,1.0467202805,0.8950358878,0.4044805923,0.2667637002,0.6314062878,0.589933967,929.4190479556,929.6531778744,929.2163484688,929.8274052047,929.4695518244,929.6580478427,929.7332806683,929.2231811561,3777.509968702,1.164373057,0.9058048152,0.171109785,31342.9350684947,251534.3388237147,57403.0475921758,76474.3307830831,98435.728563427,2.0441044646,62829.9344720651,0.9032888427,0.3873851478,1.2141405507,929.4077676939,70507.0745025507,0.4127186936,929.7596602376,929.6836719528,929.6648237167,929.2369729438,929.2218355761,0.4356612161,0.584772971,68282.6167758535,56073.858318891,68282.6219287093,56073.7624065223,56074.1105394,7761.4685570217,348.2555016552,56073.6264436594,56073.6422917473,0.2872785618,24561.5138679995,56074.0419319468,56073.5600038329,56074.049987017,0.6113974902,116055.9554464376,182783.5536291003,3.9687738767,33.7894632576,0.7581278838,0.3625917841,1.1999978423,0.0116086017,3.1804695273,0.6239552576,0.2722185786,-0.8441908516,2.6459652219,1.5216074745,-0.0636345716,-0.4325598073,0.2661011445,-0.0715530187,0.2535474459,-2.1253444082,1.0755185191,0.4186020548,-0.2147203004,-0.5300962808,-0.1354096552,0.4191891462,-0.1853497645,-3.5178534096,-0.560096572,1.9771884066,-4.0194967677,0.1209934495,-3.6543070965,2.5467121553,-0.0343508352,0.2978464335,13.4278931686,0.4428778149,0.2554612778,-8.6410386949,0.3696947885,0.3346102163,1.8749780474,0.0320989305,3.741439628,0.4092336517,0.3092661825,0.2606734098,-11.5645739332,1.0184078305,0.2202976411,-0.1175813432,0.2285948482,0.0749969239,0.3059476228,0.9842317303,0.1941311467,-0.0047173479,-1.0633967074,0.1000027221,0.6104872134,0.8970722156,-0.3466580833,-1.80216592,6.0560582415,0.4307667749,-0.2141992686,0.8652937768,0.7029322536,0.0133004616,0.3483634883,0.2236608412,0.0172444752,0.0607625005,-1.0433753516,-0.163500282,-24.1486666856,-0.3264246593,-5.125366017,-0.0566320475,0.3534596384,-0.9984047544,3.2554508117,-2.5065491689,0.2764618598,0.2302664148,4.9598285078,0.4426030434,0.5466649778,0.5403455151,0.0848607576,1.0080467031,1.6553603018,-48.8173819642,-4.0131707504,-4.423284989,0.3167427976,0.8067105435,-8.2128157567,5.2798593503,0.0954128623,-4.0895801848,-0.6435228967,-0.1560698532,-0.3259002166,-9.2064490893,-0.910870094,-0.3967577548,8.8012199328,0.597011264,0.3174620274,-1.3927503233,3.0289738302,20.1813544478,-0.2191673805,0.1305166067,-6.6903144374,-7.0659554176,0.4598160398,-3.826244502,2.1607947768,-5.3399611909,0.0340509025,23.0820360391,0.2278229622,-3.3440673774,0.0500892517,-3.1526458524,-0.6825955394,0.3545309146,23.2806843189,4.6330424152,-0.2882816402,-0.159346118,4.2967140788,2.9994751894,-0.1207952652,0.7427536286,4.862489976,0.3686446202,7.017986711,10.1575123468,-2.1610764028,-1.749859444,1.8829272087,11.7258025721,0.1498897611,-2.0906361741,-3.2469567919,-1.7626560154,-3.1175736232,11.0438001621,-0.1454160444,0.5345826482,-0.3043566379,0.8079230615,0.106158409,-5.494771812,-0.2185645481,-0.2799849108,0.3357601076,-1.6784159216,0.3516175472,-2.6587634559,0.1269193744,0.0905419046,-3.8577193818,-6.7482726459,-6.7836609522,0.0874432921,0.0310645262,0.7088954445,-6.4840800028,0.3177416946,0.035033945,0.5015206188,0.6318126911,0.2092754403,0.2771949972,-0.0914703158,3.2297308041,0.2720752399,-0.5423973766,-0.2110169465,0.0476435272,-0.0943395056,-0.215147582,-0.4768715732,-0.0252474838,-0.2528127874,-0.3543164958,-0.0378110829,0.0263940105,-0.385672004,-0.4717631831,-0.0341018145,-0.589640177,0.1620801194,0.1332250669,0.3740150286,0.5471628084,0.0246249584,0.3822710737,0.3208484916,0.1734180654,0.1360106663,-0.1401242853,-0.1683556114,0.1734904229,0.2468062211,0.47037417,0.6544002303,0.0587429488,-0.7254802947,-0.8978650539,0.3818138241,0.3403471374,-0.1499854111,-0.1659118269,-0.1277163889,0.258633427,0.5994620199,0.5087213525,0.4907870926,0.4282512488,0.0699467627,0.0176681485,0.3527343366,0.321619485,0.2555027446,0.3140766733,0.6114119163,0.3317117493,0.6751423616,0.7114459363,0.5046110211,0.1455841292,0.5259558647,0.2376846176,0.3773209773,0.3622685494,0.4248078609,-0.4898149485,0.3920314461,1.4124878223,0.8177297289,-0.0554156159,0.2882864832,-0.0881025438,0.3330931663,0.3836922371,0.2758738318,-0.09085911,-0.0729597062,0.3103164831,-0.8116640039,-6.9967124115,0.2962398499,-0.1555506147,0.0067819901,0.0422064522,0.2981283999,-0.0016449482,-0.3965772867,-0.610563982,-0.6340950609,-1.1017356574,-0.9148853284,0.0852381977,0.2971493713,0.7036417865,0.0513296654,-0.9259020099,-0.8929733484,-0.7920731705,-0.8764193929,-1.0903078972,-0.7112893709,-0.6492963965,-0.5993066406,-3.6488938296,-0.0576141614,-0.1981446052,0.082168372,-0.1495125056,0.0080087324,0.0055788171,0.1623446796,-1.097822398,-2.4557654472,0.2096146922,0.2070710598,0.7100405829,3.0865692226,-0.8995868783,-0.0886411352,0.1221098959,-0.4848241305,-1.0984444811,-1.0731013861,-1.0536217486,-0.8030007591,0.6732219038,0.7010556218,-0.2260048673,-0.1078348128,-0.2859792817,-0.2721444,0.1308227406,2.7163917203,0.1801128884,0.0204004305,-0.209790233,0.012305616,-0.0664690525,0.1215498204,0.2280239805,-0.1246747041,0.2434183722,-0.2313483106,0.0916507156,0.0431822223,-0.2390812796,0.1128980528,-0.1336027022,0.0931457313,0.0802416642,-1.1466603349,0.5983788366,0.4583208446,-1.2258985083,-2.4557161087,3.8499957343,-0.0875782159,-0.5142269001,-0.2299768007,0.3360194398,0.1324845154,-1.0890610498,-0.5104125007,0.2670236971,1.0274796809,-0.0829731466,-1.7643156221,0.1951389074,0.120514741,-1.3060184775,-0.0602945096,3.478084509,0.3585926536,0.3019990729,0.28670451,0.5513137304,-0.2572147601,0.1853086161,0.2641140839,0.3237789195,0.071891652,-1.2554104196,0.0512035385,1.4357144135,1.9379509571,0.0884173919,6.8033478907,0.3766014749,0.4274357601,0.3522526707,0.1603119351,-1.8751892851,-0.0279500186,0.1196472596,-0.1646749564,0.0977955415,-0.2544482405,0.5509182402,-0.2100362502,0.4399154707,-0.9488439756,0.4715576173,-0.737588491,0.0576871488,-1.6473002427,-4.2796502891,-1.4985243646,0.5891880143,2.7463494934,0.2731439693,0.5110633085,0.1354009588,0.5444759371,0.2242399681,3.1563965994,0.2116814351,3.0984562375,0.2253871858,0.0846647428,-0.1548590259,-6.3878205346,-0.0322665837,2.0061462805,-0.4652194,17.2746537849,1.5510616174,0.2488221782,0.5461908886,4.06896693,-2.0431985289,0.5040875565,0.6883633568,0.3233904597,-7.4542705239,1.7951403695,-2.6344449333,-1.0075173805,1.674254336,0.3168824057,-0.3206319173,16.7550072932,4.0975490359,-0.2900635335,-7.0756230645,1.9989734234,0.3193842419,13.68303884,-6.6189351852,7.2760264871,0.3053786072,-1.239550168,0.6901726319,0.4825614249,1.4471298443,-2.1312468088,1.9488082567,0.0929189218,-0.268708348,0.8574638808,14.569609746,5.9025587944,4.4542201775,-2.2363269243,12.118300071,0.8873981159,4.9530234056,0.0307915596,4.4437920064,0.0086356996,2.2816807677,-0.3905852406,3.3382975648,1.8457354169,2.4332762983,-1.3687223495,0.0902927356,0.1045413827,8.0448038986,0.818270103,4.2729707815,-0.0139745635,-0.1111076992,-2.9854824065,-22.47823261,-0.0339530102,-6.165906569,5.3624760143,-7.4586776673,-0.0130489976,0.1103720536,1.1661805791,-10.4619375514,-1.5688766697,0.1662969805,-9.067183163,0.1376821334,-0.8511402338,0.6184918115,0.4303842737,9.2637532517,0.0882076161,0.1894893753,-1.0316571376,-2.550918068,0.3269963505,0.9994964355,0.5737998208,6.3533509077,2.6828897305,0.9434866412,1.062003436,0.0145982508,-0.2342219916,0.6555990035,0.7523385833,0.6048137125,0.2736906145,0.2119152095,0.1877759152,-0.1013923198,0.1763440096,0.2118417707,1.2018725486,0.260565044,0.4136232764,-0.0360630121,0.295234936,0.4952966653,0.494582034,0.4611472471,0.2760377199,0.045841559,-0.0838534716,0.4490898589,0.275028248,0.2596509882,0.3658110115,-0.0806147248,0.0443096753,0.0851050934,0.2502088728,0.1389860792,0.271299839,0.4681676249,0.0752349697,0.1794606797,0.137954822,0.3706733434,0.0901809519,-0.1172266087,-0.1232005137,-0.0179289707,0.2837450137,0.0152260878,0.3595056959,-0.3855536362,-0.6906123384,-0.3281143506,-0.0897785761,-0.4073890252,-0.2857238301,0.2446569903,-0.1551447456,0.5482073652,0.6327064475,0.5488046781,0.0007121972,0.4212079298,0.3217911064,0.602376724,0.12281397,0.6631778644,0.689670183,0.1715234162,0.4022274609,0.6830681677,0.6832467141,0.3357080547,0.4547638706,0.516694907,0.6977399091,0.6008393242,0.6883965989,0.7068148393,-0.7110974398,0.4737688392,1.2924715605,-0.1963795938,-0.0413722407,0.661297655,0.5601507421,0.3266699629,0.7780358472,0.261957057,0.3054032462,0.3275767531,-0.2793207124,-0.6951579396,0.6338875289,-0.2822627439,0.7078270609,0.3486231257,-0.1046286745,-0.0559131028,-0.0827049674,0.0274024424,-0.5338294185,-0.2919232916,-0.2633854381,-0.5390474541,0.4945287178,0.3195494449,0.4355217209,0.2640171569,-0.1690178298,-0.0904744447,-0.060168572,-0.4073944671,-0.2082941891,-0.4084358131,-0.4327159052,-0.2923998592,3.1225413692,-0.0011057169,-0.1782127891,0.2121335493,-0.0238172324,0.2611685654,-0.2028686097,0.3144870143,-544.6363089882,-5.8220188079,-0.0526739326,0.3965408281,0.0896811987,1.6257050403,-0.2597594771,-0.2003203836,-3.663362313,-0.422662748,-0.363442125,-0.461398686,-0.2505799313,-0.2112784953,0.0970135662,0.5163864442,0.3014327493,0.1667329738,-0.0096449706,0.6326025733,0.635936598,1.3353924778,0.227263044,0.1508471966,0.4730682076,0.6276957152,-0.1125054155,0.2374894945,0.341431114,0.185623815,0.1491126221,-0.2690202173,-0.1954986577,0.5018285815,0.6687224697,0.2183009668,-0.0048382515,0.3848091333,-0.0056870354,0.1704002804,0.294229041,0.4385765799,7.4509596051,-1.6847632714,4.4171237547,-0.3955847709,-0.0425702569,-0.4390716973,0.133060029,0.1428598962,-1.1476362119,0.4217235899,-0.1943070672,1.0517256181,0.4376504257,-2.0724617313,-2.6227565965,-0.0893459279,0.8314894345,-0.192242068,-1.9511809321,1.477796684,0.3200670724,-1.7654831478,-1.8824887977,0.2687692881,0.1493515727,-6.1486817838,0.357100653,-0.1136677024,10.9928542546,0.2507732576,4.0112014336,-3.2986646931,0.5972050402,-2.8398522846,0.3704291371,0.0009173211,0.3143789256,-6.645837249,3.1826374593,0.0511350595,0.1244190271,-0.2179217831,-0.2692984145,-0.1632172938,-0.0721026479,0.2667709586,0.9165741375,1.0074335771,-0.1264457091,-1.9041276399,2.966965834,-2.4956725863,-0.6071458028,2.5328554539,0.4732113922,-2.4468921553,0.6541869109,0.4298474979,0.3133127831,0.1836694782,0.6643054894,-0.2754206737,-0.2588402385,-4.5734472723,-0.1554376785,2.9718511345,-0.2253863993,-1.9318596205,0.1483371966,-0.0550662472,-2.1348132818,-10.1282183083,-10.4833023519,0.6120658484,0.5160406157,2.2926536104,-1.5160654233,0.5440004313,0.1392514243,0.3254094785,11.1735657258,6.0089198596,-1.0224354118,3.0848935869,-0.8333493871,3.2643560581,0.0540170672,-1.9474704222,-32.2722485505,-0.2616529653,3.6876724862,17.4623482049,-14.1789894594,0.3337805022,-9.9788613183,-1.471682632,-5.2291125639,-1.3712057813,0.1385050011,0.0288767431,-0.2312502276,-3.1039893539,-5.1517284913,22.0568647452,-1.3846037375,2.0860932946,13.6896593162,-0.7318476203,-0.2974087405,0.9304018482,0.3347181096,0.2647847428,-7.0505095234,0.436415775,-4.3072364041,-0.4016579777,-1.8816706762,-2.3333128561,10.7833558826,3.2297006045,-0.5449443724,2.2161639673,0.3355994817,-2.2532882625,-4.1079855233,1.5401704742,-13.8229475634,6.3086669158,2.6008411129,3.07813561,7.3979349417,4.8945228836,10.4843618009,3.6382899985,11.0259926043,-0.1314376712,-0.4788549975,-0.1777965098,-10.2460879818,0.590932989,10.7160817555,15.8989120667,1.5985425615,-4.2713146974,0.3063450485,0.2677103881,36.841669107,-0.0733406446,-1.0073346008,2.177065841,-3.8828632441,-0.2606940374,-0.331877419,-0.2446589534,0.1434515404,-2.907740718,-1.2373676229,-1.1038322043,0.3063301804,-0.190161833,0.4286535887,-0.6955780827,0.3839790959,-0.2037244486,0.1018689184,0.7075074907,0.0181158501,0.0652820504,-0.1231375107,0.3543738496,0.0673721814,-0.2126025037,0.2593023867,-0.0744442283,0.2059997825,0.3065917758,0.0778754651,0.2001820606,-0.132173285,-0.1672026657,0.1805711715,0.2178526559,0.0369953741,0.0467329586,0.1535433687,-0.2581786956,0.2547497121,-0.2843834729,0.2058789569,0.7041639435,0.3951152346,-0.2000241816,0.0419543148,0.4607584623,0.257519576,-0.2730450772,0.2984941039,0.2943605084,-0.1705130986,0.5730376531,0.3545315091,0.3828256412,-0.0576611967,-0.0396669783,1.0275948486,1.1518356737,1.5199628769,1.4824134439,1.5567578377,1.2713069054,0.6496754768,0.5794340012,0.3673163975,0.642897354,0.6009081974,0.6509914094,0.6435487318,0.2013941782,0.342851347,0.4413149225,0.0666855177,0.5453318265,0.3046920045,0.5788913781,0.4832487707,0.2289224297,0.2497396236,0.6454210588,0.5283151522,0.3270279503,0.4971475468,0.0749635999,0.5937898309,-2.2186135586,-0.3325057179,-0.1357464396,0.6403861729,-0.1618140551,-0.074521083,-0.0968804456,-0.2438868249,-0.3619131102,0.4315660216,-0.2276633665,-0.0325291311,-3.1616212118,-0.0956584935,-0.0081496522,0.2168104048,0.1895310585,0.3071984381,0.6047466143,0.7308032226,-0.1127641246,-0.0146389453,-0.7378799025,-0.3400522983,0.0792685685,0.6508477719,0.1663032363,0.4559316923,0.3790108775,0.0706988823,0.2194132884,0.5734096603,0.329270907,-0.0268415738,0.1637585663,0.2305447564,-3.2176480096,0.181443499,0.3056231186,0.2420302442,-0.2543904183,-0.0380610613,0.3820110198,0.3130418672,-7.2124856609,-0.7517596277,0.2521943438,0.0804848159,0.427091077,-1.1318331567,0.3233703664,-0.1320827193,-0.4241082636,0.4337039309,0.4286854873,-0.0012262184,0.4183792834,0.3213412364,0.2757470351,0.1491181825,-0.1893968539,-0.387093626,0.0470130886,-0.3562274675,0.2718002125,0.6689241454,-0.1937710091,0.1581716861,0.063465441,0.1827273524,0.0044924078,0.2478926646,-0.1025840313,-0.0593071338,0.0635352339,0.2957368616,-0.0487619353,0.2502817747,0.6356832492,0.0886984514,1.9537808286,-0.2058284198,5.1728912099,8326.1495138501,0.4454242936,0.0791098367,109239.9905995865,0.9194239368,0.204576022,91213.41601966,109316.7572784568,20359.5390713755,0.7421559735,0.5755529259,62047.6788368935,99.9416135298,56073.5295894005,2197.0564750386,0.5847061641,12247.2467338105,1.5104999385,92.4236362778,48430.369015986,597.2826330212,204.9174830359,17.3680047671,0.1160895644,3240.9936138775,2.1080840465,177074.6908392641,0.5307762701,5618.3302325559,0.2173045655,28316.6326006142,14842.6411719862,0.1045821072,8.7204616441,0.6336480997,0.6895281494,9.0377899596,0.5865245714,0.2048941987,0.5417439224,3.884428406,15648.5120485921,99964.3484356358,3882.9184623614,141902.0754926843,75003.6607895769,65383.0287357379,66.3679879493,15867.7603639893,322.8953351613,1.6906374145,0.3616574966,0.9632796933,0.4897440719,33.0362860263,0.5111621806,2574.5286143034,0.2706204212,135.6742136118,0.2386642926,0.7089406854,0.5526869387,0.5267123693,0.4301835848,0.8880495577,1.0356352432
   51259.4956643154,19588.3645093144,715.3842593274,4053.965356046,1.6045073887,8954.0585887601,4383.8196540654,163.4165077262,65742.1563811131,83388.3254112246,0.1161450138,0.2009646043,43322.1000721542,12045.8714060623,0.0070716163,0.6290169984,0.2300559604,9971.9980388275,1.3252735664,50227.8761748323,34970.1233048055,130839.2245326251,1.2129060222,6.8863343145,102.8745292933,0.7195046309,30521.9118943068,14818.1299262764,4617.8401385185,9147.5106278525,72.1830461629,163.5185963701,155530.0222768986,3.6456421396,40492.5695955777,0.2061684026,0.1461205605,3884.743352601,19969.7550463374,0.3050009656,22962.4839605783,0.7878038572,9.1466960763,100.2309995318,274467.5668375632,2653.3229374634,52566.5262912767,2.6455706429,62388.56456984,3387.7604777596,0.6892699784,1.1158254341,23.8336221083,4.005945122,468.2770807739,14871.6474546341,2441.3482502737,7922.5085052408,64614.9037698388,7.4629606057,0.1826959454,81.9213840356,6.1611338331,5108.1651518282,39299.9530186721,64723.903097137,7.8224762023,1171.856056167,1408.852725092,24585.8225440269,54.6713858847,125043.7375713357,47399.2761457243,17.0730963624,0.7055359074,1.6866018665,29.9474384479,49.6174960054,7.2080064499,8991.1287482545,0.4768889991,61904.1516332415,3.5611890612,1.6239864043,0.6471400929,1.9001008207,11393.6628662435,1.1589677871,357253.7114223258,0.6450823045,0.4230844684,203.3248498442,3777.6987273744,76757.9594471713,76758.5412408157,6.1630210658,4.5799005095,0.6723899345,76758.5709114946,0.033505383,1.5837357991,0.2255766242,0.2973250202,68283.0603056789,56073.5852696226,68282.5560166458,7760.8600825526,0.0516582839,4.4937584721,4.4810138997,4.3553849058,4.734605376,4.0643234417,4.5706765718,4.2672065005,4.2084764646,4.2434092519,4.3712491891,4.4543344789,4.2044128566,4.4388246635,4.5470828837,4.7330340469,0.5711916902,0.5534387254,0.1772488151,0.2715601549,0.2710323329,1.1767789941,0.4500978221,0.3303566096,0.4770568679,19785.023646074,49979.2101673001,19784.8393453546,49979.096588723,0.4904221086,0.1730074546,0.1180575531,929.7042266573,929.2838565725,114757.7009481372,114757.5909467155,114757.6561551793,114757.3826722778,114757.4355127579,114757.7033373886,0.3676951112,0.3953671472,0.1876549297,0.1341073721,0.3648937391,0.3767399401,0.337495997,0.2167468427,0.3766732442,0.3508111284,0.3204751662,0.2279061544,0.1735694849,0.1601620243,0.5539095094,0.0028047596,0.3041466184,0.0439218641,0.388444075,0.1113992091,0.5912697502,929.1839890005,0.5354392646,0.7972495871,3.2516273458,14960.721366091,0.260907255,56074.0105565188,348.3706379463,56073.9573547218,348.3908526468,56073.9408322061,348.2685425471,56910.1499303461,929.830503121,1.4589228673,5152.8346295585,0.394339204,0.7839565166,9657.3203175245,9657.5372306189,0.5834263778,0.4407393676,27859.4112471645,27858.8781092248,0.6544903967,0.5209130398,0.5081439936,0.3458812576,0.6487403138,0.0969999353,929.6387234837,929.6587091578,929.7481099132,929.2128740394,929.2880242549,929.8167382277,929.4105181501,929.2096461501,3777.5840482174,0.9484125771,0.8195078467,0.052101431,31342.8340643182,251534.1551427852,57402.9653043612,76474.2261748421,98435.5957839396,1.8902120768,62830.2244044198,0.618533818,0.4241972505,0.8623721148,929.2095864241,70506.8550532912,0.3721230857,929.3897478631,929.79469176,929.2366038809,929.74873571,929.1846916896,0.5438456078,0.4083085426,68282.5724212026,56073.8630313234,68283.0712728255,56073.661195864,56073.4079013522,7761.5163092291,348.181379162,56073.7556217832,56073.5202731947,0.3008642183,24561.9588692687,56073.817950432,56073.7737919232,56073.4480407558,0.5264845549,116055.7946609507,182783.9725250959,4.3098573649,33.3404374754,0.8367852212,0.7287296641,0.438719736,-2.043915523,-1767.4209190197,0.3196675039,0.5153441128,-109238.1677257255,0.173149971,-0.2433576307,-43281.8199912631,-72302.0852431999,-5019.7327062714,-14.5148795693,0.5632044888,-53284.6112204447,-8.7339842203,-56073.1053146861,-2196.0530560511,-0.0697210931,-12245.6516186128,-0.8872452754,-1.0651721683,-48429.8714257086,-596.746972625,-204.108349891,-16.1786598682,0.3078895526,-3238.1431991977,1.0726925289,-135277.2768522052,0.2519587106,-5617.2460748287,0.4815916878,-0.5108342902,-14842.7041095783,0.0328059086,-8.0185367971,-2.7897973948,0.3801697183,-9.3816290245,0.3911687083,0.4282222698,0.3380274349,-5.6183972884,-15640.2209820356,-59046.5343543987,-8.3515232413,-84045.7362411435,-40283.3522850799,-6127.4861406078,0.2340575464,0.0174456731,-320.9641750185,-1.2681242849,0.1461679736,-0.3640769688,-0.4510474777,-32.5837271111,-0.4435923013,-2572.4703868579,0.5427616285,-136.9568243644,-0.1100084312,0.1807791833,0.4605296825,0.3830763343,0.324080388,-0.2713768745,-0.4048452482,-51271.8454977778,-56.2105373439,-716.8417680767,-4053.5330798435,-92.1093426523,-0.3082046122,5.0201173075,-3.0132561548,-42060.4262551187,-47577.9278857609,0.495461027,0.3113841882,-43322.0592573032,-12044.3729606869,0.4411315342,0.6951137282,0.1399264804,-9968.374898393,-23.8038103626,-50227.3096260475,-34970.1045868998,-126860.2798065933,-0.3964928475,-0.3845224547,-101.3101139021,-5.4901296524,-30517.5189285995,-118.0572013695,-4617.9694412981,-9142.0969910014,-71.5948051059,-0.7865620867,-155531.1339199293,-3.2354739745,-40497.2693272463,0.6929481393,0.7101749721,-3884.6064232013,-19970.2504484601,0.034099272,-22979.3583522572,-0.5916398111,-14.6899458503,-103.2190267092,-269272.3565068909,-2652.5896449031,-44374.2750514265,-0.0461549767,-24595.7422801885,-3387.2648461815,0.2238679034,-3.99847343,-0.9729499274,3.6942025963,-3.0736823165,-14868.8942541681,-2440.962988156,-7917.9965106976,-64609.6612824795,-6.6487211152,0.1374087476,-81.4894501252,-5.4047900839,-5109.1062995319,-39298.7822584916,-64720.4354029042,-4.6666283396,-1171.3376143219,-1406.4346909276,-24586.0989855306,-49.1851117712,-125060.4507532745,-47355.1434802492,-15.375981015,-1.3844370412,-0.1926763412,-27.9733874135,-48.7380059589,-6.1739030994,0.1145274516,0.2071584262,-50418.2945675663,0.0074360336,-1.352802749,0.1966327267,-0.2934788534,-5.6242582719,-0.4777817721,-314731.4514109582,0.1137256238,-21.5433981531,-202.8371291418,-3776.1178799848,-76760.6916409555,-76760.8046708223,-1.3756362516,-1.0917708779,0.1732972214,-76760.6920222303,0.029069172,-1.0002753465,0.463917253,0.3360380635,-54.2455280652,-56072.9249598265,-53.8289540891,-7761.9702706505,0.6701622298,-3.6251835956,-3.9965459727,-3.6008813498,-3.5404719128,-3.7043607584,-3.7042516239,-3.5838060911,-3.7363275341,-3.3970210251,-3.7878362459,-3.4235464997,-3.3278729891,-3.6549553562,-3.345208133,-3.8494327924,0.4992939967,0.1603951871,0.0300474222,0.1253989644,0.5098128517,-0.0824648975,0.5638224677,0.0264571055,0.0860741328,-0.3778862779,-17449.5658932882,-0.4537066133,-17449.2739007638,0.2828967477,0.0586634874,0.6750260612,-929.6493108282,-929.1544714739,-114756.8862184068,-114756.9943801879,-114756.7235831335,-114756.5515718159,-114756.5767160902,-114756.9877819621,0.0044935228,0.4220916883,0.4169390472,0.2958350946,0.3235412931,0.2356027588,0.596207729,0.5073429295,0.2246091412,0.4299877014,0.4499921455,0.5656499694,0.4191350671,0.3788241186,0.5598537059,0.1831640889,0.3844382823,0.2967151681,0.3926243032,0.4402325687,0.1619797849,-929.2592211348,0.0903764901,-0.1857459785,-0.7710920517,-14957.9167007446,0.263006684,-56073.5010361889,-347.834366449,-56072.9574962794,-347.4130939858,-56073.1907107395,-347.9215047577,-22175.4696009768,-929.7801255679,-8.7916103844,-0.7440378225,0.1900326892,-0.2914271737,0.3249140559,0.1053740841,-0.4073328003,0.0009143292,-3210.6600957714,-3210.6930483925,-0.7438690096,-0.4205061728,0.6468795306,0.2187150765,0.1755845939,0.10883461,-929.5021025575,-929.6178139488,-929.5245968659,-929.1393462608,-929.722074665,-929.3493307732,-929.2525845643,-929.1275187625,-3776.0973525415,-0.1267751736,0.191333577,0.3701391593,-7458.26851077,-210442.3502351326,-22175.9403270631,-39782.7955213745,-98436.481079434,3.1972242125,-37572.289466699,-0.6855115836,0.5297253911,-17.928509268,-929.2989829553,-30174.3634034063,0.0292503316,-929.5715620113,-929.3490257432,-929.3869222863,-929.1558132067,-929.2859818269,0.4634632103,0.4555341042,-53.7558893689,-56073.2276894288,-54.345212747,-56073.5092032734,-56073.0788449172,-7761.9068115986,-347.6940403337,-56073.1306273187,-56073.0452312568,0.6811392353,-404.4006700487,-56073.2408851712,-56073.1567919784,-56072.8765429039,0.0158127367,-76717.1041294705,-128169.3809332422,-3.1100116017,0.2353185009,-0.1387367554,-0.2540757529,-0.9118840921,2.1576777097,-8326.6343533339,0.3581423527,0.3657079764,-109240.3955615757,-1.4713596431,-4.1915122304,-91213.8536558327,-109613.8038196777,-20360.3702299097,-1.057961292,0.4200690587,-62048.550356474,-100.4540043241,-56075.3389773836,-2197.4357575352,-1.9420054779,-12248.0785492984,-1.9170995242,-91.7362624026,-48431.2225508366,-597.1822060539,-205.2593983807,-18.2282299348,0.4222485494,-3241.5833043547,-2.0354403625,-177075.082989963,0.2016890838,-5618.3226986667,0.6255623344,-28428.3144054396,-14843.5223118457,0.0914129806,-8.2746003798,-0.7403746878,0.2461890108,-9.8606990713,0.6239322238,0.0788485191,0.6686615583,-4.5068939949,-15648.3747173397,-100017.9491505872,-3883.9307178225,-142296.5278836205,-75023.1882316748,-65557.0359496675,-65.1858458691,-15865.2580272321,-323.4997968976,-2.852009149,-1.3644731212,-1.3410735943,-0.7897195439,-33.5336680507,-0.6123640692,-2571.6328889753,0.3531933756,-135.0258463198,-1.1886136877,0.069470653,0.6721651069,0.0275186205,0.5922032527,0.0912627152,-1.4685740677,-51258.5960425409,-19588.9981426622,-715.6039339771,-4053.9785660946,-1.918943743,-8954.8272290062,-4384.6609029766,-162.3363096384,-65721.273481052,-83383.9547839216,0.6367218272,0.2852841566,-43319.1640187664,-12046.3377823302,0.6769094599,0.6909026835,0.4275518944,-9974.9111252135,-1.8398219262,-50228.2752060899,-34969.838622015,-130839.7528672308,-0.6549117392,-5.7182431651,-102.125319929,-0.8216504073,-30528.6118314039,-14823.596159709,-4618.6773992668,-9149.1603971482,-72.8880537606,-168.2201069453,-155530.4592831575,2.7746316618,-40493.5772044495,0.1704975457,0.6046506307,-3884.9226933836,-19968.985183363,-0.554656508,-22962.3003397693,-1.4883794847,-9.8375584032,-100.162507755,-274468.2116135673,-2653.617210412,-52566.1396986439,-8.6517525729,-62388.6965839804,-3387.4178750084,0.0429858697,-1.6990077661,-23.9727816429,-4.1436135917,-457.2988932726,-14868.2723529384,-2441.459453178,-7921.8946081571,-64615.2999982709,-8.0103979864,-1.8664682404,-82.0497052018,-6.2503898758,-5109.9037826405,-39302.5647018157,-64724.1833487598,-8.7325070445,-1172.9547333136,-1410.2296987965,-24585.9463769032,-59.0901606702,-125041.0679293722,-47443.8525521351,-16.6198952017,-1.5225246174,-6.9543627491,-30.6779954254,-49.9197815249,-7.8456710897,-8992.1539584891,-1.2503311862,-61904.5265800862,1.9515402977,-1.7770427961,-0.7910600184,-1.1263371416,-11394.3870993432,1.2545729392,-357253.8705198669,-1.4401106836,-1.5067462707,-203.9998241659,-3778.8297064749,-76759.8479879148,-76759.7503691071,-6.0456182848,-5.1322715537,0.6709573459,-76759.5532611144,0.6380747572,-2.0140291688,0.3069282796,0.0227725908,-68997.3849961832,-56075.6982615479,-68997.1368342176,-7761.863453115,0.1835357942,-6.8338586736,-6.8437306843,-6.6681417124,-6.5107872785,-6.501606316,-6.5167463828,-6.6972386464,-6.4457662047,-6.4213054361,-6.2489040779,-6.76353377,-6.2137542729,-6.7602153035,-6.6883549755,-6.504034791,0.0682659302,-3.2791967406,0.6820372978,0.5164533611,0.3045499414,-0.4055937127,0.3059938302,0.4748412339,0.4474090566,-20412.9625098658,-50380.189003652,-20413.0021619122,-50380.2201732652,0.2120577681,0.4055762131,0.1512370062,-929.103836669,-929.5785931715,-114758.8447041268,-114758.8263574585,-114758.4878697103,-114758.3291071277,-114758.7104088852,-114758.7047617836,0.4068864456,0.1982225359,0.5069967726,0.6553747264,0.0345484395,0.5182682664,0.3214689937,0.2160445065,0.1014392753,0.1375549328,0.2722175293,0.6856886052,0.708739866,0.693726416,0.1081213645,0.1979829019,0.5954149422,0.2710393443,0.4982429337,0.3169914986,0.5758831743,-929.2295425683,0.274374144,-0.8128501824,-3.8272086035,-14961.1745606983,0.4595530942,-56075.4589331139,-350.2581801981,-56075.5673445062,-350.3203599149,-56075.7191989129,-350.1655768088,-56911.1108572588,-929.4050249507,-3.2942291407,-5153.4844879395,-1.7235796542,-1.4249354762,-10348.5181147482,-10348.4028468487,-1.4609686981,-1.2965206626,-27861.2375769513,-27861.1083476716,-2.130194637,-1.8775786803,0.5068498557,0.0295062234,0.6273454145,0.2798427026,-929.4684594121,-929.2201406009,-929.4129726276,-929.2700796638,-929.0325785564,-929.4120364276,-928.971080045,-929.218581688,-3778.7574587112,-0.5436354244,-0.2656897507,0.512105695,-31343.7022315771,-251535.1631953809,-57403.8033765793,-76474.3924719553,-98431.8894023067,-3.6274015418,-62827.7607456657,-1.4909555332,0.570706446,-1.1689382292,-929.0430596444,-71725.6333169429,-0.849064914,-929.6414648337,-929.0139918101,-929.44581877,-929.1590072059,-929.2590683298,0.4127140019,0.6875239529,-68997.1425489238,-56075.737840748,-68997.5366685757,-56075.4079702581,-56075.8504336843,-7761.6490704868,-350.5002984403,-56075.5427997013,-56075.3779010804,0.4904524227,-24561.877253176,-56075.492908999,-56075.3889488994,-56075.4590405772,0.2284416743,-116062.2529986589,-183775.2402448517,-6.2863509539,-35.024506352,-1.8506505294,-2.1386052443,-2.4695343761,-4.3130221021,-1.5441467702,0.4782783648,0.4119920573,1.0384582492,2.2868044976,-10.6153005962,-0.2231743909,0.4280100017,2.4430107851,-0.2892638991,0.3451759579,-0.579887859,-0.4369403289,-0.0636288441,1.6318285555,-0.3188987251,-1.2409883065,2.6861109075,0.0988102586,-2.3542292597,-0.1686705429,-0.7437050955,-0.3446324675,0.4885420961,-2.5580491845,-0.0746786093,0.0176420777,0.0517637495,-2.1553459805,0.6638543385,2.220045615,0.7342632172,0.4445267592,-17.654396454,5.3420449068,0.4787934998,1.0291213168,0.0117414265,0.3897632182,0.2031832931,-0.1691014594,5.4225502724,-0.1355433467,-0.2685689419,-7.3637663714,-0.3866019243,-2.965400403,0.0060303985,0.3247446671,3.9832772816,-0.5328789454,-1.5511765993,-2.71942813,-1.3088397892,0.2129367045,0.0284019394,-2.8968482221,0.0710867109,-1.4804784811,-2.0518784361,0.6612591225,0.07677116,0.0615501791,0.1897900541,1.7907292375,-0.0040514119,-0.421389218,-0.5417473539,1.299095344,-0.463716988,-0.1540338892,-0.0968585993,-0.0643016563,7.0401684447,-4.6838506684,-5.3531939583,0.2983955058,0.2234893122,1.3554669109,-1.427605881,0.6881328496,0.2917280906,0.1984860007,-4.537150077,4.535707246,-2.3789715963,-0.695457199,-0.2115198521,-0.759967449,-2.2191373937,21.4094227197,-15.0866741678,0.0234911576,-10.9919626617,6.0708120492,0.8655612388,0.1452981146,-11.4855746359,10.3032674597,-4.3586340847,-0.3384135388,0.1431907362,0.3847817598,-5.4404586335,1.1741005744,1.7199104339,-9.5927862352,-19.9687480416,-2.1754798509,-1.744785972,-1.5356004272,0.0483948034,-2.0386058062,-0.2180072897,-0.4797224287,6.4407754961,0.6185537241,-0.2705320801,0.8823801701,-0.3724710721,19.5777995,-0.3821834758,0.7518044215,-4.1652823428,1.8875985936,-0.0427174032,0.5063686969,-0.4544453222,-0.6572691647,13.4544710963,1.1632818503,-1.7640874736,2.6689817675,-1.2841937708,0.17360811,-0.7204885969,0.095352733,-1.7751635071,0.9937020357,-1.7377968636,-0.4567959717,10.8635182571,-1.4568779342,6.1204434818,-0.3356404605,0.9219469184,0.5886994318,-0.0262332527,-3.5801832572,-8.0885952625,0.2652349542,-1.422097768,-0.2105955074,-0.9525088871,0.1470825465,-0.1603069288,-0.4460316894,-0.3357120412,1.7259672994,0.139287657,-0.49428668,0.0509175177,-0.4898089927,0.2405141833,0.1220457471,0.2077844515,-0.4618714979,0.2773618819,0.2406989396,2.1879671333,-0.0658354037,2.5471014387,1.7325490865,0.2035438499,-6.5276531989,-6.3149534447,-6.4767083988,-6.5048438748,-6.6138900783,-6.6847969991,-6.3382631733,-6.2964889555,-6.287333561,-6.3537090479,-6.3802917633,-6.600156109,-6.804626669,-6.3711133158,-6.8510101252,0.4224426635,0.153822754,0.2372658511,0.3894342543,0.3061160385,-0.8782938875,0.0400071266,0.1808034162,0.0332490916,0.1733811467,-0.00595561,-0.0833763812,-0.2186349737,0.5368919357,0.3020696853,0.0725681723,-0.4746930135,-0.2949966512,-1.0600220778,-1.3897755832,-1.4350200019,-1.0717431292,-1.3155223245,-1.0917769931,0.0318696586,0.6807781951,0.5086781515,0.005763543,0.312658686,0.6789041913,0.0491895191,0.2568152576,0.3524627615,0.6236647458,0.4045440896,0.4455914537,0.3336122563,0.6384379721,0.3333665949,0.2257313588,0.3425118705,0.5806990342,0.6324913462,0.3553461349,0.3512241456,-0.809569737,0.291899981,-0.5926391479,0.8172814945,-0.1959050625,0.2424803725,0.1567153722,-0.1606552649,0.1836731406,-0.1214689169,0.3134270484,0.0659852996,-0.4528627958,-0.326338304,3.130262097,5.2868448909,0.0237222996,-0.2678118023,1.1029390397,0.573319986,-0.4817198242,-0.0023222929,0.1340713751,0.5697075467,0.0858776699,0.4942797974,0.5346681883,0.5000839832,0.605302005,0.1201585785,-0.1691156354,-0.5671925113,-0.2576317527,-0.3218795563,-0.2624083556,-0.7240984829,-0.4982692079,-0.6958777211,1.67155319,-0.969672694,-0.4446392157,0.6707974478,0.0963497141,-0.3413029769,-0.4634009675,-0.1154163729,-0.8886778053,-2.098378752,-1.8098728397,-0.4513439788,0.4409501569,-1.4827060202,-0.5977490885,0.0548404282,-0.0185252004,-0.1811328637,-0.4822343591,-0.7201452129,-0.521118423,-0.6355756272,0.7073650245,0.2899203848,2.5500699345,0.0919324573,2.4731728911,0.4973992642,0.1092626854,1.210283075,-0.1424558915,0.3845871157,0.5865037273,0.705403478,-0.2096515325,0.2333825365,0.1880861475,0.083179866,0.1285617535,2.15302313,0.9586795685,1.1958680357,-0.1910345035,-0.0744983676,-0.296023092,-0.6947912044,5.7739721395,8326.4747370736,0.6039087564,0.2149112812,109239.7501774158,1.0237975738,0.1261904757,91213.8237452812,109316.0884957177,20359.7634352831,0.1025691232,0.2046771168,62047.4208527834,99.6591020609,56073.9037877111,2197.0334783055,0.5035468965,12247.2768881701,1.439661865,92.3330393269,48430.1372136135,596.7325912564,204.7004365432,17.3238345436,0.1100657238,3241.6392784238,1.8002551793,177074.7344438932,0.6489096906,5618.3015677495,0.5738861887,28316.7388666476,14843.2585238044,0.4905818185,8.7913190966,0.2279820511,0.1862274567,9.0849873473,0.6694602008,0.4994348842,0.564935674,4.2270646437,15648.4282479056,99964.3744795037,3883.0629049303,141902.2183420161,75003.5841137844,65383.6435751048,66.7460410953,15867.6477334837,322.4753873318,2.1008458932,0.4802808646,0.822173828,0.8688055761,33.2523629659,0.5751154171,2574.1936551686,0.1009898289,135.4705156829,0.2969720901,0.1391766804,0.3497910392,0.6075998505,0.6533059243,0.4183110278,0.4716778644,51258.8935513082,19588.1533088445,715.2455975865,4053.6293658156,1.6636007976,8954.2664984242,4383.344064616,163.645906945,65742.0347772744,83388.3047052222,0.6572707823,0.273837285,43322.4872847878,12045.8681745891,0.608087021,0.6129861662,0.6394224981,9972.5775765454,0.9120399358,50227.7415333249,34970.254852254,130839.8148752053,0.8852436132,6.5959099437,102.6425630002,0.5807106651,30521.9421791385,14818.4221542667,4617.7795099019,9148.0299093718,72.0681813109,163.5268722807,155530.4752352168,3.67063704,40492.6199339607,0.5654969995,0.258356644,3884.8622195051,19969.8477634935,0.5865165233,22962.198060446,1.2106031139,9.4037510948,100.7274586501,274467.5292309937,2652.9250826422,52566.6162859613,2.2774549998,62388.358047098,3387.7751856169,0.5156880092,0.9848693152,23.2646262249,3.7455512724,468.0909385591,14871.3738394567,2441.2682621479,7922.5833415092,64615.1606542002,7.1624187351,0.5706961941,81.6396157314,6.0545293587,5108.0886256601,39299.4606687407,64723.4866383189,7.7553674651,1171.9092788782,1408.9038695397,24586.0987365087,54.2176911103,125044.3270936544,47399.2881295326,17.0165175472,0.396995573,2.0082294805,30.2267368933,49.185906781,7.1257750494,8991.7651384819,0.49508307,61904.2201098898,3.2906955493,1.732877836,0.2011994122,1.7240171883,11393.2681182853,0.6706437015,357253.1973844849,0.5524377877,0.6417913203,203.4038561897,3777.6446316916,76758.1097296633,76758.2596388052,5.8010075121,4.4747067749,0.5282928574,76758.0598824375,0.2156412399,1.7333023163,0.1774911899,0.5324644048,68282.6637955589,56073.4302627604,68283.1525063221,7760.87217732,0.5614590323,4.260934035,4.1866634974,4.3762645103,4.458084814,4.6804715514,4.6429020641,4.6551211161,4.2719148309,4.4025083787,4.4435860453,4.5202214811,4.5149742012,4.3247181359,4.5099823719,4.6680540513,0.6802834164,0.5475525483,0.5003197213,0.5147253025,0.3090155637,1.3873487049,0.3150747039,0.1127965629,0.0505035714,19785.0246749044,49979.1159578608,19784.6577036044,49978.7419268085,0.2843815937,0.2566293951,0.1355100597,929.5346099474,929.3902733225,114757.5612988679,114757.4342667543,114757.5215383397,114757.3581086961,114757.2157171123,114757.2656108278,0.2951087069,0.2971387339,0.2660681072,0.0049965757,0.6096239475,0.1872410156,0.3325842749,0.6868024586,0.6896064108,0.2107729884,0.113148593,0.1620974645,0.0106474976,0.2353569309,0.2665922264,0.5394192689,0.6883685704,0.0530072495,0.5272566258,0.3394095014,0.6271669506,929.7747962619,0.0063163089,0.915423028,3.3393819517,14960.6108057475,0.0651026525,56073.4814570745,348.2194667405,56073.6342682392,348.3609324384,56073.8747693906,348.4131875258,56910.210448035,929.5194633243,1.5032399456,5153.0858308896,0.6645579302,0.2915307257,9657.4053709628,9657.2818442279,0.3142810294,0.2048934078,27858.9458616107,27858.9696699621,0.8542660143,0.9896634118,0.3532557961,0.1506372605,0.6792641247,0.5907552101,929.1892573058,929.8453276426,929.3745877598,929.4433747609,929.2006358931,929.7768286258,929.792018575,929.7560118137,3777.6379063066,1.1622057463,1.1098628249,0.2485417643,31343.1087669999,251534.3843483838,57403.2980391626,76473.8307850834,98435.7069886989,1.9466389831,62829.9040260819,1.1084057373,0.0673909554,1.3666840081,929.2188247973,70506.9883622469,0.7236651562,929.5642491368,929.4006214945,929.7373081114,929.3255181304,929.4525796909,0.6976992361,0.2405114107,68282.8511533142,56073.7072730715,68282.630057982,56073.5203446632,56073.4408653469,7761.0309036045,348.0747151722,56073.7073897199,56073.479172917,0.2402309391,24561.9765328619,56073.9210557547,56073.9137731181,56073.8816435507,0.1397495294,116056.3515006202,182783.9162164301,4.1543389972,33.6704375205,0.3135637759,0.9138920894,0.2434944732,-0.2653643302,-2.0025966081,0.0160020042,0.6710431296,-0.0022787207,-1.2168389504,-2.7063593383,-0.0032336208,0.2851739688,-0.2128749166,0.2479225026,0.6104283413,-0.816945558,0.2344042737,-0.2881328995,-2.8264343917,0.2943344867,0.1073030366,0.2047036903,0.0457417132,-1.0573962718,-0.1675809498,-0.0588298386,0.4197224519,0.6395760488,7.4037743706,4.2836634927,0.2104598597,0.1669173616,7.1797030077,0.2745475764,-0.211508493,2.5360226762,0.1611033856,-0.5500452476,4.0236117378,0.3413203679,-5.9809009453,0.4058424003,0.1683759022,0.1101851466,-0.2037557858,1.6925007657,-0.074545643,0.3533882839,-0.8207264769,-0.4920494407,-0.3273223277,0.3914459959,-0.1884931374,0.8942876603,0.6598254006,-0.1368236935,-5.8216713996,-66.3283785077,0.2779343558,-0.3782570657,0.2978704913,0.3609088117,-1.7781054535,1.3413666386,0.3785299265,0.16710359,0.4016010659,0.1648250417,-1.317205635,-0.1704167867,-2.6532065736,-0.3118675109,-0.5224106826,-0.1122948811,4.0797010207,0.278185233,0.3910241274,-1.0634161386,-9.0223378696,-6.7096474133,0.1161131504,0.6242760911,-5.7714055993,2.3956472315,0.1669164932,0.4725818552,0.388053442,-1.7867984765,3.5999786855,-2.7305586929,-0.3318140985,-0.529897588,-0.1663313603,0.213894449,-9.8994404818,2.5776786051,-0.1730779393,17.4465361527,1.2939102091,-0.3795078054,0.2780089939,-2.4677056299,5.3604638999,-3.0133834267,-1.0401453315,0.1584293435,0.0229319962,-1.3150363726,-3.2760694783,-4.7458276047,-0.5979605375,-16.9692444351,-0.1562273837,-15.8784372461,-4.024492192,0.2349061663,1.2557002362,0.0391155697,-0.0036322142,-23.4471452684,0.0516861703,0.9098923398,-0.3595081868,0.4380312356,-1.5837329278,4.11908148,-3.7341937724,-1.890287915,-0.4647624876,0.3584472544,-0.447694043,-1.8909161118,-3.0417074143,10.2500463297,-21.9177017818,-0.906724216,-4.0458784937,-8.6462731914,7.6057121763,5.1223635047,19.9304317418,2.6364278778,7.0098619616,0.3471343858,-0.4229495467,1.4063638317,1.5842210861,3.0228435976,0.8720373461,0.1947176516,-0.4258499091,0.0552383228,0.2703898975,0.4564905533,0.4331946387,-1.7743921613,-0.0116101254,-0.5170698147,-0.1170215164,-0.3101065757,1.033516028,-3.2950402909,-4.4948309352,-4.5309306126,-4.6825423644,-0.1318594539,0.1420959945,0.0384775912,-4.7488637608,0.4598708083,-0.1959984825,0.3724954488,0.0207586664,0.3572432467,-0.2555379864,-0.2402684534,1.6719958656,0.0001423942,0.0300134474,0.0241636493,-0.2944793518,-0.2319905452,-0.2414493435,0.3562422975,0.3075130519,0.2079902679,0.3223889012,-0.3166743028,0.258668228,0.0520032571,-0.27347544,0.12982174,-0.034631807,0.3450770581,0.179736086,0.0551368693,0.6139239842,0.0495027214,-0.3407594211,0.3661996937,0.3234181694,0.1849366069,-0.3018729044,0.196774426,0.0387043107,-0.321895261,0.186068299,0.0026679404,0.0083085291,-0.241955977,0.2517223383,-1.9220089646,-1.3844041852,-1.8259761791,-1.4922044473,-1.4438576872,-2.0049628011,0.1538449306,0.2913016934,0.0363745247,0.41327426,0.0999893058,0.6458459178,0.0271774795,0.0000516246,0.079657042,0.456649267,0.1326092331,0.6399990714,0.6374024775,0.127278726,0.1515386833,0.6180888968,0.0066637079,0.5674342938,0.6513867729,0.664372173,0.2780070776,0.1446287377,0.2642949353,0.1748262879,-0.0218645989,-0.1576052979,0.5486918013,-0.3264576504,-0.2593337798,0.0902447443,-0.2060188174,-0.452956319,-0.1158240264,0.3303612107,-0.3452100046,8.8268462424,-0.2995508362,-0.1935969898,-0.3172835005,0.3233549011,0.2122023382,-0.2993663699,-0.0191870004,0.0325234428,-0.0601198047,-0.1440352933,-0.1811954825,0.3061051264,0.7008629086,0.5366805956,0.4967416003,-0.2706280324,-0.2460650175,-0.0107143565,0.1907445544,-0.083457391,-0.0285683146,-0.1403500353,0.2862754187,-3.9478464083,0.3230249935,0.3914439289,0.097791428,0.0462939892,-0.062233417,-0.0644905479,-0.2203035346,-1.7254985216,-3.7582500023,-0.1011511591,-0.1178260284,0.0841739712,-0.6128015507,-0.3920862199,-0.2607623847,-0.6152353698,-0.011942326,-0.1692195101,-0.1945354137,-0.2513006525,0.1813665932,0.4725247306,0.2021524565,-0.0220090906,-0.232930864,0.1086867444,0.1253651813,-0.0327670098,1.2919719274,-0.1963441479,-0.1556520208,0.0097940485,0.5914117446,-0.2291763589,-0.1595811765,-0.1592767393,0.2273907153,0.5651422662,0.3729287816,0.1219711295,0.329576382,-0.4452556249,0.7983294045,0.1906795083,-0.1014652988,5.6635522933,8326.0735369997,0.6150406813,0.5988520181,109240.1892135278,0.5191079534,0.5958147145,91213.7805692757,109316.3661897138,20359.8175063891,0.2838961902,0.1838324569,62047.4437728422,100.0413160031,56074.0183558332,2197.1064325718,0.525104226,12246.5994777892,1.4320383813,92.4345439965,48430.4956116385,596.9709972218,204.9967181824,17.277490545,0.5199119273,3241.1275012264,1.6888843484,177074.5548904825,0.0218050847,5617.9786301358,0.3490543623,28316.2331717648,14843.114224154,0.1453163001,8.5993357574,0.108876208,0.0202669124,9.3635681626,0.1207683269,0.4818090882,0.0694132633,3.5583501135,15648.4030710881,99964.4568465107,3883.1049708091,141901.9490511697,75003.4532724336,65383.4752548844,66.4312765705,15867.8662915445,322.4294507869,1.6414799877,0.4687039361,0.6713528641,0.7664372553,33.4578782346,0.7262026818,2574.6726487125,0.4724775344,135.7916994006,0.6346601398,0.3486903061,0.6275995055,0.2727851232,0.6246296617,0.9045668636,0.786740135,51258.8804334121,19588.2136433548,715.1895231982,4053.7011806549,1.3496970839,8954.3222963167,4383.2462616701,163.4501764458,65741.9190780613,83388.2721200029,0.3087840211,0.6553624547,43321.9534440056,12045.7720750596,0.7022005214,0.2443010457,0.4035225263,9972.0464952979,1.2643261446,50227.5533490893,34969.9882286931,130839.2028660566,1.1669395279,6.7271276591,102.5084263827,0.7934282379,30521.9165360638,14818.0279937444,4618.1627247063,9148.0405627566,72.0711222133,163.2528734365,155530.0437831664,4.0376890844,40492.5834981632,0.6454962397,0.5228237468,3884.9373683472,19969.6949944511,0.3687993649,22962.4115528555,0.819922462,9.1322740727,100.6077049884,274467.1321683845,2653.1980942184,52566.8494438756,2.5344415599,62388.1356738241,3387.7828248551,0.567183437,1.3133099512,23.8345874428,3.6384998718,468.2348851424,14871.1619219403,2441.083779008,7922.6649538182,64615.4563381423,7.2076723766,0.6499460062,81.7946070661,5.9231467021,5108.4524371846,39299.70862633,64723.4563802152,7.6182981675,1171.8216474681,1409.116887149,24585.9551174769,54.6265470464,125043.9486862272,47398.856833497,17.059475909,0.5175911267,2.0098843563,29.9819101036,49.7308053935,7.1667007025,8991.1456330942,0.7419999644,61903.7236564555,3.4600363863,1.725820965,0.2630999749,1.7242925077,11393.1782467893,0.605663737,357253.7945043528,0.6376943363,0.3946418575,203.7706689762,3777.78021291,76758.6020114909,76758.189250989,5.9739607167,4.4158540494,0.5693713435,76758.6058132052,0.4509252285,1.6304733947,0.0972144033,0.240536672,68282.7557211875,56073.8994261602,68283.0574633457,7761.4884189114,0.3346946507,4.3073691275,4.3149687749,4.3896245372,4.6121527293,4.5637135882,4.1627428618,4.2863726371,4.5383131676,4.1136450632,4.2434236698,4.0874676213,4.2624597163,4.549183084,4.4989571668,4.3090697343,0.4543790522,0.7514366489,0.3052137599,0.2753322426,0.1793535546,1.3074725889,0.3225558299,0.6153883779,0.2494261653,19784.7419099123,49978.9155234778
