encog,BasicNetwork,java,3.1.0,1,1392810540522
[BASIC]
[BASIC:PARAMS]
[BASIC:NETWORK]
beginTraining=0
connectionLimit=0
contextTargetOffset=0,0,0
contextTargetSize=0,0,0
endTraining=2
hasContext=f
inputCount=318
layerCounts=1,301,319
layerFeedCounts=1,300,318
layerContextCount=0,0,0
layerIndex=0,1,302
output=0.0494793878,0.9999999952,0.3686936669,0.9452429805,0.9999836864,0.00014067,0,0.2477333549,0.9999999813,0.9999999796,0.5184442191,0.4255893684,0.4227557755,0.9999995637,0,0.5478515314,0.0395896953,0.5984036585,0.9999999998,0.9210018107,0.2547497853,0,0.9999985201,0.0000088365,0,0.0000382367,0.9999994715,0.9999972945,0.9999970434,0.9999999966,0.8788174944,0.999997199,0.9999999912,0.3515002706,0.3564146562,0.9999985403,0.000061418,0.9999869139,0.9999960515,0.450428158,0,0.9999999969,0.5904117327,0.9393618965,0.0000126956,0,0.9999986923,0.9999926294,0.3898365137,0.930826043,0.9999999915,0.4205964952,0.9999999889,0.9999999989,0,0.9793160914,0.0000013454,0,0.9999999971,0.6557211686,0.0000622905,0,0.6522527528,0.0170916455,0.676593472,0.3298491123,0.0000250688,0.0000247748,0.217776773,0.6965360023,0,0.999999997,0.9999992329,0.3195461388,0.9999999543,0.9311283151,0.0000388588,0.6675436244,0.6778916368,0.0000278318,0.2023779985,0.5434831862,0,0.9999999117,0.5310398386,0.9999943832,0.9999964503,0.9999958366,0.9999904548,0.75422541,0.999999995,0.7503624289,0.9999993953,0.9999993554,0.0001938645,0.9999977579,0.0000445587,0,0.8726577394,0.9030386753,0,0.9999999996,0.9404270839,0.7679306919,0.728222863,0.9999998911,0.9999999972,0.6761994298,0.000000548,0.816685212,0.3732447872,0.2878791812,0.9999995063,0.9999995277,0.0000276028,0,0.0001350517,0.9999999995,0.9999999943,0.7006136321,0.9216926358,0.9999999976,0.999999998,0.9999923241,0.9999999845,0.3937334921,0.7911270055,0.3641333874,0.905625632,0.9999999747,0.0001413438,0.4684260947,0.9999910972,0.0000000018,0.3350299414,0.5363572391,0.999999996,0.9999999946,0.0000683253,0,0,0.999999992,0,0.9999999993,0.9047153872,0.7222366634,0.9999988143,0.6806364724,0.9999988728,0.9999999988,0.2233419879,0.740071995,0.9999999955,0.8690852889,0.6559582819,0.9999594868,0,0.0039655558,0.3857800445,0,0.4634708688,0.9999986439,0.9999999928,0.9999999547,0.9999995227,0.6306892591,0.0000053808,0.1693607787,0.6127494787,0.1811696417,0,0.0000034998,0.0001161151,0,0.8014355254,0.971422674,0.037465949,0.3396253319,0.2658532886,0.9699004702,0.9081294174,0.0000670083,0.9850532861,0.9611172116,0.0000408554,0.9999972431,0.5447020078,0.9999905427,0.0001746766,0.0001570055,0,0.4997035438,0.2438540639,0.9999999914,0.9999999062,0.4699768514,0.5134806562,0.4799357024,0.9783577313,0.5756813421,0.5024428049,0.8124255867,0.5340025009,0.8889998978,0.788948411,0.9999999991,0.4585873476,0.9999905729,0.0000007673,0.9999999981,0.0000194804,0.5607291432,0.6498070318,0.9405398314,0.3373339172,0.8795685445,0,0,0,0.3051357662,0.9999994639,0.715751574,0.5018301955,0.8998216028,0.963376588,0.4262335167,0.8237232129,0.0000000444,0.9999990529,0.0000051338,0.8595204005,0.530212305,0.4304538535,0.0000226122,0.9999994729,0.9999999764,0.0000032195,0.999999979,0.9999999974,0.1737877924,0.9999999917,0.8465294633,0.6775312383,0.9330882337,0.0000078029,0.1729725836,0.8871844349,0.8988242597,0.9999999991,0.2630516,0.9999988215,0.931620196,0.8950383593,0.0001719106,0.423679548,0.3041871951,0.9999999981,0.2983685122,0.0000306302,0.9999999992,0.7905516729,0.8331789319,0.9188512608,0,0.0000097055,0.8509634538,0.6199239928,0.9999999777,0.9490611535,0.3608931926,0.5530698683,0.9742224586,0.8122368889,0.999999999,0.4114347171,0.2255222259,0.9999926862,0.4669287238,0.999996978,0.0000172405,0,0.0000682882,0.6273934103,0.3783026731,0.0000129497,0.0000066455,0.693440898,0.999999624,0.5551700501,0.9999999994,0.9999999743,0.999991239,0.0000293907,0.9184128861,0.3068687567,0.3063667637,0.9999999989,0.0000000004,0.0002318896,0.6866973334,0.7500562006,1,0.01,0.01,0,0,0.01,0.01,0.01,0.01,0.01,0.01,0.01,0,0.01,0.01,0.01,0.01,0.01,0.01,0.0934871495,0.5466594107,0.01,0.5826927616,0.01,0.01,0,0.01,0.01,0.01,0,0.01,0,0.01,0.01,0,0.01,0.01,0,0.01,0,0,0,0.01,0.01,0.1608511578,0.99,0.99,0.01,0.01,0.01,0.01,0.01,0.01,0.01,0.01,0.01,0.01,0.01,0.01,0,0.5,0.2000006297,0,0,0,0,0.99,0.5222732585,0.01,0.99,0.01,0.5599887405,0.01,0.99,0.01,0.01,0.1048387097,0.01,0,0,0.01,0.01,0,0,0,0.01,0.01,0.01,0.6050367459,0.6291142789,0.6378379744,0.01,0.01,0.01,0.01,0.01,0.0139252333,0.01,0.01,0.01,0.01,0.01,0.01,0,0,0.01,0.01,0.01,0.01,0.01,0.01,0.01,0.01,0.01,0.01,0.0595702082,0.3366666667,0.01,0,0.01,0.01,0.01,0.01,0.01,0.01,0.01,0.01,0.01,0.01,0.01,0.01,0.01,0.01,0.01,0.01,0.01,0.5544444444,0.01,0.01,0.01,0.01,0.01,0.01,0.0466677803,0.01,0.01,0.01,0.1457352927,0.0287155329,0.6748325148,0.2794281518,0.0136147765,0.1813414369,0.15275752,0.01,0.0246787571,0.3366733129,0.01,0.99,0.0100794092,0.01,0.01,0.01,0.99,0.99,0,0.01,0,0.99,0,0,0.99,0.01,0.99,0.01,0,0.01,0.01,0.01,0.01,0.01,0.01,0.01,0.01,0.01,0.01,0.01,0.01,0.01,0.01,0.01,0,0.99,0,0,0,0.99,0,0,0,0.01,0.99,0.01,0.99,0,0,0,0.01,0.01,0.01,0.01,0.01,0.01,0.01,0.01,0,0,0,0,0,0,0,0,0,0,0,0,0,0,0,0,0,0,0,0,0,0.01,0,0.01,0.01,0.01,0,0.01,0.01,0.01,0.01,0.01,0.01,0.99,0.01,0.01,0.99,0.01,0.01,0.99,0.99,0.01,0.01,0.99,0.99,0.01,0.01,0,0,0,0,0.01,0.01,0.01,0.01,0.01,0.01,0.01,0.01,0.01,0.99,0.99,0,0.99,0.01,0.99,0.99,0.01,0.01,0.99,0.99,0,0.99,0.01,0.99,0.99,0.01,0.01,0.01,0.01,0.01,0,0,0.99,0.01,0.99,0.01,0.01,0.01,0.01,0.01,0.01,0,0.99,0.01,0.01,0.01,0,0.99,0.99,0.99,0.99,0.99,0.99,1
outputCount=1
weightIndex=0,301,96001
weights=##0
##double#96001
   -0.285493226,0.3582182007,0.1523668841,-0.1999513368,-0.0560901098,-0.3946341388,0.2745424741,-0.2580122893,-0.2765204512,0.0690839809,0.0784703824,0.1882235624,-0.1625117549,-0.39291045,0.1597434998,0.1580612363,0.199844832,-0.2903131563,0.0804419129,0.3060565649,-0.4241799796,-0.1793591718,-650.0007583485,-0.3893210683,-9.9716834908,-0.140389734,-0.1812666854,-0.1654954612,-0.3290848786,0.3272303186,-0.1475589772,-0.2986389565,0.2294675171,0.3416321569,-0.2216009082,-237.7215601673,-0.1597690976,-0.1674833734,0.2759692585,-0.1925536256,-0.2342092487,0.1403145079,0.3469328812,-745.6328710699,-0.407171462,-0.210476279,-0.2039563057,0.2041269245,0.3008648603,-0.2534759095,0.0638099338,-0.2432176274,-0.274196908,-0.1994522794,0.3300994836,-0.0189113679,-0.3959931924,-0.265079059,0.1930891644,-82.5705472205,-0.3781482446,0.1349317172,0.0649239572,0.1467263085,0.1099616658,-82.5622390141,-0.0335897604,0.1124546984,0.2535765019,-0.3986246759,-0.282842058,-0.1635473128,0.0708021972,-0.234498554,0.163788446,-53.8157907959,0.3388476644,0.2764114615,-0.1564127349,0.190547105,0.103369989,-1.3838113037,-0.1605219868,0.3268710742,-0.1351796549,-0.2117163405,-0.1995466121,-0.177939404,0.3050356242,-0.2451603552,0.3559788932,-0.1928183574,-0.2196345639,-1198.2836345997,-0.1753808769,-738.6458933079,-0.4031771029,0.2060919794,0.2588123373,-0.3997046143,-0.289709657,0.1072148565,0.2183263607,0.2220495519,-0.1673264032,-0.2429788816,0.3001551478,30.1292532742,0.6235007346,0.1689708172,0.3412792525,-0.1814286769,-0.1239631041,-0.1038790045,-0.4058620843,-237.6982228753,-0.3024986503,-0.33202121,0.205708074,0.2404256653,-0.289240997,-0.2781805785,-0.2144991247,-0.2568713233,0.2224347269,0.0830672041,0.3054752657,0.3069804226,-0.1688345416,-552.2791379048,0.2570556822,-0.11593067,-1773.8770224733,0.3067952471,0.1637592888,-0.2414357454,-0.2935916564,-0.5747043927,-0.3763063485,-0.4227826666,-0.3128274753,-0.1823359598,-0.2512628894,0.1359567253,0.2380025863,-0.147283001,0.2465170554,-0.1743916283,-0.318796822,0.1887556777,0.3095812455,-0.2331533927,0.2363576299,0.2413478949,-0.1558376609,-0.3684880612,0.0680453511,0.0739291282,-0.1518178067,0.2024507588,-0.1749925654,-0.2539724355,-0.2753591825,-0.1417795451,0.1186200544,-0.891696606,0.2963833343,0.3277269766,0.0604599107,-0.1527084593,-662.7902813414,-738.6498820232,-1.4893102935,0.0858473239,0.1574078514,0.2567159865,0.102987952,0.3618380261,0.1221953069,0.2354816215,-0.3104361573,0.118172865,0.0563472824,-825.4240264738,-0.1590670299,0.0796239015,-0.1468159752,-0.0265491076,-0.0684882131,-0.431938922,0.272535351,0.1968617748,-0.2351484407,-0.1338068103,0.1538776336,0.2307431604,0.2195671393,0.3357061428,0.3351779862,0.2304158305,0.0889878325,0.3671327969,0.1530019111,0.305169536,-0.311232819,0.1609908752,-0.1648454592,-292.0898573665,-0.3016420279,-607.9878523147,0.3245884496,0.0867691916,0.1763900829,0.2422353241,0.1297824695,-374.1622369974,-0.1544120299,-0.172188389,0.3450331157,-0.2204184463,0.1890518894,0.0878141159,0.1551479438,0.1836327084,0.0651107644,0.102585372,-1773.8770855213,-0.1427063014,-0.7556377368,0.0945499478,0.1111598963,0.1102558648,-53.7622630589,-0.2208958634,-0.3045087101,-152.92675711,-0.2656276745,-0.2440653617,0.3116915021,-0.31539508,0.2602575512,0.2786623831,0.2054159796,-35.9864200283,0.2256543751,0.3342978996,0.2785807552,-0.2507296093,0.3034796093,-0.2198429256,0.1706574454,0.2613936686,-2.3363179935,0.2164472497,0.2046426669,-0.238380401,0.1193957438,-0.0636797423,-0.3116975024,0.276310736,0.1506857758,0.0858223618,-0.4078212898,-1028.5940259384,0.1501234542,0.2302229185,-0.3094190371,0.114529697,0.3949974554,0.2507525226,0.3407274886,0.3408698804,-0.2976381443,0.3386234152,0.2679605953,-0.1246516687,0.1437554075,-0.1605537083,-0.0440789139,-0.1654841703,-5.5226196155,0.2720286856,0.1304203471,-0.0751092315,-456.6187669324,0.213514448,-0.1316007651,0.2960058876,-0.3114440831,-0.2653945948,-0.2318289109,-0.2119815686,0.3203173211,0.2362513246,0.1849938254,-0.2803208053,-113.9261134799,-0.2026930395,0.241245746,0.2444325111,-1.0108935173,0.4613000564,0.3972028259,0.6891569898,0.5888217452,0.2204271095,0.6432188991,-0.2177848161,0.6850802086,0.1641416474,0.3431078624,0.6243749622,0.3356642731,0.3149276838,0.5086673647,0.2074708618,0.4481814628,0.0355153122,0.2431542287,0.1441013978,0.7121843859,0.1058294067,0.3853207771,0.6321806437,0.2353514861,0.5850516731,0.7562203382,0.1157561356,0.1585323955,0.3670651976,0.4113424495,0.0314206155,0.1109956512,0.4010171992,0.2292148548,0.5271024042,0.2025840063,0.5057262682,0.7097636202,0.616434731,0.057924575,0.1328132012,0.5251550526,0.4870734298,0.3713232708,0.3816522226,0.2434469748,0.0463952968,0.2068361717,0.7102782401,0.3096899029,0.4317080523,0.4854038303,0.4441324786,0.3509229135,0.1109862439,0.7108889082,0.2829492067,0.5375315477,0.6367838889,0.3377588544,0.6598141291,0.4478917483,0.5480666285,0.396609591,0.1800057221,0.5836851905,0.0502944246,0.3821292962,0.0753693759,0.7184564602,0.1732897885,0.449317606,0.6530560646,0.0792988121,0.4469615785,-0.0552780526,0.0556845324,0.5911560578,0.3350447067,0.3584177992,0.6021678287,0.3794223764,0.2028901652,0.1313972929,0.4998075454,0.0290042517,0.2899888821,0.5077183771,0.5972443869,0.3660956491,0.2188896724,0.3862143854,0.5437982736,0.1432366563,-0.1217402484,0.3981605149,0.5852540034,0.4419245168,0.2713077003,0.1160409334,0.1071621223,0.0988898669,0.2059468772,0.1409381008,0.4933698522,0.2279342567,0.269184211,0.2704961931,0.7341899532,0.1328720848,0.381411205,0.4521621024,0.5549000381,0.4523293236,0.2453253247,0.6822387819,0.7893472656,0.5321669941,0.827762748,0.4091915822,0.2705644556,0.6483129029,0.6230756539,0.2421454394,0.3385335008,0.5013132912,0.4173629024,0.5221776,0.5498688092,0.249433436,0.3246422359,0.1441104073,0.1307901424,0.1484641722,0.2522146769,0.5141430711,0.1533893597,0.6610171365,0.6059308876,0.7160699419,0.4166099214,0.4935258845,0.2465705182,0.0172004118,0.6885009591,0.4161087396,0.4651771794,0.4255412771,0.576635617,0.2648914562,0.7529624803,0.6399793578,0.6090996775,0.2082320022,0.7333743704,0.7382032603,0.163056386,0.7328526314,0.6999709851,0.7162702471,0.2805371638,0.0763442287,0.3361016613,0.4371516326,0.4455197047,0.4256028757,0.2359608531,0.2493977653,0.3215152448,0.2066419097,0.1301710946,0.195739118,0.3119106559,0.6390907278,0.387488775,0.1209561259,0.1999854386,0.264036922,0.0917406512,0.5898394183,0.1750024563,0.3175254373,0.4425277517,0.2194891286,0.2737533197,0.3390457599,0.4891031501,0.0801861332,0.3091969024,0.7196804132,0.2498183165,0.2140773682,0.6132669352,0.3161553063,0.4154418901,0.2575926099,0.3083600798,0.32000041,0.6899254108,0.179218725,0.1892933059,0.6737699772,0.4665453813,0.1840384262,0.0215421178,0.6647743074,0.1990977916,0.155568393,0.3140922524,0.6765046491,0.4707039312,0.6220009325,0.0626776472,0.1324809122,0.0596873448,0.171361625,0.1981936506,0.2771092069,0.4146983966,0.147584944,0.0381139949,0.0085739592,0.0201671596,0.3669903832,0.6590024183,0.3296987196,0.6529270613,0.0998207346,0.5404174792,0.3477282066,0.5035973465,0.3303618966,0.3117864208,0.3317505213,0.0281429553,0.1686437022,0.5152845606,0.7229467193,0.6010858644,0.6427355644,0.2175596228,0.3852650297,0.1297374788,0.2748961265,0.5162751017,0.3352627432,0.1073530581,0.4887450349,0.3406510183,0.3499240156,0.1760760447,0.0750462587,0.4023786992,0.4032639198,0.734006495,0.2853997128,0.5131581832,0.4124652588,0.5588935661,0.2545119237,0.2183063098,0.3270348421,0.6064122281,0.5556936125,0.0466640562,0.1726840794,0.5473495323,0.1014351255,0.7226896512,0.7022897408,0.1493435156,0.7229211727,0.3547242958,0.3132928296,0.421059371,0.4844125748,0.1839744603,0.122214239,0.1549394075,0.1724325716,0.4876683064,0.3768925682,0.5148948484,0.2278330484,0.6256764819,0.6990983384,0.5759955508,0.5194268906,0.0788767975,0.67378236,0.3915368128,0.5041139334,0.1228833464,0.674381167,0.4650014059,0.1563484945,0.0433775791,0.0509670412,0.4925678505,0.3901161185,0.2538397678,0.2290042364,0.2216445749,0.0759135806,0.2509127485,0.4474092749,0.4497175043,0.7353568341,0.1709151397,0.4466548379,0.1531661245,0.396790481,0.2510455359,0.3645144972,0.4835726164,0.2910150945,0.1743670581,0.5875077439,-0.1819981367,-0.2964789341,-0.1662060848,0.2534820802,0.5794008176,0.0805481585,-0.3738090503,1.3192385795,-0.1975507157,-0.0036482645,0.2584985393,0.0866538066,0.2607049757,0.3720145805,0.2077462393,0.1455871665,-0.1922112157,0.2705142274,0.1085109105,-0.060868542,-0.1080885595,-0.0849541883,0.211598804,-0.0571802282,0.4906991353,0.3227025204,0.2388828059,-0.3243243354,0.1418016856,0.0359502061,0.6958269299,0.584383601,0.1258064501,0.0200496932,0.6815677417,-0.3311211355,0.0178601924,0.2099606484,0.1297552419,0.5688801734,0.0638693878,0.2048631729,0.2184001736,0.1152287064,0.1520081758,0.1234447892,0.1068180497,0.3607738933,0.3263505181,-0.3017558172,-0.3019316082,-0.0711196256,0.1863020819,-0.2038490865,0.2906163568,0.030998595,-0.0161144723,-0.3142702721,0.0089223111,0.6631905297,-0.0770979185,0.0255027798,0.5104920528,0.6447090851,0.450530558,0.3751093111,-0.2643438586,0.0331392236,0.5450440635,-0.0820077623,0.144446196,-0.318742439,0.2325915947,0.2022840621,-0.0664847886,0.2877998525,1.8276861603,1.1555487265,0.6373074594,0.2781015277,-0.1365217359,0.0957586769,0.1653830654,0.0076493647,0.3978128643,1.2085565618,0.4056803295,0.1628486637,-0.1499091348,0.2628717707,-0.0602479718,-0.3097197833,0.0960097779,-0.2117913507,-0.2119382881,1.6267873658,-0.1715593306,0.3488804639,0.1378646734,0.6362930486,0.035428711,-0.2031216143,-0.3146882525,0.5856956328,0.6355485141,-0.4156396579,-0.1533564671,5.5532860811,0.1338689186,0.3780163048,-0.0313466065,-0.2648311166,-0.091195608,0.4091067571,0.0941216607,0.8632705297,-0.1126456232,0.3970181653,0.2566897485,-0.0308288808,0.1852986922,-0.2041659307,-0.0345294471,0.022940148,0.2813474566,0.2676330356,0.3728811753,-0.1323312561,-0.0790963379,0.3183260583,-0.1221682989,0.3565558026,0.234367513,-0.0050779935,0.3707192397,-0.4845376691,0.2352776975,-0.3154574755,0.4926207675,0.5239046263,0.1130608528,-0.1621091965,0.0528476654,0.3599979127,0.1716023148,-0.0890434437,-0.0565418903,0.1541607904,0.2708775985,0.3560542544,0.3763493371,0.1281855903,0.2938850817,0.4269562673,-0.2068273902,-0.1002114435,-0.3265461099,0.1665477637,0.1864177561,-0.280257688,0.1913806926,-0.0731584009,0.2621376417,0.1971674139,-0.0753294213,0.5112158544,-0.2929201976,0.1588207695,0.1496610269,0.7035013743,0.1292181714,0.0138784522,-0.1552536115,-0.0918654202,0.2199593534,0.2527577614,-0.0140563663,0.162576491,0.266757713,-0.0747164338,0.0401620334,-0.1704331272,0.0126809531,0.18271676,-0.1464204289,0.107202137,-0.2545061971,0.2476649607,-0.1736163724,0.1475386192,0.2295871445,0.1797637429,-0.2342130083,0.3438828185,0.5851434047,0.4683628739,0.2968418084,0.1170473653,0.6349227846,0.2012313754,0.3625707846,0.1163203192,0.2622359826,-0.0968481591,0.3456213163,0.1141973333,0.434149482,-0.0756057887,0.1889765122,-0.0611377629,-0.0233281132,0.2897968718,-0.1148342452,0.2278208146,-0.2791282052,0.6083077474,0.2770986746,0.0480642841,0.501942987,0.2226003231,0.6197767753,0.5523523998,0.6864994636,0.3553687405,0.1051244896,0.6814322398,0.4235281954,0.2006939458,0.3954147651,0.6490679763,0.1411705759,0.2029630998,0.5125090535,0.0996354672,0.4130683273,0.3538688819,0.2840636081,0.2088700241,-0.26114352,-0.2007152225,0.1001321493,0.2371167788,-0.0458399257,0.0631696713,-0.0447694686,-0.0661162617,0.1483437044,0.1706416301,-0.0081257445,-0.002763851,0.0769383165,0.2506320387,0.1483124906,-0.3140342362,0.1419766692,-0.1714085545,-0.0529560053,-0.1762481336,-0.3032692883,-0.2874060969,-0.2140952572,-0.0713676407,0.1193259738,0.6735826463,0.5465614706,0.4110120436,-0.2536697177,-0.3336271347,0.0134235538,-0.3138604247,0.2239973494,-0.3485002088,-0.33599051,-0.2212534831,0.0042000616,-0.2306391826,-0.158703554,0.3492036698,-0.0623222091,0.2074121283,-0.2859474356,0.2097011162,0.249105816,0.3866718362,0.1492988097,0.3404805207,0.416706508,-0.0767146009,-0.0442002454,0.2253279776,-0.1912022908,0.2747585049,0.2582482099,0.1123447649,-0.0665503488,0.0259993014,0.2723758083,0.1492012759,-0.2376013864,-0.1730022155,-0.0026262807,-0.0229796796,-0.3136473086,-0.1006646906,0.0978898038,-0.1488711376,0.2166702941,0.631729061,-0.1044948379,-0.058703828,0.2406015788,0.3525121722,0.6145461131,-0.0195745863,0.1796037464,-0.3026585297,-0.0698472259,0.0599380295,-0.3053809651,-0.6640373862,0.2352829268,-0.0927569058,0.6673929222,0.2153490273,0.1526217624,-0.0582816265,1.0917912581,-0.1741055458,-0.0893586702,-0.2084270315,0.0237902249,0.2915908843,-0.0339906899,0.2630117865,-0.263015101,0.2438564439,0.1252357543,0.0799152624,0.2008103913,0.2794329654,0.1320735136,-0.0626793916,-0.294853004,-0.1045335529,0.344830551,0.1509415762,-0.0062749915,-0.1910898224,0.5361134711,-0.2315556244,0.6381894504,-0.1112869273,0.0875929585,0.7026060434,0.3030095736,0.0562345021,0.6596876468,0.3278490205,0.0884263009,0.1658758821,0.4808791607,0.3735532132,-0.7298430519,0.2097672456,-0.0370307247,-0.0218465422,0.1542405115,0.0343853286,-0.2979340671,0.2530056999,0.2326253684,-0.2440829599,0.0388174735,0.1636478611,-0.2412269488,-0.2458151287,0.1472903826,0.2211207025,0.2306656532,-0.2194188472,-0.2198796572,0.262088025,0.2116686316,0.3518129599,0.0054864225,-0.3113217173,0.2005558871,0.5664215357,0.0265393167,-0.1867494391,0.0748981306,0.1115174613,0.1410477529,-0.1386987313,-0.0805905983,1.1744534639,0.5274002073,0.2516919035,0.4677124907,-0.0771745658,0.6681590343,0.6986485688,0.2244017164,0.0939205864,0.1618335466,1.1761594279,-0.4221672844,0.0315283446,-0.1346476037,-0.3002565809,-0.0784468697,0.1213968867,-0.2053545003,-0.0263613639,0.3822920678,-0.3725350571,-0.3168622218,0.2519460123,0.3594486044,-0.7578048227,-11.0330391371,-0.4581470273,0.677195449,0.168797178,-0.0114863393,0.3194313144,-0.2240814149,0.1238899265,0.2354299868,0.2350981727,0.1126528863,-0.0431479514,-0.0265354285,-0.5560978205,0.6029288585,-0.2833797409,0.1015673314,0.5459043777,0.1773621853,-0.2362784006,0.2348911779,-0.4903499441,-0.072441004,0.4223390398,0.3624208038,-0.0834199183,0.1515518065,0.0631951828,-0.2690742949,-0.1326830221,-0.0570552125,0.4110179988,0.2621012855,-0.2068574705,0.1640548469,0.3062283624,0.2062182168,-0.0425870931,0.5662515712,0.0831040219,0.2995739566,-0.1516033958,0.0520530986,0.1260242993,0.1313284376,-0.1917818292,0.1608033711,0.0117224815,0.4060543415,0.3807948657,3.1728674519,0.2312659344,0.2016529234,0.2657609085,0.0420685569,-0.0591576025,-0.1813512937,0.1617195816,0.1535144512,-0.1205889327,-0.4232899276,-0.044134482,0.3178354587,0.2023575713,0.218945816,-0.2496209129,0.1485068665,0.1640928691,0.3831537876,0.0118903005,0.2550483148,-0.2359893906,-0.1689933355,-0.1894307894,0.4528658815,-0.1369097007,-0.1998454528,0.0810983847,0.1301440086,0.0610745678,0.0170761104,-0.0993718519,-0.0942459595,-0.2808905115,-0.012700143,-0.0517837428,0.2875735186,-0.1568864716,-0.1228517069,0.2234671834,0.1313024435,0.2216161817,0.7114629947,0.6695820312,0.5589010762,0.341146567,0.2540391156,0.7113826237,0.7126359023,0.2176003874,0.0224548929,0.0122867572,0.0647964422,0.3764467297,0.3735895514,0.5762719282,-0.3710938839,0.070783675,-0.3077832437,-0.0884512105,-0.2805981718,-0.1716112328,0.0935427359,0.1132511624,0.3771607889,0.6213884933,0.6638528498,0.1441783699,0.1838078578,0.2139323692,0.1317830049,0.0726660527,0.3077445511,0.5566807074,0.6361103381,0.5027299126,0.6472570112,0.4971866444,0.3756968324,0.5180315033,0.5539299189,0.1039529532,0.0558178961,0.3235500548,0.4771158078,0.0095648024,0.1162953026,0.0110145747,-0.5329362576,-0.3311747737,0.4752145476,-0.1194099476,0.2147459925,0.3481637724,-0.3351189007,0.1135085793,0.0570833687,0.2180793764,-0.0656662406,0.2702438509,-0.1236504187,-0.057200857,0.0798368676,0.0542810626,-0.1955990083,0.2605510916,0.1832799146,0.026244441,0.3065747953,0.1856344367,-0.3016219405,0.613062924,0.2771617931,0.6730937521,0.4090145574,0.2893145302,-0.2352125668,0.2504764481,0.200125978,-0.3165951499,0.1072526976,0.2880437578,0.0454920068,-0.2022366533,0.080888736,0.2318622841,0.1107987733,0.3549178979,0.1160699301,0.1799551142,-0.313647251,-0.3165173994,0.4280410553,-0.1495905499,0.1227981255,0.0314745292,0.2362894418,-0.0178987678,-0.0640241919,0.2834762435,0.1273576212,-0.1840757681,-0.2388703909,-0.0542808104,-0.2724311974,0.5604495098,0.1794460986,0.374327287,0.1501481347,0.0168211122,0.1725998779,-0.2661114406,-0.0613122643,-0.0025932882,-0.3145813742,-0.1990136805,0.1580330172,-0.1264500094,-0.0385054405,0.3333978278,-0.0829549914,0.3124704781,0.0350935483,-0.0526768491,-0.0715629949,-0.1524732142,0.14237176,0.2620370815,-0.7274090949,0.0542965879,0.5901251659,0.5057347599,0.0528035302,0.3055365695,0.1486346558,0.1501541278,0.2504931463,0.2108691817,0.3684188051,0.3915114029,0.2400560726,0.0918320283,0.0239849262,0.4391018553,0.2126664828,0.5473347507,0.1833662865,-0.0963125909,-0.0202713444,-0.0570684447,0.0456050382,0.5944376138,0.2865991652,0.1708230156,-0.0141244306,0.5550257841,0.3864420256,0.7021439967,-0.0660771276,0.271894383,0.5117396094,-0.0339170011,0.1782613187,0.1579002292,0.5020877811,0.5512480003,0.5393322261,0.4232864633,0.3748110168,0.5761435697,0.0969978209,0.2386089143,0.4825443389,0.0112386281,0.3156544635,0.0222876496,0.442516588,0.5067618787,0.3916490195,-0.0190574146,0.3211699554,0.3316821053,0.1801417662,0.2402512982,0.0054202489,-0.0194318103,0.4692899552,0.2204527835,0.2045926453,0.575558821,0.1160734458,0.0278117168,0.2462270587,0.2700289257,0.2153258294,0.1606106373,-0.0337470495,0.4005953182,0.0639431701,-0.0594380542,0.2638494769,0.5945406591,-0.081587605,0.3398358489,0.2308664103,-0.3054118309,0.231922091,0.4452492787,-0.0740380717,0.0871424347,0.4757261602,0.649965673,0.0977732597,-0.0728954967,0.4890669828,-0.0430781808,0.1464106919,0.4870516374,0.4549495862,0.3930706855,0.4900022557,0.6290880725,0.2352414115,0.0955069921,0.6174900058,0.0539524699,0.1013829027,0.2359627232,0.5059485377,0.0291927688,0.1408442399,0.056835761,0.5136683898,0.5245806197,0.5779297812,0.1375918554,0.4719394073,0.2802766689,0.1818819259,0.536856634,0.6271995884,0.4268489102,0.4938195149,0.0793945416,0.1389362109,0.0639342907,0.4573540282,0.7253750822,0.5223207267,0.464587474,0.1175526509,0.5778035411,0.4148672632,0.4390229753,0.1883395712,0.1097054278,-0.033461201,0.4183458024,0.3797454763,0.1948732782,0.1435643782,0.35350946,-0.0623086381,0.2698037914,0.2112719088,0.6199056782,0.5557218821,0.1454260294,0.0805756209,0.2279304884,0.4517828615,0.3740135563,0.3930204567,0.0044094316,0.2992525558,-0.0895672597,0.2273482758,0.1749841841,0.5754257921,0.4047343863,0.166446459,0.254177949,0.0366232574,0.4524000053,0.2822648701,0.4283515867,0.034637966,0.0944254085,0.1329714214,0.1680947853,0.548065303,0.1481426653,0.022808168,0.1909950716,0.5204756978,0.4662719403,0.1412940562,0.2088530697,0.5204384271,0.4681355425,0.1229762451,0.5504269594,0.2263861743,0.6513265942,0.5744580793,0.3688131862,0.3846317516,0.2528423179,0.5110989677,0.4996425572,0.347603039,0.4820650747,0.2549587827,0.5776185439,0.3539771244,0.1097011141,0.3266367094,0.0271347658,0.5072071842,0.3757287674,0.0601371775,0.4225089928,0.2080530247,0.6541325577,0.0206850263,0.6437050143,0.051236376,0.478165773,0.5681592592,0.1194581223,0.2275676332,-0.0076675905,0.0521455621,0.1719628329,0.2619698673,-0.0629642064,0.3244393446,0.0538283515,-0.0239754419,0.5698911537,0.0841648478,0.1804338708,0.4641415913,0.142224801,0.3202801769,0.3258044631,0.0307347408,0.261169247,0.1963814054,0.2074951084,0.1415873838,0.1109649719,0.4140993392,0.438876359,0.5111064578,0.3946757962,0.6402433638,0.3090730823,0.2010009842,0.4136034451,0.459175719,0.3727494924,0.5952960431,0.286609975,0.5588845724,0.5920167297,0.6244063374,-0.0506638431,0.4771987927,0.1302483185,0.4245431239,-0.0750164441,0.2018170803,0.1536217795,0.4723950867,0.2551287707,0.2982767302,0.3968266614,0.1776259946,0.1292745304,0.6460780031,0.0294593623,0.366283678,-0.0434932044,0.3871212569,0.462605053,0.0749336856,0.1203447255,0.0646357537,0.3047918161,0.0033884498,0.6472768804,0.3476492587,0.0197936749,0.347166959,0.0657162337,0.3299015065,0.3012246804,0.4657926411,0.5570164706,-0.0259507523,-0.0219201989,0.5324953025,0.0909109449,-0.0036447286,0.1158283731,0.2320573245,0.2847530619,0.3966258657,-0.0796856947,0.2370516729,0.5927840323,0.3936562448,0.0221205423,0.4599110824,0.6115557861,0.1396255801,0.0660890705,0.0150669806,0.0195855352,0.6313529255,0.1969653576,0.0054721088,0.2385661053,0.5726025895,0.1651439626,0.5352951654,0.508331955,-0.038153044,0.4029240113,0.6118201898,0.0279834651,0.2838497829,0.1515545472,0.2910141161,0.2078254955,0.0844286643,0.2528658286,0.1671088723,0.274802236,0.2906370441,0.5776720169,0.3736063552,0.132803892,0.2700096741,0.2046321447,0.5661470081,0.4066174952,0.0471059521,-0.1465135981,0.2618411726,0.383905747,0.100470446,-0.3678926249,-1.4751423362,-0.3655405725,-0.4290066761,-0.510865793,-0.4101219913,0.0208897348,-0.4623341875,-0.3572839393,0.1616985321,-0.3903576308,-0.4304351095,-0.1094835719,-0.2241281532,-0.2037033016,-0.127148173,-0.436921457,-0.1000456806,0.1218885883,0.0554453527,-0.3576392062,-0.3261880986,-0.5396374111,0.6431991044,0.0760629478,0.3315842864,0.1319795158,-0.2607886003,0.4805252012,0.0610968328,-0.3983493814,0.4663216114,-0.0575075036,0.1006305024,0.6396421045,0.5110294358,0.0471751257,-0.1596997005,-0.0651723624,-0.3187162949,0.0160697339,-0.2290861768,0.1365020727,-0.0383362268,-0.0274481995,-0.1361820317,-0.3564739824,-0.145896113,-0.1892038372,0.0135111328,-0.2906374661,-0.301831575,0.1637648236,0.4809890129,-0.1230259964,0.0121603849,0.5741853157,0.1941931121,0.2320571201,0.5690421257,-0.0036712388,-0.4104872488,0.1097912215,-0.0599283509,-0.1945868968,-0.063061876,-0.4255696435,-0.0649005706,-0.1641352278,-0.3772918663,-2.5604228696,-2.1781968783,0.6794556718,0.7005167919,-0.2150945934,0.360428376,0.2332252525,0.5587206466,0.1115076287,-0.4589190548,-0.1189137477,0.2683190593,-0.2700760575,-0.1722473141,-0.1921754979,-0.2571875391,-0.6038063741,0.46418002,-0.5349297069,-1.5039868766,0.461256366,-0.1071328068,-0.4260324457,-1.6978904951,0.3042498624,-0.1796372439,-0.3919479064,0.0366856548,0.3683204577,-0.0121285097,0.055501304,-0.112155747,-0.3957597068,-0.5416272526,-0.0704609625,-0.5449615265,-0.0164736808,0.0545890458,0.298275621,-1.7560864727,-0.2982655939,-0.0152782755,0.1810734247,0.5344022227,-0.161284637,-0.379521825,-0.2683232371,-0.6267863372,-0.699003762,0.008323489,-0.2096852446,-0.3153566468,-0.384562906,-0.1247191748,-0.2063531841,-0.7112409317,-0.4500770198,-0.2640619873,-0.2079658545,-0.4458069065,-0.1972294702,-0.3208000035,-0.3064851528,-0.3095728119,-0.2145881509,-0.3054656082,-0.0054636138,-1.0718611131,-0.5507389343,0.0132890534,-0.2297747431,-0.0080791425,-0.0524902706,-0.1073781604,-0.3541888474,-0.3446379371,-0.3789237755,-0.1631086461,-0.4899756122,-0.2796590136,0.0013066148,-0.3234949174,-0.0056814995,0.4614997737,0.0706667857,-0.1460284813,0.0355829647,-0.0718635611,-0.2134471653,0.6671225174,-0.0540533491,0.6395280476,-0.1787154563,0.5329405907,0.3552505703,-0.3414085474,-0.3674532651,0.1216652568,-0.0826943818,0.5976268165,-0.4236478617,-0.0590955667,0.041821716,-0.3284799457,-0.2572588951,-0.2230189115,-0.0744398101,-0.1330399391,-0.0682117583,-0.4902957898,-0.107150468,-0.2451295787,-0.3275065725,-0.0081810479,-0.4415946604,0.4545154991,-0.2468965424,0.6697900055,0.3331933542,0.2271609818,-0.2816102174,0.6001258642,0.0821450583,0.7118383044,0.144961748,-0.4334414535,0.0025976099,0.0933882651,0.0646742131,0.5455026941,0.2706386809,0.0592750152,-0.3862632538,-0.4079641573,-0.1883767097,-0.2358313083,0.0959251702,0.1215190351,-0.4525599004,0.4327203178,0.5479354493,0.2373782275,0.102840567,0.1961879941,0.2256005546,0.6755846346,0.2188788366,0.6844528337,0.3924546441,0.4108215385,0.5236353722,0.1241160744,0.4367136792,0.2794492717,0.1022170497,0.4637378025,0.3704166691,0.0410654056,0.5818929643,0.1919232514,0.0950312643,0.2811118596,-0.1590742163,-0.2781852323,-0.4714071977,0.2961138582,-0.0805945141,-0.4140628342,-0.3126110186,-0.0985099627,0.0172639371,-0.0599890683,-0.5375386671,0.0439455216,-0.409671658,-0.0227862805,0.0291645152,-0.2957065431,-0.1715939011,-0.3358256237,-0.3286624997,-0.2621258916,-0.0359100165,0.1425607732,-0.4203470061,0.0385664566,0.3830406404,0.2626831268,0.2596273684,0.6803463056,-0.4258773759,-0.2354318437,-0.4316792713,0.1372435475,0.040773528,0.0426670244,-0.415841279,0.0410914405,-0.264939804,-0.0619671447,0.0285068957,0.5960869812,-0.3194717584,0.1632196769,-0.275306426,0.1088281384,0.0363922238,0.015512601,-0.1537716054,0.0718263566,0.2497862378,-0.3671464086,-0.4405078215,-0.0636152248,0.0102270951,-0.0986686158,-0.0596524749,-0.3792963024,-0.2798322264,0.0189868145,0.3070321879,0.4060193546,-0.2754159012,-0.4044712459,-0.4600568971,-0.4172223188,-0.1905058459,-0.1669928152,-0.3080237432,-0.0621392462,-0.1523383762,0.606686124,0.1275370849,-0.2555367943,-0.3439768088,-0.0131392859,0.6156671755,-0.4936777313,0.0471901499,-0.4990057274,0.1626859831,-0.3867479551,-0.1931912247,-0.5926598591,-1.0668690118,-0.919868746,0.2477601246,0.6200330764,-1.5640806343,-0.6584082027,-10.9021641581,-0.9713260647,-2.2965268618,-1.873949263,-1.0844506415,0.0468626321,-2.3582993693,-2.148445067,-0.9267099323,-1.610420498,-3.8257956577,-1.6928013956,-1.8100676887,-2.1719666336,0.7319851726,-2.1581865347,-0.567247445,-0.8358757167,0.0737105173,-0.2787773816,-0.5015218218,-0.7523010119,0.3535884677,-0.9337470913,0.2067688678,-0.9324878793,-0.3301294727,0.7059649439,-0.7224308597,-0.7539691817,0.6823231507,-1.2922985262,0.0739030589,0.3759631628,0.0836409668,-0.4960303047,-0.6803075236,-1.085684153,-1.3089780509,-1.2815452704,-1.3108437233,-1.3153037367,-1.1396029221,-0.6607982621,-1.0994911674,-1.0472613399,-0.7476850906,-0.9986908627,-0.7750175589,-0.900805807,-1.0161269238,-0.6811324314,0.7106702229,-0.2094207051,-1.4539845787,0.6959384471,0.1941130958,0.1126581894,0.315401517,-0.5881844356,-0.5708127922,-1.1509513789,-0.9098023781,-0.4528639576,-1.1847492245,-1.1969520742,-1.0597298687,-1.0880108716,-0.7841784205,-23.4154925615,-17.6930591744,0.6564431367,0.4944994418,-0.7445299363,-0.6116003293,0.4348176119,0.5019758752,0.4484271181,-1.0412762968,-2.0359296718,0.3775907563,1.3385890826,-1.2403465686,-1.2720065498,-1.1793399105,-6.1465348819,1.9338834541,-0.7790041122,-14.8238616216,3.0845280276,-1.0039707572,-1.274636263,-11.4928929714,-0.1149572707,-0.9621018914,-0.85629743,0.0029574507,0.6763191243,0.0766991774,-1.2444756869,-0.3501833373,-1.2648816278,-2.1635584256,-1.9879316485,-2.0192144895,-0.5982247432,-0.9846086662,-0.2899042321,-16.6683100084,-0.9297523372,-0.3358166966,0.2381160968,1.8970309012,-0.6823932385,-0.6419760486,-0.8312095458,-3.3280306833,-4.6530433688,-1.4226845816,-1.1300944272,-2.3071799895,-0.5597000494,-1.945369738,-0.8528800122,-3.1954595669,-3.5215212994,-1.0776489612,-2.7122929539,-1.0130352772,-0.7592617938,-1.0245619038,-1.9051619345,-1.9776610724,-0.9016491191,-2.2321994062,-1.9850039754,-6.7870194219,-3.8186895411,-2.3329991398,-2.308381815,-1.7974009329,-0.9375517277,-2.0225496689,-1.4535942605,-0.084094636,-1.3860192551
   -2.5385171122,-0.8328156584,-0.4403211574,-1.1775665936,-2.3123238955,-1.6273449693,1.5182581515,-0.8297711604,-1.1506841669,-1.1628041649,-0.7552834435,-1.0284751727,0.3012083022,-0.9144329965,0.2062055639,-0.6519590824,0.0211000901,0.6797559968,-0.6862754494,-0.8973274654,-1.0728937746,-1.1266377344,0.2916035452,-1.170148468,-1.2692666153,-1.0081297654,-0.9372130595,-1.0966936492,-1.187925873,-1.2345395938,-1.2561911984,-1.0373025835,-0.7803511519,-1.0080209772,-1.1514823787,-0.6755548526,-1.0611687559,-1.188032802,0.6400159291,-1.1318663421,0.2370950896,0.1211879254,0.1766970227,-0.8300105624,0.2059969512,0.6979893111,0.1041230685,-1.2406673701,-0.6247680754,-1.1877174303,-0.9002131454,0.2235687632,0.4452514377,0.2944307642,-0.5692050691,-0.6174968981,-0.8118910271,-1.2013220265,-0.8532558854,-0.9621442495,-0.8732649422,-1.2195587703,0.5411785207,0.6296428222,0.4557657455,0.3632330032,0.4472676214,0.3963194429,0.1786558348,0.6956865273,0.2560617889,0.0387205801,0.6799661679,0.2018717153,0.5358002606,0.0511809972,0.5134605206,0.4764330983,0.2262995196,0.0021800509,0.040366473,0.0297848951,0.2002682531,-1.1749319327,0.6189201928,-1.2834961719,-0.7016897133,-0.6240323994,0.3295910203,-1.1789323225,-0.963643788,-1.2129523196,-1.1416840648,-0.7204281963,-0.7632876662,-0.7011312449,-0.9512681959,-1.2100966114,-0.8607095252,-0.7994150136,-0.860059287,-0.9961740875,-1.137550921,-0.7788050267,-0.6346081248,-0.6646237969,-0.9175180019,-0.5548437169,-0.6089240295,0.122492681,0.1119566963,0.6137814254,0.4016601898,-0.6277221555,-0.9702814392,-0.5757524037,-0.9560574238,-0.653801871,-1.0424189067,-0.8012127912,-0.6778431764,-1.1268725805,-0.8878395547,-0.9539667422,0.3219328705,-0.6369566574,-0.9513125509,-1.0074747324,-0.6591654908,-0.9356352585,-0.8656610077,-1.0961172372,-0.6958198046,0.6724211906,-1.3040803046,-0.7504873804,-0.6082226276,-1.0432330117,-0.9697844491,-0.7042307726,-1.0239167681,-0.8074687176,-0.6300813101,0.5452218527,0.0173343596,-0.636889084,-1.0808919068,-0.9251907267,-0.7463497587,-1.2634549889,-1.0600332974,-0.9631865146,-0.8638787351,-1.0820650735,0.44251018,-0.9455317979,-0.69749657,-0.6731347093,-0.8755549669,0.3547356566,-1.2687883314,-0.8691370051,-0.7167393468,-0.6027522483,-0.9107372963,-1.1004924571,-1.4789246476,0.2786232856,0.3340696448,0.58874391,0.4676028222,0.1231817675,-0.0260441916,1.1982003803,-0.1146716577,-0.183971217,-0.1185063778,-0.2383923253,0.0775496122,-0.1331742726,0.2831001055,0.0090733648,-0.1513922425,0.3820681282,-0.0728729186,0.1041926096,0.0668009705,0.0202575616,0.0159757015,-0.2903042674,0.4584477879,0.2911848696,-0.0405299893,-0.1312065922,-0.1570847559,0.4202955379,0.0001329346,0.631548196,-0.003502911,-0.2506613382,0.4246490316,-0.0491498376,0.3404773158,0.5034716023,-0.0133777644,0.1793409054,0.0884942459,0.3359124822,-0.046263517,-0.0190863219,-0.0001752672,-0.0770566508,0.2924057868,-0.1647773518,0.1305548066,-0.1323182409,-0.0999804087,-0.2414794397,0.2905485694,-0.2329990346,0.2319704768,0.3128678854,-0.1194095431,0.2713683193,-0.2170555455,0.1161896528,-0.1283071838,0.059535266,0.5694569804,0.1136251759,0.1318882829,0.2528657737,-0.2072330678,0.141890437,-0.0891696872,-0.2350907373,-0.061390809,0.0311877329,-0.0051823444,0.0503194293,-0.0804179215,-0.1699801094,0.9331891133,0.6623460897,0.2254191745,0.1664635094,0.1476232486,-0.0552168589,0.2757005317,0.1364901787,0.0240563069,-0.2988207335,0.9901146892,-0.0126848253,0.1300243696,-0.1343258898,0.2930101704,-0.0612053026,0.4711201138,-0.1674750389,0.0721281827,0.8289536482,0.1729994896,-0.1178893479,0.0350188621,0.5771381108,-0.0342335582,-0.1968041541,-0.2551841334,0.3158257331,0.3927367287,-0.2739182488,0.3101073673,0.0057734525,0.228928757,0.0892591607,0.0757950468,0.3323464389,0.1057761503,-0.2413810157,0.1352211493,0.8220183436,0.166743522,-0.1515607427,0.0372884951,-0.7470053165,-0.0510464073,0.1977722113,-0.2026916156,0.4852479506,0.1999157168,0.0732924207,-0.1593798519,0.1709050576,0.0616256598,-0.150735742,-0.3729890923,0.2251769519,0.2408498995,0.1207361381,0.4303393272,-0.1438399277,-0.0628935038,0.1590386732,0.0035929509,0.0841302939,-0.1196208704,0.0097258894,0.2234664745,0.2829694124,0.497053584,0.0711971886,-0.0761512045,-0.1184240495,-0.0919752151,0.3521769465,-0.2314059505,0.1198907404,0.2418990631,-0.0209205632,0.3314117391,-0.5598375282,-0.3042686734,0.2122056696,-0.0021659267,-0.5232299078,-0.1335478127,-0.2921341413,-0.1381947235,0.2429467689,0.197473105,0.3245970032,-0.0357405122,0.3032238599,0.0814097395,0.0481963825,0.6539736299,-0.1277169115,-0.3264408793,-0.0138331668,-0.0265213212,0.2545412276,-0.1050403374,-0.2548492211,0.2066993229,0.2875044077,0.1023484216,0.1633555141,0.1905143017,0.0967264892,-0.0045090361,-0.044090643,0.3488105921,0.0705532144,0.0298162791,0.0609090283,-0.0082678554,0.3525046108,-0.1903073822,0.4690036346,0.5818260073,0.3040077637,0.0443138048,0.1930172303,0.1628240626,0.368566851,-0.0434592695,0.0970934782,0.0504729549,-0.1769420789,0.375308991,0.5056778625,0.6686686504,0.2135910052,0.1130686055,0.3394854793,-0.247309194,0.0405660589,-0.2321788248,-0.0750183433,-0.3316472578,0.0530545798,0.6896254332,0.158480729,0.2604564016,0.6045182335,0.4751920502,0.24692863,0.1529915578,0.1623304973,0.2525973443,0.5385149145,0.3508092156,0.6576021682,0.0492325651,0.4490671937,0.6042280784,0.0816945654,0.1353372707,0.287829806,0.4074697895,0.0312311712,0.289965085,0.2587911522,-0.1382438917,0.24180512,0.0864411561,0.2853337441,-0.0555385931,0.1806744296,0.0278144284,0.1501849462,0.331759354,-0.1705450856,0.1278192538,-0.2601706668,-0.2821924371,0.1321093789,0.1596996938,-0.3734785989,0.3484972166,-0.144933212,0.0066638125,-0.0768085363,-0.0482096094,-0.0088745096,0.226933315,-0.0222211732,0.4509761068,0.4715461118,0.1511767543,0.2142086014,0.2322533493,-0.1824097207,-0.3654248056,0.0838642037,0.3076469499,-0.1329086394,-0.1649532846,-0.118551543,-0.0392088081,-0.192046923,-0.1145292388,0.5612718792,-0.2942193968,0.1530890841,-0.3144749921,-0.0147543465,-0.458615376,-0.0701357581,0.3712409107,-0.0511953098,0.2190506838,-0.0883023848,-0.2063820381,0.0638746132,-0.2922668239,0.1225962177,-0.0567518629,-0.3084837587,-0.0847962339,-0.3155518618,0.088991422,0.4557341265,0.3378487261,-0.0385726699,0.1314695138,0.3087266982,0.1520196688,0.0735639178,-0.2344872628,0.1923804676,0.3605469347,0.6911511804,0.2720796251,-0.322000319,-0.0260606171,-0.2496242865,0.2106285547,-0.2845438323,-0.2779473956,-0.1285169787,0.2632762712,-0.1618935328,-0.2929111941,-1.0146433056,0.2814950461,0.3650335092,0.4913275345,0.5335598656,0.4079364816,0.1215444421,-0.0240007163,0.4452103351,0.4352934958,0.2608367671,0.5151021762,0.4205028429,0.36520035,0.6988210313,0.3720410068,0.2366605869,0.2465767639,0.7316271734,0.655314461,0.2725486106,0.6027338469,0.5208530084,0.5572502222,0.195152769,0.049514741,0.7378347335,0.3906319165,0.3064745206,0.0502092335,0.4903648244,0.4079316382,0.1509784264,0.7070135826,0.3594138491,0.246121499,0.3839928024,0.2293810181,0.0752066604,0.6659097912,0.4190149533,0.1279668665,0.1859626009,0.7084840023,0.2439482205,0.660206247,0.4775053836,0.6758485618,0.3429107507,0.6733311721,0.7445169912,0.2051567698,0.3045387921,0.7397489597,0.2642722028,0.4213033053,0.6841658112,0.3317751432,0.2709263939,0.6136032316,0.4526392539,0.4836276392,0.0968674076,0.5785240701,0.0121790122,0.5260478513,0.5603137503,0.194551809,0.7356189947,0.3032411997,0.6718165283,0.0708399184,0.1949906767,0.3772130304,0.2561904065,0.4427933245,0.045718302,0.4765494244,0.4179548803,0.5017199041,0.6662382789,0.6468664857,0.08345995,0.5749664245,0.2589051246,0.0596963994,0.6249613142,0.7591163911,0.4190153451,0.7457448846,0.4085418483,0.1562045716,0.0848794422,0.089622428,0.1927958153,0.1322067878,0.5668864597,0.6216475779,0.6389494492,0.3712123367,0.3098182605,0.7753461567,0.4214216592,0.0468018709,0.4335136679,0.5257049854,0.1626738131,0.7132157263,0.6446060151,0.1489538707,0.3752389968,0.4393552035,0.5082902348,0.2275748292,0.5571583683,-0.0042163185,0.6644661857,0.3931596797,0.3971412473,0.6905704363,0.4149248529,0.6231553105,0.6192049052,0.489979359,0.0886925975,0.5861698575,0.5304733192,0.3151842814,0.4487130412,0.6318855513,0.2894910811,0.0360105253,0.3500692879,0.6555703868,0.5747271822,0.2277730867,0.6413532418,0.2141925387,0.2934136769,0.0804204832,0.3981114818,0.6523468164,0.1750051437,0.1169617244,0.1490807299,0.7112364315,0.229899108,0.6314116279,0.6026201676,0.3498576709,0.4956290903,0.7172501189,0.69739508,0.5292451747,0.4309794236,0.0643273403,0.1962109753,0.2377584279,0.1297784022,0.4201215455,0.6932266456,0.145318935,0.4907271601,0.4823006934,0.6597230685,0.6197075259,0.5196882944,0.0313664346,0.6592537276,0.5394794133,0.1600429895,0.6514104377,0.4995009956,0.2595832409,0.397067265,0.4553236293,0.0725105647,0.3596913206,0.3039782354,0.1697910941,0.5253492853,0.1428785161,0.5138482782,0.5415580609,0.529754173,0.4669260823,0.5265031487,0.671854676,0.0805877659,0.6705191333,0.5274937877,0.2586329522,0.0120169369,0.4007420248,0.1793340359,0.4049438641,0.3585602565,0.1564680403,0.4931415397,0.4239035133,0.6876600789,0.0804677462,0.7094308476,0.4774645924,0.4914485044,0.4422750379,0.5346279648,0.5451274401,0.4085957949,0.408255463,0.2504346266,0.256368023,0.3666031553,0.3756379522,0.5200902157,0.4723162342,0.3587809078,0.3684932102,0.2492252166,0.1466099681,0.2948234935,0.7079183392,0.5675311081,0.3622586756,0.2802232135,0.0008013473,0.1330723444,0.111631281,0.5191019641,0.5580063435,0.4539506298,0.3598758498,0.6283763191,0.4588764737,0.5480916197,0.5140430474,0.4725881676,0.3224509306,0.1325933466,0.7070095051,0.6927656334,0.4933333304,0.4125266952,0.073099778,0.1879275314,0.6341988243,0.0412451793,0.6697444459,0.3667804551,0.2604376892,0.6456040062,0.4802281417,0.4688731864,0.6460169666,0.4906505829,0.0832512482,0.5575728217,0.6782103782,0.1999783818,0.1885348238,0.5762295278,0.5701673327,0.1128589617,0.5820646885,0.1652318079,0.0646583982,0.6734241708,0.7566927087,0.324864864,0.4185239144,0.6771088931,0.501595827,0.7235419261,0.7286852551,0.6947893802,0.4944380554,0.326107019,0.5826321337,0.1552753364,0.7018711904,0.6711858156,0.2041997294,0.6220680011,0.0739203539,0.061394227,0.0863490582,0.3048493803,0.0357883482,0.574243103,0.6236629497,0.5660959908,0.6288423834,0.1439707726,0.225393739,0.6572395076,0.2357125374,0.6857094673,0.6708596937,0.5074695961,0.3668761815,0.0447843878,0.4052078263,0.6804659514,0.1124271829,0.1502221494,0.4474931681,0.5368814463,0.3797036976,0.1677012597,0.1565714366,0.69204829,0.2635894457,0.3759374192,0.1427846312,0.3851006571,0.5332736451,0.3519119813,0.7479889726,0.1988632275,-0.4687788964,0.4101385262,0.1003546448,0.5100232322,0.1940025186,0.7082610301,0.7215025797,-0.0175419208,0.5638611001,0.6598511601,0.6204671959,0.2756758645,0.3088732617,0.2791559569,0.2514437024,0.4594733472,0.1934406135,0.6033665136,0.3090116833,0.2733648259,0.3518976783,0.0854510846,0.7030674092,0.5395908521,0.0551911532,0.6725791753,0.5126731921,0.6117537048,0.0559544286,0.5582507541,0.5474485637,0.542925379,0.1291341025,0.0653284708,0.385497297,0.6846513549,0.2964720508,0.1088489319,0.5542180112,0.4307594987,0.0447319402,0.1957881574,0.7188076843,0.5598982793,0.5694894275,0.5126636856,0.3240453771,0.6865559993,0.2832866081,0.1963277728,0.2377369771,0.2054820756,0.6208304661,0.4965107596,0.1450667848,0.2447852651,0.4169501486,0.1785336286,0.3756418725,0.4536659444,0.3251086117,0.6305451841,0.468565102,0.5757776873,0.4641113925,0.2832153009,0.3564693833,0.2734153563,0.5495949702,0.5228622572,0.8217618722,0.1538646671,0.751141531,0.3341268208,0.3174034436,0.1638287576,-0.0873433451,0.4440467766,0.3153307728,0.5127518836,0.1557221145,0.5769316115,0.5195642002,0.0645240664,0.1323484809,0.0690842246,0.1826511262,0.4771892624,0.5247249032,0.4993392568,0.4367059375,0.5926326747,0.1907926978,0.6789295045,0.4063245747,0.1858762726,0.374513655,0.4854599271,0.7088746767,-0.039546716,0.5282505399,0.5862275663,0.7626180935,0.4463361537,0.2995228093,0.7955611658,0.4233345551,0.1617390592,0.5752857155,0.5877299308,0.2476127555,0.2788599199,0.1760562807,0.2212890174,0.7438941741,0.3973364246,0.2159089581,0.7836760017,0.2332455215,0.8556573542,0.0712991533,0.2774307844,0.6272684557,0.483850643,0.6753819808,0.3544493605,0.1381752682,0.0522397219,0.1175521315,0.0547458751,0.5888018021,0.2303235019,0.6132309418,0.2096329571,0.0673104942,0.2340923082,0.6822136999,0.4705930691,0.5152435392,0.3517105646,0.5653072347,0.5267420644,0.1566492485,0.2907556258,0.1729133165,0.6342936398,0.5588814994,0.5656358473,0.6269482876,0.389275234,0.2004612251,0.3717344346,0.1574006802,0.0950467622,0.347114951,0.3995584401,0.5789486281,0.6608923713,0.6533658362,0.6370205957,0.3780044917,0.3486962915,0.6974057034,0.2731630363,0.1391824862,0.4573461091,0.2157577085,0.4129540792,0.2843393127,0.4649680424,0.5947091462,0.2645060394,0.7125638518,0.13040742,0.0456408077,0.0613216747,0.2394184722,0.0480740142,0.5574196839,0.6877854228,0.1990414034,0.7185529142,0.1221931366,0.3923215754,0.4625704395,0.4278472531,0.3333610931,0.6844019607,0.0401498367,0.3638406862,0.158684373,0.2205175105,0.5432847473,0.0913944565,0.3817563193,0.1398038784,0.2613305661,0.6218317978,0.3016288473,0.1072385083,0.1175504933,0.5878408842,0.7084202329,0.1302405725,0.5109476687,0.0377783814,0.0655369526,0.727659672,0.3257550139,0.2478652151,0.6761290901,0.4678366507,0.6287968015,0.7010897197,0.0682873102,0.5587977552,0.2721113003,0.4607394842,0.2279351468,0.1717238227,0.3782126117,0.0876806369,0.1544612358,0.6420378248,0.0652868965,0.457479657,0.5102769956,0.3374526521,0.1499329473,0.4292296563,0.4209141695,0.4307780094,0.105001504,0.3859338112,0.0845048908,0.015633259,0.6534483394,0.6692621427,0.1110910922,0.11031698,0.1487907591,0.6800706609,0.3657381105,0.2742611317,0.6796276527,0.5846652515,0.076352706,0.3648750488,0.3865017133,0.1401488962,0.2556831711,0.0403978475,0.4805302139,0.4607969687,0.1426723944,0.2505387823,0.4711086169,0.2541171421,0.4068463697,0.1557097977,0.4987486122,0.6059017393,0.5158522053,0.6425541094,0.3813479488,0.4577624362,0.4996772184,0.252628661,0.4499932476,0.5551918318,0.1681367684,0.5392254105,0.2000861632,0.634316189,0.5483943699,0.6802895382,0.577568537,0.1075635168,0.345640149,0.3332172311,0.2643164881,0.5768934224,0.2932500638,0.3595346464,0.7335809715,0.2324053853,0.1564182958,0.4603887918,0.4472162247,0.0447298596,0.2487783549,0.7314864349,0.3253040325,0.2249405397,0.2010854902,0.6570894134,0.1576940977,0.2659223627,0.2362335968,0.1555913774,0.6251996047,0.0810473036,0.2702532876,0.0977995663,0.058568257,0.2293089061,0.4457477215,0.5546616286,0.0453042072,0.0450845025,0.1026255169,0.0786910391,0.4309441247,0.0789080395,0.5197342521,0.4859656046,0.3549082763,0.0812424109,0.3438344283,0.2098823052,0.2786617546,0.3719667272,0.2389482759,0.5072738705,-0.2913387035,7.6188661031,0.3816351178,0.2246983471,-0.2600603176,0.0250621941,-0.287850986,0.6749107065,0.3208315987,-0.2433583532,-0.2144229198,-0.5614587228,0.4051049033,0.1803687073,-0.2279324817,0.1921527628,-0.1869134963,0.1197461094,-0.1592738197,-0.2978120688,0.3849959094,-0.3254781559,0.1202787971,-0.0661698196,0.2530661198,0.5964943742,0.1392593412,0.2215015362,0.1433018636,0.5202585797,-0.2828227543,-0.3089230663,0.2819564547,-0.1456833641,0.4499291355,0.709475812,0.583156951,0.1837288739,-0.4572279339,-0.1644504903,0.293220856,0.3142300502,0.2573555932,0.3680159656,0.0657888605,0.2957359719,0.0682415618,-0.0383920844,0.121207484,0.2138179549,0.2067386854,0.0944104431,-0.2930791839,-0.2973829681,0.1301772601,0.190184596,0.1174138408,0.6109444035,0.3966673165,0.6221630134,0.363378938,0.26221899,0.165240824,-0.2408543932,0.0188948605,-0.0581313455,-0.3549306357,-0.2562940406,-0.2363327978,0.3116753633,0.0461068348,1.0598777332,1.2686398268,0.058472003,0.7081901815,-0.0383998181,-0.4567059917,0.1745815134,0.5258330069,0.0606619372,0.1111844336,-0.0100247068,0.2172442135,-3.4226960767,0.22839686,0.3559525631,0.1731705941,0.0903398615,1.4895209422,-0.0943441791,0.4287674618,0.3853529883,0.3326295399,0.0603514952,0.6751472096,-0.1034748721,0.2212120332,0.8111645911,0.0420231121,0.5699304098,0.5173211686,-0.1494366032,5.8317260346,0.2909583515,0.0212092468,0.0808344674,0.023609825,0.0160690909,-0.7401080865,-0.0556879349,0.1748648131,-0.0992451119,-5.6398432765,0.5366707529,-0.3892249934,0.0481392211,-0.1045326414,0.2439926927,-0.1614982348,11.6254797151,-0.1842029347,-0.0062133352,0.1845669914,-0.2976331243,0.0188017793,0.1602480172,0.5339909697,-0.2116499575,-0.2357628345,0.2939444593,-0.4386168151,-0.0995078989,-0.289738802,-0.0291972226,2.1162462935,-0.1727070879,-0.2783664264,0.0197342009,0.455108955,0.0308506762,0.1436203037,0.0007422089,-0.2574248289,-0.2930005062,-0.0083665127,0.3318772945,-1.5776743079,-0.0815894038,0.3462903182,-0.0114529065,0.3191778238,0.299389434,-0.0207034063,0.2870642286,0.3073924072,0.2758219703,-0.2187784885,0.114747564,-0.2378446106,-0.152887041,0.2561809459,-0.2440952898,0.4479245116,0.0993155538,0.4132047916,0.1371018779,0.0241561615,-0.0716360415,-0.2911751184,0.1301303148,0.0224660481,0.060649412,-0.1254759007,0.1871269628,0.2908007186,-0.28111466,-0.1409072245,0.3714922644,0.0000108444,0.2816324121,-0.0924214188,0.0722678844,0.3634359373,0.1521774706,-0.2100102758,-0.2683786254,0.4263151918,-0.0048286495,0.5307335345,0.1392674779,0.1807543776,0.3593302267,0.2165669876,0.643140272,0.2637704352,0.1956787258,-0.1890347938,0.0338596236,-0.0154003793,0.5711537014,0.2103910223,0.2682218479,-0.2193306215,0.1754137206,0.1730051891,-0.3552548215,-0.3690111444,0.0599323225,-0.3159013075,-0.334177775,0.5499927819,0.4759627738,0.1138022858,0.1854238901,0.2173106353,0.1977101046,0.1628182078,0.2862462808,0.5207456632,0.4681159675,0.7062813928,0.1986495535,0.3777582456,0.6425431356,0.4235897271,0.5496270501,0.4960045708,0.6592837358,0.4147938649,0.529174378,0.3670518326,-0.22150653,0.2588616973,0.1894012007,0.0883569049,-0.3273187382,0.118840542,0.2859621957,-0.0698263079,-0.1795322537,-0.5082894518,-0.1848968807,-0.2512480968,0.2204974562,0.2812946625,0.0400811223,-0.1716271955,0.0577630795,-0.1650698139,0.0990010073,-0.1029941136,-0.4012518845,-0.4444876561,-0.3464705059,0.2466720373,0.1268833991,-0.3294897325,0.5838974784,0.4930831059,0.0546707231,0.0944097215,0.3100707432,-0.3926612655,0.2536310137,-0.1340824775,0.2783944249,-0.2875407345,-0.2670960384,-0.3624018232,0.2287551395,0.1215683546,0.1941575179,0.5384017709,-0.3049041478,0.0724965158,0.1933031229,0.2061856137,-0.1205277841,-0.1460677196,0.3666791239,-0.2857048278,0.0794729369,-0.1288623626,-0.3101485501,0.1975701976,0.131179041,-0.1785069679,-0.3220295817,0.1711053914,-0.2220550569,-0.3155718758,0.6265213337,0.246031229,-0.2688573277,-0.0656247031,0.1548216048,0.1130626131,0.2341817438,0.1901129888,-0.643626916,0.0844820955,-0.166084427,0.3292024669,0.3226438735,-0.2229058704,0.20008211,0.0990592703,0.4983274139,-0.0547608587,0.3166970007,-0.280266857,-0.1348608169,0.1784990306,0.1166443687,-0.306581622,0.0725147991,0.1309180339,0.1193533658,0.3080114996,-0.1308377019,-0.1182932583,0.3945281135,0.0178485898,-0.1909562037,-0.1134039326,0.274788537,0.2851596253,0.2433321401,0.2514020666,0.3004539856,-0.0590447722,0.3988657527,-0.1291082562,-0.0566920018,-0.0707510839,0.1584411627,0.0878306568,0.3567921183,-0.1671746438,0.5663322586,-0.4179095805,-0.2673840387,0.2742311205,0.5839923829,0.0104311732,0.4879496003,0.343425943,-0.0876763889,0.5430617236,0.253551727,-0.1086194835,0.340726982,-0.1824987015,0.4297062621,0.3778569403,0.5831659467,-0.3275637333,-0.1507122416,-0.0327431241,-0.1957436688,0.214936148,0.223071509,0.3747908991,0.1220875974,-0.1232108722,-0.2961929071,0.0707433979,-0.0813554084,0.1485749446,0.0146818524,0.2517239707,0.2201966845,-0.2637092891,0.4545437006,-0.0666654875,-0.1675756101,0.5608387082,0.4373384533,0.0590936017,0.4541594217,0.1651464338,0.2351457446,-0.0195335169,0.1325786347,0.0711322718,0.3399349773,0.0687518274,0.2178682761,0.1117759012,0.2784931373,0.7643171502,0.8377412584,0.5974143445,0.4994301971,-0.3143261516,-0.3774199436,0.2019755064,0.0156676719,0.5897131277,0.002800887,-0.1944265797,0.061843697,-0.2833697774,-0.2280708572,-0.0680679862,-0.2589391866,-0.0221208272,0.0353742882,0.28115098,0.7477316689,-0.0914652096,0.0293056318,-0.028829182,0.7473795367,-0.3397123355,0.1817403187,0.2616178501,0.6343149496,0.4520134835,-0.1750359123,0.1348964522,0.0954713754,-0.0286087854,-0.2717670408,0.3328195292,0.0091171944,0.283162558,-0.1287440889,-0.4650200478,0.1618772052,0.1563142347,-0.2802635069,0.2488482917,-0.3373384418,-0.1493443333,0.1931611074,-0.0274815106,0.2459271518,1.1768921219,0.0826051775,0.2602501163,0.1667246337,0.1822526902,0.0502345972,0.0648594415,-0.0395909512,-0.1791455711,-0.1441167339,-0.0480625563,-0.1602150832,-0.1782928923,-0.0418492012,0.2916671806,0.1257108234,-0.0123227118,0.2278530875,0.2697152179,0.4159417504,0.0778482425,0.121681822,-0.0833666234,0.1427625737,0.3742197036,0.0479275238,0.1318001748,-0.0423923455,-0.0720389681,0.2862037055,-0.2099835073,0.2092027403,-0.1096205141,0.3773191483,0.2614117662,-0.1236531292,0.0317724332,-0.0209547131,-0.3583223078,-0.1081327779,-0.2178380471,0.5291816807,0.0495404463,0.250116157,0.0028238956,0.1252194317,0.3217706113,-0.2543152933,-0.2875151619,0.2074046768,-0.101166318,0.5935020768,0.3188569867,-0.0567457702,0.1106662817,-0.2782446195,-0.1142112933,0.2049701199,0.0848761734,0.3299501115,0.3609594672,0.3531253546,0.1466127059,0.3744072097,-0.04115379,0.1462236797,-0.2867474747,0.4992880977,0.2017931991,0.25154881,0.2270758579,0.0364073709,0.0318170017,0.6335917914,0.5350967199,0.678519409,-0.1101307442,0.0863364617,-0.0154488401,-0.3065677848,0.3427174373,0.2880753084,0.1121756851,-0.3635942859,-0.0789328414,0.3458078278,-0.1964057093,-0.1988259348,0.0894744134,-0.2861949251,-0.0384221454,0.3788900204,0.5720457539,0.544421825,0.2913100415,0.1433765177,0.2310413226,0.2868205054,0.0790763619,0.598322027,0.4414438612,0.1558746342,0.5029942905,0.2850750126,0.7089785635,0.051750724,0.2377048443,0.315739382,0.5104254774,0.0200069051,0.2665482321,0.617264741,-0.2973240265,0.6116891815,-0.19497679,0.1598254486,-0.2731421896,0.599079931,0.0187570733,0.0603559396,-0.1597384878,-0.1541242931,-0.0381539357,0.2454782554,-0.0341030138,-0.1392848642,0.0344110799,0.028314373,-0.0561470127,0.1993257179,-0.18893068,0.145596303,-0.3982789246,-0.2998932309,-0.2311174653,-0.3279804968,-0.1368707312,-0.2040803297,0.3868281051,0.6333353956,0.0923841601,0.0178948452,-0.1195867735,-0.0913168616,0.1157887072,0.3420313419,0.2553400391,0.0884215478,-0.0341049085,0.1200081811,0.0701787731,0.1200929471,-0.3159178123,0.0678134815,0.3693323242,0.2488335989,0.1538870061,0.3356344547,-0.0356212854,0.2222390413,0.2329860499,-0.0020938106,0.4916831377,-0.1008070668,-0.0366318852,-0.0526656395,-0.1955446829,-0.2084961722,0.1738060747,-0.0148288197,-0.0341032237,0.2505293077,0.6685134656,0.5675004671,0.1744570357,-0.2024167743,0.1663749954,-0.2350251692,-0.1114754832,-0.2663738608,0.1877963497,0.0484042611,0.0972551677,0.6257052651,0.2519219772,0.1619878304,-0.1710287893,0.1441619257,0.1186863125,0.1615916164,-0.252710996,-0.1679621815,-0.1732630173,-0.0394933116,-0.1066311056,-0.7887286426,-0.1556571055,-0.2864437589,0.5057198004,0.1820511555,0.3335144648,0.2121959825,0.3582481761,0.0048473675,-0.2178429928,-0.2877866233,-0.3146545662,0.2570359234,-0.2501472562,-0.2373251852,0.2795883129,0.0671980477,0.6435874751,-0.277537066,0.3581729461,-0.1887719213,-0.2889648906,-0.1394991552,-0.0860144097,0.3600129255,0.6297457436,-0.3069611013,-0.5749396003,-0.0731075699,0.354128903,-0.320362823,0.0547086554,0.0597999752,-0.0098407123,0.0515064124,-0.1587726704,0.1405180003,0.2463591858,-0.2827015018,0.1778459659,0.4415757974,0.6424546886,0.111383308,-0.6198728481,0.1135829911,0.1660556787,-0.091643105,0.3209449265,-0.2356572252,0.1245576669,0.3218820564,-0.1747572152,-0.2225114069,-0.1800004172,0.0357215581,0.0430395717,0.2746000621,-0.1756889277,-0.1096104769,0.4425700352,-0.3504459285,-0.2882341781,0.4042043384,0.5270428461,0.1094962055,0.4495133187,0.0784945455,0.2350411496,-0.2048453178,-0.1952670666,-0.489935108,-0.3001341472,-0.0654575157,-0.1561865851,0.3253977124,0.0070776108,0.9946746367,0.109361377,0.6126269819,0.6242512737,-0.3919754652,-0.3691941395,0.0655791549,0.4161139632,0.3886274626,0.2583295316,-0.0982355235,-0.1481666922,-0.0725430466,-0.0095478946,0.1306784016,-0.1940352887,0.1980605046,-0.0245355013,-0.1373400309,0.3755544202,-0.1305234756,-0.0195396497,-0.1325286609,0.3776049705,-0.3114679338,-1.2493122714,-0.4357807761,0.4815304255,0.6998103933,0.0961993667,0.0422886106,-4.1422551029,-0.25859989,0.3429776575,0.1518611984,0.2223580301,0.2398305899,-0.1389577079,-0.1191337085,0.2375267418,0.1863606295,-0.680488547,0.4461555862,-0.3318335545,-0.2291883142,0.1074755348,0.1556354592,-0.1072265512,0.1666343718,-0.3561394801,0.2906221251,0.0846800238,0.1806965491,0.3440957503,0.2797139607,-0.0444259269,0.2302699805,0.0245565787,0.2101776707,-0.0005362212,0.0567125584,0.2787585725,1.2240762358,-0.0304366576,-0.0217984548,0.1631109359,0.3441002385,0.096335104,-0.1767409064,-0.1983460081,0.1735652826,0.0478501184,-0.0961679745,0.198898656,0.16744403,0.0925450667,-0.075158523,0.3573076884,0.3787422256,0.0380899309,-0.2597689613,0.3162009668,0.0886538727,-0.0329084495,-0.2799110217,-1.258253208,-1.1212820881,-0.1327918826,-0.1187838181,0.6825266895,-1.0371134891,0.2065469939,0.0908693019,0.5196658492,0.5943577308,0.054830847,0.300617491,-0.1359854395,-0.1880534933,0.3434268162,-0.2074018551,0.1636230627,-0.0780621275,0.115240413,0.3544970119,-0.3259724746,0.0476443394,0.169661601,-0.052667069,-0.2410389172,0.1271910259,0.0410880237,0.0420032108,0.200078526,0.1866403393,0.3702874097,-0.2918255114,0.1947471815,0.3087268733,0.4782561937,0.1822102512,0.4663297436,0.1211068458,0.1457681821,-0.1101106854,-0.0312652575,0.3730425053,0.2982980336,0.2491103962,0.2049423671,0.2421041679,0.2509064343,-0.198122414,0.1933783537,-0.0430864349,-0.1958175564,0.1436277736,0.3551055527,-0.3109154203,0.5115621113,0.2204718248,0.2587913396,0.1468423005,0.2745756223,0.0588710335,0.0417983469,0.1979489137,0.2282477934,0.6040432752,0.4018440946,0.0392193829,0.4375965952,0.3919043252,0.0631767321,0.0430315002,0.6721373178,0.3298417413,0.4189490772,0.3816583846,0.1798631425,0.1171498488,0.3028244852,0.1810164625,-0.225692084,-0.1790640987,0.6947854949,0.2367868139,-0.1036626186,0.0075333541,-0.0235228249,-0.1928318443,-0.0387360775,0.263614671,-0.3074097523,-0.2992197554,0.3584433874,0.0910662257,-0.2957081791,0.3156615304,-0.2748061361,-0.2799002493,0.2498120311,-0.1750438189,-0.2124125826,-0.3708833305,-0.3357769394,0.0240315659,0.1724395359,0.2425570331,0.192704602,-0.1580692638,0.1587681026,0.0486985069,-0.1861605767,0.1617933531,0.0319700394,0.1852440677,0.1756008228,0.3042883905,-0.2812710526,-0.0878852956,0.3490825429,0.2327579127,0.0205288285,0.3646248576,-0.26750478,0.1873579396,-0.2745698241,0.2362423649,-0.1621749037,0.4591341317
   0.2909195978,0.2490919324,0.0431606072,-0.196415689,0.0005865315,0.1282202586,0.1985638814,0.2799802429,0.0434205834,0.0008358929,0.5269883938,0.1518665548,0.2760887382,0.092928086,0.1433952835,0.30163902,-0.0637651368,0.3564062601,-0.199872813,0.1802592145,0.5278716643,-0.3136771117,-0.0659945225,-0.0588360172,-0.1805238185,0.3425769755,-0.0410841628,0.0874972763,0.379961365,0.09544189,-0.0063777092,-0.259903596,-0.6489955785,-0.0515813816,0.1593839297,0.0067479962,0.2046585491,0.4017068957,0.2805173521,-0.1393754101,0.0169416419,0.4457868262,0.3198486629,0.5933197403,0.0110836905,0.1522788206,-0.0973929814,0.199772695,0.0868715772,0.2011594731,-0.053993898,0.1309807623,0.2481611413,0.5103784914,0.4760997972,0.1750777781,0.4007543908,0.3300253908,0.328810485,0.5985223207,0.213399093,0.2747700908,0.518955024,0.2501718431,0.2776662136,0.6326096579,0.0190151353,0.5201012801,0.1547609837,0.1028714743,0.6200118108,0.5914640145,0.0122164509,0.0397040818,0.0211380725,0.4875443421,0.1071778321,0.074994372,0.228261284,0.6182938522,0.1215862502,0.3346616667,0.1985874504,0.0735740094,-0.0067134723,0.3360774954,0.1544128364,0.1190855183,0.0484240844,0.1367213213,0.5751408695,0.6376884843,0.0240388019,0.0330759162,0.2653026827,0.3875973598,0.1982855185,0.1208556743,0.0627805354,0.5042092764,0.3567872037,0.0123148491,0.351608624,0.3698101041,0.4111656479,0.0680372568,0.5074423343,0.5624687665,-0.179847513,0.3229568348,0.4353715855,0.6716193673,0.3546147411,0.1287374048,0.0226860357,0.0699936318,0.0231530302,0.1282872711,-0.108728399,0.2553512941,0.3409725274,0.4191710941,0.4048809763,0.5806019587,0.5241662433,0.4516805088,0.0494480418,-0.0274189439,0.5275392958,0.0248935495,-0.0553163529,0.2850203855,0.2575169219,0.1453258937,-0.0192630215,0.0619293363,0.5197357182,0.7295563426,0.2551525896,0.1656112436,0.4533909724,0.3698365815,0.267734072,0.180191601,0.0425056359,0.0754133221,0.3760907077,-0.1791680492,0.4118102258,0.2612642037,0.2917369693,0.6941598842,0.034826667,0.0699644555,0.3759493732,0.1383430306,0.2903266175,0.2754268729,0.5368146882,0.1144534284,0.6646049068,0.182798703,0.5547794412,0.3003351976,0.3452142856,0.2075535679,0.4070137608,0.4892886298,0.4550580166,0.4069682138,0.5612244622,0.1771297874,0.2912197486,0.2068215415,0.3473373617,0.4589239649,0.4125996993,0.5760939265,0.2420906896,0.1031026206,-0.0257787147,0.5036430212,0.452730923,0.2224337545,0.103678417,0.3512409084,0.2201666315,0.6223073349,0.4920610484,0.1847582675,0.3575632812,0.2281823065,0.1163942444,0.2914669608,0.5997971382,0.3921953948,0.5066326058,0.3797213924,-0.0366849805,0.0146388777,0.36007567,0.3309174457,0.5705931773,0.2549120194,0.4335266716,0.2908670703,0.1434203027,0.0956871158,0.0969290432,0.0719227511,0.5192024274,0.4109027706,0.2784986032,-0.0624948593,0.2642005394,0.5312984897,0.5307486937,0.0285286211,-0.0227366271,0.3481207393,0.2348328086,-0.0516640225,0.5544163052,0.0572909664,0.5823621512,0.4800441661,0.0857370506,0.4612244301,0.3771276674,0.0611474135,0.3202235074,0.1278706509,0.6076643985,0.4740482799,0.4270892446,0.3134767478,0.3842930185,0.1710188345,0.3058450412,0.0187577123,0.0475190629,0.6002127328,0.1722115651,0.3470232959,0.4124994134,0.1048655362,0.459852218,0.6144287604,0.3694618756,0.1688165206,0.5157668628,0.6908470145,0.4244195554,0.6629388325,0.6590272257,0.313269911,0.5237259747,0.2235680792,0.5330316465,0.0745379225,0.2701872165,0.268449602,0.0876344274,0.404232604,0.5950109963,0.690721513,0.3371590741,0.2984563663,0.2957052248,0.0066107358,0.063543446,0.1932758705,0.2167346289,0.0453979816,0.5312957987,0.3762424064,-0.0513143494,0.1201642703,0.305017469,0.3711405255,0.0745919122,0.0223715071,0.2878227662,0.5643590077,0.5762420281,0.2915475097,0.5921693705,0.3267925502,0.4465964204,0.0071848374,0.3753702555,0.0669998311,0.118950573,0.1696458141,0.087761854,0.2485460597,0.4653436984,0.4371367674,0.6144033525,0.5024489888,-0.0299416202,0.3894012376,0.2248600469,0.295395715,0.1866827836,0.2660031118,0.1003774916,0.4525577779,0.1106604052,0.1121496763,0.493935964,-0.018103448,0.2292464199,0.2568465065,0.6144865801,0.4296251468,0.0543336485,0.3127610007,0.2699312868,0.127025947,0.282875016,0.6170955126,0.1860833351,0.4170197576,-0.0014552708,0.2002394875,0.3960172249,0.4924901127,0.3442741777,0.2525216428,0.3399774744,0.6191061148,0.0289031259,0.5433401004,0.4366091635,-0.0670293208,-0.0460434098,0.2217044255,0.6276298749,0.1725047429,0.0032537195,0.163279896,0.5677303917,0.0844633141,0.311972613,0.0339076845,0.0754260338,0.5290864889,0.1887342183,0.5960263526,0.1410314925,0.3340083294,-0.7656351793,-0.7123404346,0.615328803,0.7057346102,-1.6125709808,-0.3346259046,-10.648318381,-0.7298345127,-2.6353497437,-1.5732138626,-0.6846810325,0.3586304629,-2.6357631196,-2.2530542911,-1.0363209455,-2.0282302616,-3.3644502777,-2.2998596073,-2.0223136459,-2.3017277842,0.9955902447,-2.3893754169,-1.0430002278,-1.0213762956,0.6255735381,-0.6414043409,-0.8525292304,-0.8162399494,0.3801425401,-0.9125493994,0.1977092638,-1.2028156822,-0.3336647526,0.1293282296,-1.0043647246,-0.6861146195,0.1437315913,-1.167344928,0.4564698501,0.3018574742,0.3404213128,-0.9468516113,-0.8672857134,-1.1765267136,-1.1876527613,-0.9283555665,-0.6511253688,-1.2390760626,-0.8168802051,-1.2015623641,-1.1145291074,-0.8730437955,-0.8357959813,-0.7115080351,-0.7681470084,-0.520106734,-0.715284268,-0.922202164,0.5960387801,-0.3199313408,-1.4686811802,0.6449548269,0.2118864354,0.0103374175,0.4825167805,-0.4493095217,-1.25981321,-0.7482510748,-0.6138915366,-0.634971996,-0.7674419648,-1.0685421005,-1.1397211127,-0.718270811,-1.0359840626,-23.1128861809,-17.662802526,0.2083882276,0.4641743574,-0.6087237553,-0.3686000634,0.34833037,0.1137046392,0.0490850728,-0.4457551049,-1.8098505558,0.6343455637,0.749335602,-1.3053192831,-1.0229840594,-1.0752336034,-5.9781641838,1.5193383279,-0.848716943,-14.790780815,2.8401887846,-1.0959000868,-0.8057650685,-11.3558393918,-0.7133981575,-0.473047112,-0.489282748,0.6496321437,0.2695468742,0.1096941523,-1.0214993535,-0.2584043943,-0.8135461564,-1.9711876523,-1.9492750663,-1.7643818326,-0.8341514583,-0.9264290693,-0.4367074563,-16.6818584667,-1.2828283678,-0.6297407813,0.4538829086,2.0717986613,-0.7144868197,-0.4952154275,-1.1523289728,-3.6159404128,-4.5467749801,-1.2534961992,-1.1403510979,-1.9216391071,-0.6363972655,-1.8037219714,-1.1723749439,-3.4621021016,-3.4774067078,-0.7354889476,-3.2384145895,-0.6185409112,-0.679975944,-0.7937379015,-1.789250968,-2.039576685,-1.1167848098,-2.5450230213,-1.7004287582,-6.4856795613,-4.2561566983,-2.3489136578,-2.2680937878,-1.7766961461,-0.7169317264,-1.579066838,-1.8923739441,-0.3403676,-1.6519557204,-2.6794492808,-0.8670516602,-0.6442293859,-0.8019570199,-1.6321115531,-2.1880695872,1.7657339801,-1.1932334095,-1.1409747141,-0.5197306743,-0.7769835235,-0.7156318467,0.5424884872,-1.1861049771,0.3194792761,-1.1065828167,0.516097736,0.6049013384,-1.0035742201,-0.9571861063,-0.9107725537,-1.1409601752,0.4826624007,-0.839979456,-0.697442486,-0.6456499716,-1.1991711877,-1.1453099612,-0.8191416927,-1.1172816698,-0.846995172,-1.1637621416,-1.0358934885,-0.7372864773,-0.9239301309,-0.939420884,-0.5912717782,-1.1476339926,0.3483324381,-1.2218542637,0.6295617342,0.2836350087,0.0969966264,-0.9111840621,0.1059890816,0.3535848831,0.0184461356,-0.9393733757,-0.9412127354,-1.053728628,-0.6349220447,0.3082239141,0.5319516028,0.6688889287,-0.7375185962,-0.8056020006,-0.9993247515,-1.0563708045,-0.6238023966,-0.8961219838,-0.9616465068,-1.0332432113,0.5874390957,0.273182796,0.4981399455,0.5243567306,0.0653090337,0.019018455,0.1440572149,0.5977140842,0.6987912611,0.3242556802,0.2678900717,0.184766119,0.5450760863,0.664723414,0.2536522156,0.2058756829,0.4621821004,0.0571155008,0.515580071,0.0360298898,0.4746380624,-1.0960299773,0.3155149247,-1.0277865134,-1.0768084993,-1.1996682983,0.5492841683,-1.291434966,-0.9181619991,-0.7886597484,-0.9540119344,-0.9015074698,-0.7216127157,-1.1445183059,-1.149281851,-0.5751020086,-0.597312703,-0.6183551454,-0.9475963996,-0.7898883879,-1.1728259785,-0.9222647884,-0.9532514969,-0.6924370362,-1.0034175088,-0.4682035473,-0.4740409085,0.6684392792,0.4851995832,0.6772290684,0.4617904684,-0.591711374,-0.7915031661,-0.5002427762,-0.7195948519,-0.7721428475,-0.6206975906,-0.5094621108,-1.1582826272,-0.9758883462,-0.7474793267,-1.1232732006,0.4253958988,-0.9368090526,-0.6906739191,-0.7403616025,-0.9708442471,-0.7787140097,-1.3185040897,-1.2291239557,-0.7903020739,0.4913710152,-1.168940052,-1.0326033871,-1.2341411853,-1.1845047411,-1.0663904922,-0.5871420658,-1.0856169984,-0.5228500803,-0.7705403733,0.2888923312,0.0900598801,-1.2280954235,-0.9357575853,-0.8068293507,-1.1069666445,-0.7123633648,-1.14521413,-0.9689886012,-0.9922275448,-0.6382611615,0.7066379066,-1.0359290083,-0.8223544566,-0.6370627202,-1.1606316301,0.387050473,-0.7564036118,-0.9106739066,-0.8433574516,-1.2813183197,-1.1422404597,-1.223238259,-1.9047594685,-0.0119388381,-0.0301558011,0.1320925853,0.5559170619,-0.1184729411,0.0071960823,0.5214109327,-0.3024026528,0.4366168594,0.0186082211,0.3447670185,0.0708405433,0.2969251247,-0.107876751,-0.0570335928,0.2569169178,0.3383367935,-0.112112355,0.3357135772,0.4012880539,-0.181424001,0.2774221237,-0.3465058981,0.793771442,0.304071619,-0.3809883363,-1.6685897615,-0.0914505044,0.6772251017,0.1775480542,0.4572190379,-0.0354516988,-0.3197245375,0.5436855015,0.0469863046,-0.1584735661,0.4293143446,0.2494248117,0.5938375606,0.2979850108,0.1944412623,-0.0068470532,5.0426508265,-0.1382720726,0.340062453,0.1637765756,0.0480240304,-0.2366585896,0.1752460475,-0.0443606135,-0.2279688485,0.013038509,0.0851131826,-0.208690441,-0.2125264524,-0.162193147,-0.1445482018,-0.0969622746,0.4811067576,0.1840961713,0.1671262651,0.5622995933,0.692002204,0.5986058345,0.3528918272,-0.667956187,0.0636277309,-0.3138825454,-0.093216068,-0.1665533383,0.0200850187,0.2060203909,-0.0949845158,-0.1385918322,-0.103445297,0.7570307547,0.4956107865,0.5051924277,0.0351597532,-0.1439688745,-0.2651106803,0.6010374434,0.3072430807,0.0023095074,0.0304204955,1.2232381378,-1.3767117917,-0.0578222806,0.1349170598,-0.2619019835,0.0572017174,0.4036839541,-0.0989220761,0.1023541986,0.7345220497,-0.2232198341,0.175295088,-0.2402267781,0.4042434665,-0.5274847549,-5.9380932023,-0.2852628714,0.6999293312,0.2952317591,-0.3751487368,0.1229082703,-0.5062992456,-0.3334520131,0.4073534096,0.1297131517,-0.0360032217,0.3384377581,0.1456244215,-0.3048250782,0.2469115331,0.0305222229,-0.2836578393,0.3257400665,-0.3231605681,-0.2966935328,-0.2764386107,-0.313644436,0.2664500625,0.0752299292,-0.1800309686,-0.2208424798,-0.2731646174,-0.2887326279,0.0108657929,0.0736465505,0.5009922699,0.0714272855,0.3158601179,0.2669109503,-0.1216094535,-0.0007951168,0.3133935389,0.5906866654,0.3929571784,-0.194797211,0.0392018222,-0.0382090208,0.3671452695,0.1109174956,-0.2386896001,-0.1716010282,-0.1972927012,0.2368400995,-0.0350311523,0.1696805875,0.2199990124,-0.1841934125,0.3752843291,-0.0034000211,0.3033677943,-0.0441964953,-0.1047753824,-0.0267339492,0.3439193906,0.3839587164,-0.2780267151,0.245861973,0.2991541112,-0.0532597992,0.2349544425,0.2697337574,0.5807392555,0.0109361716,0.2864556608,0.1096476724,0.1661582367,0.1419021856,0.2379463173,0.1977227146,0.6071798727,-0.3040259147,0.229198755,-0.1445250693,-0.070797738,0.0828674676,0.0218648381,-0.211257743,0.1218487258,0.1280005561,-0.2422946379,-0.3091113859,-0.1153091824,0.0827207016,-0.2347168075,-0.2361204751,0.1072612025,0.3384194088,0.1661156655,0.0633028266,0.0876102367,-0.2517849551,0.3036877833,0.3747486437,0.3350040733,0.2107129745,-0.1137572178,0.3152579891,0.3317232652,0.3864146188,0.2617884201,0.4196168156,0.1430008878,0.1870114421,0.2472969862,0.142692574,-0.1887558935,0.1407711962,0.321520364,-0.0440710869,0.398134333,0.2371071526,0.1402772421,0.5357517005,0.3212591449,0.3684226889,0.3596098531,0.3066267887,0.4474664406,0.5929715395,0.0556993694,0.5796330173,0.3529011753,0.3728873852,0.6325225845,0.7105176822,0.079551458,0.2577237372,0.019385504,0.0230757833,0.2859832897,-0.0472991356,0.628097912,0.1343228034,0.0754893034,-0.0687564974,0.1357565134,-0.2021124861,0.0035079539,0.0509353696,-0.2287863023,-0.1648285874,-0.0466434077,-0.0428531404,0.2479636978,-0.2929535794,0.0973560899,0.292339603,-0.0277890086,0.1208495349,-0.3084147723,-0.091788193,-0.1714690462,0.2423956973,0.1681341279,-0.2093054872,-0.0161575607,0.0872889641,0.5690931018,0.0652638078,0.7083827007,0.2734469383,0.034069186,0.2568608937,0.282569576,-0.3953748275,-0.3118264055,-0.3925340119,-0.2196029018,0.2266896956,0.0868911259,-0.0841785444,0.6243464375,-0.2407243241,0.2055970442,-0.0210590078,-0.002982217,-0.0425254093,0.1504808175,-0.3154486801,-0.2343504919,0.1693832734,-0.2554494589,-0.2477548189,-0.0174202933,0.3011491858,-0.2688297513,-0.2697609199,-0.0931685448,-0.1398028101,-0.3640329735,0.6081086039,0.7015643775,-0.0220852446,0.1333857729,-0.1521656068,0.0661354722,-0.0029677061,-0.2906799643,-0.2879081963,0.305805374,-0.2806499988,0.1172592086,0.2055445429,-0.1051825474,-0.0124661614,0.3080774179,0.580770374,0.2626316534,-0.0429607385,-0.1011689165,0.1187642709,0.345757732,-0.0026879103,-1.0398100169,0.1996821372,0.9821352739,0.0424341313,0.2495169882,0.0987353082,0.1123854864,0.4505802449,-0.2981313599,-0.1822984905,0.0682323289,-0.2502503917,0.1200314381,0.1707778913,0.2491607582,0.3175926634,-0.2555041995,0.4679702755,-0.0372428153,-0.1442396685,0.0361472157,-0.0715092028,0.0866883947,-0.3147685857,0.21352374,0.3211123426,-0.0767724372,-0.0546753236,0.1279970952,0.1959463915,-0.2876796143,0.0601273325,0.2309254102,0.33834822,0.1087841041,0.2846782585,-0.040167157,0.1210895347,0.2249065462,0.4705608202,0.1840943243,0.1265563121,-0.0970117579,-0.5407666321,0.0916645918,0.045570013,0.1633659216,-0.0289051674,0.0660885592,0.0353104317,0.0340502797,-0.1893863649,-0.1937339388,0.0162283395,0.2155713909,-0.0105315194,-0.3121794597,0.2746128691,0.2409826569,0.6503765386,-0.1473491307,0.3555727266,0.2379429032,0.4092122683,0.0389431657,0.6912733043,-0.9343870382,0.2195430586,-0.0093607848,-0.1964383576,-0.033538679,0.3703933524,0.2251064214,-0.0766231121,-0.0580268561,0.3023016948,1.1874250534,2.1546680867,0.7099238108,0.5125381544,-2.3924125791,0.041747261,0.3965510627,0.4301010814,0.4775344235,0.2809043183,-1.2993354954,-0.5811032181,-0.2301272988,0.2722085852,0.0789655303,0.0029048334,-0.5775803334,-0.2383042046,0.1072607182,0.4536816582,-0.2148583119,-0.2705639756,-0.1796841812,0.5142969268,0.6927415997,-0.2920563218,-0.2831578981,0.112043632,0.5723060165,-0.3685820712,0.0892683492,0.6534136049,-0.1296341268,0.3699620297,-0.1960715216,0.3722655512,-0.0362081414,0.0249458286,0.0465101815,-0.0117862804,0.3718930294,-0.6208877847,0.0843249429,-0.1424869716,0.3428335543,0.2938966521,0.2535136789,-0.1945063944,-0.1048473725,0.0355018113,0.0272310153,0.2830340439,0.193366821,0.1724467551,-0.0646641357,0.2158395133,-0.0053416911,-0.0329054817,-0.695355206,-0.1703601014,-0.0673569508,0.1290976449,0.6124851027,-1.8093788666,-0.164631138,0.0183373426,-0.1362376143,0.4735767206,0.4468290021,0.2167235558,-0.1901992541,0.1464986911,0.0881933656,0.1233497315,-0.0717446878,-2.4367918713,0.1251790048,-0.2469220504,0.0320320223,0.175081297,-0.2760437642,-0.0844466874,0.4197403136,-0.4163659791,-0.0227822907,-0.9978733814,-1.2768880677,-0.3199865934,0.0684946336,0.0281099321,-1.1886845222,0.4696529757,-0.1457477645,0.5744189704,0.3025764542,-0.1066236232,0.1869335358,0.1307442649,-0.1450573565,0.3099031293,-0.3318500518,-0.1738020016,0.160081317,0.2299513169,0.0103502555,-0.0959659324,-0.2989286979,-0.2571804835,0.2854590036,0.3488426431,0.1146052986,0.0823302428,0.2793050547,0.2109304255,0.1037386815,0.4965817916,-0.2550369572,0.5524565394,0.4799840732,0.1854696658,-0.0420258888,0.5063110812,0.3849053617,0.7111284892,-0.0941590936,-0.1859928996,-0.237287332,-0.2394660262,0.5654049339,0.3028408631,0.6646394158,-0.1575143004,0.1942637977,0.2277729794,0.2564889137,0.3132634229,0.0011345301,0.1718591952,0.1896189026,0.4153932837,0.4642191048,0.366398182,0.508210429,0.1525104938,0.6457884989,0.5692867049,0.5985431591,0.6940359331,0.3556148761,0.3844478288,0.2897382762,0.4078704611,0.1983200705,0.1094032167,0.1825653883,0.1844651615,0.5294075279,0.0074305836,0.6653712979,0.2142342959,0.3276829348,0.1768450928,0.0572281275,0.1606286476,0.1381756801,0.2098930962,0.3361138314,-0.266942689,-0.1108230544,0.1228536474,-0.2525973578,0.0202282972,-0.1696192273,0.2486278946,0.8372883589,0.0283005454,0.2583933898,-0.3092630704,0.1735902293,0.2664810321,0.1988414784,0.2586150382,-0.1248551492,0.2752849162,-0.2978519958,-0.4214009343,0.6133815257,0.363870776,0.0703292641,0.426583837,-0.1922792865,0.0108193168,-0.0702813398,-0.2761053784,0.1058126195,0.2519784834,-0.2686045589,-0.1344326952,-0.2291194269,-0.3061794821,0.2294754485,0.362217155,-0.1758910566,0.3460802815,0.0837148113,-0.1105145932,1.2838342324,-0.2034772661,-0.3259497471,0.238811179,0.5383956291,-0.0979817069,-0.0328232358,-0.1164451293,-0.0947168566,-0.1550132421,-0.0660775847,0.0621585428,-0.3138118313,-0.2801547281,0.6417297558,0.2925871665,0.3031498742,0.2101466986,-0.285742131,-0.0439110499,-0.296178341,-0.2329111891,0.2243501797,-0.190969443,0.0125477436,0.2576712628,0.1857820805,0.1008230853,-0.2481636641,-0.1896051808,0.1298814298,-0.1831619011,-0.3101404911,0.1272125111,-0.2624406207,-0.2009618589,-0.2941833927,-1.0358812991,-0.0574170457,1.7100006128,0.7032562898,0.1640107039,0.1144528739,-0.339684323,1.4275595213,-0.1883279009,-0.0528182923,-0.2849739493,-0.2696224353,0.0788656089,-0.1243714329,0.3230540237,-0.3095994911,0.0664104159,0.3659063242,-0.2494149659,0.3739759316,-0.2346149977,0.2758104616,0.3174506385,0.144921723,0.8426287749,0.5818339307,-0.2998781698,-0.244668478,-0.1285558641,0.3652974994,-0.2599820578,0.6070560258,-0.1603033015,-0.1571069988,0.5237465273,-0.3048794486,-0.1336223152,0.4230690211,0.0830315344,0.5794707975,0.2016275533,0.7029905623,-0.0340075973,0.1307379857,-0.2748971616,-0.2526528451,0.3747385714,0.3499373026,-0.1100461435,-0.2995461645,-0.2912567568,0.1260326388,0.0888392786,0.1503012303,0.2144259462,0.1467340708,0.2595053237,0.1382405236,-0.0867542589,0.4357902386,0.0158623616,0.2939842768,0.1092901655,0.575471698,0.1422660086,0.3876594016,-0.0519099733,0.0413630616,0.3087639402,-0.1175646218,0.0310275242,-0.0113578968,-0.2098884216,0.0702306729,0.0632743193,0.1461133276,0.7167265562,0.730191973,0.5505313937,0.7043682319,-0.1098398161,0.1021935267,0.2806112393,0.1583855627,0.2977933727,-0.4349741864,-0.7617704425,-0.1655160243,0.1455913261,0.3040992431,0.1612611312,0.0278405178,0.4506515492,-0.32761915,0.0470058327,1.5623191591,-0.0426322129,0.3619773536,-0.28992284,0.7836559678,-0.0659979726,-0.7553396195,0.0284633483,0.4450607911,0.2813844865,0.2516493835,-0.1045892134,0.2827467637,0.2891834862,-0.0605497988,-0.0802206322,-0.2171639677,0.1799529275,0.3352136135,0.1335397123,1.2234411963,0.2264697446,0.2782371396,0.2973231074,0.126737248,-0.128238017,0.1620040923,-0.3090454821,0.2260256587,0.0143890855,-0.3415590973,-0.3333100478,-0.1297525414,0.070464073,-0.1449196125,-0.0934867824,0.0281312947,0.3853554389,0.214716195,0.0530276051,0.1472839341,-0.225317947,0.2261957935,0.2191290355,0.441921446,-0.2651130454,0.3544950356,-0.1127495984,0.6187749306,-0.1099816816,0.1955841024,-0.1725911067,0.0464953097,0.1748723623,0.270540428,0.053645067,-0.118532304,-0.2715522031,0.2836496668,0.3790142231,0.1689915992,-0.0391911217,0.4033971835,-0.2159363198,0.0904244667,0.2119553757,-0.0025022341,0.3846019347,-0.1898981348,0.107685476,0.6655815798,-0.1716235413,0.3046294978,0.0544708984,0.0549034785,0.1415235704,0.1536397288,0.2802199181,-0.3298469597,0.1214438165,0.4090644867,0.1837123501,-0.1444736705,-0.2813396134,0.1701728386,-0.0852485399,0.1112600991,0.085302655,-0.0155611482,-0.3071086704,0.354021732,-0.2488303523,-0.2431029527,-0.2926971234,-0.0688486596,0.2646770332,0.3448498798,0.1736504945,0.0725366994,0.4761140566,0.6998801653,-0.1293066012,0.1294674978,0.1933156175,0.1413174342,-0.2945647598,0.2782243109,0.3573530718,-0.0814613057,0.421187344,0.3065308405,0.0172001672,0.095164667,0.0973043845,-0.0070743311,-0.0974146016,-0.3212165247,-0.0478254682,0.2110083879,-0.1982498273,0.483390519,0.4524010314,0.589009533,0.4385124264,0.2410547663,0.0528779999,0.1153150842,0.2791163675,0.6667761421,0.2864834009,0.4924164902,0.3729547366,0.0265333059,0.3844063777,0.6894790693,0.6514449971,0.3000506773,0.0058659285,0.5769499904,0.2145908783,0.4120417714,0.0482704123,0.467561778,-0.3089180829,-0.2629101208,-0.2429986564,0.0515257521,0.0167893612,0.3538447492,-0.2751099935,-0.1813007279,-0.03754067,0.1930675136,-0.204409717,-0.2487023611,0.3573523647,0.2649163871,-0.2415280259,-0.339326257,-0.240527869,-0.2207910723,-0.3811073114,0.2277869128,0.3155276762,0.1326019912,-0.1182094001,-0.0900756274,0.5059641903,0.1907421774,0.6375416179,0.0245001335,-0.1619214474,-0.1920608536,-0.3415228624,-0.0003685469,0.0384241541,-0.3410461575,0.293307517,0.0021615146,0.3456997399,-0.3208539452,0.2524873567,0.2983353564,0.2970332291,0.3434155102,0.009062973,0.2999566099,0.6072035163,-0.163212452,-0.2138003654,-0.1388641184,0.5740298398,0.0765450239,-0.2762508412,-0.124688235,0.2670584341,0.1692482256,0.0069609909,0.2039202238,0.0602407351,0.0701519452,0.0393159368,0.7045905808,-0.2968387304,0.2224772516,-0.1714538243,0.3349955675,-0.2537081054,0.1965961365,-0.2382808854,0.0619091874,0.2884257681,0.3238821247,0.2761486789,0.1629216669,-0.0213828146,-0.3023438899,0.4566947376,-0.2920592245,-0.0184108552,0.085763982,0.3060858817,-0.2206365709,-0.3561035461,-0.1117063321,0.4846439241,0.3391683497,0.6792834205,0.5708285004,0.2457308853,0.4004134238,-0.0491987781,0.235968323,0.4574777995,0.5283909989,0.2231784547,0.4109411322,0.7009985687,0.6635854588,0.2855752568,0.331357577,0.1479919229,0.6363888976,0.1636422847,0.3440556793,0.4816671051,0.6203395993,0.5165805517,0.5297177032,0.0872006006,0.2743931048,0.5356783736,0.1195300155,0.1986481547,0.4652607913,0.0354477241,0.499973218,0.4835408082,0.2035020823,0.2588157414,0.733759369,0.5649873505,0.6865315849,0.5675392375,0.2726721211,0.5057493446,0.2720923298,0.076796993,0.603100244,0.2874843409,0.5597057874,0.0536520951,0.2491240956,0.0883617603,0.1545835318,0.0589333543,0.2707516327,0.3273982051,0.6636234266,0.6484398433,0.0799762811,0.0796086256,0.2620864238,0.2630704034,0.7265955257,0.6396032604,0.1770824995,0.4574595748,0.599964201,0.2310476919,0.2223589371,0.266265358,0.45801629,0.3870881562,0.6401350347,0.6993938782,0.1777876935,0.6231428774,0.4346761338,0.6723413806,-0.0729077819,0.2841928531,0.4095435851,0.0337240502,0.5673596563,0.6611126238,0.3373818758,0.4040989155,0.0459779276,0.5354788646,0.088787547,0.1022053176,0.3662884796,0.5431451,0.6300576802,0.43832053,0.0644986947,0.7793408269,0.1867567365,0.1367658688,0.7692328392,0.0434758978,0.2105461602,0.3467496475,0.6501280487,0.4196920334,0.5117717771,0.0931426352,0.6761623327,0.5710258781,0.1325091684,0.2288263233,0.7024094577,0.5363672749,0.1420377,0.6244573879,0.6842295528,0.0924361429,0.549890345,-0.0292480142,0.1650289974,0.1840252756,0.3586886125,0.6846614009,0.3241441278,0.3880966405,0.506301502,0.4683173522,0.2981846172,0.1620108047,0.6403376022,0.2074205786,0.4374202537,0.4298072051,0.7415909836,0.3483137139,0.2874568701,0.696406809,0.6362771049,0.2618895602,0.1546335148,0.384962342,0.3906120033,0.5944809227,0.7273238798,0.084411979,0.5943010875,0.6273914344,0.3124453468,0.4563493817,0.0604861577,0.3195794214,0.5416906856,0.1521592876,0.1454807378,0.1464995633,0.4285798234,0.552832513,0.7077384896,0.3238990202,0.3514668992,0.4875406618,0.7031051863,0.1218432102,0.5662966545,0.6480537012,0.2558825067,0.3127949409,0.2396510016,0.3832270909,0.158865619,0.4664573899,0.7262805554,0.3189258756,0.5539275857,0.4329671004,0.6582748622,0.0908751446,0.4980210651,0.6034177656,0.4307793201,0.0535962593,0.0570504138,0.2757983542,0.4198921403,0.6727936876,0.2068064423,0.3685360132,0.3717110758,0.2815372603,0.6817264222,0.5245907338,0.5090803523,0.1666355907,0.14973256,0.5130484497,0.6498222131,0.6165840214,0.4084562716,0.1533018811,0.4061810837,0.4821214553,0.2255867988,0.5828701045,0.7174508501,0.6462615398,0.7214151629,0.4827663637,0.1805024889,0.3318229481,0.1061872229,0.13984657,0.1762750246,0.3433060173,0.3255292514,0.1199171269,0.7054246714,0.6874984909,0.6722012415,0.6050286273,0.5963439113,0.678170091,0.4108003184,0.5715972783,0.4491551553,0.1270796738,0.334685045,0.2220194445,0.2263193942,0.4026558769,0.0973179349,0.3356001843,0.1589672568,0.2627796573,0.4846201415,0.0695613551,0.0114256487,0.3052900978,0.2309556458,0.5731283495,0.1589226205,0.6304264968,0.6722241949,0.5875259034,0.4675462388,0.1568417561,0.5505630246,0.1888295183,0.2798805969,0.5700722446,0.5056488942,0.6817400612,0.4360389927,0.0941693989,0.7266851204,0.6833343246,0.2353217025,0.1048777985,0.2087389009,0.4895853038,0.3268563382,0.4988541282,0.6544810518,0.5771693952,0.3976719405,0.6074548841,0.3076206797,0.0192286658,0.429743439,0.1009927024,0.3750745111,0.0693954562,0.3844627741,0.1821556729,0.4043330576,0.6099472638,0.1744321628,0.1236475996,0.5523706313,0.0765225127,0.3686313925,0.226467129,0.0768787554,0.2294204964,0.0407077919,0.6947983343,0.302415312,0.4948436731,0.3001126611,0.6083859372,0.1568754397,0.6606868588,0.1350780411,0.3512590712,0.1095010824,0.4344822443,0.3221274787,0.5724224905,0.280624539,0.1627456156,0.1151288549,0.2667497982,0.5571895093,0.1702444452,0.5623037422,0.1586163182,0.7192535891,0.0939178346,0.282350137,0.1995505408,0.3830869033,0.6612076008,0.4090113734,0.568920066,0.2663611047,0.5052729824,0.4413180357,0.6779779049,0.6402472748,0.1846489888,0.5307760552,0.5969361206,0.7526006317,0.2714967562,0.1375841763,0.2503871138,0.6185375006,0.1229931259,0.1694503115,0.1493657324,0.5140030538,-0.3302822631,0.3762179691,-0.0352311343,-0.2962115146,0.1639752882,-0.2300048498,0.1181038113,-0.2785856098,0.0087704812,0.4002891121,0.2503708369,0.0831293736,-0.2314938768,0.2741109524,-0.0737982404,-0.6164343147,0.3410449088,0.5376279837,-0.3387180651,-0.8692090268,-0.0644476455,0.6070417521,3.0627503863,0.3868533698,-0.169242896,-0.0647444471,0.2053251769,-0.2385111013,-0.4650235449,0.1174796779,-0.0132632428,0.1373528553,0.5461928839,0.3287332224,0.1588158092,-0.0879926701,0.0054389682,0.037415969,-0.1642073472,-0.1378786023,-0.1219281738,0.0026822144,0.0910883206,0.0200597327,-0.2510765353,0.0319804021,-1.1924834147,0.0890733443,-0.1478671963,0.10545233,0.1161416783,0.5321570261,-0.3952188276,-0.2258953432,0.5809559705,0.1351909708,0.6391252562,0.5933841072,-1.2575560141,0.1971677076,0.0734634911,0.2755495159,-0.2717380716,-0.2922041802,-0.3219947626,0.1302021939,-0.2949015366,-0.4601319072,0.8013298741,0.3835106517,0.4557601944,0.3826606593,0.0916161316,-0.3166550633,0.2666158837,0.6852826455,0.4723680573,0.2680511633,0.3372369738,-0.4620186695,0.0630934618,-0.1993621048,-0.278313709,-0.2187911208,-0.044817563,-0.063677331,0.1518892824,0.7386522629,0.0914087675,-0.3163020182,-0.1175944086,0.2448760427,-0.4875157544,-4.1493661102
