encog,BasicNetwork,java,3.1.0,1,1392831312103
[BASIC]
[BASIC:PARAMS]
[BASIC:NETWORK]
beginTraining=0
connectionLimit=0
contextTargetOffset=0,0,0
contextTargetSize=0,0,0
endTraining=2
hasContext=f
inputCount=318
layerCounts=1,201,319
layerFeedCounts=1,200,318
layerContextCount=0,0,0
layerIndex=0,1,202
output=0.0059261577,0.9999999796,0.0418102681,0.9994124752,0.9604098199,0,0.9999999999,0.9999999437,0.9999999996,0.0011625386,0,0.9999999993,0.4049606095,0.0015313709,0.0017756164,0.9999999122,0.9999999999,0.57272129,0.0000009842,0.5564413297,0,0.9999999936,0.0052303871,0.9918728651,0.8756623064,0,0.9999999403,0.9999999895,0.284583149,0.0705699918,0,0.000035318,0.0000001719,0.0271599416,0.9999999804,0.2470446173,0.1417269355,0.9997225782,0.2000483982,0.9999999998,0.8835529204,0.9999999707,0.9200629434,0.9999999999,0.6901071886,0.4096578395,1,0.0066277443,0.9999999593,0.9999997926,0.8907295661,0.9999993104,0,0.999999726,0,1,0.9999999999,0.1676691724,0.9999989763,0.1898076864,0.9506028696,0.0060872734,0.0000539214,0.9999999783,0.0000000011,0.2758596344,0.0007531862,0.9816878563,0.42491845,0.1892452949,0.9999999999,0.9999999995,0.9999999324,0.7073418368,0.9999997188,0.9999997413,0.0010799788,0.9999999996,0.0009250189,1,0.9999999994,0.4402021267,0.999998772,0.9999999999,0.7191035966,0.0000278666,0,0.8862505318,0.9999999795,0.0000207233,0.0719890616,0.9999999607,0,0,0.0000110424,0,0.0034403955,0.000018702,0.3833306258,0.9999999532,0.8918611742,0.9999999904,1,0,0.5868036011,0.9999999476,0.9999999596,0.9999999997,0.9986514478,0.9999999999,0.7985322144,1,0.9999999075,0,0.999999774,0.9999999869,0.9899952717,0.9999999991,0.8375291086,0.7709374089,0.000353324,0.9999999163,0.2224498071,0.1070450036,0,0.000035178,0.5141465821,0.0003112559,0.6954731614,0.9999999999,0.0549089188,0,0.9999998709,0.0000289992,0.9999999299,0.4104999931,0.9999998155,0,0.0494621652,0.000000716,0.8422245927,0,0.9735631201,0.9999999999,0.8235734008,0.4175349493,0.2132292805,0,0.999999944,0.9999999554,0.9999999723,0.2474913803,0,0,0.3460732998,0.9999999226,0,0.9999999996,0.0000000189,0,0.9306374274,0.0021996195,0.9456857597,0.1163348971,0.9908836317,0.0358273995,0,0.1595103975,0.9999996447,0.9999999998,0,0.9999999982,0.0001729828,0,0.0000735882,0.0708189081,0.0016940555,0.1116412621,0.4192288313,0.0000002574,0,0.9999999243,0.9999999965,0.9999999994,0.9999999999,0.0712973674,0.6416262492,0,0.5060955556,0.3376029666,0.9991004307,0.9999999992,0,0.0000029141,0.9999832709,0.9999998668,0.9999999992,0.9823924271,0.0001079057,0.0000118735,0,1,0.01,0.01,0,0,0.01,0.01,0.01,0.01,0.01,0.01,0.01,0,0.01,0.01,0.01,0.01,0.01,0.01,0.0934871495,0.5466594107,0.01,0.5826927616,0.01,0.01,0,0.01,0.01,0.01,0,0.01,0,0.01,0.01,0,0.01,0.01,0,0.01,0,0,0,0.01,0.01,0.1608511578,0.99,0.99,0.01,0.01,0.01,0.01,0.01,0.01,0.01,0.01,0.01,0.01,0.01,0.01,0,0.5,0.2000006297,0,0,0,0,0.99,0.5222732585,0.01,0.99,0.01,0.5599887405,0.01,0.99,0.01,0.01,0.1048387097,0.01,0,0,0.01,0.01,0,0,0,0.01,0.01,0.01,0.6050367459,0.6291142789,0.6378379744,0.01,0.01,0.01,0.01,0.01,0.0139252333,0.01,0.01,0.01,0.01,0.01,0.01,0,0,0.01,0.01,0.01,0.01,0.01,0.01,0.01,0.01,0.01,0.01,0.0595702082,0.3366666667,0.01,0,0.01,0.01,0.01,0.01,0.01,0.01,0.01,0.01,0.01,0.01,0.01,0.01,0.01,0.01,0.01,0.01,0.01,0.5544444444,0.01,0.01,0.01,0.01,0.01,0.01,0.0466677803,0.01,0.01,0.01,0.1457352927,0.0287155329,0.6748325148,0.2794281518,0.0136147765,0.1813414369,0.15275752,0.01,0.0246787571,0.3366733129,0.01,0.99,0.0100794092,0.01,0.01,0.01,0.99,0.99,0,0.01,0,0.99,0,0,0.99,0.01,0.99,0.01,0,0.01,0.01,0.01,0.01,0.01,0.01,0.01,0.01,0.01,0.01,0.01,0.01,0.01,0.01,0.01,0,0.99,0,0,0,0.99,0,0,0,0.01,0.99,0.01,0.99,0,0,0,0.01,0.01,0.01,0.01,0.01,0.01,0.01,0.01,0,0,0,0,0,0,0,0,0,0,0,0,0,0,0,0,0,0,0,0,0,0.01,0,0.01,0.01,0.01,0,0.01,0.01,0.01,0.01,0.01,0.01,0.99,0.01,0.01,0.99,0.01,0.01,0.99,0.99,0.01,0.01,0.99,0.99,0.01,0.01,0,0,0,0,0.01,0.01,0.01,0.01,0.01,0.01,0.01,0.01,0.01,0.99,0.99,0,0.99,0.01,0.99,0.99,0.01,0.01,0.99,0.99,0,0.99,0.01,0.99,0.99,0.01,0.01,0.01,0.01,0.01,0,0,0.99,0.01,0.99,0.01,0.01,0.01,0.01,0.01,0.01,0,0.99,0.01,0.01,0.01,0,0.99,0.99,0.99,0.99,0.99,0.99,1
outputCount=1
weightIndex=0,201,64001
weights=##0
##double#64001
   -0.1881540933,0.3466337747,0.5251749404,0.3349326161,1.2091611847,-0.3150912662,-0.1845993855,-0.2707629865,-15.6660620102,-0.563742587,-0.2659359848,0.2901891544,24.5278703168,-155.6196779359,-0.1748155412,-0.3010138489,0.3222443179,2109.3877530458,0.3884755616,-0.5667410686,-0.1540421811,-8.6104907485,0.4026728936,0.1313800213,2.6138788917,-0.1237948732,-0.1222055696,0.2043611007,0.7183363639,-0.5626536743,0.1721027342,1.0278404887,0.440615412,-0.121804217,0.3111763247,0.3799295252,0.3256079837,0.2319183715,-0.2635018385,0.3431968507,-0.1113380944,0.2645386471,-0.3126017726,0.6068155939,0.3533126245,-0.3058282836,-73.8194290773,-0.1527246637,-0.1920171811,0.3391807004,-0.142642398,-0.5987976643,-0.1350316776,-0.5740596642,-0.2847852463,-0.2441529945,0.2241745022,-0.1801241927,0.3619192955,0.2981928834,0.2008577901,337.834952194,-0.2065543003,96.6154466313,0.1385714326,-349.0042762485,0.5440809294,0.1330607929,0.3556715042,-0.2968337929,-0.3122239578,-0.1620477068,0.9308610861,-0.2075791734,-0.1771338231,24.9393641486,-0.3066229708,-2207.8751024846,-0.3142597361,-0.2294344359,0.2388935132,-0.1674914842,-0.2723204874,0.2191297887,446.1437539507,-0.5920430078,0.1015216129,-0.1129447573,-163.513081574,1.0858854641,-0.1234353714,2683.2876343881,1.527459688,1038.9007601071,0.0769486504,0.2646596951,1003.1990474838,0.2544177478,-0.1805282746,0.3048250877,-0.1621934865,-0.3168281128,-0.2958684927,0.2377023107,-0.2148180372,-0.1270549272,-0.2351638912,0.5891640209,-0.2739568005,0.5483894639,-0.2828082531,-0.1453168276,-0.5475313441,-0.1319410849,-0.2193179239,0.2442332613,-0.2590145037,0.2134184189,0.1260051057,-166.0207240972,-0.1840442533,0.072905034,0.3082118452,-0.5527486619,0.2719321458,0.172414706,0.0842345148,0.1486562179,-0.2767364065,1.2487213107,134.4500709589,-0.1294181367,-548.1874676764,-0.177618347,0.3778327082,-0.1696185172,-0.5858864455,0.2625437686,4695.1611866908,0.3135459092,-0.2726841144,0.160604243,-0.2927023754,0.1548952527,0.210962645,0.3118433223,-0.5852802334,-0.1243938778,-0.1655861865,-0.1738767817,0.4011338287,-0.5943681829,-0.6019890987,0.2668231025,-0.1134836775,-0.5844875615,-0.2528470839,6885.4691121136,-0.2773505792,0.3114437037,0.8001251678,0.2654352649,0.6025233532,0.2320452684,0.3550946461,-0.5638066004,0.3120832834,-0.1704943864,-0.2909818289,-0.5830513402,-0.2961854611,0.2152467725,-0.581837934,-38.4414414771,0.2188038455,0.9762561862,0.3248781905,0.2689572387,2.237245844,-0.5489344794,-0.1461787203,-0.2946846216,-0.2217661975,-0.3037061126,0.4591635837,0.1127022115,-0.5962279876,0.0730994997,0.3339145832,0.1518620329,-0.2875746022,-0.5339769098,0.6677716726,0.1821140077,-0.1468465882,-0.2399059612,1.1470171134,6.0642354106,355.4170543216,-0.288620794,0.0814195707,0.0465899328,0.4962718759,0.2373565165,0.1845366917,0.9201249904,0.0141590609,-0.1136813739,1.4883505183,0.6701209221,0.6328176821,0.478205878,0.6349187554,0.4872018729,0.5315266362,0.2371140231,0.5529712742,0.1207317809,0.3849825897,-0.0292009404,0.6918314291,0.3812326739,0.150965243,-0.0272676393,0.5843278062,0.6600020708,0.4172705676,0.169874431,0.1226851341,0.4045752552,0.7035254731,0.2068861771,0.1000750311,1.0815792369,0.002116012,-0.0563956299,0.5473462394,0.6649312668,0.4995451811,0.2122839278,0.1222116231,0.2215340197,0.3121991129,0.0745274283,0.275781307,0.5528458372,1.0549762264,0.148398721,0.2010894048,0.3990761566,0.100536866,0.3543851835,0.8858500626,0.2157960975,0.275907023,0.0982980022,0.4622670087,0.0295326047,0.8971598285,0.0990311625,0.406744822,0.1747541414,0.3520549903,0.5781785523,0.7096599363,0.1835144847,0.4236020722,0.2849247377,-0.075659837,0.3759796139,0.0761262997,0.0708301109,0.4648680025,-0.0563628747,-0.0105894555,0.0715158328,-0.170088861,0.1181267593,0.2428809359,0.3934100763,1.0691705099,0.5329736286,0.5145878286,0.1440949271,0.0257395958,0.3677922563,1.5259030467,0.1699177695,0.6468861725,1.397256295,0.2573858004,0.5701342833,0.2177945088,-0.0561896602,0.4717071774,1.8729369654,0.3040784536,0.0882996389,0.4085383962,1.5207845514,0.6728382434,3.0793411859,0.403862819,0.4848044894,0.56123336,0.4824838561,0.353890346,0.551892228,0.3166480413,0.1183644751,0.4835511117,0.5344230571,0.4092842289,0.2225706484,0.3020293957,-0.1964878972,0.5627095389,0.5027893154,0.6681962389,0.2599405168,0.3113663175,0.3577823153,-0.0059231304,0.9745651933,0.2466917316,0.4831661575,0.3883197944,0.5269064537,0.571479312,0.427853107,0.2351530103,0.0257463451,0.4786746248,0.400713048,0.5164674723,0.6366124789,0.6657093363,0.3043901524,-0.1859977408,0.165646622,0.5478298611,0.5462410325,0.2815220718,1.7147212383,0.1903168398,0.6147099185,0.3020720144,0.1915744198,0.0580764377,0.352720032,2.886491107,0.0896843961,0.3982767097,0.3392388465,17.8248164599,0.4449338133,0.2612788325,0.0087076147,0.4571553029,-0.0008489147,-0.0106274895,0.5924882649,0.5806987249,0.4192444667,0.266049654,0.5618803028,0.4601606086,0.4571312725,0.2836966352,0.4592334952,0.3033471579,0.6175310689,0.3529004985,0.1867085822,0.2242644418,0.5953484281,0.2513994799,0.1636409842,0.3033867342,0.3872715275,0.4493866164,0.1542341958,0.2264517293,0.0185252436,0.5792062038,0.3600842423,0.3886652444,0.0224701976,0.566813262,0.3467408581,0.3239438838,0.0657074982,0.4690368812,0.3470210262,0.5840866071,0.5801766325,0.0229556125,0.417253054,0.2162945696,0.167770187,0.027904019,0.1429266707,-0.0128276962,-0.0130742498,0.2690782982,0.2982559549,0.2551165949,0.6271318973,0.2699901253,0.6269177876,0.091191189,0.2838358985,0.7188433611,0.2421370452,0.4227222523,0.1718863113,0.6278944655,0.594398429,0.6800599331,0.1272409793,0.6686575621,0.5433541245,0.614074251,0.0519572969,0.0873113465,0.2780112884,0.6305990298,0.0221528596,0.2138833201,0.4227073909,0.0881387596,0.6780453717,0.6358245952,0.3879576768,0.4338604128,0.1342141583,0.5139762244,0.4464610341,0.4968035634,0.9702464482,0.6960206822,0.610294277,0.39104514,0.5482516912,0.5207517053,0.8563068174,0.3811734508,0.7851944648,0.4000965595,0.5296811358,0.2644063431,0.4369459,0.5432698828,-0.0165539449,0.4625436828,0.5084455449,0.5249008515,0.5818905294,0.6095999622,0.0385699276,0.0545359336,0.0591871964,0.0142197378,0.5790953039,0.4925669998,0.072270228,0.7886441758,0.3535875991,0.7718370888,0.4773010248,0.4634025573,0.893770614,0.5776086949,0.5628439181,0.2385971859,-0.0363773099,0.2882431563,0.5929126586,0.6037436222,0.1288524391,0.5793375836,0.2978241646,0.1154577447,0.0796795203,0.5772399932,0.0428130682,0.3088968189,0.7706967189,0.9354819461,-0.0078130031,0.1706581053,0.5201513313,0.8719186748,0.7658598507,0.9364836185,0.9563242612,0.4310085216,0.6955235788,0.1545238716,0.6989528706,0.0282624061,0.4299517068,0.3253413619,0.4070250152,0.6483321008,0.7067497288,0.2370491283,0.1110463592,0.3520847886,0.4413242887,0.67734596,0.5421808983,0.6664998171,0.1852257311,0.0580240515,-0.063609006,0.3256082827,0.4060860745,0.6051439241,-0.3948921272,0.2138211237,1.8058893868,0.6484550542,0.3418201161,0.7412355378,1.9714247558,3.1161940743,-0.1519987662,-0.176078243,2.2672717238,-0.1215790481,0.3875529538,-0.0784228101,0.5216987626,-0.2049876547,0.1806561667,0.329608989,-0.2208194389,-0.1349953018,0.206750172,0.1582254179,0.0836706157,-0.2506668601,-4.062166879,0.064873417,0.7566000512,5.0407425235,-0.1181978054,0.693629419,0.3692835518,0.1714688156,0.1353028566,-1.2670437239,0.5622814672,3.3567978741,-1.13786663,0.2400082898,-1.6192707756,0.6724638738,0.1271786505,0.243786565,-0.1831203086,-0.20749449,-0.291966912,-0.2634340037,0.2252122714,0.0528575506,-0.0091985194,0.1375445438,-0.1238275258,-0.2765018445,0.2735330579,0.2027313073,-0.0821155973,-0.3122646146,-0.738268858,0.0524922189,-0.3049470855,0.0906585009,-0.0404662073,-0.108242536,0.7097482897,0.591503168,0.2347991603,0.2877482604,-3.238073765,0.3175696922,0.6263764038,0.2181184267,-2.4692806285,0.3011106074,0.4905062235,0.0775753346,-0.1126129792,0.3142958656,4.0150165078,1.091466048,0.4969898818,0.3467031654,0.2936360522,-0.5547664384,0.5704623287,0.3959911184,0.2387901581,14.8429670685,-28.3758612214,0.277835172,-0.3470514453,-0.0533608851,-0.1465157221,-0.3522123333,0.4631775057,14.2885250788,-0.1990784479,0.5794119248,1.5011435015,-0.5421660438,-0.090688069,17.0568622806,-0.646926534,-43.0714023367,-0.421107817,0.6086458168,0.5007900855,-5.5599315503,-2.3818218834,8.5379739033,0.2782358757,0.0032874196,-0.3096331797,0.4531151905,-0.1273931396,0.5450523324,-1.5102255104,3.0971284747,0.1970386605,1.266664755,0.628859792,0.0946672439,-0.1276860679,-0.9200596367,0.1010660892,0.5418445767,-1.2897730894,0.3491899852,0.1967427257,0.4843903903,-0.8668624,1.114576199,-0.3388880698,1.9748721279,-0.0856897579,0.288561637,0.4809914644,-0.1351107491,0.1130684505,-0.1605348256,0.037772612,-8.430606168,-0.1901431583,-0.0807435935,1.6318548472,2.3704642368,0.1237499141,2.537526485,0.7830530907,0.3780414371,0.3816196854,-0.1703295753,-0.1491944099,0.3379976458,0.1634891758,0.1594611346,0.3816057674,-0.1243531313,0.3167793654,2.3921917841,-0.8970781272,0.1589849245,0.9662288231,-0.8143967744,-0.8597676931,0.3074975829,-0.0378694746,0.5171077975,-1.059186762,0.4567204139,0.2908230593,0.1243633392,0.0361944858,-0.3138323897,-0.0757272646,0.0797245793,0.5397486314,0.0918815997,0.2717827304,0.2519257241,-0.1467533477,0.0732406294,-0.2336175056,-0.2910156992,0.2778361813,-0.2608668242,0.1484290524,-0.101134918,0.1225739199,-0.2315170713,0.2543772667,0.1330307486,0.1375930183,0.4369833756,-0.3427094065,0.3671328138,0.5539249368,0.3417040233,0.3008696324,0.7093317291,0.206830901,0.2552662085,-0.2329236359,-0.0116129373,0.1956494444,0.1978631721,0.2680235098,0.0996702652,0.3733326998,0.1813069955,0.2167473619,0.1102147703,0.1276106741,-0.0009168068,-0.2993297881,-0.2969807266,-0.2426520091,0.1371658969,0.3520921992,0.474633079,0.4405874587,0.0172734095,0.417889902,0.29408539,0.5006131586,0.5636193766,0.1659762697,0.2623717911,0.3959890156,0.0059119192,0.3578213147,0.1720721319,0.6810247798,0.5628933485,0.4767611146,0.3799271998,0.6744124953,0.4153856693,-0.4002302832,0.2875949784,-2.2036014678,-0.188760294,-0.2564353329,0.340418348,-0.2293622253,-0.1615113091,-0.0519682996,-0.0829067856,-0.0322708357,0.2621820397,0.1541921444,0.1747836754,-0.1303682915,0.2530023344,-0.0965330158,-0.1831787693,-0.293600747,-0.2234400021,-0.251371995,-0.2910823973,-0.6081141788,-0.0700061812,-0.4005918419,-0.4724004011,0.4821752248,0.0065744306,0.6442991688,0.5837190047,-0.397680233,-0.1392468128,-0.3054557689,0.0594379413,0.0080802793,-0.1403926686,-0.131370577,-0.243006793,0.7946350445,-0.0699567182,-0.1996694039,0.518065739,0.1729344978,0.1852395514,0.1682783296,0.2683909089,0.1785206187,1.328603422,0.0198381684,-0.1300125683,0.2194234235,0.0718171111,-0.0969022931,0.0544277213,-0.1735599259,-0.3993693923,-0.0419015407,-0.1272947419,-0.2296252991,-0.042602772,0.2898926663,0.0054594413,0.3238736101,0.3723049357,0.0198223946,0.0015200034,-0.0456699999,0.348379928,-0.2598847148,0.102512923,0.2158252451,0.6322693093,0.1518730231,0.110007911,-0.2880759068,0.1860968885,0.6998779704,0.0472593364,0.1107763744,-0.085297173,-0.0305406739,-0.1867223287,-0.4169240635,0.1038345003,-0.2124560186,-0.3042009925,0.500332949,0.3932456892,0.0422139059,-0.3552181485,1.6533678741,-0.3055316915,-0.179391197,0.4147687925,0.597439625,0.0121906692,0.350610416,-2.0639603671,-0.1711880958,0.3595135822,0.5657475088,0.147644285,0.3780625329,0.2556107204,0.1793360899,-0.1434713991,-0.1758063156,3.2590180314,0.0863858381,-0.3083025425,-3.7027814326,-0.2046187114,0.252679934,0.4144794386,0.6076237493,0.2452641015,0.5703770277,0.5828623681,0.3302895753,0.2317112291,0.3400116812,3.2875758437,0.4293657965,0.2904943171,0.0835995136,0.3694768055,2.5424891167,-0.0963346241,-0.0214817198,0.0275333467,-0.3148025318,-0.1243791267,-0.2000733883,-0.0102676114,0.0138399101,-0.3122603015,0.1581171621,0.1373826171,0.1259097384,0.2952322602,-0.1550543149,-0.0285833473,0.6386026361,0.2153851247,0.0819291717,0.2099497057,0.3755578476,0.6042640165,0.1639473654,-0.2903641333,0.343478765,-0.4355075363,0.06112232,-0.1411842865,0.1120006886,-1.7933036781,-0.0983739116,0.7581664789,-0.1384211234,0.7759781268,1.3111699501,0.3643226466,0.4509807443,0.3572618648,-1.1047006382,0.3813850835,0.5245888129,0.4580131079,-0.537688137,6.395895567,-0.6283241093,0.0139315585,0.1654015565,0.2380920841,-0.2914085676,0.5258841182,-0.0338868832,-0.2345293612,-5.2065795978,0.0782002955,-0.7581294335,0.3374007472,0.9407980072,-5.4913135804,-18.8493400782,0.067241038,0.1315301392,0.6963012865,-1.1305294171,-0.294877062,-7.6442046294,-0.2051976151,3.2289414843,-1.5286596487,0.3634816473,-0.3762978508,-0.1168963402,-3.2333471639,0.6098226035,0.2992235541,-0.4110693446,0.0488067443,-0.351615916,0.013123636,0.1632705282,0.0552308778,0.4373189361,0.2700099691,-0.6913600341,-0.1737059867,-0.1421522619,0.2089854408,-0.6373015358,-0.236511768,-0.3647282268,0.0389746483,0.664998484,0.7994544866,20.1342723959,0.1143419634,-0.1060082885,4.9568170252,6.8353016701,0.0711514374,-0.0156025861,-31.9095269834,3.8719529521,0.0717084431,1.781394047,0.0234750943,-0.0583931963,0.862406556,-0.1204297704,0.1498297632,3.7433756447,0.2783604168,0.2576255436,0.0611700272,-6.2717385223,-0.0374098894,-8.7827755825,1.8092014914,17.8832589024,1.4347965783,-1.8391507044,-1.9239179869,-0.3160674741,0.0737483078,0.2455397465,-2.4840456284,0.6591232763,0.1618858257,0.504286597,0.6392462393,0.3223654908,0.2742584886,-0.2807207789,0.4608037556,0.3654243719,-0.1466058844,-0.3518782682,-0.4978623176,-0.4388782651,-0.1795924018,-0.2173097332,-0.4784775074,-0.2987408806,-0.6774943146,-0.026817573,-0.5478862808,-0.0519625941,-0.0006819662,-0.336215914,-0.5355459154,0.3772744373,0.6281968142,0.2936371611,0.1997310788,0.2272106081,0.0846863231,0.487231078,0.4848540356,0.1485104546,0.0450232234,0.0061674825,0.0050125105,-0.2682148687,0.5086240718,0.5070393392,0.2285710602,0.0630345319,0.2691856595,-1.1423840523,-1.5078869842,-1.409829707,-1.5098938519,-1.4444361613,-1.0386615074,0.5236066818,0.147057148,0.2357258248,0.3175051248,0.6737700014,0.0304211404,0.594236594,0.5447826365,0.0836715985,0.535271458,0.139401575,0.6929458204,0.3843593211,0.4614008238,0.7004722576,0.3728834102,0.1189828841,0.5759605506,0.2441618412,0.0299754443,0.2823928251,0.156931383,0.4622942214,-0.4355531315,-0.2193177071,-0.2839128241,0.2554526923,-0.0235949033,0.02539429,0.0107171378,-0.1564594794,-0.0397862711,0.1182695533,0.3586681334,0.2504344271,0.0689191351,-0.2670388532,-0.2434289278,-0.1043268994,-0.2481475553,0.3828542456,-0.0749763525,-0.059230271,-0.1275242208,0.1232590825,-0.5956238729,-0.5966200049,0.1309886929,0.1357937477,0.2593464974,0.041673419,0.2274072356,-0.2296617696,0.1437277535,-0.0894149947,-0.3997721253,0.1072995673,-0.4016934575,0.1886234999,1.1001572197,0.0074989293,-0.0866114021,0.0106654453,0.0332585771,-0.2647022174,-0.1027184671,0.2778795541,-0.5596125002,1.6126089659,0.1496230207,0.1747878856,0.4743140082,0.5489757197,-0.0714714329,0.0745107993,0.1299404994,-0.4245874774,0.2608312529,0.1362574139,-0.1349050897,0.1102939536,0.6287090976,0.3701694849,-0.269724776,0.1740569544,0.1899571591,0.1149956466,0.1726532901,0.5836632669,-0.4623571151,0.2588984858,0.0766543362,0.363505292,0.2169994365,0.3145508354,0.2638356856,-0.0473572194,0.4425133991,-0.1857476527,0.0076334044,0.0533149312,-0.2659533697,4.3488023588,-0.2304708037,-0.4640536616,-0.1822762603,-0.0734379968,0.2174891606,0.106655359,0.3919585604,-2.2624000889,-3.4994453232,-0.9450193663,0.7157951094,2.7224161145,-0.0351821769,0.6487654747,-1.1422348547,-0.190109298,0.0897156932,0.1150726482,1.1195937703,0.4365977232,-0.0518159192,-0.0306337833,-0.2377924731,-0.1245592888,-0.6658041958,0.3706945869,0.4492671092,-3.1047296644,1.8012973247,-0.255719208,0.3998669661,0.4098300362,0.2387623221,-0.22622075,-3.5648962206,0.3356221269,-1.1562460299,-1.2590088837,0.4199273983,0.2961810895,0.2325060713,0.0901821531,0.6395031409,-0.4687587985,7.3300457634,0.3795268128,0.2743191979,-0.1305281871,-0.1804602473,0.3362465286,0.0480582838,-0.1955260245,0.0936464611,-0.2306106081,-0.3264467772,-0.1639520189,-0.3942880375,-0.0665835432,0.9316153078,0.2962047675,0.4270268895,-0.1008232707,-0.3069975903,0.2592876911,0.4723761966,0.3018245076,0.0578391441,-1.5162053079,-0.0697216403,-0.8866075782,0.2377152092,5.6297405465,0.0332728992,-0.7542769681,0.261083647,0.2199180345,0.0116501578,-0.2079769643,0.9972520997,0.4804986457,0.6658728722,-3.184505095,-0.9272611623,0.31315046,0.2980805552,0.0708809553,0.1816468583,1.4140119428,-2.6339353556,-0.1377782137,-0.0166339602,-0.2441825293,-0.1952946906,-0.7057558149,0.7767797741,-0.1183251979,-7.9240609055,-0.2149558859,-0.3132415286,0.1491216793,0.5085738317,-1.1949904665,-4.9449071442,0.293097974,0.0452214339,0.1681267919,0.0026898682,8.5691202326,-1.270325536,-0.1873348654,-0.0638563773,-0.2039778839,-9.9153830455,-0.3043549307,-1.3338509185,-0.2261187568,0.3820850599,0.1202002168,2.0492515615,0.3762759781,-2.1786303901,0.3719408593,-0.8608470504,-0.3302504808,-1.2527018424,0.5841671384,1.8163264501,-0.766809856,-0.1193649493,-0.1500542655,-0.3457546763,-0.3254233592,0.3938205483,13.7089648903,-0.2023156668,1.0010862161,1.4476780204,1.2219984282,-0.117344106,0.9340810683,4.654881569,-0.0820356901,0.230826202,-0.6659231352,0.0501122294,14.4988446101,-7.4209621206,8.149268103,0.2128363233,-4.1107432584,-0.0884165496,-0.0789803824,-7.6937717919,-0.321915707,0.1338872788,-0.2472313454,8.5386940508,-0.1875515948,-0.5905122898,0.1478556282,-1.230230486,0.8788514605,0.4353852835,0.295920915,0.0014651582,0.3763632365,0.535563675,0.1027548372,0.3365305677,0.1711043916,0.6230767508,0.4289338721,0.3698904051,0.093940927,0.1325736984,1.2135752154,0.4292398167,-0.0184727945,0.0745096374,-0.1537511097,-0.0145682904,0.3750108251,0.2541896751,-0.2625908635,-0.2515991912,0.0411292357,-0.1306795642,0.1300849831,0.2526103875,0.2634871654,-0.2999931188,0.258568844,0.4520112451,-0.1515859983,0.4936572101,0.4412199082,0.1606683137,0.3059604225,0.202998331,0.0511207148,0.377563255,0.1701774526,-0.256498244,0.0422378298,-0.0855692285,0.6859987103,0.1890072386,0.1368472584,-0.2385733361,0.0247168889,-0.0099107988,-0.061714539,-0.212395692,-0.1785520831,0.2745678046,-0.0395410565,0.6510462943,0.3377111141,0.489926877,0.0731401906,0.2495755823,0.0178802724,0.6187130709,0.2065729763,0.6639854512,0.1803443368,0.4853590587,0.1386826079,0.6500645533,0.4697570207,0.0925299768,0.1378498596,0.1392104057,0.5176868766,0.5745520463,0.1340389204,0.7113674473,-0.2388331024,0.3139311941,-1.6676488772,-0.7540728879,-0.2248346615,0.161873127,-0.3180852977,-0.0862969767,0.1826960698,-0.2507174009,-0.3064586047,0.2097754006,-0.0912376543,-0.388878261,0.3087456206,0.2279314334,-0.4014876496,0.1486743706,0.1690872759,0.2397774473,-0.4007887177,0.1504480159,0.2050531751,0.1122231211,0.4062405396,0.6625107879,0.2149188188,0.3257864557,0.5474426144,0.0422190138,-0.1353064027,0.012203526,0.0761421511,-0.4665635842,-0.0352034012,-0.2785321822,-0.4704604174,-0.4883671296,0.877114136,-0.0547429901,0.0102209365,0.033529848,0.1053834431,0.3688363726,0.0304036198,0.3391442756,-0.8482815468,-1.296198029,-0.2265261268,0.1289071656,0.3524294997,1.5109507904,-0.0768339543,-0.2904181241,-0.1985884349,-0.1876495857,-0.0537706144,-0.5153828769,-0.4854406987,-0.1996956441,0.1844834953,0.1300690082,0.2046212654,-0.0928262099,0.3894155397,-0.1330504995,0.0855296793,1.0615787227,0.2544126454,0.3654919731,0.2470479168,0.2931859675,0.1099145789,-0.0910574127,0.2190782094,0.0639187479,0.195598562,-0.29700194,-0.1515615706,0.0015941222,0.2054134548,0.228757329,-0.2808587741,0.2164211534,0.1140909122,1.2180258087,0.6511783075,0.1607158153,1.0004386253,0.5304439546,-5.982772936,0.1831378618,0.1198398124,-0.1452007215,0.2377925823,0.2176536361,0.0701798993,0.3787999601,0.0490197772,0.7825696136,0.2218036738,-0.0757229134,0.4321539384,-0.1287167427,0.4023266915,0.0194340905,-1.0392402321,2.0892208001,0.1790605267,2.1650424925,-0.1917822443,0.1951614639,0.3104075558,3.073245832,0.0188962541,0.2946852453,0.1465725346,0.0509080848,2.5272529933,0.0457230731,0.3937904882,-1.3164934372,0.3147369239,0.5927327875,0.6422489037,-0.9107739786,-0.2474482199,-0.2982464387,0.3559343634,0.161304965,0.064449339,0.069780908,-0.1200738642,0.211766616,0.4618925775,0.1057749887,0.98157141,0.0663159156,0.7128942336,-0.6606823696,2.0240286954,-0.0905849718,0.5828712372,-0.1210717732,-0.2385547334,0.4827717905,0.1715684295,0.6060195233,0.0489582034,0.3587740136,-0.1196986368,3.2887365923,0.252324981,0.1857753036,-0.2380955387,2.0087328715,-0.0211376026,0.4661909089,-0.2165376053,1.1535056754,4.7711392621,0.2007283859,0.6127252344,5.927918134,-1.260295087,0.0801884925,0.4870277489,0.4183901381,-4.745333669,-25.2347118204,0.2878753216,-0.6881783943,-1.0056436562,0.0920675046,-0.0608132443,0.2671840097,3.0265249277,0.1450758736,-2.6534509916,-0.2851051599,-0.2703147035,-0.2005286967,1.3338048003,-3.8841349171,-1.2272720409,-0.1870348315,0.2705584144,0.0426545141,-3.2887024069,-5.247713181,-4.564638901,0.0914998431,-0.1719240589,-0.094029169,-1.6063087315,-1.1316340977,0.2839372192,-0.2116025266,0.0246538345,-0.3076076922,-3.1958462388,0.20234217,-0.0050003191,-0.1581965522,0.1744251306,-0.089309665,0.3575540926,0.9256410824,0.5395830196,-0.2135234156,-0.0568048244,-4.7562136672,-1.5627353737,-5.7591669737,0.239810911,0.3067781809,-0.5149112057,-6.3105392662,-2.5570685061,-0.2161758508,-0.1633637357,8.7037667839,-18.9771880075,-0.0456848718,1.1004250527,0.7204313717,0.2784403478,0.143578607,-1.9703937251,0.3908223221,2.2401174202,0.6177714172,-0.293547784,0.3489187159,-0.0515948074,-0.9426294312,0.2578806833,-0.0108907754,-0.8935374902,0.1157501362,0.2700291185,-51.5649095674,-0.49536196,-2.3586360132,-0.1817799768,-0.0936472348,-0.2092384878,0.1326179194,0.4048184985,-0.5139355552,0.6462742578,0.2408553778,0.4976217182,0.5139276283,-0.2923294486,0.1727810375,-0.2176306188,0.2897960539,0.3770544264,0.0093835572,0.2241539595,0.0402708612,-0.278319881,0.2194455639,0.0326305303,0.3871057519,0.1810616692,-0.0215478817,0.3216806448,-0.3016438065,0.0827000014,-0.1267223714,0.0615448155,-0.2232057707,0.454558001,-0.0292382698,0.1333478318,0.5107183739,0.3493867309,0.1084184359,0.6449230119,0.4451298025,0.083755734,0.2454571665,-0.2749270244,-0.1547367313,0.1327153312,0.6257716078,0.6019110991,0.3449048828,-0.0936810549,-0.0653936941,-0.6084232819,-0.8070026833,-0.9597668323,-0.9854654146,-0.6879259326,-1.1376742537,0.4406420812,0.4993046696,0.0584183775,0.1791152365,0.1936231817,0.0442166118,0.0401156652,0.1501440118,0.0643696093,0.3662367694,0.0301104046,0.5419386566,0.3230138437,0.7115506552,0.1215720308,0.3374408807,0.4431785275,0.2689469228,0.6336500655,0.4463845282,0.3846792106,-0.127147086,0.418713435,-0.2210934502,0.1858465799,0.1920960875,0.0948370002,0.1618757011,0.0898713546,0.2871006504,-0.0061084572,-0.0299129907,0.0638371552,-0.1472850956,-0.2747586153,1.7663516466,0.0006043517,-0.4210313804,-0.3344718823,0.0161131772,-0.2183266089,-0.5294456282,-0.281347289,0.1204279414,-0.0432428612,-1.0978890035,-1.0962462378,0.0673175182,0.3722563709,0.2506833695,0.0438375107,0.096675072,0.1648714861,-0.3627354767,-0.1721212629,-0.23494789,-0.2886065674,-0.2584514422,0.2622291338,-2.6667941209,-0.2599196646,0.2681435509,0.0305127786,-0.2060957753,0.3882155058,-0.2527826732,0.2732268888,0.6589787048,-0.3904457559,-0.1625610145,0.1483517052,0.0270979567,0.3121134321,-0.1738196237,0.2366307976,-0.10779929,-0.2183256112,-0.091141364,0.1104948167,0.0577238292,-0.2343739583,0.479959441,0.2349313792,0.278696426,0.088657326,-0.3139484611,0.2462206785,0.3416992301,-0.0017490976,0.2850208715,-0.0983411558,-0.3384654747,0.2065478161,-0.1478436713,0.0411096475,-0.3265201599,0.031046775,0.5759782205,-0.0708450203,-0.2601383646,-0.2717663704,-0.2058661627,0.1289343261,-0.4554408202,0.002828054,0.7129552986,0.5013287414,0.3335015242,0.7033774171,0.473351867,0.5242568284,0.2063193275,1.7588309779,0.586387431,0.2313731797,0.1973494676,0.239291976,0.4070289099,1.0223717617,0.369060994,0.1762491856,0.581993709,0.7356798947,0.3394022739,0.8968578601,0.4125938834,0.9137025989,0.6013896372,0.3667351116,0.2371584728,0.3344638166,0.6785069102,0.236266696,0.7094176497,1.1443901128,0.1497098659,0.1591686116,1.3820158424,0.4468143476,0.1547744046,0.4469896492,0.2360473319,0.6883342503,0.4202747817,0.6857263477,0.5645057542,0.5016089849,0.5761927878,0.5824553986,0.6951784444,1.1106908449,0.5722324208,0.2285019088,0.1974042453,0.7795291588,0.3203012026,0.5562009401,0.691311916,0.2277357351,0.6763106092,0.1403010276,0.1838682966,0.5032337726,0.6168409209,0.6015193132,0.6743023076,0.119585174,0.1953458422,0.6626851133,0.4025981406,0.3559483683,0.5113722071,0.6931648028,0.5932334989,0.0654271674,0.4979101506,0.1664739872,0.3434132125,0.0721177349,0.3429283248,-0.0256866342,0.0122503334,0.2828594354,0.3741764562,1.4101179548,0.4893858123,0.3098274995,0.326150103,0.0345258619,0.1836489088,1.8088522286,0.4416974515,0.2307360332,1.5361323333,0.0858276056,0.295325473,0.124649191,0.5509901698,0.4279629353,2.0894933446,0.3076260404,0.6603061816,0.4046104195,1.6442083065,0.1886615558,3.0764165628,0.5535250636,0.5970470638,0.2424783464,0.6929563539,0.236257957,0.6264324474,0.4860972033,0.5396946436,0.6301362962,1.0857896433,0.5555779927,0.2314395666,0.2777046895,0.4310892769,0.7295234686,0.3622263768,0.366495327,0.2486791573,0.5718287031,0.116146898,0.1232435646,0.9621169926,0.5944707572,0.7092244552,0.4788865618,0.4813869732,0.5439524714,0.3498618545,0.3806339838,-0.0242358104,0.6548856725,0.4207103575,0.5733978593,0.5761622918,0.6025051158,0.3876565526,0.2667726458,0.5677845863,0.2844201419,0.4030440792,0.4258320006,1.7520318423,0.8574122954,0.4722750628,0.3049355964,0.3876074381,0.206348547,0.0406048449,3.3437470362,0.3910030669,0.3694898023,0.6265084444,17.735248397,0.368097484,0.1452757754,0.6822344492,0.534855121,0.3020930142,0.5038583028,0.7741832991,0.57992329,0.4037900261,0.4040277428,0.202449489,0.5701623247,0.4442857912,0.3700760626,0.7037840546,0.5114079491,0.0674016523,0.7125681897,0.1185025716,0.7136683407,0.124627854,0.7435044048,0.5244154306,0.1833569277,0.1636854972,0.3949596826,0.7439152657,0.722748505,0.531586177,0.3940280993,0.7452354936,0.505270393,0.3981562869,0.5837284147,0.0694410755,0.4309561256,0.6677027217,0.1685744592,0.6443015276,0.4863168814,0.518060032,0.657398157,0.2977232807,0.1149141652,0.2155238031,0.2615764586,0.0803246282,0.25623596,0.617078474,0.3339627753,0.0492004543,0.490598665,0.5921519347,0.8219372126,0.5291859988,0.2024224517,0.5273905571,0.1618063846,0.5581664033,0.5233350523,0.7017711308,0.3080372234,0.6086382511,0.4918444572,0.6656471305,0.4048494943,0.1560209931,0.6357050053,0.3770907952,0.2122063222,0.1265392334,0.5382485843,0.2263063933,0.2437868732,0.2041284499,0.6543242948,0.2161393788,0.4922902937,0.4770975388,0.2246902045,0.1647128014,0.3962456989,0.603384938,0.4990183844,1.4796956952,0.5390152309,0.6985897254,0.6999464711,0.3232664728,0.3022943831,1.0047234421,0.6760510369,0.707745285,0.3333406681,0.6543702818,0.1775975112,0.8345109231,0.4191898025
   0.1334021696,0.4894047162,0.603119686,0.8065903131,0.5570540173,0.3786876923,0.6014575585,0.7215224463,0.5981285103,0.2427046733,0.6993338789,0.6980725525,0.6350862897,1.0229116706,0.5984880184,0.6928512719,1.0415222178,0.5603792122,0.9152889436,0.9817406243,0.6574753089,0.0490805532,0.2594722318,0.616966887,0.3341554652,0.4524774054,0.2253006073,0.385305417,0.0508936441,0.1826944003,0.6686027491,0.4789637053,0.6542286148,0.4192545894,0.534038126,0.6406847368,0.6499154912,0.440252809,0.7381025491,0.4756935897,0.6108392152,0.9567851501,0.8247894943,0.0652581095,0.6732338964,0.3482127899,0.2529599294,0.1083540899,0.406692232,0.7500756507,0.6119058629,0.8419203672,0.52178564,0.6682897853,0.3859737453,0.2703342307,0.2733815534,0.6639926749,0.2506745834,0.2495095514,0.0766500443,0.2188967886,0.4201530772,0.3705083431,0.2826103832,0.4703960714,-0.1031467507,0.5774220689,0.3889815743,0.0050252375,0.1018095365,0.3782863328,0.3547823564,-0.4188401085,1.7126053306,0.4821086426,0.3423239669,0.5713781707,0.2383281839,0.8597587115,0.7698981098,0.7000900578,0.467010285,0.05524488,0.5521224898,0.043829803,0.1792474358,0.4794809109,0.6263746517,0.4538230827,0.3962987801,0.180351863,0.5463765798,0.2514260899,0.083940106,0.7066661208,1.0645666625,0.3038334383,-0.0476010879,1.3558837765,0.2230158727,0.3249872541,0.1275430496,0.1072147616,0.7946968632,0.5055170569,0.6686656223,0.0200002354,0.6366846245,0.2732050265,0.4631240723,0.0278229341,0.7781416101,0.6172358304,0.0331525027,0.4567875117,0.2851695061,0.4035280818,0.8775871188,0.2464946099,0.3693940844,0.2143399833,0.5141105954,0.0749067318,0.6879026236,0.1629410785,0.1408623193,0.0311867208,0.5802126502,0.5677928526,0.3702078315,0.4578059812,0.1801927048,0.1607806748,0.0224891034,0.0718018061,0.0640115958,0.5698848053,0.2417234021,0.3976282182,0.4862939643,0.0044389622,-0.3276354981,0.1863120381,0.5968258935,0.4310059758,1.2482483701,0.7181898032,0.2258919804,0.6902705088,0.5956867048,-0.1252288856,1.6752756039,0.4020178452,0.5609889326,1.0885459579,0.0440191992,0.5327950649,0.0689279105,0.185671952,0.0582346594,2.0593209144,0.1990353448,0.5411618299,0.1245298708,1.391533074,0.6435186305,3.6291819562,0.5909018911,0.7103799424,0.4412818102,0.4009877342,0.5819433338,0.9623675712,0.09536751,0.0955569813,0.3565920063,0.5954963589,0.4304458852,0.3095538106,0.5861070462,0.0176861066,0.3259464184,0.0074737805,0.4908093992,0.0437224181,0.396389222,0.2916119,0.1062342849,0.8949768498,0.1716164344,0.564614274,0.2120765616,0.5202698856,-0.0106147164,0.4470053438,0.5598473726,0.5123999433,0.4084795711,0.5065201004,-0.0519525258,0.1431430663,-0.0350675078,0.2301107615,0.0025799884,-0.108376458,0.1745998387,0.0952139415,0.4503205034,1.4785346105,0.267476655,0.3967331808,0.5548818321,-0.0621885135,0.2105409969,0.2644642727,2.6255758045,0.2322947613,0.1129006989,0.3820030969,18.1279336194,0.6910447827,0.4131281421,-0.1105395828,0.2856684721,0.412715606,0.3631544257,-0.0141700242,0.5642777932,0.0192164037,0.4146124555,0.6361354129,0.4190195079,0.6992903835,0.0571993887,0.3569759944,0.4757636905,-0.0557214412,0.6934339942,0.5602272746,0.6157816532,0.4679910978,0.534528122,0.2025005955,-0.0563316597,0.0971431879,0.3220208223,0.5369920555,0.2957078426,0.4558316883,0.2544070842,0.0777241738,0.4138295371,-0.0193667063,0.5108991784,0.383862134,0.1068194954,0.2645634689,0.5283985942,0.3423721222,0.0011300364,0.507331692,0.3195823683,0.6425293091,0.3250841199,0.283644434,0.3714883791,0.4354820361,0.3852633489,0.4073052734,0.2513588806,0.0325870825,0.2891569498,0.7192759415,0.4738122099,0.6558593156,0.1110556104,0.0857040616,0.5049519791,0.7257090793,0.472697448,0.183473965,0.0419010313,0.1826339138,0.3432865911,0.4371088083,0.0774192545,0.1040932721,0.5864336425,0.4950015137,0.6754993775,0.0409847968,0.0459864872,0.4723662873,0.521552515,0.3793242415,0.3396193328,0.0006714685,0.5343321985,0.6454013152,0.3966909572,0.5170223609,0.6980522904,0.452346758,0.37386522,1.1091803487,0.8519596095,0.5726774454,0.513667335,0.7867097112,0.5001640745,0.692163909,0.7344705104,0.2436397598,0.611878136,0.8211789456,0.4635808572,0.2106779973,0.658589053,0.4732183918,0.0584850405,0.4305107218,0.5740679107,0.640067789,0.61031867,-0.0192740523,0.4895044334,0.6327237103,0.1879588037,0.0469920741,0.2149901662,0.3369993853,0.3559249031,0.9077840876,0.5693763889,0.7343815088,0.5507925797,0.9579494206,0.7736969811,0.7277429879,0.2241387736,0.2620512793,0.1070812827,0.2781172116,0.3649709719,0.3597527262,0.4794927891,0.4227799823,0.3579015779,0.4936314585,0.7460379746,0.2483893147,0.1555458983,0.4577614536,0.971143755,0.4656643317,0.4752767131,0.3008205199,0.7554124871,0.5051592552,0.9608615664,0.5759772753,0.0665241445,0.4607087061,0.1241723685,0.4987019127,-0.0399623492,0.3845674304,0.0650765795,0.2713762189,0.4688474147,0.1497284271,0.3544865171,0.536087798,0.4934196669,0.6399851592,0.347178583,0.5243760253,0.3454779878,0.0029669307,0.2362906726,-0.0399273646,0.285134726,0.5244861014,0.4796871706,0.0209294023,0.2592484081,0.6361815522,0.5177847891,0.6977696561,0.695881668,0.3484268363,0.0280182279,1.6926528773,1.0046089781,0.6259309871,0.6692619892,0.5579866855,0.5407786069,0.7853114359,0.1891703037,0.2650844221,-0.0956289595,0.1296424559,0.2831070189,0.8272155124,0.2552947227,0.5441654765,0.1994156873,0.343253763,0.3221186656,0.4813765421,0.4535401194,0.1610067097,0.0653146032,1.0536525242,0.0387756334,0.2884191388,1.4734960251,0.4462668458,0.5223303332,0.0845318396,0.2843705503,0.6173594183,0.4310162047,0.5361641007,0.0969297244,0.3544229962,0.5375860817,0.5474679627,0.1184918567,0.9294109873,0.7074192319,0.3819737764,0.2804330304,0.5027723864,0.6066694543,0.7726472339,0.3534067859,0.3892166148,0.3986619709,0.706915749,0.6300340966,1.0267097881,0.2512468013,0.4441808884,0.3429902455,0.1391134345,0.4517733768,0.3866635104,0.1487363461,0.2773963275,0.511004756,0.7068086143,0.6969759957,0.4676824632,0.283124274,0.5763487674,0.1753140745,0.0978872171,0.4700709736,-0.0071386148,-0.3336235119,0.6041560192,0.5890468262,1.2046297887,0.8846362097,0.1164035548,0.0196023889,0.578031579,0.1155644522,2.1439238685,0.3544871951,0.6353208509,1.563205977,0.7635225207,0.2783861599,0.3839477142,0.6476379414,0.4428274357,2.4899092642,0.098024155,0.624551753,0.6886306075,1.5932018527,0.8100492026,3.0944215692,0.5178891192,0.2857766212,0.3696296549,0.1433585361,0.3092530674,0.695087088,0.1063730944,0.7300903121,0.437189093,0.7004967994,0.538166983,0.3356785847,0.5482763882,0.5022574621,0.0788642702,0.4965757295,0.2928207901,0.691920569,0.0958275695,0.5053398834,0.134423327,1.0626123492,0.8932190521,0.5759088953,0.2751332275,0.6095618683,0.4464872831,0.0633022793,0.8225717226,0.6191600702,0.0681037461,0.1892295332,0.549466365,0.5435253599,0.2199278484,0.0475716941,0.3469833719,-0.0338674291,0.6947033585,0.2773261642,0.3204880718,1.6329383628,0.7729076854,0.2829736981,0.47898277,0.019642598,0.2211141792,0.3572432524,3.2652109449,0.3854456916,0.3335230185,0.4918571116,17.8269588176,0.8089447808,0.7452648245,0.3621589814,0.3850658468,0.5998571271,0.0503010285,0.5976168042,0.3579996452,0.2382899259,0.4837866076,0.3170630756,0.7267758991,0.5579669666,0.353474863,0.6699724119,0.4919309577,0.3441584634,0.2895498208,0.425172346,0.2935187597,0.6601928602,0.4196668593,0.7613440487,0.3831845149,0.0760812111,0.7489722234,0.1334428743,0.3824244842,0.711904779,0.2803519173,0.0768508965,0.5209411392,0.0839158938,0.5086236353,0.0796015114,0.2451666108,0.18284728,0.2350002381,0.1493551922,0.6697770121,0.1334444634,0.0623382431,0.4819468085,0.1110866273,0.0498150881,0.0408159105,0.4021872246,0.1554203785,0.10015036,0.322538293,0.6360115964,0.6972587755,0.6363678538,0.8655367496,0.6985764882,0.3548850528,0.5056294704,0.7727246337,0.389724086,0.1923744803,0.0996976696,0.0997879751,0.0467620426,0.0916947434,0.2922615293,0.0004700228,0.2700792034,0.5247226628,0.4611436147,0.4176184203,0.1134392176,0.5344231344,0.140915992,0.4882958741,0.2470305038,0.1108100674,0.2335305319,0.296108396,0.2578959119,0.0112819023,0.5796934356,0.7914772841,0.4847227011,0.2612013641,1.1101174567,0.7075657851,0.0821891341,0.7146925942,0.9189395984,0.3692338376,0.5863899398,0.1961686494,0.9085966289,0.5294355587,0.6295188824,0.6155615469,0.20486702,0.5218032804,0.7335708045,0.6052446377,0.3237818576,0.28128628,0.1679199566,0.4188985946,0.4211043405,0.314440111,0.3021564315,0.6259663772,0.1290886538,0.0509294528,0.0580536577,0.785956558,0.7753718174,0.5593131386,1.0347938498,0.543455105,0.8880487346,0.5014551051,0.8029697071,0.3415559636,0.1197427645,0.6719813427,0.6364409729,0.4025975318,0.5274064004,0.4027605405,0.7136118026,0.7340206079,0.1785668519,0.3268786248,0.2463210677,0.0726935883,0.8845375787,0.7408431422,0.2539890656,0.1399141361,1.0619324501,0.6140060679,0.8851345426,1.0459939757,0.7796353876,0.365687307,0.2584925277,0.0999585532,0.409174065,0.2015785892,0.5083610856,0.6886631443,0.6489956073,0.6718863286,0.6934660478,0.1804572526,0.6005563406,0.1261522302,0.2570830223,0.6687316206,0.1982009028,0.1954996883,0.5933526186,0.6465913588,0.309232562,0.6648100351,0.5624265443,0.0844481819,0.1163702692,-0.1462766641,-0.1653298291,0.1155458366,0.0575096232,0.3820155171,0.0623218329,-1.9152525727,0.7794933028,0.5128369487,-0.1822325009,-0.0477469389,0.4675878215,0.1598148148,0.2780829821,-0.1847537069,-0.5519760392,-0.7150684769,-0.1136411651,-0.1952133808,0.2465478663,-0.2848735962,-0.0414092554,-0.0630012985,-0.095638889,0.29992708,0.2300331657,-0.2361855938,-0.1427733118,0.4329256044,0.5941830592,0.5090613909,-0.4908605258,0.936444323,0.0818942875,0.1108282758,0.1009634924,0.3083241615,0.6135094706,0.5865570941,0.4817268276,0.0414720384,-0.196114102,-0.2794755106,0.1049889578,-0.2149252151,0.3464865445,-0.1022044486,-0.1407577794,-0.1794185935,-0.0991959474,-0.5549309592,-0.1832997163,0.0960288982,0.1411654303,-0.0331040983,-0.3794331953,-0.4319793657,0.2324219361,0.3254598318,-0.2263736087,0.1396419534,0.3291608765,0.5747377118,0.2490388481,0.5379591963,-0.2292065416,-0.2271246185,0.1572491874,-0.1793025721,-0.4614482463,0.1169306314,-0.0428627866,0.1675047969,-0.0684817405,0.030627362,-1.892538911,-1.637866811,0.2651682691,0.3384243058,0.7121834016,0.2891134432,0.5751489378,0.5936406416,0.56384878,0.0013508809,1.1675339152,-0.2547762818,0.1497226901,0.4415872736,0.1477260149,0.1698024357,-0.0940299708,-0.1247192125,-0.4006450764,0.6213070044,-0.088487566,0.0063501799,-0.2614286949,0.8672524901,0.0078223374,3.2484254802,-0.2712381341,0.0196114191,0.3200049154,-0.030826879,-0.0783178461,0.6131294763,-0.4278756728,0.0586880766,-0.1934146713,-0.0052086674,-0.4764564709,0.0437536332,-0.2166268729,-0.4028934203,-0.0291630911,-0.2555669442,0.2532375366,-0.1532100225,0.034767591,-0.3654980022,-0.3019128021,0.0093866032,-0.1739813081,-0.2127385265,-0.2449324197,-0.258792403,0.2174775113,-0.0324216695,0.16583326,-0.622383306,0.0552872265,0.0211622937,-0.4432883889,0.0601429009,-0.0522033763,-0.3526980068,-0.9236970592,-0.2505829762,0.0106583354,-0.3195862231,0.0833971584,0.4667172485,0.2095390475,-0.2977853682,-0.720243085,-0.2616935455,-0.509476801,-0.3403767219,2.6285766192,-0.0503380517,-0.1006630059,-0.5759423912,17.1662074596,0.1709308486,-0.4173099637,-0.0353329346,-0.2507963532,0.067497899,0.1058368475,-0.3062445564,-0.4524601532,-0.3749304772,-0.3920304172,0.3512579497,0.1465162895,0.5572007214,0.0990527527,0.0854233115,0.2300131301,-0.4630454662,-0.2034398917,-0.2346350141,-0.2444497485,0.7110184605,-0.3370374724,-0.3146286849,-0.2730231622,-0.1530432304,-0.3290181284,-0.0771833078,-0.1394186927,-0.0358904793,-0.351880751,0.0260860321,-0.468771426,-0.0127344602,-0.1331001905,-0.1697667524,0.1281617099,0.259767389,-0.0421593479,0.012175615,0.3725218055,0.0524710873,-0.4359445874,0.6851455352,0.6623705677,0.576859058,-0.2506266129,-0.0494588686,-0.3942145585,-0.3265431169,0.2658348366,0.2929472072,0.6683762737,0.1665894401,0.230747154,-0.2317166305,-0.0665773718,-0.396882413,-0.2878781473,-0.16727232,-0.0510306227,0.0857009049,0.6419412668,0.184875099,0.4340344946,0.5181498573,0.4232178644,0.3506579787,0.3544519734,0.5768484854,0.4545189249,0.2207185166,0.2314184679,0.1097045446,0.6320618737,0.038384261,0.2621934292,0.680545393,0.0412506261,0.516692874,0.0049528456,0.1172723533,0.3822507125,0.4609509161,-0.060948082,0.6846551249,0.3561084216,0.0734590724,-0.1420696201,-0.197567946,0.221277006,-0.0310879233,-0.3829933291,-0.3470422459,-0.3455377169,0.3737825691,0.0875592841,0.2080164714,-0.3621590724,0.2712313679,-0.1573976319,0.1785384275,-0.0364805108,0.2035951491,-0.165842757,-0.3097436387,-0.2144923827,-0.1756333227,0.3657544051,0.4975356398,0.638012384,0.0150795652,0.1310169253,0.2294851824,0.0539671055,-0.1474073591,0.2917942615,0.1580274194,0.2024299183,0.0634416726,-0.5417382285,-0.2899325859,-0.2945729768,0.3219624554,-0.2195311954,0.0953226812,-0.2436776081,-0.4992402327,-0.1076385431,-0.1249267418,-0.1678269448,-0.3900098065,0.5336925002,-0.0536635482,-0.1050057158,-0.0542178511,-0.3186432053,-0.2545071149,0.1323363182,0.0175137615,0.4138920887,0.1304110014,0.6400585914,0.0130986414,0.056411543,-0.3739577321,-0.074961488,-0.1087151163,0.1042294302,0.0156567057,-0.3556471509,0.0778641628,-0.1741601839,0.2381112069,-0.1662176593,0.0378384049,-0.0286287238,0.2748793825,0.008602998,0.1812017941,-0.4322824159,0.0441819078,-0.106783193,-0.0834060092,-0.2455624596,-0.7733124584,-1.2444043003,-0.9878595178,0.3876417518,0.4939542371,-1.1917370585,-0.9338319396,-13.2256850597,-0.1609928612,-1.3720293227,-1.1249701337,-1.0442970803,0.656133136,-1.8998378837,-1.9139942245,-1.1217943751,-1.6842926107,-4.6811598799,-1.5432448097,-1.8451140657,-0.9094825782,-1.4177379072,-1.2981616658,-0.3344882181,-2.3654929079,0.5031808401,-0.6958827954,0.5015672174,-1.4567345963,0.0218485977,-0.8722083943,0.2135426659,-1.0687779454,0.0820490252,0.7079015238,-0.8693375404,-1.0134350961,0.5598397294,-0.3511526145,0.4953659273,0.2048544782,0.6821279819,-0.435609629,-0.3082885558,-1.5929558118,-1.5800420637,-0.9676982365,-1.4171002297,-1.0102058668,-1.4045240099,-0.966447175,-2.3927506554,-0.9802080087,-1.0835666446,-0.9741156189,-0.7243044884,-1.0442356403,-1.1162966528,-0.9225098085,0.2169148592,0.16686772,-0.9436043754,0.4321168506,0.5734678488,0.4170572993,0.2835677142,0.4918551471,-1.5233342902,-0.9198877165,-1.3237291619,-0.8466497789,-1.3510966884,-1.0477452002,-1.3653065945,-1.1021144709,-1.025612015,-12.9085229761,-13.170840461,0.0945197735,0.6622383761,0.6949696125,0.4404033574,0.6180413026,0.7039590692,0.6257786483,-2.2816960377,-0.7319077685,-1.5312611286,-0.370531004,-0.0908385744,-1.1089415097,-0.6899158572,-2.4065554477,-1.5770011865,-1.1670791016,-13.8307120742,-1.2914611625,-1.1349421247,-0.9491172175,-3.3384237392,0.0458777573,9.0632264259,-0.3868020649,0.5863964416,0.0275364039,-1.0700785455,-0.922927258,-0.2797243009,-0.890944767,-1.3929369396,-0.0165110686,-0.6925668798,-1.6111122925,-0.4564327015,-0.475589628,-5.0834746543,-1.3102923634,0.9617261521,0.3105912823,0.0667257128,-0.9189710462,-1.3543535293,-1.3984335655,-3.2247853953,0.1908862275,-0.8396674443,-1.1884708633,-1.7491046449,-0.3297173119,-2.3477771472,-1.1671966356,-2.7372498959,-2.0375381848,-0.9617278799,-3.3061376594,-0.5029983374,-0.3851117804,-1.554911385,-5.5011816366,-1.8438101712,-0.9087238575,-1.9461386,-1.8304060495,-6.1295957325,-1.9584478563,-2.5172141404,-2.6716051087,-2.1914795222,-1.352898784,-1.0595926855,1.6117619291,-1.5953949754,-0.9006161111,-2.2064626042,16.6112346884,3.636533321,-1.5458462763,-1.8816920861,-0.9445776317,0.4127350477,-2.0415604694,-1.13821698,-1.1897859907,-1.1230744135,-1.2248149069,0.6680561722,-0.8344572244,0.0285587828,-1.2710139886,0.5358554379,0.5173146172,-1.3885164491,-1.1542506707,-1.5101499694,-0.8526744738,0.1470073423,-1.1372971633,-1.1133993128,-1.0365458051,-1.4840904027,-1.1699447394,-1.0570309048,-1.4704939055,-1.1145540032,-1.5222777401,-1.3378183264,-1.2636257673,-1.5171612161,-1.2262182128,-1.5715323454,-1.4953042181,0.5848367487,-1.4792962021,0.6729354806,0.0341753127,0.0471934475,-1.3294673796,0.0378468906,0.7067159456,0.4356163717,-1.0272979995,-1.0365097181,-1.5695648744,-1.3834872209,0.569112596,0.368817493,0.4803603923,-0.8902333747,-1.0172957718,-1.2211547448,-0.5703484525,-0.8012013592,-0.8603299048,-1.0791658807,-0.5792804967,0.5142642568,0.2355123569,0.1670854486,0.2108212169,0.0546789318,0.376527627,0.3716062121,0.6271635522,0.1886156598,0.5173400746,0.231716682,0.6296284598,0.7050923235,0.422775206,0.0984256053,0.6856284794,0.5528238715,0.320836005,0.5354415264,0.5049417601,0.5556220902,-1.0975504059,0.3087459536,1.6543202789,0.0028621024,-0.4973130331,0.4766996814,-1.2586845222,-0.5853438353,-0.6758278186,-0.6052679556,-0.7854298115,-0.9562987687,-1.2800363919,-1.0440719026,-0.9365360061,-0.9037201021,-0.0807455861,-0.2947764193,-1.0373024493,-1.5487057408,-0.4299212394,-0.7330085795,-1.025286483,-1.1655293084,-0.3725592259,-0.4266506264,0.506983142,0.4830878257,0.0447056199,0.2731533186,-1.0919563401,-1.0642065518,-0.821201835,-0.8322417838,-0.5853674249,-0.9462861883,-0.9714467779,-1.0066748388,-2.070915524,-1.4173047175,-1.1670429484,0.1178434274,-1.1950942979,-1.3017595858,-1.2406353272,-1.3253636884,-1.2338754387,-1.5717373505,-0.8362813918,-1.0699240387,0.4383843443,-1.5261140082,-0.4939488617,-1.5500228712,-1.5874662205,-1.032269758,-0.8754836135,-0.4310135767,-0.5526893381,-0.793197406,0.5287792462,0.0427497873,-1.1016633578,-0.7280165931,-1.029033136,-1.2334764136,-1.3411837965,-0.7430385848,-0.7288322818,-1.3222661856,-1.1865058014,0.7068591957,-0.9277492386,-1.1618587687,-0.6522925895,-0.6853347792,0.0091207777,-0.9934493175,-1.1020825342,-1.1515107913,-1.4041680921,-1.7376722987,-0.9795689897,-2.2815153314,0.1847949379,0.603892077,0.1527926344,0.4684861462,0.6487182508,0.5552528583,0.2351374262,1.8067942024,0.8410332208,0.5429983151,0.0462227781,0.2811771483,0.5128304025,1.0154778958,0.2869866396,0.0391179402,0.2604489861,0.2973118203,0.0983547927,0.8187771126,0.6120428246,0.8024774784,0.4961386996,0.378621552,0.4157840101,0.5743013017,0.6009416279,0.2544368077,0.0683822107,0.6560106206,0.0839909167,0.372931942,0.9606229896,0.3274463531,0.1429608849,0.1633176268,0.3284066747,1.1594234927,0.5307202469,0.63938147,0.272725979,0.1097027287,0.1028637166,0.186607888,0.6786871185,0.592806892,0.3888803758,0.5319035818,0.5806283571,0.7072886816,0.0548372868,0.8756185862,0.5216147723,0.0932372711,0.6678103339,0.2432771137,0.6165066984,0.8970406451,0.3869081744,0.3530820027,0.2761921766,0.2521695962,0.6934502546,0.4890621037,0.1042051143,0.104490573,0.3085644441,0.4782016292,0.2241372429,0.4456920882,0.2501825332,0.2865637537,0.5715742259,0.3208137996,0.3823150616,-0.4178727667,0.2689603099,0.5997915674,0.5103997513,1.2063762371,0.2992976299,0.2735550942,0.4179517593,0.3310433015,0.4369545649,1.5602552833,0.3996936359,0.4287274647,1.1832641455,0.3345689329,0.1882163116,0.6733244132,0.6205876777,0.70501262,2.4942449042,0.3855129368,0.7210222486,0.4818978331,1.8422233714,0.6328374147,3.3274629581,0.3192085807,0.3061036617,0.2496060726,0.2585933841,0.4023417761,1.0239297416,0.7101506234,0.1865745313,0.3863304335,0.5033242276,0.3000512872,0.7120118653,0.2428073798,0.4938225478,0.3100260984,0.5045833013,0.6367505851,0.2119737165,0.3249616889,0.1706704892,0.6036536573,0.889667227,0.6994549094,0.4531694454,0.4836992072,0.2364989959,0.8034463196,0.534916964,0.6543990727,0.1230541834,0.672713577,0.3951418288,0.495167526,0.4725625336,0.3913064357,0.1496520174,0.0084221294,0.6517217932,0.48110939,0.5559854028,0.1399898093,2.0285479828,0.2408688745,0.3364638449,0.6109091646,0.6944186974,0.1572041026,0.2869232792,2.7481685791,0.2148535546,0.5733062515,0.7048603517,17.8309249194,0.748830833,0.2805129621,0.4960513722,0.3595239951,0.4887920012,0.5092565916,0.5713120426,0.3782953422,0.6525834012,0.2844351128,0.698796004,0.5694656139,0.4522656305,0.05055435,0.5514383744,0.1316066298,0.2725512639,0.2627686063,0.4024813,0.8405311948,0.5372424775,0.4781056317,0.3263574675,0.5046213888,0.3110645674,0.1569958921,0.5685654586,0.3631025594,0.152335391,0.415300376,0.5890953448,0.4465261425,0.6195746191,0.4123199914,0.5360825732,0.1856226777,0.1086163655,0.5679402203,0.341267337,0.3806773708,0.5078695031,0.3485980972,0.3602784385,0.0952710214,0.3483000704,0.2393627439,0.7212508332,0.204379794,0.2768904587,0.496434552,0.441082926,0.6382673239,0.5798972177,0.5514613937,0.8029299267,0.2385135388,0.3177252617,0.7279991037,0.7588195214,0.7904558587,0.3069458409,0.0418321058,0.1796114638,0.2984708451,0.1210925224,0.3850118741,0.6829704744,0.441586401,0.5426134914,0.3111739237,0.6375166721,0.1613571184,0.1861284002,0.7020568833,0.0737109273,0.0369927705,0.1649226961,0.1643061982,0.0592904658,0.5481486836,0.0134026804,1.0396993257,0.066250032,0.5535686697,1.2320553005,0.7026897543,0.2692066924,0.4597811879,0.7308066398,0.5147137432,0.778307227,0.3156333418,0.8116243912,0.1637256604,0.7569307467,0.6868643513,0.3993175159,0.4241538454,0.7871387236,0.2438354713,0.1027178467,0.8075399828,0.5743479933,0.1074460407,0.4000991944,0.4945229591,0.3867188987,0.4772837068,0.0395715959,0.0341603466,0.4383796809,0.7685433194,0.7300900955,0.4478005512,0.7798673835,0.8707312885,0.7985625559,0.8023146129,0.8186344196,0.4410573019,0.2091391562,0.0864339675,0.041334584,0.7410879189,0.2264311539,0.4732188595,0.6365435408,0.468500681,0.3449742971,0.4131402704,0.0744476323,0.0445030322,0.5453149197,0.7179185722,0.3739061033,0.5372608871,0.4414392277,1.0437791242,0.3941775277,1.0421053195,0.551399194,0.5169744642,0.6526073461,0.4726381926,0.6549523153,0.6505172781,0.3543524503,0.6613560648,0.8569233014,0.9791062618,0.8445810224,0.837419848,0.0214250892,0.377660273,0.6386739415,0.4600875526,0.4536604223,0.5713156793,0.499860898,0.6549611303,0.2683730937,0.6466381992,0.3526099476,0.6462556751,-0.579630677,0.0470724747,0.950332124,0.0659717712,0.6134521302,-0.3540427444,-0.6365935347,1.8493728055,-0.1167210548,0.3225510998,-0.1060201056,0.1726897718,0.3410262364,-0.1416470848,0.0672206494,0.0041100183,0.2497781155,0.2695926954,0.3158640664,-0.1909671753,0.2291650783,0.3924335076,0.0827251977,0.7872782542,0.1416007363,0.6053204681,-3.1055415717,-4.1461484057,-0.0637974303,0.4486720404,-1.2374534809,0.1251856136,-0.1432172777,-1.0948128849,0.0544575357,-2.3863613589,0.4110077347,0.1806099743,-1.1486909003,0.0220695464,0.5691410473,0.6797607239,0.348315204,-0.3372631714,0.3172311425,-0.1548926288,0.3018802755,-0.2463528476,0.2157599254,0.1319037835,0.315058781,0.9668901488,-1.0120562457,-0.3613344628,-0.0674202896,0.0335414845,-0.0220721923,0.2250552507,5.7107111136,0.1710534212,-0.1973691415,-0.240479906,0.4752455135,0.6682692665,0.5885086965,0.2180265754,0.4427385565,0.0913893087,0.3297056519,-0.3437872619,-0.0863280707,0.3301941369,9.5944840927,-0.0586809804,-0.1620366862,0.1068641558,4.7680894814,0.6920533846,0.3969291591,0.3845020076,-0.8354453546,-0.0520024449,0.2804601037,0.1356500793,0.4754346886,-0.741367829,-1.3005356532,-0.1501226393,-2.4067136758,0.2509073516,-0.2485252187,-0.0549206997,2.3032965959,0.2346662147,-0.1479964959,-1.6712292075,-0.2183681973,-0.0133209968,-0.0115702892,0.5023312927,-2.7599712023,-0.7733390496,0.1262367977,0.1107409799,0.2330909803,1.8904576196,-5.5669818265,-0.4856457711,0.343067984,-0.0494812226,0.248163127,-2.9268951293,1.5819693265,-0.1533720653,-0.4821243783,0.6728039576,0.2840488551,-0.480400464,0.3798881617,0.068489678,0.2645790154,0.1915726896,-0.1772022528,0.3037668179,2.33499447,0.1449666181,0.3794860988,-0.1372732293,0.1230735685,0.2737743618,0.2433106907,-2.5994865897,-0.0694879715,0.1729220364,-2.185058419,0.4515726494,-0.0303600707,0.1311777491,0.4751998543,0.4705983607,0.175042844,0.0011237636,0.4136835069,0.8545823435,0.3385742564,8.739230546,-0.0093392906,-0.0042498046,0.2750089976,-0.2201171063,0.2310518941,-0.1942957257,-0.5104133695,1.5301059679,0.3779426026,-0.0379189872,-0.1961281177,0.3315492682,0.1395130629,0.3411458537,-0.5399115834,0.2055233961,0.2739235918,0.008150081,-0.2379232843,0.1004503292,-0.2798809424,0.6027078119,-0.0208546367,0.4324592794,0.4555466557,-0.0576635852,0.3421344266,-0.0396858402,0.3249699733,0.3694590599,0.1356473302,-0.1264252812,0.2023227425,0.042630242,0.0899016245,-0.0331316335,-0.3155128215,0.069952312,-0.2109878748,-0.3092118527,-0.1620389359,0.2392400286,0.2322070632,-0.0879835362,-0.0374251271,0.6310657141,0.2807287036,0.2033628438,0.694326946,0.3909776216,0.1210320542,0.388991436,0.3659051426,0.6536375053,-0.0892908566,0.1860846847,-0.1656918753,0.2381221339,0.0655138097,0.292128845,0.0029257948,0.1867119619,0.2826849833,0.2437059627,-0.1580506557,-0.2082429396,0.2712588757,0.1832973267,-0.0614320155,0.4943731972,0.2829884635,0.6671576869,0.0207935727,0.0682278229,0.4976285604,0.4776535961,0.3958836441,0.471658958,0.1381027256,0.4510070868,0.6625992271,0.1811550857,0.697869547,0.2386428198,0.4120150194,0.1695612346,0.6795183867,0.6937024308,0.2712293499,0.1069964801,0.3146345671,0.4802858996,0.0322597662,0.3404494618,0.3142297649,0.5275154685,-0.057511996,0.2158073641,-0.1191916478,0.2692088062,0.2175351086,0.125329271,0.3164595418,0.244024071,-1.9682532611,-0.2370456839,-0.3827236236,-0.4041359443,0.3177614746,-0.1613225837,-0.3115785237,-0.424714075,0.2393037092,0.3235499494,-0.3418393791,0.1547387745,0.4438460958,0.0629145768,0.3758540579,0.6326507285,-0.2076212103,0.1115704435,-0.0295684596,0.3021839411,-0.1622042806,0.0559553722,-0.1302411076,0.3695273182,-0.5245472336,-0.238680004,0.3733940613,0.4827019452,-0.1162415746,0.2597479205,-0.2663656778,-0.2902616276,0.5446197484,-1.21747902,-0.2205800039,0.1219127951,0.0265894545,0.1488438598,0.3381641162,-0.178738061,0.2286456045,-0.1337557279,-0.0388856511,0.2725595395,0.1672129691,0.3044387209,0.0683386584,0.3728087118,0.1385600958,-0.2965780897,-0.184435181,0.284241327,-0.1376675242,-0.1952937245,-0.172024606,0.2883639203,-0.2314808016,0.7038733615,-0.146847832,0.0010533596,-0.0344707396,-0.3227374719,0.213038022,-0.1811037735,-0.0967120351,0.1339386741,-0.0388159768,-0.0806226604,-0.4161283737,-0.2217385813,-0.3355201072,-0.4682982136,0.2423907457,0.2060990903,-0.1091434543,-0.4593815282,-1.5908457558,0.308709465,-0.3325563625,0.1658946589,-0.4777741066,0.4817003147,0.25430244,0.3774244776,-0.2627072273,-0.2758225702,-0.6465438947,-0.4091281038,-0.454089726,-0.4760237628,-0.5739564415,-0.0179290088,0.1646370267,-0.2928302077,0.5160496312,0.09091564,0.1119483427,0.1067364987,0.3583165763,0.0932332651,0.365002276,0.1343510389,-0.1263239123,0.0213526565,-0.093156004,-0.2723790021,0.6759502354,-0.0433797622,0.310104921,0.163649034,0.241412273,-0.1604277391,-0.4078993006,0.1191294882,-0.0854872511,-0.4715773602,0.0271384803,-0.0287790418,-0.0164709664,0.1015302238,-0.5327368169,-0.0948057008,0.1575831477,0.1601429397,-0.1736406781,-0.2068117232,-0.1835971748,-0.108159734,0.6081561464,0.1683649942,-0.4534274043,0.346553922,0.3728508446,0.5680542392,0.2308707809,0.141637141,0.0850080834
   -0.4224064131,-0.3471700118,-0.239116278,0.1081571295,-0.4449126166,-0.3246202028,-0.462519101,0.0525151691,-1.6637126432,-1.6615926871,0.1003698446,0.6842769002,1.1541817472,0.2263673029,0.3117272358,0.061253266,0.1792337241,-0.6091024918,0.7007009237,-0.1464998125,0.2150391149,0.2746102566,0.0119295735,0.111245719,-0.5129061142,0.122875832,-0.2257471645,-0.6605868034,-0.0327782212,0.2252820047,-0.3420239897,-0.9239387724,-0.0899524281,3.3508558821,0.0853544377,0.2460504788,0.0104833115,-0.1009240802,-0.321298575,0.0647935435,-0.2400662034,-0.1142125803,-0.153001978,-0.0915850924,-0.0050810618,-0.3220757746,-0.2328457417,-0.6575351946,0.0351531722,0.2667735472,0.6620276975,0.2539848693,-0.3620105352,-0.3225711063,0.1583556492,-0.2327922174,0.0358207597,-0.2485837212,-0.2894967746,-0.2298896198,-0.3124483957,-0.4832009386,0.3495596156,-0.1375246243,-0.0139563346,-0.1065245298,-0.7289316609,0.0322540642,0.1543314121,-0.1468829776,-0.9365458683,-0.5853244589,-0.4195095308,-0.248944694,-0.0994314757,-0.7094896218,0.0078035305,-0.6259039365,-0.560738622,-0.4039784319,-0.4947930098,-0.1036800612,1.2893205203,0.1344983224,0.0624486766,-0.1271866663,17.6316084639,0.2508546076,-0.3375894194,-0.1386866195,-0.1188048871,0.4288848284,-0.4678762595,-0.3444968537,0.1999539769,-0.2599834016,-0.3398960803,0.6467750563,-0.163233825,0.2948115062,-0.2229363874,0.6570676135,0.2316923463,-0.4183186082,-0.2058874176,-0.2135444515,0.0207314773,0.3350551944,-0.1410443473,-0.156508449,0.0480376257,-0.1683749671,-0.5273281805,0.0449804613,-0.346312658,0.0262267358,-0.5178148154,-0.0872530984,-0.4867967994,0.0372468556,-0.428067709,-0.0364350047,-0.3632304705,0.4407128993,-0.2449947015,0.5447505281,0.0808837842,0.1598661192,-0.5055775882,0.2653148968,0.3542547112,0.6573157994,-0.0152456499,-0.143983724,0.0061292724,-0.0331518609,0.6471906312,0.5164004665,0.359875877,0.2354136059,-0.1859447223,-0.3481036302,0.0379832659,-0.2901756893,0.084372196,0.2815013051,-0.0321946094,0.4509962468,0.0570391811,0.0064651711,0.0629642563,0.382859074,0.4769933128,0.1808924129,0.4536038776,0.0859509533,0.1238177967,0.2502872749,0.172305274,0.5746837832,0.0870728067,0.5878604172,0.1131879317,0.6655063284,0.1554152263,0.1152286629,0.5289393275,0.0791371617,-0.263667104,0.3773838352,-0.2678245526,0.7643008649,-0.2010730766,0.4821172436,-0.2849909159,-0.0059160811,-0.2918318659,0.0017461027,0.1268776476,-0.4445058565,0.1503661131,-0.072731221,-0.4209609765,-0.397260392,0.0343473735,0.2157866896,-0.5068504433,0.0495064107,-0.2729004158,0.1913473127,-0.0114955185,-0.4710793085,0.2495679734,0.0300366229,0.6934661247,0.0059510978,0.3178222504,0.0881425289,-0.0268741535,0.0956605442,-0.0087717246,-0.1211322174,0.0532134541,0.4232669246,0.1164510698,-0.2141498627,-0.3903702977,0.0648600325,-0.3814492047,0.6459944045,-0.3855962105,-0.1575994853,0.0615328627,-0.11407559,-0.0303075871,-0.032043237,0.1513943545,-0.2761229274,0.3001494033,-0.0819968305,-0.0562736472,-0.1654766629,0.0344394514,0.06899261,0.0947584003,-0.1388495547,0.2434830888,0.4155975799,0.2695683128,0.256808104,0.164002277,0.1214347897,-0.2206654766,-0.3154557217,0.2317432997,0.1033341571,-0.4260135952,-0.3960421074,0.0631475972,0.6307047172,-0.3598086063,0.2550035052,0.0379531268,0.0496286746,0.4612274455,0.1542592291,-0.0625800333,-0.3006963539,0.0828621104,0.0361081111,-0.2251544983,0.0032308998,-0.2199297473,0.1636788443,0.6501009661,0.6269552325,-0.1468856172,0.1088314006,-1.7458509649,0.9750984847,-0.0680648533,0.0142997236,-0.3794177258,0.2729270931,0.0763118956,0.3413538753,0.2413622923,-0.2537557595,-0.6937950938,0.1407357498,0.0392371052,-0.1924061203,-0.0066159122,-0.0537378788,-0.1235841754,-0.2893393748,0.6776001499,0.1275730304,0.1688920521,-0.0155917889,0.2522907083,0.1003206495,0.3355631873,-0.3856322086,0.4666706927,0.6062619546,-0.4692796585,0.0834932159,0.0895602018,-0.0331443172,0.3635741004,0.6337735185,0.6844553422,-0.3927011021,0.2497329681,0.1332705158,-0.0387216829,0.3875899718,-0.2941281031,-0.1156254499,-0.2785179402,-0.2863339153,-0.4083565223,0.3037975384,0.179606123,0.0360037468,0.0512752596,-0.406883303,0.1951939698,0.0931531224,0.3208164147,-0.0423984903,-0.049578755,0.6960234657,0.4527766534,0.5050350501,0.6123683719,0.067660742,-0.144681454,-0.1563077054,-0.0334126166,-0.3285782093,0.0947056323,-0.024635754,-0.2346198188,0.1366752552,0.0718919703,-1.6566515803,-1.3569677144,0.307269162,0.6215517034,1.1705118998,0.2155220099,0.218178984,0.7018877472,0.0916356114,-0.4550401843,1.2369871181,0.0950169909,0.0291197529,0.9387371264,0.1349045284,-0.4333429767,-0.5094350741,0.1221697384,-0.1774786862,0.3882197652,-0.015716191,0.1689389038,-0.025491852,0.6569734761,0.0775693213,2.9594597182,0.1494190924,0.5288637424,0.6320752729,0.1185232219,-0.1587540094,0.3189080973,-0.3369497674,0.1440414361,-0.1713849019,0.4840416945,0.0248324056,0.1682493074,-0.1608450975,-0.3566940428,-0.4189707995,0.2810570038,0.0992965254,0.3353724361,-0.2989604384,0.0734929143,-0.3091690178,0.3592470659,-0.1029981486,0.2179844815,-0.0043726578,-0.5295646519,0.2686875509,-0.1568987876,0.2180745276,-0.0711012851,-0.3489480889,0.1602949799,-0.2760649907,-0.1678231533,0.0293315226,-0.4574981173,-0.7286143063,-0.1277115737,0.1766421082,0.0191126613,-0.502638561,0.2598828241,0.1679075061,0.1885656604,-0.2550390127,0.0490882026,-0.4304664378,-0.3810219883,2.2705240022,-0.4902722076,-0.143539517,-0.0013966768,17.0761749644,0.0863130079,0.0605017461,0.0185173997,-0.2762375572,-0.2564394218,-0.0158549898,0.1052163996,-0.0406753256,-0.2862122581,-0.4348872061,0.5725458814,0.0640578627,0.5860890346,-0.1548082853,0.3620638379,0.1640927701,-0.3043963277,0.1501580527,-0.394284398,0.0890751798,0.0905239862,-0.1594969081,-0.3335858622,0.075479417,-0.2313760718,-0.4850118221,-0.0938340035,0.1755087319,-0.3458030536,0.0659864973,0.1267831269,-0.2156733685,-0.2654969721,-0.0412958193,-0.325569436,0.059549273,0.3155422799,-0.5446458371,0.6434685403,0.4246367863,0.2869433684,0.1185030327,0.4269475336,0.1299152316,0.3691236855,0.1289909851,-0.4983128812,-0.525335252,-0.3350001121,0.6543098031,0.6652319689,0.1753343507,-0.1872526708,-0.0607302642,-0.2429804249,0.2218109714,0.1938139058,0.1808869813,-0.2780234513,-0.2937670687,0.0379762769,0.4616998421,0.5175214207,0.4533247078,0.3164638324,0.386543905,0.5124995289,0.2957669883,0.0119931512,0.6238262246,0.5962243842,0.1314345323,0.2313621262,0.0121933957,0.5342333028,0.3438845393,0.4157881529,0.1868137191,0.5922387232,0.3368885312,0.4761661606,0.1123327252,0.7040980957,0.0121814982,0.8158670012,0.0486483968,0.4321524736,-0.1821270817,-0.2979445538,0.0192596634,-0.1993129175,0.2862165918,-0.3035226447,-0.1799399815,0.1547258767,-0.0595601751,-0.1505007688,0.0856391054,-0.3419977083,0.0140701278,-0.4495784872,-0.1967762274,-0.2680787829,0.1717633804,-0.154795933,0.0940526038,0.01377992,0.6726906173,0.5588907565,0.6239620436,0.6006476592,-0.0611541913,0.0645721292,0.0057614883,-0.1450702989,0.3101719675,0.4475630327,0.0708771104,0.1685049709,-0.584686695,-0.110841216,-0.1937806416,0.6988679554,-0.1119641521,-0.1721904224,0.1742756442,-0.0255327123,-0.3464894825,-0.0462587859,-0.4302609021,0.0233353225,0.1000863521,-0.0506690106,-0.1396180634,-0.131080991,-0.249173173,0.0857007835,-0.0526974837,-0.0496438082,0.0983180666,0.2101456267,0.6968280642,0.6113771377,-0.4727494507,-0.1600719037,-0.152580699,-0.2048403768,0.185874904,-0.146489404,-0.3239884626,-0.3163310881,-0.3314401683,0.2104787223,0.1723803339,-0.3920273864,0.1412290626,-0.3274732251,0.702224325,-0.3560532335,-0.4141216767,-0.4197342064,-0.0918682797,-0.22889735,0.2472292539,-0.5649878417,0.0706346072,-0.0558209202,0.3305667518,0.1112732103,0.892295925,0.1830711052,-0.3652577096,1.4639520406,0.9393715104,0.4988798134,0.0125427212,0.0773703864,0.8775332107,1.0147235213,0.1951644628,0.0567221218,0.4735546921,-0.0457815106,0.2347855319,0.4809914101,0.3755297088,0.3314104875,0.1314943247,0.6271953301,0.6398299497,0.422603537,0.0103031552,0.588444119,0.1866769506,0.6472065273,0.1491155233,-0.0286117433,1.070155603,0.2297202719,0.2866424264,0.5105020585,0.2396488096,0.4601281429,0.4009236756,0.2425781942,0.3678133414,0.3480920005,0.3080676648,0.0155625424,0.1794964924,0.5862732667,0.0534531877,0.0402642817,0.2693659192,0.4332359614,0.5406423649,0.7037789536,0.5957768522,0.2391838847,0.5695197114,0.2472964977,0.1695472353,0.9239487231,0.6104049667,0.687363123,0.225204615,0.4732813809,0.4773709931,0.0343754178,0.0657699071,0.6288436601,0.1094060812,0.0966788365,0.0748373872,0.411491319,0.3542763437,0.4797412305,-0.0143281156,-0.0509031972,0.4166025807,0.0839156219,-0.0642514471,0.0084067632,0.0531151802,1.3162930301,0.6135133448,0.0845351194,0.4392501392,0.4294588022,-0.1229101686,1.6031675065,0.1601877066,0.15509728,1.5094955996,-0.0412012566,-0.0084307544,0.4667548595,0.0247364559,0.287441574,2.2317127617,0.503820271,0.6287129479,-0.083806687,1.768697836,0.1887057057,3.0104737545,0.5666949891,0.4593983256,0.5055898748,0.0739420348,0.4425203385,1.028336396,0.5920480055,0.4662406813,0.5411913773,0.5334978759,0.4555299565,0.0473156344,0.1275251372,0.2275273197,0.3053890112,0.3436649998,0.6101811272,0.5833758609,0.5678876773,0.1763147419,0.1363802129,0.5364395511,0.2558378552,0.6685829746,0.3289060914,0.0549262753,0.388715054,0.3305798256,0.6213847843,0.3766449128,0.3544160523,0.0669976968,0.1542370966,0.4834370049,0.5119172263,0.5786634905,0.1906286481,0.0099177464,-0.0148590684,0.0918100928,0.4885454858,1.4583539718,0.179851735,0.3396228748,0.292988627,0.2551159134,0.4385335769,0.3075672006,2.5714872438,0.2131945478,0.4609605422,-0.0085298034,17.9272782467,0.2700518876,0.1653212509,0.5677887392,0.3973483014,0.3793146106,0.3081755163,0.1116432645,0.5131844564,0.1542727326,-0.0742983491,0.5486316699,0.2176349529,0.0836327055,-0.0393264038,0.2802260591,0.4168206268,0.0170222314,0.2154497656,0.3073841386,0.6422495948,0.5453082749,0.0356773221,0.3123366876,0.4237314581,0.4506322628,0.419817747,0.1453785164,0.5573505008,0.0115512688,0.5883299116,0.2263952547,0.4672037721,0.2875824989,0.1354349477,-0.0522217774,0.4382236857,0.6778538371,0.2499614309,0.0147277348,0.4599736253,0.435888608,0.2409057137,0.2653255642,0.5918292678,0.4068121897,0.5190377317,0.2853020434,0.5922609548,-0.0430318139,0.0377477057,0.6663299103,0.3204188864,0.9012287937,0.8643335792,0.5128776836,0.6430892893,0.3468469018,0.5448044648,0.2123263322,0.1425556868,0.4430095152,0.240539106,0.5561129506,0.688791377,0.3673137285,0.0332623147,0.6077748989,0.285769455,0.4480840045,0.498636869,0.4443030923,0.6417965242,0.0517981905,0.3745652612,0.5163726571,0.4790305394,0.1385506076,0.4615700094,0.6998707906,0.4582256384,0.5378411729,0.3989131054,0.0523029439,0.5153655623,1.2874632104,0.4091185011,0.4179757231,0.7083827422,0.7417461261,0.4699357872,0.3934120119,0.195322287,0.3173748135,0.4385696249,0.7406469904,0.0821341978,0.5509834904,0.223091203,0.2429125647,0.2290527161,-0.0369639224,0.1879890174,0.3429426437,0.0647730756,0.598454151,0.4055710247,0.4111797381,0.0864025582,0.2482054023,0.3894125094,0.2969939865,0.4388436372,0.3346121337,0.6764827281,0.5320505131,0.4475831065,0.441546438,0.7609033556,0.6818382622,0.0608879028,0.6071708269,0.0421394387,0.4341216954,0.3736002483,0.3309034904,0.0642726784,-0.0791965842,0.0771039333,0.1910571554,0.0930525793,0.2463797274,0.4371675074,0.6002417084,0.7900238958,0.4892037805,0.2092065041,0.6869849243,0.5178143348,0.9701551733,0.759764987,0.894343718,0.5680765563,0.681406044,0.2963921762,0.1048371964,-0.0519768408,0.6065759066,0.4433274189,0.4777326033,0.4242381697,0.4542708787,0.2047211632,0.6252008043,0.5640412733,0.1627436582,0.3618420296,0.4812679403,0.6228039377,0.4989402304,0.6074805968,0.5312187663,0.3833506081,0.3480459579,0.5679750161,0.4677564973,0.6032528865,0.5808551347,0.3818264838,0.1669024177,0.8726216779,0.5398734908,-0.1473853865,1.7310420317,0.8735287833,0.8126690849,0.1781044298,0.0467884981,0.5226409446,1.0786276575,0.7943924843,0.6050662871,0.0025138774,0.2770029351,0.1775919524,0.2899226611,0.0978270076,0.3676537232,0.2216276518,0.434754046,0.5770691753,0.0742750168,0.2961255332,0.4482061397,0.3968500958,0.9394779502,0.4481550439,0.1193084212,0.9935578344,0.6242334766,0.17717865,0.6651048988,0.4694501101,1.0757496812,0.0746054407,0.0135067513,0.1959066911,0.7052360101,0.6024299811,0.225932844,0.3213295479,1.0979546157,0.3334842444,0.1503087206,0.0907420307,0.1005467031,0.1699712104,0.731843832,0.4922246055,0.7250435549,0.6352124336,0.0857398745,0.2705855784,0.7756476941,0.1348758714,0.2241742737,0.1362782288,0.4321095164,0.3869776199,0.031279463,0.6126947732,0.5974242022,0.0514195525,0.3292880253,0.5542294976,0.6454441928,0.2703696668,0.2060426667,0.3130806456,0.6221544596,0.6246741379,-0.0904483522,-0.1373593235,0.2332817336,0.6215244485,1.7817425865,0.2205842924,0.0633119283,0.495375151,0.1965824221,0.493499966,1.471903628,0.1232140081,0.2715376659,1.1362642207,0.6032963186,0.2665478492,0.0173901249,0.0658395124,0.6645289245,1.9435536437,0.5449324217,0.2706354173,0.5641730196,1.415769404,0.329797218,3.3568659569,0.7726972832,0.0444738736,0.202298018,0.424359053,0.4577433405,0.779508319,0.2125013121,0.3361121956,0.2530870073,0.7861405345,0.0740433953,0.7712856633,0.2508943003,0.3281976853,0.5352804679,0.3843844086,0.3570250387,0.1300393281,0.2076743849,0.5330043271,0.0847750626,1.2587945241,0.5738210481,0.437317939,0.6388024408,0.2799505539,0.7382331691,0.4325796417,0.8147595191,0.5338086628,0.6350270045,0.0551253775,0.1783864705,0.0906899806,0.4328549914,0.753625241,0.3768159275,0.6506473122,0.60485154,0.5426413853,0.302175902,1.7105318764,0.5705241674,0.2189637489,0.362191698,0.3226081177,0.455497277,0.353866833,2.9932460742,0.689873195,0.264897932,0.2632002531,18.0897133436,0.4347860654,0.0603289458,0.3926003728,0.7751433252,0.3407837724,0.6196138961,0.5102698239,0.5712256445,0.67060227,0.5116189232,0.4955760804,0.5823667967,0.0061545076,0.2161552721,0.6739292688,0.2958890333,0.0498859861,0.7773051277,0.1715142923,0.2315114543,0.0998686756,0.2416449043,0.4114664403,0.4414540357,0.1580758938,0.6379602938,0.5629838928,0.0807532699,0.0645334879,0.1132228375,0.6657765072,0.4650173047,0.0716756303,0.4462581125,0.6791476029,0.2198776,0.2559531774,0.1465470774,0.3128777825,0.1704363959,0.4354426172,0.3386859668,0.5002387539,0.5465738193,0.4924777674,0.0389411745,0.5194249574,0.5379421107,0.4163240167,0.1451994316,0.4929477181,0.3518726842,0.8932443537,0.9580384636,0.6255963489,0.4384715012,0.4029094763,0.3452696228,0.365696146,0.3589478156,0.2245951482,0.4427149076,0.1677717437,0.3965546168,0.1387195576,0.2858731294,0.6764778627,0.3418396439,0.6085088786,0.6152381975,0.5687440537,0.6398523893,0.4161643806,0.3431898856,0.6951900607,0.6601757092,0.3153247949,0.2963854885,0.1474844377,0.0052824103,0.2482752018,0.9437628789,0.6749597596,0.544014401,1.2158441313,0.5767815189,0.4011533235,0.4154723971,0.3578312679,0.7572955936,0.5902861589,0.6444524932,0.7730278139,0.4822061835,0.9901216737,0.0319695521,0.4748236115,0.1119856865,0.6999918866,0.4239631391,0.2195528135,0.7407734717,0.5380029249,0.4683425309,0.4582851498,0.5061291904,0.7630806804,0.7071952941,0.4010649896,0.6243369519,0.061759872,0.9751307944,1.0193523397,1.0090979709,0.538519447,0.7395981772,0.7272338545,0.8485289925,1.0517483501,0.6137755387,0.2750182324,0.3902922114,0.0694927234,0.4087558197,0.6747810093,0.1029850467,0.4928812566,0.2738045784,0.693293645,0.3520629917,0.2510963584,0.1786639189,0.5420692082,0.7811692278,0.6598693286,0.6944947927,0.6474573318,0.8320601176,0.6669682938,0.9757147977,0.8923364757,0.1515629018,0.3482573072,0.5583939951,0.2517384639,0.4958285551,0.4536641652,0.2610708804,0.6323453403,0.6569124349,0.3705697254,0.2905536134,0.1152386298,0.204504963,0.6416190912,0.8537258571,0.6306896781,0.1177976242,0.2818449148,0.2544315948,0.4257205062,0.5636192242,0.5507835136,0.7144417969,0.6813149505,0.3599564286,-0.0831628405,0.0637806555,0.6671676701,-1.7989620379,4.3759606974,1.8565653386,0.070286688,0.3691005383,0.055140372,2.3600486805,0.5479243936,0.3309442736,0.1065683783,-0.2147827283,-0.3688541132,0.0577668808,-0.0498949941,-0.0712993671,-0.1936842935,-1.4630735212,0.3243129831,0.3089864152,2.2220716124,0.1547488047,0.1289541903,-2.0522602601,0.3347138985,0.0930515809,1.704352659,0.5635112791,-0.0701352428,-0.1206570862,0.1097030385,-0.0966083427,0.1454999545,0.4157251233,0.875862225,0.3111304778,0.5415925394,0.0441659677,-0.3603739129,0.9688966463,0.2521989337,-0.3018441156,0.372329109,-0.1304420319,0.351497142,0.1247481715,0.074757909,0.0101690459,-2.1500740938,-0.6411937708,0.0602751971,-0.0415561681,-0.1316589542,1.2078038481,0.400541881,0.0797184747,-0.063106034,0.1922446893,0.6825926062,0.2004773114,0.0076511061,0.5857858515,1.1105524787,0.2880711214,0.1919407817,0.274494365,0.4832262414,-0.3004099903,-0.1130171478,-0.045900193,-0.0974019961,0.1977494717,1.9598899115,0.8141991467,0.6994385238,0.3043853133,-0.6119724671,0.4270225128,0.1324864646,0.2241613177,0.1479801535,1.7471480098,-6.2334964476,0.8854321453,-9.4047182184,-1.4272190456,-0.3144945908,-0.142193239,-7.8633880933,-2.9938899353,-0.0969145756,0.1450175824,-17.456895142,-0.2984337059,-0.039398208,0.0981819732,15.2544901648,-0.3146945651,-0.2157647978,0.1216949548,0.6927430201,-6.7677805831,-0.1834362992,4.789524449,0.0014361271,0.0175659734,-0.6556602929,3.9949088287,-1.9431380149,-0.0769041339,4.1917150524,1.2122506438,0.4426733457,-1.0566415082,0.1110304488,7.1085112225,-0.174497184,0.0433248427,-0.2457951297,-0.5857910237,-0.7028663663,1.152329842,-0.4298470375,0.0842234591,1.3684630712,1.8780919694,-2.8043172102,1.5651132991,0.1131543371,0.1475573641,1.4880387198,-1.8209243587,3.2546884711,-1.0156103922,0.4135167075,-0.1031288675,0.2376570649,-0.0570445354,2.2052415502,0.1064235152,0.0446336735,-2.4295987599,-0.2684642818,-0.0366415763,0.0206048399,-0.179645557,-0.052803948,-0.239190605,-2.0790672214,-0.0093826855,-0.1396343977,-4.5952515367,0.2008077682,2.1580572667,-0.4181631812,-1.4556251106,0.4070307954,1.8497804882,1.6498842666,0.1589121294,0.3298854027,0.0116009155,2.1269175406,0.2278553973,0.3168247351,0.4858797745,0.1252110056,0.1104589388,-0.1415657194,0.0701626248,0.8806286421,0.6638550131,-0.1085584462,-0.2876921192,0.0998263288,-0.2437769706,0.0787282727,0.2345749525,0.2629844986,0.3603779567,-0.2509309036,-0.1864814917,0.0126010774,-0.2034155531,0.025131026,0.1491644797,0.1437222727,0.0135254798,1.3766751909,0.4218673087,0.2480324431,0.2496497974,0.2434411604,0.4461654839,0.3765481016,0.1571434684,0.3412577077,0.0716210801,0.3904477663,0.0856786689,0.1709846116,0.4987822625,0.3680515361,0.0362828401,-0.0781413989,0.330689066,0.4687927311,0.3861128457,0.4519641443,0.3667168039,0.0710880271,0.499446791,0.6613814418,0.0950803743,0.2689412226,0.6320517112,0.1909888705,0.1601883196,0.0941673771,0.5616418433,0.4352165883,0.1897590077,0.3907535864,0.0895099793,0.3433019955,0.4425507557,0.1431507648,0.430042849,0.0283135028,0.3374058315,0.5973398323,0.6326653519,0.0294702689,0.6195486342,0.1347628867,0.2327232288,0.090581226,0.4971479464,-0.1843938597,-0.1668698344,0.03245374,0.2208171159,0.0318997411,0.0609014397,0.1970606978,0.3921832389,-3.3079957095,0.2321183164,0.2928103882,-0.0631808984,0.2360896876,0.1806838218,-0.4131308036,-0.0020677512,-0.2377348701,0.1302221797,0.0711901282,-0.4595635571,0.0922592637,0.5191699929,0.477103978,0.5972859346,0.5032775005,0.2179527765,0.3837269308,0.5171606952,-0.0980276494,0.0574496376,0.3512774584,0.4750608868,-0.1252837511,0.0765305501,-0.0917004734,0.439802318,0.3491343783,-0.0412138875,-0.1134218003,0.07099228,6.7096206312,-0.4765781476,0.3891429048,-0.2568888322,0.6900046285,0.2536342865,0.0089292496,0.178920026,0.291606664,0.141071468,0.1424467631,0.1753413497,0.1673476687,0.3987132063,0.479934229,0.2991945435,-0.1493858944,0.1342320652,-0.2572599799,-0.3536848535,0.0272019985,0.4762509384,-0.4042541015,0.112934539,-0.384691459,0.4632979802,0.3867607217,-0.2336261445,-0.0782528519,0.22557321,0.2526458128,0.1882570317,-0.0229424211,-0.0326573569,-0.0603796565,-0.3423741111,0.1891610197,-0.2949921987,-0.0349269446,0.0949119688,0.3348718548,0.3165169546,-0.8097773608,-0.3306389556,-1.625647931,-0.0047025236,-0.5909032593,0.0450556573,-0.431517084,0.6895995097,-0.5774026801,0.2253408976,-0.4860535165,-0.3527277687,-0.5478005922,-0.0536570128,-0.1922245693,-0.4669370821,-0.0643967154,-0.1958383401,-0.3021003223,-0.0673308486,0.6586947137,-0.3497258079,-0.1124094062,0.0930540226,0.6379029663,0.2368054434,0.3282270235,-0.3413668742,-0.7584271276,0.2149670934,-0.0511073405,-0.0481500513,0.3857684552,-0.8427929263,0.1908619797,0.5444324765,0.4197235296,-0.2514680052,0.0182364009,-0.3080513501,-0.4030447832,-0.9241276883,-0.0015178398,0.1337370551,0.0531693682,-0.1813141581,-0.3262600521,-0.4700786981,-0.1684692512,-0.2548262067,-0.1569813788,0.1990761118,0.065652736,-0.4165906279,0.0958132051,-0.1118531347,-0.0694316596,0.612351306,0.5686920547,0.0034328458,0.316672037,-0.1729333599,-0.170109132,-0.2538453141,-0.2533324397,-0.4596822961,-0.077915621,-0.0934178787,-0.4431344493,-0.1505583152,-0.4317960008,-1.3533747691,-1.4896861808,0.2586555029,0.6425079281,0.730907502,0.4516430814,0.6407917803,0.2038136547,0.1123357014,-0.4596851145,0.3589312106,0.0035969508,-0.2772119753,-0.6921363933,-0.2332226808,0.1808367283,-0.1198608847,-0.3865406498,0.0262471568,-3.4957274857,-0.0748071071,-0.3709356312,-0.0595550034,-1.8189527614,-0.0062100529,1.1851126581,-0.1375016356,0.4071153184,0.7003142383,0.1488183864,-0.4580363422,0.4379440758,0.0616942399,0.1328251326,0.1184997158,-0.1601685378,-0.1994793119,0.2356321804,0.211489056,-0.4677538926,-0.2014759269,-0.2995796782,0.2118497402,-0.2674087267,-0.3190639719,-0.33250681,-0.127320356,0.07071178,0.1886205857,-0.315704124,-0.2515232357,-0.4886236895,0.1613995135,-0.6685952524,-0.6470169101,-0.4496583412,-0.5884201649,0.0147897109,-0.568387233,-0.2533562459,0.2969419187,-0.2015400653,-0.5692710082,-0.3342503727,-0.4166249381,-0.5265193487,-0.2101832033,-2.4398304956,-0.7635314373,-0.7241642253,-0.1493636025,-0.3738743723,-0.2997635559,-0.0343432957,-0.263644356,-0.3383383538,0.1539288992,-0.7282504044,17.6025863586,0.1662935341,-0.024136453,-0.4906529183,-0.5072788456,-0.2297106056,0.0285785672,0.1122571089,-0.2692946472,-0.5225055319,-0.0974747149,0.1158364757,-0.0046706998,0.6329953882,-0.4701175221,0.5417463744,0.6687864165,-0.2981452007,-0.1371607616,-0.4839505022,-0.5514420255,0.0851409838,-0.1459349937,-0.1583215581,-0.4924776072,-0.070665115,-0.0236324761,-0.4711969471,-0.4105644976,-0.0454162553,-0.5213927157,-0.0094001497,-0.5344183884,-0.4623531496,-0.3920950265,0.0162091648,-0.4495946551,0.5070920666,-0.2555139424,0.0564994586,0.4871600884,0.4061068619,-0.2528200523,0.5937898462,0.3125141532,0.1860880353,0.1693653173,-0.1858369744,-0.1449993606,-0.1341982678,0.3667957314,0.2434949316,0.2018026593,0.0062366565,0.1042447785,-0.2618882615,-0.2165327075,-0.2092904505,-0.2239977265,-0.0140178603,-0.0195858025,0.6823625248,0.3039257695,0.2074127895,0.37856072,0.0570869053,0.1625087465,0.6554441349,0.5340427962,0.2819662409,0.4701105097,0.7111403986,0.58168539,0.1560854499,0.5524141118,0.6929193864,0.0708050485,0.0170762431,0.6253524034,0.1954446263,0.1559715926,0.5362711982,0.3608757178,0.2221924573,-0.1641016699,0.4290950651,-0.4678424284,0.1690064794,-0.1333881134,-0.0794212817,-0.3297650413,-0.23435481,-0.0809517523,-0.4159017172,-0.1723937356,-0.186416748,-0.3202231278,-0.0691173223,-0.1563443503,-0.0500512706,-0.434923759,-0.3337930171,-0.2959885663,0.3398352331,-0.4596654826,0.186395933,0.0089930571,-0.0323421768,0.6540447556,0.4359776419,0.6364020129,0.5613924053,-0.0996779819,0.2202611981,0.3388329757,0.103474786,-0.0400644739,-0.2633001739,-0.2112132301,-0.0589594799,-0.3519696069,-0.3040886728,-0.225803772,0.3301792305,-0.178000596,-0.1177978676,-0.1137940125,-0.033446447,-0.3932160099,-0.2334545266,-0.20652073,-0.4622922943,0.5685748678,-0.7824922197,-0.252354099,-0.1697906445,-0.087949669,0.1361771728,0.2705943272,0.0047480286,0.1522913349,-0.152860341,0.559905157,0.1041275857,-0.1166995915,-0.6280913671,-0.1641125123,-0.526801163,-0.2239914078,-0.0067894311,-0.7789633383,-0.2602267161,-0.0445846452,0.5890374254,-0.1324132509,-0.3940780475,0.0046360822,-0.5091883752,0.5978727318,-0.3821593334,-0.0154490194,-0.2148444092,-0.0507113861,-0.3952991239,-0.2216046939,-0.962642073,-0.8838016727,-0.1041278068,0.1635797176,0.2459228794,0.3732713644,-1.0575065968,0.2746096714,-0.2283289739,0.4895173685,0.6841141778,0.6111498046,0.5892323161,2.8500915464,0.0787701067,-0.2752598271,-0.2216463849,0.8180628112,0.0647601841,0.0380658062,-0.0829506791,-0.1635424098,0.1452655576,0.184357147,0.3070236239,0.2430754597,-0.0104595999,-2.337707728,0.1303144321,0.1824046124,1.4724250988,0.6715365518,-0.1635041362,-15.1609385978,0.551920169,2.6038686288,2.0420834164,0.1069332051,0.2013704718,0.2880297121,0.4585155984,0.2665299141,-2.2129251169,-5.1179844446,0.250212404,0.3029554044,0.263504492,-0.2775578007,-0.1417106246,0.3504114986,0.2821596181,-0.1512261064,0.1463061335,0.330767831,-0.1749531797,-0.2593539842,0.7794541222,-0.0289990612,0.5366340105,0.4701471626,-0.4833191103,-8.6445403126,0.1201176431,0.1235372069,0.3763449768,0.6917848926,1.6053014661,0.1677830485,2.1917908994,0.127684365,-4.7046124481,0.0915657078,6.6138779903,0.0923656064,0.0322451092,-1.582395225,0.6189142199,-2.2070920216,0.2295140906,0.62692167,-3.0699437036,0.2992187296,0.1659627112,0.0380212031,0.5058984971,-2.8564609219,1.6888243654,-0.3704420301,0.0459880627,-0.2432831404,-0.0616257577,-0.0443195321,0.0304525559,-15.4179025218,-0.0524164111,0.3979885211,-0.0847655175,-0.2731031247,-0.0977014898,0.4094127035,-2.1427360957,-0.63511863,0.2082771576,0.0690181112,0.1885819728,0.1992371676,-0.0348191901,-1.1149310499,-0.0357353095,3.2168882262,0.0959354235,-1.5749183684,0.3492557758,1.1908114679,0.8201592539,0.6456039246,-0.2774314811,8.7056773821,0.4131746842,-0.0191698198,0.2305366548,-2.6384430342,-3.766733481,0.1079507935,-0.4271839604,-4.4863446968,-0.1014983493,-0.0906356397,-0.3899321966,6.7621883613,0.1162931538,20.1396578787,-0.2583591813,-0.0340667946,-1.7648422156,-0.5369999681,0.1576242096,0.0341281296,3.6440263437,9.3702848433,-0.0620006299,-0.7567222933,-0.944058139,0.1480446084,0.0479539484,20.9077293933,4.7981350764,-0.10106837,0.3099214652,0.0467848658,0.2531372373,-0.3032479419,0.2676045183,0.0996334019,-0.1249551612,-0.1842257557,-0.2146941697,-0.8425974613,0.2766796677,-0.0692848143,1.3524098943,-0.3952337075,-0.5558782554,-0.1319416354,0.2874790319,0.088480352,-0.3351932578,0.400802162,0.0602573122,0.5363555238,0.2131308517,-0.1734456699,0.1442205297,0.0616343261,-0.1820204701,0.5752854724,0.0235644186,0.0256903674,-0.3193322827,0.0635940669,-0.1565721609,0.0336910762,-0.2749598399,0.1622777819,0.2675560644,-0.2062205013,-0.303715463,0.089871785,0.0458833836,0.1021086553,-0.0582340244,0.5313173065,0.0754972903,0.6402593372,0.2361114006,0.2039011659,-0.0366084919,0.0550939048,0.29519111,0.2673008143,-0.3004956485,0.0646184229
