encog,BasicNetwork,java,3.1.0,1,1393383103661
[BASIC]
[BASIC:PARAMS]
[BASIC:NETWORK]
beginTraining=0
connectionLimit=0
contextTargetOffset=0,0,0
contextTargetSize=0,0,0
endTraining=2
hasContext=f
inputCount=318
layerCounts=1,201,319
layerFeedCounts=1,200,318
layerContextCount=0,0,0
layerIndex=0,1,202
output=0.1199546352,0.0009326868,0.0005929427,0.0000000009,0.0259554888,0,0.9999791124,1,0.0000001343,0.0682929915,0.0113172461,1,1,0.0000000128,0,1,0.9946533617,1,1,1,0.7475777848,1,0.1438398368,0.9997458993,0,0.9296973711,1,0.0000000058,0.972858701,0.0000145364,0.1254339205,1,1,1,1,1,0.082741213,0.0001647866,1,1,0.1759610038,0.1973802884,1,1,1,1,1,0.1244022414,0.0000055481,0.0000000002,1,0.9745763117,0.0180917172,0.0000000681,1,0.4148212575,0,0.1988038058,0,1,0,0.9878237213,0.0003547991,1,0.0000000001,0,0,0.0000004357,0.0031301837,1,0.9233565767,0.0000059749,0.1650597185,0.3152154908,0.000069332,1,1,0.0271622215,1,0.0000000008,0.0746732046,0.5557560773,0.0000000041,0.3610982978,0,1,0.9740356572,1,1,0.0037197849,0.0270657129,0.0079996497,1,1,0.0825048296,0.0010559319,0,1,0,0.0625426681,0.1050109668,1,0.9690554322,0.9860670452,0.4759730285,0,0.0144243962,0.3770636049,0.0048731996,0.0012003803,0.0000008949,0.9442343319,0.0125203526,0.9993858099,0.0000000996,0.9949552762,0.0084388886,1,0.9997288,0.9820389081,0.0000000832,0.0000015172,1,0.0000001031,0.0015417268,0.8550701789,1,1,0,0.9876933037,1,0.6143055981,0.8172180602,1,1,0.1265212812,0,1,0.0000000061,0.5897555756,0.411699657,0.0000000042,0.8926948447,0.9359007762,1,1,0.0000000001,0,0.1930383964,0.86607497,0.0827025694,0,0.1324199443,1,1,0.0002065611,1,1,1,0,0.9996167182,0.0691172507,1,0.6238636643,1,0.999998768,0.2976951876,0.1268510698,1,1,0.3098833721,0,0.1999464936,0.0000118552,0.9977984154,0.6347777335,0.2923300835,0.0294082218,0.8801611003,0.9384135426,0.4971710461,0.9995181427,0.9608848198,0.002416611,1,0.4180081401,1,1,1,0.3391526437,0.000000007,0.0537458299,1,0.013706539,0.016406259,0.0000111511,0.719799662,0,0.0004611134,0.8909487165,0.0000000001,1,0.01,0.01,0,0,0.01,0.01,0.01,0.01,0.01,0.01,0.01,0,0.01,0.01,0.01,0.01,0.01,0.01,0.0917276806,0.5463579983,0.01,0.5826816394,0.01,0.01,0,0.01,0.01,0.01,0,0.01,0,0.01,0.01,0,0.01,0.01,0,0.01,0,0,0,0.01,0.01,0.1608511578,0.99,0.99,0.01,0.01,0.01,0.01,0.01,0.01,0.01,0.01,0.01,0.01,0.01,0.01,0,0.5,0.2000006297,0,0,0,0,0.99,0.5222732585,0.01,0.99,0.01,0.5599887405,0.01,0.99,0.01,0.01,0.1048387097,0.01,0,0,0.01,0.01,0,0,0,0.01,0.01,0.01,0.4629792842,0.4686327778,0.5181755544,0.01,0.01,0.01,0.01,0.01,0.0139252333,0.01,0.01,0.01,0.01,0.01,0.01,0,0,0.01,0.01,0.01,0.01,0.01,0.01,0.01,0.01,0.01,0.01,0.0595702082,0.255,0.01,0,0.01,0.01,0.01,0.01,0.01,0.01,0.01,0.01,0.01,0.01,0.01,0.01,0.01,0.01,0.01,0.01,0.01,0.5544444444,0.01,0.01,0.01,0.01,0.01,0.01,0.0466677803,0.01,0.01,0.01,0.1457352927,0.0287155329,0.6748325148,0.2794281518,0.0136147765,0.1813414369,0.1387103149,0.01,0.0230829548,0.4300073243,0.01,0.99,0.0100794092,0.01,0.01,0.01,0.99,0.99,0,0.01,0,0.99,0,0,0.99,0.01,0.99,0.01,0,0.01,0.01,0.01,0.01,0.01,0.01,0.01,0.01,0.01,0.01,0.01,0.01,0.01,0.01,0.01,0,0.99,0,0,0,0.99,0,0,0,0.01,0.99,0.01,0.99,0,0,0,0.01,0.01,0.01,0.01,0.01,0.01,0.01,0.01,0,0,0,0,0,0,0,0,0,0,0,0,0,0,0,0,0,0,0,0,0,0.01,0,0.01,0.01,0.01,0,0.01,0.01,0.01,0.01,0.01,0.01,0.99,0.01,0.01,0.99,0.01,0.01,0.99,0.99,0.01,0.01,0.99,0.99,0.01,0.01,0,0,0,0,0.01,0.01,0.01,0.01,0.01,0.01,0.01,0.01,0.01,0.99,0.99,0,0.99,0.01,0.99,0.99,0.01,0.01,0.99,0.99,0,0.99,0.01,0.99,0.99,0.01,0.01,0.01,0.01,0.01,0,0,0.99,0.01,0.99,0.01,0.01,0.01,0.01,0.01,0.01,0,0.99,0.01,0.01,0.01,0,0.99,0.99,0.99,0.99,0.99,0.99,1
outputCount=1
weightIndex=0,201,64001
weights=##0
##double#64001
   0.3848114407,5.821370489,-0.0905758476,0.0792096745,9.2266250831,0.2345913258,-0.3010830315,-1.3992014748,2.4986498951,0.3706333833,-0.1585564284,-0.2011920544,-4.956735793,17322.73677221,-0.1943084403,0.4211029706,-0.3144868693,-0.2793943556,-0.1581926205,0.7778612967,-0.3051682136,0.2392659802,0.7309276246,-25.4549034308,0.4887629224,-0.2449977667,-0.4408078482,0.6903267078,1.7825001199,-4.0031736997,-0.1499327936,-0.2384463089,-0.194406398,-0.2947198278,-0.1930470122,1.6451890226,1.6022211858,-0.2399070572,-0.2199197087,0.3372435964,0.9430553694,-0.2971988821,-0.3224827656,-0.2240300025,-0.3223837554,-0.2404843417,1.2326672663,0.5663863337,8.3327653518,-0.2658849953,0.7854786482,-3.3155920713,-1.0104418024,-0.163850436,-3.2667121985,50.8510678339,-2.8093951641,1.6275904585,-0.2613160016,-0.7135447784,0.3452356065,0.9746480586,-0.2230295096,-1.5460506144,-0.1099086169,0.6437396205,2.1449020009,0.077635247,-0.2878057439,0.7021105835,0.3379503727,1.3114742116,0.2566276522,2.7621692186,-0.293507234,-0.3134376608,-1.0013778308,-0.2185714382,1.9500822417,-3.3008473932,0.7979402358,15.6093808749,0.3745098031,-11.6751477256,-0.198604879,0.6854763703,-0.2872487901,-0.1737160982,0.3782575155,-5.5489586655,0.3188988165,-0.1837986302,-0.1701250892,0.8913028195,1.1632126969,4.7662730615,-0.2585392206,1.590811001,-8.1905734789,-0.9697526801,-0.2643691787,0.5964995202,0.3535231827,0.3322644902,2.8525742852,0.8143442036,0.3683131271,0.9081768594,6.6662250281,2.6235145862,-0.5803498721,-2.030326617,0.6532399834,-1.9318835911,0.1828024687,-1.637500837,-0.2888046786,0.371420674,0.2264958052,0.6961111285,0.5928837716,-0.2166073342,-3.0880185678,0.2505343361,0.1960028726,-0.2001135661,-0.1103052742,3.0184735265,0.1898679676,-0.2978137327,0.3602747448,0.2696436262,-0.3185780492,-0.2786366183,-3.7284803513,7.446008405,-0.2034064958,1.2259699101,0.6663215273,0.4366325438,-25.927685841,0.2794795457,0.8837369192,-0.2517844154,-0.1749779213,5.180958944,123.1287152188,1.6380803682,0.2400279032,-1.5794546567,2.9745644583,2.0255024378,-0.3122254186,-0.2803015167,4.4854346583,-0.1514447587,-0.1658263322,-0.2132581177,-0.185488916,0.1432422838,2.2066753692,-0.1183516961,0.7011560852,-0.3120190082,0.3045155974,-2.8186798874,0.5902548679,-0.262771973,-0.1392261343,-1.2213657445,2.3321668079,0.6545438067,1.9073472218,0.3705675454,0.5941875038,0.28772251,0.3422651056,0.3582639171,0.063864037,1.0553706591,0.2760017295,0.1961396223,0.8822301715,-0.1198960296,0.346633042,-0.1158032018,-0.2868205619,-0.2875659083,0.7652012043,-5.5901001838,0.2853113216,-0.205613103,0.8849265885,-0.8384391469,66.1301413132,0.377542406,19821.5932296522,-1.7655457001,0.2991470214,-0.1254061536,0.3548569314,-0.2148717158,0.0823859705,0.2541958442,0.4365230153,0.4557060251,-0.9273477276,-11.0553398681,-0.6768770364,2.4274575578,2.0421274433,-0.1782124147,0.1604960585,3.1061133282,1.258091432,0.3465149884,0.4399212746,1.8340729622,0.4037439375,0.3163746545,-0.30937428,0.2636522785,-0.2579413574,-0.4418886396,4.0893880604,0.3758948687,-0.4405850392,3.8600721336,-0.4490406227,0.2225997985,-1.4539999956,0.6023998806,-1.2567055488,-10.5645858509,0.2898160734,0.9769751924,-0.2481395689,0.2361506778,-2.3503647193,0.2601911276,0.588581533,0.5386757762,0.40496969,1.7437888685,-0.0346244496,-0.0270684336,0.1088114415,-0.1129099315,-0.1319037425,0.3325506288,-0.1595494934,-0.3158203929,-0.0756000154,-0.0369356883,-0.1407083494,-0.3019621114,-0.3316035412,0.005853273,-0.8565508116,0.5309218144,-0.4953311909,-0.9895896959,0.2068269828,0.695145286,0.4707090905,0.5907358563,-3.1791976012,0.3441892814,2.6227262626,0.1911281033,-0.3571106639,0.0979477593,-2.3774003626,0.1901038258,-3.7468084551,0.0287475161,-5.9182666577,0.1503127341,0.0377324346,0.5325211521,-0.2400711738,-0.4206534746,0.4500471888,0.0941176464,0.0520187977,0.1265407419,-574.745060711,2.2098660278,0.9071554742,-0.0812393924,-1.0881149622,0.1187278057,-2.7052112021,-5.8967650654,-0.1927700413,-0.6326653711,3.6431423683,-0.0976014565,-0.7344779176,2.2133193621,-6.0080794912,-68.4641036183,-6.0377994918,0.5263075145,0.1057728054,-0.0892425429,0.0420882198,1.5090193907,0.1395668167,0.3899350599,0.0602872825,4.3726855973,1.2429001831,0.2691540553,-3.3702686813,-0.0230247753,-0.1321259463,9.2123942995,0.0163175291,-0.3614646702,0.1479627709,1.0831071763,0.2954375046,4.4131350048,0.6919214787,-3.3224736127,0.2858147631,-0.1291289297,0.0749921832,11.3756451936,-0.2407003693,1.2193789379,-1.5570150605,0.183583307,-2.9300999816,-14.0110243941,-5.5191236656,-5.2870041408,-0.924868079,6.69138316,0.2409659404,-0.7848874322,0.3549856303,0.4387049167,27.9277906132,-12.4420039108,287.9516926702,0.1999445465,0.0997248283,-0.2613024682,0.1414003199,-1.0429557056,-0.0175511045,0.0473137235,0.2171521026,24.3479615209,0.157178897,0.1826760324,-4.2698789383,0.0852560204,1.5897802237,-0.5891717502,-0.5780293744,-0.0294078958,0.3078842399,0.1927645497,-0.4926440605,0.5817184632,0.1415311262,0.2431959347,0.042899393,0.2793387951,0.4774680025,0.0211583394,1.7599118433,0.6575634588,-0.3720810817,-0.2091241669,0.1663509886,0.0167529138,0.1866944551,-0.158789652,0.0410362084,-0.0764480049,-0.2392751252,-0.3315843928,0.0299769906,-0.1360748334,-0.0688516841,0.0316648222,0.2274762956,0.007864328,-0.4285490832,0.2425746422,0.5142808138,0.0852375016,-0.2856331827,0.0202394765,0.445495011,0.2675349611,-0.1421026817,0.2904861222,0.2618485609,-0.0358196365,0.6050454004,0.4276054411,0.6987339637,0.3121081358,0.234616191,-0.2434072313,0.186435445,0.0423763633,-0.4264223639,-0.3586377507,-0.2798391109,0.4300185648,0.0307373209,0.3634011528,0.4475872288,0.2831034708,0.6998689386,0.6303794053,0.5315822772,0.0934087849,0.6019712195,0.5692139647,0.6775169023,0.092122255,0.2269344716,0.4477585046,0.4826469728,0.2351168454,0.5528941391,0.3068961284,0.0187724142,0.5494340078,-0.2317776286,0.2642470376,-1.5761821949,-0.3553920376,-0.1115047844,0.1615296281,0.0267924735,0.1961107428,0.3634641265,-0.2701785842,0.1561587104,0.3897327001,0.2145435547,0.4101609959,0.2503712625,0.1712088484,-0.2630379212,0.016481385,0.0530453764,0.3487068182,-0.2431541673,0.2243539284,0.3246256591,0.0282719231,0.5137864026,0.0605103784,0.6780759546,0.2044046911,0.2459931364,0.0480061926,0.4424148719,-0.2250316578,-0.1152811472,0.0197641181,0.146857878,0.2010964736,0.0582596221,-0.1540681954,1.1428988597,0.3367820146,-0.1838844547,0.060127173,0.3059157742,0.1908411372,0.1008116021,0.3119860984,-0.2118690385,-0.1585173211,-0.1606202009,3.0923340876,0.5736880083,3.291141305,0.1913249031,-0.1725357025,-0.2405991194,0.0176572839,-0.1111839195,-0.2062992494,0.2289465109,-0.0152285868,0.0332111133,0.5316246643,-0.0378922002,0.1734588061,-0.1622819678,0.084771111,-0.2113896533,2.2322599251,-0.0003933095,0.1680278015,-0.1319845074,0.3733883301,-0.0270710261,0.4051571849,0.2304606898,-0.1884760149,0.2411542872,-0.24689275,0.2911575263,-0.0129010734,0.1431986307,-0.3373990937,-0.2506866992,-0.0686419362,-0.0976556527,3.2474048199,0.5428593732,0.6505267276,0.206969204,-0.4579115212,0.5296484935,-0.0608539048,-0.3070766732,-0.074649632,-0.3086537124,0.4037801776,0.193487555,-0.292794017,0.1679916403,-0.2336471657,-0.4531465406,0.2731726908,0.0863091578,0.0478273854,0.1891178165,0.193332271,0.1676977924,-3.4907529315,0.0301799433,-0.3537193395,-0.7753720432,-0.1816136809,0.5842431529,1.2364220535,0.0288490634,-0.5209770947,-0.1746404427,0.5835629013,2.1547850489,0.0816907506,0.4478549089,-5.0841791323,0.5316433729,0.4451892173,0.4895110165,1.1360583337,0.7583145877,-0.2578627274,0.0120889581,0.0938346046,-0.2159178703,-0.0683436797,0.1827213248,0.1148510588,0.3485054397,0.3713042989,0.3178966632,0.074955832,0.1372552434,-0.1079651078,-0.4146260268,-5.3222613991,0.497420024,-0.3676466818,0.069902622,0.4579947787,0.3958715756,0.5580835844,0.5261432465,0.0375747116,0.2100467847,0.2581670667,-0.0203890327,-1.7344304743,-0.2891793102,-11.5966715622,-0.0095732657,-0.9821812218,-0.1954574416,0.2662235699,3.0308727069,0.5845671013,0.0672335311,-0.378425826,-0.4531565744,0.4942351262,0.379848165,0.4099647877,-3.1878447315,-6.601454984,0.1789329676,-1.3095376346,-1.2479005918,-0.9422769959,0.0612114398,1.383519894,6.3065592301,0.0804320328,-0.3362857192,-2.0167375774,0.2319299866,-0.4030433799,0.1038329392,-1.8769223278,-0.5210433352,-0.2285484339,0.3253132483,0.0906850259,1.0165293297,-5.6768441574,-8.106602982,0.2115367795,2.1494441234,0.2436537986,3.0533336271,-0.2847956975,0.3734574964,-1.2132146212,0.1674646505,-0.1323231953,10.970796742,0.2636429417,-2.4353275858,-0.2221482574,-0.22547379,-0.3247640735,0.1921609488,-0.8772311677,2.4456297546,0.048053123,0.2809692666,-0.1848811228,0.1456980596,0.1622656136,-2.8128024552,-0.0228013302,0.0841370464,-0.285705277,-1.3982623494,0.2943574025,-0.3408387103,0.0797508172,-4.1098022507,-0.0769962698,1.2239985199,-0.2293509112,0.2643030439,1.0129457445,2.7689307443,-0.0928037037,0.0659121381,-1.0417554402,-0.0051553087,-0.2096726976,0.0289164663,-3.143213502,0.3038907261,-0.1935068916,-6.8870141381,0.3736818642,-0.1599329785,0.2629978833,0.1140427218,0.4182927932,0.3579819884,0.38933442,-0.058521757,0.1613993029,0.2186995156,0.2443535847,0.0644817337,-0.0971635171,0.376355454,0.3943218822,0.0045979099,0.1134667735,-0.2379450557,-0.3081615262,0.1270803213,-14.9462304053,-15.255480022,-15.017962694,-15.0865158066,-15.2259402916,-15.0075863434,-14.9907850251,-15.4299101927,-15.3990523367,-15.5376481607,-15.2321935278,-15.4222681292,-15.4301097624,-15.1099006265,-15.3014412934,0.6973566315,-0.3307430096,0.1682295576,0.5393112797,0.0463781532,-0.6603394748,0.524682847,0.6637410813,0.666154118,-0.1612940137,-0.2291990004,0.3075133739,-0.0577090255,0.2213728846,0.2014689767,0.0668990278,-0.1175105775,-0.2731734481,-0.2617458075,-0.3128536245,0.1960790367,-0.3239148805,0.0707089531,0.0299398173,0.2508256141,0.6080346657,0.4011360991,0.2660778303,0.4381534098,0.5662071083,0.278062922,0.6535924809,0.1845065227,0.6082769429,0.2657896183,0.289026226,0.4558415932,0.3165600147,0.3660570829,0.0430933223,0.5620452336,0.4408566526,0.4859656561,0.2310208091,0.2561694659,-0.4899148231,0.456200633,0.3412522762,-0.1645441038,-0.0479313964,0.4654560484,0.1854033882,0.0822572844,0.1137222611,0.1327645678,-0.4247020966,0.1795573628,-0.19887291,-0.1550628511,-1.5796995523,0.3731738851,0.1781005798,0.2853588824,-0.2774357002,0.2328515098,-0.1898169153,-0.3229914087,-0.3049760209,-0.0563741722,-0.1438425813,0.0102957211,0.1340207594,0.562770557,0.4267404211,0.3161032611,-0.1254973278,-0.2187249052,-0.2284188577,-0.0649332955,0.1891264341,-0.371473838,0.0181045938,-0.0572097232,0.4184513917,0.0566639048,-0.1380312562,0.6133149494,-0.0094709587,-0.2577162756,0.2734919301,0.1019158546,-0.3600730154,-6.7821772035,0.2175456228,0.2673633479,0.1936688978,0.7559094784,-0.1959466229,-0.0253501665,0.3122878487,0.1759430413,0.1147104407,-0.1697966834,-0.0356045531,-0.0123826304,0.5831969522,0.305072628,0.257838053,-0.1071439279,0.138542663,0.0501960266,-0.1627083833,-0.0402317411,0.1960802125,-0.2439246591,-0.0679275758,0.3191397893,-0.2395837743,0.1485751094,-0.2379210582,-0.0842848372,0.5774560667,-0.2674774967,0.2032796194,-0.5664614995,0.3457230291,-0.3800155976,-1.9602034868,-0.5284114534,112.623252405,-1.7983409149,0.6822246062,0.2554520447,-3.2707671858,-0.8539035071,-6.7113140111,-1.8003158896,2.0766734565,-1.6332485653,-2.0214542065,0.6074625585,-2.5532693806,2.407561748,-1.8656836958,-2.0002771416,-6.505637571,-2.0681930924,-3.4638826276,-1.5770104867,-1.7908057654,-1.0659227021,-1.4086217066,-1.3734086211,0.0358131747,-0.0701468049,-0.2767037849,-0.4574768899,0.1129142457,-0.5207160289,0.2739111533,-96.8673741679,-1.5684535312,0.2055239864,-0.093005631,-0.3894729576,0.3913114448,-1.1678997295,0.3790710532,0.1394543177,0.3305687327,-1.537465214,-2.0792185074,-1.4074668515,-1.9333272519,-1.1604957205,-1.6119866772,2.9050767167,-1.3129396125,-1.725468131,-1.4375010939,-1.1684716221,-1.8296848134,-1.3802185715,-1.7855711701,-1.1942777783,-1.6107251049,-2.1272947309,0.2541974367,0.4403890761,-1.4034164078,0.0765497799,0.2992296416,0.1457510733,0.7085048971,-0.5571288953,-1.4014201437,-1.2308043907,-1.8726842272,-0.3507171865,-1.854849592,-1.3996689614,-2.0555802691,-1.7537222879,-1.5732828246,-11.5611408917,-9.0344691136,0.3680038392,0.0689342066,-0.7110424144,-0.8887409261,0.2339044409,0.5158033867,0.069999922,-7.0417098696,-5.7683448471,-1.3020728528,0.3261153586,-1.783742855,-1.8023825564,-1.4757509361,-1.752460244,-1.6261449717,5.8469792763,-7.8497023659,-1.9504146137,3.864947416,-0.8473149828,-14.6255013381,1.5835579319,67.2093180304,-2.2474997791,0.6561810169,0.6400879221,10.502362389,0.5565344806,5.2617391267,8.7836741031,-1.5884954963,-1.1260268519,14.1741770917,-1.5632127633,-1.8781927526,-0.7485055522,-6.1731993496,-2.1758102506,-1.3311396399,0.2452815861,-0.3089129869,-1.9392235227,-1.4946819045,12.5842170145,-2.6041510631,-4.7969926983,-1.2778889585,-1.4894640903,-2.1924164537,0.8062770345,-2.0296869493,-1.199893735,-2.4701781576,-2.7760016504,-1.4388621124,-3.5636572358,-0.6355709395,-0.5030943966,-2.2413665798,-7.1910749028,-4.1325974658,-1.9500161419,-2.1339638566,-1.7767688707,-5.8101774942,-6.8681249633,-2.3539574525,-2.3576232864,-2.8988754215,-1.515411433,-1.5897959022,24.5417481044,-1.2135736425,14.608190892,-6.9246460763,-1.7546394465,-1.1025585917,-1.7845564832,-1.9821325289,-8.4571070645,-1.4668517141,-1.295174139,-1.2339965218,-1.8381472532,-1.7062890414,-1.4795162162,0.4112161194,-1.7502185009,0.2954449043,-1.3701056398,0.3832397073,0.5447246299,-1.4617653587,-1.7711421401,-1.9021637846,-1.4539744679,0.6105169522,-1.284278439,-1.6399387119,-1.6065510531,-1.1185819517,-1.5222809305,-1.6697615699,-1.755120228,-1.7025343606,-1.746562665,-1.2915595282,-1.5417980493,-1.8271656558,-1.2703664401,-1.1411293482,-1.71351194,0.6404715925,-0.8406037715,0.4502736236,0.7017891301,0.700806106,4.9232893264,0.3957879323,0.4975144403,0.3443971967,-1.7595890601,-1.4785186672,-1.6797041131,-1.4595227131,0.6714413337,0.0150946654,0.0815180872,-0.5389797603,-0.0502019158,-0.2209122585,-0.7362516705,-0.6836658317,-0.4313176174,-0.2961864864,-0.2528195242,0.3501980241,0.5820127083,0.2925426682,0.2190950784,0.115411993,0.4197587487,0.2840977409,0.5524102756,0.3651584258,0.4198197521,0.21104064,0.5480691012,0.5591929927,0.1205141142,0.1392126722,0.4051681559,0.5291678859,0.1484978814,0.3837300706,0.2327931587,0.5011550237,0.0136919595,0.4366593394,-1.6539339771,9.0434677462,-0.6700905324,0.0102658851,-1.9502769853,-2.1014804346,-1.7253225567,-1.6947396328,-1.5844328886,-1.8624519575,-1.8432462876,-0.5184328741,1.0756393834,0.2358455504,-1.6242055156,-1.0299167143,8.1903266359,7.9965818014,-0.922616313,-0.5836942739,-0.618811713,-0.284350617,-1.2079013737,-0.7153555685,0.2221243585,0.0603682347,0.6457270621,0.3286793124,-0.0848027721,-0.6048841402,-0.546771348,-0.5045390021,-0.5328035387,-0.1055562243,-0.6163804174,-0.4749144948,-1.177121183,-7.8940317146,-7.7904469288,0.249092004,-2.1287177103,-1.9814655114,-1.9346305013,-1.6112913487,-1.013201289,-1.7762592736,-1.759532561,-1.9164840372,0.697379587,-1.4414870581,-0.4087008837,34.9321313688,-1.4053692392,-0.4181439397,-0.3884281207,-0.3821025285,-0.3852324894,-0.1121162265,0.1397708155,0.6697004437,-1.2605571574,-1.6433405054,-1.3161144711,-1.7804387526,-1.4816024375,-1.3433419769,-1.6733608088,-1.5012192342,-1.6309831577,0.0781626438,-1.9586339254,-1.8793172219,-1.6627214533,-1.5589184201,0.4412388414,-1.8827859517,-1.9209848226,-1.5320375701,-2.4333072475,-0.615320658,-0.9496222103,-1.7805960454,0.2410740436,-2.7457143642,0.0355873134,0.6937876796,2.6903358985,-0.3292503698,0.9382464247,-0.0685282497,0.5324787683,1.0004621222,-0.0230884425,0.6542912473,0.0995367251,0.4775697174,-0.4095499393,0.149447562,0.7082164323,-0.3647556677,0.2845153067,-0.0301027898,0.5929755619,0.3247583894,-0.0363712604,8.7871295279,0.5405834707,-2.4687592379,-8.3193268584,-0.0702126223,0.0099738767,-1.4547377528,0.2449073098,-0.717327785,-3.6330899586,0.1967819082,-2.9710716519,0.1996437077,0.6344222123,-0.7653439582,0.2603626766,0.0679067492,0.342598013,-1.3896173295,-2.281022596,0.3002828221,0.0247197398,-0.2853645126,-0.0939650827,-0.1119075216,-0.1209503696,0.0746139465,0.0836507558,0.617263345,0.2148078993,2.4763248528,1.2279947754,-0.1059372267,-0.2091411825,-3.2090139009,0.5846336116,0.2288339006,-0.4879645785,0.0785550763,0.3351674841,0.2851729437,0.533555301,-2.3502236098,0.3312649234,0.1226675336,0.1700839938,-2.5040177352,0.1931791431,0.6738032667,-0.1680949811,-0.0678956177,-0.0239387044,0.1893416177,0.1249121396,0.3477114076,0.2425552041,1.4252193702,0.0178169316,0.1511946464,0.4607181815,0.5281257813,1.339037402,10.6600703781,0.0551272861,0.2024527912,-0.3131510783,-0.1475935665,-0.0932144638,-1.2531363414,-0.6867911645,-5.9202895796,-1.0217838545,0.2218257142,0.16904044,-5.0979703003,1.4576003441,-1.2613675371,-14.3677030407,0.3382610246,0.4081303992,0.4018912317,2.1673329862,1.1981057283,4.1539372563,0.093845725,1.6544333071,0.3841212096,3.6368312661,1.1449549137,0.0779428338,1.6024536838,0.2718535506,-0.0767390674,-6.1113633258,0.6270753393,-0.2318200957,0.0229697275,0.1528736342,0.0793668138,8.3307051309,-0.8516219699,-4.0833167472,0.0059513252,-0.0654898907,-0.2620155426,0.1577189843,-2.4825323059,-2.762098572,7.8734605367,-0.2952480072,-2.6120629611,-0.2569598022,-0.9061296321,-0.2138820033,1.0275204256,8.6659366936,0.043798325,2.5326276203,-2.9569579642,-0.6192657445,3.5463975237,-1.0026478135,0.3012440782,0.0762477294,0.1556669402,0.0599743103,-0.1335303507,-0.0904820437,-0.3986949701,0.0930673027,0.3356282658,-0.8326649226,-0.0549715277,-0.6884118757,-0.4765341308,-0.0153072313,-0.0506024528,-0.4666590915,-0.7407577067,0.2355821537,0.1039838571,0.3512076052,-0.7703194607,0.3415927955,0.0856539826,0.5945726568,0.4134352666,-0.2904466789,-0.1428916986,-0.1959113331,-0.8344077263,0.4772184264,-0.121678416,-0.0696290305,0.1945375773,0.1488094087,-0.2072020232,0.3075250617,0.1251440355,-0.0855842593,-0.1832674248,-0.3156783076,0.1412493101,-0.0481807999,-0.1747622757,-0.2697206022,0.1651639007,0.2613973063,-0.3247313459,0.6058215531,0.3730363802,0.3337921882,0.0721234734,0.6023053378,0.4758933656,0.2584989809,-0.018726983,0.1117068503,0.06635073,0.179192245,0.1165737917,0.3562028438,0.032425183,0.1868949708,0.4575323235,-0.9016031912,-0.7403286451,-0.689791357,-0.5453396215,-0.3444104711,-0.6355385697,0.5760656207,0.6297534199,0.3960742107,0.2672039223,0.170153414,0.3174973924,0.5780952918,0.1661364014,0.5620067731,0.4039816408,0.4965680381,0.6410130773,0.1316151165,0.5701206569,0.6967567342,0.5738208017,0.6532343713,0.1936143154,0.1248039289,0.1761369884,0.2216606774,0.6458370782,0.4453314577,-1.7654537051,-0.0721926029,-0.2180886349,0.2260616503,-0.3620157905,0.2679667273,-0.46498798,0.0254698172,-0.0405465289,0.2605757204,-0.2062567915,0.1694329475,0.1663017193,0.3297481434,0.3089025276,0.3501215078,0.1814338021,-0.0497074836,0.2063320984,0.1167553143,-0.3095853447,-0.1917396468,-0.5786413809,-0.478875234,0.0299598656,0.4644497,0.4599923847,0.6234405053,0.1571113531,0.6738209506,0.1944071137,0.6716756806,0.2726413586,0.3236645301,0.2550410281,0.5673933198,-0.0261185221,-0.2062777342,0.2789577418,0.6574839235,0.3841959275,-0.2057042262,0.2305368932,-0.1626721753,-0.1830274893,2.5473243715,0.2018315244,0.2108396497,0.3455941315,0.1952543148,0.5015047892,0.2898333054,-0.2579742442,0.6384533084,0.0735941509,0.0648740619,0.6219383448,0.4757144818,0.2965511494,0.4747036229,0.1775955317,-0.5831802747,-0.0375646246,0.092006935,-0.4512614319,-0.4196876627,-0.0072692682,-0.408648917,-0.3830905369,0.4711559799,-0.2852545605,-0.3956757679,-0.2230648819,-0.1586957195,0.6993475187,0.3038630278,-0.2453818718,-0.3623571775,0.246113839,-0.3925893397,-0.1477164426,-0.4830502043,39.6780567982,-1.7222350817,0.3579138798,0.2303681559,-3.3510783738,-1.232594645,-8.9510868778,-1.3147713533,2.4674197325,-2.0787667971,-1.8876683528,0.5097237458,-2.106627613,-10.5925718542,-1.8393042988,-1.9776553596,-6.3144780141,-1.6655273569,-3.4092800082,-1.7081580987,-1.5709749762,-0.9068155673,-1.738184573,-1.9767386177,0.0132437535,-1.3789723752,-0.213501663,-1.0923691324,0.4530183144,-0.5870547686,0.498803778,15.1705548217,-1.4072165581,0.3382757993,-1.0678005447,-0.6798868629,0.5431447181,-0.8731607134,0.5122912765,0.1156676875,0.1925561174,-1.1153132827,-1.7678729828,-1.4221855543,-2.0474109876,-1.8019656548,-2.1051911081,0.0042803866,-1.9662599108,-5.933351973,-1.6573690895,-1.2253920036,-1.5867288493,-1.6331732702,-1.7080139426,-1.1390228067,-3.0734052274,-2.1656904112,0.4431003491,-0.0107009309,-1.7653458287,0.099034115,0.5745981072,0.357678556,0.33195578,-0.5147595863,-1.7727199005,-1.5620878739,-1.5567162433,-0.841341269,-1.673687955,-1.6512041375,-2.0089536704,-1.5729558454,-1.3644242054,-11.2825511008,-10.1374320147,0.5147098778,0.4967026391,-1.2157281647,-0.44482576,0.6678912095,0.5146597042,0.1953074286,-7.2784259413,-5.3893684142,-1.397217833,0.1161995052,-1.5246530161,-4.3532351477,-1.3463006546,-1.2220052996,-1.4791221271,-0.9534620951,-7.9481976451,-1.7367156644,0.2667469152,-0.7847221724,-16.1504481798,5.9697450201,67.3487627083,-2.714179249,0.3117359975,0.0344245611,2.5696712583,-0.3178577227,5.5445475422,9.2394697509,-1.6180029944,-1.4827975758,17.9509619877,-1.3749864832,-1.9274188353,-0.9585943337,-6.5908302926,-1.8106096312,-1.3122725826,0.6207366868,-0.7073379869,-1.9780121701,-1.37744212,12.3757605955,-4.4798234834,-5.671478467,-1.9031909403,-2.6527429033,-1.7044921678,0.4701866298,-2.338123569,-1.245391108,-2.3206136173,-5.1312166288,-1.6080513557,-3.06344989,-5.296461316,-0.9103478347,-2.2842716876,-7.1746867396,0.6172665443,-1.7702928641,-2.3155852987,-1.9402689507,-6.152764476,-6.7389301112,-2.5183427754,-2.3285237746,-2.5726379812,-0.9303267785,-1.707548878,14.0723823028,-0.545241647,8.6442712973,-6.909047523,-1.48100909,-1.2793205066,-1.5613449843,-2.1598513521,-8.0334758698,-1.9775329345,-3.1333020679,-1.717029057,-1.4486973134,-1.6854515113,-1.9791893822,0.1693398416,-1.3999792036,0.5267533967,-1.3982216401,0.1025784355,0.2156113901,-1.6012615713,-1.5035168186,-1.5274358942,-1.138908464,0.3443533627,-1.3484654158,-1.5847942618,-1.3152344006,-1.7634475807,-1.6815053949,-1.5564276609,-1.5837428626,-1.8333551395,-1.6660379566,-1.2836322898,-1.3920454961,-1.3274284724,-1.4364586951,-1.6102289591,-1.5701365549,0.4159223491,-1.4703914777,0.3354797314,0.2996280367,0.6156246969,-1.9538496121,0.3255700977,0.3473261662,0.5859654993,-2.2388540404,-1.7491081177,-1.9231706718,-1.7902129856,0.2854765382,0.0347735388,0.1397250159,-0.1105064221,-0.2247643734,-0.4435676346,-0.5493629561,-0.7371429631,-0.3710165002,-0.512031529,-0.5392332597,0.0679611268,0.6596647414,0.4514383328,0.4626307608,0.0988140781,0.0625305616,0.6433430104,0.4529965214,0.0542857456,0.3217084567,0.3248608606,0.2804709878,0.4549589812,0.3946182621,0.3367962839,0.6649780013,0.2258942319,0.0066919906,0.2797568876,0.526331003,0.6542715147,-0.3802468187,0.5456497946,-1.5577044935,9.1033326106,-1.1149742061,0.4795473875,-1.7092193369,-1.8852021214,-1.8144954799,-1.6109088983,-2.0699635146,-1.4901560288,-1.8414012116,-0.1012157075,1.3092111002,0.5544880914,-1.2344710231,-1.7184069628,-1.9835503582,-1.729816174,-1.1805317447,-0.6817867693,-1.0258725929,-0.6996753821,-1.2374348288,-1.227488017,0.5578881562,0.4772830289,0.5352301695,0.7092576285,-0.2992409104,-0.0709056783,-0.3066357123,-0.3502826611,-0.0449613984,0.0496145408,-0.2388230707,-0.5632147703,-3.1459517023,-1.4751635753,-2.0777084081,0.1067695831,-1.3544997491,-2.0398089577,-1.7194749733,-1.5916715536,-1.3069418681,-2.1666901236,-11.2604463221,-1.5585867856,0.2270030748,-1.5665699421,-0.0698768115,58.6055590816,-1.8839284892,-0.5615927634,-0.4992169546,-0.1032071715,-0.4068507407,-0.4072630022,0.4923577669,0.4428705374,-1.9729040661,-2.1624923052,-1.6821634913,-1.7995165517,-1.8893091391,-1.3298806624,-1.7980287358,-1.5817972992,-2.1399960106,0.1340736578,-1.4539872733,-1.5812856082,-1.8499799485,-1.759791813,0.4477536652,-2.1251937875,-1.6077479593,-1.0870456474,-2.0673588296,-0.9315525915,-0.979992849,-1.6654169771,-10.4366464826,3.7745946386,0.1437276657,0.5875120151,-0.2387306399,1.219457824,1.3326763247,-0.2496777503,-0.212140603,-0.1242565328,-0.1996417848,0.1532874123,0.5497283313,-0.2943418654,-0.4456477494,-0.2375685379,-1.8365525517,0.3056145849,0.6619951114,-0.0291361354,-2.0612498364,0.2478100634,-0.1083721527,1.2918100733,0.3124917202,1.6450023114,-2.5312302071,-3.0286930279,0.5706486887,-0.4544590161,0.2510731494,-3.3473734613,-2.6006095969,0.6661659737,-0.3439449128,2.7821620287,0.3251226488,5.3136910438,0.3709242897,0.3156110967,0.2145659296,1.5951627006,1.6811500713,0.1807004185,-0.2692694262,-0.0128061613,-0.2122093726,0.1194608471,-0.2613368176,-1.5576915462,0.32344309,0.2866835466,-0.0442150674,-0.3183990904,-1.1740182737,0.1637759455,0.2128422225,0.8765935514,0.6167151345,0.0519090385,-0.1668344815,0.5378654362,0.1131099834,0.1158465335,0.4994624496,0.8426904961,0.3328789937,-0.9815843019,0.302720554,-4.673830737,0.2263897368,-3.1280600203,-0.1059918396,0.1309406829,-0.6822484283,2.5453437829,3.6496423251,0.0499402457,0.5566463771,-3.4084493791,2.2022788567,0.6476058631,0.3118850471,0.0554271523,0.2422952821,5.6889064798,-0.0567047055,0.6261212898,0.1083107993,0.1764894526,-0.4759038647,17.961054131,20.7824310874,0.1607760082,-4.9983476513,0.4186230498,-0.0349528147,1.3893989832,4.5684121186,1.2401086753,0.0859031732,-8.4187109014,0.3249698699,0.6932842235,-1.5815058322,-7.3507498269,-1.2944071648,-0.3186833329,2.227552336,-0.0837733082,-0.8940828229,-0.8770658162,-1.455240369,-3.2004727242,7.9863202859,2.340928897,-2.9969356118,0.2756770191,-0.8396048548,-0.0556946298,0.1584023067,-14.2369564395,-2.6499566077,4.9525313748,-0.84035812,-0.7774823559,0.0286686633,-0.3148871527,-0.5234986981,-0.8502048666,-4.5468193851,0.0915906646,-0.3011990011,0.1605321996,36.3266628963,3.7304216259,-0.1961005017,1.2533147968,-1.8840229561,-0.0143796041,-0.8196288406,0.3977949174,7.4062704614,0.2211728376,-0.2540466491,-0.2672435347,-0.0957902623,0.1974810182,0.352946639,0.0980576318,0.4569629278,-0.110102425,10.0418169909,0.3088897947,0.1748036973,-0.1647597871,0.6017779061,-0.2307229575,0.2561593065,0.270264829,-1.9486712656,-1.7958191433,0.3062651533,-0.3116084609,0.434267839,-2.3107648819,0.5912373004,0.0741181991,0.7052716825,0.6122344721,-0.0120732703,-0.3635816847,0.2012755076,-0.3507727886,0.1562741154,-0.1804815975,0.0916937844,0.2568872382,-0.1163103145,0.0554399888,0.2610702825,-0.0615532313,0.0549189708,-0.1186740792,-0.195801,0.1203243996,0.1884332945,-0.3133203318,-0.0467027445,-0.3862543405,0.4210941901,0.2966845303,0.0558506632,0.3923447054,0.2777728839,-0.089643681,0.1529236374,0.1192611452,0.0295533881,-0.1693183276,0.3672593769,-0.1752994769,0.3738175964,0.2831300258,0.4404958879,0.3390931417,-0.2122630731,-0.313667767,-0.3198785714,0.0477898798,0.2371538922,0.0455342848,-0.0179194446,-0.0775454554,0.2563304369,0.1571154585,0.0680491723,0.534693983,0.4314007464,0.6507078916,0.0949498891,0.2511155205,0.5621414438,0.7047542352,0.6664339721,0.0442529878,0.4441042355,0.3875420911,0.2726320072,0.0092693873,0.4315194381,0.6531595655,0.0643132665,0.0265299167,0.0294374479,-0.4723914193,0.5485933239,0.0035615525,-0.2993047497,0.2826817162,0.2615305692,-0.5220025172,0.2349760978,-0.4111424921,0.1190279631,-0.4375164304,-0.2633302928,0.0850982608,-0.4427855,-1.1289775837,-0.0140548523,-0.2826360787
   -0.1972342864,0.0992772657,0.3703456902,-0.1040742566,-0.3892586005,-0.0003672758,-0.3500087456,-0.3639452892,-0.1312562416,0.6667774121,0.6215589201,0.7096932154,0.3767132327,-0.2098361299,-0.2193923637,-0.1103759939,-0.084951968,-0.4120545848,-0.3604396185,-0.1864938536,-0.1042533361,0.0203365602,0.3293883476,-0.2984546799,0.2437373711,0.2949925192,0.0230908544,0.3079014116,-0.0649838802,3.3196520167,-3.7041014468,0.1023161052,-0.2380260261,0.2299225747,3.2554064566,-0.1172357402,-0.140843553,0.0871419018,-0.0555025701,-0.5203712374,-0.5809707038,-0.0394842787,-0.6003651242,0.1514739575,0.3339744553,0.2032495705,-0.552473588,-0.1290991844,-0.6357386251,-0.2470105139,-0.1529605159,-0.2296243778,-0.4751608619,-0.6641461311,0.7023741737,0.3373711568,-0.3307671962,-0.5643127385,-0.7821969064,0.1703371145,0.2226504865,0.3777117906,-0.4911717659,0.3919744577,0.423022193,-2.1821894004,-0.1477582914,2180.7670616807,0.2819267296,0.4512719221,0.6474880942,0.1848568459,0.2217959982,8.1092467962,1.2833496454,14.0138667186,2.0843165367,0.1887148137,0.3952673543,0.7445167575,718.1105129124,0.073343046,0.8320525102,0.5940488624,1.5020465119,0.5862646945,32.7419912212,0.0984689786,24.5223882915,2.2838339888,0.2451101442,0.6039197268,0.6051204832,2.3278565309,21.4598949259,0.705188645,2.0430011392,0.689500199,2369.3830315283,0.4843062792,0.6403157865,1.5735929266,0.7109363857,0.4404198836,0.9893209912,0.3625363587,0.0900445224,0.3046398552,0.6117962136,0.1734053158,0.7308428866,0.7286088798,11.2603422693,20.7552579769,11.9896365032,1.3303155876,7.0721920088,0.7520122708,0.690331744,0.6506830944,0.3094753046,0.6973001452,0.5566618533,2.6791662647,0.4849158576,0.6371423281,0.6763067237,0.4660625198,0.010646492,0.6812008146,0.4267276135,0.3243380349,0.1624780715,0.681967626,3.5495824755,0.4957096115,0.2955745849,0.2670706406,0.1036549728,2.0493522439,0.1303586531,8.0992002921,1.1938710112,5.4420376172,0.4846109686,0.106812776,3.9201348048,0.4013095876,0.5199402506,0.3318607315,0.2276496746,0.0885390932,1.2679302664,0.1744025758,0.4087261894,0.9126754977,0.3193833773,1.8957760878,0.7148078332,0.7607889869,28.9425389117,0.136500469,0.4115846342,51.2918576232,0.4149122682,3.2931465679,9.9115030607,3.5562298238,1.0369147897,0.621538074,0.1272137112,0.6687340641,0.5575020751,6.6446494073,11.3492047102,0.1404279564,1.1660107311,1.9370656376,0.6819638961,0.8157264689,0.1400900586,3.1857863885,0.1966100518,0.4310630496,0.5259849805,0.6481029862,0.2005439329,0.6329260835,13.0642044583,3.5384932076,1.7211808807,0.5687515073,0.7225148278,0.4506052631,2.5585234744,0.1747787748,0.6482358813,1.7432237233,2.670354463,0.606981985,0.4149370527,0.8224045004,0.964718622,3.4511416359,0.2422331131,6.4853252456,0.2903275018,0.4967846833,0.1859208184,0.4057443605,0.5345511487,0.076786713,0.4427348702,0.1010391447,0.8084435822,0.048194537,134.7411484506,1.5799627112,27.5343640952,2.1757281685,0.465214387,0.5599532867,0.7170414167,0.6965441966,0.4283077823,0.6001290961,6.788346943,0.7136763829,0.3334568043,0.5796852361,0.4071571804,0.6953671253,0.7574027777,0.1423576729,0.4402485425,0.116379917,0.3492658412,6.2835193848,0.0735894491,6.4265317622,0.168559046,0.2587590402,0.7615577652,0.9623577031,0.659777888,0.8139746347,0.9586533005,0.7569421049,0.9219031215,1.0146338228,1.3159323335,1.1844379334,0.6884784081,0.9588325689,1.0183568764,1.078237712,0.7625816892,0.0802632537,0.8415355684,0.3318635712,0.0607172438,0.2495952425,2345.9835670756,0.513719893,0.0171473817,0.4830391954,1.8675214584,0.5910530103,1.9592089145,0.3350608726,0.5430024099,0.1984920103,0.2858096955,1.1429123399,1.1053174156,2.8445583039,2.2503706298,2.7030753619,2.8694743138,2.5209977335,2.3507972386,0.4773782629,0.0844113382,0.3977733815,0.5907359492,0.2562866566,0.4559043594,0.190318107,0.7009410755,0.5554245373,0.465955267,0.6073156642,0.2484243274,0.5742763153,0.5318003103,0.1706446642,0.3734390177,0.6066551933,0.3935561769,0.3378370449,0.7009447021,0.2495235728,1.3900845716,0.0885160257,0.6582103808,16.1060189342,6.7919329225,0.1774608982,0.663446011,0.1371331503,0.4796538365,0.6907351942,0.2832193394,0.072346087,0.8030808611,1.0930515814,2.6867218518,16.6396292026,1.5387143156,1.4459833987,1287.1696882086,1287.8230206636,1.8095852732,1.5805908313,100.3440813005,100.485837658,1.006570004,0.7542873112,0.1759977473,0.1052397471,0.4173129891,0.022327,1.3659746082,1.3413799542,1.2389318422,1.5096940582,1.0910805548,1.5138302037,1.150244723,1.3115194233,7.1223497438,59.668739659,59.9375677112,0.3505719904,2.2990549905,4.9567328161,0.4967514267,0.1082260315,0.2953338135,0.2370448151,1.0456766962,0.5395620048,0.3726815797,0.7366706698,1.0981012027,30.6576215656,0.7739239844,1.2179414176,1.0217242426,1.4554697467,1.6207648709,1.1380389135,0.4071445746,0.071174513,6.6975647233,0.6346695961,6.1508602253,0.6528236714,0.4960598896,0.5546571771,0.6530240256,0.6916749402,0.578546014,0.0207691761,0.3259121476,0.4607105873,0.5171253623,0.674133069,0.2665702095,0.2474484063,0.8010961824,1.0828895608,8.7640980347,0.5549831729,0.2599969396,-0.284095648,15.9810346735,0.3338784987,0.0858513742,0.5158936084,-0.1638408001,-0.1435114241,-0.6089281844,-0.0117328881,-0.0793881031,1.0211711614,-0.0608402245,0.5390349053,-0.2240012177,-0.2618507609,-0.4576958676,-0.0122719922,-0.743867013,-0.2565240578,-0.2592917277,0.131625397,0.164019718,3.1076321447,-0.0550298153,-0.4583448289,0.679407251,0.4082847966,1.6936641751,2.3728648271,0.4758908385,-4.3991942874,0.3265165322,7.2418484402,-0.3754839378,0.5642897123,0.3903636657,0.1126642384,0.5177753271,-0.9981787103,0.338281291,0.5136161111,0.228580825,-0.2612876374,-0.2227060822,-0.3502042297,0.1190582795,-0.360951369,-0.319330179,-0.2156566035,0.1100533918,-0.3016328215,-0.768940956,-0.0639787756,-0.3062992541,0.1464040172,-0.3466814441,0.1491717998,0.1557985003,0.024147753,0.3026078345,0.3815186611,-0.0425712527,0.1183185288,0.5184950849,0.2789367589,0.1967538532,-0.0267161854,-0.4610812247,-1.2652032845,-0.2139651512,-0.0462595156,-0.5212926138,0.4512787275,-0.2418527448,0.0693539765,-0.313306516,-1.4623607195,4.8927796615,0.5571488284,0.5099664109,-1.9158132501,0.1458045057,0.3955632242,0.472306231,0.0990683383,-1.5020047974,-1.1296264528,-0.2497104476,-0.0737813334,1.3196253555,1.7641528715,0.079598059,-0.348012265,-0.095898245,-0.2850859316,-1.2092841982,-0.321794847,-2.2513614918,-0.1585496094,-0.9930276684,2.2111235332,-4.6583984696,-2.1477339165,0.3540649529,0.3700762322,-0.7063383587,0.1282648897,0.254136073,-8.1418665018,0.0082995813,0.0488873506,-1.5082529254,-0.1943588762,1.1682052703,0.4658682853,2.2043075813,0.0256590413,1.2536453858,0.0781902628,-0.2639135525,-0.0471657596,0.4367789396,-8.7286099416,-0.3421275306,-0.0077279341,0.632487996,0.0880686393,-0.1985133825,1.4611484837,-0.1171829991,-0.5858304445,0.5136869361,-0.4159586751,0.3667631231,-1.2906500098,-0.3413210971,1.861656297,0.1315820426,-0.8125097573,0.3687168955,-0.4074443608,-0.3281348341,-0.4140519474,-0.1826036988,-2.7889477715,-0.378081559,-0.3994827177,-0.2823417578,-0.4810354193,-0.1558024883,-2.0040155118,0.1334872025,2.8596127226,-0.885082276,-0.1244057127,-0.1126467692,-0.0856086889,-0.3854734891,-16.8325382882,-0.1535614628,0.163013568,-0.6044537525,-0.7006443896,-0.1036084565,-0.3904186521,0.2806790929,-0.365470713,0.6535744216,-0.0873549576,0.1468991417,0.0252978008,-0.1829508573,0.0377451308,0.0369866396,-0.2448315386,0.1054915744,-0.0649150669,-0.4529686119,0.1299579782,-0.3265426274,-0.2304259531,-0.3451571436,-0.510772895,-0.4828803468,-0.2138545842,-0.0975876319,0.1388732651,-0.1737814889,-0.2873087349,-0.247181319,-0.2063295101,0.1672490647,-0.5535190337,0.1571611874,0.1749812919,0.284771158,-0.0192799165,0.6960527145,0.3755092103,0.1578920358,-0.1460236893,-0.4772219968,-0.0634009159,0.0177222893,0.541523263,0.0312642216,0.6219903562,0.2791906837,-0.1529686981,-0.6072998868,-0.1465818138,-0.6143225226,-0.4786678679,-0.5538284217,-0.7397341591,0.0334604417,0.1536306597,0.1177150944,0.4187201751,0.6862943048,0.519592764,0.6818855717,0.4613836517,0.2578604504,0.267240454,0.3913134353,0.6339959809,0.3638698103,0.486149651,0.5833525657,0.3350117015,0.6860715175,0.480573798,0.4275190627,0.0470880393,0.623570189,0.3583704609,0.3988450785,-0.2952340425,-0.9945083289,1.6729194606,0.1556184671,-0.2677340123,0.0403484686,0.1216819559,0.1259915846,0.174409171,-0.0224928305,-0.4507487367,0.5335748052,-0.2140585964,-0.0628134208,-0.0572888416,0.1042011044,-0.2196940847,0.0500389461,0.088730031,-0.0874993847,0.3984127899,0.05849987,0.2748581374,-0.2435122312,0.4202446958,0.1819983004,0.6658199062,0.4139838137,0.5158457133,0.4503183341,-0.150266689,0.1716788659,-0.1025334313,0.1088227094,-0.0055510418,-0.013184088,0.1193437497,-0.3911420169,-0.451296942,0.2950626774,-0.0601755269,0.1282730329,-0.3640740828,-0.1556630479,0.0266793332,2.4254750736,0.1299490442,-0.4078939059,0.5413279139,0.523261839,0.4819216727,3.0461398789,0.1014777291,-0.0832406756,0.2337722151,0.3410660415,0.253855519,0.4177959388,0.6562053244,0.3941271205,-0.2564156517,-0.3650598501,-0.1838690404,-0.1777469117,-0.0895466849,-0.3785210977,0.0377011506,-0.1142888334,0.0098148743,0.0529251483,-0.2083250285,-0.1329758388,-0.2208682406,-0.1460602993,0.1891066412,-0.3179667329,0.0348153853,0.0327621936,0.0374047754,-0.2260596062,0.1801129331,-0.9448028322,-0.2554727935,0.3773634226,0.5013992388,0.2234756747,0.1327587054,-0.2750508454,0.525794317,0.1488201011,-0.170658928,-0.227047636,0.0938322333,0.5893989931,0.4674531106,0.3479206267,-0.1242184907,0.0384895831,0.0783390471,0.3690264893,0.515722321,0.2237852691,-0.4551462472,0.0772904026,-5.6411102825,0.1388972565,0.1914346252,-0.5809563783,-1.0195681391,0.2326062707,0.30653452,3.9482690657,0.533763248,0.128419506,1.1155138507,0.154373539,-4.0458458017,-0.7197291731,0.2017228355,-1.0876113635,0.5237637751,0.1646032918,0.0545870769,0.0395864367,-0.865333647,0.2770067413,0.2186017056,0.0944679236,-0.068557063,-0.3230291065,0.1571780523,0.3014336106,0.8724877858,-0.1925354863,0.070986293,0.140134232,-0.3732894367,0.5053942914,0.7114431922,0.3037157708,0.2748041215,0.1399651227,-9.6959117599,0.2152079148,0.1965602181,0.3925414407,0.168398262,-0.7413316595,-0.0321324905,-0.3137932534,-0.237339704,-1.4059975419,-0.2490882173,3.4684971053,-0.0394493357,0.0691630638,0.0065466325,0.5401635653,1.2616365074,0.1189601305,0.4037346398,0.0746519547,-0.1266911776,0.3285822706,0.1172391949,0.210049491,-1.0460052988,0.2633767331,-0.078415533,-2.5044724338,-0.1288819315,0.9683697924,0.2443733287,-0.9321201599,1.8545801023,-0.4503810363,0.5947416742,0.1047975702,-0.405046167,-0.0068252658,1.5388224133,6.342904175,0.3328040303,3.3591693912,0.2376404594,0.1926858395,-0.2305382902,1.1508036208,-4.1520581989,0.2525982534,-3.3441855313,-0.1341185492,-0.4974816744,0.4986367699,-0.3766146235,-0.8527912795,0.6928425872,0.2590554722,-5.88759114,0.1482145242,-0.2372839015,0.0515517215,0.2664771172,-0.0005083223,-0.3140560231,1.7798849618,-0.2685129426,-0.2791484749,0.3909737434,0.0679095227,1.1694826829,-3.622406029,0.1615415241,-0.0061416084,0.2431933553,-7.1708026865,-7.0366384013,2.5283807655,-1.3377465447,2.2743887928,-15.3193357086,5.5806758659,0.2425698867,1.5628361988,0.2123384161,-5.1143545182,-7.5801277309,0.5162549567,0.3866233406,0.3298053538,0.1649515288,0.0234962992,0.2467003467,-1.4455460484,0.4665279898,-0.0609468162,-3.7764310486,0.0773042677,1.0422597674,0.565509665,0.0915417502,-1.4917201686,1.2260054083,1.1803383937,0.1271855118,0.0611126848,0.6901107821,1.0670933987,0.5169683171,0.3079859761,0.5947331552,0.6925746342,0.0215138869,-0.310169228,0.0443341397,0.4682032463,0.0277165247,0.2921602813,0.4059821135,0.1993462032,-0.1186504355,-0.0386412202,0.2597085473,-0.2046732288,0.4027108545,-0.0403931637,-0.0934630448,0.1806125793,0.0502692136,0.3824259903,-0.1357480007,0.0265696478,0.1429252155,0.3078027215,0.0593521395,0.3257653721,0.4211574858,0.2167474243,0.6288495522,0.0162421955,0.3024133487,0.2843154752,0.2849389502,-0.3074882232,0.2723247461,0.337862683,0.0540673957,0.4124425677,0.4917791558,0.4951349796,-0.8469121345,-0.7617709714,-0.3939648948,-0.7977554519,-0.8171828627,-0.674314313,0.1605866922,0.3760156273,0.6917696874,0.0461633086,0.0373246395,0.3089726489,0.2180381769,0.0239735306,0.6562264388,0.6252786817,0.3984616018,0.0082029083,0.146632192,0.5266484377,0.2029988871,0.6224371974,0.4530917824,0.4251136548,0.3197173377,0.0892772623,0.3640952583,0.0422191223,0.5915760007,-0.2849239996,-0.2663366699,-0.2556890991,0.3495402745,-0.0453600652,0.8133078871,0.0683925989,0.6824411681,0.0043514877,0.1167031908,-0.0918888715,0.4740806839,2.6068577938,0.008104055,-0.276288568,-0.1418556265,0.1296187919,0.3183498986,-0.1730230164,-0.4101549191,0.221020661,0.1409906581,-0.1592266215,-0.2972308784,0.4258004341,0.5269005539,0.3527788822,0.1297172651,0.6170725307,0.4138206114,0.4388655941,0.6651108515,0.6577005297,0.5159647264,0.0570531316,0.4445508075,-1.7861045139,-0.2780378057,-0.2051730263,0.3300425341,-0.2069550241,-0.1247834515,0.0055750596,-0.1271083643,-0.6595861729,-2.8066303622,0.1917524151,0.1924548226,0.3795328834,-0.6012104218,0.2105445761,-0.2206988574,0.1764194415,0.0037123533,0.4660180399,-0.016985855,0.094382401,0.3807889661,0.1222314937,0.5710004058,-0.233540393,-0.1944301619,-0.2689457023,-0.1950049155,-0.2627609983,0.1400240617,0.2086072995,0.1501370786,-0.0107355708,0.1034283855,0.0048424663,-0.2208724221,-0.1642340753,0.0044129156,0.4950155015,0.3572106991,-0.2522770421,-0.0861828496,-0.1647615437,-0.3162521769,-0.5874968135,-0.904683004,-0.1900183682,-0.310743385,0.3845617493,0.2755047459,1.2792438816,-4.9800173749,39.273813612,0.0712554477,0.3577153656,1.9712548985,-0.1298825882,0.3411718737,-0.2113853339,1.1401368571,-0.0042748128,-0.6882134259,0.9245876814,-0.2658563763,-0.9238850199,-0.2017634714,3.6682579328,0.194442791,0.0524731541,-2.1305467225,0.4294454154,-2.0979036764,-6.6913281673,-0.1962683094,0.5493539679,-9.3326677935,0.6720578565,-0.1200955082,-0.8895815369,0.3566121855,0.0502460898,-0.9223827358,0.315990446,-3.2062815824,0.3393700807,0.1343262737,0.1781687443,2.0825431234,-5.060904815,0.1564603209,0.387851509,-0.2911819963,0.2369949788,-0.2014677507,0.6864632298,-0.404782481,0.400288974,0.2838945168,0.4093129812,0.2698593849,0.1775290722,-0.357810412,3.5209948097,0.8957478028,0.4447096853,1.2367490432,0.0025755494,0.0665163568,0.5636769152,0.1127332312,0.3280340933,-2.6502979807,-0.1300846987,-12.6544526341,0.0811867503,-2.5627093797,0.1770489869,0.6851284702,0.0480039249,-0.1981723513,-0.3005724933,2.3004905831,0.0831608676,0.2934115704,0.606592999,-3.5687012056,0.4025320602,0.501567598,0.0112250085,0.3892716588,-3.4017748262,-0.9163492149,-2.6897507681,-0.4776401055,-0.3625060671,-1.8714460803,0.3594250866,-0.4932449711,3.0377938592,-0.193591781,1.7512011969,0.3815703307,-0.225678961,0.7150449073,2.1583516218,-7.5032923249,-0.1700139516,-1.2308532599,0.5505490844,0.5557647112,-0.3822501184,0.0889486231,-3.8492291437,0.0900359091,0.0875202667,-0.3018729037,31.8475017233,-0.5708460263,-3.6295056595,1.4016877196,0.7324018114,0.7733183257,8.5526246032,0.3507410899,-0.0856117644,-0.3003010497,0.033425729,-0.1333393076,-0.0660201329,-2.714722888,1.6776191296,0.0093278156,-0.2700577131,-0.013050578,0.1401088347,0.2012466214,0.4613688181,0.2158703989,2.4109677504,-4.3975170629,38.3237696844,-5.9723485846,-0.1474223507,5.8648573803,-4.1701656632,7.7302785511,0.2565545288,0.3960448868,1.3353506117,7.4102632052,-5.5355213158,41.2630336872,0.4618624693,0.2301984876,-0.2326737574,-0.2907452573,0.1162502013,0.0632952744,0.3664202025,0.213163231,-0.0193339927,-0.2358289497,0.5220399677,-0.9000569192,-0.1105078522,-2.6684668853,-0.5610650837,-0.7065645545,-0.2215871472,0.0700969613,0.340496866,-0.9848105581,0.1347500026,0.1097139067,0.6126577512,0.075751307,-0.1506440272,-0.5393688363,0.2862262664,0.7799639735,0.5425957575,-0.1494083025,0.0434508681,0.1317722489,-0.0119773519,0.0031374643,-0.4273566195,0.0490763939,-0.212288896,-0.0888686301,-0.2784518845,-0.3906165376,-0.4487016222,-0.4248750274,0.1337532157,-0.3503443716,0.1447289403,0.0057944016,0.6824272563,0.4454786325,0.2629143303,-0.0021142118,0.0581002788,0.3791354981,0.628287052,0.2677947668,-0.2642170866,-0.0525934831,-0.0371001465,0.4348572343,0.3317203133,0.1825871552,-0.4963473079,-0.0996206308,0.7794230045,0.7450718242,0.3750677446,0.5576589627,0.5081535932,0.5567770242,0.3140714508,0.6812721413,0.1292754828,0.1341814161,0.5681066131,0.349422667,0.0412403233,0.5279046596,0.6364292227,0.6409169751,0.5834371458,0.0135928375,0.0534263231,0.222037833,0.4479102761,0.5985781948,0.145035283,0.2289205938,0.0102858537,0.3250498744,0.2378423523,0.1351528141,0.6164528197,0.1388686786,-0.1274673078,0.3705332382,0.4317079632,-0.0358580057,0.333993811,-0.2213367344,-0.225394988,-0.3680290539,0.4406465529,0.3370383075,0.1146775566,0.171688301,0.2097221725,0.0885557858,0.1381393503,0.2522890979,-0.1697584138,-0.3842531443,-0.3773758077,0.0738635631,-0.2903389094,-0.3982290557,-0.4502469129,0.6067928696,0.4798871825,0.4002324691,0.1737219777,0.0539123286,-0.3481575531,-0.4249980559,-0.3917389843,0.0290948501,-0.1745838176,0.1571116796,-0.0809245794,-3.0998618071,-0.0025870458,0.2794527745,0.122181771,0.1981084397,-0.1881738471,0.3708738914,0.1097796761,-7.0137625692,3.9435109893,0.2659635036,0.1902837236,0.389810328,-0.4927401151,0.0016933952,0.1596051332,0.2120679224,-0.4417451234,-0.4202590863,-0.0351480338,-0.142115902,0.0577943521,0.2889435649,0.1625933277,0.0135632185,-0.0620268996,0.21400893,-0.4516049659,0.0005987523,0.63554737,0.3174482293,-0.4739771381,-0.1293168422,0.3700140322,0.3741588181,-0.1114089387,-0.3772496146,0.0216361653,0.1424458892,0.0158313316,0.299226806,-0.3350789746,-0.1790712285,-0.3877015104,-0.1334607929,0.1729507222,2180.6519856415,0.6752208366,0.0483340384,0.4102931999,0.241758496,0.468792092,7.6818006455,0.9412695871,14.0252183592,1.8187701095,0.1848377696,0.6367552209,0.4066524278,717.5525036229,0.5562694823,0.7518730735,-0.003308572,1.4757405768,0.3409812588,32.4349534222,0.0114888167,24.5022337598,2.0599171125,-0.0414394736,0.4071484151,1.0408624867,1.6143832501,21.7612717816,0.4299792285,1.3237087519,0.4465045951,2368.8683573723,0.4352648974,0.3280398656,1.6564014684,0.0898674282,0.4688179571,1.0184074632,0.5932708311,0.4215137374,0.3851783464,0.2390103112,0.3194993204,0.3264950725,0.5587288283,10.8409127129,20.7704938883,12.043109086,0.7524731194,7.1890779391,0.8479951735,0.7172924427,0.419549199,0.5123107146,0.3101162866,0.269371078,2.33545958,0.471897219,0.2100823028,0.3179472396,0.3806938468,0.694903576,0.4191521021,0.0440739876,0.2115784177,0.6688534513,0.3844295229,3.3982551774,0.0148013475,0.3150819231,-0.0424694617,0.0008955454,1.9265552779,0.5533795233,8.375525434,1.1578680296,5.5243356027,0.3031598664,0.50655281,3.4479145357,0.6960019758,0.0193580499,0.0996147315,0.4519740937,0.0292223927,1.0121088164,0.2520157683,0.2311968779,0.5038560916,0.1647511355,1.7079135076,0.3547874912,0.4966235927,28.593413541,-0.2771655242,0.2405114659,51.1441470343,0.5254690608,2.7663769865,10.0313153746,3.3696290508,1.3052527495,0.1470437002,0.0281567583,0.0048592238,0.3391987974,6.1945023446,10.5858383934,0.6358751176,0.5715192751,1.3109620207,0.1603190001,0.7033019446,0.5722085666,2.5612014703,0.6715625292,0.2301768987,0.3487302948,0.1879316662,0.5832655756,0.1094560472,13.2064113679,2.9494072727,1.8890246426,0.8253561119,0.5794070427,-0.0211481068,1.9793311946,0.1956620834,0.6748386018,1.8401267378,2.6231801165,0.087068624,-0.1249744706,0.4108206109,0.814122158,2.8949029714,0.4759751944,5.7269491986,0.3380599687,0.1114365425,-0.0638620313,0.3311075681,0.0193422441,0.3378975939,0.3625910825,0.4131853568,0.7570826078,0.4064216926,134.7442893187,1.6204463515,27.5505340126,1.5542578758,0.5060349015,0.4261443679,0.4161809216,-0.0000111931,0.1215928628,0.3668829022,6.7299835032,-0.0634791118,0.3093312741,0.5239203217,0.2697668286,0.6887487331,0.3642745507,0.3975300654,0.3043036272,0.1463690671,0.1125594869,6.4196391384,0.5379513194,6.4627079772,0.2029914475,0.4175375005,0.5342267316,0.6903563019,0.882094768,1.008761473,0.8410180874,0.6506849685,0.7902162138,0.7222001964,0.5697076122,1.2209028821,0.9829144237,0.8994288335,0.6658792667,0.8443100272,1.1934680027,0.0083002964,0.3153851003,0.1842553503,0.4933674128,0.6565360625,2345.7452556246,0.5281560099,0.2073127865,0.5661383781,1.9519464791,0.2097085328,2.1060691095,0.2600429041,0.4153035434,0.0786155732,0.0948408063,1.0891858467,0.96208239,2.7042868954,2.187333511,2.1306640597,2.1591742887,2.0469013317,2.6782397413,0.0089242561,0.0991276034,0.4272359492,0.1139665761,0.4339822804,0.0317039636,0.5486367789,0.2263291866,0.6600084033,0.2839608727,0.621636464,0.6598749182,0.5225519532,0.3955025337,0.4713225267,0.5921404411,0.1724698359,0.4548974927,0.5880044258,0.1989864842,0.2320499002,1.2313739571,0.0971070879,0.0365881675,16.2678778721,6.8232323492,0.6955044259,0.6541722331,0.0354954984,0.3645103295,0.2401942722,-0.0355552808,0.2103436389,0.1571133135,1.1156546006,2.3927463148,17.0260084799,1.0234145662,1.3102231957,1287.5492871298,1287.4125941375,1.3382534792,1.3124678671,100.2822497388,100.4408663235,0.4199429954,0.8768422251,0.2888327857,0.1463770511,0.0394943419,0.6602813395,1.4340010174,1.3444649766,0.9865996555,1.0668266019,1.1404917294,1.0546403954,1.1633874691,1.1420062031,6.9144021803,59.9095598196,59.6811371713,0.509786155,1.9126221528,4.6801992661,0.5289920268,0.4551306466,0.3188549906,-0.0509474557,0.7517582721,0.2399878392,0.2785196631,-0.0065027907,1.3115585918,30.0696432373,0.5348395453,1.2178070293,1.1602394813,1.3680749692,0.9876353324,1.5149896349,0.0947441297,0.3504733412,6.5643525607,0.1303447854,6.0125313585,0.0351728601,0.2415087121,0.3745565289,0.3733278631,0.2914288249,0.367336518,0.4955771986,0.1015830675,0.4627661496,0.4372301682,0.1301152027,0.4707439291,0.597319832,0.3908152771,0.9845331753,8.4837546098,0.2627288316,0.1452326341,-0.1500937066,2180.8623682287,0.631440423,0.6467215451,0.2371722742,-0.0426580057,0.7456795673,7.6650440366,1.070810427,13.6699352696,2.3507877622,0.1126031646,0.2897437318,0.3276618403,717.6516798217,0.5503420766,0.41148405,0.3776511254,0.950539772,0.2749216217,32.5629022375,0.2775873828,24.3106216016,2.0454943197,0.211052911,0.695961695,0.8243583557,1.9041579175,21.221048814,0.157373008,1.2657578442,0.4639683637,2369.0280505734,0.5174752743,0.3152746063,1.0761697825,0.27884698,0.6425346085,1.4143679513,0.3696225307,0.4202222404,0.1939916624,-0.023965265,0.2240511084,0.046352601,0.5576100452,11.1013692664,20.7121785898,12.1585172798,1.1379106421,6.9866168313,0.2448043725,0.3414777494,0.3261539123,-0.0575300079,0.572297946,0.6954894115,2.1720870007,0.6253976096,0.6892229655,0.3822288277,0.2094284548,0.7025444885,0.4338222112,0.4480053369,0.4403351631,0.6140154023,-0.0325462153,3.1746208635,0.1367584891,0.1424115153,0.0688294459,0.4334793192,1.9364628584,-0.0580331022,8.1630820163,1.1483602289,5.0928653034,0.623071678,0.2218340835,3.5050691833,0.543833459,0.2969811512,0.5991407815,0.4389245345,0.3604932298,1.4146848612,0.4066329196,0.2802058,0.7390712666,0.4056857635,1.2885224672,0.1024679262,0.4959579328,28.6321884566,0.1756527206,0.4959468859,51.5917690259,0.6528124743,2.8364562853,9.5691889042,2.8703485503,1.4051258527,0.2601711121,0.1795604492,0.6195930219,0.8144979856,6.323742484,11.0739772378,0.1204759024,0.679345862,1.9038243369,0.6300544844,0.1066897501,0.6060857302,2.9094686361,0.2427695452,0.240325327,0.0574311939,0.6512473563,0.5986885161,0.5729703497,13.2562126617,2.8476669896,2.0148329696,0.5783014986,0.3415697407,0.5823174347,2.2549383276,0.4041433584,0.9158164247,1.961358046,2.6274076778,0.1107887118,0.2305936125,0.5985381059,0.6451098506,2.8651821034,0.611664669,6.1041174015,0.1870524387,0.521128402,0.10514276,0.1562404124,0.4524929568,0.4952797857,0.6016535417,0.2920024432,0.7381266229,0.3019889295,134.9381585982,1.2839216246,27.8982174353,1.7912560047,0.1297417494,0.0792292654,0.3506003045,0.2389832277,-0.0175028705,0.1138927758,7.1159731203,0.541386743,0.3741665155,0.1983619836,-0.0047264468,0.5229412146,0.332786736,0.5453688386,-0.0451966467,0.4166178381,0.6177469188,6.101532422,0.3475764242,6.2130790593,-0.0416265196,0.1652834733,0.5427090605,0.633151243,0.6813615479,1.1072398554,1.0775915089,0.8643367621,1.1632703424,0.5826950665,1.1603787029,0.6875470381,1.0463414165,1.0834331504,0.8942555887,0.8107366901,1.1606141671,0.6452626123,0.2226191097,0.0843535895,0.604339477,0.4611612525,2345.8596931098,0.0774864069,0.6595501252,0.0406706649,1.6391994337,0.1077866543,1.875137,0.0747383845,0.1450688574,0.3770257078,0.6075643555,1.0388205091,1.2389011594,2.2469844938,2.4735168174,2.4475595862,2.3528919057,2.1497817116,2.5752050747,0.6544022383,0.3063791882,0.2828959561,0.3879642297,0.0594114727,0.3596550488,0.3291906541,0.4397808886,0.1007754007,0.017224557,0.3712738687,0.0992784119,0.12668848,0.0088270078,0.2348493902,0.1297754687,0.5979401236,0.0546513648,0.5931627286,0.4966397092,0.5070729094,0.8875792053,0.3365554335,0.2392608042,16.2011717536,6.6426081547,0.3551724396,0.1353911661,0.0809534025,0.0579434902,0.3398810149,0.000269443,0.278686693,0.5530923751,1.2050279294,2.5102789444,16.4225259955,1.1943859338,1.3205794602,1287.4864840469,1287.2930779284,1.5731911413,1.3477212317,100.1608714524,100.6217296112,0.3807920105,0.8520337074,0.4866919607,0.6133318769,0.4855227141,0.3611723594,1.1332604483,1.1406166832,1.5262649001,1.3318626534,1.0887435532,1.5445264719,0.9021333019,1.1625558831,6.7809787498,59.3388310698,59.5273533942,0.1515232883,1.8052010071,4.5616968565,0.7446402933,0.0215453167,0.3261824186,-0.0369279315,0.5696828268,-0.0088003847,0.2222621086,0.3200628001,1.1870081723,30.1746909072,0.1045438329,1.3329981894,1.5192233667,1.0169020427,1.4433262204,1.167860294,0.1908459389,0.1343448246,6.2315112716,0.1177427068,6.1936259129,0.0434435128,0.3327021145,0.411240767,0.5123467458,0.1961361481,0.4014180318,0.1820246802,0.1476272979,0.0162981713,0.1709358845,0.2372178261,0.2978234677,0.5919381082,0.1809819522,0.7367028722,8.1525768802,0.6808571305,0.644278798,-0.7379365507,1.1376311775,0.1390668326,0.6805966872,0.4070299568,-0.5122013575,0.7922199764,-1.6564735663,0.2018848212,0.2687945323,0.0772726687,-0.4603627963,0.0131863453,-0.4021821491,-44.2552114852,-0.3380313512,-1.3877545748,-0.2021992915,-0.1897718798,-0.0646350413,-0.2519632784,-0.2653214486,0.0924709496,-1.8743471208,-0.2217885081,0.1603640186,0.1961052594,-0.1197808836,-0.0489711094,0.1256773526,-0.1885905645,0.4980045331,-449.3062087177,0.3529019628,0.6531117636,-0.4215498918,0.0586353228,0.1868312008,0.0317787574,0.2696572906,0.6351201828,0.2457090436,-0.2227279527,-0.5123208447,-0.2055764251,-0.4385335194,-0.4885853797,1.9130990626,-5.2939357017,-0.3268954659,0.5332015561,-0.2786237077,-0.240262677,0.0102241034,-0.477321118,-0.0099298174,-0.0039593146,0.2007262037,-0.283052629,0.2490751094,0.373457838,0.0688718836,0.3929256116,0.6886523065,0.3957361422,0.0162019487,0.0938955242,-0.149830807
   0.0729270704,-0.4435587817,0.2341221477,-0.0250650679,-0.0938397703,-0.0777692415,-0.3731186669,1.4862378226,-1.9788984129,-1.0277451471,0.5689154725,0.3568222876,-82.1753617495,0.0072717414,0.5745882367,0.3633597446,0.2209738541,-0.5820200954,-0.0459361126,-0.4849588723,0.0723502658,-0.4424827195,0.1319086797,-0.0523682279,-0.2627322431,-0.2440601397,-4.0498721167,-0.9256273348,-0.2629507364,-46.3527404614,-0.1382140416,-0.9114969079,1.0935575564,0.8706951654,0.1962804354,0.6238076908,0.3466724657,0.033262864,0.1662390063,0.5514611414,0.854040204,-0.2250065929,-0.6946821512,0.6411134415,-0.0416526905,-0.3753519569,0.1869578126,0.2343243949,-0.6874777691,0.1359235261,0.0561353952,-0.215262958,-0.3587603599,-0.3029710565,1.239698515,0.3796194647,-0.5209507767,-0.2944054771,-0.4804968439,-0.2216349955,-1.207535073,-0.1694361643,-0.4275780893,1.0185798367,-0.3299557536,-0.3230558266,-0.200519769,-0.2281700492,0.0942666603,-0.4445892871,-0.9505664848,19.3889040851,-0.4528351723,0.0476810487,-0.2504798928,-0.5940361074,-0.896251009,-0.0533474615,-0.391075829,-0.3023714762,0.0912888987,0.0270850169,1.3391233071,0.0946911907,1.0389236381,-0.7911825049,0.1496339596,-0.4386375725,-0.3509106372,-0.0433694059,-0.2682254698,-0.4524441305,-0.8429883293,-0.2431057258,-0.3480678537,-0.2635874818,-0.4061535113,0.0135503485,-0.2884342501,0.0578605796,-0.3175585381,0.226307021,0.4151658433,0.8478705415,-0.3991062926,0.3491199831,-0.2388961409,0.1058981403,-0.3774288202,-0.4542574683,-0.4249041912,-0.0830931412,-0.1189016581,0.0625088716,0.0592391835,-0.4466095025,-0.475457146,-0.4778472478,-0.1220934611,-0.224621675,0.0191992568,-0.5011638543,-0.2402845144,0.1406688183,-0.2743745595,0.4152791282,0.4933288915,0.5403845679,-21.3668661036,0.4736158671,0.1756352276,0.3561100465,0.0298395876,-0.3987418149,0.2464651137,-0.3237355654,0.0370158906,0.2272147904,0.023616826,0.0054466665,0.4366461596,-0.2811804407,-0.2029100552,-0.3481081846,-0.2260507816,0.1050970204,-0.0076590702,0.0910986011,0.5580114338,0.3781562106,0.6587100808,0.5223585248,0.5831130976,0.4996158661,0.691215025,0.1052226476,0.4857643837,0.3520117482,0.4491682202,0.3828533809,0.4036374205,0.3693253653,0.4392483749,0.5702703499,0.5458503185,0.4689348601,0.385583522,0.1870785708,0.2879741581,0.05779698,-0.1599675266,0.7256496165,0.0183663142,0.3087597704,-0.1477615851,-0.3357973697,-0.2303233559,-0.1454152696,0.1393915645,-0.3712683973,-0.111367704,0.3339306467,0.3254490172,0.1384282054,-0.1297821435,-0.020226376,6.6789955943,6.4794248103,0.0731977954,0.0341622023,0.0837584457,0.5486440758,-0.493581581,-0.0044269115,0.5504647277,0.670934335,0.3038024956,0.4134210264,-0.02788252,0.385442226,0.3706413309,0.3072029287,-0.1609066239,-0.0697804521,0.3687402452,-0.0420056329,-0.5798798009,-0.6167666189,-1.0686507198,0.1111090212,0.015709883,0.6708997533,-0.2150611457,-0.2557259481,-0.0691834041,-0.0111626739,-0.3104123912,-0.078042265,0.0423955089,0.0114115717,-0.0699867213,0.9615258369,0.1242263016,0.0899706936,0.0684218376,0.0366965523,0.5014966556,0.0340714579,0.2522299226,0.4188013679,0.7994595015,-0.3783214563,0.9407836189,-0.1621787751,0.0271535038,-0.4621637921,-0.0610929551,0.1203575994,-0.093829699,0.5106214557,0.0425453788,0.1204795074,-0.2848520689,-0.1702915528,0.3188134729,-0.308522513,-0.6563325248,-0.2322390279,-0.0103222288,0.1356757932,-0.1460611003,-0.963933171,-2.0144453325,-0.2608574874,0.3391862778,0.6002661353,-0.0626756443,-0.2378060236,-3.2184980072,-0.5074009751,-6.4598089765,-1.0692595069,0.2116871187,0.1960300119,0.1848680187,-717.2397291597,0.2391867696,-0.1477613673,0.3373416676,0.2380130366,0.3509767288,-32.1909851782,0.2126008067,-0.1682477829,-3.3352181908,7.9803311037,0.218643545,0.1483779848,-33.5756941586,-0.296797247,0.6330952542,-0.2721911912,0.601837264,-494.7723969559,7.9322774527,0.5465080315,-185.69461069,3.8664342612,0.4271037805,-4.3558468151,0.2944111466,0.5471927235,0.1552514934,-0.363594205,5.8198638522,-0.0691463762,-0.3821337242,-10.5577545974,-20.5624318023,-11.5296517411,-0.5257175831,-6.3528152741,0.2978389883,-0.3079710857,0.2997579107,0.1258241291,-0.1244553528,-0.035166968,-2.368799218,-0.1048001714,0.4381139657,-0.1754248884,-0.1493567448,0.3554949014,0.2444027252,0.134182021,0.4453372312,0.1960981161,0.1358682443,-3.4185420495,0.1246263191,0.1319952399,-0.2664575437,-0.3133824908,-1.5824153694,0.3683840156,-7.5140565789,-0.7431033417,1.2398992505,0.185911149,0.2336531383,-2.2406577859,-0.7275619396,0.38062632,0.0521266532,0.3082484077,0.6156511924,0.1715682037,0.2942342009,-0.1508652923,-1.0912454604,-0.3992068257,-1.207700079,0.143821572,0.014572738,-27.660640174,0.6101280561,-0.281405463,-48.7434017831,-0.3445171114,-430.662100654,-5.0730954442,-2.7338950656,-1.0255497267,0.681705592,0.4286543228,-2.5471765611,-3.4573355615,-3.7190323171,-0.3188278461,-0.1966800922,-0.5050873195,-0.3770918131,-8.0859329966,-0.234092913,-3.5976658233,-2.0197678699,-0.3918505389,0.1420828815,0.0275081753,-0.109098894,-0.0997006654,0.0569134432,-0.3695554674,-2.3243967366,0.1137894521,-0.2400990879,-0.0882341531,0.1175714884,-2.4027181595,0.1959852449,-1.28867641,-2.7929514085,-1.6619348017,0.3047224709,0.6309988651,-0.3805800246,-0.0066998492,-11.1143459897,0.4062486209,-6.2090800838,-0.0041384713,0.1024408353,-0.2596499236,0.4990439106,0.8963258729,0.5144901419,-0.0563561319,0.045543711,-0.6996799707,0.0300811471,-0.1114523122,0.1205153239,-4.9055537314,-1.3878619945,0.2435507061,-0.0756227275,0.2694633693,-0.0894779344,0.1389499349,0.0008130141,-0.1044883251,-0.0759718242,0.0469023367,-0.1932661064,-0.3173968794,0.2985460078,-0.3656209344,0.5376363323,0.3393226838,0.5519173279,0.3627735276,-5.9988826734,0.1772329072,-6.2293015324,-0.076645808,0.5062486379,-0.3417414796,-0.6973226646,-0.0280306081,-0.2101714064,-0.275538872,-0.2365153727,-0.0514390745,-0.3461429605,-0.1543166064,-0.6517190994,-0.4854133273,-0.1769541092,-0.4444060009,-0.5815902095,-0.0172711026,0.5222237651,-0.4429868784,0.1772632081,0.5874819239,0.524162083,-2345.652361542,0.5482962756,0.5150061757,0.172384928,-1.4491909291,-0.0171612718,-1.7074975336,-0.2227865191,0.0408840545,0.6404683956,0.2238756616,-0.5224002868,-0.3612190943,-245.3721630621,-245.8578559032,-245.6531046343,-245.5471730592,-245.4392174949,-245.4985386695,0.1077949415,0.2171014278,0.6413721894,0.3391463632,0.4644053411,0.136858572,0.1880143678,0.4374142038,0.0223031524,0.2830061075,0.0726298619,0.0945692656,0.5500031842,0.6970479245,0.6318827501,0.2190096749,0.1852240237,0.6990634462,0.0908934629,0.0434487206,0.6427086955,-0.4234589608,0.2323088755,-0.1731984404,-0.6743300575,-0.4814615102,0.3976476544,-0.1495723247,-0.0308778664,-0.0764754925,-0.3450639049,0.2111072655,-0.0040868482,-0.4157188885,-0.1634081726,-0.5708510353,0.0541553091,-23.547636779,-23.384016872,-1287.0603602599,-1286.7986741578,-1.3281530028,-1.3084918893,-2.7848494245,-2.8148680461,-0.5977058454,-0.1986385138,0.3710086745,0.445782115,0.0542693457,0.426820033,-0.4203906658,-0.4511159762,-0.0444210184,-0.4588376643,-0.3938961842,-0.2494717539,-0.4720536033,0.071343686,-0.1412803878,-2.265677572,-2.3725781014,0.1933708559,-2.0829109098,-4.6247988464,-0.0859693239,-0.1536121609,0.0021865051,-0.1398150026,-0.0931524316,0.3289203622,0.2510455289,-0.2475416299,0.0567744275,-0.402157822,0.1271847161,0.1217711567,-0.054324626,0.0969799685,-0.3920382185,-0.2629334223,0.3274096425,0.2748825112,-6.2587751771,0.1476741346,-5.9679692303,-0.0332345169,0.2895796377,-0.0844949637,0.2176874385,-0.0484006356,-0.0573864996,0.2400186673,0.1621492849,-0.1397486335,0.4412704909,0.4313928186,0.4242418954,-0.0937394457,-0.430599893,0.0347099365,-3836.9861001551,-0.1073341294,-0.4220606477,-0.7739672358,2180.640197587,0.5595328762,0.004765096,0.1043433463,0.3549974273,0.5299453499,7.8049952579,0.834800241,13.539946455,1.8473748154,0.5771066808,0.6046460664,0.4110593027,717.5659165797,0.0594286225,0.8285667152,0.1260850163,1.0739367724,0.3042194154,32.350953402,0.3002119776,23.9893104463,2.2390208994,0.0604749894,0.5219023971,0.6736772244,2.1547009569,21.7641363589,0.0008577113,1.3347504201,0.2436337744,2368.9873343426,0.7719788334,0.5793668452,1.4349158547,0.3591922647,0.3169316322,0.9360956488,0.5011855861,0.46097675,0.7051920613,0.6471883022,0.0159584469,-0.028298475,0.188255251,10.9199950864,20.8278919667,11.6563854255,0.7966773304,6.9005129227,0.5384042831,0.7766790304,0.0906067666,0.2506170692,0.5994136078,0.1466230541,2.2331227297,0.1941995126,0.0830323954,0.2734162914,0.6209413049,0.4799857645,0.6456081477,0.5927498554,0.6916624417,-0.0222142088,0.4407646345,2.9428150192,0.1571234682,0.5342289577,-0.062224361,0.0373669569,1.5998609101,0.5335574835,8.005219846,1.425904491,5.4341366369,0.2008170307,0.1026816932,3.9201592597,0.7550860878,0.1327337576,0.1201631317,0.6127165129,0.1988709216,1.2691612724,0.4013639713,0.4652794006,0.4076687348,0.5724028112,1.7507977486,-0.0284815134,0.2220664649,28.3462524073,0.0746192749,0.0939081912,51.1504758739,0.7140692871,2.8238183538,10.0617666882,3.3969482167,1.2305112801,0.4721314621,0.2470628324,0.3454350552,0.1174191666,6.4586441322,11.1484503458,0.5619764437,0.441175025,1.3062425911,0.6225906322,0.2750206374,0.5163395134,3.0723838375,0.3750408897,0.4262479424,0.3682386851,0.3930576897,-0.0656346282,-0.0426350158,13.3249077089,3.4135851776,1.6542566546,0.4128628654,0.4297073095,0.3841653799,2.4355543695,0.2480132901,0.5989758726,1.5306314132,2.2465081735,0.5569883049,0.3225804478,0.7198058994,0.8214714284,3.4538265955,0.4801475368,5.7879855363,0.5116838354,0.2444708548,0.042147365,0.4135349126,0.4289697935,0.1668610766,0.6494101132,0.4729585614,0.7529303274,0.4480754052,135.0533840398,1.671040857,27.4153323995,1.7526424282,0.0171026176,0.2001958174,0.4122760631,0.5703179895,0.4126450048,0.5512644203,7.0876967728,0.2822157236,0.1482732149,0.2739077676,0.4827739478,0.6792706264,0.0304083975,0.0340793552,0.4149284928,0.4775781624,0.5633196777,6.0937914081,0.2689016046,6.5751566226,0.3419008249,0.5695577391,1.2003315382,0.9471847034,1.2017028794,1.0041907447,0.808127888,0.993429857,0.9469585312,0.8182006567,0.9647808281,1.1518063703,0.7384354755,0.5357876599,0.8771131281,1.1984636874,1.0470711289,0.0161983285,0.6356187882,0.7011084199,0.0561336882,0.6820650326,2345.6654095882,0.0623754799,0.3889463417,0.5847876428,1.6974297782,0.1010276592,1.6067252311,0.319231494,0.6199271256,0.6761197183,0.151016381,1.1639587523,1.4260669116,2.477073146,2.0609394229,2.1836730115,2.66399579,2.5928800631,2.288782668,0.3979445112,0.6933994868,0.4031878078,0.2254673154,0.4379130064,0.0060228426,0.3988472265,0.08912531,0.1974966935,0.6598448464,0.6096927355,0.2494809136,0.0691649055,0.6761193148,0.6956293927,0.3653319486,0.6072256637,0.0052691962,0.1809592169,0.4421578193,0.1034441921,1.355889075,0.6115235158,0.2486918295,16.5219678786,6.941278371,0.2171073654,0.5096399264,0.0768050458,0.6155111533,0.4607781638,0.1228018924,0.358010499,0.6592748286,1.3762373233,2.1670158041,17.1010114448,1.0244417423,1.5526845708,1287.1793785875,1287.5700375634,1.2314775368,1.3098090804,100.5590366342,100.8269048929,1.0380116234,0.5691057141,0.6510130187,0.3710281234,0.2681345975,0.4587001329,0.942694334,1.3252648784,0.904226576,1.4968743049,1.3670435019,1.5018539557,1.5439213924,1.0590883606,6.7373636338,59.2855342731,59.6205556643,0.1687177793,2.0807197876,4.8204388124,0.4298876994,0.0523340639,0.039692525,0.6222186963,0.8422456689,0.2693323958,0.0017371004,0.2305606792,1.090842505,29.9981783736,-0.0446302945,1.293028076,1.406256573,1.1639832324,0.8813225486,0.8480858743,0.5747317797,0.4061154653,6.2438169952,0.2884268402,6.5638292796,0.3405849576,0.3608176519,0.3844472918,0.0341708037,0.1105208975,0.1984336996,0.6667807618,0.4286264879,0.2280892707,0.0181310425,0.2130641921,0.2760071664,0.4402468177,0.6763432314,1.2060026806,8.3875228368,0.1576151879,0.3987289483,0.2360887054,0.1530408888,0.3911686541,0.4428884313,0.6271594783,1.1931501531,-1.5250243502,-0.0865370029,0.0787176575,-0.1535221237,-0.0271101536,-3.6207657307,0.3207355313,0.2998141622,0.8581333184,0.0090003392,0.2476175981,0.3316277447,0.4194808183,13.3599395698,0.3664101009,0.0874796508,-0.1646733605,0.3248876664,-2.6374305485,0.3783349883,1.4717296078,-3.7035872193,-0.4353711698,0.6115001902,-2.1005558532,0.3388991564,-0.2036444744,-2.6736611393,0.2806024675,3.252101799,-1.8183583318,0.6018309773,-10.4626207617,0.4823987509,0.1978059756,0.0237873754,-0.2515029889,-3.0737985898,-0.163523078,0.0725329394,0.3835037269,-0.0906975887,0.1863688622,-0.0878315753,-0.1161931135,0.1253403408,0.2135441746,-0.3396701051,-0.1669351978,-0.0584464926,1.3537997208,0.8681729528,-0.6418614981,0.3474383278,-0.375064368,-0.1876755995,0.0378093806,0.1994374375,0.3642105285,0.0507120299,-0.1469832229,-0.2171865864,1.2010987368,-0.2082956819,-0.8447837636,0.3634917632,1.9399541186,-0.0489434457,0.2691886052,-0.1132214486,0.9421078331,0.5780978788,0.5998634979,0.1256759155,4.4050436079,-0.6940381998,0.3858300894,0.4997363646,0.2238951648,0.3395363875,6.1615087402,-0.5710363127,0.3357421109,0.1361582034,0.2652096768,0.1869511856,8.1352133397,20.8482860232,-0.9157592457,12.509044296,-0.2581717123,-0.0210211586,-0.0554861723,0.6377290446,1.6510239408,-0.5830213981,-14.1278622421,0.501923927,0.1264850465,-4.8454895736,-4.5657464512,-3.1717862933,0.1559784433,4.6816577929,0.4043316891,0.3448700583,-3.0639965589,-2.0005108591,2.6064556944,0.4244463823,0.2903663346,2.1843497398,0.3458286566,-4.817348755,0.0814108492,-2.1921672359,0.0372407098,0.2871403309,-5.8971222603,1.0017162437,0.1081022688,-0.0308692095,-0.1191951585,-0.1972992816,-3.9842849723,1.607524358,9.3538000633,-1.3371608903,16.6550700585,-6.0715340328,3.0267451876,0.34597486,6.8061190768,8.743590749,0.3097763456,0.8152421221,-0.7111430753,0.3549001387,0.4532571752,-4.185123912,0.1211434999,0.2443102973,-0.0605649335,0.2589148182,0.3327874653,1.6942630874,0.0258328816,0.4604486469,-0.2869652517,-0.2496746195,-0.1031851654,-0.279746638,1.1179824952,0.3707349344,-2.4680311008,-2.4723368734,-2.6589271522,0.1637239009,-0.2361758588,0.5865869659,-2.4226814233,0.3634190344,0.2981840648,0.2877091647,0.3799485023,0.2161250989,-0.4371661112,0.1344212399,0.2285713905,0.6302365379,0.074400993,-0.1024203663,-0.0664523008,0.226268247,-0.0102493152,-0.2748855499,-0.1658971069,-0.0592440975,-0.2868425909,0.166306634,-0.2647700222,-0.1198135828,0.0955798383,-0.3175659882,-0.1616948611,0.1556847456,0.1847693027,0.3312252945,0.0156150696,0.2049944064,-0.2133247648,0.1278227324,0.487983422,0.229433234,0.0861718959,-0.1059510836,0.0050670562,0.0687509251,0.164667143,0.3564616188,0.6641854047,-0.1082297631,0.2787649435,-0.2206732731,-0.0017643401,-0.1666133468,-0.2047850546,-0.2392826192,0.0494161613,0.4320361262,0.6627074754,0.5907219691,0.5745017757,0.3577249456,0.3671737233,0.1462314615,0.4442092909,0.4990219958,0.2674496628,0.0331483427,0.7102448581,0.6749402495,0.6693348465,0.2882604392,0.1278081726,0.1267020074,0.0576199533,0.5645064918,0.5291938004,0.6482964742,0.1397992716,0.5301744306,-2.5982556953,-0.9791850965,0.2149591632,0.0709450586,-0.249938479,-0.3278033727,-0.5727235912,-0.1870955563,-0.5042779975,0.1387564767,-0.1216640796,0.1238253085,0.5311559655,0.1630191496,0.1272185291,-0.1996362396,0.3156155286,-0.1480909317,-0.173046417,0.0793498435,0.115328249,0.0641424204,-0.2549130077,0.2013535914,0.5172485674,0.2683169567,0.5173168593,0.0948036664,0.2557984482,0.3228330544,0.005009176,-0.0672423851,-0.1556546713,0.4163190811,0.1020176193,-0.0385743321,-2.4070425352,-0.1165267096,-0.1158639491,0.035544253,0.0259927751,0.358529594,-0.2088094812,0.2284542815,-0.0171270665,-67.7018091695,-0.2858763876,-0.151678261,0.6408350458,1.4256104199,0.1575118421,0.056502332,-0.1809025928,-0.0461125257,0.3713308283,0.3028287623,-0.1872632097,-0.1710596509,0.7071040411,0.2907056469,-0.0132650308,-0.4134225346,-0.1679234234,-0.4398602836,-0.1595637187,0.1941462851,0.0392486891,-0.3330503254,-0.1533216355,0.3337888219,0.3545156952,-0.6169267747,-0.2473956059,-0.3882871324,0.3348394734,0.3316179079,-0.0743877285,-0.0638358418,0.1320274027,-0.3984671742,-0.5016264462,-0.2594835209,2180.7166197862,0.6094381438,0.0242169989,0.0341472233,0.3504011469,0.2852052648,8.3166051486,1.1873426185,13.8316852542,1.9283531657,0.5972355838,0.2741583622,0.5135455673,717.7033233282,0.1677505378,0.5114834568,0.3482075635,1.741850028,0.5265047739,32.7472883085,0.3326787414,24.4182481331,2.226884858,0.2748986055,0.3231825366,0.7989099271,1.701209395,21.7358922043,0.5213879819,1.8266294035,0.1098162514,2369.2698504635,0.9245717968,0.6419862656,1.3457025895,0.1790289982,0.533039941,1.0232163847,0.2089342429,0.6558565895,0.1180007358,0.4213248029,0.5123148625,0.1418539099,0.6172142613,10.9275097933,21.0572908033,12.1251682371,1.1511834288,7.4880667681,0.5642786721,0.9194485493,0.3446975879,0.5943894001,0.7326721531,0.3105969847,2.3975711032,0.3206926693,0.1527297162,0.552738024,0.6239433222,0.2862871793,0.6874625008,0.6432151498,0.6836495739,0.3361787038,0.1531180274,3.2479642465,0.093643446,0.1368281421,0.2317131773,0.5202938395,1.7318863227,0.3351953401,8.4456878664,1.1553493029,5.1756357235,0.5574655298,0.3782841088,4.0852740423,0.3618576715,0.1196312336,0.1323797415,0.1251769735,0.4689850715,1.2140957456,0.7627155238,0.2589476082,0.6286048479,0.4757454749,1.4512233213,0.4415421572,0.9046643914,28.3198829997,0.5099423837,0.5086729282,51.4478921675,0.4962474489,2.9549715905,9.9002698221,3.0649540462,1.1463741063,0.3379854021,0.4417928694,0.4148970313,0.6934679699,6.4862600352,11.2658977786,0.7266786097,0.9247071053,1.6921612305,0.6811774513,0.4687815112,0.7473193227,3.2211439782,0.3441284869,0.346254583,0.498731032,0.4310259797,0.4615090432,0.7178702232,13.1547436117,2.9357869432,1.8372439398,0.4645488134,0.5531013095,0.7065670122,2.7465991619,0.4701475605,0.6030722797,1.8428740151,2.36682101,0.2725040658,0.1216128939,0.3765879928,0.7151939953,3.522119329,0.0966006642,6.0165858271,0.7107171259,0.7449410237,0.4381374854,0.517653712,0.1231057663,0.6003481175,0.7000184609,0.129169856,0.2741448637,0.492009837,135.1048388441,1.2528020321,27.6683296093,2.0469888381,0.6677374752,0.3516564741,0.2204297191,0.4823373699,0.5724505093,0.2545746013,7.1621948226,0.5368780411,0.182720161,0.4062863462,0.2449668639,0.6740373246,0.6731292579,0.1138936598,0.5689268669,0.5748722473,0.6502335902,6.8017425634,0.542749998,6.2173948139,0.7457809588,0.4625614243,1.2226104117,0.8879476061,0.9634416769,0.7196104445,1.1306561946,1.1963313312,0.8457474471,0.9598938551,0.9956862925,0.8137533122,0.7829749432,0.9699560397,1.307786042,1.147778187,0.9502901361,0.5066402669,0.3272508652,0.245919582,0.6727386757,0.0786870972,2345.5908468378,0.5750416704,0.0805869125,0.0180796038,2.0859732414,0.3131761039,1.7623618631,0.1765234987,0.3803504328,0.5403211735,0.2865624473,1.2640851381,1.5666494297,2.3155781619,2.8237485229,2.2123723496,2.825861492,2.5505745695,2.7851347578,0.700423272,0.6897342833,0.3853005927,0.6766559211,0.0523811447,0.0975175888,0.7095641218,0.3692285117,0.6024970597,0.4721489507,0.1967202456,0.1165116962,0.5761485129,0.5459679735,0.4566048235,0.6410384217,0.6398818074,0.5400610573,0.2844680224,0.013828252,0.5012331899,1.2567380654,0.670655797,0.7264849469,16.7440041181,7.3822592486,0.2141023431,0.5976277924,0.4785188187,0.2657248531,0.6086061836,0.4298655455,0.3038808683,0.233329417,1.3067065147,2.7325212338,17.2293374487,1.7870496373,1.5026276075,1287.3350704236,1287.4288875605,1.7711905973,1.5577038683,100.4492468777,100.8683247939,0.696426338,0.7481631344,0.0893318631,0.342831309,0.1127523667,0.0934815552,1.1814149473,1.3991303569,1.2241149409,1.4480026512,1.3241027492,1.3336164785,1.6069277223,1.6410323179,7.2315212143,60.0623741203,59.6503767692,0.6554036134,2.3874028184,4.9221022663,0.5171025217,0.4471839565,0.6555697347,0.603267463,0.7660730578,0.4843609164,0.421259647,0.4390392813,1.571516065,30.6873760477,0.4505124718,1.4683961277,0.9697184781,1.4306773006,1.3090707015,1.4780211902,0.5681446031,0.2198271717,6.435735511,0.6896417616,6.7831993303,0.291621267,0.3872505129,0.1510269905,0.0752770808,0.4145570068,0.1052722194,0.3847909299,0.7001761653,0.2700340555,0.2095909869,0.529440711,0.0527810258,0.6827625998,0.8540290843,0.9307356541,8.685838927,0.4172816677,0.3315340616,-0.1103250437,2180.9927885872,0.1709916586,0.2605635336,0.5893803725,0.4646839475,0.3080944124,7.9921914686,1.2037902263,13.8954414307,2.2444048304,0.0493843083,0.3165330984,0.2016224261,717.961257739,0.5078265619,0.4830166008,0.2100957787,1.6589709248,0.501546247,32.981115825,0.2693861306,24.2316788189,1.9473388314,0.3601757533,0.0491929604,1.0956554023,1.8691428003,21.6335693832,0.4055900266,1.5603991244,0.0396200313,2369.2252472039,1.0005398519,0.2199633217,1.6659476512,0.5187382501,0.5095877516,0.9488771435,0.0858850629,0.3696199739,0.2041119677,0.4493887792,0.5938136846,0.3884249214,0.2644733688,11.4464688576,20.7816352807,11.6988522467,0.9101537985,7.240017067,0.8044724787,0.5396643513,0.1456732252,0.4517942974,0.0922466827,0.1378425995,2.3637444021,0.2758847579,0.0814446877,0.7003742925,0.1403810857,0.5935483581,0.4427498468,0.6681147258,0.4062512013,0.1536205485,0.4174420716,3.2742656003,0.563692585,0.4676749387,0.6652462042,0.1485594559,1.656318384,0.4643339618,8.2585841114,1.638600733,5.7276430641,0.2291541824,0.1523116246,3.6653661101,0.3672253766,0.6638785093,0.1354369495,0.0688628798,0.609846356,1.5829489878,0.6862039384,0.2236932005,0.9291133767,0.6892586371,1.6345219008,0.6461462869,0.5660978138,28.8731159212,0.0673692332,0.1176862983,51.5788617827,0.6707760266,2.6929377915,9.7578433575,3.5687494726,1.1895159142,0.0776415106,0.355990157,0.5430292273,0.8742893138,6.2526512128,11.2938440713,0.7548445336,0.6697291808,1.4172141457,0.9446831643,0.7029387566,0.4817516891,2.8976211628,0.8657696541,0.1972806299,0.1401337375,0.5524914428,0.5689239579,0.4802353173,13.4295003288,3.3503392783,1.8958851066,0.807853755,0.7013539706,0.2157593415,2.0881682481,0.677146487,0.3854098543,1.5610234504,2.4039647572,0.0966737538,0.3573123954,0.8869928861,0.6951539981,2.9140788009,0.3350902826,6.3829977263,0.5948471469,0.5966400109,0.3794361026,0.5364208195,0.1493004255,0.3129572785,0.6819218099,0.5734634791,0.7926907864,0.7097121306,135.0629020467,1.475486397,28.0079381109,1.8896838508,0.6119722246,0.4703593536,0.6444878882,0.4772747382,0.0930445241,0.4400359437,6.9024926758,0.3149734945,0.2591159141,0.0431299874,0.3907844666,0.3061967023,0.1798618467,0.4591301922,0.4305167607,0.5524828059,0.6508098106,6.3585451886,0.2509426371,6.733349771,0.6239264315,0.0898334848,1.1989590133,1.1605863573,1.09245286,0.704826646,0.9162367846,1.0381688441,1.3582927335,0.6973436955,0.7425176534,0.7607718474,0.9852431443,0.8373717831,0.9721738329,1.1376768221,1.1953314961,0.394996195,0.4163950631,0.6342337286,0.7019354087,0.301179716,2345.5720904778,0.2168246044,0.4048700187,0.1036871812,2.2586850123,0.6368294402,1.8554367128,0.4452733556,0.0970863955,0.6098158071,0.2698448487,1.0486932073,1.5299972191,2.3039481568,2.5122371256,2.5090034163,2.5261583566,2.7892236223,2.3686013854,0.0693970361,0.6142304753,0.355296415,0.183023851,0.2869749335,0.0677622794,0.6310284866,0.1128377207,0.4044438111,0.6397710918,0.5961641289,0.0423803749,0.5117987493,0.2317756791,0.5774459129,0.4532966541,0.0007911271,0.4592725801,0.0398487927,0.5208312836,0.5959252192,1.0035651105,0.0304213896,0.480529448,16.632573541,6.9776177249,0.5912539733,0.3697030996,0.3381917398,0.7131944022,0.6576142336,0.6972272179,0.42199474,0.1788826173,1.3296626474,2.790586086,16.5289916333,1.8007826895,1.5018771877,1287.5565453524,1287.3229562664,1.6160797248,1.6144453045,100.606764394,100.8140691137,0.5709538039,1.121027956,0.5550965079,0.3066014467,0.1207461619,0.4411034254,1.6408012962,1.5788976538,1.6756486633,1.6071723767,1.6115717126,1.1419822911,1.5756165166,1.0063922827,6.9801005373,59.3901237723,59.3738464618,0.582636959,2.2285989058,5.1749324093,0.3863500321,0.6086109233,0.4900966564,0.7187222177,0.4688584629,0.3713979631,0.2301545434,0.2395003257,1.6688574368,30.1244351675,0.4650827189,1.3233483313,1.3091441403,1.4967832976,1.5344543199,1.4504907704,0.2062775264,0.4662521691,6.1134995036,0.5676895671,6.2963347601,0.7357095543,0.0800256263,0.2080289263,0.4900972627,0.3274932611,0.4130562709,0.4822513545,0.6819419599,0.5813128067,0.6872921871,0.6364494556,0.0320941136,0.7954257369,0.4211791074,1.3129393983,8.6390156811,0.8049297204,0.4051498224,-0.5738037837,2180.6234337675,0.0017671019,0.2994849722,0.4173022782,0.5171084535,0.7456223212,7.5008936097,1.0520736536,13.5800721037,1.9218377194,0.3208393926,0.266435224,0.0328877401,717.4748138372,0.2748417702,0.8981523065,0.314859131,0.9543572188,0.4950559841,32.8885868672,0.1640763819,24.011359924,1.8537485637,-0.0031450515,0.0713592058,0.6855919273,2.2114029974,21.4239555618,0.0190861831,1.5808879753,0.0494533961,2368.9201030214,0.956675475,0.3996039243,1.6464635865,0.2681892329,0.5631099263,1.3765878593,0.5366009724,0.3995602386,0.6304397645,0.1992791775,0.568749856,0.328697233,0.0947485067,10.9088407594,20.5539077521,11.5905493633,1.1885680284,6.8918561295,0.2837537119,0.2784636234,0.1093317261,0.1793877687,0.5859548419,0.2978775823,2.1073650437,0.2194713982,0.6097392658,0.1479364932,0.2348665206,0.060251899,0.434550539,0.4751499893,0.4955777164,0.2093704491,0.6434159747,2.9931914065,0.6320979653,0.574559484,0.5389146764,0.2354408386,1.7771768654,0.4749863769,8.0585376681,1.3793549457,5.3264991367,0.0642774163,0.6283414665,3.3704371453,0.6088107131,0.2779674306,0.5838688996,0.4060745201,0.3716279693,1.5464000828,-0.0349235226,0.0888225043,0.2679550622,0.2690049605,1.5903929007,-0.0104489286,0.5130659387,28.6168789757,-0.0242800817,0.406045107,51.1566495616,0.7422079996,2.5348720714,9.7643650301,3.2433326251,0.8463934966,0.5315058082,0.0549893963,0.0946765036,0.2577628399,6.3785946353,11.1955219184,0.4933760325,0.5675473128,1.567624943,0.6295960416,0.2983005692,0.4408420851,2.8895042654,0.1013897024,0.1825626886,0.0913351293,0.4536549334,0.3893836711,0.5560574535,13.3114565289,3.455590069,1.8076652269,0.3858026077,0.6476047024,0.2734602917,2.0276669986,0.6091265265,0.2613072693,1.699985371,2.5280855386,-0.0020022569,0.2206583801,0.394697382,0.7270940926,2.8051815301,0.3771914869,6.1072532823,0.2302316511,0.1837899144,0.4036707735,0.1872080983,-0.1076501911,0.1534145895,0.5169647173,0.3528391066,0.4955792776,0.3190576031,135.163957272,1.1775451355,27.4038413843,1.6526956601,0.4433414056,0.2156398565,0.0535125196,0.5763810231,0.4958205192,0.5205337964,6.80108368,0.4372595269,0.546285635,0.5359781209,0.5090574242,0.1431830582,0.065823005,0.0308694359,0.1650345569,0.394251251,0.0842473939,6.2482466645,0.1395316232,6.571291367,0.6194364326,0.3518967221,0.5330564747,0.8613104638,0.95781719,0.7488367223,1.1516205789,0.6129874641,0.7244456062,1.1379310483,1.0922974323,1.1644109991,0.9900867089,1.2390725305,0.9305238798,0.5526806494,1.1988520752,0.3746174609,0.5844456519,0.4043609333,0.5186266911,0.4111764336,2345.4249648362,0.619301834,0.5407916864,0.2644334003,2.044744034,0.4554315136
