encog,BasicNetwork,java,3.1.0,1,1393642907359
[BASIC]
[BASIC:PARAMS]
[BASIC:NETWORK]
beginTraining=0
connectionLimit=0
contextTargetOffset=0,0,0
contextTargetSize=0,0,0
endTraining=2
hasContext=f
inputCount=318
layerCounts=1,241,319
layerFeedCounts=1,240,318
layerContextCount=0,0,0
layerIndex=0,1,242
output=0.9995146587,0.9999997635,1,1,1,0.9999588359,1,1,0.505069672,0,1,0.9914356259,1,0.9801719791,0.67998252,1,0.0017177005,0,0.0083133009,0,1,0,0.0000000002,1,0,0.0009529339,0.9999999731,1,0.3370250706,1,1,1,1,0.2432339005,1,0,1,1,1,0.1119756223,0.1556874818,1,0.0492786508,1,0.4568506888,0,0.9999531133,0,0.9434227032,0.087689252,0.0010535967,0,0.9900590227,1,0,0.0000026584,0,0,0.0729641797,0.9999999606,0.2065789436,1,0,1,0.000036825,1,0.9991378036,0.9999899153,0,0.9999768097,0.9998988147,0.0027872417,0.0001978256,0.9385144123,0.0018313712,1,1,0,1,0.9541686982,0,0,0.9999999972,0.0000660968,1,0.4790020819,1,1,0,0,0.3225794123,1,0.9965775213,1,1,0.0511589734,1,1,0,0.4617760907,1,1,0,0.0026774028,0.8924685879,1,0.0002761977,0.2339695001,0.9975409004,0,0.9999984462,0.938842195,0,1,0,0.9987893079,1,1,1,1,0.999529137,0,0.2776789887,1,1,0.7929854574,0.016998288,0,1,0,1,1,1,0.1433414512,0.999999095,0.0013201908,0.9999999997,1,0.9314158021,0.999820626,0,0,1,0,1,1,0.0381533274,0.2784051051,1,0.4216400463,1,0.0000130198,0.0830678929,1,0.9977631852,1,0,0.0456616286,1,1,0.9999890532,1,0.9984789017,1,1,1,0.0243258766,0.9608810365,0.6405240926,0.9974773531,1,0.0475588159,1,0,1,0.9999998952,1,1,1,1,1,0.0000000146,1,0,0.9999868943,1,1,0.9936268943,1,0.1210832959,1,0.0002705863,0,0,0.0211544095,0.2028919539,0.0001152906,0.9876462106,1,0.0000000038,0.9989997566,0,0.0004238523,0.0000000131,0.0009647147,0.0000003194,0,0.9999470815,0.1404658805,0.2545407622,0.9892870126,1,0.0004109809,0.9974448917,0.00023031,0.9998554072,0.1653287485,0,1,0,1,0.6025675655,1,1,0.0646880726,0.9457928775,0.0158492636,1,1,0.00462672,0.999890588,1,0.9879055431,1,1,0.0090460181,0.0023339109,1,0.9997838224,1,0.4648904209,1,0.01,0.01,0,0,0.1970933683,0.01,0.01,0.99,0.99,0.99,0.01,0,0.9455855098,0.9454668413,0.01,0.945577144,0.01,0.9454668413,0.0990577384,0.8963968762,0.8451964127,0.912672588,0.01,0.01,0,0.01,0.01,0.01,0,0.99,0,0.01,0.01,0,0.01,0.01,0,0.01,0,0,0,0.01,0.01,0.3950081342,0.99,0.99,0.99,0.99,0.99,0.99,0.01,0.01,0.01,0.01,0.01,0.01,0.01,0.01,0,0.01,0.3992474098,0,0,0,0,0.255,0.5114171624,0.01,0.99,0.01,0.5617731839,0.01,0.99,0.01,0.01,0.224375,0.01,0,0,0.01,0.01,0,0,0,0.01,0.01,0.01,0.2476773323,0.3193300508,0.4988298692,0.43,0.01,0.01,0.01,0.058568273,0.0371063822,0.01,0.01,0.0853846154,0.01,0.01,0.01,0,0,0.01,0.01,0.0275995264,0.0101784414,0.01,0.0120631579,0.01,0.01,0.01,0.01,0.1052859329,0.5,0.0538068905,0,0.01,0.01,0.01,0.01,0.9456952826,0.01,0.01,0.99,0.4374583985,0.01,0.01,0.1678257398,0.01,0.01,0.1678257398,0.01,0.01,0.01,0.01,0.01,0.01,0.01,0.01,0.01,0.3455809608,0.01,0.01,0.01,0.2218825353,0.0704264696,0.6298064214,0.2673230336,0.0124782499,0.4066145915,0.169997797,0.01,0.0201140019,0.4285489656,0.01,0.01,0.0104299866,0.01,0.01,0.01,0.99,0.99,0,0.01,0,0.99,0,0,0.99,0.01,0.99,0.01,0,0.01,0.01,0.01,0.01,0.01,0.01,0.01,0.01,0.01,0.01,0.01,0.01,0.01,0.01,0.01,0,0.99,0,0,0,0.99,0,0,0,0.99,0.99,0.99,0.99,0,0,0,0.01,0.01,0.01,0.01,0.01,0.01,0.01,0.01,0,0,0,0,0,0,0,0,0,0,0,0,0,0,0,0,0,0,0,0,0,0.01,0,0.01,0.01,0.01,0,0.01,0.01,0.01,0.01,0.01,0.01,0.99,0.01,0.01,0.99,0.01,0.01,0.99,0.99,0.01,0.01,0.99,0.99,0.01,0.01,0,0,0,0,0.01,0.01,0.01,0.01,0.01,0.01,0.01,0.01,0.01,0.99,0.99,0,0.99,0.99,0.99,0.99,0.01,0.01,0.99,0.01,0,0.01,0.01,0.01,0.01,0.01,0.01,0.01,0.01,0.01,0,0,0.99,0.01,0.99,0.01,0.01,0.01,0.01,0.01,0.01,0,0.99,0.01,0.01,0.01,0,0.99,0.99,0.01,0.99,0.01,0.01,1
outputCount=1
weightIndex=0,241,76801
weights=##0
##double#76801
   1.237340944,-0.282612659,-0.4153978882,-0.387637763,0.7919255083,-0.2658343069,-0.2914661413,0.80764393,-0.5343356354,-0.2609135414,0.3497854597,-0.3504124252,0.5325686425,1.0581178082,-0.3630054575,0.9489072078,-0.1181918736,0.6842064491,2866.5186846069,-0.3327319727,7278.7800255341,-1.1547522612,-0.2765465462,-2.0583373958,1.4186024352,1.2366312851,-0.4219443707,-3.8878106142,-0.268347326,-0.3585760723,-0.3791292357,-0.319154755,1.7021861776,-1.9934296549,47.5273317321,-0.4062227006,-0.366502267,-0.3496872947,-2.4258970458,-3.2034793655,-0.3350673423,-29.7489516268,-0.3736936842,-2.9943176914,0.9799928479,0.76950943,0.2305797443,0.5850281935,0.9825256847,0.6288842891,9460.7736930229,-3.2409597277,-0.3219847834,2225.3494151649,3.4655650478,157.5818276073,2.6056013408,1.1862628983,0.7860662784,0.7637354188,-0.4186488082,2450.1333422883,-0.2099069247,-1.9115119484,-0.3836634682,0.9772007433,0.2660835051,0.1287639549,1.0177162044,0.6437054628,-3.6871369335,-2.2546164578,1.462655948,0.5445189596,-0.4116457428,-0.4068549223,-0.631215087,-0.2224376878,1.4036396805,0.9062861404,85.259049803,0.6680136478,-2.1382871652,-0.3987632469,0.9654867041,-0.2831101376,-0.3251894631,4388.6718125289,7668.9470601264,0.8168019989,-0.2149383245,0.3677769522,-0.3278012355,-0.3102718225,-3.3247052552,-0.2914995805,-0.3418422348,0.1138500605,0.8802131109,-0.3419364104,-0.210963971,2492.8246288286,0.9918788225,0.6233578626,-0.3187641058,2.4876354442,0.3063901679,0.6670618507,2.0997570566,0.8955927836,1.0890299985,0.3094156752,-0.3417558134,-4.2784065494,1.2078696043,-0.2125675321,-0.3394995726,-0.3919322001,-0.4098080403,0.6024467782,2.8993509172,0.9223240049,-0.2515777611,-0.3379886738,1.1536028434,0.6807615088,-1.1749177226,-0.4262487073,-0.1130241078,-0.2795283603,-0.3477080841,-0.3489017671,1.2465916654,1.2741040327,-3.6719385492,0.6781509019,-0.2117750395,0.9012775846,0.8285578071,6520.3030587855,5749.4460933095,-0.4238118767,4.7109123645,-0.2216324676,-0.3673460345,-7.9850328479,2.7838292208,-0.2784305499,3.1756916448,-0.3567141937,0.8953802325,0.2435636739,-0.2743035644,1.3438900928,-0.4112324528,2.2825953779,0.9993371658,-0.3331966954,-0.2709244658,0.8379056293,-0.2266679604,1.2849982963,-0.2380056761,-0.2215201532,-0.3131332612,1.4233900151,2.2477410231,0.375777433,0.5970550385,-0.2875719135,1.0607781127,-1.265800871,1.2197685487,-0.3887818666,1.0421934048,-0.38172169,-0.2466916782,-0.2994847469,-0.3097275946,0.659819032,-1.9444794799,-0.2855512463,9824.2881051964,0.6827247239,-0.2759724623,-0.3990958654,1.4236506461,-0.3176460468,1.3251510374,-0.2115372829,3.1153390555,-0.4286309299,0.1989250931,0.1468285086,-6.9569660668,-2.3816660796,0.9945617158,-0.4062899648,-1.6907131998,1.5861989633,1.7473241167,2.5944660535,1.8130732293,0.3622293611,-1.2591773537,1.4353353087,1.428721973,0.4580587562,-8.039765634,0.9002960804,-0.4230828804,3.2645979406,0.4718268558,-2.0008632494,1.2670078754,1.6190278695,2184.3095916388,-0.2781941105,10414.4230350629,-0.2496908166,1.0056617702,1.144760808,-0.4113542558,0.5864557982,0.6260932292,0.9638739352,-0.277031736,-0.3671925012,0.3164577013,0.9473049216,-0.4055383904,0.3590054795,-0.3080274421,-0.4085497879,-1.9476081273,2.6120031971,-0.267257817,1.2220827738,-0.2177665448,0.6545107848,-0.0037596823,0.10514341,2.0841714705,0.1445396502,0.1556472764,1.1110792889,-0.9247411099,1.3373904976,0.345251981,0.9389978378,2.0063026018,-3.129125639,0.1441244805,0.2305057523,0.0201546828,-0.1992096009,0.4886617425,0.9366947538,0.0676876537,0.4105801362,-0.0657839354,-0.8711290482,-0.2732378885,-1.3476602955,1.1545390262,0.5541866199,-2.0283646506,4.6185120323,0.3438966085,0.5114978722,-2.9469735935,0.3485192515,0.1675668031,-5.071074469,0.3176975552,-6.4357752875,-11.9148435178,0.5069796758,-0.967049323,0.4505981871,0.6423891989,0.180481273,-5.3399617876,-0.4531837956,0.0741837802,-0.0029830124,-0.6312606369,0.1967266263,-0.3287093256,0.1325065813,0.3147105223,0.055176262,-0.6157399986,-0.0146537968,0.0410484089,-1.0063000333,2.1054459214,0.2310628247,0.1923020224,0.1286920214,4.312915929,0.1768578597,0.4525850863,0.0199228322,0.6287249686,0.6810562226,-3.1092136911,0.3725762357,2.1653084999,-0.0411814277,-5.4201583265,0.1945485392,5.241621887,0.0663086881,0.1136286777,-1.936471434,0.1232493753,-1.7399938122,0.2693584023,0.5314823126,1.5417890959,0.9143826232,0.0920908038,0.4692072801,0.0044333741,-6.8124250095,-6.0836468175,0.2773166336,-0.0845882329,-0.1178331112,-0.038557608,-0.3781562055,5.8231625469,-0.3104497804,-2.8102864784,7.8575646985,-3.6300536876,0.160715821,-7.0793581141,33.8551010456,-1.1514393144,-1.9231901353,-1.359201425,0.3801201966,0.6345657264,2.7654215698,-0.9936933064,1.7958458047,-0.0587573483,0.4316460033,0.3278657828,0.2856400425,5.318581791,1.0177483335,-0.9176474711,-0.5986667878,-0.2484895228,-3.2890221009,0.1557917591,-1.1186332477,-0.1401073708,-1.3606577562,-5.0370599585,13.5306995498,-0.520967354,-3.4610550646,0.0799455573,0.0281421684,-0.4773254331,3.4442857549,-0.0335422101,2.8775686746,5.4500717419,-0.2694083573,0.2093043054,-0.234015073,0.3505300112,1.8294072814,2.5690225484,46.2849657619,0.1540473912,-0.857534282,0.6991992316,-1.6337338145,-1.8566002732,2.3039247923,6.9462765978,-0.477819671,0.1429564055,-0.0416437366,-0.0574063535,-11.7331732567,1.1759561503,-0.2233561062,-0.1436361331,-0.9331907074,0.1961606415,0.9301249191,-2.639495403,-0.3277458348,-4.5790169565,-1.3847293844,-1.1742876694,0.0476678343,0.1423941434,0.5188962024,-1.4245589914,0.449629384,-0.1514408019,0.4076556821,0.1461394451,0.3404482689,0.2902618023,-0.2750117492,-0.2979437166,0.4431022781,-0.0695698648,0.3872492838,-0.0714865341,0.2210037891,-0.1132548203,0.3814327556,-0.2730152996,-0.0155471272,-0.0904781494,-0.1337664867,0.0917877415,-0.0708185967,0.3607005198,0.2213040774,0.2278259062,0.3273182186,0.3014903438,0.298403699,0.5289765326,0.6013558072,-0.0940068149,0.1406326261,0.6954505514,0.1988637784,-0.1784472671,-0.2900729607,-0.1548499465,0.0178491959,0.1778287888,0.5326315423,0.4094885546,0.0993835721,0.031560677,-0.7645829184,-0.3624424475,-0.2828695564,-0.3534037298,-0.5558153648,-0.3641152657,0.7056556036,0.4419062861,0.599271761,0.3247814222,0.3678245643,0.4812391784,0.1791307714,0.5277860494,0.612091748,0.3355739827,0.4582369709,0.122137847,0.3982532996,0.1478621115,0.5046281899,0.3986284155,0.0627991141,0.1105013801,0.4989123564,0.4499336624,0.6198926005,0.2833641919,0.2273323464,0.1029309665,-0.2587683774,0.3224235425,0.3701482253,0.2995228317,0.3728562299,-0.123122681,-0.1305054641,0.4410455875,0.3387616377,0.3559537466,-0.2415611417,2.1202095551,0.1809112546,-0.094986995,0.0293235797,-0.2894249719,-0.0419258644,0.1538682937,0.0913651278,0.2108707106,-0.0517287635,-0.9393707593,-0.5051522444,0.6009395381,0.5184312199,0.0383663081,0.097610432,0.0567285804,0.1144131653,0.3596963558,-0.1844328071,0.0517247439,0.1975969754,0.190494694,0.1588270621,-4.4912902301,0.0155730797,0.1833125866,0.3646641238,-0.2746022208,-0.1564326718,-0.2706587346,-0.2580490159,-4.5783673591,2.4840981842,0.204753044,-0.4569638851,0.411187566,0.6032154973,0.2404808957,-0.2250811759,0.1365849709,0.1089372318,-0.1149522285,-0.2060716595,0.3652196093,0.3341080442,0.2160874402,0.2164705729,0.2746200472,0.0368125573,0.0444526943,0.0074415918,0.1350583991,-0.1851301197,0.3045944493,-0.2053869735,-0.1910602009,0.6474136021,0.0230973529,-0.0409012437,-0.0979487455,0.2166392976,0.2630559571,0.1332732914,0.0547631768,-0.0517903806,-0.078976116,0.0937500052,0.2154635755,0.3795389078,7.1239601713,2.1318030431,0.5860858867,0.449344185,2.7790054659,0.4408846662,16.6035932363,25.8211804252,5.8651734656,1711.4455935491,0.4460388846,0.1178865713,0.8177548324,2.0081980401,4067.9179333943,0.805295567,1.6896128829,1.1570195272,0.4135284372,2.4245967392,192.9406401194,261.6856576483,0.6356822906,3.7808889661,0.6631741485,0.6125439654,0.5711043091,6589.4110947073,0.1696564695,24.8963995497,0.0737235252,3.5739788506,0.0544990037,0.6766066476,0.3764564473,0.4203625074,0.6911019127,0.3836119319,0.3962595837,0.626447241,0.0705904462,8.312936851,0.233602907,0.5267230535,11960.7440551488,38.5171456697,45.248946619,756.9568049647,4.2577358607,0.6344586623,1.1294427843,0.4108877077,0.5717473866,0.1416961122,0.4595068095,2.2147221773,0.8262896542,0.3866005514,0.2536101183,0.0849226216,0.0099610327,0.2075810192,0.54551979,0.5382004676,0.4051694462,0.6735512196,0.6644684123,53.5421606663,38.9453312414,0.6614678831,0.6883381942,0.5820035639,698.7526372196,1.1894893353,7.957683424,16549.8206078887,167.2962135482,0.6597987287,0.5405251411,1.9742554705,0.7083714786,0.7017674506,0.1748443418,0.2954776794,5276.2066658273,-0.0077063304,1.7707667674,-0.006183075,10.5201232901,0.3902048145,2.9768237135,0.451138721,1.557366572,6.4719420358,0.0615814533,0.8891204401,3107.5702603835,0.9620304343,15.0203353836,11.0729449648,3.0522263178,3.0030037077,0.4939056161,0.112384207,0.1461390692,1.6024986599,414.9560555945,8.8711731083,1.0049727126,1.4774583137,1.1433761871,0.4138215878,5.3283481036,4100.0256345872,14255.4509722503,16609.8760711355,1.0756833667,0.5522609025,0.1516440796,0.2420712733,0.7216296237,71.9683609311,15835.3669537083,0.3683721428,0.2165545168,0.4991030288,0.4456790969,0.5349318426,18.6259482679,1.1230043676,0.7350631066,2.1434380132,0.5618273799,1.3447892152,1.2285038781,0.213243311,0.0710782452,0.1990243759,8026.2635145494,0.2804525004,0.6721642386,0.0977261875,0.1016500599,1.0069853714,0.1055299898,10.9730825225,1316.219562563,2.2150898197,25676.4277326686,21868.7885512218,0.1876412194,2.084885457,28.3686706882,0.407132882,0.3325711172,0.0525538821,0.2004741993,0.609040702,0.5183118264,1.500749981,0.4689413489,0.4019773379,0.1113869154,0.0269353266,0.488479898,0.4918323027,0.2158771145,0.7986792823,0.5352822544,0.2745535945,29893.5845626407,4068.1480916554,29893.902220508,0.6746948678,0.6129226461,0.1702882946,0.6236706448,0.430358543,0.2870323684,0.5040778626,0.2236278391,0.0814078733,0.2011656679,0.3991952522,0.148613419,-0.0167307363,0.243153105,0.2699857888,0.6384704973,0.0519021152,0.5954577233,0.6957466379,0.1234584247,0.3487429919,0.0611971667,20888.0074978931,0.4452096362,0.3880330417,0.1224377325,23795.1935945596,20441.1226982542,23795.4488852495,20441.4565069277,0.1425127393,0.059111082,0.0314170773,1.2393696221,0.9254636504,2885.1263513711,2885.7432224643,2885.7180776394,2885.2779113035,2885.3962309336,2885.3955689658,0.6292114293,0.4804645181,0.091488343,0.4505617646,0.0243083102,0.3327381519,0.2815663354,0.0196631192,0.4650502478,0.4431833707,0.4788457886,0.3968546054,0.2291891441,0.5909929447,0.3633025199,0.1853583054,0.045852572,0.0776258159,0.0665079824,0.439002748,0.6200228701,0.9928883168,0.3160468496,1.4483192,1.1186582664,4.3642329091,0.2293218992,4068.1070963091,971.6062335201,4068.2293548122,971.9003573342,4068.1336022799,971.5103588757,18142.8912455206,0.6531158802,0.5258171684,20209.7010759415,0.3136524427,0.1886865355,117.0614152345,116.8050515266,4.3941357217,4.6251720054,180.3402357362,180.0115906323,0.7390271714,0.8770160084,0.1689274634,0.1854718053,0.3368979075,0.7014832582,1.2092264709,0.6937747731,0.9547242773,1.0913999207,0.6532038278,0.9552333264,0.7897206814,0.9362221843,1.8910537795,17270.8405685739,17270.6757673398,0.2408093896,12107.4349346029,3902.249666188,18143.2875597574,15.1280525212,1.4605748577,0.611758463,1.6088733285,1.1035703571,0.5872288331,0.247260676,0.8373395712,3656.4411012774,0.6731544103,0.9172868747,1.1938300023,0.9359911883,0.7820050072,0.7337480582,0.568800604,0.616037182,29893.6940672766,4068.2952809431,29894.1063308048,4067.9456306268,4068.0883801893,0.3380690943,971.7156850568,4068.484677859,4068.2154377476,0.342211487,13513.8952003644,4068.2037889626,4067.9852921695,4068.490123097,0.6409884982,11518.4894532339,17736.149122413,1.1095152877,0.4421733742,0.4826983295,0.0695892476,0.3048727344,7.7455900887,2.0796875364,0.0132017807,0.230446578,2.4460370355,0.7676037281,16.5162233355,25.7105856263,6.1267633345,1711.3428373864,0.3392562644,0.1627645155,0.8539566181,2.5983510712,4068.4175132594,0.582365584,1.9132852131,0.8586774165,0.5163383749,2.3951681322,193.0145541916,261.3170191014,0.4192620165,3.7038489924,0.0276408556,0.5552880044,0.4291671966,6589.8245212325,0.0500402938,25.3392737425,0.5785124796,3.8457157608,0.2063725701,0.3695333435,0.9753267897,0.5490641361,0.3595192854,0.9113428597,0.5367734121,0.4835535638,0.0699999189,8.7027694623,0.4416550696,0.6646859923,11960.6716548042,39.112827365,45.4749103221,757.1716557943,4.5710483145,0.7082695002,1.1862380908,0.4736153918,0.144849091,0.1977928764,0.448830137,1.9801659876,0.3501495544,0.7101858796,0.3079495407,0.5156276995,0.2567559852,0.1988504786,0.3374848816,0.1340307513,0.5043016272,0.2671441769,0.311171879,53.7389658313,39.3442864351,0.3468210769,0.6336756626,0.4300281864,698.614609063,1.1370240122,7.938375308,16549.7817587704,167.046989425,0.4422328861,0.1201506549,2.0196915351,0.8249377854,0.6954467267,0.2410676664,0.1717403655,5276.3969771703,0.3797680864,1.8126945541,0.2409217116,10.0423323999,0.4938213955,2.771433852,0.4909459407,1.5572017968,6.5568934635,0.2909252931,0.8930091072,3107.9915901752,0.6030559975,15.552673866,11.6205571365,2.604890514,3.1853093504,0.4618176925,0.3773628641,0.8156685884,2.3041071734,415.314629257,9.26764125,1.3018588644,2.0154152166,1.0618302941,0.6144096955,5.6658916654,4099.9272352356,14255.7780051289,16609.7956860649,0.5720119975,0.2773013505,0.4002207552,0.7259666061,0.9640173091,72.1629267048,15835.5081821257,0.2897919905,0.507710051,0.185752625,0.5699178409,0.6498214746,18.389154129,1.1023062042,0.1729418559,2.1402325178,0.2287993719,1.0641216187,1.3866514423,0.2282879233,0.7562467369,-0.1398757984,8026.7717339017,0.5135185472,0.2050688801,0.0810705766,0.5490147685,1.1567917365,0.4187274123,10.4449772114,1316.547649471,2.6117443202,25676.3644251307,21869.1386311753,0.6121966791,2.5831862953,28.1960967113,0.5069303208,0.6938477059,0.7298253096,0.5891707312,0.8251858647,0.4317690828,1.5983621717,0.1964104688,0.2762526807,0.753366899,0.2554341438,0.0217733695,0.4810285076,0.0328514023,0.4573642861,0.2016665205,0.2070224607,29893.775846513,4068.57423028,29893.9760535625,0.9280126129,0.2177212376,0.6021532927,0.2338114345,0.3114008486,0.4716620284,0.3290743351,0.5037326642,0.2754732126,0.7120010862,0.2331441049,0.1800388227,0.6961830067,0.1207673954,0.1123468414,0.2150174993,0.4760433611,0.258751326,0.7120768071,0.1477212439,0.5048355011,0.1596208269,20887.6103136826,0.2468586015,0.6581594457,0.2113647627,23795.8807834401,20441.2663428563,23795.3486996546,20441.6606038769,0.4144954108,0.2091372607,0.42783656,0.8366052558,1.1266323178,2885.459982629,2885.6710738569,2885.8148215408,2885.6032522245,2885.2821111297,2885.3095438711,0.2715312789,0.0865267852,0.3050892457,0.3202285736,0.157066151,0.4996275165,0.5107062615,0.4568226078,0.4210785432,0.6690267904,0.4596577486,0.149044159,0.4921407417,0.2482818231,0.4518963077,0.3756517578,0.4019060878,0.6162311619,0.2309406197,0.0726594083,0.463552168,1.0232973195,0.471110212,1.9060604692,1.6691701204,4.8356920495,0.2826826596,4068.1324074503,972.164041777,4068.3589589868,972.0230766848,4068.392356473,971.7494622916,18143.2079761863,1.2814668625,0.5703903123,20209.6571470819,0.4454513838,0.4294332331,117.0793320777,116.9071415493,4.6491381493,4.1384114437,180.6937202765,180.3051186518,0.9905793665,0.4736705562,0.6990418785,0.3781389648,0.0081080291,0.5463060997,1.0764141311,0.8018157651,1.2025400219,1.3261623941,1.3661799667,0.8400456573,1.0275539933,1.3710138451,1.5489804922,17270.429847687,17270.883195022,0.2059418493,12106.9085429698,3902.50203374,18143.2192479127,15.407534988,1.3897253505,0.3502477735,1.2902408327,1.7755944812,0.3981132952,0.7853222315,0.9255855526,3656.4523145644,0.9840220911,1.3240969399,1.1524873966,0.9806006781,1.196381602,0.7166790443,0.7090839921,0.4269122367,29893.7652640243,4068.3338287249,29894.1257482203,4068.5833311966,4068.6421755726,0.8352660358,972.1483036763,4068.2367930875,4068.0396735213,0.1630479125,13513.3931852546,4068.3775085438,4068.534950806,4068.5072694174,0.6704307038,11518.6125643893,17736.0539792124,1.3829003721,0.3519480019,0.7115447464,0.2100849009,-0.3070135188,7.2947158896,2.1049305899,0.4395952556,0.5555449406,2.701774991,0.6450087348,16.7672728977,25.9118584092,5.854299992,1711.5585280511,0.7054213576,0.5822338006,1.2271192825,2.3154101867,4068.0637517982,0.9229327464,1.8356762783,0.7417583702,0.8854816394,2.210813956,193.0017063448,261.8072881243,0.96363925,3.6872528542,0.0455103144,0.5528371635,0.247845129,6589.4219562629,0.0855400572,25.1872815214,0.0737105805,4.0403406753,0.2010480223,0.0817047151,0.9616043328,0.6210274714,0.2781665593,0.8692855749,0.0851822145,0.2026781888,0.471085948,8.4214071822,0.3645087032,0.4849436164,11960.4421115174,39.0913226968,45.2268447907,756.7663408694,4.5348990296,0.6552247457,1.2640005456,0.2869511191,0.4476582975,0.1556487843,0.2044116627,2.5144465471,0.4591562515,0.4870536379,0.5781718134,0.2681398029,0.280489254,0.3107492774,0.0726666167,0.3113154879,0.3167299001,0.6497965063,0.3139228496,53.8818371179,38.9434160159,0.4346612262,0.6996923106,0.5877171306,699.13515039,1.4239509594,7.7864483087,16549.8890487796,167.3857412958,0.4140383618,0.309291175,2.1973645957,0.4007774644,0.108290836,0.0333370074,0.3486883377,5276.5639871405,0.1930595602,1.4877587392,0.6702609356,10.4759924024,0.3554504754,3.1587424731,0.5566536806,1.9666516554,5.9815827462,0.5071740651,1.1284919078,3107.5800519314,0.7915038249,15.299731175,11.5726921737,3.0101928997,3.3993451862,0.6199880758,0.3861966515,0.6768034769,2.1944242828,415.3883940472,9.5293630836,0.9882977522,2.1420426433,1.3029628166,0.7124031594,5.6611092326,4100.1237444426,14255.4350736176,16609.7227434599,0.9728148288,0.1108474146,0.4559374722,0.7846222354,1.2071997899,72.2338690962,15835.2084116355,0.5151720593,0.3173476403,0.7459523806,0.1809528716,0.4020161927,18.630076275,0.9695631297,0.6642486382,2.0681104304,0.6616004697,1.3623470748,1.1487036206,0.3411466382,0.4089151094,0.0114905862,8026.6658299977,0.0562224431,0.8141580692,0.2103564137,0.0642717973,1.157259568,0.3804380631,10.7433038295,1316.5596212836,2.2856488857,25676.5319691303,21868.768154272,0.238862807,2.38208228,28.281024377,0.5529571624,0.7970311445,0.613352051,0.233555213,0.3179061576,0.2606754604,1.9417406569,0.7627905764,0.3427714141,0.1583336452,0.426587365,0.7008922315,0.792326535,0.5585482327,0.4604300481,0.6836192269,0.6714980144,29893.8277382392,4068.6376608488,29894.2439063744,0.9134942786,0.0690425191,0.4690854643,0.619767594,0.6966857603,0.7455330432,0.6055897588,0.5422946249,0.340306109,0.494088222,0.1518758637,0.5968973416,0.4749572833,0.2276170607,0.6320113553,0.6519562596,0.466951776,0.3492426659,1.1341997836,0.631258631,0.5963886303,0.7030253806,20888.1497153183,0.5222720594,0.1737626703,0.4499735777,23795.82846433,20441.4615913993,23796.0096568966,20441.5004882209,0.5234884853,0.2298511099,0.0864803875,0.944899987,1.1165376053,2885.2193340812,2885.3615241898,2885.7697379805,2885.6807351953,2885.3557509832,2885.7110973752,0.7076880635,0.5707817451,0.5272456762,0.4605407871,0.6427306893,0.6826474124,0.0488129286,0.1817549735,0.6814873184,0.40218758,0.4635779228,0.3635898516,0.6904923412,0.2660212816,0.0040680386,0.3958836599,0.4833247333,0.0471626303,0.5776730522,0.185920652,0.3628677344,1.2965692925,0.0571568182,1.3265103463,1.1662066867,4.6454426293,0.5291187614,4068.5908659527,971.8447378425,4068.3305657223,972.061081054,4068.1113609603,971.9004846163,18143.0480316026,1.1783102624,0.4191125328,20209.611881252,0.7870421395,0.6747855093,116.954519096,116.8141239378,4.2635056749,4.4774907045,180.4042398497,180.3280714861,0.6416709333,0.7298690683,0.3528054848,0.1468077285,0.6274136077,0.3742301336,0.7642890016,0.8351708276,0.8280057682,1.0783581269,0.8553577525,1.0409003359,1.3402360228,0.904910454,1.8331156485,17270.5017554282,17270.8117006991,0.5374254788,12107.3775704746,3902.3276470782,18143.4312346832,15.2719260134,0.9481724336,0.455189787,1.2024090878,1.332425831,0.1835768418,0.2837842386,1.335171644,3656.4749224996,0.8625113646,0.8280162811,0.9314604889,1.0508553768,0.9889418601,1.2421358583,0.4300247739,0.3187270228,29893.9026433226,4068.2030236117,29893.8362250915,4067.973036352,4068.3102331969,0.8609665896,972.1675543886,4068.0084171056,4068.1585057489,0.0769106763,13513.8935984714,4068.4464980331,4068.4593469554,4068.4822035896,0.4491546871,11518.5150628509,17736.3063262679,1.0384238866,0.3248396903,0.8507112287,0.3722304021,-0.252343312,0.2136485034,-0.0095471183,0.380521146,0.3839277055,2.9231704064,-0.0414382324,5.130749064,-0.1972839391,0.5409891879,-0.3323339049,-0.2108544321,0.1023779304,0.6364048505,3.9052444143,-0.9039971177,0.5615210237,1.6714197761,-1.3928610154,2.052686084,-0.0540999583,2.9432891429,-0.1826497616,-0.5810367145,4.0107350825,0.4565463114,0.6554624327,-10.1263641207,0.008155299,0.0153171455,-3.1006783612,0.6497645406,0.0168020544,-10.6768542376,0.5719795602,-1.5692792996,-4.7911577157,0.1282467589,1.8415973451,0.6683659603,0.1549079336,0.0210332408,-5.8891778295,-1.5700553153,0.3119703284,-0.3003977075,0.011997733,-0.1815767323,-0.1232343501,-0.295180927,-0.0944546241,0.9521730126,-0.1322534238,-0.147529431,3.2725997056,0.0970144209,-0.1489658039,0.1467145797,-0.0167426202,0.3845411502,-0.5365752419,-0.7211229327,0.1591054839,0.5978036147,0.2498902153,0.4789619071,-4.4911956618,0.0130189981,2.7461203322,0.3640198843,-0.9320751967,-0.1285316458,1.3643303763,0.0934047944,-0.1581416667,-0.2003159177,-1.8086160087,0.4255295483,0.2771713033,0.3424152331,-0.5956074449,-1.5664891239,0.4850150173,0.5229793744,0.2741819289,4.7482882852,10.4274133806,-1.1317193679,-0.0226347559,-0.3215702012,-1.1727694388,0.0491537036,-0.0487392256,2.6103980994,-2.2326639404,-10.5096522635,-1.0165945856,0.0123627092,-6.5072869268,3.6978478613,-4.2972367665,-15.1257338384,2.6799416235,0.0191136284,0.1802962902,7.0400745928,-3.1314109324,-4.0119626905,0.0680816223,-0.1126469997,24.6199084411,-5.5423800527,-5.4678239095,-2.6142387671,-6.2983169205,0.7039812133,-0.2336244041,11.5801445742,0.0211857573,-1.0357765099,0.3914739742,0.152969484,0.1419640452,7.7562756922,1.7008541569,-7.6721184883,0.6027695433,0.0905626294,-0.0305509607,0.2042488725,0.2095065791,-3.4978645214,3.0536822764,0.3734326552,-1.4509360705,-25.0861448555,-0.5681714036,-1.1689161052,5.210186004,17.6491084977,0.3567878896,5.1971540336,-0.0458143918,0.3490015178,-0.2757568422,-1.0659104907,-1.6139135022,0.2895337733,-0.0909719365,-0.0800162866,-0.1832488748,4.1948403139,0.1347898551,-0.2146134078,0.2806931929,5.0904732142,0.0253589152,0.2432153127,0.4512330191,-4.449932763,0.5613906345,0.3490502328,-0.141259937,-0.0681507002,0.2658521143,0.5396852484,0.3101532051,0.3625703012,0.3018487029,0.4666850144,0.442346152,-0.218341906,-1.1142994329,0.2747452239,-3.514418506,0.3650296354,0.1037363838,0.3232409054,-0.203678858,0.232590255,-0.1472311948,0.0004586178,0.2632484355,0.4633596984,-0.1167891023,-0.032620381,0.3770031003,0.364532776,-0.0057345835,0.0678699142,0.0972535069,0.2113436588,0.1899050496,0.2108021439,0.5573222176,0.5833265635,0.1658434157,0.2154474262,0.421818588,0.3207199233,0.328654108,0.1386709822,0.2335462106,0.1157640287,0.6164481304,0.6731774458,0.679898113,0.2774338269,0.3058874076,0.2570645493,-0.0347095379,-0.0204421629,-0.0980343208,0.1547764655,0.1977388369,0.1257258279,0.3199864139,0.6569540872,0.2011035206,0.3075831342,0.1127142399,0.3774335674,0.6520130365,0.516783104,0.4988118488,0.3587155597,0.2688556239,0.152502133,0.3076504713,0.2014415535,0.1907640804,0.1165348056,0.0439727686,0.5621177817,0.6878160445,0.5827583923,0.2244667227,0.6943779345,-1.6350904147,-0.0261158976,0.1134617518,0.1579790655,-0.7257724147,-0.0394873272,-1.3955081991,0.0643607882,-1.3898677797,-0.2962099183,-0.1921511168,-0.0103486759,0.1926891692,0.0769306741,0.0717789284,0.2397917547,0.2469097595,0.1287288993,0.0393508194,-0.2444782521,-0.2235792406,-0.1461682127,-0.3999726339,-0.7263067699,0.3667762314,0.2466536006,0.5602685712,0.0437358113,0.1718034343,0.2562344849,0.3740475456,0.1051537304,-0.0203444734,0.1669539742,-0.2059618197,-0.0478916183,0.7071259075,0.3873229009,0.2041562637,0.1871596274,-0.0708247253,0.0675894374,0.0087389681,-0.2712044495,-0.0675874552,2.7711963424,0.2279925907,-0.0955904531,0.3502402372,0.3866298458,-0.2051700425,-0.251266599,-2.7165078751,0.0538547899,0.0391165622,0.0531701932,-0.1829654398,0.3509754547,0.2233485831,0.7063351382,0.0875665158,-1.1328836595,-0.1825469101,-0.8462496215,-1.1508790644,-4.0904904526,0.0626833559,-1.3499827859,-1.2372128686,0.1898804557,-0.0884473411,-1.3828633569,-0.9046096568,-1.2626496785,0.5204036289,-0.1040945967,-0.1665003562,-0.1269727915,0.2240322625,0.2272834441,-0.5291315442,-0.3644689789,7.4264250177,2.3652397088,0.0538762276,0.037658563,2.4075716929,0.6538223959,16.9161444402,25.7256910019,5.6665986722,1711.268150968,-0.027167333,0.1961889781,0.7014855987,2.0718470952,4068.2443149846,0.908061601,2.0870547139,1.1588183925,0.1077312027,2.543254882,192.452349302,261.2019687698,0.2827132613,3.916192258,0.4969374902,0.7060981113,0.5230870554,6589.6750342406,0.1750816072,25.0129369996,0.4601046244,4.015844691,0.2661626792,0.1848100682,0.8405163239,0.0030745764,0.18933637,0.3714986231,0.3258002549,0.6567580241,0.6777359528,8.2210939361,0.4171218162,0.4636095671,11960.3924025301,38.8493531803,45.3532050461,756.830190605,4.2092346971,1.0780116396,0.5103453334,0.7836465857,0.3468972482,0.2916830836,0.5676637933,2.3263055469,0.5865353834,0.9566488213,0.2047662338,0.4921289013,0.6016831083,0.3082442026,0.3566184642,0.4133659387,0.2610150589,0.7067876937,0.1577358843,53.9113922059,38.9417273172,0.0515491562,0.1447074865,0.5744196229,698.9229012179,1.0370863749,8.0402459649,16549.5966966227,167.0030195933,0.14316345,0.1291127256,1.5672510049,0.3446443646,0.2536264685,0.1299654533,0.0038813078,5276.420756786,-0.0529870903,1.8218325897,0.3984820597,10.0763578646,0.656241981,2.6836297166,0.6442962481,1.5493948541,6.0322138554,0.5177730797,0.6710070602,3107.8909910452,0.5358571005,14.7927318908,11.0562309768,2.9925566761,2.9553366455,0.0411244082,0.6203303159,0.4362647783,2.177153177,415.090478039,9.296467147,0.8029314007,1.6727330884,1.2714263999,0.3065369299,5.9953213134,4099.7896422998,14255.8432277885,16610.0268132626,0.6882425255,0.706571007,0.7511609635,0.6931483012,0.9680731158,72.2684386365,15835.1133062011,0.4555984106,0.3401158695,0.7042985579,0.1651434792,0.2338774633,18.8785132302,1.4827994691,0.7484515972,1.9707935794,0.0391574134,1.0132186624,1.1266677462,0.1408151771,0.3698609387,-0.2195257582,8026.0959887658,0.1466207457,0.0326361145,0.0300846734,0.1395658613,0.7730615399,0.088804754,10.6203013582,1316.4898097113,2.218775105,25676.5931958466,21869.2139365034,0.4487855655,1.9317581559,28.3452411349,0.3919656522,0.34723754,-0.0704303174,-0.1004860224,0.4202523769,0.7959674477,1.5523942042,0.4887988185,0.652125554,0.4766890466,0.4916752351,0.4619050829,0.317337232,0.4200261431,0.7983114482,0.3336752109,0.1618768161,29893.9310174645,4067.8570352843,29894.1724462738,0.5888748338,0.442954908,0.3669190667,0.0199076827,0.449200904,0.3014219244,0.1180998456,0.4692565055,0.113821161,0.3586129706,0.2379296985,0.4601545856,0.0818662175,0.3620305624,0.4333890971,0.4512280469,0.5286525909,0.2441711991,0.7796754496,0.3012243032,0.6263596555,0.5838118439,20887.557315417,0.0743031093,0.1175721792,0.5262344295,23795.4331432769,20441.0969802485,23795.2280369828,20441.2385955404,0.4165153772,0.3786290696,0.5845319256,0.8483282285,0.877169888,2885.6181970701,2885.1272491323,2885.4358765962,2885.2917584501
   2885.386103778,2885.7826310665,0.6247960421,0.310359281,0.518370091,0.197864198,0.3096592053,0.6235373118,0.5500297246,0.5193820645,0.1598489364,0.5048463946,0.4113283131,0.4831780734,0.1992191324,0.3196620183,0.140806142,0.1622415461,0.2578989628,0.2107242949,0.7014987429,0.0827224005,0.4554378996,0.939363246,0.543522799,1.1890132254,1.1476000319,4.2864159105,0.4760447693,4068.1630160888,971.7046245699,4068.368006926,971.6637475902,4067.9073009439,971.9600483488,18143.1868231686,1.2114026076,0.1618619833,20209.8812340747,0.1519027492,0.3689397427,116.8469483967,116.5504557016,4.3091912958,4.5038054733,180.1192078584,180.3753838576,0.8988439731,0.6650729797,0.1973620564,0.2626033758,0.2522463354,0.0903137521,0.7511196159,1.0340206797,1.1829094893,1.0593359595,1.0453462682,0.64528255,1.1303058441,1.1112683632,1.9235469845,17270.735582249,17270.418533307,0.2892858589,12106.9045245983,3902.8066683593,18143.2886486976,14.8818885159,1.1038326529,0.4778118533,1.7194174009,1.10137068,0.1450285417,0.6502679411,0.8549347632,3656.1925967793,1.0128511616,0.9964348079,0.6234958502,0.739777704,0.8388297437,0.7347981113,0.4940530604,0.6946699726,29894.0377066872,4068.5204232219,29893.5012301194,4068.02813563,4068.2750766831,0.7062281866,971.8513625436,4068.2924302856,4068.0443497125,0.015310649,13513.3613216567,4068.1127029612,4067.8800324143,4067.8771387985,0.2704149999,11518.5251848862,17736.1048548557,1.1567972254,0.3741339793,0.4534397488,0.0020797301,0.1409039479,7.4490686407,2.4069138468,0.5092699174,0.3829415854,2.2133203493,0.5605209043,17.0483241554,25.369957614,5.9620116575,1711.069270893,0.0921199731,0.0574935041,1.1259041153,1.906128083,4068.1168249982,0.5954451598,1.6361919203,0.8757830348,0.4430478312,2.2031380288,192.3662440235,261.631559257,0.6168341811,4.13814602,0.4513492051,0.3097898376,0.3712990329,6589.1652338195,0.0360922575,25.2516738165,0.2071364893,3.9723935396,0.1772553576,0.0331083731,0.8409507525,0.6772517107,0.2618257865,0.8489048816,0.2455049395,0.4667703756,0.1251923611,8.3074988988,0.0814345578,0.589851133,11960.0779433218,39.062066625,45.2375791854,756.3623636042,4.0057090764,0.5528457474,0.7463691851,0.2789031856,0.2692287533,0.454750337,0.3387762928,2.2365905266,0.9182436061,0.3852610992,0.2209487161,0.5214554729,0.1654885012,0.6245297565,0.2894450623,0.0917301182,0.579357514,0.426776232,0.1900484029,53.9666426089,38.7983461472,0.1898069217,0.4288216273,0.3225828402,699.0387346744,1.2392127178,22.2359802853,16549.4542041693,166.9614732421,0.465539896,0.6730057096,1.8853607351,0.3741412423,0.0208559032,0.315896503,0.2291511589,5276.7683466267,0.5410386745,1.7570483372,0.316588356,22.5968491752,0.4728194472,2.9400639648,0.0966267119,1.8368684106,5.8371719077,0.3987731441,0.4217454695,3107.5981791709,0.827283014,15.4431368046,11.0405391979,2.6410416825,3.1834950314,0.455206387,0.2177150347,0.7062066082,1.9921560902,415.2740562918,8.8835286731,0.5322826632,1.4459888174,0.8125406713,0.351027033,5.8111631029,4099.8917513942,14255.3063658049,16609.6223384573,0.5294867571,0.5406045874,0.556117157,0.128067876,0.8287099372,72.103915692,15835.119238767,0.588237397,0.3088171907,0.3588582865,0.1174330856,0.5337664982,18.7845053993,1.0135230308,0.4132009723,1.8675760607,0.6161939501,1.1721089591,1.293806141,0.2856769064,0.2333665569,0.233254687,8028.28101866,0.4799327687,0.6468644247,0.3384023235,0.3360304187,0.6344636325,0.0382297632,10.5386937468,1316.4830411364,2.6511927221,25676.3313764288,21868.8869529949,0.0523866668,2.2974545562,28.1537995526,0.3360994633,0.4709381645,0.4251785976,0.01751774,0.6724853864,0.2109912078,1.6346633008,0.5384839679,0.2851703179,0.4541415677,0.1909827477,0.0590237953,0.1822776494,0.5731401589,0.2808462972,0.4505747709,0.0968475956,29893.6964546843,4067.9362928167,29893.5138690458,0.6450259211,0.2364017907,0.0246533171,-0.0278058962,0.0270415919,0.5026864915,0.4737285841,0.4253105171,0.3017388757,0.5290062511,0.6641082194,0.546671989,0.0656310545,0.3095874637,0.4834609248,0.3871545983,0.4766978723,0.6878840304,0.6859914529,0.0801862631,0.2974483241,0.4585339159,20887.7218753428,0.4187880563,0.579508826,0.2073513232,23795.7783360528,20441.0476860758,23795.5625919349,20441.1053568698,0.637430324,0.053477564,0.4748775116,0.836848176,0.9356390549,2885.4676452258,2885.6728697086,2885.6943155265,2885.2987739867,2885.2660398725,2885.1191701322,0.1079873541,0.0797457838,0.4058068095,0.2159825372,0.3578649447,0.0433682927,0.2417346325,0.5094785859,0.1733108876,0.1495269108,0.002130513,0.1226825955,0.6090939409,0.0854902698,0.6300417022,0.3714009184,0.6617067797,0.5690763762,0.2424123376,0.3548770336,0.4057899825,0.8482977032,0.6671055832,1.7197884039,1.2765645861,4.4355561268,0.2833112114,4067.9313416088,971.9117215925,4068.2528040602,971.6228785218,4068.2925406398,971.823658469,18142.9650941278,0.6903019842,0.6233033303,20209.8793798217,0.5382455965,0.1961443895,117.0483802278,116.8601531487,4.5408293269,4.268458721,180.3462814808,180.3428689223,0.9556872868,0.4072267426,0.7102646037,0.2539543635,0.3400528064,0.4038822393,0.7802894301,1.2454902951,0.8312962197,1.2270517455,0.6901881321,1.1863806125,0.6035367546,0.8830516221,1.5441101741,17270.2456353692,17270.4449504778,0.0324329302,12107.01524599,3902.321120119,18143.0105085632,15.0794810203,1.173773672,0.1792346,1.2368131814,1.1625213685,0.4993332158,0.5597811011,0.818083294,3656.193378682,0.7527011145,1.2186699773,0.9931458078,0.766961687,0.6617936822,0.7835242376,0.1904858268,0.6484775926,29893.5769531695,4068.4036752422,29894.1267774074,4068.1029122954,4067.9063353367,0.8273688724,971.8809485755,4068.1116773548,4067.8464631255,0.1760788044,13513.7648965886,4068.3033853084,4068.367542946,4068.3141590636,0.0913247056,11517.9837431573,17735.7354516982,1.1680107407,-0.0251074743,1.0832810135,0.1221822901,0.0220534599,0.0795069325,-5.4076458999,0.0796644065,0.3738367794,0.3493102858,-1.4283613008,13.7569384995,0.3293578814,0.1843186557,0.120828757,-1.1290311083,0.0484025137,0.1805648569,-0.7340409398,-0.1251038562,0.4759485682,0.687332856,0.560674586,-0.0511721077,-0.3262924305,0.8267855029,-0.3134513626,-3.3581146623,-3.1061572614,0.4919323061,-3.5657110533,2.2103790159,0.2319956609,0.4610242192,0.1658678224,0.6507468973,0.0694307889,-4.5356528454,0.1256063627,-6.9040512458,5.8919730168,0.5947412743,-1.3410842344,0.061889226,0.1477287187,0.0389174798,-1.474612413,8.463847638,-0.0109343448,0.1233128808,0.035819881,0.1168808298,0.4446708313,0.0361230089,0.5872209918,0.283679414,-0.1899397591,0.2365905378,0.199470309,1.5181463821,-0.4238319339,-0.3907056808,-2.4684709204,0.0798723975,-1.5863036449,0.6292648371,0.1301981859,0.2215369,0.3058677519,0.5877574863,-2.5087067838,-0.2258002801,0.0721139478,0.1512759368,2.1916668607,-0.2596548842,3.4884745957,-0.3172079556,-6.6902286028,-0.2064053266,-0.3640372372,16.4353476996,0.0997556147,0.4113777905,-1.3531757952,-1.1562057034,0.5863252998,0.3022757843,0.4610240061,3.7336301844,0.8435727087,2.1775980695,-0.385478291,-0.5910366178,-2.4372420884,0.0325071404,0.2237353488,10.8817913006,0.3358110473,-18.0840492962,2.4959124316,-0.0425645984,0.0815880128,1.6085623026,-3.738497861,0.3112876375,23.286991454,0.5636518869,0.2194556776,8.015412713,4.1479726611,10.1733480258,0.2379374645,4.6611917291,-4.3470507447,3.4196912744,46.3573032583,-6.3514720553,1.8981468622,0.9262213076,0.3180192957,-5.207626432,0.4263930054,1.0212056699,-0.1656657652,5.7111666414,-2.296192352,-3.5961839965,-4.5614584461,-3.7286973577,0.2460529392,0.0798281398,-0.2345564832,3.9172075943,2.1357682168,0.764268723,15.5060302203,4.7694622488,-2.987285959,-15.1152199431,-0.0907537795,-12.8289936785,-4.9189144831,12.0236355134,0.3593294257,-3.0753521513,-1.0345605474,-4.0593457912,-2.9121793209,-7.0892109867,1.2851576672,-0.0432733331,0.4435804568,0.1059798166,0.100196675,-16.2040569634,0.4333220117,0.5284149408,0.0183562951,2.7536101802,-0.1928926747,-1.4080796398,-0.9129254886,0.1237245146,1.1395097001,-2.4606853363,-2.4636887573,0.3695638586,0.0892719603,0.0432331846,-2.6131027173,0.5344344528,0.0935103129,0.4454207431,0.5798665711,0.2182687648,0.4686922409,-0.171026075,1.2315255075,0.289458748,0.1454413829,-0.1774939369,0.0346243235,-0.3880478359,-0.3658459758,-0.3090573239,0.0846917982,0.0023050843,0.0862248629,-0.1306929996,-0.4202986112,-0.2736662458,0.0624612037,-0.2995023437,-0.1725166569,0.2445442352,-0.4043956199,0.4224810927,0.3135346249,0.6009651451,0.367407062,0.2781783125,0.4664791457,0.0494293349,0.1586493088,-0.1961574007,0.1821972434,0.1231376536,0.6024154877,0.1946359984,0.076887172,0.3207550675,-0.0433358248,-1.8579539318,-1.8352531963,-1.7643233072,-1.2489914755,-1.6558634931,-1.6745223085,0.3923909482,0.047095945,0.6067894673,0.0509119643,0.3173363842,0.0812149021,0.1646825888,0.5248273341,0.6443349485,0.3081247579,0.2497429749,0.6444174446,0.3403118224,0.0551983054,0.2093775414,0.320615616,0.6003700979,0.5702746996,0.2877233406,0.3672800044,0.6581818824,0.2933623215,0.1456555802,0.4675603523,-1.9329826949,-0.2107327769,0.6018374961,0.2857347563,-0.1847899177,0.2802703982,0.3092611275,0.4348070442,-0.1009740542,0.2617973072,0.1829549701,-0.3860329926,0.0320560821,-0.3635540122,0.1547663197,0.0552993465,0.2326392082,-0.2088739102,-0.4181280041,0.3598692206,-0.0972271912,0.81140535,0.8102615687,0.4137409718,0.3601666423,0.4012619193,0.2028104914,0.3626801314,0.3712617637,0.2783053491,-0.0696346208,0.5522335819,-0.0385569283,0.5448022145,0.4154117084,1.0430306768,0.3353499875,-0.085152172,0.6346696036,0.0494731877,0.1251920401,0.2302380513,-0.1814402622,-1.4293952311,-5.7719834967,0.3415353439,-0.1072381112,0.4440279623,2.282121559,0.0281257991,-0.2543328972,-0.1800842862,0.5655467977,0.5705451466,0.2160788655,-0.085757284,0.4076082445,0.2111856118,0.2163161828,-0.2387942734,0.0652886044,0.3562503439,0.1484960078,0.1278611159,1.6645211745,-0.0916481738,0.561493958,0.1933689342,0.3429217109,0.2791732733,0.1750989512,0.1061369586,-0.0319857508,0.2534876129,0.362163957,-0.2436000778,0.2308065875,0.251472719,0.4200281717,-0.1198877139,-0.4787891327,5.3161355417,0.2838100481,0.0887861856,0.5542088587,-2.0654881848,1.1844704932,-10.1029617912,-2.2383363013,18.3811141685,-0.8614748303,-1.7639733864,0.0853774672,-6.5279358338,-1.2958384301,-1.9939903449,-2.7523488834,-6.1178540802,-5.1887008448,-1.9405679312,-1.9915863809,-1.7879195194,-0.4321094147,-0.6802740573,-1.490632065,0.0516449749,-1.727870837,-1.4266332532,0.0239006261,0.3659596982,-7.667127275,0.5670835959,2.4205082492,9.4473153094,0.011680384,1.1370297946,-1.3978025011,0.5045839329,-1.5168935559,0.0877811145,0.275440474,0.3810675674,1.8309386174,-1.328156866,-1.4329246423,-1.8265115388,5.7074298422,-1.4205239607,-1.8034866541,-0.3317280297,-1.2177947639,-1.8100915872,1.1354571381,-1.328566674,-1.4800443205,-1.6168184292,-1.0000034543,-1.4108170503,-1.4019897182,0.2618739653,-1.9892788713,-1.7640426224,0.560225246,0.1045036933,0.6025992076,0.0835336692,-1.9716528889,-1.6728558673,-1.8472608049,-1.3381744664,5.5426780932,-1.374209868,-13.3755328325,-1.5800774146,-2.1767881361,5.8587958977,-108.0478681203,-1.7106629875,0.1180953948,0.2791771129,-1.084764343,2.3234183645,0.5621220598,0.5404211188,0.1001393342,-46.6883102817,-1.3006286323,0.5925715246,-0.0464847054,-0.8317275565,-1.6635382319,-1.9944818051,-1.9731758663,4.8068966458,4.7938791846,-2.9859748188,-1.4722118189,-1.6018903489,-1.3583660669,-12.2934331195,3.1416413837,0.8080140051,0.3615481507,0.4950806761,0.1823422383,-0.8037953618,-1.3641789343,2.0850240098,4.9955843179,-1.1085376428,-1.4121661967,-0.2935171741,0.5500585096,-4.505856122,0.9744607795,1.1203025685,-2.138903762,0.8737734722,0.6438851097,0.3054006606,-1.6655686283,-2.6170233721,69.0238145074,-29.8742650524,-2.3921741969,-1.9007019052,-1.5983259698,-1.9585911508,-0.8175225642,-1.9946773166,-0.4369276908,-1.0543678674,-3.1724637291,-1.7819129934,-1.2938204627,-15.4883292009,-3.328336589,-1.379689815,24.8461307993,4.8005795083,-1.9711605861,-2.0685230639,-1.7942309016,-2.098945513,-2.2679818402,-2.1452587957,-6.1933028875,-1.7898658848,0.5855144314,-2.1563244624,30.4472813767,-1.3095129263,-0.4320154286,-3.4219885629,-1.698885042,-1.2318812494,-1.4826356661,-1.8384838552,-2.4270591657,-1.5826923841,-2.104611073,-1.8574497945,-1.9387864071,-1.8199485738,-1.4583330267,0.3236904824,-1.6586006046,0.5753564584,-1.4551007988,0.6467397929,0.287193742,6.6277426822,-2.5749804877,6.6686530434,-0.9044003817,0.2000759556,-1.8476064794,-1.9702478563,-1.9555025607,-1.5485671682,-1.3851168994,-1.6339839128,-1.7114347742,-1.5937767924,-1.5419502477,-1.9523779702,-1.7149329058,-1.3712587589,-1.7675721799,-1.9092144302,-1.9446704015,0.3926290968,-1.3208093449,0.2309625227,0.232500381,0.2128344505,-4.1015231559,0.1548449791,0.0478490568,0.1392019151,5.8484002051,-1.8848112742,6.026852959,-1.5429224063,0.5336547994,0.537906994,0.3064653455,-0.2850747686,-0.5272451765,-3.2088001945,-3.1526605915,-2.9196160786,-2.9701585427,-3.3897971563,-3.5793943276,0.4999115328,0.4500366367,0.1515188391,0.6299203811,0.0938231297,0.5358087244,0.2093046496,0.1816300528,0.5799040152,0.5238409325,0.0801838347,0.2994445944,0.3500320036,0.3051085801,0.3183311333,0.6135625664,0.4371645337,0.2264823848,0.5205921431,0.2480209553,0.1086889928,-0.6381803561,0.2415740931,-1.0187943137,-0.5662689984,1.6122763434,0.2501923087,-2.3611588461,-3.6803061677,-2.5030273955,-4.1029999595,-2.1439685172,-3.9075754137,-1.6029202657,-0.5084794298,-2.343395743,2.811366809,-1.9654807051,-1.3284728883,-0.2227502819,-0.4404782923,-0.6737419259,-0.8567550552,1.4656160928,0.9475875197,-0.7880989789,-0.7074736091,0.1429576176,0.1849891083,0.588997233,0.0366115488,-0.7136963695,-0.6469037434,-0.6682901774,-0.7143374333,-0.5020431732,-0.3895028491,-0.2628648541,-0.2203757189,-2.6837601678,-0.877121583,-0.8284860663,0.5574371091,-1.7266858971,-2.0828534892,-1.6330291866,-1.7182274503,3.8549664612,-1.2711007741,-0.8353698734,-1.8823431717,0.6742935265,-1.4473367945,-0.7760435693,1.0835173933,-1.8290837672,-0.6860338843,-0.2242154202,-0.5511984398,-0.7350089646,-0.5275817877,0.2149043876,0.7020924141,6.5345515824,-2.2048733302,6.8387114072,-2.6432402316,-2.5536390777,-1.4624517593,-3.7645547671,-2.3493981208,-2.1064951361,0.5726521241,-1.6758673471,-2.24153594,-2.1784074813,-2.4768208285,0.1497722687,-2.1618572133,38.6139332354,-0.6751219622,-2.5335845767,-1.3011948067,-2.073635238,-1.6374554629,7.1744012522,1.9715424925,0.6252108073,0.5448158337,2.3746051005,1.0088386427,17.0880690867,25.1922672869,6.0055478889,1711.0383421959,0.4183829417,0.1561886546,0.8355851431,2.0790901514,4068.2527784588,0.949357297,1.4252121808,1.0111922256,0.5496031539,2.2260274734,192.5525426778,261.5655821553,0.3668829103,3.9561338204,0.5897233435,0.5467922579,0.1221429387,6589.1405437592,0.5225981048,25.3384218282,0.4474621723,3.9775282906,0.6103308482,0.192928203,0.6118149666,0.2628021266,0.3911919439,0.2990032605,0.2529487794,0.3325897697,0.6537280938,8.7642468309,0.3440741971,0.5679955649,11960.7675415905,38.8139043545,45.361532032,756.9942629123,4.2295883163,0.8937508198,0.7985906287,0.7543901439,0.4510318499,0.6793636605,0.4341177303,1.9737250891,0.8969469919,1.0483553822,0.4039534505,0.3445786304,0.4365661235,0.1808923975,0.7112571284,0.4460267869,0.5807358755,0.3045769273,0.1168227408,53.5227025681,38.6912958349,0.440461762,0.5720511121,0.3060374331,698.8173620005,1.4402752083,7.8073023347,16549.4573059339,167.1032588478,0.0872962192,0.2999312233,1.7499540117,0.4902689778,0.5907755712,0.4475444415,0.3082547957,5276.4763538345,0.0684825373,1.3865266703,0.3900701553,10.5715756909,0.4891083669,3.0126510964,0.0047856091,1.1503278821,6.2222147483,0.1690918622,0.4184570964,3107.8683789996,0.9990843112,15.3230812385,11.3761470026,2.7656469662,3.0878837615,0.0115060345,0.5979674973,0.6491373827,1.8856023872,415.2202104722,9.3917841351,0.8761107215,1.7116660341,0.9189998352,0.6482132086,5.6366181152,4099.8165526612,14255.4065375971,16610.0222745758,0.4218716713,0.3991618011,0.3068351086,0.3126627826,0.8993526244,72.0049008759,15835.6462913239,0.0787684355,0.5980779655,0.0340384778,0.2829223297,0.5557817203,18.7880159397,0.9280264773,0.0757521857,1.7727438374,0.2813179133,0.7149152551,1.1315754121,0.5265881126,0.4350707536,-0.1343254853,8026.1386902089,-0.010544971,0.5815459193,0.3131265898,0.4076418043,0.7692873506,0.18178022,10.5577130214,1316.7467502499,2.3197947373,25676.7542494869,21868.6674908579,0.3772968932,2.2324316491,28.0564147659,0.5658674369,0.3329129785,0.0485793349,-0.0271092914,0.1898982015,0.4689315334,1.531892333,0.6633311839,0.6071449057,0.4819050257,0.2366814977,0.283969021,0.3933117747,0.0978236054,0.7089970053,0.6719937471,0.0273694466,29893.7098671156,4068.5019784732,29893.910384748,0.9512514882,0.1057334589,0.1825220009,0.3801629428,0.1621617288,0.5404123439,0.0472959835,0.4016035775,0.5184419742,0.3759081721,0.2099545219,0.2361819917,0.2960905368,0.6595426124,0.0959951489,0.2948281225,0.1063903225,0.2372205351,1.2072888753,0.4870263538,0.2044412172,0.0420122326,20888.0345952032,0.109670494,0.3630666727,0.1660441541,23795.5505662408,20441.0967682423,23795.4353993457,20441.6274633976,0.6246440913,0.4832028008,0.6220628332,0.9022645301,0.590505728,2885.6444852271,2885.2763906947,2885.7613683952,2885.2464733903,2885.4736490605,2885.41410028,0.6950294459,0.2368266998,0.0347808725,0.3813218587,0.3718536666,0.6557843738,0.4841498488,0.4761942925,0.5065765455,0.307462592,0.4358842214,0.2383611623,0.3700860413,0.6418280019,0.3062672916,0.6446371066,0.4117864758,0.4737287092,0.2490173207,0.6152217224,0.1284841796,1.2435653052,0.2531446017,1.4678077245,1.1019886196,4.6247490239,0.4747206718,4068.2178354778,971.984409635,4068.1171427612,972.1038703759,4067.893543478,972.0301704411,18143.0812464604,1.008969184,0.112823719,20209.9679261795,0.4912282605,0.5371530167,116.8168911352,116.5269801873,4.1675026221,4.120317481,180.627092557,180.1559957301,0.8368824473,0.6590312092,0.1123794436,0.1782320591,0.4641080587,0.2765902426,1.1245546334,0.5817918724,0.8982873735,0.9923038993,1.17350544,0.7550006793,0.7111111351,0.6607865583,1.4472144644,17270.5050777972,17270.6026599243,0.4671711245,12107.4445585145,3902.7858221744,18142.8235898173,14.8813471972,1.1682804169,0.5530199051,1.6631978147,1.5292075354,0.669202635,0.4182119412,1.1902921345,3656.2375203886,1.1620712308,0.8648841492,0.8720044507,1.1413643828,0.6382555615,0.5937362621,0.2844893267,0.1380741635,29893.8340996602,4068.4012364626,29893.4996211026,4068.4052535777,4068.2459210403,0.8884427648,971.6120818865,4068.0574109054,4068.4013664939,0.0509898602,13513.2987064094,4068.0009027061,4068.4466136549,4067.8608644672,0.1972147263,11518.5671871557,17736.1411767342,1.4551220018,0.3193345787,0.9957924425,0.5224393142,0.6303098523,-1.6962264693,-2.5143698912,0.4888289799,0.1772409022,0.3981379301,0.1768215244,1.3684270504,-0.7645237949,0.5715879334,0.082791265,1.7262961836,0.2179667624,0.8592913232,-0.0522212782,-0.2183694225,0.3751983731,-1.7498070064,-0.1305957937,0.0176886984,-0.0730062006,0.3226724489,0.3677280763,-0.3470862999,-1.5473602748,0.5257788445,-5.0045588195,-3.3684419425,0.1649904925,0.4370073369,0.8292751549,0.3318232333,-1.0684986224,0.5048817998,0.0782129519,-1.8664722165,-0.8525018798,0.0902697981,-3.2479137046,0.1405437915,0.0609830686,0.3270130768,1.3609583441,-0.4920373722,0.0332917979,-0.1359114383,0.1933571226,0.300727368,0.1767840074,0.301684624,-0.1184647661,1.4602314587,0.2041868225,1.5206777901,0.1897331923,-0.4159814583,0.1345981407,1.1171394075,5.0447068032,0.1715661052,-1.0729670288,-0.126172061,0.0595713742,0.0566348923,0.3872358757,0.5478494018,1.5650010867,-0.0044126466,-0.2018539563,-0.1823158143,-3.4951303165,0.0964290722,-2.0924785691,0.0007968312,-7.8290411855,0.2591639257,0.2628677272,-0.1789569702,0.438585614,0.2525260094,0.6496730851,-0.2314561756,0.2743279626,0.4849723493,0.5842337603,1.8034613298,0.4707289603,0.2283278528,0.314557976,-0.2477136856,-0.5685293166,-0.1795605998,-5.6339573005,-10.5292942395,0.766665554,-5.164421522,-2.0770721911,0.0511273779,-1.5600994454,2.3436122061,-3.5848967073,-0.7540185684,-13.6440628656,0.1032526676,0.5831598621,2.7990356597,-2.9141055657,2.331232591,-0.2068160164,-0.2713193496,-14.6403462903,-4.9023366351,0.5504944148,0.9168299812,-4.87242252,0.3585147874,0.3986849661,-2.3434634628,0.0834266945,5.4977942001,0.363930001,-2.6816101883,-0.459110978,2.5308765471,0.7177564444,-0.9982125806,0.2518621944,0.3537618743,-0.0266331015,0.2220204278,-0.1651433974,-0.2296047553,-0.2810676768,-0.0629081946,0.3560387767,-12.4058494518,3.2294437948,-7.9532610725,0.5581838272,28.3852125717,-0.2027671954,3.3216140069,-0.0427397809,0.1026078445,20.543489614,-8.4128075402,1.16725968,-0.2193473276,-0.3058502196,-0.0506877788,-0.2755971131,-0.2319702545,-0.2320925676,-0.0743686017,-0.2809763332,-3.1793763699,0.3445261317,0.2010465144,5.6116125505,0.1759322033,-2.0864256635,0.1823506952,-0.0953264702,0.1955366653,0.0812727737,0.5040441545,0.141335772,0.5064200779,-0.3017454982,0.0892868509,0.6564755051,-0.2625206549,-0.2700085496,-0.2860691703,0.0362046935,0.2380824714,0.396255935,0.1815616503,-0.1454327799,0.3901139158,0.0954159851,0.3548875912,0.0950079066,0.1946617052,0.2872719001,0.3187189202,0.2547807474,-0.0889448072,-0.2193138954,-0.1792825183,-0.2083832106,0.3281560713,0.252422877,0.6676703021,0.3466983385,0.1199950851,-0.2810916502,0.542327481,0.6751383081,0.3645010445,-0.1675341348,0.1904408946,0.3398439313,-0.136457544,0.1093194047,0.1384701604,0.0488828277,0.1938212751,0.4882654609,-0.1431601811,0.2784516514,0.2272408995,0.3235019871,0.1010374709,0.3931321848,0.6292608092,0.5700090632,0.0385330695,0.0708242189,0.1609228574,0.4519439825,0.6192641073,0.0528227945,0.0649954498,0.3419746116,0.6017077551,0.3409999397,0.1195802433,0.0757148025,0.4379659828,0.6352861044,0.0102852929,0.6597806518,0.7094120247,0.0852606724,0.27085494,0.5296642766,0.2721168309,-0.8766103892,0.2260188984,0.270805561,0.1879608134,0.1623350996,0.0044801687,-0.0866112507,0.1433958476,0.0941526361,0.1466034384,0.2597686877,0.1796277586,-1.6688115555,-0.0899916517,0.0076944367,0.0718294958,0.1887593012,0.0494592441,-0.0704599506,0.1214075059,-0.0783808095,0.2490040964,0.161902438,-0.1930030159,0.1540404951,0.1626031116,0.4079091025,0.4197198696,0.5232721366,0.2294408754,0.1023148472,0.2065330978,0.4314303071,0.256448214,0.0786777697,0.4519869244,-2.0283730899,0.2031428391,-0.0453064833,0.08421243,0.1099876567,0.203865121,0.3703079311,-0.1122459898,-5.5739417255,-2.4553527481,-0.2815787507,0.2840711138,0.3956703353,0.8216509062,0.5230876014,-0.0848989954,-0.2747942464,0.2908179554,0.2586705247,0.5989516569,0.5699586985,0.0655239087,0.1325299745,0.0237590495,0.0488978499,-0.2587165384,-0.044672537,0.2591866828,0.2969738573,0.076077506,0.1495155646,0.1794985318,-0.2949570445,0.3005215394,0.230064379,0.369787035,-0.2059287323,0.3240155478,0.2936415835,0.2786760896,-0.2099549921,0.2163314146,-0.2362027179,-0.0638506189,-0.3736349589,-1.024098064,7.3696550042,2.0613361827,0.0761865607,0.2239069691,2.4658143992,0.4778507877,16.7253575791,25.9366851615,6.0803141768,1711.6524496405,0.6052560092,0.6397138801,1.131369531,2.4886111494,4068.5340929549,0.7970164566,1.9976993215,1.393473062,0.7790077507,2.4936369797,192.6390713588,261.7956975347,0.9755828835,3.9079710697,0.6148271291,0.3443560982,0.8088399058,6589.4485664686,0.2007512573,25.3727098759,0.2311220114,4.0542336511,0.5475719214,0.1586635853,1.1510066965,0.5765223902,0.5178068658,0.6796859848,0.1807107463,0.0885551546,0.5263776236,8.3386284353,0.7920004861,0.7506998133,11960.6485747897,39.2176868648,45.5413057223,756.811220146,4.1724112766,1.0972045446,0.8456636148,0.4807641143,0.7427608256,0.331192164,0.4461961675,1.9147154799,0.6505106219,1.0541669157,0.6529231021,0.7186654504,0.7037583835,0.3388015101,0.4165804917,0.3264671884,0.6865941272,0.6636999125,0.2922946214,53.7370525878,39.2320386756,0.5789342706,0.6605563802,0.2039258664,699.1782823422,1.5572568409,8.2748376544,16549.4116180588,167.3051135397,0.647746538,0.2657885985,1.9547054598,0.764226766,0.3290369538,0.7120520279,0.5296971713,5276.3075938458,0.4739992451,1.523608675,0.2182446334,10.5314081512,0.893549347,3.167027105,0.1228256976,1.9659642332,5.9813926199,0.3168640052,0.8224536882,3107.4398737571,0.549443084,15.1568823044,11.2545193352,3.0293987977,3.4979703422,0.4874102842,0.6791522405,0.6745246041,1.6654864669,415.7411978897,9.0658007791,1.0493091603,1.6230325367,1.1345832772,0.7527998928,6.1081222606,4100.0352576216,14255.5776035938,16609.9624941673,0.7806107919,0.421946131,0.7937716867,0.3010468882,0.7876802886,72.4861656893,15835.5665256475,0.0071366934,0.7993501167,0.1463316785,0.3965542967,0.231852137,18.8755126441,1.4146069729,0.440041762,2.2814534851,0.3742098684,1.2838956951,1.2360303798,0.3429755512,0.7264468635,0.1640765647,8026.1756468066,0.4326881069,0.4444283392,0.0400965984,0.1643842782,1.1904487579,0.690890649,11.0370431593,1316.5291371997,2.4693342129,25676.7697749327,21869.0231143687,0.3973887795,2.6007618407,28.3699003682,0.4535307413,0.6692339915,0.674853785,0.1887960888,0.5338000393,0.6044308348,2.0331761897,0.2249812218,0.559761955,0.8530387988,0.4029293551,0.3013920856,0.346582434,0.4753212241,0.8405992888,0.3158827205,0.1521854973,29893.8333445384,4068.531366979,29893.9012602942,0.8547700001,0.4938581968,0.4363670749,0.2396269793,0.27221483,0.5959323381,0.3838873074,0.4530682894,0.5577403815,0.4081880718,0.640756281,0.1954398633,0.6375009939,0.3280361744,0.301276224,0.4992629785,0.5977371403,0.4972069858,1.0164709791,0.1945739279,0.6486197662,0.0799400451,20887.8022286684,0.164710391,0.3627121324,0.0399548123,23795.4572537882,20441.7392325626,23795.9524441028,20441.3118626033,0.075531761,0.3624059692,0.3818931733,0.6934792262,0.9923901097,2885.8427926095,2885.2982086632,2885.5660858694,2885.2673461797,2885.5248815494,2885.5518627149,0.4869140024,0.6351922032,0.2494149821,0.6641334402,0.1173624591,0.3598112835,0.4841029778,0.6769280301,0.5005120518,0.3007597437,0.5512941962,0.7021731284,0.250710434,0.3417035699,0.0195645635,0.5252238477,0.5399689483,0.5265264635,0.1045088591,0.27217282,0.0853507763,0.8731114001,0.5530259961,1.8018337193,1.5109265215,4.3726696798,0.6243173762,4068.4192453719,971.7611556354,4068.0089475851,971.673947277,4067.9737614473,972.0771705345,18143.4796363426,0.9256009193,0.3640286922,20209.8197277463,0.3499285004,0.5851557717,117.003394752,117.0884571096,4.3898171133,4.4514193735,180.6988330246,180.6679978257,0.8705055957,0.909404095,0.2621666627,0.0575065671,0.2728404376,0.4246747404,1.1135676508,1.1223966597,1.3393237452,1.2049705701,0.8685935039,0.8015116057,0.8986449258,0.6996423404,1.6371577559,17270.696756291,17270.5753314779,0.1117526942,12107.489585445,3902.4581295837,18143.405334426,15.2465036646,1.1452241386,0.6929853108,1.8166828609,1.1850401244,0.2237018397,0.3704421186,1.3099089301,3656.6611618451,1.102085306,1.0473414526,1.1577846888,1.1298437014,1.2791346032,0.6829224186,0.4928000921,0.0423012738,29894.2483916597,4068.3629611551,29893.6284488363,4068.2304100591,4068.2585370703,0.7142934977,971.7761660968,4068.5559276691,4068.674885816,0.3461825255,13513.9319415762,4068.0691490819,4068.1043907981,4068.3741657892,0.2528706382,11518.5860103481,17736.2510610066,1.1644973654,0.6903418739,0.8739530226,0.4583149542,0.7775876516,0.0558691677,-1.072852544,0.6833206331,0.119725592,1.1298039015,-5.9773421641,16.8267277942,0.1239065689,-0.2551691821,-0.914341343,-0.0612104871,0.2538324384,2.1751418704,0.0609395304,0.3933522097,0.7450258862,-1.6256124652,0.8837546164,-0.1136934416,-0.1008150278,-0.1374919534,0.8044000015,0.0258256983,-2.6869015782,0.0775225974,0.6516135778,-2.942604115
   0.1935247357,0.5797884508,-1.8322463496,0.3804833204,-0.2541425078,-4.0926748451,0.5683479282,5.1538362014,-5.2833272945,0.388486016,0.9199466684,0.6709435654,0.2793904051,0.612738141,-1.0531412949,-6.409062884,-0.2453163216,0.1431180925,0.0151137922,-0.0296516996,0.3724873108,-0.0013494322,0.2519342758,-0.4528251077,-0.5381322704,-0.0589001275,-0.2568341554,0.4863209127,4.0935173716,1.706172763,0.7938552186,0.16578305,-0.3367706757,0.1860284903,0.5066112035,0.6004661597,0.1981185365,0.2122520448,2.9456314246,-0.2609178685,2.6202426505,-0.0853375514,2.4519487041,0.2175710303,-1.9222371794,-0.1874798789,-12.0073095986,0.1161795969,-2.8943447085,1.4641949355,0.2090327497,0.5334976306,-0.84043253,5.3617596875,0.6025853116,0.6126353107,0.2736541328,16.6606785123,-2.7192230449,-0.6861362774,2.8855185686,-0.3397672585,1.1891783134,0.0549053777,8.1860763526,-12.9607305698,-0.1934986673,1.2358948987,1.964160449,0.2623613048,2.8623001319,4.441914606,-4.4775890684,-0.3342282313,-17.8863652885,0.0386528696,0.1231537533,5.942479063,-3.1696963265,-21.6178009768,0.3070112338,0.1323678609,-5.1897280772,-5.1357841674,-4.2593094319,4.0918807605,-0.5556643341,1.7184068337,0.5456151023,6.8385206047,0.524824712,-4.6846571208,0.1665678471,-2.4260821096,0.0462273711,-1.4013750998,1.1305708341,-0.227195059,0.8025729517,-0.1801318649,-0.2867462831,-4.6814173084,-0.0300626078,1.8355825895,-0.1814072226,-0.019257331,8.7913469401,26.856589188,3.7332617855,0.4547811441,-6.3969299187,-4.3560140184,11.9424256797,-0.6626200472,-1.7063998726,-3.5104350141,-5.0694289304,23.4092726271,-0.0797461952,0.1935716299,-2.1673471734,-0.0887817151,0.3769384117,34.3677255041,0.0690862681,1.7290560375,0.2677170626,0.2619845568,-0.3042617242,-0.5730065963,1.1909798597,0.0495708151,-0.5132836509,-2.5947825466,-2.4567736613,-0.311919529,-0.0486041016,0.6216132096,-2.055278108,0.10746624,-0.0661765255,0.0904383632,0.0889621924,0.2391460193,0.139130573,-0.0262542593,-2.4863551245,0.1265197825,0.2317134698,0.3562998117,-0.2590935509,-0.1468812175,-0.0427554667,0.3378118959,0.0728940144,-0.0281153335,0.0311014158,-0.0383078804,0.2787684721,-0.2136000503,-0.3105761016,0.2087148805,-0.0744227607,0.7042090332,-0.5857965309,0.5287639409,0.4668105349,0.0401003529,0.336184798,0.141959811,0.1934343858,0.4543638629,-0.2060797834,0.1891097478,0.153184261,0.1051063043,0.0399995957,0.1428604224,0.5345382483,0.0483250033,0.325928154,-0.9047573393,-1.1454012763,-1.4991128329,-0.9049689518,-1.5617066167,-1.5200881639,0.5877641736,0.4093255977,0.3522958395,0.4576596889,0.3807046723,0.1712639838,0.2880858704,0.5233922749,0.6832611619,0.5594500045,0.2216786708,0.1204335329,0.5305251937,0.6058648943,0.5112390808,0.3919727661,0.1984500792,0.027102923,0.1622176039,0.1916044849,0.1877968916,0.3580890869,0.1138474222,-0.4574639213,0.0133841651,-0.2892088159,0.5795247322,-0.1301317083,0.2667623315,0.0450003745,-0.3603479607,-0.004652948,0.1253331314,-0.1797665047,0.3894717747,-0.737458296,0.16398668,-0.0813652761,0.0449504006,0.2167357964,-0.1528390431,-0.2822709027,0.1886107872,0.363968313,0.1156615771,-0.2518764304,0.2611523966,0.2730667332,0.105667488,0.1427292263,0.5921179182,0.3998459744,0.065717254,0.1903447058,0.2128429366,0.2360967931,0.0990915649,0.1727689084,0.2625808452,-0.5198080975,0.250463968,0.070066072,0.1811285336,-0.056871709,-0.18673676,-0.1297114666,0.3488633406,-3.1973867183,0.0868684584,-0.1499475362,0.0578727664,0.2807192425,1.0690426414,0.2150775288,0.0296947473,-1.1489839922,0.1245141113,0.0044445556,0.0927337213,-0.0375377272,0.3862144194,0.6359220765,0.6139104677,-0.0917157581,0.3062107383,-0.052755351,0.0090514834,0.4587809513,-2.5490122152,0.2281575959,0.0893084348,0.0456294328,0.4039735724,0.152428689,0.0579403167,0.219593901,-0.1696390624,0.4416343038,0.1539895197,0.2245428654,0.0069770577,0.1203925749,-0.0872126241,-0.1963810347,0.1287995068,-0.2970200915,-0.1668236371,0.6943872278,0.0091094309,0.091377058,1.4498821502,-0.2852494247,0.2871850616,0.1113342698,1.1607366681,0.1295847498,0.2680544864,2.1348583324,0.0262979283,0.2500671425,-0.8005584082,0.6207658344,0.8423539613,0.170834639,0.2082611047,-2.5027365092,0.3207889474,0.2483640439,-2.5133569511,0.4642476961,0.1066865482,1.5193306178,-0.1264074242,0.4784205297,-2.6013963128,0.4566135986,-0.0764220992,9.0317633739,0.5606565845,-2.2413407163,-4.3378052352,0.1567381229,-1.5681310374,0.1911705031,0.114639432,0.3573543675,-2.1921772875,-0.7036945455,0.1181285692,0.2753699397,0.1559006503,0.2266087433,-0.0214334098,-0.1094252719,-0.2667440668,-0.1498767035,-0.150696319,0.0169146933,0.0003050557,0.6541504521,-1.3484222074,-1.1883822546,0.28824346,0.5166529827,1.0225660144,0.3112714867,0.3272428769,0.1632404963,0.397296634,0.3088502295,-0.5115387775,-0.0635434244,-31.631719618,0.0220026436,-2.4579137228,0.2399946914,5.6114477126,0.0989978688,2.7151274042,0.3745241366,-0.961008498,0.7516241487,0.0664173557,0.5277465748,0.5639168548,0.1409570179,0.3944753507,0.3446102583,0.5992315509,1.5125045558,21.4665945075,-3.2317273259,0.3369327944,0.0822024481,0.2318205695,-0.1173338156,-6.2011773334,17.0136423832,-0.1888688714,11.4784873014,6.5038442721,-0.1990051465,-0.3583825377,6.0075241984,10.5155406517,-8.5477259486,-7.3399765554,0.2770394275,0.5870825951,0.2611457395,2.3821893444,3.111894722,0.3624918976,-4.7986035601,0.318551443,10.4254841648,2.919046808,0.4827198334,-0.7098390772,4.0735372432,0.1143220125,-10.8675484891,0.0266152464,-2.5879668714,0.3293786707,1.1245647764,0.0902629277,2.2481976904,4.6219694224,1.5593183207,-1.2149449195,0.2154145832,-0.988868503,-1.6511830185,-0.0588673211,-10.1163001592,-0.0198145472,-0.8899761994,-2.2736152272,20.0015294696,10.2954523781,0.3471674833,8.4569152303,76.9443507202,0.0767827278,0.1682711416,1.219302656,1.4779454777,4.3940578318,10.3299805373,8.0598339938,-0.1832935777,0.2784646879,-0.1694129965,-0.2646578591,-5.2481038975,1.4121371561,-6.6567360413,-0.0869424042,0.045744765,0.0356999178,1.1334831443,1.2841292608,-0.0936194794,1.7673942621,-0.0710087457,-0.4002668036,-0.2899813824,0.0249928316,0.1963229482,-0.2633488837,0.3958772953,0.1495396723,0.3297118482,0.2242037639,-0.1869554264,0.2604083773,-0.0431677638,-3.0055549065,0.1408959925,-0.2838761616,0.1979791311,0.2048974512,0.1821652923,0.2878056443,-0.1032351643,-0.2616071978,0.1982373976,0.0187320188,-0.0819968701,-0.2766975761,0.3795219559,-0.0778112361,-0.1452001431,0.1740081545,0.0705044769,-1.2864320879,0.0306698632,0.5882732276,0.4999093596,-0.0230289111,0.6629011593,0.6341353282,0.4094057229,-0.2759721516,0.0796312955,0.381008273,0.1615958742,0.6030269571,0.0836691558,0.438539008,-0.0255981116,-0.1090752692,-0.5541152612,-0.646045956,-0.8466945905,-0.7302565103,-0.3449719906,-0.5429606331,0.3258828373,0.5639849323,0.2218878128,0.0802668835,0.6508221881,0.1487772312,0.3332406678,0.3893430831,0.3761099954,0.5670342037,0.3746009881,0.6963098782,0.4529877018,0.1786920247,0.518472593,0.4918909267,0.2804670277,0.3095366762,0.2407979945,0.4218923912,0.1024438506,-0.3495775269,0.3658990714,-1.8334211024,-0.8159563732,-0.2480161724,0.6783935672,0.191852905,-0.3781112839,-0.1848384463,-0.1859773072,0.3860946177,-0.1907793729,-0.0822720969,-0.3548428869,-2.7983844196,-0.1142502332,-0.4112535881,0.2505499652,0.1456158171,-0.0822529486,-0.1379969904,0.2496060483,-0.2303735747,0.0061102585,0.174918584,-0.3692100683,0.3726110648,0.2827245979,0.0620633341,0.1180270852,0.2188356119,-0.0466829255,-0.1079831287,0.2317767474,-0.2225634834,0.1742688943,-0.2911222614,-0.1650466862,1.7049334512,-0.1301477611,0.0051063483,0.6668096288,0.3363240582,-0.2362335319,-0.0760814623,-0.2128515688,-1.4454366465,5.1490928872,-0.2960709089,0.1828994659,0.5946235643,-0.0056291105,-0.2421209777,0.3356513158,-0.5179234474,0.0469272121,-0.0856734795,0.0244898093,0.1935548462,0.3374013231,0.0001415487,0.5877941846,-0.2369824535,0.2985067278,0.3615410797,-0.0824497451,0.1077693254,-3.0756560374,-0.2664352167,-0.2679523096,0.2604360334,0.1910682429,0.0360707845,-0.0803605049,0.0103085613,0.3025530001,0.4584203523,0.3212328491,0.3373568288,0.3080774173,-0.1890517266,-0.9558120502,-1.598052658,-0.8358597623,7.3870748281,2.1072777965,0.6400329385,0.0983373245,2.4752924685,0.8537094679,16.9651466166,25.611247454,6.0453816863,1711.177434254,0.0708259212,0.1851417203,0.7699164189,2.3735790922,4068.4458003507,1.0264436361,1.8391705795,1.3119023582,0.4370957727,2.5707149641,192.489492197,261.1978462702,0.5641768896,3.7779669024,0.5336623984,0.4908165823,0.3115732538,6589.3281585356,0.6819793852,25.3848083244,0.4810362341,4.0257019815,0.6735271725,0.4874950188,1.1066290163,0.5495986595,0.6111774994,0.8806719069,0.0803021705,0.5762823219,0.2423588349,8.5130113044,0.6839013293,0.3984360417,11960.252779106,39.2397707063,45.639350703,757.1000213223,4.1600851128,0.9231492363,1.0098065649,0.4293145624,0.1523327866,0.7148627346,0.1871073521,2.2189488993,0.4954929615,0.5871775474,0.0670491423,0.3246809811,0.4315022058,0.5799122868,0.1138767242,0.1177739815,0.3044446778,0.1734575226,0.5579443495,53.8192189311,38.8779840805,0.7513096656,0.5630033209,0.4647498801,698.5465174676,1.4689009003,7.9342641966,16549.4920790252,167.6271282265,0.0989421153,0.6766063158,2.2124125866,0.7467804379,0.4806893157,0.4739850367,0.2792748058,5277.0092734336,0.5562925062,1.6348987456,0.7325396101,10.2154748873,0.5194656513,2.8450681972,0.7498903749,1.7159884994,6.6212623478,0.6543740637,0.6473824243,3108.1158050056,1.0435796098,15.2831876477,11.4423441073,2.9965534865,3.2812848513,0.4408214549,0.414518213,0.7065630353,2.0066338154,415.5643139253,9.581111441,0.8856934253,1.7482061399,0.964004372,0.5727510248,5.5952248663,4100.3262061737,14255.6444823633,16610.0118161324,0.6666529652,0.6996866766,0.5223473587,0.5167918131,1.1969363501,72.5058470431,15835.3958008208,0.0422873367,0.1300425006,0.7959150789,0.2172416762,0.5400819169,18.9657385039,0.9561181078,0.4213132976,1.8946001273,0.513217992,1.4197342489,1.0501862171,0.6104046834,0.5172643329,0.0308701212,8026.5609148648,0.2114379177,0.2115317388,0.0554854279,0.2540943679,1.2168575089,0.0618777035,10.6541260432,1316.4641662018,2.5917575719,25676.856874107,21869.055728904,0.3595657897,2.153084543,27.9946604872,0.0906177869,0.3239043225,0.7083626797,0.4073130956,0.6619595891,0.9076713428,2.0203300779,0.1932992099,0.428850964,0.5628244123,0.7872380312,0.38150154,0.2646719054,0.4292569145,0.3785472044,0.0983528811,0.6821245425,29894.2456958575,4068.1055608064,29894.0752018146,0.9824588112,0.0632200485,0.5099409092,0.5556562592,0.6743783153,0.0927619612,0.2746594225,0.6586588576,0.7735212723,0.5960399748,0.432176456,0.6912006939,0.6437827233,0.3501591668,0.5649688003,0.3557641573,0.5543989708,0.6939255093,1.0344016168,0.123881767,0.265821136,0.6038421784,20887.7163755907,0.204059433,0.2904129111,0.1040036869,23795.5393037351,20441.3373200179,23795.8442274397,20441.6002138933,0.4458784432,0.4809986695,0.5055650674,0.685757022,0.7718479689,2885.838143768,2885.3538378144,2885.4839652779,2885.7082902725,2885.634481741,2885.7437590233,0.3499255789,0.3817380357,0.2748601153,0.655977399,0.2661112843,0.4632410921,0.2617883031,0.4740186943,0.6605525642,0.3342147652,0.5316010263,0.4576632623,0.7069458862,0.4073217932,0.1091607537,0.2865490493,0.2487726074,0.54069587,0.6190411749,0.2799824991,0.4926234069,1.0113253545,0.2039851807,1.4411461748,1.8248729157,4.2956527303,0.1350302834,4068.1618506752,972.0721661081,4068.2775703913,971.8021954937,4068.1820484,971.9670269288,18143.5132829112,1.0470423278,0.8602384301,20209.6739571876,0.6022407094,0.3427291391,117.1265720631,116.921990758,4.2968352252,4.2835071582,180.5810575352,180.4860643104,0.7058835865,0.5307958346,0.463679803,0.4583296374,0.4058845904,0.6056671505,1.1359091667,0.9880383809,0.836959257,0.8638989699,1.1843484047,1.3786814375,1.3455136198,1.271299183,1.820378269,17271.0424756029,17270.6443791248,0.6571362793,12106.9983992384,3902.8757967984,18142.8989062188,15.3923692027,1.0481287566,0.3706379099,1.8611530277,1.6976249619,0.201866504,0.640764455,0.6894401874,3656.3002347706,0.8230535858,1.2952709958,1.302013245,0.8151595326,1.1853747578,1.2375832421,0.1248112763,0.1668734221,29893.6940237757,4068.503152319,29894.0827475271,4068.5242219466,4068.2547872731,0.7847333179,971.8610214075,4068.3819031381,4068.2633153515,0.3551052132,13513.6255465018,4068.4502566311,4068.2494795069,4068.44360026,0.4134348167,11518.7339102449,17735.7412007177,1.4466809734,0.4367720466,0.8629406225,0.1760851043,0.2266092509,-0.4651009856,-0.0654006613,0.5883989485,0.3190805686,-6.1632978777,-2.1221439361,5.3169998657,-1.554376412,0.1140645658,-0.0840293018,0.0071684717,0.4733503692,10.8120207086,-0.1771551377,-0.0765435827,0.1275095518,0.1849581554,1.7674791434,0.0113209469,-0.0268911506,-0.3357193086,-0.2341677457,3.3822038299,-12.7298925289,0.2014020109,-3.1573635461,-3.7510460541,-0.3281973419,0.5860852791,-7.4601854911,0.572787599,-1.0310327655,0.0631255074,0.5533474794,-4.9213941645,-0.7543048539,0.6598526532,-4.4794268858,0.3835672068,0.1172417724,0.2725319533,-1.1818634973,-2.2944118467,0.0368056648,-0.2801711825,0.0780311834,0.1422249817,0.1017540642,-0.2642088795,0.5708462961,0.2852350755,-0.2663181289,0.773987264,-0.2136384533,1.5907414759,0.01063095,0.1410031166,5.0327015141,0.1637049744,-0.2155492446,-0.6360841832,0.420138129,0.3927488096,0.1198424442,0.2901985587,-0.8127132761,0.0212041439,-0.5878749824,-0.2582762517,-2.0263555237,0.3736470292,3.5149390911,0.1809400306,-1.4933196218,0.2308470982,0.0998957881,-1.0167045171,0.6004631945,0.4364650414,4.3560488396,-0.155841706,0.2685206426,0.1538088947,0.2103407393,1.9704182025,-3.4866412539,-1.9059476809,-1.8878907373,-0.8993288977,0.6017680088,-0.6501978517,3.1954750267,-10.8497274035,-0.5252397024,10.7093611275,-1.3262309376,-0.1347413199,-1.7116754108,-11.3832066689,-2.8175213806,-1.5416927,27.614295474,0.372206246,0.473809021,3.819707643,-7.6099682669,-2.9206917494,0.236782234,-2.1229964482,0.2828499789,-2.843386538,1.3807494094,-0.4721963327,-2.973992277,0.6650893996,0.1300531006,-15.7387822889,0.5316527327,2.5166619056,-0.3001906993,-11.8953350656,-0.4844452792,-5.5921946367,3.7034954384,-4.6372971658,-0.3384018019,0.3229392076,-3.5592216541,0.5065535922,-5.851994684,-0.3492249746,1.0073567048,-0.4280324591,2.0385749365,22.5541401555,5.7551801123,-2.3961786601,-5.9028961631,0.2088574742,0.0726429251,7.0063466113,-9.5248376728,-1.0159671431,-0.5867099852,-1.5283870961,-5.5204598106,-0.0865856643,-0.5886893859,0.291351641,-0.1996961082,-0.4079003542,0.1073422354,-0.3015918124,-0.0019920103,-2.6106563891,0.0873449702,-3.2764322851,1.5906505024,0.716965492,-0.5788108849,1.0413412254,1.084311392,0.2453261732,0.2888436757,0.3571096434,1.4275752308,0.0157220522,-0.2389871618,0.5259573249,0.0131619133,0.0644867547,0.0389559362,-0.1728620091,1.8742984948,0.1245992964,0.552141567,0.3255398187,0.658000676,0.0280725197,0.0134647914,0.1346665198,0.4964544654,-0.0181209385,0.5603295805,0.5768531377,0.4345813503,0.3263654516,0.6503545148,0.1180362935,0.2816877098,0.5483494639,-0.1286011793,0.3530565337,0.4072312166,0.0136426439,0.3364328457,0.2090463223,0.2450588615,0.2402651144,-0.2877269514,0.0621725163,0.2811597851,0.3667328973,0.6256055259,0.6634985047,0.1770628488,-0.225922948,0.0252200283,-0.1046005931,-0.0443938575,-0.1071896363,0.5341432127,0.1118710484,0.228813525,0.1004554345,0.4433211227,0.3503235862,0.3104235726,0.0806517125,0.6361900298,0.4419386474,0.5463794007,0.612678272,0.4962700268,0.4854122188,0.543027308,0.6410710161,0.0425025876,0.5918393809,0.6431061886,0.3481181186,0.4047887906,0.2578396697,0.7086530097,0.4254181276,0.3664290416,0.6008202708,-0.5188628881,0.2555249342,-0.3184119494,0.6761429816,0.1334758893,0.0195067123,0.0229016611,0.2027767634,0.1663803435,0.1208878573,0.2280974819,0.0028813425,-3.371665432,0.0695268579,-0.1955882761,0.1332495516,0.0277463154,0.1190823955,-0.2308620497,-0.1757408075,0.0759003955,0.1746022212,-0.478567008,-0.0167761946,0.4477470048,0.4547863461,0.4595092933,0.6450835247,0.2025316281,0.3818597371,-0.0267010866,0.1842908128,-0.1570029664,0.3245977439,-0.1209589995,0.2609431899,-0.6639036336,0.0201938372,-0.2619438895,0.0658956772,0.1816110267,-0.1945470942,-0.2413875176,0.112707015,1.3949424788,-1.0404531576,0.0652265618,-0.238480704,0.1779517174,-0.6040922592,0.1705484831,-0.0461566541,0.0644068606,-0.152373832,-0.1368073823,-0.0638601473,0.116859654,0.3447155628,0.0481794017,0.3843198342,-0.0437191923,0.0122872794,0.2267911252,-0.240824239,0.0223596094,1.4589517907,-0.2558927546,-0.3043865141,0.2207481795,0.1352123084,-0.0712292277,-0.0279314797,-0.3112014558,0.1966357879,0.2760488377,-0.2906090891,0.0126833997,-0.0194118639,0.1551732768,3.9284390626,-0.1461522792,0.0455741532,5.3262313597,-0.6950451668,0.1658909816,0.3765400955,-1.5093881167,-3.1295220759,3.1869776159,-4.686343988,17.9819099161,-5.2519730455,-1.8466436604,0.0357330031,-6.9916691712,-2.1000133221,-1.8188793419,-2.4055444291,-6.00478811,-188.9120592581,-1.9060155289,-1.6955635374,-1.9404347162,-0.5318867821,-0.6206744858,-1.1054594329,0.5830773676,-6.0280970098,-1.6169707673,-0.9417814135,0.1379996067,-2.1881938617,0.1496146348,2.0573971953,-1.5124741084,0.4090095214,-2.1651764253,1.6714089427,0.5780165146,-1.969648854,0.3856599087,0.0490615825,0.1427392149,1.7649491611,-1.673312458,-2.0454907665,-1.7059823106,2.8365870528,-2.6977386923,-1.3102541098,-0.6237135791,-1.5745081924,-1.878671771,-1.5217203465,-1.4615587397,-1.6097642025,-1.6710176277,-1.5282443783,-0.988666652,-1.8886970465,0.1173399877,-1.4033869679,-1.8139016377,0.1128714314,0.5620753052,0.1198075853,0.6263642693,-1.9860738034,-1.4792741219,-1.4477824681,-1.9155289705,-1.6672376892,-1.4811812626,-5.2218961477,-1.6512626053,-2.2436945495,5.5770295875,-5.8921364651,-9.2976052133,0.2221436816,0.6168645348,-2.8488924206,-0.5516987625,0.1390918188,0.0858969094,0.1312309901,15.7592291682,-1.6096755806,-1.6586471995,-0.358729533,-1.3920446919,-1.2951436667,-1.7422793032,-1.3671918702,-0.6721203121,4.2956795142,-2.2132570101,-1.4450356066,7.8253405703,-1.3912259004,-4.4749787157,24.0539008623,1.368741274,2.0582805745,0.1011505752,0.1722503435,3.8866047137,9.694292843,-1.5035690307,5.3631496397,-0.4579596856,-1.772707828,-0.8286045412,-1.5562657588,-8.6602839841,9.0664000946,-1.2914456439,-1.8087050923,-1.0611272682,0.3909369321,0.5113863405,-1.9317509958,-2.135117944,68.9217145376,6.6418178312,-2.0588573979,-1.5548278842,-1.8540764705,-2.3080627055,-1.05930827,-1.7250854938,-0.3498734075,-1.8729631374,-2.0592643179,-2.019747091,-1.1173071742,-2.8117577333,-0.793287204,-1.6882210533,6.7116469296,17.3392170555,-1.6375558982,-1.6537600313,-1.8229351263,-2.3545336851,-2.0660884274,-2.2222436612,-6.1708498008,-2.1960291125,0.2807761616,-1.8512154165,24.598070526,-1.6701570508,-0.6743979303,-3.2753641072,-1.4048693521,-1.3883903213,-1.6422851856,-2.1418441614,-2.0018044397,-1.7439946656,-1.4241895649,-1.9244415412,-1.8720186992,-1.5436901561,-1.9000057607,0.644855928,-1.7213542594,0.2541863518,-1.8687054197,0.4399746484,0.0516702862,7.3440127355,-1.748323743,7.7371215099,-1.1480426152,0.5378111179,-1.189917493,-1.5657932494,-1.5927535155,-1.4018750908,-1.3907772221,-1.1551227361,-1.6736478494,-1.5743928488,-1.3913136287,-1.6691455621,-1.611491718,-1.6473725903,-1.5648174465,-1.7588310157,-1.1468100891,0.7013403807,-1.7474795232,0.7075293912,0.4613934518,0.1261788687,-1.9123358319,0.6858255566,0.1840353239,0.0585639941,-1.1507106331,-1.5727524593,-1.8416397941,-1.8766868096,0.4209566165,0.6690755124,0.5009984825,-0.9582977703,-0.3999929592,-2.2621651405,-2.0813081232,-1.7461878326,-2.168705148,-1.8548741967,-2.2384099758,0.3803339285,0.1214829372,0.6722769286,0.4836896586,0.6311717373,0.5783392936,0.0404321455,0.6445383664,0.5626937245,0.5828244909,0.6693570836,0.0232413658,0.5303880339,0.4563340314,0.5670700345,0.5385623773,0.0241817372,0.2352139335,0.6605107477,0.3297102596,0.1814910334,-0.7206747361,0.6734010389,-0.8348519799,-0.8632891664,1.7573190993,0.1385741567,-1.4368924938,1.5310527976,-1.3088882729,1.7593691499,-1.4960840933,1.4856172193,-1.6938519703,-0.4973306977,-2.4414203979,-0.2783087172,-1.5833515254,-1.3188715972,-0.1144500725,-0.2280749452,-1.211233345,-0.8376294204,1.2271005019,1.3145266523,-0.8787643523,-0.7325951056,0.2007961675,0.2006251326,0.6195096697,0.1753269541,-0.6346500021,-0.617364806,-0.7833132415,-0.640116407,-0.7914405041,-0.8046405198,-0.7763052264,-0.6623170259,-1.7882413157,-1.0894463988,-1.3816770697,0.5824735602,-1.7209041714,-1.8458915181,-1.5920744952,-1.5888709937,0.2967426824,-1.1861793981,-1.6865710838,-1.9722400744,0.6151725981,-1.8454840591,-0.6771102344,0.0998889062,-1.5777535855,-0.4232793788,-0.7496718673,-0.9107794447,-0.9991082772,-1.0804946031,0.6221421867,0.1661520852,7.9380220861,-1.8123750228,7.5370497547,-1.4527499732,-1.6040351048,-1.4010212671,1.3971081367,-1.4426376097,-1.2570229126,0.5664439824,-1.8291923242,-1.8281013018,-1.3882701447,-1.5738458067,0.6977807406,-1.5273362857,-1.6179509737,-1.0180829389,-2.1856313441,-0.9598320849,-1.9941747471,-1.9840290509,0.2845084366,-0.8408753787,0.4783934773,0.2393820022,0.5876189909,7.8713296581,1.3799727096,-1.236335425,-0.161212381,-0.1763072141,1.1451718797,0.37294195,0.2790553628,0.1630317024,-0.4255702215,-1.826738392,0.1325339489,0.8865696254,0.1247945126,-0.0228555258,0.2781499315,0.3373933012,-2.0462972332,0.5504653606,0.5436528153,-0.5039331891,1.9180268249,-0.3241874694,0.5436381866,1.8739156098,0.1830573398,0.1120098143,2.7133360873,0.5436891193,-3.5472271952,4.168915821,0.6279596307,13.1721460757,0.3725674511,0.2632896732,0.3348322124,-4.0857018504,3.4790844297,0.3414640532,-0.1531269873,-0.1957763754,-0.6509356312,0.0996214921,-0.3595914212,-0.3623266222,0.2760541613,0.3532929528,3.4410783142,1.4114519583,-0.7398443317,-4.2990613981,0.2027017628,4.8766334143,0.341871718,2.3779238393,0.3684089068,0.0588229945,0.0907542219,0.2229740077,0.5340445908,1.1458624097,0.0665813789,2.7164700935,0.0124515207,0.079697436,-0.3022451351,1.41241654,-0.1097226252,7.4068085407,-0.2884713917,17.1173671934,1.8095293343,0.2029645719,0.2820550942,-1.5531252699,2.5147432267,0.547146506,0.0285901558,0.6466040766,1.4221889215,-1.6384392367,1.800487104,-6.6809885344,-0.380873849,-1.7033479622,0.1052480801,2.0555135574,-1.6807816293,0.2302472675,-7.5916316505,-6.7209294986,0.1454816423,0.9862526836,0.1115519039,3.4863511929,-0.078059502,-0.3121779271,0.2707210281,0.2826275181,10.8692132805,-1.1206290345,2.7594634599,0.2923924036,-0.0824911017,-0.3071867526,0.6369421239,0.8355367958,-3.3363293746,1.96298909,-2.3009781186,2.4695745205,0.6451212463,0.4585000154,1.6637055816,0.1132921682,3.5326248631,-0.0127206015,-8.6915048286,-0.6499598677,1.1802425061,0.2984738314,0.0707808143,0.6370747904,0.2458098203,-1.5543936412,3.0282372568,1.1235022975,-0.3472892783,0.0604780326,8.8341429326,1.5693042511,3.0419437703,-0.6050019094,-6.8612380194,-0.1291944266,-0.792090881,2.1649765519,1.4536414857,0.4312271313,16.9745937038,0.0732556102,0.1017916394,0.91001419,0.2877664617,-0.3542541529,-0.2202247054,0.0257245127,5.0112288834,0.3150439837,-0.3103837713,0.1616244724,1.6167733563,1.2558802154,0.1662179536,0.0034753045,1.3667661256,1.9047378432,-0.2474699042,-0.2678359115,0.4073847778,1.3203109352,0.5471611561,0.3515374232,0.0599238673,0.0331805271,-0.0389569782,-0.1030099239,0.1641010206,2.7261011935,0.6775358895,-0.0354007306,-0.2052697337,0.3725185456,0.2272826233,-0.1508982812,-0.1141724387,-0.064935978,-0.237788183,0.2426545286,-0.2805631636,-0.0447139271,0.3265992546,0.1495329193,-0.2253152739,0.1201468481,0.3277152548,0.3270427516,0.5820761779,0.3600498511,0.6248522367,-0.2548620609,0.4527384919,0.3953597196,0.5622988009,-0.3039842176,-0.0130245431,-0.0036636709,0.0425478199,0.6795306546,0.6179109108,0.1346468694,0.1518777064,0.232564204,0.8522048862,1.3575598264,0.7547063133,1.0479205783,1.1384562595,1.3117693157,0.4167343356,0.1052847023,0.449981605,0.4966747484,0.4818947377,0.0561922206,0.4893221051,0.5695609815,0.661520288,0.5168425984,0.4109269974,0.3265187147,0.1180053614,0.5860649528,0.224546305,0.3667746711,0.1497239961,0.3161677581,0.3765583022,0.3505582034,0.6403307624,-0.1318874925,0.3669311574,0.2015991126,0.1431529239,0.0398796754,0.2875515666,-0.1587691159,0.0464310506,-0.1114320392,0.0880179013,-0.4722951459,0.1146822909,0.2164536768,-0.1407267698,3.4005924912,-0.5883292084,0.0189624508,-0.3037115914,-0.2252767301,0.229380963,-0.3097844409,0.008875866,-0.0986951402,-0.2821955889,-0.0107985749,-0.1728727266,0.4357027335,0.1150407895,0.0604750344,0.6566898101,-0.2557266679,-0.1667890535,-0.3547555575,-0.2078559777,-0.0305618185,-0.1176628105,0.0882422367,0.0709517921,0.2494406525,0.1810110477,0.3497943756,0.6221070647,0.1299110662,0.2799452258,0.2037105719,-0.3055293802,1.9668783035,-5.9163049898,-0.0681837875,0.3035021392,0.1227775617,0.3393253831,-0.3950509807,-0.6275128792,-0.0326589426,-0.0468929642,-0.2780187502,-0.2170775018,-0.1268722887,0.0121022568,0.1218391638,0.4938885185,0.0707973301,-0.5710344708,0.3581818373,-0.0136474192,0.0558348505,2.2986895834,-0.1208170033,-0.0441730565,-0.5819465034,0.2995104293,-0.2264674866,-0.2545292379,-0.3703446578,-0.1963954523,0.3808721016,0.2559972466,0.0398173234,-0.4003270088,-0.0837427173,-0.1957183016,-0.872796087,-0.3656604027,-7.1182383863,-1.0273993668,0.2453382909,0.2428775204,-2.4210632157,-0.1845175982,-20.283734353,-25.459700637,-2.4562652304,-1709.7436179127,-0.4667200075,0.2695275168,-0.939155746,-2.1393915759,-4068.4129867299,-0.5021640806,-2.1182824219,-0.3235022905,-0.1078270105,-2.3185833896,-192.8035760352,-260.4846608208,-0.5201328313,-4.1104541876,0.066802267,-0.2978190168,-0.4116502623,-6589.1916898549,0.4287934336,-24.5211892859,0.638493781,-3.4644420791,-0.2963119341,0.6052016583,-0.8536610654,-0.1928576643,0.1845076799,-0.5934814088,0.1808902372,0.0950281871,0.2229317332,-7.9317722462,0.0666360482,-0.5987080307,-11960.2346699933,-17.6230438381,-45.6500234793,-756.5557755883,-3.0480551327,-0.4731668691,-0.651627117,-0.6007107386,-0.1656764229,-0.0795783956,0.0995648783,-1.8099502741,-0.5752123619,-0.81094936,0.2553324318,-0.0697974035,-0.4278313659,0.2531951876,0.0948379447,0.578288507,0.6301889129,0.1513501482,0.0845615892,-53.7452470675,-38.5892925156,0.2581280112,0.0643990905,0.0474443494,-698.6009133865,-0.9051548787,-1.2555998624,-16553.1599369048,-169.834288047,0.5919512114,0.1794762506,-1.4086486791,0.3310592404,0.4942363621,0.262059699,0.3711532036,-5277.7778268799,-0.2055944792,-1.4428295756,0.0419998789,-6.2126199059,-0.5530911367,-2.8054266553,-0.4347226501,-1.120917593,-0.7419889178,-1.7825324028,-0.8643365071,-3107.6840716074,-0.8971076091,-19.5594490788,-6.2066021557,-0.8919695872,-2.325198716,0.4651247646,0.1184280909,-0.4845177455,-1.4805888593,-413.2970182056,-5.301000326,-0.7301106927,-1.5726351848,-0.6126636528,-0.1355013453,-4.4924149429,-4097.2426567332,-14257.2768804791,-16609.9085592725,-0.2803881038,0.2814035343,-0.5426263305,-0.0335125343,-0.7949928485,-21.8225757644,-15835.6787967567,-0.7241024064,-0.1118996804,-0.2519275579,0.0665213444,-0.313984953,-18.4960287324,-0.5239605319,-0.4544536625,-1.9147056656,-0.3984415123,-1.38932411,-0.9846660262,-0.3160786693,0.0587797063,-0.788951522,-8022.4335155428,0.0842752342,-0.1747813982,-0.535244327,-0.9048584477,-1.3686174018,-0.8344584175,-11.3975339968,-1316.808908857,-2.4619031749,-25676.4824003754,-21834.450767471,-0.01342809,-0.5339016611,-29.6052617789,-0.4516429008,-0.4364255199,-0.0566972098,-0.418407175,-0.6503081746,-0.2850728623,-0.3783669738,-0.0343545649
