encog,BasicNetwork,java,3.1.0,1,1392804829565
[BASIC]
[BASIC:PARAMS]
[BASIC:NETWORK]
beginTraining=0
connectionLimit=0
contextTargetOffset=0,0,0
contextTargetSize=0,0,0
endTraining=2
hasContext=f
inputCount=318
layerCounts=1,301,319
layerFeedCounts=1,300,318
layerContextCount=0,0,0
layerIndex=0,1,302
output=0.0195975172,0.000025892,0.7306283739,0.9993985889,0.0872491998,0.242903908,0.6715936324,0.9999999999,0.9999998267,0,0.9999984897,0.7743884025,0,0,0.9956795801,0.9999610344,0.48494593,0.8744064099,0.4115833702,0.9999999999,0.5148454611,0.7832336287,0.0060290275,0.9999999997,0.7978952698,0.989121947,0,0.8390360442,0,0.632042249,0.0038715846,0.9999978303,0.9999963153,0.0002568776,0.9999999997,0.9999978124,0.4526492283,0.0018755315,0.8672393223,0.016903244,0.0143151438,0,0.9999988356,0.9999956328,0,0.999999538,0.9792211522,0.9999994045,0.9999999869,0.1073123585,0.9999999998,0.9999992486,0.0000659455,0.273482583,0,0.0000310321,0.9999999998,0.7009326184,0,0.9925655718,0.6630218463,0.9999999998,0.9999999994,0.6017745074,0.475275367,0.999696642,0.8335488343,0.929550655,0,0.9414992564,0.9999999975,0.0065038643,0.9999993841,0.999999927,0.9999999999,0.9931139851,0.9999999631,0.3415767521,0.000044645,0,0.9999999992,0,0.3301592837,0.9654024272,1,0.387076147,0.1680927848,0.9999999959,0.9999680999,0.9999984116,0.0004042758,0.7252852126,0.554970053,0.9999999996,0.3277285784,0,0.9999999988,0.9999999984,0.9999999983,0.1142601342,0.9999977557,0.9999991149,0.9999984976,0.7435421217,0.000061341,0,0.9999210893,0,0.9999976306,0.4913878758,0.0000005606,0,0.9959915561,0.9999999962,0.5664728026,0.4547677536,0.9999999998,0.2771691361,0.0000730161,0.9190567474,0.0054813973,0.9999978183,0,0.9999987894,0.9999989252,0.9999995001,0.9973431899,0.9999993498,0.5669515495,0,0.9999999999,0.9435977343,0,0.0000484003,0.5670019934,0.9999870408,0.4182825162,0.0000011823,0.9999843768,0.9999989776,0,0.7720381615,0.9766563447,0.9999999998,0.9999999997,0.9994531863,0.9999882464,0,0.9999999996,0.8615845681,0,0,0.4081025811,0.999979967,0.0000049435,0.0001036647,0.0000733113,0.0000075812,0.0000583173,0.9999996567,0.9999993951,0.9999994045,0.8522873594,0.9676306262,0,0,0.3720290123,0.1616474939,0.268755302,0.3787306118,0,0.9999969342,0.9999999973,0.9991911284,0.860891798,0.9771700903,0.9999995074,0.000165779,0.9999993858,0.999988456,0.4457885058,0.3898306583,0.9999999997,0.9999999996,0,0.9921402976,0.3477367501,0.9999992911,0.9999999834,0,0.9999995796,0.0000699069,0.9999999994,0.5354496455,0.9999990195,0.919449367,0.883343507,0.789411638,0,0.0029353727,0.9711397231,0.5665802947,0.9999977531,0.9999999989,0.9999999984,0.00003264,0.9999997411,0.9982473343,0.6143340345,0.0000008683,0.9916084368,0.8961953371,0.6428523592,0.9956765054,0.9964973964,0.9999999942,0.2965297543,0.9756237387,0.7239761948,0.7251270309,0,0.9999990481,0.999999998,0.9999973541,0.9853475911,0.1171189083,0,0.5955702345,0.9999953379,0.9999006734,0.0005168157,0.9999999994,0.9999994903,0.9592843642,0.0000437475,0.9999999496,0.0000088896,0.9999999958,0.9997623243,0.0000407381,0.9999999991,0.9999971032,0.4505114387,0.6264602125,0.7925425559,1,0.7762451788,0.0252702374,0.9999985745,0,0.9999949951,0.9999987728,0.9999993364,0.9999992287,0.9999999997,0,0.0010523374,0.8983609508,0.9429747898,0.8691843441,0.6299394306,0.9999999996,0.000000391,0.9932557306,0.999997082,0.5888870108,0.1943850267,0.491971017,0,0.2818791376,0.9997560208,0.9999996335,0.0122695189,0.9999998594,0.9999999999,0.082972046,0.9999999996,0.9999984266,0.9999999965,0.9999978277,0.9999914808,0.9999975726,0.9999999989,0.9999979082,0.003275903,0,0.9999999993,0.5096056484,0.3183688666,0.3191728362,0.9969592334,0.4817650524,0.9999998542,0.2847693287,0.9999999995,0.0000229382,0.2872725959,0.9856962626,1,0.5593518118,0.9563153001,1,0.01,0.01,0,0,0.01,0.01,0.01,0.01,0.01,0.01,0.01,0,0.01,0.01,0.01,0.01,0.01,0.01,0.0714879803,0.5393049617,0.01,0.5748445069,0.01,0.01,0,0.01,0.01,0.01,0,0.01,0,0,0.01,0,0.01,0.01,0,0.01,0,0,0,0.01,0.01,0.092638482,0.99,0.01,0.01,0.01,0.01,0.01,0.01,0.01,0.01,0.01,0.01,0.01,0.01,0.01,0,0.5,0.2000006297,0,0,0,0,0.255,0.5164070113,0.01,0.99,0.01,0.99,0.01,0.99,0.01,0.01,0.1364516129,0.01,0,0,0.01,0.01,0,0,0,0.01,0.01,0.01,0.01,0.01,0.01,0.794,0.01,0.01,0.01,0.01,0.0164162778,0.01,0.01,0.01,0.99,0.01,0.01,0,0,0.01,0.01,0.01,0.01,0.01,0.01,0.01,0.01,0.01,0.01,0.0632794083,0.3366666667,0.01,0,0.01,0.01,0.01,0.01,0.01,0.01,0.01,0.01,0.01,0.01,0.01,0.01,0.01,0.01,0.01,0.01,0.1607692308,0.5,0.01,0.01,0.01,0.01,0.01,0.01,0.0517617606,0.01,0.01,0.01,0.1508695586,0.0136188313,0.6748325148,0.2390782495,0.0119981166,0.1813414369,0.1869685543,0.01,0.0294465075,0.3366733129,0.01,0.99,0.0100756202,0.01,0.01,0.01,0.99,0.99,0,0.01,0,0.99,0,0,0.99,0.01,0.99,0.01,0,0.01,0.01,0.01,0.01,0.01,0.01,0.01,0.01,0.01,0.01,0.01,0.01,0.01,0.01,0.01,0,0.99,0,0,0,0.99,0,0,0,0.01,0.99,0.01,0.99,0,0,0,0.01,0.01,0.01,0.01,0.01,0.01,0.01,0.01,0,0,0,0,0,0,0,0,0,0,0,0,0,0,0,0,0,0,0,0,0,0.01,0,0.99,0.99,0.99,0,0.01,0.01,0.01,0.01,0.01,0.01,0.99,0.01,0.01,0.99,0.99,0.99,0.99,0.99,0.01,0.01,0.99,0.99,0.01,0.01,0,0,0,0,0.01,0.01,0.01,0.01,0.01,0.01,0.01,0.01,0.01,0.99,0.99,0,0.99,0.01,0.99,0.99,0.01,0.01,0.99,0.99,0,0.99,0.01,0.99,0.99,0.01,0.01,0.01,0.01,0.01,0,0,0.99,0.01,0.99,0.01,0.01,0.01,0.01,0.01,0.01,0,0.99,0.01,0.01,0.01,0,0.99,0.99,0.99,0.99,0.99,0.99,1
outputCount=1
weightIndex=0,301,96001
weights=##0
##double#96001
   -0.0914492091,0.3305551422,0.302417008,0.0881928474,0.3341139748,0.2753085421,-0.3214676438,-0.1808080495,-0.0154330597,-0.1598818049,0.094214888,-0.0541781586,-0.0577431937,0.0671367193,0.3713790395,0.2352362373,0.3682328427,0.231247878,-0.3141276026,0.3008788819,0.3707523858,0.1140628726,-0.255826914,0.1199915267,0.3029531164,-0.0680555724,0.2636768236,0.054422059,0.3649217681,0.2980189624,-0.1449212775,-0.1545632221,-181.2564071978,-0.2618995932,-0.1801826705,0.3703536112,-0.083146977,0.3590770938,0.1040685902,0.3023602643,-0.0277800548,-0.1825510047,-0.1509141399,-0.0837172019,0.1885746394,0.3110250874,-0.1888107716,-0.2900254768,0.23418436,-0.3088724079,-0.2132626335,-0.126612212,0.3362951699,-0.0455308947,0.0393799603,-0.26369205,0.3804700335,-0.023707385,0.1969982469,0.30829213,-0.2988119252,-0.2545570939,0.3510093165,0.3124004503,0.2342099972,0.3774783388,0.126941013,0.0456351495,0.3100993232,-0.2960252573,0.3180202315,-0.2186546277,-0.1584556225,-0.3128951441,0.3663647466,-0.1950085487,0.1303664656,-2318.1885130199,-0.081400682,-0.2944207268,-0.0275075803,0.247056171,0.2692825829,-0.229871061,0.0862009057,0.2493656647,-0.3219081044,-0.1564767187,-0.2096696958,-1.5151584164,0.2264608906,0.0670913841,-0.2758993187,0.1561766051,0.0113776409,-0.2433526892,-0.2452963921,-0.2861836811,0.1882565722,-0.1466361346,-0.1284557762,-0.2073897877,0.2274190858,-0.0679440686,-0.0791047687,0.0522056776,-0.0496250827,-0.1306814418,0.1590403927,-7.3896340124,-0.0422448148,0.15452644,-0.2917627438,0.2986376098,0.2361758027,-0.2880897074,0.3276529399,-0.7405091967,0.3209673413,0.8812943039,-0.2048612406,-0.0783704478,-0.2240385133,-0.1143013183,-0.1996073457,0.3602981111,-0.2134878105,0.1042941768,-0.0643317801,-0.3095789921,0.3100338965,-0.0594766505,499.8956503289,0.1054842399,0.1324669236,0.3661387104,-2815.4520768137,-0.1264560102,-0.195057336,-0.0206315466,0.1695133279,0.1993448095,-0.3116907806,-0.3106479325,0.1429916153,-0.1635804818,-0.009451855,-0.2596675858,0.064375925,-0.0477144862,-0.0396222405,0.1853041766,-0.1905638479,72.6112102411,-0.065786572,-0.0137662974,-0.0531410016,-9.653486689,-0.1757848648,-0.1567005463,-0.1985966681,0.3103491343,0.1418538119,0.0099677167,-0.0481462272,0.2237438913,0.3515686722,0.2342116634,0.1698660806,-0.0557940366,-0.1752514662,-0.246150371,0.0945872536,0.095912246,0.0551371532,-0.1613344864,-893.3959637643,-0.1868135409,-0.1751752457,0.2324088657,0.2957615274,-0.2338075208,-0.2501693827,-0.0798498096,0.29470604,0.3288770537,-0.1619197483,-0.2571187494,0.0106178025,-0.1241532422,0.2555882711,-0.2829935669,0.069590148,-0.1642524377,0.3268255426,0.1631312413,0.2185641776,0.0428188792,0.2622143434,0.1447765524,0.3353701451,-0.1523720068,-0.2345941941,-0.2851118877,-0.0924085901,0.3637490934,0.107216086,0.2553568346,0.0667141557,0.2752405496,0.3283389038,0.3708151646,0.1940634817,0.0566430208,-0.2577082199,0.2762954387,0.1814506858,0.2904670113,0.3242781868,-0.0687098209,-0.2201874411,-0.3175687156,-0.1386904002,0.1253256402,0.0711357982,-0.0159284018,0.1720193247,-0.1965908315,0.3357451187,-4.6387002066,-0.3235223973,-0.1930958329,0.063707139,-57.1157811078,-0.1653270848,0.2459335348,-0.2457713209,0.2110518158,-1121.3668945315,-0.2598900354,-0.1777173104,0.1025169242,0.1849850085,0.2620820222,-0.2517854489,0.131247256,0.1286055159,-0.2130510919,-0.0457212496,-0.2137407845,-0.1568540217,-0.1159585375,-0.1555015254,-0.3199687244,-0.0620280846,0.1548879608,0.368641429,0.3663054847,0.3596283593,0.3392826284,-0.306655633,0.3294926711,0.3392614241,-0.1708314256,0.2433885442,0.2576529092,0.3604216445,-0.0401305785,0.2917836946,0.0797192568,-0.1922402029,0.2619157311,-0.2178530089,-0.3221175588,0.3610759166,-0.3041098879,-0.2214371036,-0.3132356352,-0.2183609716,-0.2035179561,-0.2123451418,-0.2710360161,-0.1617176966,0.1679066778,-0.0612149817,-0.2859115978,0.2289943595,0.2674675513,0.2977828097,0.0824745964,0.248623026,-0.1427785764,0.1245551084,-0.2295906368,-0.0656953968,0.265847181,0.3222074437,-0.3059592329,0.189179882,0.3052499703,-0.1339680889,-0.0259175298,-0.4069320545,0.5282807912,0.4824227741,-0.4819535685,-0.1458685881,0.5333820739,-0.4662990976,0.0269391947,-0.1095020501,-0.1798581912,0.2935359358,-0.2404941558,-0.2088035204,-0.1466582544,-0.191164436,-0.6150713641,-0.1525486482,-0.4825289668,-0.4017883215,-0.0803701358,-0.3856656987,-0.3832246207,-0.2154559392,0.4173950955,0.1148447749,-0.2176504176,0.0573455028,0.0852308632,-0.1540950509,0.3257147818,0.2436703638,-0.361937248,0.4685825145,-0.0658024202,0.0743642182,0.3344998998,-0.1257748802,0.319607312,0.1980915237,0.5259292436,-0.3981685139,-0.198439048,0.1407388693,-0.4761634522,-0.1063536177,-0.1351519019,0.1534129923,-0.3423653845,0.0654855869,0.1587147833,0.0120858544,-0.0940628931,-0.0170599696,-0.046344745,-0.1272775771,0.0556803348,-0.0608586327,0.1698296718,-0.2417429557,0.066808469,0.488492632,0.1920574571,0.3821968567,0.5349194237,-0.2216389787,-0.3555070549,-0.183039366,0.1453716945,0.0258226364,-0.4816868708,-0.302115146,-0.3161834117,0.0778813418,-0.3123987595,0.1197534706,-0.2649166568,0.10679737,0.1595230407,-0.1935169191,-0.0421309216,0.7096957026,0.4203916589,0.0482422743,-0.6425663346,-0.3514984978,-0.0795299231,-0.0618741192,-0.3490563735,-0.5472817988,-0.4859871385,-0.3336881866,0.0907207448,0.1093947188,-0.8918700704,-0.4992929542,-0.3693852715,0.0953312949,-0.0034947413,0.0101612405,-0.3968699193,0.1378015803,0.3961948081,0.2666587333,-0.1827399249,0.1282922088,-0.2222612038,0.0623265452,-0.0264615479,-0.2212911805,-0.5204656356,-0.3700790145,-0.078611118,-0.2280189651,-0.317622467,-0.3359304528,-0.522206773,0.4492594814,-0.4535001162,-0.3046313261,-0.3507296669,-0.5182246147,-0.698721126,-0.4918461637,-0.5661818656,-0.0403648964,-0.2393697296,-0.1852368725,-0.336997741,0.1040337922,0.1435545767,-0.078117829,-0.0153320772,-0.7738077166,-0.2370508812,-0.1206153201,0.0326337372,-0.3183501346,0.153899013,-0.3200785927,-0.3554701928,-0.2127965421,0.1185511927,0.0405306066,-0.4463866786,-0.4218917449,0.0774257087,-0.1476240491,-0.4668165978,-0.0735463201,-0.0792089939,-0.4643535707,-0.4119898475,-0.1587912407,-0.2449596198,-0.2141072573,-0.3981214875,0.0395233862,0.12102009,-0.4106725024,-0.1926195581,-0.0247198449,-0.3323196062,-0.3281787072,0.3916785631,-0.1769946037,0.55279859,0.0723143952,0.4478284058,0.4280327836,0.0532510195,-0.3072396226,-0.4592603105,0.072004465,0.6212970915,-0.4192775508,-0.1631773997,-0.3140971722,-0.5129182565,0.0387139977,-0.32050661,-0.4717701529,-0.0373844399,0.1592630784,-0.0317242409,-0.374390292,0.1513636626,-0.0170949759,0.0553893816,-0.0485861456,0.5269933239,-0.4073774772,0.4405557149,0.0095881806,0.2730353028,-0.372529669,0.2477680064,0.6516053276,0.394503189,0.0882890606,-0.3823444306,-0.4568108459,-0.152667376,0.4782565189,0.2565852151,0.6334204469,-0.1968635909,-0.2319253987,-0.3046743726,0.0980338539,0.1023897553,-0.0395855152,-0.4323740861,-0.0242788201,0.0299788625,0.0978232048,0.1765170437,0.6772082189,0.4223329905,0.364225476,0.1331213884,0.201562499,0.2878869081,0.3979306998,0.2445067484,0.1182779091,0.2435062907,0.6171263742,0.4155778993,0.685068786,0.0863521165,0.2252876774,0.3109142498,0.170098382,0.5215928553,0.2429773105,0.5371770479,-0.1388666608,0.045833386,-0.4361861264,0.3092217999,-0.4789873782,-0.2630471451,0.1136106045,-0.2680850714,-0.4558563175,-0.0080221646,-0.0844207045,-0.0689327677,-0.4392904496,-0.3960995776,-0.0982471063,-0.0147981031,-0.408116721,-0.0469943025,0.0182125637,-0.4332659552,0.1430066125,-0.3013063158,-0.3625041734,-0.3446083451,0.1883864601,0.5282288895,0.278103598,0.2551692659,-0.4474638725,0.0008761778,-0.1088897179,-0.3245685796,-0.2700031002,0.1134686254,-0.1629725903,-0.3305044984,-0.2549102267,0.1436789174,-0.3905681477,0.5442857695,-0.4691052048,-0.3168464464,-0.0220495853,0.0752609133,0.1048531056,-0.3512137238,0.1845836705,0.1257474049,0.4763333421,-0.2212796155,-0.4558266449,-0.3131435384,0.183426262,0.103383437,-0.3359558144,0.0405256725,-0.2352455834,-0.4297304995,0.3513213506,0.3993831387,-0.3116345313,0.1064857724,-0.2320839358,-0.3371300424,-0.0047545807,-0.0839750625,-0.4268401274,-0.461184443,0.0579995884,0.593087608,-0.0944852493,0.1470736826,-0.4830682286,0.1223026386,0.6517131502,-0.1550575385,-0.0222447773,0.2005696917,-0.1703666702,-0.4910946241,-0.0514030749,-1.1842554911,0.251817627,0.1459272158,0.319823542,0.101387685,0.2997220793,-1.4550866231,0.2633832861,0.2371912184,-0.1239713532,-0.3073582897,-0.0374592826,0.2722834409,2.1846948161,0.3013584949,-0.1869603062,-0.1445845398,-0.1326350784,-0.0009243556,0.25705484,0.162579575,-0.2726144336,-0.0970258578,0.1493142979,0.3641388969,0.0628265376,-0.3304698266,-2.2022469334,-0.2149155994,0.1360296826,0.241509761,0.5517220505,0.239776734,-0.2092432985,0.4025412361,1.633408429,0.1094029555,0.1730906277,0.2039350162,0.5183514347,0.7084594985,0.5963776782,-1.5057287022,-0.7908820503,0.3331157331,0.0700601994,-0.2271208019,0.2158769783,0.2225041876,0.0512849737,-0.1253218891,0.3326050644,-0.0732189417,-0.1248863386,0.165323247,0.5155841515,-0.0497237656,0.2802759441,0.0534694772,0.2769514002,-0.4246499629,-0.1580306977,0.1507178951,0.3193485174,0.1160811406,0.3345695218,-0.0989179321,-0.0432194995,0.0671128612,0.0979769437,-0.1682810543,0.3160385739,0.4298485294,-0.1278256129,0.290967278,-0.0206933453,0.1354658091,0.1388692985,0.3928953167,0.1674076633,-0.2581327701,-0.2407952646,0.4596581356,0.2431722599,0.1626050521,0.6034049601,1.912403408,-0.2049766705,-0.0894589678,0.1934131249,0.3697833967,-0.4869743289,-0.886070596,-0.287754169,-0.1595645187,0.4091177748,0.0002163029,0.1755537892,-1.5398740159,1.3961351791,-0.002545301,0.2382414617,0.5329983625,0.6811518202,0.6364256479,0.7778238191,-0.8727533075,0.253826336,-0.1865727427,0.2655253445,-0.5196471287,0.1885234608,0.3685450006,0.318891913,-0.409476883,0.1021676754,-0.1328856046,-0.0108333874,0.2421253801,0.1711384369,0.3369833418,-0.3740148997,-0.0418210464,0.5353968821,0.0780390556,-0.2530329922,0.1743337923,0.3323684581,-0.2491400972,0.2501110707,-0.1751816496,0.3689552073,0.389051053,0.2428257776,-0.0603533219,0.2142478977,0.3297167723,0.1619906493,0.3878568004,3.9053639649,-0.1993284087,1.5672837919,0.2910561992,0.0042007749,0.3502539059,-0.1647765215,1.2711298563,0.1448657789,0.2825016425,0.0730539023,0.0809605461,-0.1281593668,-0.3103652234,0.4163395331,0.3236500336,-0.2235688671,-0.3000636429,-0.2920400961,-0.1284698403,0.2032058516,0.4274677775,0.1006171063,-0.3302794949,0.3694574951,-0.2665689686,0.6071238792,-0.3251649364,0.4729432928,0.1869255976,0.4203505411,0.1047414421,-0.0951904625,-0.2904819898,0.162061656,0.2161234729,0.3797961854,0.1438191797,0.24303348,-0.3176314561,-0.1393920958,0.1900226784,-0.1335790761,-0.0527166362,0.2414479687,-0.1395597377,0.0052396475,0.2251884853,-0.2489625361,0.0905153908,0.2326733165,-0.2576225514,0.3419392808,0.1650131806,0.6252027656,0.3171283238,0.582083394,-0.228163853,0.6126088776,0.4180577428,0.2921321153,-0.3144890777,0.3792419989,0.3105791604,-0.18287255,0.2833755067,0.2425366809,0.42778377,-0.0211765714,0.2443748076,-0.3021467271,-0.120664541,0.289034935,0.1567838484,-0.0547237243,0.0210000569,0.267928828,0.5775976673,0.5731324662,0.2212257763,0.7125395905,0.1252448466,0.4943300696,0.0240450519,0.3608370924,0.5568796122,0.4368785099,0.5455835209,0.4556979952,0.6046262097,0.6719976747,0.1859005485,0.472363552,0.021435786,0.6865726822,0.2276056712,0.6643726611,-0.0057740275,0.4174667658,-0.3335426204,-0.1177373618,-0.0154742137,0.3051291733,0.0170551103,0.0392863595,-0.0531858576,0.1535310303,-0.0165116801,-0.0524997701,0.2037891945,-0.1210543398,-0.0816413366,-0.1273560744,-0.253358958,0.0259228906,-0.267532075,-0.2279268233,0.2245518581,-0.0875702784,-0.1083996094,0.1171902753,-0.0060557086,-0.4615376025,0.5790081271,0.3734793143,0.1772916432,0.5298469007,-0.0094157497,0.073436371,0.0313572096,0.3283317503,0.3110941166,-0.1363481513,0.0938949016,-0.37233187,0.1508350857,-0.1408653094,0.2237877819,0.4466081343,0.1904400061,-0.0325167064,0.0738570621,0.2441005266,-0.1627359338,0.0664349318,-0.317567464,0.145076301,0.0480013194,-0.2113841696,0.1602299572,-0.1013514249,0.2996683712,0.2231824034,-0.1051733512,-0.0756576801,-0.1507326684,-0.2372233035,0.3274057527,0.7092985909,-0.1320138557,0.3124806501,0.2371813981,0.1049679227,-0.2202799059,0.203514408,0.2529105937,0.0911867589,0.0414437117,0.6260124294,0.3219175012,-0.297611772,-0.2208268305,-0.2839537247,0.2860099399,-0.0379218047,0.0769514551,-0.0605283717,0.2975681125,0.2070710212,0.0436366489,0.3267130033,0.1705376523,-0.5690319946,0.2574305408,0.1343649008,0.2280356115,0.4297097037,1.7458367809,-0.2446839394,-0.3145826276,-0.1092500825,-0.107717536,0.6304365958,-0.6219846065,0.3840081213,-0.0963722832,-0.2342669649,-0.0887390865,-0.847875566,-0.1421012061,-0.1172730286,-0.172575039,-0.031298262,-1.0336611793,-0.0290017177,0.3049815892,0.1161889842,-0.5539661653,0.1499797703,0.0910293849,-0.1234941368,0.0654450939,0.3055306196,0.2234113171,0.6115523182,0.1979325679,0.2482749878,0.4623489866,0.0487722321,0.3938286689,0.1795783641,0.2054247865,-2.0778060027,1.6959609388,0.1847204568,0.1966245712,-0.0852389761,-0.3001214383,-0.1985312193,0.0932282579,-0.0622542297,-0.0398970863,0.1459614879,-0.0151532006,0.2600087414,-0.1730744549,-0.2506894238,-0.0388271243,-0.0150751196,0.1884380358,0.2950197017,-0.5916117995,0.3865588411,0.4178082494,0.227232912,0.5606771518,0.164839798,0.1341521322,0.2230383618,-0.144671062,-0.1640322172,0.3366252537,0.3390904729,0.0802764964,0.4793183934,-0.3030479407,4.7403516274,0.5539533972,0.2370548788,0.172947864,-0.0565399044,-0.1656966556,0.188655707,0.180404656,0.5039542359,0.0488437196,-0.1033389619,0.2919768207,-0.8121436882,-1.4154471837,0.0866521856,-0.0790768227,7.6805585179,-0.0503076304,0.0626740428,1.5503300308,-0.3780595575,0.2266655047,-3.7524937582,0.2765508559,-0.0483218009,-0.3145416573,-0.2428045995,0.6026585284,0.5549060461,-0.7132889436,-0.0538735653,0.2091823913,-0.0812801627,-0.043186465,-0.6418160912,-1.860574733,0.3155401913,-0.1149925769,7.6076615567,3.2255663693,0.3602589298,-0.1996258778,0.4021831305,0.2372645783,0.0253630064,3.4389659989,-0.2420313515,0.6604476333,0.8580956993,-2.3714862368,0.2846132064,0.0169295487,0.3377312686,-0.23142102,0.0164747752,0.6120524998,0.4495904406,-0.0077589012,1.1908992739,0.1154872157,0.1433814689,0.1779927103,37.6312169019,-0.0337341625,-0.169263518,-0.3769185034,0.3992943704,2.2402412094,0.1813903998,0.3184056613,-0.094614163,0.2415604306,-0.0419409282,-0.004757946,-0.1351358458,-0.0529506484,-0.1308576423,0.3865508404,-0.0053113303,-3.9460321942,0.0566995273,0.2422647421,0.1791363502,-0.3225312649,0.3084242934,-0.0228262758,-0.1460348681,-0.0317319707,0.3705035789,0.6689249659,-0.3203444713,0.516972226,-0.3029236822,0.425702001,0.0358901993,0.0209258388,0.0312385059,0.2563836621,-0.1562160051,0.2556229121,0.2815047245,-0.2242653244,-0.1247697148,0.2078845122,0.1693411053,0.3118884694,0.0162850736,0.2313592563,-0.0884233865,0.0728799098,-0.3085708994,0.2010284946,0.0517542627,0.0811787393,0.0063568802,0.5465573876,2.9261450856,0.0877777463,0.025489731,0.4134578575,-0.2559551563,0.171337229,0.1401527778,0.4787236893,0.2791848649,0.3836131813,0.3152928981,0.0451024063,0.5587620433,0.5911659061,0.5138916658,-0.1864830746,-0.1023630087,-0.0261445353,0.054542001,0.0659581013,-0.3103537648,0.220333392,0.1121443198,0.5222242846,0.3208500841,0.358085863,0.0181362896,0.4519937871,0.0337969609,0.0123188442,0.127161148,0.4937996245,0.4671219251,0.4030550137,0.0806639433,0.4547331486,0.4237657387,0.2008949106,0.6153520857,0.2622054216,0.5884425602,0.4062539867,0.1974605564,0.3316118861,-0.3179626779,0.6982393398,0.3426792383,-0.0329483304,-0.229170626,0.6382081225,-0.2560632479,0.2300771249,-0.3150520923,-0.0212671373,-0.084586368,-0.1380818869,0.3113767097,-0.2071679522,1.8515934925,-0.2161366151,0.3046191686,-0.2505690242,0.1024431815,-0.0898766285,0.0797364927,-0.0995186058,-0.1726456422,0.163722563,-0.364415068,-0.286102589,0.142194434,0.4049800377,0.5394300612,0.5017024472,0.2563169936,0.209715263,0.268202611,-0.2406126138,-0.1188239771,0.1490287507,0.3255767197,-0.1087691442,0.1436896721,0.1111707303,0.2523275352,0.2244664496,-0.0140047239,-0.1552651079,0.1766750358,-0.2815553647,0.3227169119,0.2989240492,-0.1909411667,0.1583644445,0.1774590231,0.1064506555,0.1951722733,-0.1774680285,-0.0840485223,0.2872759196,-0.0680164941,-0.2962806818,0.2176404268,0.1296351234,0.5803820268,0.7053219803,0.193835623,0.0440564322,0.344941257,0.3203154703,-0.3240669228,0.209941976,-0.2995665522,-0.3214231744,0.0377039539,0.666425707,0.1245590568,-0.0725634292,-0.1192132449,-0.1470877937,0.4154787844,0.0630694548,-0.0138185829,-0.1916734262,0.2828211903,0.3281275051,0.1786197468,0.2119020066,0.0993833597,-0.1741852972,0.2607968895,0.1249566097,0.4806519876,-0.2896373091,0.8988102445,-0.5403109808,-0.2030777381,0.3824737176,0.2856345433,0.3493550471,0.316306399,0.4186060286,0.290763697,0.3278128159,0.6958992168,-0.1124354614,0.1433368071,0.2038393769,-0.0026365584,0.1657257421,0.0060474433,0.3172663277,0.4321495749,-0.0676270628,-0.2132523049,-0.0179285574,0.2908323527,-3.9391664455,0.6468256147,0.6610692037,-0.0276179004,0.1777347714,-0.4683250536,-0.2040844027,0.1156876607,0.299568832,0.4415191096,0.0727543102,0.555619532,-1.5241951699,3.509480608,0.2845891948,-0.3004422892,0.3506373637,-0.2820817991,0.3135598326,0.3367026636,0.2861558785,0.2562936609,0.098473658,0.2860219402,-0.4876118724,-0.4718849254,-0.3841294424,-0.1996764872,-0.1707706409,0.3484932835,-0.4157481518,0.2737939118,0.3651559052,0.5479365557,0.2194159882,0.5817950395,-1.1004390723,0.2155640746,0.052795996,-0.2136693482,0.0548492458,-0.1294724067,0.058959204,0.1136239337,0.1009069489,0.0628347195,0.246007891,0.4666210213,0.2889786127,0.5432749744,-0.252400523,-0.4738919423,0.5228424513,0.352797276,0.5758253421,5.1050588368,0.1126977671,-0.2603937851,0.3369180549,-0.0135036684,0.0295711663,-0.0821902167,-0.0136321029,-0.0339284624,-0.23463628,0.1806988369,-0.2837154041,0.1670606881,0.2971265949,0.2553378162,-0.0906851516,-0.2919533444,-0.8322992332,0.0401567502,0.0686666248,0.3515543566,0.0657845892,-0.0514053783,-0.0252549579,0.331232867,-0.1468039892,0.3363426214,0.2970670156,0.738169013,-0.3469291297,-0.0558387969,0.3524981467,-0.0263993018,0.51528793,-0.6962155267,0.3426416408,-0.0446535568,-0.1038000779,7.0862663741,-0.2444183668,-0.491675376,0.3212788494,0.3260871001,-1.2554797804,-0.4437126105,0.0914412233,0.2764430598,-0.1848742892,-0.061956137,0.498081159,-7.3938170125,-0.1876161858,0.2202897713,-0.0275683281,6.4545691263,0.1087976408,0.7078233801,-0.1637073293,0.0773552641,0.1004019367,-2.7595974562,0.1775528424,-0.1315403058,0.0386039049,-0.1646998396,0.2063690007,0.1232407264,0.2034317134,0.2685814476,0.0392592807,-0.2253056573,-0.1787856944,0.0918329503,0.1599748007,-0.3333862913,-0.160047161,0.3264025056,0.0383320098,-0.1895290331,-0.1971293687,0.489711211,0.037886523,0.1024897716,0.1855027284,0.0549252986,0.4167717396,-0.060859053,0.3461723674,-0.0665895076,0.0472230848,0.2307494955,-0.2382068009,0.0371377813,-0.1163885363,-0.2852061014,0.007313878,0.3343643651,-0.2055572519,0.3010507361,0.014165104,0.0548514436,0.1867257981,0.1660354047,0.0994477553,-0.1425188217,0.1413527924,0.202211171,-0.1752656663,0.4779090747,0.3378835731,0.3395628811,-0.1091653425,0.5901610699,0.1111016955,0.5302832473,-0.1950109395,0.0662673499,0.1984936884,-0.1036543152,0.5686053525,0.0931181239,0.2010825321,-0.2365021141,0.336194271,0.4489500987,0.2834958405,0.2609090838,0.3175665517,0.2729987012,0.2796340645,0.1572876717,0.7099791971,0.0544669403,0.6293031645,0.1948514703,0.6907909187,0.0751823617,0.011133559,0.639945351,0.0036687838,0.3594142105,0.3150839803,0.125896164,0.4296302336,0.1708704247,0.205696531,0.1472098322,0.6345788468,0.0912393498,0.4748528034,0.5340287523,-0.1797505133,0.4509869554,-0.1518968945,0.1467231113,-0.048813808,0.1617160692,-0.1783727461,0.1271933485,-0.1304719975,0.2493858396,-0.3648429687,0.3102573175,-0.2132320685,0.1053813948,0.3712143538,0.1696203359,-0.4190902244,0.138333618,0.3815472769,0.0250748075,-0.2371867978,-0.2689099581,0.1241022238,-0.0975526527,0.2600122708,-0.2496079564,0.3065083468,0.1368685582,0.5002860107,0.3788276155,-0.1084946246,-0.3244235599,-0.1902047197,-0.0198623283,-0.164007312,0.2357826475,-0.0004319141,-0.2467377099,0.2223608081,-0.0528765182,0.0191603542,0.5172911387,0.0234703091,0.2921829338,0.1830050726,-0.0311264921,0.1159697344,0.2550618992,-0.2126692825,-0.024802803,0.6487652495,0.2053157902,0.2112644966,-0.1048704007,-0.0347777013,0.2000232454,0.2086635839,-0.2791991293,0.2385861065,0.1023752876,0.25643183,0.1108816935,0.178099514,-0.240349721,0.0512210638,0.1305315921,0.1530225786,-0.2254065225,-0.2350652218,0.0433526868,0.2432815264,0.070068326,-0.0415907053,-0.0083049992,0.2976910364,0.1352635707,0.5401805658,-0.3217721928,0.0671267056,0.1555276227,0.292219099,0.0069706105,0.0376003152,-0.5607593813,0.0135826241,-0.0942424789,0.5775797126,0.1596830348,-0.0618722095,-0.1352998792,2.220517695,0.0433289049,0.3810304164,-0.1809969326,-0.0789704865,0.4689991165,-0.1560058428,0.048797165,0.3168206527,0.0746568227,1.4284370803,0.2028691209,-0.0622145143,-0.2501702507,0.159333076,0.3000076505,-0.204334342,0.240458558,0.2409776438,-0.1664041465,0.3680962827,0.3838699748,0.6490624861,1.4709225693,0.1991656733,0.4887680775,0.0537549978,0.5677172094,0.2353494654,-0.9340991302,0.4628821595,0.2300403083,0.3109746613,0.3487796413,0.5397542073,0.052131283,-0.0902836972,0.2749996906,-0.0509686921,0.0716973758,0.1651129143,0.3250628687,-0.2580448794,0.3251917374,-0.1235866901,-0.026188296,-0.2438787338,-0.0206130831,-0.0737240932,-0.0025071627,-0.0089648624,-0.3269936455,0.4969112698,-0.496250249,-0.5522105942,0.2984288993,0.0736615306,0.1682512996,0.5113612731,0.0304565631,-0.1745615442,0.3844345588,0.1983630693,0.1271642325,0.0432237085,0.2865154624,-0.2806352443,-0.2231879463,-0.1326192122,-0.1407187043,0.3073788195,0.0694285771,0.6837072264,0.3573129526,1.0013293389,0.4977544774,0.2266128504,0.6857362535,0.2994452401,0.0807068324,0.2346542045,-0.0160833302,0.1478262058,0.1249770175,0.3163167592,-0.2160765704,-0.0327893475,-0.0110630834,0.7647620511,-0.2022442172,-0.2245193208,0.0032379672,1.6832567117,-0.6826304862,-0.6329772285,-0.1156808283,0.4666982482,0.4528571753,0.1574204153,-0.0045986093,-0.0292114685,-0.1484050938,-0.2421709408,0.0817107787,0.2952521733,-0.1125115533,0.8071067805,-0.2266195473,0.7526385435,0.1247495556,0.1967594345,0.4322008191,-0.6416770149,-0.3196172513,-0.4972591288,-0.3277767416,4.0087737555,0.28591429,-0.1952040216,-0.1129580116,-0.0403863692,0.3142967999,-0.1398347005,0.0594329309,2.6938990098,-0.0586983199,0.0097524211,-0.4824664462,-0.958976098,-0.175718003,0.3792754515,0.0959525152,8.3962123448,0.0739406706,1.3396573081,-0.1985407212,-0.0408178506,-0.0908915688,0.3609648307,0.2214819018,0.0147721198,-0.3249678512,0.2533268427,0.0043289469,-0.6490996414,0.0518947664,0.3554489579,-0.269259578,-0.3366749518,-0.1811880513,-0.1591621281,-0.0937873004,0.2951231541,0.8857404599,0.1719641224,-0.3602284834,-0.2688664196,0.1277565229,0.016985768,-0.0273574029,0.2707781012,-0.2065015741,0.2850167121,0.4943061734,0.1188931336,0.3484324437,0.3758782526,0.0373024939,0.6423413779,-0.1226510845,0.1232139638,0.0987684659,0.3601929439,-0.0862245825,-0.2883802307,0.1846988238,0.010282927,0.0618739417,-0.2969883067,0.2578718864,-0.2266135328,-0.2866172954,0.3376881459,0.2777997135,0.260850319,-0.0970791241,0.6600960072,0.4195199962,0.6850703877,0.1201046907,0.1340130181,0.2551873625,0.6491666327,0.1835496033,0.1577301011,0.1195356421,-0.1330454707,0.6101808704,0.4778862973,0.5501241994,0.2118874138,0.3441735998,0.3346810388,0.0466767863,0.3585317647,-0.0935604802,0.119512672,0.5250219596,0.1495916269,0.5090656836,0.5620285709,0.2903658089,0.7098446053,0.1482885534,0.6527998032,0.6124552852,0.2716720183,0.3268252061,0.5174266003,0.1906351566,0.0032433962,0.1025704649,0.601237053,0.0382272705,0.4140988292,0.2746580143,0.3887433342,0.2929634758,0.0219221248,-0.0715744246,0.2473840902,-0.2655156276,-0.2871036516,0.3073366407,0.446739962,-0.3029478987,0.0947506119,0.1135089068,0.1806154222,0.0065265845,0.2828232597,-0.0644627008,0.0156189003,0.3837498096,-0.0827453761,-0.2077038174,-0.2278933043,-0.2179150631,0.0228766612,0.1888086431,-0.1915670497,0.2116938833,0.0179570209,0.0224362864,0.0826928013,0.5991272237,0.5810235013,0.3574897948,0.0534122259,0.3490547477,-0.3089878181,0.2721431815,0.1966033664,-0.1439890076,-0.0113729575,-0.1263081201,-0.2665343652,0.6542663101,-0.0977124096,0.3064646016,0.2123088131,0.2706216641,-0.2630763044,-0.1714638982,0.0015361699,0.2627125012,-0.1391968816,0.1367399282,0.096470487,0.3423251663,0.2878623814,-0.3069990056,-0.2137985606,-0.2620593879,-0.327083962,0.1221846974,-0.2189397681,0.0651474517,0.2237281224,0.3588413786,0.3440477971,-0.2079120318,0.0345331264,0.1038573184,0.0385625573,-0.0792069346,0.3025176394,-0.1207646003,0.2163722028,-0.1373462165,0.0063026229,0.2772559758,-0.1721911185,0.330491757,0.1758849446,0.5606531932,0.24565253,0.3120912665,0.3673990181,-0.3001995494,-0.0148187369,-0.2912387913,-0.6897911157,0.1701663351,-0.1068861726,0.1936900907,0.5148856953,-0.2351819915,0.1357844735,0.3049560338,0.3242656331,-0.0326106145,-0.2399611217,-0.029881694,0.293900693,0.2712567716,0.3425518709,-0.1740118807,-0.1204988699,0.1981856511,-0.2622069212,0.1742941755,0.2772262941,0.2303506305,-0.1986729607,0.2407532425,-0.0391757554,0.7026293486,0.0396644761,0.0972929436,0.2199071256,0.6780790036,-0.0126898064,0.3505677535,0.6032918272,0.01458646,0.2812861071,-0.2181621242,0.1576678641,0.2499145667,0.140161139,0.3954605276,0.4668452165,0.3340770676,-0.0234087612,-0.1514215157,0.0743296197,-0.2391780166,0.3103895822,0.0340222787,-0.2007522183,0.3094364015,0.269092731,0.1795755881,0.0296621792,-0.0828547552,0.1941358302,1.4227888247,-0.0142162147,0.3526251047,-0.0395517199,0.2962049045,-0.3555734747,-0.2026785644,0.6994983593,0.3349653258,0.2816242085,0.295603216,0.2136891729,-0.2511783739,0.2110010576,-0.1678810102,-0.025108176,0.0277004501,-0.0986645557,-0.1507828349,0.3126786615,0.1195868354,0.7571608448,0.4773060619,0.3069596019,0.5059478358,-0.225699386,-0.2402697439,0.5456664879,0.5500739733,0.1262901183,0.3719741799,0.2407097182,-0.3198633334,-0.1459835452,-0.185721582,0.1066392181,-0.1994929759,0.2809631201,-0.1532357522,-0.1772440389,0.5596780942,-0.2549439235,0.2722128814,-0.4458585538,0.2977992091,-0.4237121575,-0.4383486399,0.3281384704,0.1255258815,0.3040374264,0.0813235887,0.0826238978,-0.3069645969,0.2631709991,0.1323016192,0.3594712506,0.0926655902,-0.0051677401,-0.4136007587,-0.3142538458,0.1208343848,-0.0719061227,-0.1074816625,0.304656076,-0.1335467937,0.3840167124,1.3387988768,-0.0685872503,0.3396367224,0.0537148787,0.1166485028,-0.315614449,-0.0234789373,-0.1981546325,0.3367789168,0.0128289169,0.0852532936,0.1446155656,-0.0279740488,0.6927060137,-0.1755528731,-0.1227470023,0.2391272445,-0.0117320886,0.1922687067,-0.0985457952,-0.0359889156,-0.1092269124,0.3741333258,-0.2715342058,1.873521142,0.0801730806,-0.1320796765,-0.0524419831,-0.1098125263,0.3760912991,0.4122878176,0.1430899503
   -0.1846552153,-0.2454276498,-0.0763646885,0.1646924553,-0.0817358665,0.2299155966,0.253046274,-0.0037550887,-0.2098505201,-0.0361249456,0.1680301293,-0.1203763551,0.0905632735,-0.1709153992,0.4888239028,0.0521703236,0.7057192321,0.6957961087,-0.2811292538,0.0847554455,0.2386930797,-0.0622190454,0.4004228944,0.0302046217,0.2586824754,-0.0342549798,0.0233757796,-0.2779336567,0.0515620353,-0.1709568883,-0.1874436488,-0.1785737592,0.1064260078,-0.1043278955,-0.2406296481,0.1488239129,0.1680313874,0.0995082593,0.4010617999,0.155471766,0.4461201754,0.182610253,0.2881245335,0.2979192185,0.650387572,0.5082090269,0.2316453681,-0.1602869677,-0.0180905177,-0.0944558314,0.2764595497,0.3954310179,0.2881621418,0.6827062581,-0.1218424164,-0.3495890608,-0.2299817007,0.2524462781,0.0161502499,-0.1955121059,0.3054880218,0.1520401793,0.5918440265,0.6322384612,0.613626319,0.4458786689,0.3350595709,0.2284014147,0.0593174731,0.4141047069,0.4087887678,0.5650074994,0.3897310112,0.129669894,0.3608172233,0.648776944,0.7015962242,0.5288236096,0.4930647684,0.0668765052,0.0380284793,0.3117528129,0.4172752381,-0.1582506736,0.0597276603,0.2542676328,0.1689296344,0.1582120596,0.6693298591,-0.2874527142,-0.3021815402,-0.2813355884,0.3679977059,0.3654437319,0.087679428,-0.073579552,-0.3787579456,0.2361772008,0.100408293,-0.2719447831,0.1416499778,0.1502195259,-0.0153513188,-0.1646262521,-0.2355497417,-0.1999046527,-0.0853165263,-0.4110253933,-0.3339283314,0.5520653687,0.5870169195,0.6663722368,0.0235358673,0.1147437303,0.0823850839,0.2505307898,-0.0249061915,0.1572118249,-0.2871351317,-0.2958479004,-0.0783269261,0.0874107484,0.0421418808,-0.0331840021,0.6877046477,0.2036192981,-0.3226836064,0.3001837103,-0.1592570378,-0.1750263574,0.9485076711,0.1509438714,0.2167373934,0.2972733466,-0.2610984332,-0.3112727062,-0.0206760413,0.0859634596,-0.1211467304,0.0907640892,-0.2753501181,-0.0504518803,-0.0712372098,0.3179472884,0.3847468195,0.3156566896,0.1335939402,-0.1494125021,0.0179086689,-0.0595115701,0.3134919296,-0.3015040532,-0.0611022286,-0.3128844798,0.6391177221,-0.1588159528,-0.3089862131,0.0619206192,-0.1536555359,0.2180285327,0.1493050557,0.2864462186,0.2598131056,0.2968161267,0.2106246091,-0.3079802901,-0.7863701684,0.6999113238,0.3071104712,0.0159469381,0.1101750112,0.2482640911,0.653336192,-0.3798511704,0.0509163818,0.1461761743,0.5167332641,0.5445370495,0.3292962782,0.4396602606,0.3686721763,0.4753405369,0.1955746576,0.5367593157,0.7160014042,0.0707531419,0.6875465679,0.4038601495,0.6933698289,0.4434043161,0.319474775,0.1112093331,0.388249347,0.8016905111,0.1149427383,0.2563540502,0.2991729924,0.4047027496,0.0526000077,0.5985217637,0.5962501729,0.4727521061,0.5438938277,0.6359703794,0.685461484,0.1493424222,0.0696849417,0.4883448682,0.5833284046,0.4125974834,0.5088091116,0.6399070256,0.2705345192,0.1300477767,0.5321084347,0.6960949099,0.1706362224,0.637347561,0.4105792906,0.3118768702,0.6070376749,0.5738890004,0.6858945247,0.0455316373,0.0742782337,0.0320078628,0.1410651685,0.1161120905,0.5319380451,0.0171986049,0.1705129006,0.5233366511,0.4738170557,0.276994152,0.0331399416,0.5914600472,0.1843626279,0.3657630498,0.6734231948,0.1823513839,0.3429566705,0.0744671503,-0.0164670828,0.1241279431,0.1704130872,0.1237610857,0.6103637442,0.5506385496,0.1574215217,0.3463449036,0.2885448704,0.1536506776,0.0981771202,0.0945981243,0.1447326827,0.0794795822,0.6684900737,0.6699146951,0.2175964448,0.1369909771,0.3495525759,0.3822237299,0.7231550696,0.1560284268,0.7044219372,0.3964141706,0.6625189819,0.2600431424,0.2679220077,0.3373861235,0.0225931392,0.186461483,0.1789463614,0.2938377029,0.5044784824,0.2877306905,0.0717416042,0.4174998193,0.6753221308,0.4181125045,0.3494977864,0.5473045394,0.0924586401,0.5805473211,0.1347026001,0.303446036,0.3888516045,0.0665213005,0.1851827234,0.2225254149,0.3968828266,0.14329358,0.0842495472,0.0900071299,0.6731930004,0.1199231128,0.616377646,0.338143942,0.4241805736,0.2330789616,0.2637007474,0.6594818271,0.5691616313,0.3322249172,0.1099112949,0.4027318084,0.4421882299,0.2722917486,0.5174686372,0.6295648373,0.2320549035,0.5243319298,0.6233686629,0.6962095292,0.7109719437,0.1372105281,0.3739649144,0.4837110638,0.4895314215,0.2728846079,0.0418197182,0.4464281194,0.7491600983,0.3334835576,0.2299479352,0.334430705,0.6384069923,0.1405997593,0.61348198,0.1749517317,0.7207719915,0.228423636,0.7172399327,0.3914837659,0.1032184579,0.114810285,0.6123332776,0.1636092855,0.4507805405,0.2958218506,0.730915696,0.2176651663,0.4934915285,0.3426352382,0.3258849418,0.4066881136,0.5334376051,0.5232198224,0.4505886756,0.1009752472,0.5327168859,0.2801981438,0.4612613314,0.7362543845,0.5475958365,0.5224167982,0.3911333037,0.21965645,0.224852176,0.6119160424,0.3695470401,0.699111066,0.2019976186,0.5167967806,0.0992192966,0.6868053991,0.4357016566,0.5536064719,0.5489318818,0.446743612,0.4117745116,0.4406058298,0.3736610905,0.0636619832,0.5029105428,0.5409557143,0.4463997781,0.3240645672,0.1034181181,0.6598253297,0.2184041992,0.2835925794,0.1433819556,0.6272979773,0.7002607635,0.4872312424,0.0511810667,0.6604530383,0.1088516256,0.1667116883,0.7113005745,0.394658025,0.2392211085,0.6601948488,0.024953931,0.0265681502,0.5009748091,0.3803253354,0.6364744516,0.0998719515,0.3637633014,0.5090063759,0.4409315074,0.2015778129,0.1081587276,0.3627272343,0.5819046756,0.120578585,0.3784432829,0.6357691035,0.5471004883,0.7428894285,0.4887100965,0.0541574583,0.6761707367,0.3284307169,0.6209651355,0.5614821458,0.3484990589,0.4856884742,0.6988019335,0.5385984973,0.2575624888,0.2899950482,0.1987354173,0.6434824703,0.4335943154,0.6259160662,0.6870529898,0.281377662,0.1183272208,0.1239736472,0.3985972225,0.3460344153,0.4403369689,0.7067406384,0.7691899085,0.467708215,0.4732284767,0.3422184964,0.7214048282,0.570015484,0.2299379925,0.7068471733,0.6754770183,0.5999793314,0.7469264776,0.603530874,0.3873390939,0.2422401665,0.3270250946,0.052266332,0.3204901016,0.53771206,0.0966759392,0.6682805044,0.7020873636,0.459708216,0.3941778209,0.2791049888,0.5015626856,0.3159413718,0.0663811294,0.3941211181,0.5410874692,0.1116394259,0.1394327993,0.7012401243,0.6700043864,0.2843250045,0.0570290119,0.5314831903,0.6070423553,0.6936414681,0.7109438239,0.4421660031,0.0556189242,0.0850825334,0.4354740064,0.7490904706,0.374485362,0.3088486032,0.3398834048,0.6924377359,0.1642288638,0.262468367,0.1896211201,0.1856122192,0.265908057,0.2325347635,-0.0057393033,0.1051538233,-0.3334030776,0.0218579539,0.3404280001,0.2318567623,0.3290281546,0.6382120229,-0.0991651513,0.1768684196,0.4238455527,0.2774843043,-0.1221659338,-0.0138411653,0.0434516635,0.5093781772,-0.0519372596,0.2026331904,0.5042963415,-0.0652050335,0.3217886584,0.2342996945,0.5483007088,0.5679919853,0.2503537425,0.2553772613,0.2228744244,0.6281990598,0.1454115753,0.4764578699,0.1290798881,0.280214977,0.499408997,0.2725578437,0.4327574618,0.5997256674,0.4827617689,0.1263862625,0.3517413079,0.4796134739,0.435782143,-0.0819414081,-0.0757156533,0.4178851675,0.2272720842,0.5651173723,0.3709430067,-0.0588534595,-0.0598208903,0.5779936412,0.1430068711,0.1894815258,0.4664847758,0.4970418003,0.5661184204,0.2006502703,0.3305812276,0.1023438334,0.4191417633,0.4135797567,0.5765186385,0.4280709793,-0.0074859853,0.3077577237,0.2953695493,0.3485503303,0.4825147088,0.3530357029,0.1866648886,0.1834462254,0.589951194,-0.0556155664,0.356372492,0.300612492,0.2781357871,0.3734390478,0.1394888978,0.6300470503,0.6080597635,0.3872870638,0.1589807266,0.5288020027,0.0264847883,0.6245673366,0.3002839449,0.2894670082,0.4556674027,-0.0431933839,0.609972525,0.3476680633,0.0177799897,0.2369699852,-0.0631637863,-0.0210693148,-0.256075475,0.1082061983,0.2342155199,-0.0694058676,0.1659833251,0.4845337759,0.0950619124,0.6033167249,0.2021329165,0.3726191038,0.3988249763,0.4093918104,0.0605220331,0.4140764549,0.3212374925,0.2038131231,-0.1714502684,-0.0166545068,0.3778668523,0.5244244874,0.393045879,0.0239935516,0.5784668056,0.4620433302,0.2437407931,0.0322471057,0.5300727136,0.5395489914,0.0562069354,0.4233770668,0.5145071888,0.0962708045,-0.1325180078,0.4191641166,0.6252187157,0.3608794039,0.2090200636,0.313857568,0.4466902151,0.2265717918,-0.0462563459,0.5113938943,0.6209108645,-0.0289315764,0.3425046315,0.4002926313,0.5317393282,0.5635403178,0.375071457,0.4013203494,0.0323765965,0.3618066457,0.2118143424,-0.0597360346,-0.0724532055,0.0057518496,0.4954854305,0.019737332,0.1231723587,0.2284380698,0.6192997859,0.4669497917,0.4150863878,0.2282157804,0.1102110594,0.6073403727,0.5483750029,0.4464729764,0.3750833659,0.2823042499,0.1833390648,0.7053745258,0.4881463506,0.5560936389,0.4082873505,0.0031966156,0.6915305002,0.5550306956,0.4086971698,0.1362937533,0.436886376,0.1286760781,0.5142493288,0.1165093179,0.2426598531,0.5971220378,0.4545095324,0.3793806355,0.576145578,0.1596904855,0.0816199299,0.1611276793,0.1283603625,0.1769355866,0.2148237483,0.0783571232,0.089355118,-0.0842497224,0.6768550131,0.256700851,0.6577097299,0.1016485732,0.616036844,0.616540613,0.1254723569,0.5721936247,0.4774246952,0.5282859355,0.5501699399,0.1863000711,0.0512741535,0.16361242,0.1534179429,0.030805145,0.5465748543,0.3985139891,0.5159816952,0.3573710883,0.6665047126,0.5347082159,0.2731075442,0.3250035822,0.5033392324,0.450940204,0.054700873,0.6862374535,0.1955590698,0.5332783627,0.6346786554,0.2823293795,0.5895310238,0.4558514647,0.5313337965,0.6873631739,0.2746045223,0.4046746793,0.0779239237,0.0920518408,0.0253872117,0.5812903163,0.1822758342,0.171925215,0.1957709035,-0.0704505716,0.3281573519,0.5130593123,0.1198128339,-0.0093225589,0.3655184178,0.2449770593,0.620985119,0.3740485987,0.6093620521,0.5927832757,0.1584742431,0.5603534919,0.400403641,0.2095253136,0.2284092887,0.3943300122,0.0683450272,0.4403459956,0.1732068802,0.2202787925,0.6316009514,0.3093881669,0.4878114532,0.621922246,0.4477524707,0.2699478999,0.5273336277,0.2512679012,0.4866798881,0.1391768454,0.5892665877,0.2917261498,0.1178306053,0.5993516948,0.3891685649,0.334159365,0.53580726,0.1197155629,0.1968756753,-0.0682940278,0.5945412554,0.1039340264,-0.0675506862,0.216037723,0.5277399635,0.5222089939,0.3144892649,0.101190949,0.475185732,-0.0615211144,0.4136610742,0.1456211246,0.0478853103,0.4406656283,0.5166826201,0.2608341804,0.1561607833,0.4627287781,0.534666055,0.4957361688,0.5353716892,0.3557926269,-0.0429973817,0.3118760381,0.4964034042,0.6070604785,0.2994553171,0.2132105236,0.4578563149,0.4354034621,0.547041204,0.5443392092,0.4474181911,0.1202034749,-0.0732327938,0.3523818123,-0.2592273022,-0.9126877085,-1.1454367718,0.2587767187,0.0666445621,-1.7052554553,0.1481819228,-18.6305428141,-0.9447134426,-1.4190293021,-1.6007376839,-1.258336989,0.5868810632,-1.4639888686,-1.2178870037,-0.9943898633,-1.3111736555,-2.6168418053,-1.4644604687,-1.2339586518,-1.4124275095,-1.659241232,-1.2829959554,-0.7166473952,-0.9894163304,0.081517057,-0.4292604655,1.6835642762,-0.8944764898,0.6083020816,-0.4926590902,0.3654317097,0.1326729196,-0.6681771463,0.2943598358,-0.4863789097,-0.8779297166,0.3555677302,-1.0888395901,0.2925197182,0.5979561085,0.0776502059,-0.3455142597,0.2348134061,-0.8552782543,-1.4111874353,-1.1854649866,-1.559467601,-1.5360125413,-1.0376716557,-1.2370983112,-1.0394853211,-1.3190948223,-1.2754696363,-1.2097645878,-0.4942792571,-0.6149366794,-0.9059203798,-0.9795125356,0.6257017404,-0.4988319014,0.0011667087,0.4922587584,0.4107511076,0.6369623379,0.1026049033,-0.5455000897,-1.4438203039,-1.6273549459,-0.9275288866,-0.7388557856,-0.8411884614,-0.9152831913,-1.05310357,-2.2832630768,-1.3007123259,-3.5360791064,-7.0952174212,0.4859255973,0.3419337244,-0.8782196018,1.3335086538,0.6659060379,0.53590033,0.1468862454,-3.5238013018,-1.9145873592,-0.6090453021,-0.0621173166,-1.2324301165,-1.2149461117,-1.110359268,-1.2876467745,-1.009940033,-1.2106111172,-6.3761996739,-1.1475181655,-0.9953982939,-1.1961398373,-8.5195579809,0.2410632879,-0.123240091,-1.2041220781,0.2359788747,0.2980880907,-1.1395622256,-1.1578177328,-1.2662592639,-1.1191055534,-1.2006628892,-0.9939878244,-0.9913737039,-1.2794862541,-1.0097544206,0.8859341003,-4.6779936501,-1.2071837436,-0.91720973,0.0215878089,0.0568352626,-1.4536266096,-1.9917481671,-1.1708475613,-3.5291105084,-2.9619151109,-1.311369423,-1.2459528911,-1.100484792,-1.3418018874,-1.4652749429,-1.3720271609,-3.1037418449,-1.7454264347,-1.0617122504,-3.7372426531,-1.3899570736,-1.4716415819,-0.9420545053,-5.3860844538,-2.939912516,-1.2483295661,-1.0788456609,-1.3161891625,-2.1718423122,-1.6580696031,-2.435787476,-1.136100813,-1.7181873093,-0.8513768705,-1.6014131164,-0.9625775717,-2.1678135321,-0.8240174681,-1.3479077426,-1.202333883,0.5277901133,-1.0301596812,-1.4195034303,-1.0627187846,-0.922164253,-0.9399659105,-0.9167865498,-1.1285055632,-0.9773973159,-1.3553271209,0.4653437605,-1.1360696701,0.432374219,-0.8921914121,0.3113260888,0.5081462532,-1.2405289501,-1.4017554044,-0.9209007305,-0.7871375517,0.2740875384,-1.4831805895,-0.9988358,-1.1003104396,-1.3118361559,-1.5545404447,-0.9103744313,-1.2359624013,-1.0040415176,-1.2372710132,-0.9885623558,-0.9173986424,-1.0195068913,-1.4201713969,-0.9729733514,-1.2571992983,0.4885260674,-1.181156554,0.2011452897,0.3039915589,0.2029742283,-1.0162595482,0.0032922846,0.084184436,0.1144551128,-1.4670366122,-0.9254173598,-1.1398789309,-0.9462695987,0.1650177946,0.7043298011,0.2685580216,-0.6204499655,-0.6376491484,-1.1070936837,-0.9816837893,-0.8131682969,-1.1280248783,-0.9125705994,-1.2377339473,0.1478643961,0.0550423461,0.0811900366,0.6412741654,0.3504426542,0.5386805385,0.2916861999,0.327962548,0.1143008585,0.2337619122,0.2362543599,0.6001207519,0.2833394405,0.410489475,0.4046410268,0.6570323293,0.3595413583,0.2894361355,0.6749261719,0.564515851,0.6526445666,-0.5741124346,0.1203639463,-1.0027580054,-0.9587062215,-1.4384882612,0.6249229836,-1.360357683,-1.1096031371,-1.2940239368,-1.1620748164,-0.8437300949,-0.9236436795,-0.9698689112,-0.8863542067,-1.6181327325,-0.9160235046,-1.1858223874,-0.8774872414,-1.3566386391,-1.5022009573,-1.019316236,-0.750413153,-0.9623611438,-0.8275073895,-0.4034960728,-0.1514438213,0.2408980748,0.0087571275,0.2701488385,0.1552401264,-0.3459941598,-0.3647625096,-0.8668244508,-0.8194912039,-0.3699888857,-0.8522563291,-1.0087943977,-0.7835712309,-1.4709810014,-0.825925188,-0.941579964,0.5739143016,-1.4158419026,-1.3100825178,-1.2423913259,-1.0433474951,-1.7431476315,-1.2448794347,-1.4748786629,-1.1718915378,0.5508001466,-1.2886216565,-0.8929471118,-1.4200794379,-0.9787169729,-0.8548092133,-0.5372423214,-0.3847334978,-0.9749820221,-0.657902612,0.0018114997,0.5005677509,-1.3836258193,-1.1837549266,-1.1750426722,-1.062429994,-1.003054591,-0.9891119605,-0.7593944699,-1.3978678299,-0.8333537169,0.1556102502,-1.2645294862,-1.1955531837,-1.1909811472,-0.857198401,0.0914812925,-0.9044576868,-1.1194983423,-0.9285778228,-0.9668478397,-0.8833073081,-0.2187580215,-1.2077163333,0.5241144786,0.4528095406,0.2046032337,0.1270544043,0.377206369,0.0553198042,-0.4402504953,0.3792661568,0.3981537155,0.0800005832,0.4115400526,0.1189347693,0.5734762826,-0.0801227618,0.2912995317,0.3008300718,0.2958535122,-0.0579645769,0.5169005764,0.0659640767,0.2150386309,0.3339139432,0.1393332627,0.0018460276,0.4552490019,0.28342497,0.1739050294,0.0208267399,0.0387854698,0.5981347423,0.5025691704,0.1164375302,0.2890786275,0.6650807196,0.223157879,-0.0187764067,0.2883089287,0.2516676464,0.2305034255,0.0212291497,0.3126658268,0.6249775075,0.4491030692,0.5323450748,0.5676945152,0.2742071371,0.0057135212,0.1060354631,0.5773231232,0.3073803357,0.4537500544,0.373625125,0.5281217051,0.1688120944,0.6375276261,0.5867312117,0.1879927387,0.5906261688,0.1696737253,-0.008736742,0.4344731275,0.0221314837,0.1511728181,0.4129402151,0.4950729988,-0.040758372,0.4899510935,0.2466000919,0.342604847,0.4722274976,0.3442674968,0.0787707914,0.1138758204,0.500168259,0.1655326313,0.014558933,-0.0223773972,0.3944148376,0.3095519585,0.4885315768,0.1522913447,0.6479735405,0.2473394257,0.1228382206,0.3134828903,0.2089669506,0.1344538876,0.1853464941,-0.0044198659,0.2415445797,0.3957801754,0.2120622839,-0.0557026033,-0.0368214028,0.3251797543,0.0594274664,0.3710754786,0.3400387261,-0.3655070497,0.3527453319,0.1610379367,0.1254910532,0.1435520576,0.4129263887,0.6021118182,-0.0191352247,0.1476901681,0.5475871559,0.1985819436,0.2136298075,0.1823784312,0.2179345212,0.5304119711,0.2166920352,-0.2048282221,0.2315840803,0.2840870642,0.1917247029,0.391101189,0.0644058982,0.4496506009,-0.0702921552,-0.099614967,0.12218795,0.4261971077,0.3401147254,0.2758758114,0.3228877375,0.0711331903,0.0119723317,0.5316541094,-0.0747732995,0.1092435556,0.0330062276,0.0523915767,0.2337868359,0.4864506816,0.3220978377,-0.0671250383,0.0564156535,0.091958411,-0.0722051856,0.212296387,0.2200588025,0.2053540373,0.2983703546,0.250189026,-0.0540058618,-0.0855840013,0.002858776,0.1405184667,0.1407660707,0.2157417411,0.3776157835,0.2847795735,0.1168513203,-0.0710814381,0.0658811974,0.4824229013,-0.0764957432,0.0403285467,0.6194928157,0.4939863515,0.3787051118,0.5108548911,0.4545645528,0.4851557198,0.3814619083,0.0240850595,0.6139417618,-0.078960101,0.3588744369,0.1673295607,0.0991013364,0.4560149878,0.0616523963,0.0129425629,-0.0838210888,0.2397559681,0.4419254158,0.3469784,0.0819687889,0.0073717035,0.57431821,0.4933066359,0.0607127523,0.4797336997,0.2927022466,0.500465398,0.5466486861,0.2371005275,0.4454893416,0.0848212809,0.2802489808,0.5090605895,0.0953161516,0.0937220448,0.0639340437,0.6226329739,0.038425331,-0.0460555406,0.2573005761,-0.0357289679,0.2312683906,0.2091601718,0.2497627716,0.1138635008,0.2252235822,0.4069091929,0.5941859015,0.6218300772,0.0425900474,0.3799099759,0.4199800606,0.4220104721,0.5120039134,0.3295274474,0.0206313356,0.5834950169,0.4905334645,0.4193780524,0.45569416,0.655167714,0.2078183138,0.4262024747,0.024660765,0.2456985356,0.4391579869,0.3289076212,0.4372755571,0.2351397162,0.0769371376,0.1657080515,0.1543978698,0.3840255298,0.3390498108,0.6023767645,0.461872937,0.3355704859,0.3066416338,0.4653469947,-0.029242517,0.4261402691,0.2778106665,0.3027736475,0.5026364354,-0.0504460613,0.4607762401,0.6002321271,0.0067468916,0.61519303,0.4995364917,0.4878472397,0.1590707277,0.5899052933,-0.0114319673,0.4159594704,0.3383913403,0.11314861,0.2019027687,0.3186784975,0.5739338556,0.3717777451,0.6240154814,0.5473942513,0.046557334,0.1850644728,0.0357062299,0.3282988177,0.0227537378,0.192229968,0.4596451599,0.0838107931,0.1289906707,0.3226522545,0.3191400949,0.2683788203,0.3996156438,-0.0303609735,0.5891175449,0.3991725208,0.3190048182,0.1944993857,-0.0252425476,0.2478674123,0.6596698211,0.0343235772,0.2280604977,0.0449808894,0.4205933535,0.4826158164,-0.0319266861,0.3380051456,-0.0293119197,0.3745660098,0.4848165793,0.6507960387,0.2211084117,0.6256470185,-0.0100448988,0.2145938216,0.2570171865,0.3501131747,0.4250522749,0.1988162125,0.4746106114,0.4621715015,-0.0000360679,0.380768544,0.605030708,0.248368885,0.3361294431,0.1719450788,-0.061692729,0.4167379367,0.4140039453,-0.0295028676,0.4317668929,-0.4226036506,0.0443424276,0.3678166917,0.0848584616,0.5431729277,0.2720128311,-0.2137937529,0.9703675069,0.0462804446,-0.1698205512,-0.04333341,0.3183842501,0.3870314108,0.2863703864,0.3043396589,0.2380551922,0.2418761646,-0.1041427174,0.1532781688,-0.1656335384,-0.0839033425,0.0075231788,-0.0793593998,0.3345463238,-0.0982990875,0.5180280376,-0.1291443349,-0.4386324505,-0.1920017157,0.6618260097,-0.1564272526,0.681347805,0.081215699,-0.3060807975,0.4863044701,-0.1773813972,-0.2333443539,0.4722298626,0.014954881,0.4708263773,0.1462416775,0.4034290878,-0.4475834151,0.4321559874,-0.3221371152,0.3737370165,0.2947227543,0.1948234785,-0.2917717855,0.3303595614,-0.0780179437,-0.1568342518,0.0677885814,0.3177529808,-0.3243091966,-0.2764515265,-0.0255746738,-0.0709879655,0.3403339687,0.4808078734,-0.0419920527,-0.1168141867,0.4472311185,0.6843136339,0.0993928719,0.37304072,-0.1195700504,0.3422809254,-0.1218367422,0.2918437936,-0.33436774,-0.3267870471,-0.1733874704,0.0445053712,0.28740103,0.110861188,1.9540164235,1.3471597986,0.4446723064,0.433617319,-0.3023326328,-0.3097744765,0.1622691088,0.3585232326,0.5775805755,0.3225040413,0.1804865811,-0.4466433266,-0.1119882447,0.1116772399,-0.0080758346,-0.3260468047,0.4307709544,-0.2330652851,0.0238498005,2.2922310115,-0.2230311799,0.0562009002,-0.245846906,0.8350038802,0.2092396262,0.1736640999,0.3319772866,0.3511820258,0.1463348379,0.3317162656,-0.3371706173,-0.1227854976,-0.3000682741,0.305975966,-0.4143525145,0.1855009559,-0.2596094213,-0.1881347366,-0.3603855955,2.9871242945,0.0618252589,0.1982820396,0.1381151254,0.3676608754,0.1900037914,0.2954287594,0.096004477,0.3341924597,1.5167738268,0.2025592993,0.0750127595,0.0991432064,0.005619751,0.1384761948,0.143591609,0.4104183327,-0.1885379778,-0.1274217898,0.0578720522,-0.2329003566,0.1555578773,-0.0186877591,0.4604443817,-0.0231018595,0.1555599695,-0.2182024775,0.2381983138,0.527013565,0.1144563615,0.2739805692,-0.2397863409,0.1135533061,0.112773528,-0.1980120119,0.0781516348,-0.0626797913,0.0101629267,0.1116259507,0.107547787,-0.2984080363,0.1013387911,0.319965521,0.0987896295,-0.0080219394,-0.4620097243,0.6990992342,0.6798226392,0.086021329,-0.3251815423,0.5453528183,0.5986844611,0.0713046367,0.0204145474,0.3063920854,0.2164318578,-0.1128154548,0.1237026241,0.2463240675,0.0544633364,0.3102073746,-0.2687807782,-0.0669163975,-0.1789433175,-0.1739204225,0.1083738312,-0.034172108,-0.2868916253,-0.2517886779,-0.3251302477,-0.2957159874,0.200501029,0.0861134296,0.1844346871,0.2560328698,-0.2996935409,0.1905737691,0.5109622796,0.584639319,0.1604048345,0.4218199246,-0.0026327092,0.4503345525,0.1233789448,0.3238501851,0.2734442239,-0.1232923768,-0.1144454903,-0.1993994915,0.168029947,0.088422251,0.2798389387,-0.3756701548,-0.3366448085,-0.2642974907,0.0437068038,-0.2774740118,-0.0545591771,-0.2579557186,0.2187127707,0.0825677931,0.5900829169,0.2092462294,0.6252679761,0.2753714063,0.1272271106,0.4770885815,0.4063483006,0.3763872057,0.0532655538,0.0176382296,0.1449829973,0.3953571936,0.3823680165,0.5475758304,0.518901885,0.3976522537,0.6699204152,0.5497398214,0.3084232875,0.7039140146,0.1563580067,0.6558419184,0.0964153182,0.3045332133,0.1992247869,0.1524194983,0.2881770792,-0.0194669003,-0.2244910935,-0.1509408282,0.0401988016,-0.120927489,-0.1635946682,-0.2977389827,0.1304168432,0.1801703159,0.3668814494,0.0043231915,0.3783025268,-0.1414429349,-0.3501840679,-0.1129025826,-0.0266255082,0.140536366,-0.4724010655,0.1269001343,0.3499979419,0.105429997,0.0320257982,0.5441454018,0.0998806612,-0.0866701868,0.1104400368,-0.3441096223,-0.0017702824,-0.0129399189,0.0129085699,0.2882899669,-0.3885917122,-0.1305488674,-0.1166063745,0.4592013413,0.1039153193,0.0402471536,-0.2629991639,-0.1948354794,0.0083657498,-2.8347234124,-0.0008104574,-0.1209315114,0.1988556862,0.0696313967,0.3213732863,0.0432092443,-0.0489795394,0.2409955312,0.0917324239,-0.3553263267,-0.0296930474,-0.0294762563,0.5482569743,0.153688131,0.1034283368,0.1278039786,-0.3038354063,0.2253253262,0.2859714202,0.375538235,0.0359313602,-0.2387678421,0.2291872189,0.650065124,-0.2621633354,0.2061363532,-0.0809626338,-0.2869591871,0.273739275,-0.3062147452,0.0055203945,-0.0583740881,0.1304035045,0.0382222827,0.2255657658,-0.061103744,-1.5129286533,-1.418377925,0.0811151275,0.4155276799,-1.2013428137,0.3053630074,-18.2802054225,-0.8628989812,-1.1996689476,-1.3692472825,-1.4003098311,0.3616008996,-1.4094934566,-1.6552861645,-1.4001458737,-1.5712911131,-2.1338392091,-1.3562509159,-1.2966942331,-1.2161750733,-1.7085924373,-1.2206662881,-1.0499511885,-1.3150066449,0.5998891665,-0.4203834997,1.6539411112,-1.4902044244,0.0451688771,-0.4542061509,0.3995269903,0.1830341235,-0.7300884683,0.0127350081,-1.0011901859,-1.1302261353,0.0600200783,-1.2389306573,0.5428350542,0.0997484498,0.5454608774,-0.3374308668,0.1826686566,-1.5054492146,-1.5285570598,-0.8443378484,-1.5283339704,-1.1807631088,-0.9876080927,-1.1154781313,-1.2491610845,-1.1101099649,-1.191153524,-0.8303183233,-0.3412471025,-0.5109139075,-0.7452932836,-0.7994935253,0.0746167485,-0.431926757,-0.0508910623,0.3498611911,0.5115468298,0.0809071863,0.6281143259,-0.568917757,-1.2207496572,-1.1339434788,-1.2813930703,-1.107323228,-1.0501556387,-0.7473573389,-1.4411038517,-1.6855592561,-1.2953151437,-4.0401194698,-6.7405431795,0.3270274682,0.2126404946,-1.1663688688,1.3587430672,0.2931419078,0.1600341994,0.5369609597,-3.061321983,-1.7152173623,-0.5305987506,-0.2276237244,-1.107437616,-1.3035472871,-1.0665917328,-1.7498123194,-0.8151482667,-1.0759507135,-6.2311112696,-1.2695520004,-1.4944924757,-0.6470630802,-7.9179662706,0.6102090501,-0.5956548454,-0.9710805078,0.1065207169,0.2288011632,-0.8060934736,-1.0959585498,-1.3602730851,-1.2175131629,-1.2733075486,-0.9791785648,-0.9886175188,-1.2612031913,-0.8008161621,0.5366646276,-4.3684699167,-1.0449039692,-1.1341855102,0.6408540605,-0.0999518916,-1.4771316605,-1.5287817284,-1.0231882953,-3.0504810585,-2.9697654258,-1.5459227718,-0.9412515304,-1.4817467253,-0.956199253,-1.500294208,-0.8483130965,-3.3254419059,-1.3512931983,-0.9198104892,-3.8473539713,-0.696570754,-1.51625758,-1.0985633161,-5.2721001646,-2.5209675186,-0.9626513525,-1.2118087893,-1.6861985681,-2.6270222967,-1.228279874,-2.6814155154,-1.5432065905,-1.2790846684,-0.7130700989,-1.4563708312,-1.2980735413,-2.2314516978,-1.3889850187,-1.5583119068,-1.1928207554,0.344986838,-1.4007269051,-1.2277115787,-1.2792103197,-0.9098018254,-1.4961629631,-0.8856172772,-1.2233732785,-1.019346906,-0.9802508401,0.4724404817,-1.1762456667,0.5604976682,-1.1534045557,0.0437038236,0.3082197475,-0.9225921343,-0.8203821373,-0.8970870073,-1.2557932172,0.5314750508,-1.2223426895,-1.4650466442,-1.2816854039,-1.1038742275,-1.0316661082,-1.2944564007,-1.1914659071,-0.99816994,-1.3335773781,-1.5571310461,-1.1783290763,-1.4573084289,-1.4359908393,-0.9619792862,-1.5914696476,0.4944699443,-1.5699547543,0.3817485763,0.3697291672,0.4993209424,-0.8573684189,0.0518405056,0.6475510311,0.0186564381,-1.5014057094,-1.4980176082,-1.2705342162,-1.0409346301,0.5721227742,0.2986207366,0.331227423,-0.3513767681,-0.5779596667,-0.8783230327,-1.0117752249,-1.2201388283,-0.900580086,-1.1481099986,-0.7205740403,0.2147282109,0.223907777,0.528984431,0.0104219206,0.4035217313,0.2342013153,0.095978921,0.4749836271,0.7110048444,0.2844273763,0.1632985265,0.5207981997,0.3507158589,0.5832665165,0.1340734167,0.4446520676,0.0530088412,0.6654839782,0.3030016312,0.5827315253,0.2005559392,-0.6111366741,0.1427321184,-1.0884117965,-1.0415460781,-0.893522467,0.3327490328,-1.2308853229,-1.0138356145,-1.033055433,-0.796077231,-0.7623197034,-1.3518498742,-1.2912230437,-0.9469780893,-1.374866847,-1.2016681411,-0.7935253164,-0.7683840707,-1.2724418477,-1.2525856405,-0.564778403,-0.567247199,-1.0201911996,-1.1334674983,0.1354520275,0.1563985718,0.2576721583,0.4651286608,0.0413083742,0.1953461289,-0.6483702092,-0.726900078,-0.6523264789,-0.7588233834,-0.4104898472,-0.3908007328,-0.8919199718,-0.4022130398,-0.9118781063,-1.4677422776,-0.9476393488,0.3827331567,-1.3841875987,-1.2660983147,-1.2686420919,-0.8584742345,-1.6215366344,-1.2395555707,-1.0120935921,-1.1281029179,0.6695225218
   -1.2633458715,-0.91174222,-1.49459135,-1.2189022507,-0.5021670892,-0.3478773446,-0.842851379,-0.9657468027,-0.7090913624,0.2964698582,0.4605541928,-1.037941115,-1.3425887144,-0.9493890112,-0.9657726984,-1.0395839464,-1.0416404999,-1.2642703905,-1.2326219511,-0.8207288071,0.1878227333,-1.4280528917,-1.4189200111,-0.8800525512,-0.9853960528,0.5085425853,-0.9435521777,-1.4297890406,-0.5361724785,-1.4524079695,-1.3875312461,-0.1198996146,-1.9919150614,-1.1605063361,-0.9946858478,0.241519217,0.1412946922,-1.7703326497,-0.3087303337,-18.7637568324,-1.3782793383,-1.5491168662,-1.1636883214,-1.3234781878,0.6028806854,-1.8357912149,-1.7025405717,-0.7761542773,-1.4751890432,-2.3715792442,-1.3832049577,-1.4210129319,-1.4822515615,-1.1285257342,-1.3838861067,-1.0292788643,-0.9274127334,0.0797934009,-0.2658465076,2.0075664769,-0.987440649,0.0217540029,0.0265608114,0.5677168632,0.3002402491,-1.3258008751,0.3821550102,-0.8046379256,-1.2383059222,0.6255994196,-1.4247389422,0.148921732,0.1989369198,0.4284233286,0.0629800093,0.4173852196,-1.2483343813,-1.3950077229,-0.9731431655,-1.4744142448,-0.8857202285,-1.5564199251,-1.4741136669,-1.2921496197,-1.2351678275,-0.8080283224,-1.3645518658,-0.9493052572,-0.3391694522,-1.3415897428,-0.901593512,0.3228346721,-0.4713158168,0.1837843397,0.6694720838,0.6744065785,0.2276200848,0.6461969854,-0.5421318318,-1.276410419,-1.6015562335,-1.3482638304,-0.9447472628,-1.2404406874,-0.6588559174,-0.8165789619,-2.2787792997,-1.1254403052,-3.5796701946,-7.1050993423,0.1027388914,0.3444510726,-1.0595043609,1.3716219945,0.4453496503,0.6488331923,0.6766955869,-3.3891053584,-2.0803568181,-0.4948746499,-0.6264519678,-1.4330485755,-1.1849790674,-0.9461627566,-1.2113026022,-1.1155677049,-1.4918126146,-6.4324764294,-0.7560541327,-1.3868796454,-0.5401817127,-8.2633176689,0.2697497532,-0.2241161389,-0.9684780895,0.2695837714,0.2941257144,-0.5934069147,-0.8839419936,-1.2339828524,-1.350566453,-1.5131129522,-0.9024239004,-1.4517748584,-0.9569557827,-0.9600657075,0.7063557994,-4.4966473535,-1.2166210503,-0.8647818346,0.122383621,0.3115543958,-0.9795649759,-1.6647852201,-0.9957470475,-3.4816272783,-2.7208434858,-1.0933395255,-1.14617234,-1.7155928781,-1.2570439617,-1.6671426069,-1.2454410052,-3.1225575566,-1.2256493866,-1.3242354365,-3.3000397539,-1.1831800836,-1.0463679632,-1.395335753,-5.0909219764,-3.1478295522,-1.5195237736,-1.0464791337,-1.2053192189,-2.2753167573,-1.4850319082,-2.688415004,-1.7546539628,-1.3777603073,-0.7067712856,-1.1045024185,-0.9482087754,-2.1166210379,-0.8124966361,-1.8259482242,-1.4459698231,0.1540418019,-1.0232260343,-1.6519750886,-1.2609989474,-1.0178963628,-1.3619094168,-0.7818945227,-0.91795052,-1.298849536,-0.8507375048,0.396149745,-0.7397586869,0.3727008984,-1.3930208796,0.3472435252,0.5130210958,-1.3159276109,-1.4143595348,-0.8808662754,-0.8474774115,0.415087086,-0.8982013104,-1.5208332593,-1.2207894582,-1.5560128308,-1.295791629,-1.3917415271,-1.0409894665,-1.1041721019,-1.1436985085,-1.3333780172,-0.9846899788,-1.5085538123,-1.503921165,-1.0142972551,-1.4588566805,0.0057358453,-1.2388148466,0.035793328,0.2851506403,0.7031957154,-1.4215171513,0.240052406,0.0087685937,0.4492614684,-1.0586108152,-1.4047809603,-0.9645675981,-1.2408923817,0.6582929492,0.5284968752,0.454445322,-0.7620156396,-0.7410643766,-1.2473372719,-1.3395160481,-1.0792814655,-0.7550909461,-0.6876884883,-0.8848162774,0.4561604619,0.0277915769,0.0037774713,0.1219821468,0.0805670098,0.3031638099,0.4680532081,0.2978886953,0.6905476546,0.1292107595,0.1241303711,0.6435465983,0.2205695493,0.1778432096,0.6073603411,0.7078274988,0.3670174535,0.0875295451,0.3124597514,0.1061081089,0.5184738949,-0.6711981116,0.1601158876,-1.362506974,-1.2945207362,-1.1208348977,0.4249641694,-1.0611771647,-1.1517128474,-1.0850646908,-0.9164651433,-0.8645338553,-1.3668019963,-0.96387489,-0.7218581782,-1.1444949604,-1.3860733263,-0.826184779,-0.8090043267,-0.8502732672,-1.1962543014,-0.6071735971,-1.0981839286,-1.3011909736,-1.3688567958,-0.4057408245,-0.1170837453,0.3888256661,0.6019729764,0.4871653938,0.0501572161,-0.5779241485,-0.8226262861,-0.676459371,-0.9184503905,-0.8400493395,-0.5618125077,-0.5845335633,-0.5688375996,-1.1246483426,-1.1129980064,-1.4370367384,0.3025977414,-0.9546207356,-1.3978030335,-1.3916738362,-1.4471742754,-2.0359679947,-1.2203795952,-1.1818979897,-1.4701015492,0.2976958766,-1.4214502141,-0.8234477901,-0.8483005718,-1.3933185391,-0.8196475957,-0.3803429047,-0.3458505825,-0.9260707335,-0.5278342557,0.4763397253,0.4672156129,-0.9462488381,-0.8329440116,-1.3204067509,-0.874308901,-1.0700397893,-0.741320984,-0.9905587382,-0.77713511,-0.7215657986,0.6917589116,-1.4918038497,-1.125106574,-1.119109221,-1.2692063461,0.3156801257,-1.0900682646,-1.0396477913,-0.4966324355,-1.1303980581,-1.1654723728,-0.3595855605,-1.5542236904,-0.0581506515,0.1288007265,0.0986344524,0.6403222367,-0.3313908508,-0.3388254739,0.6237143251,0.1201651488,-0.2876884881,-0.298306235,-0.0764859662,0.6058472603,3.6793179656,0.2695206383,-0.2025505497,0.0505865246,0.417877798,-0.1466523504,-0.069963998,0.1775940674,0.3841657878,-0.0736226131,0.1684899056,0.1455478589,0.1295545009,-0.1052707747,-0.4431018192,-0.2053798045,0.6028324157,0.3018667445,0.1928810296,0.342862288,-5.2280826298,0.1672305538,-0.0421683283,-0.0002859194,0.1019998483,-0.331430746,0.2780925202,0.4011230973,0.029539628,0.1889241663,-5.3054289677,-0.1937994661,-0.2137581738,-0.2925646467,0.046561433,-0.2867613091,0.1852175267,-0.0988064125,0.0924368769,0.1331036964,-0.2381289816,0.3317847759,0.0968179089,-0.2002103389,-0.1242796822,0.1120273458,0.0634020188,-0.3544051221,-1.9352789218,0.1690498347,0.5971435072,0.2565838807,0.3755336051,-0.2373338054,0.1502548547,-0.5934866612,0.2241139004,-0.1823810715,-0.1251058989,2.4393992351,-0.2536914521,-0.2648228582,-0.201993276,2.6628096821,11.2815043428,0.0766414692,0.4361890642,0.2342073498,0.0083165115,0.5600816018,0.4710346501,0.3181087889,-1.7427678673,1.6191425015,-3.2127408823,-0.4377589275,0.1854068297,4.5741671555,-0.0893542307,-0.595144178,1.5550469009,0.1438306632,1.8493151769,0.0439221776,-0.0914802544,0.3685799621,0.8335360343,2.7766356622,-0.334381237,0.2646966312,0.0797629047,0.7057762119,0.3279688529,-0.2833460236,2.3281330682,-0.1533517756,-0.6873859552,-0.0607065497,0.2549663159,-1.6587749347,0.2879892529,-0.3683844739,1.880269147,0.2473820092,-0.1477196011,0.0608747766,-3.5675610271,-0.0971568264,-0.3221590366,-0.29686813,-1.3826513129,0.4802718607,0.6816921762,-0.2617167132,-0.0606113298,0.3508106771,-4.3981392423,-3.0461563586,-0.2464835946,0.1752774841,-0.1962599188,-0.1232751203,0.1034306754,-0.1092677424,0.7269874231,37.0791845572,0.8074021744,0.2438131785,0.0491296004,0.3542741775,3.4308590318,0.1416115701,0.1663940209,0.0583719601,-0.09613037,-0.0164528661,0.2441283645,0.000183159,0.5640982846,0.2575787219,0.7301401423,-0.0222079614,-1.2412453283,0.292678793,0.3182306592,0.0493682643,-0.1909363217,3.1931952158,-0.0152500204,-0.3152895952,0.1729401701,0.3358293091,0.3618668815,-0.2375907552,0.3217669979,-0.27541192,0.3777563667,0.5098866796,0.0944440669,0.350132961,0.2127163637,0.2034372984,0.1142988746,0.2458694461,-0.0226947464,0.2932863554,-0.1651633473,0.3750508779,-0.2490274472,-0.254298863,-0.2922358152,0.168293407,0.1967171102,0.1121232874,0.0199052516,0.0340898072,0.3198557321,-0.2752440159,0.0627638607,1.4637743092,0.2963302238,0.4868804117,0.5254291339,-0.3024340094,0.268800785,0.1197750082,0.4737381558,0.0609352702,-0.1673042033,-0.1470853996,0.110288166,0.5115703224,0.6930863077,0.4077563395,-0.0942716595,0.2544755099,0.0191626487,-0.0790432188,0.3528303564,0.2597000204,-0.1861100969,-0.0275066645,0.6238798634,0.234008658,0.451831767,0.5948011459,0.6074317389,0.0902774522,0.2922019805,0.3470140528,0.1715803778,0.0575801742,0.6068128575,0.0211544159,0.5280520556,0.2464933341,0.0748337212,0.3130103428,0.338217405,0.3505601676,0.5887073514,0.4206087414,0.0509054744,-0.1996237653,0.5642833943,-0.2486146958,-1.2180826051,-0.0673811542,0.3302403136,-0.2079280478,-0.339550144,-0.0858199351,-0.0264146206,0.0983941495,-0.3287763584,0.1844549026,0.2667943152,0.3656025639,-0.2998983118,-0.1265069419,-0.3313399183,0.3053306171,-0.3041668822,-0.074329758,0.0016870963,0.3499350975,0.1524569993,0.1858354747,0.0625043489,0.0032844754,0.3712184855,0.3611026701,0.5322668328,-0.1917443175,0.0366194501,-0.1147415554,0.2015590368,0.0370569456,-0.0679752572,-0.0980828415,-0.1973812531,3.4013385561,0.0079816415,-0.1109751965,0.3795505142,-0.1167154293,0.3054200674,-0.0632584999,0.1049076874,-6.6952777965,0.2584436355,0.0432137314,0.0046792359,0.1361139745,-0.1764923513,-0.0297672951,0.2486500087,0.0500801391,-0.3333929496,-0.2885744584,0.0698032618,-0.3109756094,-0.0714850713,0.0692584085,0.6221300894,-0.0279461178,-0.160678498,0.2008524646,-0.2747712184,-0.0929477024,-0.0144406569,-0.2553351182,0.296934177,0.3298631656,0.6414550286,0.2021213146,0.2332329528,0.1481242945,-0.0401544821,0.4608545182,0.3309941896,0.1685868165,0.3435367131,0.2376181282,1.4170728081,0.1345132364,-0.9001979657,-0.2786139338,-0.3584318944,0.0434986025,0.5804478467,-1.9383608724,-0.3040744071,1.9903718826,-0.2990137953,-0.2349902495,0.0166554503,-0.0901803014,0.1563004754,0.2049150802,-0.2510268166,-0.1694342551,0.2029393212,-0.1284605554,0.4341299603,0.1398610025,-0.056738142,-0.7575873269,0.1516985117,0.1509860693,-0.2198677728,0.2182060783,0.0804076589,-0.4130580156,0.2582960235,0.3352741842,0.0937211096,0.6716481565,0.538950667,-0.5359935954,0.2225107276,-0.6442986386,-0.0633856985,0.4108822389,-0.1529904866,0.4062242599,0.1838490414,0.2984980579,-0.17854913,0.2030440556,0.0247900066,0.2744725427,0.2385777897,0.0059153282,-0.0851365846,0.3370490688,0.050270981,-0.1576961054,0.0538077464,0.0028268754,-0.1315884251,0.3129576368,0.1247423401,0.0711892256,0.9729145813,0.4418482032,-0.0178393102,-0.252560777,0.342817048,0.567325016,0.4245890002,0.0191100094,-0.0239310457,0.2864741228,0.0437748098,0.1765482671,-0.0061374356,-0.157226237,0.3364536655,0.25370117,-0.2072973477,-0.092279841,2.0564240956,0.2650483856,0.3899445207,0.6751722152,0.1605865146,-0.1324756519,0.6489140638,0.1270585289,0.2728203607,0.6574621468,0.3623113769,-1.0707443447,-0.7415646747,-0.0235590279,-0.1333025524,-0.2977310907,0.2925557396,0.2782159777,-0.0009509147,2.1491364079,0.2490184818,0.2654139563,-4.6374944253,1.2128447266,7.2781570835,-0.2681483336,0.1029274947,0.5662534937,0.2975050273,-0.1959979153,-6.4356924535,0.8173214861,-0.1359314435,0.2227453979,-0.6318908662,0.224577768,0.3520342975,-0.276448048,0.1986309759,1.7247942878,-0.2678060999,-0.2915209588,0.2819159457,-0.2714120411,0.2006115517,0.1646722883,0.0421718851,-1.3850106152,0.439893986,0.3362663202,0.068422335,0.2279866166,0.1719470017,-0.0388327162,0.2236359009,0.1684052237,-0.0320650743,0.3479994334,0.5873624317,-0.295449657,0.1868268736,-0.2957963221,0.2669634766,0.1591646397,0.3740939575,-0.1614724018,-0.1897038896,0.9564407233,-4.452181855,-0.2270323244,-0.0301481374,-0.0349075709,0.332499344,-0.2288737392,0.1713784768,-0.6151140316,-0.0117146281,0.0495776267,0.115599195,0.1453139842,0.031603426,0.1231451865,0.050193596,0.0568661095,-0.231206892,0.0364219169,0.3610297172,0.278727581,-0.3209966098,0.2686371693,0.0063409128,0.4627757627,0.1168369652,0.6893273956,0.0189862987,0.3165279539,0.0426725472,0.2160907489,0.374805949,0.1576662727,-0.2332146828,0.065780488,0.3096890424,-0.1363679336,0.2738159629,-0.1012152522,0.2072287359,-0.219265407,0.3852555815,-0.2586506778,-0.0048345754,-0.0094337949,-0.0213129197,-0.303052524,0.1817404142,0.2865542536,0.0530426638,0.5015799814,0.0832000807,0.3069493912,0.0944267997,0.2097335804,0.5707251586,0.690795921,-0.1382408557,0.2109056852,0.0129244393,-0.0552708961,0.1056034251,0.0501484945,0.3014908673,0.1439885867,0.2313940626,-0.2150938916,0.1189019573,-0.0139216735,-0.2857884964,-0.2945947436,0.2491313868,0.1838003038,0.3751197466,0.1018976476,0.6272311242,0.0297978265,0.2359520683,0.0397324459,0.6699671156,0.6460209201,0.1446885508,0.6247181891,0.4024757362,0.0375204098,0.297813208,0.1897221374,0.6683668076,0.5523459469,0.6346110279,0.3417803414,0.6222496589,0.2739764528,0.1071201875,0.5607874675,0.3740646647,0.2979434205,0.0765588829,0.6722496425,0.1553722756,0.1169364459,-0.1714145379,-0.0984526117,0.2830886507,0.3479097332,0.2845134165,-0.0103714838,-0.2836648636,-0.0411680117,-0.2619239149,0.1212190928,-0.3091810559,0.3233722058,-0.0360652085,-0.1602623632,-0.0999130255,-0.2417825335,-0.4125860936,0.0075949065,0.6809896714,0.3591710404,0.6092325232,0.6724672716,0.2685385367,-0.2670800232,0.0059212414,0.1618220748,-0.1035168357,0.0662450445,-0.1260971637,-0.1247859256,0.0045124781,-0.0714734873,-0.2700518921,0.473111388,0.1639763458,0.3201735651,0.0099099902,0.2276918344,0.0263358564,3.1252162574,0.307719413,0.1981557005,0.1375743559,-0.1522020716,0.2086744144,0.0869850037,-0.3049664221,-0.2730977061,-0.0701495992,0.2012531676,-0.1605200252,0.1012184473,0.6277822311,0.2437118436,0.3092914428,0.3218371715,-0.2247215651,0.3574597532,-0.3137729501,0.3204160813,-0.0428314134,0.1495233904,-0.0289999194,0.6833213496,-0.1710850958,0.2642418924,-0.3268317078,-0.0903540427,0.6800486918,-0.1648918201,0.2320770797,0.2020854775,0.0397895013,-0.1394501647,0.3182270528,0.2062791978,-0.137825328,-0.2368369707,0.2564269312,0.3342674886,0.1038296804,-0.4637479576,0.6584028891,-0.0403167408,0.0918705315,-0.1817333152,-0.0282481565,0.3843535202,0.04977206,0.4009970203,-0.1860748703,-0.0269612529,-0.1309909243,0.1286384991,-0.2404699341,0.0451452043,0.0568213202,0.1171237529,-0.1548438642,0.3001256114,0.4381115777,0.0630202936,-0.6666929052,-0.3079621444,0.1193967113,0.151297889,0.0076527744,0.6453463615,-0.1596399072,0.4807674138,-0.014835071,0.0921389615,0.0996562732,0.0061700174,0.6446213991,0.4349806124,0.1172050857,-0.0455746002,0.023824851,-0.3142947569,0.1237510302,-0.2285169204,-0.2399519337,0.057344576,-0.1076276417,0.1135475764,-0.3006511031,0.3426003376,0.2184602843,0.119475644,0.2119887503,0.0095124134,-0.083829472,0.312282647,0.7044366157,-0.3779719343,-0.2677982746,0.1372828112,0.6197204812,0.6644143519,0.2471413071,-0.3020117197,-0.2148424575,0.281486395,0.0006396162,0.1321263392,-0.3233196543,0.2338315988,0.0617171076,0.1817760539,0.187174433,0.9752540566,0.6021027084,0.3143488216,0.1929710546,0.0582588256,0.9926681357,0.3062891116,0.5663733135,0.636738078,0.2319562128,0.3924993874,0.2921512691,-0.215194929,0.3177814589,-0.1494244347,-0.1852049962,0.0441679371,0.207245857,-0.31942601,0.4084604133,-0.2932973097,0.1237202348,0.2546719739,0.8335812564,-0.2921480497,-0.1112738544,0.2479623917,0.0088393145,0.6441049354,0.1425195238,0.2000594254,-0.1054533266,0.0155489037,-0.1031194671,-0.0140021945,-0.1366914445,-0.1848947016,0.2003564821,0.0649642731,0.7075355701,-0.315209229,-0.1816348232,0.2171849585,-0.0984640872,0.2115269236,0.433188758,-0.3228398224,0.656567956,0.5000647551,-0.0159245576,-0.2543035463,-0.1519413855,-0.1372557232,-0.196101761,-0.3056871363,0.2311771605,0.301711224,0.0671940659,0.5862925889,-0.1629185087,-0.0411479412,-0.1414654443,0.1403282747,0.1865873569,-0.1780833155,-0.2643936635,-0.0795326212,0.2305639503,-0.1969983392,0.2435944615,-0.0127752933,0.3763303291,-0.1701291582,-0.2300754197,0.3247229009,-0.3851881611,-0.2175250658,-0.1448736847,-0.1742531309,-0.24736526,-0.0785452393,-0.0052800393,0.1215100088,0.2601280054,0.3685133257,-0.1173875784,0.2717224143,0.0103265212,-0.2596713168,0.4127938839,-0.1406894882,0.2916000759,0.169604105,0.1187705693,0.248692307,0.223321305,-0.1018597062,0.3798974678,0.1308371937,0.0501299591,-0.0035878794,-0.0061811146,-0.1746081447,-0.1747013131,-0.2033453931,-0.1187522175,0.1176414119,-0.2974218014,0.0488159866,0.1806988256,-0.203257104,0.0579589582,0.1617445612,0.032653508,0.1090683879,0.671943865,0.2020365215,0.6432777881,0.2282509032,0.2497464411,0.096135631,0.3991440124,0.2752715137,0.6070716897,-0.2722605764,0.2380838533,0.3000748732,-0.2075908169,0.0201613108,0.0363137627,0.5921097242,0.2716376723,-0.3444252285,-0.2458260761,0.0513451356,0.0711783784,-0.3338914691,0.262149279,0.3555481991,0.5334354211,0.0795194742,0.3460387554,0.3675227785,0.1022512979,0.0834890297,0.6176314034,0.370048854,0.2186285664,0.4492059232,0.1417081791,0.5401029974,0.0785536106,0.6393007491,0.3886340693,0.3523808736,0.2021791527,0.0885993318,0.1003252293,0.3091444802,0.0681871156,0.292449973,0.5524141991,-0.2708576366,0.1671329602,-0.2728024606,0.2733307683,0.1412287535,0.0235239043,-0.2980279131,0.1097644351,-0.3147337946,-0.23778482,-0.1649037091,0.1321818619,0.3503199536,-0.212666002,-0.020296299,0.2714490016,0.1694523826,0.0109468231,-0.3092557491,0.3217144096,-0.0848207099,0.0350477282,-0.0964071093,-0.2004420481,0.1228831618,0.4248987854,0.2774553707,0.1079106527,-0.1723048921,-0.0896279781,0.1902162521,-0.0669511698,0.1714897009,-0.2074346832,0.197902455,-0.1597205947,0.2524457326,-0.1345237866,-0.2162488235,0.3151139471,0.2413157098,0.0924807225,0.1815083451,-0.0844665228,0.3692228244,-0.2953395672,0.0821896979,0.0426423079,0.2807191327,0.2092933903,-0.2904094442,-0.3106592542,0.1781811571,0.052748161,-0.3798570415,-0.1453539722,-0.3762812256,0.3209812011,0.217026669,0.3431693358,0.1295469861,0.3382497443,-0.3169984564,0.3321300123,0.1936876926,0.1048271998,-0.1782825498,-0.0434255382,-0.2212509811,0.6076231854,-0.1968592861,-0.2728685845,-0.0259340448,-0.0280499015,0.0763679256,0.3551470725,0.3758565846,0.1301049807,-0.2299654174,-0.1082517141,-0.0792908469,0.0935184542,0.219221473,-0.3057463222,0.417467694,0.4002691707,0.0358818044,-0.1971226235,0.3390358271,-0.0912827827,-0.0773526991,0.0404217471,0.3625299307,0.2888708118,0.0599772611,0.265903033,-0.8753383734,0.3049961417,0.5502761941,0.0744932957,0.2547096634,0.2975240537,0.0814565774,0.013056083,0.0156377478,0.0267069775,0.6397158109,-0.4448742452,-0.4937054738,0.0079387322,0.6259966059,1.0273180684,0.158232585,0.3880446355,0.0291815654,0.4576117745,0.1698531764,0.0440480698,0.6466447524,0.2560944182,0.5411777888,0.5903252048,0.2738711059,-0.416035751,0.0158210413,0.0160528109,0.0961748403,-0.0092994979,-0.2880572281,-0.1714969139,-0.2056634812,-0.1242940898,0.2596277854,0.199387759,0.1458551176,0.2673200309,-0.0991527167,0.1439221165,-0.2166402395,-0.1441052152,0.2165806007,-0.2124720403,0.0472231138,0.4918401154,0.3124278595,0.3163988361,0.6561027635,0.254305451,-0.1906254927,-1.0638957366,0.0242976476,-1.2651610728,0.0247201846,0.2664515412,-0.0022240937,0.1096953389,0.3520064493,0.0962880614,0.1254909359,0.5888809532,0.2176601916,0.4600876556,0.8444861091,0.3203391807,0.0512680104,0.2113127622,0.446275184,5.9576210542,-2.2029927684,-0.0009743579,0.3014961554,0.4215034005,-0.1661215816,-0.1389490171,0.0867967721,-0.2334548224,0.8356336512,-0.4082307064,-0.2175701596,-0.228068625,0.4077115204,-0.0951311669,-1.5297091508,0.1396432615,0.4151672833,0.5891726813,0.0597940724,-0.399463597,0.0348232063,-0.2758690592,-0.2126892323,-0.6305993054,-0.0542485381,0.1857250463,0.0485750626,0.1549458606,1.0638141402,-0.14870545,0.0386133473,0.5394614796,-0.4486149405,-0.186567548,0.3538047042,-0.2180348636,0.6183034249,0.488475382,0.2500946038,0.3164352301,-0.1792367372,0.2900850237,-0.0654920975,0.3577952134,0.3690504719,-0.2477805827,-0.2694560532,1.1627276884,0.2648878793,-0.1516293223,0.5060898335,16.3715360022,0.4124317948,0.3280431925,0.2818305242,0.2729513078,0.054549995,0.3162213358,0.2737298249,-0.3040623466,0.3691478262,-0.0872103327,0.2598732169,0.1309402865,-0.4507015592,0.0426380547,-0.1253946018,-0.1016724919,-3.5614120259,0.0717742174,0.1258112157,0.3835905515,-0.3447213694,-0.2883947594,-0.379391175,0.0717971573,-0.0772149343,0.3078102935,0.2858027146,-0.0026523652,0.4094248466,0.0439984307,0.0903886529,0.5083856987,0.0348076104,-0.8440765092,0.0735051856,-0.3379610518,0.2603916327,-0.203947306,-0.0924655172,-0.2337966971,-0.3112689318,0.0877437775,0.008461431,0.1576983465,-0.2982716998,0.1840994147,-0.2690473161,-0.0332394504,-0.2889562869,0.0449640852,-0.1575654349,0.1681072804,0.600544919,0.7028275963,0.3287832435,0.6122173208,0.6454932971,-0.0663798281,0.6685301055,0.4860871546,0.0461533027,-0.0548245307,-0.1188557245,0.3128424063,-0.172068414,0.332231376,0.4918555494,0.6427522503,-0.2891930843,0.0172135552,0.1365000807,0.3486766473,0.2638793899,0.0108121787,-0.1225405365,-0.1263068658,0.012024097,0.4498373045,0.5178847746,0.4984258224,0.2191622913,0.5478925446,0.3261687709,0.2411958419,0.6492981977,0.0560597806,0.4682602381,0.2298506719,0.5767536731,0.6526057073,0.3136331673,0.411642938,0.4335838021,0.52793654,0.3398069419,0.4798322114,0.354440023,0.2353843071,0.1461281555,-0.0941609774,0.1820374644,0.15754138,0.6332389687,-0.8747400229,-0.1682573771,-0.8892656147,-0.2776432751,-0.4237714874,0.200184688,-0.2733874091,-0.2467344065,-0.2565678637,-0.1989899214,-0.2636874687,-0.0172044419,-0.2354574331,0.161430852,-0.3054132907,-0.1690084791,-0.1002142619,0.1059323374,0.083190531,-0.3876636482,0.1036337325,0.4176626759,0.1019178687,0.0491663938,-0.0648456603,-0.092312928,-0.1357317789,-0.2795991002,-0.2050447915,0.2310093261,-0.0417587418,0.1049831791,0.3546980462,0.2590445483,0.070162338,0.1013005343,-0.324718476,0.0451993884,-0.1427559916,0.2414127295,-0.0078731798,0.6913156785,-0.2804278586,0.4196395496,0.2619742621,0.1712194136,0.0956710388,-0.0212437662,0.1577267805,0.3034225772,-0.3494545598,-0.2271651629,0.171454775,0.2313062614,0.2719564414,0.1163369504,0.1733835268,-0.6537186893,-0.2459477865,-0.2809150907,-0.8167828098,-0.2451735216,0.1987538615,-0.2512057166,-0.6828359491,0.0742563499,0.2407032759,-0.2771584865,-0.5841061157,-0.6091771782,0.3759500869,0.0840386106,-0.2659474385,0.2724340454,0.3102473075,0.2680362094,0.1792188572,-0.4154950171,0.072040356,0.0301336225,0.1842244451,0.7039284636,-0.1989794203,-0.4469700569,2.4155459477,-0.0082929625,-0.0615092596,-0.1692484646,0.0026937465,0.1021364567,0.3858621867,0.1885409518,0.0084445439,0.2376579781,0.0647185197,0.3552794606,0.3334392089,-0.1889142351,0.1248921266,-0.1425692474,-0.0937379501,0.096006626,0.2576470565,-0.7079478485,-0.0743466416,0.0256482946,0.2519266393,-0.3683406609,0.3344368847,0.3783156395,-0.2151216711,0.0359030498,0.0967492829,0.2719905221,0.1586894738,0.3180029592,0.457695884,0.2719495436,0.1391018682,0.2935395811,-0.7316119947,0.2474850619,-0.3059596329,-0.2698671314,0.3446708718,-0.0234198875,0.2524054448,0.1977045211,0.2704193036,-0.1603400093,-0.0341199344,-0.1373620693,-0.0124585897,0.1264348659,0.0668314318,0.0505485369,0.0413177353,-0.0903224964,-0.5725707696,0.4002974625,0.2025764082,0.4624494716,0.2236434547,0.0239852403,-0.3252564783,0.1786854251,-0.2229136625,0.0797554937,0.2843775788,0.3532050857,0.113267753,-0.0201869315,-0.3009011161,0.0652715683,0.4200411886,0.1236965759,0.6129605995,0.178706096,-0.2426704057,0.6933952562,0.14464795,0.6275170453,1.5018422778,0.0529340645,-0.0586259873,0.1932831806,-0.2795933268,0.2886274816,-0.0382683552,-0.0766155471,0.3145850952,-0.0465912131,1.8554459065,-0.3543965461,0.2676451485,-0.1782912511,1.0459321372,-0.3016807158,-0.3553095383,-0.3545649565,0.252976309,0.3903804396,0.0094321875,0.1208977663,0.2368319729,0.048107107,0.3754729398,0.0932957424,0.0457995952,0.0783399515,0.0049777542,-0.0980642068,0.1315514175,0.3488670051,-1.0517204968,0.3772450817,-0.326999742,-0.0318028657,-0.2591825108,-0.0815926588,0.4586412352,0.4299183042,-0.8580754285,0.2904618552,-0.2423492525,0.0740303877,-0.0263623447,0.1428146927,0.4380392564,-0.1873924009,-0.3139992718,0.0027030572,-0.0856905447,0.0113808264,-0.2884492926,0.0269575321,1.4073735711,-0.192577567,3.7879725982,-0.2203911075,0.197016876,-0.1933047156,-0.0285622363,-0.0846976289,-0.1888690127,-0.1391296285,0.0677226803,-0.0095397879,-0.5321110757,-0.1919954989,0.1228691571,0.1291941925,-0.2237729337,-0.3226998998,0.0423793449,0.2398746161,-0.2169781534,0.1482941518,0.1814452695,0.0469419228,0.2221795896,0.357599119,0.7102375121,0.1751699201,0.1296425849,0.1530621907,0.2098771162,0.4401198334,0.0731261193,-0.3017705349,-0.2370099811,-0.3013739954,0.0324475712,0.0222695217,0.1690359462,0.0015902044,0.1025303866,-0.0276537869,-0.202812476,0.3289643158,-0.0251720479,0.1253023761,-0.2096968006,-0.1168125385,0.0931932957,-0.2712053722,-0.1044185408,0.3485487409,0.1856536928,-0.0464549144,0.7114054224,0.3299081535,0.2105511019,-0.0302312086,0.2302528807,0.2368938456,0.2579571687,-0.0557091364,-0.2723070494,0.0505410216,0.2305399387,0.6317488649,0.2444028809,0.3856802854,-0.5489851915,-0.5902728635,-0.1246156834,-0.0507789654,-0.2978940655,-0.020438558,0.0667609175,-0.2353322236,0.0440341571,0.314539919,0.2443328838,0.4220591113,0.0877082539,0.6877067786,0.346065154,0.0167299341,0.1085467276,0.3965299569,0.3620160363,0.6594478902,0.5522311517,0.6805776784,0.323574062,0.3124222474,0.5118172003,0.3534577434,0.2680679781,0.1451481836,0.2779277673,-0.5178777299,0.3881100318,0.029169229,0.083587926,0.2265563651,0.0801832812,-0.1772332412,-0.2352244243,0.0165194966,0.0653382677,0.1842924611,0.310781707,0.1934024542,-0.4658431883,0.0348115752,-0.3086624085,0.332717095,-0.1919947926,-0.2956173867,0.0352846482,0.1032661496,0.2531652507,0.1755012713,-0.0812736825,-0.1728288966,0.1476636441,0.3858609823,0.6526352066,0.12484078,0.1512288266,-0.2028850637,-0.5247105086,0.0816303252,-0.0519252087,-0.4893871811,-0.349505332,-0.4423713489,-0.502188258,0.3676254747,0.1816522488,0.2965709551,0.3653309907,-0.0756961984,0.0708513765,0.0168051641,-0.217340566,-0.0820444013,-0.1376191586,0.2871658704,-0.0297749923,0.6262907138,0.020070488,-0.0835385916,0.0793672562,-0.1968041665,-0.2922748242,-0.4454463301,-0.479532704,-0.4655857736,-0.5038287156,0.5185964629,0.5593826134,-0.1905088213,-0.1907081065,-0.0568524377,0.1420176394,0.2287057661,-0.0980230359,-0.2141586202,-0.2239869309,-0.0639650089,0.6947157728,-0.2502139545,-0.1430433877,-0.1334960366,-0.2657134913,0.4446186035,0.2193361942,0.2979682334,0.1528345836,-0.2116437411,-0.1967852744,-0.3140685056,-0.1781998639,0.6447848615,0.0379258874,0.6254247045,0.5815488632,0.2160230307,0.0947824302,-0.2889893044,0.2210996686,0.5757485932,0.6272655877,0.1297909372,0.0852306601,0.3877122211,0.0462988906,0.3566185604,0.1586734505,0.0049521647,0.4576452236,0.407065368,0.3196818785,0.583009928,0.0744224448,0.6227218856,0.2226664859,0.2056813873,0.4655151175,0.6250361915,0.1092419363,0.5127876547,0.2239639792,0.6026617295,0.538264708,0.6995033936,0.20477977,0.2994090291,0.3984913647,0.5730986984,0.6652964923,0.5032979505,0.4750692053,0.4093914574,0.2643780291,0.5714599518,0.0928039973,0.4442693004,0.2247898323,0.296523676,0.6808022111,0.0894049588,0.5338941778,0.572834333,0.1410131858,0.6131527924,0.5209752456,0.7342198284,0.5767308158,0.2912749096,0.4270101747,0.254183886,0.5640887164,0.409377549,0.5142874107,0.3970460038,0.15427405,0.3018111948,0.414411394,0.2289189422,0.4154507843,0.4712527964,0.285773488,0.6005843457,0.1644743262,0.60394501,0.69567335,0.5982445054,0.2415995081,0.1859504074,0.4819687485,0.2477265075,0.2397708193,0.5305491523,0.0705651019,0.6327101383,0.3385164168,0.5766240681,0.6692396392,0.3871891317,0.5914715658,0.1483432709,0.2590155204,0.6890076737,0.5389117904,0.3954744438,0.1969595926,-0.1098303861,0.4574610696,0.5602586589,0.54801099,0.2980788201,0.4742880226,0.2941054931
